alex_net8/conv2d/kernel:0
(3, 3, 3, 96)
[[[[-6.55633062e-02  4.28384095e-01  2.32927307e-01 ...  7.15361238e-02
     3.12955588e-01 -1.18092947e-01]
   [ 5.04949808e-01  4.62274015e-01  3.20514411e-01 ...  7.61439130e-02
    -2.96790004e-01 -4.49859887e-01]
   [ 8.18473927e-06  3.19583654e-01  1.36189396e-04 ...  5.46424557e-03
    -1.92842484e-01 -2.72893965e-01]]

  [[-3.10169667e-01 -5.49583994e-02  8.91900361e-02 ... -2.78290242e-01
     3.12514752e-01  1.63752675e-01]
   [-1.08942436e-02  6.93971887e-02  3.67748469e-01 ... -3.92864078e-01
    -6.76229447e-02 -1.40986323e-01]
   [-4.43153590e-01 -6.02339692e-02 -3.91493440e-02 ... -3.32081676e-01
    -1.17140494e-01  2.11496711e-01]]

  [[-1.65837303e-01 -4.58377540e-01  1.03774793e-01 ... -1.40213892e-01
     2.89068073e-01  1.29851639e-01]
   [-1.16969205e-01 -5.03294528e-01  2.91225106e-01 ... -2.72271007e-01
    -1.63691506e-01  2.04148054e-01]
   [-4.79290068e-01 -4.99032676e-01 -3.15514430e-02 ... -3.62470239e-01
     2.48815402e-01  5.62869549e-01]]]


 [[[-1.25847757e-01 -1.43122628e-01 -8.99742823e-03 ...  1.69724554e-01
     9.93856713e-02 -6.68748170e-02]
   [ 7.43451893e-01  6.81436341e-03  1.12137161e-01 ...  1.94154814e-01
    -5.90314090e-01 -4.77560192e-01]
   [ 2.12306038e-01  5.12456410e-02 -5.46180867e-02 ...  3.37524325e-01
    -4.87593174e-01 -3.82191986e-01]]

  [[-2.09916025e-01 -2.45772690e-01 -8.57425928e-02 ... -4.26022738e-01
     2.24675521e-01  6.26587421e-02]
   [ 4.14656311e-01 -1.27801582e-01  1.61507010e-01 ... -2.72685885e-01
    -3.91416937e-01 -3.14339072e-01]
   [ 6.22749189e-03 -1.40298933e-01  9.42918006e-03 ... -1.87365532e-01
    -4.42653984e-01 -5.43183126e-02]]

  [[-1.83214352e-01  2.41031587e-01  2.39536494e-01 ... -3.06451172e-01
     2.27452010e-01  6.30173236e-02]
   [ 1.71191633e-01  1.84925377e-01  4.93955880e-01 ... -2.74545789e-01
    -3.61974418e-01  2.74077594e-01]
   [-1.39502242e-01  3.08654569e-02  2.40000799e-01 ... -3.52157772e-01
    -6.00752085e-02  6.18673742e-01]]]


 [[[-2.24078417e-01 -5.37704825e-01 -3.57993096e-01 ...  5.50508127e-02
    -6.00338764e-02 -8.17209184e-02]
   [ 3.31123173e-01 -5.60143232e-01 -5.70482612e-01 ...  2.65282303e-01
    -2.94364661e-01 -2.55749375e-01]
   [ 1.33649595e-02 -3.38262916e-01 -3.36212605e-01 ...  3.12798917e-01
     3.77075672e-02 -2.39740282e-01]]

  [[-3.43977213e-01  1.62467077e-01 -6.59459770e-01 ...  1.58307761e-01
    -3.21871229e-02 -1.74069092e-01]
   [ 3.87917608e-01  1.24363132e-01 -5.92122436e-01 ...  3.42252970e-01
    -7.00671792e-01 -4.12346780e-01]
   [ 9.98888239e-02  1.59533292e-01 -2.67713666e-01 ...  2.58062989e-01
    -3.04576337e-01 -1.25439033e-01]]

  [[-9.19144973e-02  3.86811972e-01 -7.47706071e-02 ...  3.53942394e-01
    -7.11510405e-02  1.17577657e-01]
   [ 3.59450549e-01  2.19240472e-01  1.49827421e-01 ...  4.33413535e-01
    -7.61723816e-01  7.70174041e-02]
   [ 1.27256081e-01  1.85168222e-01  1.61830351e-01 ...  3.87807429e-01
    -2.29022980e-01  4.08418179e-01]]]]
alex_net8/conv2d/bias:0
(96,)
[-0.00496498 -0.4955441   0.107807    0.24721876  0.52576596  0.17418812
 -0.31361413  0.49002934 -0.11476517  0.4370619   0.23287502 -0.08776408
 -0.11997085  0.04128153 -0.12988436 -0.03443727  0.17973173 -0.41072202
 -0.11975957 -0.21459123  0.11300839 -0.15283775  0.04790496  0.4307345
 -0.24659428  0.44851765  0.41820818  0.06244764  0.28963086 -0.16138786
 -0.1757643   0.27427918  0.34399825 -0.04355713 -0.1317276   0.09801895
  0.2176938  -0.15157892  0.6098746  -0.04883332 -0.30048656 -0.22822969
 -0.36138767  0.15454325  0.18440874  0.4397242   0.02435931  0.11713293
  0.55895495  0.15581885 -0.00840544  0.18939114 -0.0331373   0.27455842
 -0.26044306 -0.19645497 -0.3773269  -0.14952755 -0.0203361   0.2548772
  0.36083743 -0.23486818  0.12245477 -0.31339538 -0.0534142   0.2825566
  0.2631826  -0.24656026  0.01697201 -0.7226245  -0.174127    0.41992816
  0.46430773  0.6108736   0.12830162 -0.6879113   0.40974426  0.0557344
 -0.07920508  0.3155585  -0.18710963 -0.6345701  -0.27520522  0.02402347
  0.24398917  0.26099852  0.21969168 -0.07494667  0.33603406  0.31575894
 -0.08541436 -0.17381437 -0.00322025 -0.03161891  0.23484029 -0.17174357]
alex_net8/batch_normalization/gamma:0
(96,)
[1.230778   1.0272112  0.84521073 0.15071477 1.066159   0.38441196
 1.4686137  1.1221849  0.88004196 1.0533295  1.0765151  0.85564905
 0.93785733 0.91066456 0.91055864 0.83568853 1.2301196  0.63210404
 0.50819945 1.0347878  1.0420794  1.2947185  0.7923034  0.84033215
 0.89131546 0.57467216 1.3783604  0.76504725 0.92557585 0.8679478
 0.37162358 1.4684381  1.2224209  0.78558767 0.9709506  0.9459102
 1.3664314  0.4985896  1.7922225  0.72184    1.1811689  0.5869262
 1.3787962  0.90601516 0.55810887 0.78343654 0.7431455  0.9339597
 1.3736892  0.21759756 0.81910455 0.55690044 1.1205939  1.1218027
 0.984287   0.7385367  1.2709032  0.9764135  1.3115925  1.2224201
 1.0425725  1.2049904  0.96455145 0.46245378 0.77762675 0.8675618
 0.9843178  0.45192286 0.7179471  1.2568252  0.870944   0.72045255
 0.9007803  0.5945337  0.8748521  1.078576   1.179464   0.7006471
 1.0017042  0.6552562  0.58015907 0.7379696  1.5093664  0.8561024
 1.045375   0.6692929  0.9253584  0.27491277 0.7199889  1.2023569
 1.065937   0.82247245 0.8621351  1.0744219  0.9369203  0.68546754]
alex_net8/batch_normalization/beta:0
(96,)
[-0.34024844  0.56069714 -0.8198097   0.06347127 -0.7381267  -0.40825176
  0.18499725 -0.07480583 -0.6693536  -0.22021078  0.12550616 -0.6917273
  0.05374102  0.20520432  0.13100578 -0.10856555 -0.1703854  -0.8649049
  0.27351794  0.3370459  -0.80411583 -0.1971647  -0.15895025 -1.1907058
 -0.7985879  -0.6213238  -0.8773618  -0.62784374 -0.5016621  -0.9445673
  0.14584272 -0.15092261  0.15390418 -0.04940555  0.33063442  0.23968121
 -0.91394603 -0.10870984  0.15304658 -0.36558795  0.1254118  -0.21601789
 -0.8335857  -0.5015357   0.14628372 -0.4008783  -0.6783111  -0.503654
 -0.60337347 -0.02012347 -0.24349031  0.11390953  0.17785144 -0.13106848
 -0.8259534  -0.1266136  -0.92154694 -0.07615147  0.0663918   0.27877477
  0.39125434 -0.36730954 -0.27353102 -0.34250513 -0.12719923 -0.426182
 -0.04147137  0.13295956 -0.5492413  -0.17882876 -0.70017743 -0.50659364
 -0.76254374  0.00990812 -0.7564955  -0.2627062  -0.14888756  0.28860295
  0.52298    -0.20111051  0.15777782  0.20017846 -0.04024186 -1.1631881
 -0.6947739  -0.20185514 -0.34163415 -0.44989172 -0.7434236   0.3624145
 -0.3063015  -0.54042244 -0.69661486 -1.067808   -0.7938561   0.17487946]
alex_net8/conv2d_1/kernel:0
(3, 3, 96, 256)
[[[[-0.13026871  0.16003208 -0.3043455  ... -0.04623561 -0.0388756
     0.15888828]
   [ 0.10763039 -0.10165776  0.16845074 ...  0.17394048  0.05602068
     0.37862355]
   [ 0.3042934  -0.44363707  0.15323885 ...  0.09333    -0.43166342
    -0.03895095]
   ...
   [-0.3961228   0.10133938 -0.3947992  ...  0.2509015   0.06927022
     0.2668456 ]
   [ 0.2737828   0.7384989  -0.37775892 ... -0.46130916 -0.2190408
     0.39939398]
   [-0.01897579  0.240305   -0.0538271  ... -0.37296364  0.11896002
    -0.14962448]]

  [[-0.09690292 -0.3832763  -0.14359571 ...  0.25294188 -0.368309
    -0.34747985]
   [ 0.41266108 -0.04284212 -0.0909668  ...  0.23446341  0.03925074
    -0.2544336 ]
   [ 0.00425345 -0.51719934 -0.04193118 ...  0.1667866  -0.30635622
    -0.19335102]
   ...
   [-0.03989046 -0.19030795 -0.38041905 ...  0.17875546 -0.41337448
    -0.16560315]
   [ 0.04103299  0.60268956 -0.15944098 ... -0.5458651  -0.28010687
    -0.08089907]
   [-0.58438355  0.05095098 -0.35109872 ... -0.05652132  0.36751333
    -0.46189114]]

  [[ 0.04233314 -0.3267318   0.08323964 ...  0.14376125 -0.23972768
    -0.6753309 ]
   [-0.13040857 -0.30350465  0.43210062 ...  0.2457414  -0.07347127
    -0.13924597]
   [ 0.33099172 -0.07560423 -0.43703306 ... -0.360598   -0.23808673
     0.12895638]
   ...
   [ 0.33508763 -0.03221978 -0.35706267 ...  0.19668424 -0.20628983
    -0.77633685]
   [ 0.12479243  0.5078775  -0.18370816 ... -0.15088314 -0.3306642
    -0.27418154]
   [ 0.17316732  0.39832166 -0.03857443 ... -0.5071249   0.34483182
    -0.08110553]]]


 [[[ 0.00127899 -0.29065755  0.08342694 ... -0.47755265 -0.01265796
    -0.00154406]
   [ 0.0290447   0.31698218 -0.19606912 ... -0.16058421  0.24572845
     0.40014225]
   [-0.11395196 -0.08462428  0.07181065 ...  0.16015045 -0.12152933
    -0.07685256]
   ...
   [-0.07166368 -0.19702539 -0.16673112 ... -0.03711686  0.19937
     0.16207919]
   [ 0.16372393  0.23387045 -0.45630398 ... -0.43517342 -0.1750344
     0.22179376]
   [-0.45833045 -0.24763264 -0.24063236 ...  0.35485867  0.2070336
    -0.2133329 ]]

  [[-0.04497549 -0.860827    0.05891884 ... -0.19582352  0.05723875
    -0.44252765]
   [ 0.41907617  0.17021784 -0.16517292 ...  0.01726154  0.3591163
     0.1520094 ]
   [ 0.04069145  0.11329981 -0.23603347 ...  0.13301681 -0.66171384
     0.08249962]
   ...
   [ 0.01589946 -0.43230042 -0.263061   ... -0.4041682   0.4424714
    -0.11251105]
   [ 0.08436722  0.0911267  -0.44284588 ... -0.18911316 -0.39634335
    -0.05507488]
   [-0.5312508   0.02740845 -0.59266996 ...  0.37699232  0.2828254
    -0.28958932]]

  [[ 0.14025518 -0.41294158 -0.06265133 ... -0.26745528 -0.48508888
    -0.31192747]
   [ 0.23472437  0.03359176  0.09266926 ...  0.05522447 -0.24859759
    -0.6622428 ]
   [-0.29763025  0.31575373 -0.8326988  ... -0.24116914 -0.2368234
     0.09077352]
   ...
   [ 0.2657569  -0.11985918 -0.14365083 ... -0.16467582  0.29302078
    -0.22792703]
   [-0.29495746  0.00793909 -0.23975052 ... -0.2886419  -0.357473
     0.17540887]
   [-0.62346065  0.16314973 -0.06083889 ... -0.14739822  0.57419544
     0.09622072]]]


 [[[-0.1399211  -0.0445398   0.25666225 ...  0.22018956  0.4759517
    -0.10027029]
   [ 0.189997    0.3295821  -0.37768763 ... -0.05146341 -0.16449675
     0.32783204]
   [-0.42157513 -0.31533602  0.04177329 ... -0.08481952  0.21566749
    -0.44148168]
   ...
   [-0.35651067  0.18702571  0.21546355 ...  0.33342665  0.6008468
     0.04760192]
   [-0.29967755 -0.164929   -0.72393817 ... -0.26459566 -0.1795276
     0.17991848]
   [-0.2764111  -0.1833953  -0.04720299 ...  0.12279885  0.20271254
    -0.2344211 ]]

  [[-0.20594403  0.06146507  0.02159391 ...  0.01355923  0.04301332
    -0.10389477]
   [ 0.21538241  0.13449375  0.15953971 ... -0.24185094 -0.00531687
     0.24066143]
   [-0.67812043 -0.13072243  0.13816178 ... -0.2748362  -0.06018623
    -0.37004519]
   ...
   [-0.36682156  0.22469142  0.10124072 ... -0.04611428  0.40142545
     0.21457593]
   [-0.2972791  -0.3427206  -0.54256725 ... -0.52039695 -0.34167245
     0.14108258]
   [-0.37621394  0.25505796 -0.66035795 ...  0.20821302  0.02631788
    -0.24135107]]

  [[ 0.02633553 -0.1320526  -0.05302448 ... -0.15648119 -0.27490762
    -0.12108642]
   [-0.02892923  0.1426299  -0.23409039 ... -0.29714203  0.28024372
     0.1744703 ]
   [-0.57635194 -0.37491658 -0.05978814 ... -0.09051719  0.14285412
    -0.02977045]
   ...
   [-0.31150106  0.14142315  0.01261214 ... -0.07165871  0.37368143
     0.09699483]
   [-0.41005138 -0.5646607  -0.31724438 ... -0.6072771  -0.45077127
     0.26532337]
   [-0.2829189   0.11905905 -0.467572   ...  0.03051326  0.3632381
    -0.3059801 ]]]]
alex_net8/conv2d_1/bias:0
(256,)
[-8.80839583e-03 -2.43432112e-02 -1.93662029e-02 -1.52665109e-03
  2.98223235e-02 -1.45020196e-03 -9.38402582e-03  1.65191211e-03
 -9.71124135e-03  7.85846263e-03 -1.29748052e-02 -1.53252622e-04
 -1.58160850e-02 -7.82421418e-03 -1.51002435e-02 -4.51936312e-02
 -1.29410280e-02 -9.38722305e-03 -8.68611597e-03 -1.23312976e-02
  1.90272667e-02  1.15006203e-02 -2.14151591e-02  6.76571904e-03
  1.76296365e-02 -1.06824487e-02 -5.42799989e-03  6.84148399e-03
  1.31556476e-02  3.25606056e-02  3.13171409e-02  7.63976760e-03
 -1.46448603e-02 -9.39158082e-04 -5.35450364e-03 -1.46325305e-02
  2.40701064e-03  3.27300793e-03  4.10487652e-02 -1.56229790e-02
  2.36410666e-02  4.12433669e-02  1.03351763e-02  1.34268142e-02
 -9.57719516e-03 -5.55866584e-03 -2.85481196e-03 -2.09823484e-03
 -5.50125493e-04 -9.95263923e-03  1.36406971e-02 -2.30568578e-03
 -2.07104832e-02  1.97120081e-03  2.53377575e-02  1.97849609e-02
  1.62547715e-02  7.48571102e-03 -8.53430945e-03 -2.95709074e-03
  1.59319155e-02  2.37531587e-02 -3.67552065e-03  1.62524208e-02
  6.05245261e-03 -1.33053754e-02 -1.03986925e-02  5.03987912e-03
  2.00136099e-02 -2.73933392e-02 -3.85017623e-03 -1.44878905e-02
 -1.48514770e-02 -1.95662621e-02  1.95694715e-02 -2.58410582e-03
  2.20922083e-02 -5.44893881e-03 -1.35369375e-02 -1.23069767e-04
  2.75905989e-02  8.10193922e-03  3.80452685e-02  3.18635404e-02
  4.06864844e-03 -5.58638806e-03  9.51502565e-03  8.46920162e-03
 -7.04896776e-03  2.43449751e-02 -3.35700554e-03  3.45596811e-03
 -4.61797509e-03  2.24409308e-02 -1.12895686e-02  1.27226929e-03
  2.87029822e-03 -1.33684836e-03  8.95650685e-03  2.09277198e-02
  4.92097484e-03  2.54730624e-03 -8.23918171e-03 -1.44346245e-02
 -3.73192281e-02  1.24370062e-03 -4.15233150e-03  2.84912903e-03
 -4.66645928e-03 -4.28152317e-03  1.09265056e-02 -8.45811423e-03
  4.51805145e-02  1.26085328e-02 -3.12177725e-02  2.94929161e-03
 -3.66784539e-03 -6.68530818e-03 -4.82644420e-03 -2.66813077e-02
 -1.19625581e-02 -6.87004393e-03 -1.86939258e-02  1.16929375e-02
  6.98224409e-03 -4.79191821e-03 -2.98552364e-02  3.49847571e-04
 -3.99290444e-03  9.12184827e-03  6.61601312e-03 -2.26707831e-02
  5.34209888e-03  1.76578909e-02 -4.66660485e-02 -8.34743958e-03
 -1.20098507e-02  7.60039780e-03  2.74005923e-02  8.19290150e-03
 -1.59742553e-02  2.20032083e-03 -1.54939080e-02 -9.12158284e-03
 -5.74393244e-03 -1.15917260e-02 -1.22894570e-02  2.06609117e-03
 -4.40634862e-02 -5.48873609e-03 -4.95723914e-03  2.17281878e-02
 -4.97073401e-03 -3.01362779e-02  4.53344919e-03 -5.33063430e-03
  3.16747278e-02  8.89829081e-03  3.01144971e-03  1.84923764e-02
  1.26501806e-02 -1.31472182e-02  6.83153467e-03  1.27546191e-02
 -8.41299165e-03  1.58871692e-02 -2.84531228e-02 -3.58050801e-02
 -1.03584137e-02  5.46598248e-03 -2.20441688e-02 -9.85625945e-03
 -1.21950954e-02  5.21870388e-04 -7.14594964e-04  7.12354435e-03
 -4.25203610e-03  2.19639614e-02  9.79409460e-03 -4.65631997e-03
 -1.31967769e-03 -3.32388518e-05 -8.27781763e-03 -5.46059990e-03
  1.09788543e-02 -2.11711265e-02 -4.96225199e-03  5.05971629e-03
 -5.16154766e-02 -2.18822584e-02  1.09236054e-02  1.95853598e-02
 -2.39677057e-02  4.72712405e-02  1.26008503e-02  1.04205951e-03
  3.59965605e-03  1.68031249e-02  3.49009559e-02 -1.72808208e-02
 -2.06691232e-02  1.60016362e-02  1.12734479e-03  1.13759108e-03
  1.16423173e-02 -1.35630043e-02 -1.94918679e-03 -5.58110885e-02
  4.35707672e-03  5.40486863e-03  1.54749649e-02 -7.03838374e-03
  5.86707843e-04  9.22516547e-03  3.27825150e-03 -4.06639725e-02
 -2.09566895e-02 -4.24260087e-03  1.43978782e-02 -3.01906583e-03
  5.05823875e-03 -6.44059805e-03 -2.01497544e-02 -3.31359473e-03
  6.25983393e-03 -2.02997178e-02 -3.69002740e-03  2.01190170e-02
  3.26828621e-02 -1.65885855e-02 -1.07367057e-03 -3.55262775e-03
  2.05640886e-02 -5.42003196e-03 -3.51519161e-03  6.32542511e-03
 -2.24333107e-02 -3.05720735e-02  4.33244416e-03  1.39245894e-02
  1.95406023e-02 -2.74129608e-03  3.76474746e-02  3.00385039e-02
  4.49269265e-03  8.37519486e-03 -5.06928796e-03 -1.78407039e-02
  2.74344115e-03 -2.06139255e-02  1.35158887e-03  7.55983870e-03
 -1.79821886e-02  4.23112139e-03 -3.04930098e-02 -1.66765647e-03]
alex_net8/batch_normalization_1/gamma:0
(256,)
[0.38236976 0.5297349  0.5056625  0.34668922 0.567573   0.55022186
 0.33746898 0.49551305 0.36898503 0.4611753  0.44308117 0.43874526
 0.46005258 0.4867938  0.51039904 0.3541303  0.5208198  0.47989362
 0.39181694 0.4911046  0.5083287  0.3590813  0.49057013 0.48963615
 0.38660142 0.5456857  0.4551954  0.3849667  0.3692475  0.31926912
 0.43740955 0.43139407 0.507785   0.47204047 0.45893702 0.43623573
 0.36270934 0.50819063 0.5198767  0.46303317 0.29225197 0.37177312
 0.24762155 0.33788913 0.524938   0.46940568 0.46343392 0.3966854
 0.30945575 0.47505513 0.4550361  0.3823596  0.47714382 0.28588608
 0.5311379  0.49707532 0.46439832 0.55337703 0.34958738 0.26384777
 0.48013315 0.3979992  0.44044995 0.45846555 0.50588125 0.50158674
 0.36968714 0.32889703 0.36890504 0.3346733  0.4478481  0.5348664
 0.4775042  0.48269984 0.36752316 0.45793074 0.60610783 0.4866536
 0.4948424  0.45748338 0.51282907 0.31649607 0.4907111  0.43238536
 0.4103092  0.5013613  0.43829918 0.38917187 0.44492912 0.3871497
 0.5034099  0.34981763 0.32502466 0.40732312 0.45452678 0.4563431
 0.5524973  0.5068923  0.35200602 0.41720653 0.44255    0.52884084
 0.23435645 0.275821   0.43316364 0.52669    0.4523168  0.47289833
 0.36915854 0.4227215  0.5306296  0.52376825 0.38625616 0.55058473
 0.55728686 0.49396026 0.44650453 0.45959297 0.47342905 0.4800805
 0.39873037 0.38504115 0.56363165 0.45330843 0.424419   0.486273
 0.41881102 0.46253383 0.43659812 0.4594973  0.48756516 0.3617678
 0.43023834 0.4990364  0.4956507  0.47612387 0.46950045 0.58449113
 0.46432337 0.37754634 0.4798632  0.4150934  0.40643176 0.35878447
 0.46496275 0.37469065 0.5158302  0.5208272  0.5716554  0.33670154
 0.49652976 0.4176464  0.330294   0.43932953 0.5827455  0.3321667
 0.5470356  0.3283782  0.47145483 0.41341937 0.45335183 0.5148706
 0.50434804 0.51452965 0.4853401  0.46024293 0.25686526 0.44386145
 0.58217    0.48054385 0.48584205 0.36040226 0.42952022 0.31796885
 0.38700438 0.48068333 0.49260923 0.38981616 0.52342296 0.5007472
 0.43489414 0.40723592 0.3143946  0.43320772 0.37733552 0.50665903
 0.4369957  0.43741077 0.6309393  0.55132836 0.47477037 0.5578303
 0.45403105 0.4864415  0.2941259  0.3573488  0.46237555 0.4459663
 0.5636249  0.46657234 0.47425026 0.48647758 0.56432277 0.3974366
 0.49337947 0.40015262 0.42409322 0.506702   0.49319354 0.38210323
 0.39471298 0.36478728 0.5241191  0.5030412  0.56817645 0.43404713
 0.49184862 0.44006804 0.48733997 0.51731503 0.37016967 0.5581424
 0.37902457 0.35407698 0.37153408 0.49354687 0.5595436  0.5269728
 0.51753926 0.4956663  0.4455934  0.31424013 0.5117561  0.543063
 0.46258637 0.44265872 0.5270748  0.42230004 0.42118403 0.510268
 0.3419461  0.4137226  0.47642747 0.42707962 0.47899157 0.4798822
 0.5225706  0.44614536 0.48799464 0.51323473 0.4344381  0.5755018
 0.49683324 0.49500215 0.4122233  0.4264564 ]
alex_net8/batch_normalization_1/beta:0
(256,)
[-0.6734805  -0.7213787  -0.67499745 -0.6317051  -0.57921714 -0.63178205
 -0.5085238  -0.749749   -0.5707892  -0.590208   -0.60425496 -0.6073145
 -0.5375202  -0.5475967  -0.5467211  -0.4251738  -0.5057176  -0.5921637
 -0.69790643 -0.62735754 -0.5794901  -0.4062004  -0.60817254 -0.6139881
 -0.6082401  -0.6757158  -0.61795455 -0.44380808 -0.83103526 -0.42905572
 -0.4370763  -0.6997202  -0.7058519  -0.6361842  -0.5776651  -0.6296357
 -0.6147334  -0.5207278  -0.49024248 -0.53069484 -0.38469782 -0.6082273
 -0.4312809  -0.443436   -0.5812062  -0.5794561  -0.66056794 -0.5659374
 -0.46664226 -0.6751539  -0.5953281  -0.3664972  -0.72604656 -0.5946089
 -0.6424365  -0.5135493  -0.5795359  -0.54060227 -0.5360272  -0.7749195
 -0.407616   -0.40975526 -0.53463316 -0.47894377 -0.6310264  -0.5643963
 -0.40759975 -0.34609467 -0.5646396  -0.38732466 -0.5982792  -0.6156445
 -0.6384148  -0.6735357  -0.36760646 -0.49567568 -0.7665475  -0.6049443
 -0.60902065 -0.54755914 -0.6400161  -0.20638974 -0.5057795  -0.41967723
 -0.5708381  -0.53772134 -0.6786813  -0.56959516 -0.61967725 -0.4731271
 -0.5885332  -0.57885    -0.30427942 -0.4736296  -0.53604025 -0.6513392
 -0.60466486 -0.59553725 -0.26845363 -0.503911   -0.55642056 -0.6310787
 -0.7862521  -0.38170165 -0.5151095  -0.58874273 -0.5228058  -0.5932668
 -0.4641079  -0.79708904 -0.6317552  -0.59910357 -0.46885803 -0.5293537
 -0.6366724  -0.55901235 -0.44976658 -0.6719423  -0.67664057 -0.6151792
 -0.59855974 -0.55536884 -0.619767   -0.57257295 -0.4994733  -0.53821313
 -0.5890118  -0.5292519  -0.5296659  -0.44989914 -0.6054855  -0.46615705
 -0.4650107  -0.5099312  -0.61677414 -0.53629965 -0.5450332  -0.59361035
 -0.5936028  -0.5523973  -0.62900645 -0.53496546 -0.52510005 -0.41608003
 -0.6415067  -0.6367932  -0.5916295  -0.68216217 -0.71249086 -0.55375105
 -0.55574566 -0.60459113 -0.43606922 -0.59105927 -0.64658207 -0.6472987
 -0.64709884 -0.41853666 -0.5856146  -0.3237596  -0.49595785 -0.4805704
 -0.5830513  -0.6059421  -0.5760069  -0.7149707  -0.13695258 -0.530985
 -0.5715665  -0.6796702  -0.49152464 -0.6577491  -0.46485373 -0.6247546
 -0.45624575 -0.50259244 -0.5993421  -0.33371472 -0.6717723  -0.6365306
 -0.42969272 -0.472919   -0.40704304 -0.48108527 -0.6793983  -0.5580455
 -0.44813764 -0.37041754 -0.74184877 -0.63033473 -0.4261685  -0.60197896
 -0.53108585 -0.63725805 -0.4620705  -0.52506626 -0.5269204  -0.5060162
 -0.6941447  -0.575432   -0.6133164  -0.51740074 -0.6791258  -0.6385709
 -0.5083553  -0.5308374  -0.3312847  -0.62447876 -0.52686757 -0.5159711
 -0.38922638 -0.64079237 -0.5932731  -0.46437052 -0.52797693 -0.4034328
 -0.6401446  -0.42975646 -0.4971782  -0.72451156 -0.49231154 -0.6508855
 -0.47067687 -0.45373523 -0.37864235 -0.57837224 -0.57176    -0.6281344
 -0.5536396  -0.5659371  -0.5127229  -0.442427   -0.67619264 -0.61339056
 -0.45990285 -0.6358123  -0.6629771  -0.59227914 -0.5917702  -0.54555523
 -0.40572116 -0.60714513 -0.56695926 -0.6857399  -0.59619486 -0.3346826
 -0.7088172  -0.51551336 -0.5205611  -0.4902399  -0.51243144 -0.63283116
 -0.645765   -0.61013836 -0.5431835  -0.6550116 ]
alex_net8/conv2d_2/kernel:0
(3, 3, 256, 384)
[[[[ 4.72476520e-02 -4.74776439e-02  5.00607416e-02 ... -5.29268337e-03
    -2.61633862e-02  4.85903770e-02]
   [-3.41266510e-03 -3.24735045e-02 -1.41303644e-01 ... -7.63953850e-03
    -4.34001870e-02 -5.42197600e-02]
   [-4.20265533e-02 -4.43386808e-02  5.19241914e-02 ...  2.68605091e-02
    -1.59847494e-02 -1.86556298e-02]
   ...
   [ 4.12851898e-03 -5.25398105e-02  2.77245808e-02 ...  8.56694952e-03
    -3.59432660e-02 -1.51771633e-02]
   [-5.39593631e-03 -6.69388250e-02 -2.04535555e-02 ... -2.32716389e-02
    -2.78568920e-02 -2.83844620e-02]
   [-4.15732116e-02  9.10567760e-04 -3.00611090e-02 ... -3.06765595e-03
    -2.83540618e-02 -4.45207581e-02]]

  [[-4.68582474e-02 -7.84887075e-02  2.68708933e-02 ... -3.34549434e-02
     6.79082517e-03  2.55971886e-02]
   [-5.54611161e-02 -1.68262853e-03 -2.32377991e-01 ...  1.13343056e-02
    -3.77702639e-02 -1.49046732e-02]
   [-2.79221497e-02 -8.26982483e-02 -8.79668817e-02 ... -2.71408819e-02
    -4.74021398e-02 -3.41561735e-02]
   ...
   [ 5.44452220e-02 -8.55088681e-02 -5.62483557e-02 ...  1.80500858e-02
    -3.09633333e-02 -4.20085080e-02]
   [-7.59085715e-02 -4.18098047e-02 -2.31599864e-02 ... -1.45451305e-03
    -4.49022800e-02 -2.40787715e-02]
   [ 2.53359042e-02  1.85819361e-02  2.72678621e-02 ... -3.05093192e-02
    -5.39645851e-02 -2.80424040e-02]]

  [[ 5.74298610e-04 -5.96357100e-02  1.34666096e-02 ... -3.59927528e-02
     6.93790242e-03 -3.20261344e-02]
   [ 9.22267139e-03  5.82839735e-03  6.51458884e-03 ...  2.28129737e-02
     1.77669269e-03 -6.96755797e-02]
   [-7.41880313e-02 -2.43971143e-02 -3.30501497e-02 ... -1.01930881e-02
     1.45066846e-02 -8.75543896e-03]
   ...
   [-2.47865748e-02 -3.26355323e-02 -1.28301963e-01 ... -3.67804430e-02
    -2.11129021e-02 -8.80013034e-02]
   [-2.98853070e-02 -7.07200682e-03 -9.99890417e-02 ...  3.10739167e-02
    -5.53733064e-03 -4.66844998e-04]
   [ 3.61666158e-02 -2.48662215e-02 -2.40703449e-02 ...  1.71216740e-03
     1.64070874e-02 -3.68299820e-02]]]


 [[[-4.15865518e-02 -1.08704321e-01  9.18870941e-02 ... -1.27967484e-02
    -2.68675089e-02 -3.18338834e-02]
   [-3.73091437e-02 -3.66019681e-02 -6.51201680e-02 ...  1.27152903e-02
     2.02329773e-02 -5.33562601e-02]
   [ 2.21377816e-02 -9.40043032e-02 -8.11967775e-02 ... -5.51550873e-02
     1.10518094e-03 -4.05283831e-02]
   ...
   [-2.38869116e-02  4.92616259e-02 -4.85188924e-02 ... -7.82987289e-03
    -4.40653041e-02 -8.69808439e-03]
   [ 1.92777365e-02 -1.09480053e-01 -4.97673415e-02 ...  2.88339914e-03
    -3.88979986e-02  3.81211676e-02]
   [-4.07680348e-02  3.77820693e-02 -7.82530308e-02 ...  7.79130915e-03
     1.77006284e-03 -5.49092516e-03]]

  [[-5.58643304e-02 -1.26190424e-01  6.54425323e-02 ...  2.20784601e-02
    -2.55397055e-02 -4.81050462e-02]
   [-5.93908131e-02  1.34314299e-01 -2.36390337e-01 ... -3.83825749e-02
     3.79269291e-03 -5.06029129e-02]
   [-6.61156923e-02 -1.10211663e-01 -9.34091285e-02 ...  7.67972786e-03
    -3.32808159e-02  3.48800160e-02]
   ...
   [-2.55950149e-02  1.40122436e-02 -3.92855294e-02 ... -1.16914557e-02
    -4.76579592e-02 -4.65354435e-02]
   [-7.57588744e-02 -4.60889935e-02 -6.01173788e-02 ... -1.63999088e-02
    -5.69927990e-02 -8.01080093e-03]
   [-2.26739198e-02  2.78823543e-03  4.39849533e-02 ...  1.06179276e-02
     2.05319319e-02 -4.18589525e-02]]

  [[-1.75258964e-02 -7.04342946e-02 -3.25033963e-02 ... -1.11164106e-02
    -8.41226708e-03 -7.33639896e-02]
   [-8.95416513e-02 -1.59136914e-02 -5.88490106e-02 ...  1.93439852e-02
    -4.85702083e-02 -8.31360742e-02]
   [ 7.64202252e-02 -2.41469732e-03 -9.81244072e-02 ...  1.14215491e-02
    -3.05626374e-02  3.85733657e-02]
   ...
   [-6.95372075e-02 -3.87549251e-02 -3.73126790e-02 ...  3.68704228e-03
    -1.64688211e-02 -1.42126093e-02]
   [-7.53535852e-02 -2.21824329e-02 -1.30319431e-01 ... -1.76839288e-02
    -3.71412262e-02  3.02225556e-02]
   [-5.43355122e-02 -2.24915408e-02 -2.31936015e-02 ... -3.09927817e-02
    -2.36189272e-02  6.38580099e-02]]]


 [[[ 3.13256718e-02 -4.37224731e-02 -7.69586563e-02 ...  1.42524363e-02
    -6.31819442e-02  2.16601547e-02]
   [ 3.39701921e-02 -1.02212325e-01 -6.84887171e-02 ... -8.68753437e-03
    -1.50172412e-02 -1.67258680e-02]
   [-5.77745494e-03 -5.99255227e-02 -1.06263079e-01 ... -4.84433817e-03
     1.50376856e-02  2.28242557e-02]
   ...
   [-1.73096322e-02  7.62331812e-03 -9.56298783e-02 ...  9.87672154e-03
    -8.91727209e-03 -6.87639117e-02]
   [-1.02128480e-02 -5.91683127e-02 -7.81300366e-02 ... -4.01480570e-02
     1.47662563e-02 -2.65779551e-02]
   [-3.79118733e-02 -2.86084730e-02 -9.89037901e-02 ... -2.42232680e-02
     6.07711151e-02 -3.04769650e-02]]

  [[-4.50483225e-02 -1.27989128e-01 -9.48084295e-02 ...  1.32644121e-02
    -2.72524580e-02  9.46622435e-03]
   [-5.42949624e-02 -1.06651194e-01 -1.48584038e-01 ...  1.98417995e-02
    -4.21862714e-02 -4.95647117e-02]
   [-4.86439057e-02 -7.01363524e-03 -1.65322751e-01 ...  1.54432207e-02
     3.71356052e-03 -5.37246326e-03]
   ...
   [-6.01526238e-02  1.77143794e-02 -1.73223466e-02 ...  1.73302796e-02
    -1.74782388e-02 -2.91863326e-02]
   [-3.26613449e-02 -8.04205909e-02 -1.16260141e-01 ... -1.89982355e-02
    -2.05506012e-02  2.03284845e-02]
   [-2.14344636e-02  2.11695917e-02  4.80659567e-02 ... -3.92295644e-02
     3.48293111e-02 -1.05686039e-02]]

  [[-2.16677710e-02 -4.63709049e-02 -1.38393519e-02 ... -3.02020553e-03
    -1.32501479e-02 -4.08406090e-03]
   [-5.49698360e-02 -2.14207172e-02 -3.39274406e-02 ... -1.25562334e-02
    -3.46617959e-02 -6.22289069e-02]
   [-2.73024309e-02 -2.41335370e-02 -1.41320974e-01 ... -2.96238456e-02
     4.45437900e-06 -4.52727126e-03]
   ...
   [-5.04786409e-02 -3.84242390e-03  3.92146921e-03 ...  3.72920814e-03
    -1.42641282e-02  7.02267978e-03]
   [-7.50839487e-02 -2.73380391e-02 -7.59969726e-02 ...  2.01666653e-02
    -3.89171205e-02 -6.85360096e-03]
   [-5.04178815e-02 -5.61082065e-02  1.77189857e-02 ...  7.81672727e-03
    -3.04240864e-02 -2.92652901e-02]]]]
alex_net8/conv2d_2/bias:0
(384,)
[-0.10224041 -0.13021776 -0.09323426 -0.0855841  -0.29883403 -0.04280546
 -0.0612846   0.12791483 -0.07481498 -0.1045811  -0.04497226  0.09257799
 -0.04887593 -0.02921733 -0.03940075 -0.02206668 -0.06056062 -0.2755472
 -0.07583163 -0.11988913 -0.04005923 -0.08140464  0.04556371 -0.08198225
 -0.03309454  0.2510724  -0.04445112 -0.03172621 -0.19248746 -0.04511065
  0.1612249  -0.06391969 -0.04586162 -0.09706956 -0.16290052 -0.07288578
  0.02581695  0.02536782 -0.06810716 -0.07824235 -0.05349004 -0.0447243
 -0.02855852 -0.03872457 -0.02348384  0.00715439 -0.0640795  -0.06642265
 -0.05508966 -0.06431021 -0.0391003  -0.16109009 -0.0772597  -0.03223133
 -0.04363661 -0.06776044  0.03455792 -0.03065404 -0.06857172 -0.05831311
 -0.05629633 -0.13099162 -0.0363177  -0.03595231 -0.06635471 -0.04095619
 -0.05234428 -0.06779967 -0.05549619 -0.1804882  -0.02800006 -0.08392213
 -0.08167081 -0.06250206 -0.09550209 -0.02759087 -0.0559764  -0.08229968
 -0.14983898 -0.06399797  0.49456602 -0.06137666 -0.03592967 -0.04937143
 -0.04345296 -0.04880614 -0.03033548 -0.04108041 -0.02467206 -0.05891231
 -0.03100458 -0.06289949 -0.05872303 -0.0526708  -0.05409698 -0.0558512
 -0.0739107   0.05982744 -0.03725546 -0.03279567 -0.03537468 -0.02973479
 -0.00079204 -0.04121117 -0.0594985  -0.07996494 -0.05539752 -0.0894823
 -0.04049651 -0.07659066 -0.1678338   0.06268035 -0.05141892  0.14731021
 -0.06112109 -0.131506    0.47481436 -0.03553577 -0.05428357 -0.03986802
 -0.09272803 -0.03431395 -0.03373948 -0.05585506 -0.06821665 -0.06344035
 -0.03594455 -0.03573455 -0.06586138 -0.03721406 -0.03799155  0.11253487
 -0.05058723 -0.1952189  -0.10058046 -0.0543575  -0.07396659 -0.17682993
 -0.03770256 -0.06266262 -0.03972003 -0.03845818 -0.09810092 -0.05629169
 -0.04649399 -0.26297006 -0.05656132 -0.05252839 -0.02714776 -0.01689113
 -0.03752959 -0.16212444 -0.04165463 -0.39687124 -0.04738857 -0.02467573
 -0.10035025 -0.09065744 -0.07290158 -0.06313658 -0.03459125  0.15490071
 -0.02637395 -0.04065995 -0.03828883 -0.03660799 -0.10102305 -0.38105187
 -0.1433425  -0.01353113 -0.06715017 -0.00101215 -0.04612655 -0.2103889
 -0.07678454 -0.03231573 -0.11112421 -0.04641123 -0.06624413 -0.05921596
  0.08241121 -0.03648104 -0.08404247 -0.1261224  -0.07076774 -0.05384879
 -0.02225703 -0.06746634 -0.04689369 -0.03938225 -0.00638937 -0.03979058
 -0.1102195  -0.01151494 -0.0338974  -0.22098866 -0.05824934 -0.06348103
 -0.06731346 -0.03642366 -0.04633046 -0.22700758  0.14428428 -0.03245958
 -0.03649575 -0.02574574 -0.0367504  -0.03554657  0.08190118 -0.12801956
 -0.16950198 -0.03873589 -0.04523136 -0.02889956 -0.03936116  0.10191089
 -0.03377153 -0.0398053  -0.0491842  -0.03022335 -0.12678826 -0.0326821
 -0.12187559 -0.0650626  -0.3275418   0.15764478 -0.01924934 -0.0196179
 -0.10468455 -0.03754153 -0.06964074 -0.04000837 -0.03447923  0.31381282
 -0.04674621 -0.03071393 -0.05380965 -0.01593483 -0.04802501  0.02972276
 -0.11383281 -0.05413946 -0.02169571 -0.03801775 -0.07986597 -0.07818019
 -0.07116212 -0.14995281 -0.02439176 -0.07678865 -0.06611601 -0.3134121
 -0.01507997 -0.06557135 -0.06666828 -0.06373147 -0.03593494 -0.06423276
 -0.04430244 -0.05048087 -0.0277315  -0.04604877 -0.01631038 -0.05653557
 -0.03989121 -0.02092014 -0.03835455 -0.08634482 -0.03625425 -0.0498771
 -0.06070312  0.16510431 -0.03782335 -0.14858803 -0.06434328  0.00961285
 -0.06563606  0.07966673 -0.02963802 -0.11244948 -0.06661455 -0.03829614
 -0.03488441 -0.0694968  -0.03944294 -0.02547956 -0.03603655 -0.23396443
 -0.02929192 -0.06772693 -0.1896136   0.05283627 -0.09623026 -0.23490919
 -0.10173423  0.00839405 -0.05034665 -0.05578494 -0.00410244 -0.1403616
 -0.03152346 -0.14115761 -0.01890596 -0.06614663 -0.02747751 -0.07383382
 -0.03691458 -0.08776667 -0.04046779 -0.0633588  -0.01476072 -0.03734133
 -0.0618293  -0.09920409 -0.06795303  0.0799244  -0.03343241 -0.06360542
 -0.07909177 -0.08514667 -0.02489772 -0.03928952 -0.06670316 -0.03507164
 -0.05302974 -0.10936352 -0.04242849 -0.28186265 -0.03724035 -0.02994535
 -0.05279355 -0.04017484 -0.03842536 -0.03194645 -0.06062088 -0.08017159
 -0.08926099 -0.05200655 -0.0479803  -0.0528232  -0.03602682 -0.22359085
 -0.05129398 -0.03149383 -0.03714201  0.3222811  -0.00147551 -0.05112347
 -0.03734722 -0.02278838 -0.0763148  -0.05247742 -0.05173361 -0.03896291
 -0.03605825  0.22429399 -0.03479113 -0.06565149 -0.10212529 -0.04417481
 -0.04651243  0.2269153  -0.0232433  -0.05434445 -0.04248472 -0.0386994
 -0.05707838 -0.06288255 -0.09671364 -0.2839505  -0.02944304 -0.03291667
 -0.02582511 -0.02935591 -0.03326657 -0.04925593 -0.17379189 -0.10056063
  0.26701677 -0.10690215  0.32615727 -0.03570154 -0.03103398 -0.07067462]
alex_net8/conv2d_3/kernel:0
(3, 3, 384, 384)
[[[[-2.60802731e-02  3.88312675e-02 -1.79876480e-02 ...  3.27987708e-02
     9.46450885e-03  3.06479856e-02]
   [ 4.79857950e-03 -3.97800989e-02  6.71132188e-03 ... -3.60001773e-02
    -1.68181825e-02  5.29367896e-03]
   [ 2.28553871e-03  1.50720421e-02 -5.50460890e-02 ... -6.48415834e-03
    -9.71403811e-03 -2.98644099e-02]
   ...
   [ 2.16757841e-02 -2.43993495e-02  2.81385449e-03 ...  1.59451589e-02
    -2.73078289e-02 -2.53173318e-02]
   [ 5.18654473e-03 -6.20825551e-02 -9.63792030e-04 ... -1.74951926e-02
     2.23702136e-02 -1.23341652e-02]
   [ 1.37827499e-02 -5.84393600e-03 -2.21315324e-02 ...  2.27177404e-02
     6.60139974e-03 -2.35002395e-03]]

  [[-7.08543044e-03 -1.07381977e-02 -2.44253650e-02 ... -1.08651677e-02
     5.99245541e-03 -1.14602409e-02]
   [ 2.68046446e-02 -3.98761667e-02 -3.22333835e-02 ... -1.81021728e-02
    -2.26477701e-02 -1.33088985e-02]
   [ 7.91949108e-02  7.49715194e-02 -6.80027902e-02 ... -4.22881059e-02
     3.82340439e-02 -3.68077606e-02]
   ...
   [ 6.74617477e-03 -1.83055494e-02  1.83727429e-03 ... -1.79632176e-02
    -6.90332055e-03 -1.69668552e-02]
   [-3.62094911e-03  6.90702349e-02 -5.31038530e-02 ... -2.64610313e-02
     3.71437557e-02  9.94580891e-03]
   [-1.35074584e-02  5.44476844e-02 -1.75953526e-02 ...  2.53495723e-02
    -2.08274908e-02 -2.84182522e-02]]

  [[-1.86535958e-02  1.30019346e-02 -3.62690003e-03 ...  2.72816122e-02
     3.07395700e-02  1.36149758e-02]
   [ 3.89162190e-02 -1.39091983e-02  5.23188384e-03 ... -2.29826383e-02
     1.53777916e-02 -1.83758046e-02]
   [-2.59568412e-02 -4.35211845e-02 -2.63402723e-02 ... -1.47898123e-02
    -3.26729454e-02  3.14528751e-03]
   ...
   [-8.61372706e-03 -1.48719898e-03 -1.02424268e-02 ...  4.71308688e-03
     3.29985842e-02 -2.26947963e-02]
   [ 7.65143381e-03 -6.89047351e-02  4.25021797e-02 ...  4.44988674e-03
     2.15470102e-02  8.26781709e-03]
   [ 1.22107975e-02  5.38144298e-02 -2.85525229e-02 ... -1.22707877e-02
    -3.69714797e-02  1.43090347e-02]]]


 [[[-5.16583258e-03  7.83805400e-02  4.63482589e-02 ... -3.18897050e-03
    -5.56827476e-03 -1.07213575e-02]
   [-1.25741120e-02  3.77178602e-02  7.84791410e-02 ...  2.07599811e-02
     9.34782065e-03 -2.86519453e-02]
   [ 2.29471438e-02  2.32896991e-02 -1.27447825e-02 ...  1.15610637e-01
     3.43216248e-02  1.03222756e-02]
   ...
   [ 1.31368991e-02 -4.40649828e-03  1.04047656e-02 ...  1.16532771e-02
     6.56462740e-03  5.21006435e-03]
   [-6.29981793e-03 -1.19817303e-02 -6.75178170e-02 ... -1.04705254e-02
     6.79335557e-03 -2.49126330e-02]
   [ 1.10360747e-02  7.13917986e-02  1.20740412e-02 ... -1.90189965e-02
    -1.43833114e-02 -6.98674424e-03]]

  [[-2.87069324e-02  3.01268101e-02 -2.29983050e-02 ...  5.17215095e-02
     2.48815641e-02  1.04105184e-02]
   [ 4.59848205e-03  3.22865099e-02 -2.39728838e-02 ... -1.58640705e-02
     1.62704140e-02 -3.12331785e-02]
   [ 6.59675673e-02  6.65296474e-03  1.32861640e-02 ...  7.26408884e-02
    -1.71882715e-02  1.54387075e-02]
   ...
   [-1.96504015e-02  2.23292112e-02  1.83581226e-02 ... -8.90127663e-03
     1.74701996e-02  2.92814127e-03]
   [-4.04838882e-02 -5.84597066e-02 -9.01318714e-03 ...  7.80275976e-03
     6.48735762e-02  2.35746317e-02]
   [-1.97229609e-02  2.70794313e-02  1.65046006e-02 ... -7.28279538e-03
    -2.81279348e-02  1.66959986e-02]]

  [[ 5.58166718e-03  2.40762681e-02  7.52915163e-03 ... -1.40283387e-02
     2.58090254e-02 -9.04584769e-03]
   [ 1.16476556e-02  2.25794502e-02  5.35468943e-03 ...  2.46453099e-03
     2.92392708e-02  1.91871822e-02]
   [-3.84675525e-02 -7.57171586e-02 -2.45170202e-02 ...  3.29976603e-02
     3.72744687e-02 -9.16438922e-03]
   ...
   [-1.01370591e-04 -1.31704621e-02 -3.28271501e-02 ...  3.54322344e-02
     1.64738130e-02 -1.22801447e-02]
   [-2.64066271e-02  1.81687865e-02 -7.31506348e-02 ...  3.39302176e-04
    -2.34447997e-02 -1.99530739e-02]
   [-1.78484377e-02  6.44418672e-02  2.98748445e-02 ... -6.88317418e-03
     3.64462174e-02 -1.62250083e-02]]]


 [[[-1.90208219e-02 -6.74974220e-03 -2.14652191e-05 ... -7.28792138e-03
    -2.21611243e-02 -1.98852886e-02]
   [-4.56734970e-02 -1.26405256e-02  1.03572616e-02 ... -8.20586551e-03
     5.68535132e-03  1.39458906e-02]
   [-9.47023556e-03 -2.32505351e-02  2.60805413e-02 ...  2.30952334e-02
     7.18791364e-03 -2.03654449e-02]
   ...
   [-1.61408391e-02 -3.55390310e-02 -1.42572122e-03 ... -1.60619467e-02
    -8.53729621e-03  2.32999120e-02]
   [-2.54996605e-02 -2.90935747e-02 -1.60060860e-02 ...  1.56555567e-02
     1.72623470e-02 -1.66069772e-02]
   [-7.89550133e-03  4.21832055e-02  2.57503167e-02 ...  6.79150410e-03
     1.30231548e-02 -2.03754827e-02]]

  [[-1.03686349e-02 -9.38117877e-03 -2.70505548e-02 ...  2.07398757e-02
     6.08387589e-02 -1.55410776e-03]
   [-1.07551366e-02 -1.13845691e-02  2.61608232e-02 ... -2.04869155e-02
     1.24664949e-02 -4.56583640e-03]
   [-1.96718816e-02 -4.49294399e-04  5.31005720e-03 ...  1.73321404e-02
     2.58672405e-02 -7.25291809e-03]
   ...
   [-6.89698569e-03 -7.08329771e-03 -2.64315363e-02 ...  2.34153364e-02
     1.60736460e-02 -1.71505418e-02]
   [-1.69187076e-02  3.57940868e-02  3.54743041e-02 ... -9.45662986e-03
     6.23087212e-03 -1.06724147e-02]
   [-1.74807347e-02  1.70213040e-02 -5.87885221e-03 ...  6.78605726e-03
    -2.08584256e-02 -3.43802013e-02]]

  [[-5.09292148e-02 -7.23518548e-04 -2.81744525e-02 ...  1.08993175e-02
     1.43314414e-02  1.04646636e-02]
   [-4.15573316e-03  8.55118223e-03  2.32542846e-02 ...  1.23365624e-02
    -5.64805558e-03  1.49473678e-02]
   [ 1.63219161e-02 -6.59796000e-02 -8.90382566e-03 ...  5.47797084e-02
     6.14590496e-02  9.44705307e-03]
   ...
   [-2.01719776e-02  1.08958632e-02  2.62856651e-02 ... -3.17218900e-02
     3.15116793e-02  8.85565020e-03]
   [-6.85822358e-03 -2.33314838e-02  3.07756979e-02 ...  4.56864480e-03
    -1.47192767e-02  3.38143930e-02]
   [ 2.32049674e-02  2.21494865e-02 -2.54263524e-02 ... -3.63257527e-02
    -2.56586843e-03 -3.32541540e-02]]]]
alex_net8/conv2d_3/bias:0
(384,)
[-0.29591566 -0.51294506 -0.4520186  -0.7432536  -0.35877737 -0.45062473
 -0.40047997 -0.6200649  -0.5096728  -0.86416525  0.5817613  -0.53165394
 -0.564164   -0.13913812 -0.48211342 -0.6052809  -0.61737114 -0.3605327
 -0.64896894 -0.76902086 -0.592148   -0.57900596 -0.67638063 -0.34135568
 -0.34939396 -0.67694426 -0.30005485 -0.4552458  -0.49219486 -0.71139115
 -0.44233578 -0.45553115 -0.66006815 -0.34852841 -0.48216304 -0.6044004
 -0.5702067  -0.45891845 -0.41769984 -0.3701846  -0.14337829 -0.41245955
 -0.5111053  -0.34850585 -0.5129358  -0.13190056  0.1473235  -0.31218275
 -0.44175386 -0.61717254 -0.45205888 -0.5183527  -0.43287227 -0.5258445
 -0.33821255 -0.7139694  -0.38378993 -0.22773299 -0.48756632 -0.73650104
 -0.30844548 -0.6755711  -0.5802277  -0.18003386 -0.29810604 -0.42472965
 -0.74334466 -0.5444742  -0.86155725  0.20544346  0.42134613 -0.2508205
 -0.5053269  -0.35387886 -0.6590261  -0.15040174 -0.2461975  -0.28224832
 -0.547747   -0.3360947  -0.83018696  0.38140944 -0.00604586 -0.69534063
 -0.62980646 -0.7097311  -0.30546698 -0.44365585 -0.1565157  -0.39204285
 -0.4674829  -0.44625425 -0.57911164 -0.7101419  -0.48813266 -0.38036197
 -0.23531619 -0.72688264 -0.4441036  -0.61714137 -0.5278511  -0.57298064
  0.01067359 -0.2701792  -0.23133765 -0.44718364 -0.4454969  -0.4706574
  0.09256108 -0.61874056 -0.14700642  0.09460274 -0.6349856  -0.40072984
 -0.72291833 -0.62422943 -0.18760495 -0.5251047  -0.3856743  -0.30259952
  0.46169472  0.15427577 -0.5275833  -0.6070607  -0.2136214  -0.41053367
 -0.51350456 -0.5950875  -0.7234193  -0.4738232  -0.4726823  -0.5144065
  0.2903927   0.39600065 -0.5535044   0.40537125 -0.70492667 -0.796064
 -0.10419212 -0.6038466  -0.5075248  -0.32342216 -0.7666287  -0.38823652
  0.11108429 -0.8170584  -0.66004056 -0.3647295  -0.51614094 -0.6194734
 -0.47622445 -0.5414316  -0.5693192  -0.400903   -0.73543584 -0.91118073
 -0.52316105  0.23153745 -0.6640743  -0.397522   -0.57973135 -0.7082982
 -0.5952987  -0.49430984  0.49484545 -0.52323043 -0.3304757  -0.04242558
 -0.63390636 -0.21538235 -0.7242447  -0.5585338   0.26511127 -0.8663707
 -0.3134526  -0.1856446  -0.55116135  0.11127604  0.17223467 -0.81428516
  0.12681518 -0.14788781 -0.4638923  -0.17843571  0.167087   -0.21657969
 -0.22604126 -0.4365449   0.14504822 -0.51080257 -0.20621738 -0.16845421
 -0.04065883 -0.25300437 -0.77374244 -0.56468683  0.13699894 -0.29556587
 -0.45340642 -0.6052422  -0.50492257  0.17592613 -0.11266776 -0.29102853
 -0.16659401  0.07840545 -0.5126577   0.05046073 -0.26637727 -0.5338508
 -0.40974152 -0.23473114 -0.80892    -0.49866113 -0.4478887  -0.6066314
 -0.38916463 -0.7717363  -0.6331596  -0.6552906  -0.5811444  -0.33718866
 -0.1711047  -0.19154762 -0.55563533 -0.67784417 -0.7100682  -0.23599061
 -0.46342713 -0.47757646 -0.6154384  -0.36572343 -0.6711048  -0.49790123
  0.05499571 -0.47982764 -0.39628777 -0.67777574 -0.48992646 -0.2401978
 -0.13254137 -0.59838486  0.28006342  0.21337573 -0.162371   -0.43928504
 -0.59825104 -0.17987306  0.05716049 -0.52120656 -0.5806136  -0.27968815
 -0.46768057 -0.78935575 -0.13119239 -0.49506757 -0.25595522 -0.37728688
 -0.29046062 -0.7010638  -0.09855735 -0.06245378 -0.27260292 -0.54023314
 -0.26540452 -0.35016918 -0.5007787  -0.6776138  -0.43732318 -0.608366
 -0.4938261  -0.2929911  -0.39438528 -0.4379384  -0.5985632  -0.5876766
 -0.40764898 -0.4955286   0.48844892 -0.5211497  -0.36553735 -0.7471609
 -0.65943694 -0.48689848 -0.15212654 -0.9426011  -0.5597273  -0.03977302
 -0.81279784 -0.21756361 -0.657204    0.07112924 -0.1584031  -0.6844903
 -0.6237897  -0.53138095 -0.57311213 -0.7327669  -0.5615952  -0.27667633
 -0.37591594 -0.5097278   0.50937366 -0.63842463 -0.5510096  -0.84408885
 -0.20678587 -0.5612056  -0.8371759  -0.10334854 -0.54575044 -0.17325191
 -0.19045228 -0.3412108  -0.34022364 -0.3520097  -0.5939576  -0.300744
 -0.65385664 -0.65164906  0.08379342 -0.24921462 -0.40696055 -0.8494247
 -0.2844917  -0.44584444 -0.28652027  0.4150332  -0.5581905  -0.27747402
 -0.44164374 -0.01462877 -0.4773636  -0.04011178 -0.47208005 -0.12690261
 -0.18389839 -0.35182858 -0.69156927 -0.38538754 -0.60084313 -0.65965384
 -0.62827015 -0.4198703  -0.29267043 -0.7210312   0.13091409 -0.6083185
 -0.48220384 -0.13749306 -0.16381986 -0.42148134 -0.37550497 -0.2568884
 -0.6692444  -0.13630955 -0.34387043 -0.03588091 -0.32503146 -0.34074858
  0.03201284 -0.5334802  -0.3274032  -0.7234087  -0.21977961 -0.7786468
 -0.64886546 -0.5728365  -0.5034274  -0.29870495 -0.02285723  0.29167265
  0.28608063 -0.6960256  -0.59301656 -0.17760526 -0.21724325 -0.72652566
 -0.17110272 -0.6540716  -0.25088936 -0.4535619  -0.40587744 -0.2689681 ]
alex_net8/conv2d_4/kernel:0
(3, 3, 384, 256)
[[[[ 5.51110716e-05 -2.45291442e-02 -2.43561953e-01 ...  2.10005417e-01
     1.05972514e-01 -3.87845971e-02]
   [-8.92973095e-02 -6.03205189e-02 -6.40885308e-02 ... -2.41382197e-01
     1.19684942e-01 -3.04006282e-02]
   [-4.49393950e-02 -2.87811197e-02  2.36019909e-01 ... -7.27171497e-03
    -8.09394121e-02  2.66886264e-01]
   ...
   [-2.89586671e-02 -1.91567540e-02 -1.39939100e-01 ... -8.20260346e-02
     8.23621526e-02  8.49240422e-02]
   [-3.05723492e-02  2.12806463e-02  9.81937349e-02 ...  4.33796272e-02
    -2.54292917e-02 -5.87496161e-02]
   [-3.47425304e-02 -1.84938032e-02 -6.37702867e-02 ...  1.59585513e-02
     5.96282072e-03 -3.06454599e-02]]

  [[-4.09672298e-02 -2.74064522e-02  1.30227163e-01 ...  1.04371533e-02
    -1.00706130e-01 -3.54876444e-02]
   [ 4.87808930e-03 -8.51540640e-02 -2.45166779e-01 ... -2.20038947e-02
     1.23465164e-02  2.94960570e-02]
   [-3.81416790e-02  1.59703642e-02  5.53222001e-01 ... -2.82640290e-02
     2.24451318e-01  2.00594008e-01]
   ...
   [-3.61344442e-02 -1.62968989e-02  1.49867401e-01 ... -2.71113962e-02
     3.27079631e-02 -1.79495037e-01]
   [ 2.53971154e-03 -1.35469669e-02 -3.09860379e-01 ...  3.61033566e-02
    -1.25837743e-01 -3.75986509e-02]
   [ 3.84285934e-02  2.75748856e-02  3.84284393e-03 ... -2.47417539e-02
     4.67897058e-02  1.00580193e-02]]

  [[ 3.05487085e-02 -3.20829712e-02  2.28539661e-01 ... -5.77384569e-02
    -3.23564559e-02 -1.39436245e-01]
   [-1.14264883e-01  1.20837390e-02 -6.96254596e-02 ... -1.15756877e-02
    -1.46082401e-01 -8.35167170e-02]
   [-3.39468941e-02 -2.41456684e-02  4.55052555e-02 ... -4.74745184e-02
     9.59635824e-02 -1.37818055e-02]
   ...
   [-5.09539321e-02 -2.74207294e-02  1.41027227e-01 ... -2.39489928e-01
    -5.90005927e-02 -1.15724377e-01]
   [-6.29663169e-02 -8.07407126e-03 -2.82245036e-02 ...  2.00383067e-02
     1.00654243e-02 -8.25524516e-03]
   [-7.40770483e-03 -1.92879997e-02 -1.25681683e-02 ...  1.29851536e-03
    -5.45627661e-02  1.47631522e-02]]]


 [[[-4.51062992e-03 -3.43616232e-02 -1.82383433e-01 ... -1.78587928e-01
    -6.37940615e-02 -2.36723170e-01]
   [-2.00971849e-02 -2.48841345e-02 -1.26234129e-01 ...  2.29940623e-01
    -2.98960544e-02  9.64622572e-02]
   [-1.26469182e-02 -2.18077321e-02 -1.86248332e-01 ...  6.92723989e-02
     8.35224241e-02  7.64429849e-03]
   ...
   [ 5.35032526e-03 -3.65069769e-02  2.39251442e-02 ... -1.38046727e-01
     5.71990386e-02  1.76880807e-01]
   [-4.94731441e-02 -4.23097657e-03  3.42992693e-02 ...  3.02095801e-01
    -2.34521572e-02  3.98740135e-02]
   [-3.06014717e-02 -3.95392999e-03 -6.65380759e-03 ... -4.36266325e-03
     7.76283629e-03 -1.48569299e-02]]

  [[-3.90028721e-03 -1.28606223e-02  6.30754307e-02 ... -2.27696188e-02
    -1.00080848e-01  5.96588179e-02]
   [-2.05268990e-02  7.56314304e-03  6.46057650e-02 ... -8.83716792e-02
    -1.70729980e-01  8.13383907e-02]
   [-1.40433153e-02 -2.62638484e-03  7.59184957e-02 ... -7.03662168e-03
     1.27031552e-02 -1.59222364e-01]
   ...
   [-1.71698201e-02  2.06728317e-02 -1.14831939e-01 ... -1.25927106e-01
    -1.67482004e-01  6.77901581e-02]
   [-1.75457634e-02  1.20328332e-03 -1.93024054e-02 ...  1.27088487e-01
    -2.39050444e-02 -9.49736163e-02]
   [-3.99921946e-02 -3.31183113e-02 -3.96864675e-03 ...  2.50868462e-02
     1.80454627e-02  1.42827714e-02]]

  [[ 4.89288522e-03 -3.00173033e-02  1.91724580e-02 ... -8.47791210e-02
    -1.45196423e-01  2.01134458e-01]
   [-6.42373860e-02  1.09592162e-03 -1.94206238e-02 ...  4.97720502e-02
     4.53625061e-03 -5.81987714e-03]
   [-5.42887971e-02 -1.98843759e-02  4.26029414e-01 ... -2.67604113e-01
     1.67368561e-01  3.50844204e-01]
   ...
   [ 5.00473008e-02 -2.37701964e-02 -1.22067429e-01 ... -8.24656188e-02
    -1.70011505e-01  3.57628345e-01]
   [-6.32368177e-02  1.09011773e-02 -4.02210206e-02 ... -6.89166859e-02
     1.09353274e-01 -4.00305353e-03]
   [-1.33934096e-02  1.94202382e-02  6.26250729e-03 ...  1.55052235e-02
     1.18829939e-03  1.41964322e-02]]]


 [[[ 3.05228774e-02  4.16935654e-03  1.43797517e-01 ... -6.08770177e-02
    -1.05066836e-01  6.99345917e-02]
   [ 1.72144137e-02  1.13016935e-02 -1.83055431e-01 ...  7.96431005e-02
     2.25238144e-01 -6.18472546e-02]
   [ 2.94084172e-03  6.68412400e-03  1.52582198e-01 ... -1.50360782e-02
     1.06621116e-01 -1.38022363e-01]
   ...
   [-1.11098476e-02  2.30604243e-02  6.87794015e-02 ...  2.25839347e-01
     1.49147948e-02  5.95048442e-02]
   [-6.51411386e-03 -1.81848407e-02  2.37366274e-01 ...  4.79117244e-01
     1.56481460e-01  7.13861287e-02]
   [-3.86076346e-02  1.00742830e-02 -3.59916389e-02 ... -7.23000336e-03
    -3.68716866e-02 -1.43947301e-03]]

  [[-3.41837928e-02  1.24201095e-02 -1.17842883e-01 ...  4.94417906e-01
    -2.54054870e-02  3.51916254e-02]
   [-9.66114178e-03 -1.52470134e-02  2.46587489e-02 ... -8.50352049e-02
     1.79857001e-01 -7.40462244e-02]
   [-1.82089340e-02  1.39647014e-02  1.08062690e-02 ...  5.59717789e-02
     9.94535908e-02 -1.08190596e-01]
   ...
   [-2.83356849e-03 -3.32203917e-02  4.57050614e-02 ...  1.89593509e-01
    -2.00899601e-01  4.45211381e-02]
   [ 2.82165259e-02 -2.69725677e-02 -2.95961145e-02 ...  1.24078475e-01
     3.71074006e-02 -7.54776970e-02]
   [-7.62396902e-02  2.66519636e-02 -1.66914165e-02 ... -1.36151034e-02
    -2.18275134e-02 -1.70911774e-02]]

  [[-2.90068332e-02 -6.32931143e-02 -2.28046067e-02 ...  3.45908016e-01
    -1.56193506e-02 -1.99840650e-01]
   [ 1.09949252e-02 -2.40940764e-03  5.85458837e-02 ... -2.17605308e-01
     1.46201998e-01  1.02870874e-01]
   [-1.75512023e-02  2.31719634e-04  3.03792447e-04 ...  3.26609164e-02
    -1.55072538e-02  4.69775125e-02]
   ...
   [ 1.22920647e-02 -2.37494912e-02 -1.19329114e-02 ... -1.16034932e-01
    -2.10019752e-01 -2.60090735e-03]
   [-2.14629583e-02  2.40231422e-03  8.00505355e-02 ... -2.60942578e-01
    -1.61234643e-02  1.52505726e-01]
   [ 1.85869895e-02 -3.29497568e-02  1.05449846e-02 ...  9.73612908e-03
     1.89856403e-02 -3.93640250e-03]]]]
alex_net8/conv2d_4/bias:0
(256,)
[-0.13150759 -0.13199176 -0.05316457 -0.08835155 -0.47471523 -0.595355
 -0.18118322  0.7055383  -0.40457287 -0.5148473  -0.2002411  -0.61371803
 -0.10796586 -0.29663587 -0.10422884 -0.19622006 -0.10482871 -0.8945641
 -0.5838162  -0.19314398 -0.14713821 -0.15570432 -0.10395687 -0.05897542
 -0.12452416 -0.5488219  -0.1347603  -0.24408275 -0.11248127 -0.42875528
 -0.11876573 -0.5810312  -0.1210198  -0.13113439 -0.03790773 -0.08161914
 -0.29380295 -0.21480794 -0.5530382  -0.06293199 -0.82806844 -0.36152652
 -0.6568842  -0.07677054 -0.06689793 -0.19879337 -1.0742797   0.32001576
 -0.08309875 -0.60967016 -0.08480094  0.25111148 -0.69298804 -0.06596648
 -0.16331853 -0.56838155 -0.8433341  -0.6439251  -0.46901605 -0.7029974
 -0.7230409  -0.99236625 -0.12834765 -0.2320156  -0.31563118 -0.23985605
 -0.4455429  -0.2338681  -0.16708326  0.38176164 -0.23357241 -0.37236962
 -0.66453296 -0.10295258  0.2584951  -0.5686843  -0.19942343 -0.56252384
 -0.67096454 -0.18878494 -0.10045199 -0.0905886  -0.26810804 -0.15354942
 -0.15779056 -0.18101296 -0.56915075 -0.07051468 -0.08143442 -0.06691848
 -0.05478287 -0.35878366 -0.08087152 -0.1385561  -0.13980614 -0.34270892
 -0.51864743  0.0598606   0.3386455  -0.5913022  -0.07959709 -0.06018284
 -0.6550678  -0.00596035 -0.70591843 -0.9103396   0.06352    -0.5178058
 -0.13572599 -0.25536364 -0.08450576  0.48078722 -0.47199178 -0.6529173
  0.13287525 -0.12229948  0.37719393 -0.20375933 -0.07954513 -0.42882818
 -0.28687847 -0.13904811 -0.68742955 -0.09915802 -0.3197796  -0.6374718
 -0.5265571  -0.24661712 -0.7355693  -0.09157491 -0.15093705 -0.8813985
 -0.540011   -0.46969363 -0.41367182 -0.04607325 -0.82128984 -0.3877149
 -0.07372373 -0.12170343 -0.76514447 -0.17513196 -0.07967458 -0.779742
 -0.10050549 -0.07160772 -0.13705799 -0.06847569 -0.30768573 -0.19705144
 -0.386204    0.131277   -0.795854   -0.13631079 -0.10518695 -0.10315772
 -0.10943811 -0.6810654  -0.5675751  -0.15927467 -0.08888862 -0.06530331
 -0.43511027 -0.43237492 -0.11240387 -0.25275078 -0.606906   -0.08566096
 -0.7412239  -0.13172007 -0.18894212 -0.5034076  -0.26372465 -0.11260565
 -0.13069712 -0.18630303 -0.45805702 -0.30684397 -0.14644785 -0.5041954
  0.32409918 -0.73096716 -0.28843904 -0.252163   -0.1262487  -0.11260153
 -0.0882658  -0.07433212 -0.7279497  -0.6249762  -0.08149665 -0.07492328
  0.23396224 -0.62841624 -0.15960626 -0.9102459  -0.18297786 -0.47091854
 -0.09812015 -0.10294984 -0.5543884  -0.5475948   0.429687   -0.09667593
  0.13363898 -0.11850823 -0.12137283 -0.55530506 -0.13672803 -0.7341793
 -0.24144576 -0.07738274  0.23103704 -0.30108237 -0.09058798 -0.66484016
 -0.25777254 -0.11143664 -0.6234805  -0.63772446 -0.08085555 -0.15768062
 -0.07931771 -0.14779589 -0.3647155  -0.14645152 -0.8351424  -0.29438668
 -0.11085422 -0.10206471 -0.08542629 -0.59568495 -0.43384504 -0.10334843
 -0.61918813 -0.04096407 -0.04566546  0.24195123  0.43786526 -0.5696911
 -0.7237073  -0.33553746 -0.3350284  -0.15425125 -0.19256987 -0.6771587
 -0.1429602  -0.08612599  0.13675539 -0.1837067  -0.36253047 -0.08127218
 -0.17715222 -0.3174794  -0.27841622 -0.6238678 ]
alex_net8/dense/kernel:0
(1024, 2048)
[[-7.41004432e-03  4.12485674e-02  1.37390317e-02 ... -1.60730239e-02
  -4.82034013e-02 -1.25129744e-01]
 [-5.55560254e-02  1.06490850e-02 -5.08435741e-02 ...  4.16304059e-02
   1.53549621e-03  1.57260913e-02]
 [-1.62335873e-01  1.28418505e-02  1.54157251e-01 ... -1.60110146e-02
  -1.08921103e-01 -8.67175087e-02]
 ...
 [-1.19922182e-03  1.21126659e-02  3.10950458e-01 ... -1.83363317e-03
   1.31459653e-01  5.28463833e-02]
 [ 5.22916205e-02  8.82224273e-03 -7.43824914e-02 ... -4.36851336e-03
   5.84503729e-03 -2.59819953e-03]
 [-2.54141130e-02 -1.09639978e-02  6.58471361e-02 ...  5.48845809e-03
  -2.86555092e-04 -1.61741171e-02]]
alex_net8/dense/bias:0
(2048,)
[-0.2458986  -0.10428497 -0.31495753 ... -0.07838045 -0.21146592
 -0.15107264]
alex_net8/dense_1/kernel:0
(2048, 2048)
[[ 0.07608481 -0.00717005 -0.23749155 ... -0.06923042  0.18931639
   0.19662167]
 [-0.07387736  0.0271011  -0.06909332 ... -0.00616893  0.01752494
  -0.0201079 ]
 [-0.06469959 -0.3064952   0.05953278 ... -0.03152316  0.08865581
   0.08916276]
 ...
 [-0.0156118   0.03331618 -0.05518437 ...  0.01321491  0.06392015
  -0.0653358 ]
 [-0.01347867 -0.03911307 -0.03829396 ... -0.04400329  0.07089666
   0.03606283]
 [ 0.00433458 -0.06126506  0.0739125  ... -0.00803506  0.05718097
  -0.08268464]]
alex_net8/dense_1/bias:0
(2048,)
[-0.32722715  0.26981276 -0.33796743 ... -0.5397392  -0.678093
 -0.78164536]
alex_net8/dense_2/kernel:0
(2048, 10)
[[-0.70647764 -0.6497272  -0.32134295 ... -0.38397956 -0.52740103
  -1.0583162 ]
 [-0.14253727 -0.06518984 -0.04719777 ... -0.26374206 -0.15061189
  -0.1003808 ]
 [-0.34259853 -1.006075   -0.25993013 ... -0.13616182 -1.5729156
  -0.25264713]
 ...
 [-1.0014712  -0.79944754 -0.7937702  ... -0.60451746 -1.0458851
  -1.4113909 ]
 [-0.2436571  -0.23692976 -0.24843578 ... -0.2729903  -0.16369721
  -0.09389085]
 [-0.21079665 -0.4890769  -0.06849953 ... -0.74679524 -0.16513777
  -0.19974196]]
alex_net8/dense_2/bias:0
(10,)
[ 0.61696947 -0.06559539 -0.10398146  0.05489784  0.16214435 -0.5049415
 -0.16122733 -0.20881541  0.3099082   0.01559196]
