baseline/conv2d/kernel:0
(5, 5, 3, 6)
[[[[-2.43719101e-01  4.62749153e-01  2.31599644e-01 -1.19025491e-01
     8.60437900e-02  5.06384857e-02]
   [-3.34024996e-01 -1.73669755e-02  2.01255932e-01  8.37663412e-02
     8.42050016e-02  2.12483913e-01]
   [-5.08842468e-02 -1.11777924e-01  1.98993057e-01 -1.79958567e-01
     5.83926812e-02 -3.25075299e-01]]

  [[ 1.04900844e-01 -4.37138043e-02 -7.50819296e-02 -2.64524366e-03
     2.60429412e-01 -1.57579258e-01]
   [-1.13616563e-01 -5.11317328e-02 -1.18549310e-01  1.81862608e-01
    -9.02942643e-02 -5.74340448e-02]
   [-1.63989872e-01  1.73141360e-01 -7.46515542e-02  2.49306813e-01
    -4.23573777e-02  4.09088545e-02]]

  [[ 3.86317700e-01  2.50754077e-02  7.81846866e-02 -3.71181592e-02
     9.93329287e-02 -3.81323189e-01]
   [ 2.73481160e-01 -1.85020134e-01  1.89149007e-01 -1.52014956e-01
    -3.17538351e-01 -2.80381411e-01]
   [-1.50284171e-01 -5.77096306e-02 -3.44582170e-01 -2.66940802e-01
     1.67024899e-02 -1.01609245e-01]]

  [[ 2.48558208e-01 -2.48685375e-01  2.61979252e-01  9.48061943e-02
    -2.99677640e-01 -1.80535868e-01]
   [ 3.77306938e-01  1.63003549e-01 -3.29715788e-01  1.31759122e-02
    -3.19705695e-01 -3.91216017e-02]
   [ 1.00745499e-01  6.11420255e-03 -4.39554125e-01  1.13967657e-01
     5.44283465e-02  4.95630085e-01]]

  [[-7.57587254e-02 -7.33522028e-02  3.46417189e-01  1.11846793e-02
     9.04979855e-02 -6.48000464e-02]
   [-1.05698958e-01 -1.73220277e-01 -3.46101254e-01 -3.67328748e-02
     1.26095474e-01  1.24635190e-01]
   [-3.43406498e-02 -1.68659911e-01 -5.65169193e-02 -1.36906937e-01
     2.73215532e-01  3.42875630e-01]]]


 [[[ 7.98264984e-03  3.67891788e-01 -3.11918765e-01 -2.72018075e-01
     7.10496828e-02 -2.01661319e-01]
   [-7.53463656e-02 -2.44897544e-01 -7.58693665e-02 -1.27851009e-01
     2.71040760e-03 -4.43805195e-02]
   [ 3.35745245e-01 -1.09963536e-01 -2.10092217e-01 -3.53403449e-01
    -4.44296077e-02 -2.78515160e-01]]

  [[-2.41165236e-01 -6.37532994e-02  9.35639143e-02  3.70791912e-01
     3.35946679e-01 -3.04883033e-01]
   [-4.92007822e-01 -1.23091966e-01 -7.78044984e-02  3.51927936e-01
    -1.08644381e-01 -3.47791314e-01]
   [-4.26322430e-01  3.79266411e-01  2.06368230e-02  3.97948951e-01
     1.06632166e-01 -5.08644208e-02]]

  [[-2.38382563e-01 -2.63636529e-01  2.42527962e-01 -7.30433539e-02
     3.38575244e-01 -5.62120788e-02]
   [-4.00079906e-01  1.26338780e-01  6.76555157e-01 -2.95814523e-03
    -3.91132295e-01 -1.01304673e-01]
   [-2.91624367e-01  3.22592616e-01  2.01252267e-01 -2.20472030e-02
    -3.15229654e-01  3.86407018e-01]]

  [[ 1.53232962e-01 -4.43812698e-01  4.29174274e-01  9.71040037e-03
    -1.02937371e-01  1.53919250e-01]
   [ 1.12481192e-01  1.15969211e-01  4.14742559e-01 -1.87025189e-01
    -3.06044549e-01  1.31494284e-01]
   [ 1.66906625e-01  4.97625738e-01  4.69843864e-01 -9.84642878e-02
    -3.04324836e-01  5.48556030e-01]]

  [[ 1.58485740e-01 -3.17959517e-01  2.01935112e-01 -4.86907735e-02
     1.87570497e-01  1.93983674e-01]
   [ 3.61760050e-01  3.39101464e-01  1.81653886e-03  1.00382976e-01
     2.72863656e-01  4.12023850e-02]
   [ 2.13817179e-01  4.29801196e-01  4.47879434e-01 -9.69754625e-03
     1.73741683e-01  1.56213939e-01]]]


 [[[ 1.67552933e-01  1.35817289e-01 -2.52677631e-02  2.21039012e-01
     4.84942868e-02 -4.29370821e-01]
   [ 1.84204936e-01 -9.41886529e-02  2.76230007e-01  3.93996716e-01
    -1.75579023e-02 -2.69978106e-01]
   [ 4.79373634e-01 -3.85523558e-01  2.37703413e-01  2.20545590e-01
    -1.07237110e-02 -2.83039212e-01]]

  [[-5.53152785e-02 -3.75173688e-01 -7.53768981e-02 -4.04874235e-02
     4.47374582e-01 -2.37520952e-02]
   [ 1.70793295e-01  1.18071185e-02  1.61816582e-01 -5.25545031e-02
    -6.04827628e-02  3.04579095e-04]
   [ 2.68883646e-01  3.82925630e-01  1.95721537e-03  1.04053617e-01
     2.19602689e-01  1.82802871e-01]]

  [[-2.39249215e-01 -3.75137895e-01 -5.77415526e-01 -3.27733070e-01
     9.40062199e-03  1.03666604e-01]
   [-3.73490423e-01  1.67631712e-02  2.84602921e-02 -1.26275793e-01
    -4.98393059e-01 -1.16468882e-02]
   [-4.77782726e-01  3.25557411e-01 -3.70241016e-01 -3.30825716e-01
    -7.40788803e-02  4.60697502e-01]]

  [[-3.68418396e-01 -5.38779497e-01 -3.43852282e-01 -3.58446091e-02
    -4.73514408e-01  5.10155074e-02]
   [-3.00690651e-01  2.19735041e-01 -4.03498262e-01 -6.85951635e-02
    -3.38522494e-01 -1.11585617e-01]
   [-4.18533564e-01  5.58198869e-01 -1.33319646e-01 -1.55319497e-01
    -1.99354395e-01  4.24512386e-01]]

  [[ 3.82847458e-01 -5.18139243e-01 -3.92216831e-01  9.35245305e-02
     9.86376107e-02  2.50033647e-01]
   [ 4.67807442e-01 -5.31530520e-03 -6.79759622e-01  8.26643780e-02
     4.66213763e-01 -9.34576765e-02]
   [ 3.27072173e-01  2.73822099e-01  3.22487578e-02  4.73155528e-02
     4.29232270e-01 -3.38251203e-01]]]


 [[[-7.21940398e-02  3.41316015e-01 -7.52580836e-02  3.87337625e-01
    -2.54894882e-01  9.91792604e-02]
   [ 1.12026788e-01 -1.44556761e-01 -2.16177538e-01  4.04021382e-01
     2.66816944e-01  1.45403340e-01]
   [ 1.09622657e-01 -1.64227724e-01  4.71941307e-02  3.55097800e-01
    -6.66926801e-02  1.21420376e-01]]

  [[ 3.67804289e-01 -1.50149137e-01 -3.11435580e-01 -6.48390353e-01
     4.52952355e-01  1.29938036e-01]
   [ 7.96070844e-02  6.91407248e-02 -9.89357978e-02 -8.55221987e-01
     3.96312661e-02  1.50491357e-01]
   [ 2.68435985e-01  1.59366086e-01 -7.54780322e-02 -5.47770560e-01
     8.14916119e-02  4.26140189e-01]]

  [[ 8.68695155e-02 -1.36683509e-01 -9.95997563e-02 -2.02262541e-03
    -2.52754595e-02 -2.81061586e-02]
   [ 3.23976636e-01 -2.27742847e-02 -6.94894418e-02  1.59044653e-01
    -2.13393554e-01 -6.74294010e-02]
   [ 7.84474686e-02 -6.17247634e-02 -9.32118967e-02 -2.88029667e-02
    -2.95473695e-01  3.59209865e-01]]

  [[-1.38543651e-01 -7.66490772e-02  5.46184853e-02  3.78424555e-01
    -2.71076411e-01  1.76286995e-01]
   [-4.44867373e-01  2.04053358e-05 -2.16856912e-01  3.52773488e-01
    -3.73759836e-01 -2.19523281e-01]
   [-5.01166999e-01 -4.41474579e-02 -3.78332250e-02  2.40964368e-01
    -1.90705240e-01  3.52261513e-02]]

  [[-9.89296138e-02 -3.03565376e-02  7.36893639e-02 -1.44808084e-01
    -1.03238590e-01  3.91541541e-01]
   [-3.67411643e-01  5.24989851e-02 -1.82646081e-01  2.22601108e-02
     5.44529319e-01 -2.26878226e-01]
   [-6.48721814e-01  1.52877226e-01  1.61050260e-01 -3.20679210e-02
     3.93457264e-01 -4.23334122e-01]]]


 [[[-7.57237822e-02  6.18877232e-01  3.02196085e-01 -1.16368033e-01
    -2.68552572e-01  2.47470021e-01]
   [-9.91345569e-02 -7.31533542e-02 -3.20789188e-01 -2.13732958e-01
     1.70444712e-01  4.25001293e-01]
   [ 6.72899783e-02 -6.16256118e-01  1.65323145e-04 -1.85245946e-02
     1.67929120e-02 -2.78681405e-02]]

  [[-8.59063491e-02  9.59146619e-02  1.18850447e-01 -1.31834567e-01
     5.60555495e-02  1.58016682e-01]
   [-8.12794641e-02 -1.03631161e-01 -1.11082114e-01 -2.85074294e-01
     1.38068944e-01 -2.77151410e-02]
   [ 3.34432602e-01 -1.54342771e-01  2.74368469e-02 -1.20330304e-02
     9.57323015e-02  9.86956209e-02]]

  [[ 7.59895965e-02  1.94395572e-01  1.21964775e-01  5.48232138e-01
    -1.16932943e-01  8.53332132e-02]
   [ 2.81806141e-01  7.88074061e-02  3.60883802e-01  3.43732804e-01
    -3.64392161e-01 -4.91102152e-02]
   [ 1.37839481e-01 -1.15165360e-01  3.97284776e-02  3.90306473e-01
    -1.05969295e-01 -2.67043352e-01]]

  [[ 2.25928307e-01  1.05053768e-01 -2.47002319e-02 -2.13145688e-01
    -3.91438514e-01  2.46189609e-01]
   [ 1.27634585e-01 -1.83833927e-01  8.52569938e-02 -2.36784875e-01
    -3.58647168e-01 -7.77347162e-02]
   [ 2.45879769e-01 -4.14689898e-01  1.93254516e-01 -1.02639228e-01
    -1.01052016e-01 -5.34039021e-01]]

  [[-1.12738542e-01 -7.87669793e-02 -6.43299669e-02 -1.02030300e-01
    -7.66042918e-02  2.89504588e-01]
   [-3.64390194e-01 -5.61724463e-03  1.18377045e-01 -2.66012046e-02
     4.71718192e-01 -2.19187379e-01]
   [-1.82647094e-01 -1.89493448e-02  7.95929208e-02 -2.60899067e-02
     3.20325613e-01 -6.56079710e-01]]]]
baseline/conv2d/bias:0
(6,)
[ 0.3711222   0.05875239 -0.25696832 -0.4336047   0.17620215 -0.03125867]
baseline/batch_normalization/gamma:0
(6,)
[0.5584502  0.24427637 0.6713937  0.45033282 0.74178296 0.5564827 ]
baseline/batch_normalization/beta:0
(6,)
[-0.43325058 -0.02639962 -0.4517485  -0.20048144 -0.46172538 -0.54850703]
baseline/dense/kernel:0
(1536, 128)
[[-1.07540987e-01  4.25127707e-02 -5.85034164e-03 -5.74350536e-01
  -5.51331490e-02  7.52658620e-02 -8.81605744e-02 -2.05217488e-03
  -1.53031386e-02 -2.23004110e-02 -8.17713141e-02  2.92811006e-01
  -1.66868001e-01 -7.78209344e-02 -1.18439265e-01  4.57536548e-01
   5.77030480e-01  8.28145724e-03  2.86362886e-01  5.86511970e-01
   7.84510434e-01  1.62092566e-01 -3.21682334e-01  3.19784105e-01
   2.84426242e-01  9.05773893e-04  9.61667746e-02 -6.07123137e-01
   5.53017203e-03 -9.40838456e-02  9.15864017e-03 -4.36479032e-01
   2.67338455e-01 -6.77130342e-01  1.49627673e-02 -3.96414986e-03
  -1.13472715e-02 -1.28359258e-01 -1.21467218e-01  1.65327907e-01
  -4.60337430e-01  1.31539702e-01  1.45047203e-01  5.89874312e-02
  -5.59992611e-01 -3.09461147e-01 -5.69155395e-01 -6.68211747e-03
   1.18123442e-02 -5.50303906e-02  3.12014848e-01  2.79488862e-01
  -4.68854934e-01  1.32205263e-01 -5.73559999e-02 -4.53321412e-02
   3.57842326e-01  1.59141675e-01 -6.74906114e-05  5.55913970e-02
  -7.66056329e-02  5.28444707e-01  7.87931681e-03 -3.00778091e-01
  -5.86946234e-02  7.13100135e-02 -1.80220842e-01 -1.19626775e-01
   1.65846723e-03 -7.83649012e-02  8.29700530e-02  2.74936445e-02
   3.15294266e-01  1.35142999e-02 -2.56686300e-01 -3.68968487e-01
  -3.29886973e-02 -6.70121551e-01 -1.63428828e-01  1.10495865e-01
   6.36741053e-03 -2.32749075e-01 -3.86908427e-02  7.36731738e-02
  -5.61390407e-02 -1.69440269e-01  1.33720845e-01 -6.00307047e-01
   3.67092788e-01 -9.45829973e-03  3.04304838e-01  2.27308227e-03
  -2.39219308e-01  1.77415565e-03  4.24615033e-02 -2.23906219e-01
   2.14791819e-02 -3.43679152e-02 -2.83238977e-01 -3.27933252e-01
   1.77763507e-01 -2.11187433e-02 -9.99863669e-02 -1.52130544e-01
   1.68839097e-01  1.18642412e-01 -3.09563935e-01  1.14507722e-02
   1.79913137e-02 -1.64509751e-02  8.18713754e-02 -3.22117388e-01
  -6.55893743e-01  8.40296894e-02  1.12709895e-01 -4.06280160e-01
   1.08385063e-03 -8.44832212e-02 -4.63781506e-02  2.36546591e-01
   5.43133318e-01 -7.56698921e-02  2.70384610e-01 -3.04097354e-01
  -2.83912510e-01 -2.03362536e-02  6.39160648e-02 -5.26698213e-03]
 [ 8.51067528e-03 -3.20996344e-01 -2.54877750e-02  2.96545438e-02
  -8.72765109e-02 -3.47740613e-02  6.00964471e-04 -1.01221174e-01
   1.82614461e-01 -1.44236207e-01  2.27559730e-01 -2.04465300e-01
  -8.22124928e-02 -4.00636382e-02  1.94210410e-01  1.64058451e-02
  -1.58381149e-01 -8.00030082e-02 -1.02562755e-01 -2.96834201e-01
  -3.45497131e-02  1.06841750e-01  1.37347504e-01 -2.39736438e-02
  -3.32757920e-01 -1.17251358e-03 -1.48480134e-02 -1.77492782e-01
  -7.77794942e-02  1.43770315e-02  6.03257562e-04  4.16179262e-02
  -4.18420956e-02 -1.38655782e-01 -2.53975745e-02 -1.09753544e-02
  -4.50233258e-02  6.34267330e-02 -3.32245082e-01  1.51615635e-01
  -5.05441613e-02 -1.53237715e-01 -2.11554654e-02 -1.42499626e-01
   3.26928645e-02  1.50209740e-01 -2.03630682e-02  2.74329543e-01
  -3.65538076e-02  5.45295188e-03  1.40054762e-01 -2.37539634e-01
  -2.83380926e-01 -4.83885743e-02  2.75941547e-02 -5.51091433e-02
   1.90065578e-02  9.20051634e-02  5.43907173e-02 -1.07995167e-01
  -5.68850487e-02 -1.46451578e-01 -8.05285722e-02 -2.87290782e-01
   2.10492667e-02  5.29935211e-02  2.07838565e-02  4.37396578e-02
  -1.14305103e-02 -8.33307579e-02  3.40929814e-02 -2.33603902e-02
  -2.67980874e-01  2.70282128e-03  2.54030555e-01  1.91883743e-01
  -2.83279773e-02 -1.34021863e-01  4.37760092e-02 -3.18840772e-01
  -8.33332241e-02 -3.63327742e-01 -4.19664290e-03 -1.64300546e-01
  -7.72219442e-04  6.86915144e-02 -1.29738927e-01  1.21429771e-01
  -1.68238491e-01 -2.67125703e-02  1.00818696e-02 -2.53604501e-02
  -3.44174504e-02 -6.14101291e-02  2.39188865e-01  2.23323703e-01
  -4.71800491e-02 -7.70767927e-02  9.27537903e-02 -8.35863948e-02
  -3.16362828e-02 -3.53995293e-01  3.71884406e-02 -4.51252200e-02
  -1.44656990e-02  1.29726186e-01  3.83566506e-02 -6.54097944e-02
  -1.00058764e-01  4.31141891e-02 -1.08508095e-01 -1.56398341e-01
   5.95849492e-02 -1.28557265e-01 -5.93229473e-01 -6.11522384e-02
  -4.67637852e-02 -2.76932064e-02 -6.06931448e-02 -7.13779032e-01
  -1.17572926e-01 -8.89859721e-03  2.09037557e-01 -4.56558764e-02
   1.25491485e-01 -5.15069328e-02  2.73498297e-02 -8.07705820e-02]
 [-2.06495896e-02 -3.16215932e-01  2.63207573e-02  9.38879400e-02
  -9.75633562e-02 -5.15534077e-04  6.08270662e-03 -2.09735241e-02
   1.81938052e-01 -7.41509069e-03  1.68516591e-01 -2.37898141e-01
  -5.50279915e-02 -1.69574246e-02  7.41596520e-02  4.91029583e-03
  -1.07332297e-01 -4.76932824e-02 -4.48593870e-02  1.44027814e-01
  -2.10236832e-02  6.12560362e-02  9.65179726e-02  6.54894486e-02
  -1.94008902e-01 -4.97313291e-02 -1.84946526e-02  5.09778783e-02
   2.00818535e-02  3.21915410e-02 -8.37744698e-02 -5.94045743e-02
   5.55211753e-02 -4.76994067e-02 -9.43984371e-03  2.45049093e-02
   1.17313331e-02  4.13677543e-02  2.09037215e-03  6.34653866e-02
   1.31689608e-01 -9.60734561e-02 -1.07699104e-01  1.01358928e-02
   1.43861726e-01 -1.01113142e-02  5.90729974e-02 -1.07053466e-01
  -8.78818333e-02 -1.49631938e-02  1.13103278e-02 -1.85907856e-01
   7.92864487e-02  3.06482147e-02 -5.83033375e-02  4.48446721e-02
   7.44543001e-02  4.89840284e-02 -4.37544808e-02 -1.90552726e-01
  -5.53603023e-02  1.14132889e-01  2.77028289e-02 -1.52214199e-01
   2.07962580e-02  1.12491146e-01  1.26002699e-01 -2.13332940e-02
   1.28910169e-02 -6.95190430e-02  1.96775377e-01  4.09522317e-02
   9.92256105e-02  1.30226724e-02  1.47268832e-01  5.88623248e-02
   3.43246832e-02  8.14848915e-02 -3.37085985e-02 -1.53086990e-01
  -2.60043453e-05 -1.19428419e-01  7.84702413e-03 -1.91502839e-01
  -7.79395625e-02 -5.04690483e-02 -1.10537475e-02  9.53178927e-02
   8.25773999e-02  5.14740422e-02  1.33749336e-01 -3.83526795e-02
   4.97095436e-02 -1.74359384e-03  8.52182433e-02  1.03711613e-01
  -3.71238142e-02 -4.10733260e-02  7.35973567e-02 -3.47679555e-02
   1.13265887e-02 -7.37423524e-02  2.00103293e-03 -6.65913224e-02
  -2.32751265e-01 -1.41858701e-02 -7.18373135e-02 -3.14685293e-02
  -5.86384162e-02 -8.82050917e-02 -3.36960666e-02 -2.62647063e-01
  -4.33841757e-02 -6.40509948e-02 -2.04183012e-01  9.33051184e-02
  -1.06224455e-01 -6.88515604e-02  1.66791491e-02 -1.75875992e-01
  -9.53760871e-04  1.33162062e-03  6.94141388e-02 -1.92134213e-02
  -4.56638113e-02 -2.44381838e-02 -9.58868768e-03 -1.07291341e-01]
 [ 4.57823789e-03  5.42439446e-02 -2.43676957e-02 -1.47725731e-01
   1.30422981e-02  1.43347010e-02 -5.93766905e-02 -1.10814065e-01
   1.49746016e-01 -8.77863541e-02  1.57376438e-01 -1.67386353e-01
  -9.80417207e-02 -5.30766584e-02  1.14192091e-01 -2.44630948e-01
   4.94865775e-02  1.34390503e-01 -1.31523624e-01 -3.09107080e-03
   6.75064847e-02 -1.59739777e-02  1.26996741e-01  1.74350198e-02
  -3.39573354e-01 -6.03573658e-02 -7.68777542e-03 -6.15726784e-03
  -1.17125876e-01  7.98709244e-02 -8.98915976e-02  4.81835986e-03
  -1.84347983e-02  1.20261297e-01 -3.41909863e-02 -4.75344993e-02
  -7.00557902e-02  1.24459535e-01 -9.59374569e-03  6.65817037e-03
  -1.05762973e-01  1.14863753e-01 -1.17974259e-01 -5.90512417e-02
   5.94162196e-02 -1.85711049e-02  5.42251579e-02 -1.08793601e-02
  -9.49750543e-02 -8.08893740e-02 -3.34989764e-02 -1.01195425e-01
   1.78568274e-01 -5.90333156e-02 -6.21562302e-02  6.29637856e-04
  -5.26672555e-03 -6.92350976e-03 -8.54716823e-02 -1.69760920e-02
   3.20748687e-02  7.61373043e-02 -4.37376648e-02 -1.73697203e-01
  -1.52701344e-02 -1.53721811e-03  9.47792679e-02  8.35839510e-02
  -6.49470091e-02 -1.72186699e-02  3.08414008e-02 -6.12967163e-02
   3.31438892e-02 -5.87260015e-02  1.02198571e-01  9.93676260e-02
   9.44759510e-03  1.05683386e-01 -1.41433217e-02 -1.52278036e-01
  -8.36978778e-02 -2.30879262e-01 -4.27732319e-02 -1.12649955e-01
  -1.78716723e-02  4.68730479e-02 -5.95043227e-02  1.75714463e-01
   1.10760368e-01  1.43514825e-02  1.23079382e-02 -9.80177522e-02
  -2.36464560e-01 -4.88208234e-02 -2.97723040e-02 -2.73107346e-02
  -8.45425203e-02  9.24470928e-03  1.22491911e-01  6.42098114e-02
   1.07962929e-01 -1.64046824e-01  4.30813245e-02  4.92221452e-02
  -1.50048479e-01  8.85993913e-02 -9.94585827e-03 -7.62716010e-02
  -9.42557752e-02  1.71536226e-02 -1.72559008e-01 -2.14965731e-01
   3.17778662e-02 -6.85350969e-02 -4.28797938e-02 -9.46427360e-02
  -5.73357344e-02 -5.54171726e-02 -7.11150095e-02 -1.41640350e-01
   1.11627795e-01 -4.42673787e-02  1.32362515e-01 -9.90339369e-02
   3.03843375e-02 -4.22803871e-02  9.04275943e-03 -1.10589139e-01]
 [ 1.70427728e-02  1.27530947e-01 -8.55453312e-02 -3.57905090e-01
   6.10562451e-02 -8.55790898e-02 -1.79374218e-02  4.89064716e-02
   7.37778768e-02 -4.97583393e-03 -1.53279573e-01  1.53453024e-02
  -5.65905333e-01 -2.87161600e-02 -2.74672303e-02  1.26681030e-01
   1.20282955e-01  1.52861804e-01  3.10633555e-02  1.72806785e-01
   1.88934579e-01  3.97254407e-01 -4.92081493e-01 -1.76322520e-01
   2.00207438e-02 -1.65827032e-02 -4.29324843e-02  9.28082168e-02
  -2.37362906e-02 -4.99301367e-02 -2.46146880e-02 -3.48538637e-01
  -6.66959137e-02 -2.31495872e-02 -3.05308439e-02  1.28962975e-02
   3.17659378e-02 -2.16248021e-01 -1.22577362e-01  3.51271838e-01
   1.63698450e-01 -2.20829770e-01  1.69630873e-03  5.78805655e-02
   6.87747523e-02 -1.47640392e-01  1.13242470e-01  1.56014264e-01
   4.46393564e-02  5.75569179e-03  4.65218544e-01  2.54080951e-01
  -2.04605311e-01  2.84007460e-01  4.84194898e-04  2.39316672e-02
  -1.70230508e-01 -5.73212877e-02 -4.18822579e-02  1.73129335e-01
  -9.52810869e-02  1.32814273e-01 -9.26373340e-03 -9.16294977e-02
  -9.27484222e-03 -2.29866639e-01 -2.36324981e-01  3.60118262e-02
   8.36966485e-02  3.02260239e-02  2.28917710e-02 -3.03210616e-01
  -4.87911552e-02 -1.62921883e-02  3.96535359e-02  1.16364188e-01
  -4.10068221e-02 -2.98366964e-01 -2.09455147e-01  3.03531587e-01
  -6.95936829e-02  8.72469023e-02 -7.76458979e-02 -1.62163064e-01
   5.25662303e-03  2.88725197e-01  1.42393395e-01  3.32606524e-01
   6.57359809e-02 -7.00015202e-02  8.14162567e-02 -1.13029249e-01
  -2.99050063e-01  8.28401521e-02 -2.40839213e-01 -4.39879209e-01
   2.21288279e-02 -2.95968037e-02 -1.43129349e-01  4.17392962e-02
   1.70456231e-01 -3.62129211e-01 -1.44726560e-01  9.93426815e-02
   1.72145277e-01 -4.57473397e-02 -3.89528334e-01 -2.45529804e-02
  -6.87941387e-02 -4.65470433e-01 -1.59689374e-02 -1.25213861e-01
  -3.57679039e-01 -4.79715429e-02  2.71008790e-01 -3.45096260e-01
  -2.80948188e-02  1.24075040e-02 -6.28144890e-02  7.72639215e-02
   3.62434596e-01 -9.85059515e-02 -2.22803522e-02 -1.78143188e-01
  -6.70853138e-01  2.12440230e-02 -4.88986403e-01  2.82129217e-02]
 [-3.85579839e-02 -2.58233666e-01 -7.71079436e-02 -9.25287306e-02
  -6.32285103e-02 -7.28773996e-02 -6.50632828e-02 -9.36872363e-02
   1.11059397e-01 -1.97614253e-01  2.61371911e-01 -2.27188706e-01
  -6.23401888e-02  2.57020798e-02 -1.31561151e-02 -5.08867912e-02
  -3.33279639e-01 -8.83300826e-02 -3.31505358e-01 -6.64262027e-02
   2.70521268e-02  9.26323310e-02  1.05364040e-01 -2.47748848e-02
  -2.31830657e-01 -3.60671170e-02 -5.67168258e-02 -4.57936302e-02
  -4.93269861e-02  6.73145130e-02 -7.93219879e-02  3.15021537e-02
  -3.40460129e-02  7.72925420e-03 -3.08535136e-02 -4.45628092e-02
  -6.29780162e-03  7.92235881e-02 -8.16236958e-02 -9.22987759e-02
   6.84609488e-02  6.83598071e-02 -1.49844140e-01 -3.69163081e-02
   1.90932408e-01 -7.52768889e-02  1.51173145e-01 -3.85209471e-02
  -6.26119152e-02 -5.65647520e-03 -2.00533438e-02 -1.08576350e-01
   1.33559823e-01 -1.16318772e-02  1.51514523e-02 -7.20585287e-02
  -1.54745895e-02  7.39023983e-02 -5.94658963e-02 -2.22596690e-01
   5.07309148e-03  2.25240618e-01 -1.46257281e-02 -2.38506913e-01
  -6.26236424e-02  1.20598324e-01  9.17968620e-03  6.92583397e-02
  -6.39832066e-03 -5.34994015e-03  2.80293562e-02 -9.86560434e-02
  -2.50720739e-01 -3.84455174e-02  1.36583507e-01 -4.42847610e-02
  -4.04950343e-02  5.37941903e-02  1.70786515e-01 -1.47643447e-01
  -6.66683763e-02 -2.55410314e-01 -5.60462624e-02  1.15935273e-01
  -1.06563652e-02 -5.83358966e-02  3.64550613e-02  1.08697899e-01
  -6.87100634e-04  7.88249075e-02  1.35840759e-01 -4.26211916e-02
  -8.98914263e-02  6.92060404e-03  1.56288370e-01  5.09481318e-02
  -1.30794961e-02 -4.82928306e-02  1.73619241e-01 -4.33188617e-01
   8.65670741e-02 -1.30759701e-01  4.19764258e-02 -3.66812870e-02
  -5.83202206e-02  6.08718768e-02 -4.21635099e-02  8.61956552e-02
  -6.16703220e-02 -1.61298722e-01  2.46270560e-02  7.67250210e-02
   1.90877661e-01 -1.12390310e-01  4.36294004e-02  5.01126423e-02
  -1.10803284e-02 -7.98356980e-02 -3.07698036e-03  3.35958526e-02
   1.43766195e-01  6.80037886e-02 -7.74510624e-03 -1.57652810e-01
  -1.02030277e-01 -6.65795431e-02  4.74902056e-02  3.80449891e-02]
 [-1.08445384e-01  2.93518543e-01  2.68730558e-02 -1.06500529e-01
   4.01149727e-02 -5.06587923e-02 -1.80767402e-02 -1.72839705e-02
  -1.47901028e-01 -1.40394539e-01  4.63062152e-02 -2.53463447e-01
  -1.64594382e-01 -1.48235271e-02 -1.20112792e-01 -1.22306772e-01
   4.57911283e-01 -7.57814869e-02 -8.52575824e-02  2.73004562e-01
   1.75661445e-01  1.89867318e-01 -7.84976482e-01  4.38453078e-01
   1.90846443e-01  1.88100282e-02  1.58105046e-02  3.52990687e-01
  -3.06045283e-02  2.43668690e-01  3.02837845e-02 -1.76423434e-02
   2.37628222e-01  9.52339768e-02 -5.57821728e-02  9.52468906e-03
  -7.45034069e-02  2.42043823e-01  8.60466994e-03  7.74555206e-02
  -4.03521925e-01  5.08254208e-02  8.80162418e-02  2.16459915e-01
   4.32936996e-01 -1.18644737e-01  6.97686896e-02 -2.14524984e-01
  -4.69355471e-03 -2.98687797e-02  2.41405353e-01 -5.02140582e-01
  -3.36830527e-01  5.25948182e-02  1.32564474e-02 -1.98475532e-02
   1.20290080e-02  1.01487644e-01 -5.56064546e-02  4.55137491e-02
  -4.48705889e-02 -6.43467903e-03 -1.04069471e-01 -1.20391265e-01
   4.05527186e-03 -3.74897838e-01  3.70972365e-01 -5.75524531e-02
  -1.01296334e-02 -6.13962077e-02  2.78830588e-01  1.69519961e-01
  -2.72129178e-01 -1.24175195e-02 -4.09125201e-02 -1.62004828e-01
  -8.80604684e-02 -3.98775309e-01 -1.63363650e-01  1.81010962e-01
   4.90871407e-02  1.25856161e-01 -1.01301469e-01  5.27801365e-03
  -2.57934872e-02  1.07876696e-01  1.17766805e-01 -1.07729957e-01
   3.88849556e-01  1.95941076e-01 -5.13935462e-02  6.89952374e-02
  -3.81215513e-01 -6.65569603e-02  9.84682664e-02 -1.91908762e-01
  -9.23271626e-02 -1.48297912e-02 -1.35734543e-01  3.30945760e-01
   2.28413060e-01  9.72371846e-02  1.29808411e-01  1.68049037e-01
   7.99394324e-02 -6.86889365e-02 -3.34781021e-01 -7.86025897e-02
   8.96832123e-02  6.06142357e-02  2.15631440e-01 -2.12873146e-01
   3.62993151e-01 -3.04373443e-01  1.64770901e-01 -2.37194240e-01
  -7.42258132e-02  9.63483844e-03 -5.34816720e-02  6.19136393e-01
   1.95636332e-01 -2.35989802e-02  5.85912354e-02  1.86875928e-02
  -1.42634645e-01  3.31278052e-03  7.45849833e-02  3.05130556e-02]
 [-4.66960408e-02 -2.73720771e-01 -3.19272652e-02 -1.36509955e-01
   2.77021863e-02 -5.22837006e-02 -8.84123817e-02 -5.72417006e-02
   1.60742909e-01 -1.33554056e-01  7.53205270e-02 -2.45616943e-01
  -1.30999163e-01 -7.23679289e-02  1.71402708e-01  1.68080986e-01
   1.11247905e-01 -1.28460824e-01 -2.75954138e-02 -1.13609500e-01
   1.06944077e-01  4.39898930e-02 -2.71356460e-02  1.84527874e-01
  -4.18952294e-02 -5.23247523e-03 -2.73969471e-02 -1.75927311e-01
  -4.57574353e-02  2.95837931e-02  9.53315012e-03  7.23041445e-02
   1.82797208e-01 -9.56755504e-02 -3.50279026e-02 -2.93247234e-02
  -3.24464776e-02 -1.36261154e-02 -1.89313367e-01 -8.46551508e-02
   4.59986292e-02 -2.30078176e-01  2.07128212e-01 -2.62859374e-01
   1.53335169e-01  7.95555189e-02  3.51277553e-02  2.61617541e-01
  -4.24080528e-02 -2.74971034e-02  1.71399534e-01 -1.39570097e-03
  -1.92017823e-01  4.39931080e-02 -5.09983264e-02 -2.31223777e-02
   7.29264095e-02  1.08855411e-01  9.05356854e-02  7.81131983e-02
   7.14033935e-03 -3.59339751e-02  4.23206110e-03  1.20906673e-01
   9.39573720e-03  1.07337087e-01  4.92042750e-02 -3.79709862e-02
  -9.68518434e-04 -5.99084012e-02  5.18366024e-02 -1.24211371e-01
  -7.57057443e-02 -8.83327052e-02  2.24525109e-01  5.92335761e-02
  -7.00723827e-02 -9.86449122e-02  2.86917593e-02  1.33098483e-01
  -5.61568215e-02 -9.60409641e-02 -2.57871393e-02  6.73591122e-02
  -2.72074994e-02  7.72808343e-02 -2.20163420e-01  1.67118266e-01
  -2.76291788e-01  2.99508143e-02 -1.25025839e-01 -2.17960551e-02
   2.52175212e-01 -8.73280764e-02  2.26045236e-01  3.04208308e-01
   2.41000168e-02 -4.05112617e-02  9.63799953e-02 -4.25652135e-03
  -3.12268035e-03  5.16504720e-02  6.95509017e-02  1.17491394e-01
  -2.42552217e-02 -3.44808288e-02  5.19977696e-02  2.65327469e-02
  -1.59549303e-02  5.65011837e-02  6.33934811e-02 -3.39935496e-02
   2.97109578e-02  1.48786783e-01 -3.92483622e-01 -5.91192096e-02
  -1.46332930e-03 -4.77712080e-02 -3.61449905e-02 -5.34934819e-01
  -1.34466156e-01  9.24765691e-03 -6.16871472e-03  2.35539824e-02
  -2.18463782e-02  1.26509834e-02  1.42099559e-02 -1.63629293e-01]
 [-4.64164056e-02 -5.55396378e-01 -6.34176210e-02  1.55757666e-01
  -8.77387356e-03  1.24704279e-02  1.27440225e-02 -2.85194274e-02
   5.87226497e-03 -2.05998704e-01  2.24837512e-01 -3.79285544e-01
   2.18793660e-01 -9.61518940e-03  8.78765061e-02  2.85608530e-01
   4.40549105e-02 -2.36476690e-01  1.32171735e-01  2.95862257e-01
  -8.51270929e-02  2.50813246e-01  6.45925477e-02 -3.04073915e-02
  -4.74633202e-02  3.30085859e-05 -6.64686933e-02 -5.39563179e-01
  -6.40196130e-02 -1.72783390e-01  3.73269129e-03  1.73976719e-01
   1.56975687e-01 -1.66005239e-01 -1.72904674e-02 -5.93427569e-02
  -7.75034958e-03 -2.14731559e-01  1.46071807e-01  1.21134922e-01
   3.86017352e-01 -1.34304792e-01  8.31836388e-02 -1.34724453e-01
  -1.51005313e-01 -5.60713887e-01  3.04996818e-02  1.63266629e-01
  -9.52629000e-03  1.33413104e-02  1.09177433e-01  2.20813155e-01
   6.12671375e-02 -5.51151372e-02 -6.10537790e-02 -5.72680086e-02
   2.53597409e-01  1.60614952e-01  1.46502340e-02  4.73797694e-02
  -3.98888402e-02 -1.48773920e-02 -5.71885146e-02 -4.26670872e-02
  -4.75586988e-02  2.33235165e-01  1.93372026e-01  1.33554280e-01
  -1.26910005e-02 -4.68756557e-02  2.36795358e-02 -1.85087591e-01
   8.74979794e-02 -8.90676454e-02  2.55748808e-01  1.39882952e-01
   9.21580009e-03 -7.21406639e-02 -4.03311968e-01  9.15613323e-02
  -2.52550561e-02 -1.51889727e-01 -5.89333810e-02 -1.79256290e-01
  -4.76342365e-02 -1.71887785e-01  1.34232849e-01  1.51706517e-01
   2.75168940e-02  9.25591514e-02  2.28245199e-01 -4.03749309e-02
  -5.89822270e-02 -2.38256603e-02 -1.98844314e-01 -2.15107828e-01
  -5.24278432e-02  2.20616795e-02 -1.23136647e-01  6.00458942e-02
   1.60854414e-01  1.68233693e-01 -1.62302330e-01 -2.81588975e-02
  -1.50289893e-01  1.07259557e-01  8.52747187e-02 -9.47534386e-03
  -6.14978895e-02  8.53297859e-02  2.73984373e-01 -1.82276294e-01
  -4.42052297e-02  2.11299866e-01 -2.08574384e-01 -2.22027645e-01
  -8.30618218e-02 -7.14607611e-02  2.38753874e-02 -2.69254744e-01
  -1.24179296e-01 -1.01428833e-02  1.01265274e-01  2.29060575e-01
   1.29898578e-01  8.55306815e-03 -8.17594007e-02  2.34850496e-02]
 [-7.76768699e-02  3.41660939e-02  1.28505807e-02  3.64436120e-01
   2.30416395e-02 -4.08368111e-02 -5.50437346e-03 -5.28718485e-03
   3.21088284e-02  5.27029298e-02  7.69755468e-02 -2.04898372e-01
   3.69566008e-02 -8.40248391e-02 -2.87106913e-02  1.40033469e-01
   1.64089009e-01  1.06636081e-02  4.99492809e-02  6.91117123e-02
   1.10034578e-01  4.88817245e-02  2.35303044e-02 -5.96003197e-02
   1.08942762e-01 -5.97048067e-02 -1.09319035e-02 -2.61597872e-01
  -3.53312381e-02 -3.58471453e-01 -5.83268814e-02  1.00206807e-01
   2.86973774e-01 -5.66181958e-01 -2.86547374e-02 -9.24746990e-02
  -2.96559129e-02 -2.06501037e-01  3.09213847e-01 -1.12682797e-01
  -1.78476527e-01 -3.19077373e-01  9.44200978e-02  1.50093352e-02
   7.99178109e-02 -1.96754579e-02 -3.73777181e-01 -2.55300015e-01
  -2.55884882e-02 -1.03050686e-01  5.70533574e-02  1.31395191e-01
  -4.49556500e-01  1.88736975e-01  4.72320040e-04  9.00352001e-03
  -3.35993171e-01  3.34582739e-02  9.31718796e-02  7.04723224e-02
  -7.65263736e-02  7.70135922e-03 -6.59143925e-02  1.44903868e-01
  -1.96797997e-02 -3.63015570e-02 -3.33388746e-01  1.43861827e-02
   9.42999031e-03 -9.89436060e-02  1.10987239e-01 -5.52372746e-02
  -7.45974034e-02 -4.26861923e-03  7.68977627e-02 -1.47674173e-01
  -6.13297038e-02  2.05832660e-01 -2.80511707e-01 -2.24058241e-01
   7.87274260e-03  1.69916734e-01 -3.77330184e-02 -4.73206341e-02
   4.71621053e-03  4.25896421e-02  5.03572859e-02 -2.26205111e-01
   1.09356001e-01 -1.62681803e-01 -8.68940428e-02 -7.68331736e-02
   2.42078766e-01 -9.98503063e-03  9.51266587e-02  9.73016545e-02
  -1.19211171e-02  7.23885326e-03  8.66812542e-02  1.35310844e-01
   6.40581325e-02  1.34938881e-01  2.58826911e-01  2.27704942e-01
   5.28313257e-02 -5.87063581e-02 -1.33292889e-02 -5.69860637e-02
   1.15115419e-01  7.57658854e-02  1.47425458e-01  1.62624978e-02
  -8.41463879e-02 -5.71806915e-02 -3.45560521e-01 -1.45252764e-01
  -6.08936772e-02 -8.55844393e-02 -1.74370185e-02 -5.03999665e-02
  -2.62773961e-01 -9.77652445e-02  1.18370064e-01  1.46715999e-01
  -1.86482862e-01  2.30764896e-02  1.40901595e-01 -1.12122864e-01]
 [-8.93264487e-02 -1.27318944e-03 -3.05711050e-02  5.35511523e-02
  -4.68498133e-02 -8.55915099e-02 -3.70390192e-02  6.59979656e-02
  -1.19196616e-01 -1.03148885e-01 -1.65637597e-01 -1.93887830e-01
   2.90409476e-01 -8.52527320e-02 -5.93277454e-01 -7.83506036e-02
   1.37446940e-01 -9.11268964e-02 -2.70745158e-01 -2.18749046e-01
   3.10495675e-01 -2.58781016e-01 -7.89409757e-01 -1.30867988e-01
   2.22945169e-01 -3.08797508e-03 -8.35268125e-02 -4.59634811e-01
  -8.99384555e-04 -1.87514313e-02  2.92370580e-02 -2.72989899e-01
  -2.45745599e-01 -5.35459161e-01 -3.12737711e-02 -6.76673874e-02
   3.40082962e-03  1.13786928e-01 -3.75124104e-02  3.61146271e-01
   3.49292070e-01 -2.12155171e-02  8.09298754e-02  5.14685549e-02
  -3.14924300e-01  5.64971566e-02 -4.89840060e-02 -5.44933565e-02
   8.89203791e-03 -7.70808617e-03  3.61155905e-02  1.93569530e-02
   9.48815644e-02  7.74107426e-02 -7.24652484e-02  3.03140953e-02
  -1.04072899e-01 -3.29801184e-03 -1.01488484e-02  6.94622770e-02
   1.99550595e-02  1.63360596e-01 -8.37394968e-02 -6.35301024e-02
  -5.83080351e-02 -3.95485669e-01 -8.90615210e-03 -7.87190814e-03
  -6.30531609e-02 -4.12184782e-02 -1.28378987e-01  1.51384715e-02
  -2.18968436e-01 -2.70357672e-02  1.49673268e-01 -7.09225461e-02
  -1.13475807e-02 -2.57420614e-02 -2.47635730e-02  1.29865259e-01
  -7.87089318e-02  1.19525276e-01 -3.55723035e-03  5.66337593e-02
  -4.61240560e-02  8.97077087e-04 -5.56444377e-02 -5.28054953e-01
  -1.22023046e-01 -2.87936866e-01  2.75106162e-01  7.94035010e-03
   7.17319641e-03 -6.04047216e-02 -2.75210273e-02 -6.61979973e-01
   2.72599922e-04 -4.46258001e-02  8.45080614e-02 -7.55185448e-03
   2.24253744e-01 -1.30590841e-01 -1.19345695e-01  2.28161991e-01
  -5.65229841e-02 -1.45556733e-01  2.00362220e-01 -1.28879016e-02
   7.87922461e-03  1.95133954e-01  8.48620087e-02 -1.08168922e-01
   3.64325583e-01  1.35947064e-01  7.49894157e-02 -2.35864326e-01
  -2.58590523e-02 -1.63475191e-03 -7.88042694e-02  6.83638081e-03
   1.82536587e-01 -2.00723689e-02 -7.33167157e-02  2.15458069e-02
  -4.47435260e-01 -6.49236664e-02 -1.55418769e-01  4.34115864e-02]
 [-3.21225338e-02  2.95456015e-02 -5.93296736e-02 -4.00121480e-01
   2.15991326e-02  2.71895602e-02 -7.75397941e-02 -2.24427395e-02
  -3.06802750e-01 -2.03667372e-01  4.47562374e-02  4.25131395e-02
   8.59087929e-02  3.00023798e-02 -4.69723225e-01 -3.29914659e-01
  -2.40998775e-01  1.11926861e-01  4.90769334e-02  2.31621880e-03
   5.20782657e-02  2.79970765e-01 -3.07942986e-01 -2.49718115e-01
  -1.80177927e-01 -9.25477073e-02 -6.22560410e-03 -4.39939611e-02
  -4.92360268e-04 -1.06594317e-01 -9.70091820e-02 -3.24609786e-01
  -2.40841851e-01 -5.20112477e-02 -6.69309497e-02  1.78883895e-02
  -5.77427410e-02 -1.15943335e-01  2.08793849e-01 -1.94526345e-01
   1.26340866e-01  3.72117460e-02 -3.44782174e-01 -1.19279869e-01
  -3.81454751e-02 -1.37031242e-01  4.64076221e-01 -1.89179599e-01
  -2.33705956e-02 -1.74946152e-02 -7.45003372e-02 -6.90070316e-02
  -6.22146614e-02 -7.56037757e-02 -4.39301021e-02 -4.81655588e-03
  -1.35782480e-01  1.34255931e-01 -1.23314247e-01 -3.55512798e-02
  -6.40944913e-02  1.09639362e-01 -6.06167912e-02  3.86097655e-02
  -4.25115488e-02 -2.16361642e-01  1.40951261e-01  1.84090778e-01
   2.01878436e-02 -2.50869058e-02 -1.20180577e-01  5.52866124e-02
  -3.03706884e-01 -7.87459016e-02  5.35785221e-02 -2.21511632e-01
  -5.80701716e-02 -1.57220051e-01 -1.08711971e-02  1.71313033e-01
  -3.56506407e-02  2.02710256e-01 -6.75206929e-02  2.16562554e-01
   1.93790663e-02  8.43587443e-02  9.22652334e-03 -1.51686519e-01
   6.35888726e-02  1.43530011e-01 -1.37716485e-02  4.16609421e-02
  -6.78287446e-02 -4.82035503e-02  2.71269605e-02 -6.04624525e-02
  -3.28767933e-02 -7.81360567e-02  3.10466588e-01 -3.70163694e-02
  -1.32609338e-01 -1.32522002e-01  3.40741687e-02 -1.20584726e-01
   6.56785741e-02 -1.18145764e-01 -5.12571931e-01 -4.96859998e-02
  -4.71675023e-02 -1.35616139e-01  7.60332048e-02  5.73794777e-03
   2.03321949e-01 -3.11494112e-01  2.15191245e-01  1.57579735e-01
  -5.92240840e-02 -2.29664613e-02  2.29456257e-02 -2.65372068e-01
  -4.95880917e-02  2.67941132e-03 -1.26219481e-01  1.66425072e-02
   1.65394053e-03 -7.00258538e-02  1.62286516e-02  3.51536721e-02]
 [-5.56713119e-02  9.98503715e-02  4.61493470e-02 -2.30329737e-01
  -3.55640054e-02 -9.22048166e-02 -2.95861792e-02 -3.55019793e-03
  -5.00561178e-01 -1.57549024e-01  5.06977830e-03 -2.17997953e-01
  -4.59148914e-01 -4.55143377e-02 -2.28132993e-01 -4.13618200e-02
  -8.13990179e-03  7.32138902e-02  2.11132571e-01 -1.01126013e-02
  -1.37822643e-01  6.99956492e-02 -6.39304698e-01 -6.21431565e-04
  -1.78053707e-01  3.81691679e-02  1.40360435e-02  4.11746234e-01
  -6.97331503e-02 -7.77978078e-02  3.52751696e-03 -1.81396738e-01
   1.61086723e-01 -4.68486458e-01 -3.14700417e-02 -1.01655148e-01
   1.54477581e-02  2.75036633e-01 -2.23563891e-02 -1.12374075e-01
   3.48517671e-02  8.56149495e-02  6.88902140e-02  2.13636011e-01
   3.10914755e-01  3.29355329e-01  2.84503773e-03  2.32813675e-02
   8.57313722e-02  1.66650862e-02 -1.08465992e-01  1.08930096e-01
   1.68619201e-01  6.17206655e-02  1.38825625e-02 -3.29658501e-02
  -4.15583521e-01  4.94406000e-02 -8.28132853e-02 -4.40116942e-01
  -6.12338521e-02  1.79792657e-01 -6.79292977e-02 -7.04868287e-02
   9.91634093e-03 -1.88381433e-01  2.48852775e-01  7.75422379e-02
  -3.40886079e-02 -5.29651120e-02  1.69616729e-01  4.47673023e-01
  -4.55402881e-01 -6.90275878e-02 -4.28150892e-01  7.45769292e-02
  -2.98606753e-02  7.75550446e-03 -9.08192918e-02  3.69450539e-01
   2.41694991e-02  2.90883362e-01 -1.12648187e-02 -1.54970273e-01
   4.18023467e-02  6.24473356e-02  6.60584047e-02 -2.24310905e-01
  -2.06423968e-01 -9.13966596e-02  1.54429376e-01 -1.38864160e-01
  -3.56814079e-02 -2.48937234e-02 -7.90320560e-02 -2.50296116e-01
   8.68320465e-03 -4.48410697e-02 -3.43946934e-01  2.03080013e-01
  -1.80898860e-01 -1.65378451e-02 -8.16398859e-02 -2.56776601e-01
   2.28487968e-01  5.98138105e-03 -2.87021399e-01 -3.22567187e-02
   6.70036897e-02 -4.81351763e-01 -6.74376264e-02 -2.97035843e-01
   1.80122629e-01 -8.67042318e-02  4.50324714e-02 -1.94929749e-01
  -6.26910478e-02  1.77593529e-02  6.02984568e-03  3.26036215e-01
  -2.91588843e-01 -2.11076699e-02 -9.98447761e-02 -1.25964716e-01
  -5.55080473e-01  3.56578864e-02  1.24860123e-01  8.34927857e-02]
 [-7.27036456e-03 -3.02361310e-01 -5.62264174e-02 -1.48398593e-01
  -6.55931830e-02 -8.29957426e-02 -6.71732947e-02 -4.09195013e-02
   2.94203132e-01 -1.55493245e-01  8.18244964e-02 -3.29672664e-01
   5.34003489e-02  3.62980068e-02  2.07857355e-01  1.30694807e-01
   2.04439417e-01  6.99836314e-02  2.31855772e-02 -2.07420334e-01
  -1.84389308e-01  2.35538214e-01  1.19026713e-01  1.13958307e-01
   7.16249421e-02  1.47791998e-02 -7.25273937e-02 -7.45847449e-02
  -1.00136369e-01 -7.54368156e-02 -2.80027185e-02  2.09254220e-01
   1.75928190e-01  3.79304215e-02 -9.19266790e-02  4.23914334e-03
  -7.11173043e-02  1.92949072e-01 -1.73618626e-02 -4.20051999e-02
   3.75294760e-02 -2.47587115e-01  8.65476802e-02 -1.48444369e-01
   1.35995895e-01  4.19587083e-03 -2.49441698e-01  4.07144964e-01
  -9.70503390e-02 -6.33755773e-02  2.25844339e-01  5.38280886e-03
  -3.35268408e-01  2.40844041e-02  1.78401954e-02 -1.55681260e-02
  -1.63905799e-01  1.22298665e-01 -2.68970374e-02  2.22108856e-01
  -2.40378976e-02 -4.36398797e-02 -3.89720164e-02  5.37531450e-02
  -8.69860500e-02  2.55904585e-01 -1.73810199e-01  1.59307837e-01
  -5.88170737e-02 -3.31260823e-02 -9.60306730e-04  3.42455208e-02
  -1.19956415e-02 -2.67301109e-02  3.92327309e-01  1.29750567e-02
  -3.60816531e-02  1.11657195e-01  1.00371756e-01 -1.62963215e-02
  -5.31985834e-02 -1.33232489e-01 -5.65711744e-02  3.26507315e-02
  -4.66382839e-02  1.24852881e-01 -1.57613039e-01  9.95462164e-02
  -6.22620583e-02  1.84835941e-01 -5.11651188e-02 -1.01874433e-02
  -2.00662483e-02 -3.22197266e-02  3.17462653e-01  1.81639254e-01
   1.14714298e-02 -2.13838480e-02  3.20062041e-02 -2.79345125e-01
  -7.39631653e-02  3.15539762e-02  2.10873540e-02  9.95409787e-02
   3.84210832e-02  2.07055523e-03 -2.05799192e-02 -8.72737244e-02
  -1.32690877e-01  8.59366804e-02 -6.67438135e-02 -3.49868946e-02
  -1.03327543e-01 -9.26007554e-02 -4.86468464e-01 -1.52779356e-01
  -9.21235383e-02 -6.04733080e-02 -3.33493426e-02 -4.86488789e-01
  -1.52019843e-01 -1.57815665e-02 -7.11402372e-02 -4.81314696e-02
  -5.28411791e-02 -5.32904342e-02  7.79563338e-02 -5.41353226e-02]
 [-9.87813473e-02 -2.83015408e-02 -3.28353681e-02 -1.08960837e-01
   4.81534563e-02 -1.40559894e-03 -1.99964792e-02  2.50180792e-02
   2.50935387e-02 -4.66884635e-02  1.37463585e-01 -3.49429756e-01
   9.50041339e-02 -1.50055569e-02 -4.67055179e-02  1.13718905e-01
   4.15391736e-02  8.37801471e-02 -2.58772165e-01  2.91358620e-01
  -9.26992148e-02  3.04977030e-01 -3.19981133e-03 -7.29266927e-02
   1.15647152e-01 -9.06276982e-03 -5.30814044e-02 -2.89177626e-01
  -6.54566437e-02 -6.20948523e-02  3.63361724e-02  1.14996903e-01
  -2.87349708e-03  7.99243301e-02  3.58430739e-03 -2.97747608e-02
  -4.68208119e-02 -2.81497813e-03 -2.33377621e-01 -2.23786961e-02
   9.12700668e-02  1.40958309e-01  4.73411493e-02 -3.05848926e-01
   1.86095327e-01 -3.88945371e-01  2.73278207e-01  6.32070974e-02
   4.53484431e-02  2.53229942e-02 -1.23519972e-01  1.62960410e-01
   2.51930654e-01 -1.98870867e-01 -8.23207349e-02 -6.15627207e-02
   1.17536962e-01 -3.54586542e-02 -7.50853643e-02  3.86625230e-02
  -6.73592687e-02 -2.92270124e-01  3.35729867e-02 -1.61914676e-01
   1.83783993e-02  2.10421961e-02  4.89777438e-02  8.23161229e-02
  -1.64799683e-03 -5.49413636e-02 -1.35559123e-02  1.93926781e-01
  -1.29311576e-01 -4.00714315e-02  8.47188383e-02  7.09153488e-02
  -3.96749899e-02  3.38250846e-02 -1.59278184e-01  1.26600161e-01
  -4.57129776e-02  1.63240835e-01 -6.02295585e-02 -2.34681726e-01
   1.91647448e-02 -3.03693265e-02  5.99682219e-02 -7.19725788e-02
   3.13489437e-02 -8.95097479e-02 -1.46925831e-02 -4.67283353e-02
  -1.48045182e-01  8.32017288e-02 -1.59788206e-01 -1.83141917e-01
  -1.88660640e-02 -1.03639839e-02  3.87819819e-02  1.83808734e-03
   3.44474912e-02  1.46816611e-01  7.73288310e-02 -6.79148138e-02
   1.79800298e-02  8.64907578e-02 -2.81288708e-03  2.30199099e-03
   5.23422025e-02  1.17456138e-01  8.22262391e-02 -5.62752672e-02
   1.18019335e-01  9.40639004e-02 -8.79779086e-02 -3.43996167e-01
  -3.48702036e-02 -3.71185206e-02  4.32698131e-02 -5.67391396e-01
  -9.38892663e-02 -1.97958406e-02 -2.52180606e-01 -1.51820198e-01
  -1.96900323e-01  1.98181812e-02 -1.41379356e-01  5.04385494e-02]
 [-1.51330410e-02  1.74705759e-01 -4.42895480e-02  1.34556830e-01
   4.96975929e-02 -3.25535461e-02 -1.70557201e-02  2.19757878e-03
  -1.54618531e-01  1.07970521e-01 -8.67457390e-02 -1.51906684e-01
  -1.27598196e-01  1.19189471e-02 -4.64159727e-01 -7.11617693e-02
   2.63660342e-01  1.40069872e-01  2.58716226e-01  1.70685902e-01
  -3.73079814e-02  1.75109714e-01 -4.14774895e-01 -1.17783964e-01
  -1.75344393e-01 -3.77886230e-03 -2.32509896e-02  8.67788866e-02
  -5.18703833e-02 -3.30464095e-02 -1.55034652e-02  2.38659382e-01
  -1.56705782e-01 -6.47415400e-01  6.20956048e-02 -1.76199712e-02
  -6.60121292e-02 -1.01222014e-02  1.36708602e-01  2.84401365e-02
   1.20351844e-01 -6.57654777e-02  1.33610480e-02 -2.11546376e-01
   1.07696272e-01 -1.54677629e-01  2.58003026e-01 -3.62421155e-01
  -1.79528929e-02  2.07659160e-03  2.31119320e-01 -1.24385007e-01
  -1.47172317e-01  6.92699701e-02 -2.36741770e-02 -4.97009270e-02
  -1.80155914e-02  6.43679574e-02  6.12222515e-02  4.70904745e-02
  -1.95153896e-02 -1.54430449e-01  1.74573169e-03  1.12237915e-01
  -2.02072542e-02 -4.81037587e-01  7.15466291e-02 -9.45491195e-02
   1.95197575e-02  1.81262952e-03  2.98404574e-01 -6.96402937e-02
   3.96392137e-01 -6.36418089e-02  4.21343232e-03 -9.53654721e-02
  -4.92468476e-02 -2.15345509e-02 -2.66633660e-01  1.82323977e-02
   2.16702977e-03  1.65786445e-01 -7.02566653e-02  2.76492000e-01
  -3.07810828e-02 -2.31035780e-02 -1.74472839e-01 -1.31298974e-01
  -4.92194980e-01 -3.85921188e-02  2.11487904e-01  1.65450219e-02
   2.65248150e-01 -6.17988370e-02 -1.55991256e-01 -4.49424952e-01
  -1.29730133e-02 -1.53783327e-02  1.07872665e-01  3.49247366e-01
  -1.83497760e-02 -2.48199105e-01 -1.42284721e-01  4.43479493e-02
  -2.66571760e-01 -1.37452530e-02  5.89498043e-01 -5.43950163e-02
  -1.01280250e-01 -2.75996894e-01 -8.19343701e-02  1.27076343e-01
   3.26078981e-01  1.59599751e-01  1.09978251e-01 -2.84248978e-01
  -5.18124625e-02 -2.52755545e-02 -1.08170165e-02  4.29142900e-02
   3.35749209e-01 -4.72934656e-02 -6.02548122e-02  2.06136689e-01
  -6.73249513e-02  2.10464131e-02 -2.35843778e-01 -4.45061848e-02]
 [ 5.54118641e-02  1.95596099e-01  2.57969443e-02 -4.63345051e-01
   5.72323017e-02 -9.26093236e-02 -8.79743323e-02  2.60661393e-02
  -1.40748126e-02 -4.49734367e-02  2.51953781e-01 -1.83182992e-02
  -1.28666237e-01 -4.68295515e-02  1.21238291e-01 -1.20342493e-01
  -6.88767135e-02 -3.11134756e-02  1.68678999e-01 -1.06000826e-01
   1.43379092e-01  4.79208678e-02 -5.62653124e-01  1.09791830e-01
  -1.77746713e-02 -5.70176877e-02 -3.89166959e-02  3.97485316e-01
  -3.91604081e-02  1.45555377e-01  2.86095366e-02 -4.37014669e-01
  -2.66647249e-01 -2.51640845e-02 -8.16326439e-02 -1.84633639e-02
  -1.90700237e-02  8.83318037e-02  1.59214377e-01  9.16730389e-02
   2.14403465e-01  1.62907302e-01 -5.28552309e-02 -7.98124373e-02
  -3.47057939e-01  8.58733878e-02 -3.39183569e-01 -1.96161307e-02
   6.48749620e-02 -8.95942748e-02  1.35846823e-01 -6.65010214e-01
  -9.99900028e-02 -2.91492091e-03 -5.81111275e-02  1.16572827e-02
  -1.95625558e-01 -1.71168402e-01  1.31246299e-02  5.49784079e-02
   2.35435795e-02  2.81319112e-01 -3.83392870e-02  1.93433329e-01
  -3.78593281e-02 -2.14044094e-01 -3.00115138e-01  8.49687830e-02
  -1.84551789e-03 -8.34231898e-02  1.88518733e-01  2.03779563e-01
  -3.08638245e-01 -1.24079026e-02  3.46972384e-02  1.89297870e-01
  -8.58926028e-02  1.25131845e-01 -8.42717439e-02 -1.70966387e-01
   1.69800594e-02  1.90636307e-01 -2.35182680e-02 -1.18159996e-02
  -3.04834805e-02 -1.99548379e-02 -3.93892266e-03  2.56900251e-01
  -1.07973829e-01 -2.14497998e-01  1.55750319e-01  5.67609631e-02
   1.50502697e-02  7.99330417e-03 -4.86439317e-01 -4.37377572e-01
   8.87642503e-02 -8.04631971e-03 -2.15370916e-02  1.92467079e-01
   1.78557917e-01 -5.45756891e-02  2.63946448e-02 -1.54835405e-02
  -3.51854950e-01 -4.93225791e-02 -7.83869475e-02  4.22939751e-03
   3.26181576e-02  8.21902975e-02  2.42156342e-01 -2.07669348e-01
  -1.43542392e-02 -1.60050988e-01  2.23719582e-01  9.82354656e-02
  -1.19205303e-01  2.67127659e-02 -2.28784122e-02  3.26845139e-01
   2.73401886e-01 -5.65953590e-02  1.31944656e-01  1.61380500e-01
  -3.10970366e-01 -1.38203306e-02  3.19212563e-02 -8.20369869e-02]
 [ 5.45479637e-03  4.99759577e-02  2.64402553e-02 -4.40150946e-01
  -3.91017720e-02  5.41472137e-02 -5.41678518e-02 -4.53410521e-02
  -9.96224284e-02 -1.01468720e-01 -2.52630144e-01 -2.50829756e-03
   2.95338966e-02  8.05928856e-02 -6.40127301e-01 -1.57478735e-01
  -3.09997737e-01  3.84407155e-02  1.91512048e-01 -1.27129750e-02
   1.68344174e-02  2.69242339e-02 -7.21426681e-02 -7.21967816e-02
  -2.75304496e-01  8.46182331e-02  6.67308399e-04 -3.47823560e-01
   1.24503691e-02 -4.81759682e-02 -4.46859002e-02 -2.16138437e-01
  -5.11677898e-02 -6.96305335e-02 -1.71190575e-02 -4.14881594e-02
  -6.32321909e-02  1.21036224e-01  1.17890351e-01 -5.49885668e-02
  -3.52053404e-01 -4.77530323e-02 -1.92373112e-01 -7.57364035e-02
   3.40141922e-01 -1.42453477e-01  4.52533156e-01 -9.52400118e-02
  -5.90912253e-02 -5.93530089e-02 -4.96843904e-02  2.12845802e-02
  -1.53662413e-01 -8.03567618e-02 -6.81000354e-04 -2.17977986e-02
  -4.18833762e-01  3.03397208e-01 -1.03534393e-01 -3.77880245e-01
  -1.78032815e-02 -1.77112281e-01 -6.27781078e-02  1.17224038e-01
  -7.33903423e-03  4.65900116e-02 -1.81352392e-01  4.76796515e-02
   3.96657661e-02  1.91167090e-02 -2.38044411e-01  3.16747189e-01
  -4.38084966e-03 -2.65193582e-02 -1.61344782e-01 -2.84390360e-01
  -8.46314523e-03 -2.21399784e-01 -1.29934894e-02  2.75230985e-02
  -2.86063459e-02  1.18204623e-01 -2.44620908e-02  1.05376378e-01
   5.79037368e-02  1.66289434e-01 -6.66054636e-02  1.42181991e-02
  -7.21044019e-02  1.27211198e-01  4.16343585e-02  4.54700217e-02
  -5.11818267e-02 -4.43826504e-02  1.00462414e-01 -3.85956138e-01
  -5.81289493e-02 -2.45106090e-02 -2.78247986e-02 -3.26460481e-01
  -1.79114461e-01 -3.44110817e-01 -2.07090005e-01 -2.18362853e-01
  -9.18004941e-03 -6.78878799e-02 -1.88424208e-04 -8.59961845e-03
  -1.08409245e-02  9.77878869e-02 -4.38752681e-01 -2.19285324e-01
  -1.04640894e-01 -9.29072574e-02  2.42563725e-01  3.22752148e-01
   2.02069916e-02 -7.30340555e-02 -1.80932060e-02 -2.51187861e-01
  -1.55686840e-01 -4.66944166e-02 -2.14831501e-01 -9.79019701e-02
  -3.54741607e-03 -2.24695727e-02 -1.59581080e-01 -1.83651261e-02]
 [-1.10743053e-01  1.17756560e-01  5.57598062e-02 -3.26017477e-02
  -1.33820921e-02 -2.12989170e-02 -5.47712855e-02 -3.91635038e-02
  -2.43763864e-01 -1.02597326e-01 -2.34075695e-01 -1.98339261e-02
  -3.08503956e-01  7.87734799e-03 -1.00422241e-01 -2.28049144e-01
   1.50375292e-02 -3.58277820e-02 -1.76132858e-01  5.86262420e-02
  -3.73997331e-01  1.21543981e-01 -1.65159211e-01 -3.60259771e-01
  -1.04110450e-01  6.59678355e-02  3.53230047e-03  4.15926665e-01
  -4.61788177e-02  1.37412414e-01  3.49027701e-02 -3.36558759e-01
  -3.50606516e-02  3.47916722e-01 -4.82019447e-02 -2.68133730e-02
  -4.83120829e-02 -6.03552796e-02  2.37979945e-02 -1.28521457e-01
  -1.59491107e-01  4.94737625e-02  1.97200209e-01  4.24208879e-01
   2.85705924e-01 -5.78256100e-02 -1.78900003e-01 -6.42408729e-02
  -7.54980370e-02 -6.28758520e-02 -1.18449200e-02 -7.43325427e-02
   2.19455227e-01  4.54815537e-01  2.29707435e-02 -4.92186286e-02
  -4.49084640e-01  3.33146721e-01 -3.21125947e-02 -2.33439550e-01
   1.55251974e-03  3.99739623e-01  2.82884706e-02 -1.09669454e-01
   2.43468657e-02 -2.78684050e-01  2.77557999e-01 -4.60782880e-03
  -2.66409107e-02 -1.16814636e-02  1.52094923e-02  3.23340267e-01
  -1.16953410e-01 -9.44470093e-02  1.13020696e-01  1.97104096e-01
   3.72566469e-02 -1.45655617e-01 -3.02619282e-02  2.11244702e-01
   3.90979461e-02 -7.56662041e-02 -4.31921668e-02  6.77306652e-02
   3.61990780e-02 -9.16802045e-03  2.13757783e-01  2.20734015e-01
   2.32698232e-01  3.77223849e-01  1.00438900e-01 -2.55207028e-02
   1.11355029e-01 -1.48684597e-02 -1.66517552e-02 -3.35461557e-01
  -7.57504180e-02 -9.96930804e-03 -2.45969892e-01  2.67040342e-01
   8.56062770e-03 -1.88939851e-02  5.14690280e-02 -6.01160340e-02
   1.28332138e-01  1.65713299e-02 -1.76271394e-01 -1.18521033e-02
   6.52682316e-03 -2.79426485e-01 -3.96115296e-02 -7.38612860e-02
  -6.33442625e-02 -9.75247845e-02  6.56842738e-02 -1.51378050e-01
   8.34529847e-02 -1.45894811e-02 -2.17214189e-02 -4.08785045e-02
  -5.23534976e-02 -5.43522183e-03 -3.55495065e-01  1.67300493e-01
  -4.15827543e-01  9.39022228e-02  1.68519557e-01 -4.31319233e-03]
 [-3.47131342e-02 -3.48832250e-01 -3.84119265e-02  1.41537366e-02
  -3.41536142e-02 -3.09886560e-02 -5.51487617e-02 -3.80387530e-02
   2.02413321e-01  9.61781517e-02  3.94676216e-02 -2.80825943e-01
   2.95190956e-03 -1.62332915e-02  1.84276506e-01  7.24938437e-02
   1.24780320e-01  1.80455130e-02  1.39877409e-01 -1.58858597e-01
   5.04408404e-02  1.79923728e-01 -5.80107421e-02  1.36783630e-01
   1.18175410e-01 -3.60612050e-02 -8.18481371e-02  1.13805402e-02
   6.08154712e-03  9.33601931e-02 -2.04105657e-02  9.74578038e-02
  -5.76948933e-02 -2.58249372e-01 -4.77044620e-02 -3.60564739e-02
  -6.10475652e-02  1.93394080e-01 -4.41234410e-02  1.31614089e-01
  -1.84459135e-01  1.51905328e-01  1.90889761e-02 -2.52370983e-01
  -1.19958438e-01 -6.37056157e-02 -9.58250687e-02 -9.13535208e-02
  -5.76310866e-02 -9.33445990e-02  1.99398786e-01 -9.95424166e-02
  -1.96271986e-01 -1.30359516e-01 -4.17520292e-02 -5.64574916e-03
  -1.01300396e-01  1.52942136e-01 -4.04289998e-02  1.64972022e-01
  -5.02503738e-02 -4.68357168e-02 -1.03230670e-01  2.07170591e-01
  -1.79443378e-02  1.06242247e-01 -1.96733996e-01 -2.72492529e-03
  -7.36295304e-04 -1.19898766e-02 -2.43231189e-02 -5.86490966e-02
   1.34555986e-02  2.40297448e-02  1.82223290e-01 -5.26691489e-02
  -8.30560103e-02 -2.22555816e-01 -1.71586692e-01 -9.90417302e-02
  -2.01768689e-02 -1.00804036e-02 -7.20622167e-02 -8.17859247e-02
   1.58123416e-03  4.92433086e-02 -2.18918532e-01  7.12943375e-02
   2.12303232e-02  2.97714602e-02 -2.04241071e-02 -3.58221121e-02
  -1.27882555e-01  7.81602971e-03  1.91715747e-01  1.51941285e-01
  -8.67417678e-02  7.37539551e-04  1.93695843e-01 -1.80685639e-01
   5.01951948e-03 -1.10144325e-01  1.00498892e-01  1.55858040e-01
   1.28078714e-01 -1.10279903e-01 -2.68677305e-02 -7.47204646e-02
  -4.39892486e-02  6.47661015e-02  1.75815038e-02 -2.06526905e-01
   6.42816126e-02 -3.07342052e-01 -3.09599876e-01  7.61712119e-02
   9.91920568e-03 -3.27505097e-02 -4.11324315e-02 -4.08425987e-01
  -8.29073694e-03 -3.13380137e-02  5.58052883e-02 -2.05228433e-01
  -6.18617646e-02  2.17954386e-02  3.73861473e-03 -1.57537498e-02]
 [-7.43819699e-02 -2.81109244e-01 -5.80121540e-02  2.27546580e-02
   7.94989765e-02  2.34740637e-02 -5.97623028e-02  3.63047868e-02
   8.05055052e-02  2.19580792e-02  5.89709431e-02 -2.05875352e-01
  -1.37860060e-01 -7.56854340e-02  5.68749793e-02  2.57489970e-03
  -2.11872682e-01  2.75349230e-01 -2.22035915e-01 -3.24712656e-02
  -1.68152839e-01  5.48631400e-02 -1.81957427e-02  2.87487030e-01
   7.31513426e-02 -7.86085799e-02 -2.30677407e-02 -2.10588574e-01
   2.52127904e-03  2.23491099e-02 -1.40407449e-02 -1.99833378e-01
   4.87668552e-02  3.20129484e-01 -3.74185108e-02 -1.29216267e-02
  -1.69838145e-02  2.39513338e-01 -1.02899864e-01 -3.57304104e-02
  -1.22203128e-02 -1.06557973e-01  2.11540669e-01 -4.52186346e-01
   7.29830861e-02 -2.57398605e-01  2.36072153e-01 -2.65460182e-02
  -4.28302586e-02 -2.38571297e-02 -6.09740317e-02  1.89757913e-01
   2.45132014e-01 -1.78852275e-01 -2.11883076e-02  1.86387151e-02
   1.16447255e-01 -2.84711714e-03 -5.77443168e-02 -6.64166883e-02
  -4.67869863e-02 -1.36617333e-01 -7.71914469e-03 -2.76726633e-02
  -7.04757571e-02  8.68166238e-02 -1.77333519e-01  1.57156348e-01
   2.61128284e-02 -8.97060987e-03 -9.16541293e-02  1.44778296e-01
  -4.66351897e-01 -1.35006336e-02 -9.56110377e-03  2.18730904e-02
   1.44700082e-02  3.86128947e-02 -4.09862809e-02 -1.94747567e-01
   1.51711181e-02  2.85977691e-01  2.73839710e-03 -6.13411441e-02
  -8.39797929e-02  8.02491382e-02  1.43010631e-01 -1.15381807e-01
   6.92200065e-02 -3.25980455e-01 -3.30996454e-01 -8.74313787e-02
  -1.57542631e-01  2.49850154e-02  1.92175210e-02 -1.74477369e-01
  -8.88152942e-02 -6.14401549e-02 -1.37292609e-01  3.85231972e-02
   1.06546409e-01 -2.99748629e-01  3.41299884e-02 -1.12536892e-01
  -2.24072337e-02 -9.83087718e-03 -1.49799541e-01 -4.16336097e-02
   3.35451588e-02  7.81331137e-02 -1.42991632e-01 -2.62138218e-01
  -3.63866873e-02 -3.94058041e-02  1.17047645e-01 -1.46808047e-02
  -9.64119583e-02  5.82103208e-02  4.86323697e-04 -5.01714945e-01
  -1.37146130e-01 -8.92291404e-03  1.03915352e-02 -1.29291251e-01
  -2.40661308e-01 -4.84618731e-03 -3.74475121e-02 -7.37529295e-03]
 [-6.67050597e-04  2.21877873e-01  7.05970638e-03  4.32648733e-02
   1.49172107e-02 -1.15664639e-02  5.11188842e-02  6.77297264e-02
   1.57251105e-01 -2.45205820e-01 -1.98773772e-01 -2.11536661e-02
  -4.59285021e-01  3.90835069e-02 -2.22005159e-01 -8.20454508e-02
  -1.36709303e-01  3.30982178e-01 -5.91605306e-02 -6.92507997e-02
  -6.71931403e-03  3.48251402e-01  1.06034219e-01 -5.58834851e-01
  -2.90212631e-01  2.87739951e-02 -7.44574293e-02 -2.38374308e-01
  -7.45024458e-02  7.52869695e-02 -5.25671877e-02 -1.99398156e-02
  -3.02206650e-02 -4.49695617e-01  6.30825385e-02 -8.43053386e-02
  -6.50291517e-02 -1.79579467e-01  1.84873462e-01  1.18118890e-01
   1.69893160e-01 -6.87264949e-02 -1.19631894e-01 -4.52280492e-01
   2.48937905e-01 -1.12135313e-01  2.60391057e-01 -1.21979803e-01
  -8.85725617e-02 -8.38504080e-03  2.49213651e-02 -1.89712703e-01
  -4.38506633e-01  1.26580089e-01 -1.93238873e-02 -3.33318859e-02
   1.27383128e-01  5.88165708e-02  1.11629935e-02  3.38360248e-03
  -1.21086035e-02  3.43730628e-01 -3.31319608e-02  3.19422454e-01
  -1.61727257e-02 -1.46282256e-01 -1.87239945e-01  2.59818789e-02
  -3.92333046e-02 -1.09315582e-01 -7.07136374e-03  1.93711758e-01
   1.30687848e-01 -9.23661739e-02 -1.47841617e-01  1.30147606e-01
  -1.33903865e-02 -7.73686469e-02  1.20248847e-01 -7.89448172e-02
  -2.46559829e-02 -2.03420650e-02 -7.27672353e-02  4.18701097e-02
   5.98870479e-02  2.00729128e-02 -8.74139741e-02 -2.50429571e-01
   9.32972729e-02 -9.41382051e-02 -2.72267401e-01 -4.82113399e-02
   2.00629458e-02 -6.29306026e-03  1.70403421e-01 -2.83441782e-01
  -8.73929113e-02 -4.12771059e-03 -1.82708874e-01  1.81162477e-01
  -2.63984382e-01 -3.19829196e-01  1.58295020e-01  1.72214821e-01
   1.87621728e-01 -3.16380411e-02  3.21436137e-01 -1.46164512e-02
  -6.68373406e-02 -5.37079513e-01  9.92097706e-02 -2.33295988e-02
  -3.61305252e-02 -9.48077962e-02 -7.36006945e-02 -2.90053170e-02
   4.71005365e-02 -8.06591380e-03 -6.90441579e-02 -3.00120026e-01
  -2.71771222e-01 -3.08145229e-02  1.96173176e-01  1.20066956e-01
  -2.01641575e-01 -5.39544746e-02 -6.45687152e-03 -3.68516296e-02]
 [-5.90109602e-02  5.64147718e-03 -1.09968614e-02 -6.15203120e-02
  -8.33366886e-02 -1.09193046e-02  1.98597787e-03  6.48525506e-02
  -1.73062846e-01 -1.35761663e-01 -3.82169306e-01 -2.05086187e-01
  -2.72456855e-01 -7.43197650e-02 -4.68962073e-01 -2.87104957e-02
  -1.08483307e-01 -2.32736915e-01  1.67377353e-01  5.01219295e-02
   9.48548615e-02 -7.10782632e-02 -5.67514777e-01 -7.60956883e-01
  -1.24456674e-01 -2.99488250e-02 -8.43646228e-02  1.96343437e-02
   1.09356605e-02 -2.40859792e-01 -3.80400866e-02 -6.61058649e-02
   5.94270639e-02 -2.56642103e-01  1.71744055e-03 -1.69567876e-02
  -3.90178859e-02 -1.52753085e-01  2.86416829e-01 -2.46771514e-01
   2.71564543e-01 -1.00614945e-03 -2.88274109e-01  2.40452290e-01
  -2.60249734e-01 -5.61063886e-02 -2.37413049e-01  2.54380375e-01
   2.17819344e-02  2.70772502e-02  1.14521086e-02 -2.08054349e-01
  -1.13625266e-01  1.14145301e-01  1.40265478e-02  7.34165963e-03
  -1.30731300e-01 -1.81489974e-01 -6.74417689e-02 -1.80286333e-01
  -3.84106450e-02  1.00300923e-01  3.45938373e-03  1.49330556e-01
   2.00616121e-02  3.15151304e-01  1.83034569e-01 -1.11242849e-02
  -3.78409810e-02 -1.33118510e-01 -2.61120021e-01 -1.55042991e-01
  -2.39040196e-01  4.81227972e-03  3.05725634e-02  1.47933830e-02
  -3.76183800e-02 -1.50122374e-01  2.98388809e-01  1.97164997e-01
  -2.17289086e-02 -2.41380855e-01  5.36199547e-02  3.10931116e-01
  -7.95969367e-02  1.78953364e-01 -5.91921099e-02 -1.27224743e-01
  -4.49038565e-01 -2.68094182e-01 -1.78251471e-02 -7.66195208e-02
   1.38860330e-01 -5.75762466e-02 -8.71393681e-02 -4.30472910e-01
  -8.97157490e-02 -7.11876974e-02  8.67983326e-02  4.24608439e-01
   3.53776306e-01 -1.96278527e-01  1.85233146e-01  2.93008499e-02
  -1.05888965e-02 -1.52270049e-01 -6.36950135e-02 -6.31696954e-02
   6.90461993e-02  2.96357572e-01  3.37609380e-01 -9.55462530e-02
   7.33827874e-02  7.41153657e-02  7.58932829e-02  1.44726127e-01
   5.65474713e-03 -9.46419872e-03  2.96949525e-03  2.10274115e-01
  -2.47189283e-01 -9.29324329e-02  2.00125188e-01 -1.51468575e-01
  -3.36973816e-01 -7.02167824e-02  2.77356803e-01  7.92323872e-02]
 [-5.55782206e-02 -8.59620944e-02  2.28353590e-02 -6.93597272e-03
  -7.42819309e-02  1.50855887e-03 -5.62381297e-02 -1.13603026e-02
  -1.54732481e-01 -6.80829287e-02 -1.54432267e-01 -5.95711060e-02
  -7.07780942e-02  2.05320958e-02 -4.93345261e-01 -9.81553644e-02
  -9.68045220e-02  1.06679961e-01  3.38986553e-02  9.54676792e-02
  -1.13202438e-01  6.50730282e-02 -3.86314131e-02 -3.63964513e-02
  -3.74873102e-01 -5.75019196e-02  1.11736339e-02  3.29902917e-02
  -1.58950035e-02 -6.61258250e-02  1.01314690e-02  4.72713709e-02
  -3.69254619e-01 -8.56189877e-02 -5.97267635e-02  2.55340710e-02
  -7.83378035e-02  9.98561308e-02  3.35104614e-02 -1.09549671e-01
  -2.43596792e-01 -2.45157927e-01 -1.39946178e-01  2.31630489e-01
   7.20631108e-02 -1.00668959e-01  2.55043536e-01 -6.62385896e-02
  -6.69951886e-02 -2.93117091e-02 -1.78193286e-01 -2.44412702e-02
   5.59382886e-02  7.08205858e-03 -4.34143841e-02  2.56851055e-02
  -1.72490597e-01  2.51163512e-01 -1.13517068e-01 -2.28918090e-01
  -4.00010012e-02 -1.37006804e-01 -2.47578276e-03  4.98478003e-02
  -3.27639136e-04  2.07301155e-02 -9.80791897e-02 -4.14281376e-02
   6.06902083e-03  3.59865837e-02  3.36993545e-01  7.08904490e-02
   1.74407795e-01 -3.50437462e-02 -2.32673660e-01 -2.42531851e-01
   4.98122498e-02 -1.53667787e-02 -1.91228002e-01 -3.66410136e-01
  -8.47072452e-02 -2.21812502e-01 -6.28479868e-02 -1.37627855e-01
  -6.20832760e-03  1.47004455e-01 -1.63163319e-02  5.39797768e-02
  -5.79411238e-02  3.12030837e-02  3.41688395e-02  5.36654443e-02
   9.82347876e-02 -2.54393723e-02  8.33660457e-03 -2.15172708e-01
   1.17986696e-03  4.44970420e-03  1.51510492e-01 -3.22547048e-01
   1.47115499e-01 -1.65947899e-01 -1.48663178e-01 -2.58487254e-01
  -1.62456483e-02 -9.65129060e-04  9.48669538e-02  4.47847508e-02
  -6.98209330e-02 -3.20010334e-02 -3.20263177e-01  1.52621597e-01
  -1.29718510e-02  8.30331966e-02  1.75090909e-01  9.05888677e-02
   1.09894564e-02 -1.51386214e-02 -8.37166086e-02  1.83146372e-01
  -2.59037524e-01  5.68958484e-02  1.49558624e-03 -1.02906987e-01
  -1.23738594e-01  1.64795350e-02  6.62695244e-02 -4.12449911e-02]
 [-5.74517697e-02  1.63512722e-01  8.30958486e-02 -2.80398130e-01
  -3.14963721e-02 -2.94758808e-02 -5.94629033e-04  1.99329238e-02
   3.60971838e-01  2.04318911e-01 -2.98497498e-01 -2.46325150e-01
  -1.76567525e-01  1.37579476e-03  2.24627420e-01  2.71697581e-01
  -5.94450273e-02 -3.66752930e-02  1.15369752e-01  6.05699681e-02
  -1.33098036e-01 -1.18136495e-01 -1.03848673e-01  1.34981871e-01
  -7.74566010e-02 -1.48187689e-02  1.80804078e-02  1.21928051e-01
  -1.03700623e-01  6.57074571e-01  8.51533841e-03 -3.15220386e-01
  -4.18245375e-01  5.22029996e-01  1.20105613e-02 -2.59022154e-02
  -2.01869104e-02  2.95921117e-01  2.31155142e-01  1.73626572e-01
  -2.11570449e-02  2.16689776e-03  9.21205431e-02  3.56102556e-01
   8.02517012e-02 -1.02919869e-01 -2.96945665e-02 -1.05743714e-01
  -4.65295650e-02  7.86665920e-03  2.41289437e-02  1.65239573e-01
  -7.42661282e-02  4.00617898e-01 -8.05421621e-02 -9.23327357e-03
  -2.65930772e-01  1.81204528e-01  1.59707610e-02  2.31852427e-01
   1.87000241e-02  1.80910185e-01 -7.44890887e-03 -1.35435998e-01
   2.43937504e-02  1.15096821e-02 -1.53123349e-01  2.10662901e-01
  -7.23813921e-02 -8.09974298e-02  1.44933946e-02 -2.22371846e-01
  -4.75900829e-01 -9.04515758e-02  3.54539812e-01 -3.16108435e-01
   6.35972470e-02 -6.14686720e-02 -2.56607443e-01  1.28063783e-01
  -3.19846347e-02 -7.29899034e-02 -2.64429934e-02 -1.84692159e-01
   2.62933150e-02 -1.19480938e-01  1.67506263e-01  2.11172532e-02
   1.99090675e-01  2.24232208e-02  2.30420724e-01  7.65602989e-03
   2.38150641e-01 -7.27515714e-03 -7.67246112e-02 -4.40597028e-01
  -3.81429829e-02 -3.95350009e-02 -2.85092115e-01  2.58558560e-02
  -1.04613498e-01 -2.41879392e-02 -1.60346255e-01  3.13102975e-02
  -1.24832071e-01  6.49045259e-02 -1.55528694e-01 -2.56434083e-02
  -5.53488396e-02 -6.22824319e-02 -1.76319152e-01 -3.77822784e-03
  -3.11689973e-01  3.25385988e-01 -4.08505835e-02 -3.18933994e-01
   3.22510786e-02 -1.51669504e-02  2.50243600e-02 -9.42828134e-03
  -3.41779701e-02  2.81998292e-02 -2.73079220e-02 -1.85440987e-01
  -2.91704804e-01 -7.17575699e-02  1.68363318e-01 -4.71486785e-02]
 [ 1.09171644e-02 -1.92719251e-01  1.64762344e-02 -1.85784951e-01
  -1.12491576e-02 -8.03760141e-02 -4.45491821e-02 -2.05905270e-02
   1.70277104e-01 -2.37041749e-02  7.24929869e-02 -3.26192230e-01
  -7.20340610e-02 -3.54242288e-02  1.61580861e-01  8.13248158e-02
   1.18016854e-01 -1.79244965e-01  1.87408268e-01  3.95312198e-02
  -9.44699571e-02  1.86058611e-01  1.86194386e-02  9.83391255e-02
  -2.18544733e-02 -7.05880374e-02 -5.67365205e-04  1.48590188e-02
  -2.97190435e-02 -6.75400868e-02 -2.98931412e-02  9.00267586e-02
   7.95318559e-02 -2.99590111e-01 -1.18380919e-01 -4.13049683e-02
  -5.71229029e-03  5.76695241e-02  2.20897496e-01  8.81544054e-02
  -3.77752036e-02 -9.30215567e-02 -1.37815788e-01 -4.13950711e-01
  -1.39445931e-01 -5.14594465e-02 -1.33453935e-01  1.35513917e-01
  -8.16512033e-02 -2.88154855e-02  1.22763522e-01 -8.14554319e-02
  -1.76150635e-01 -1.18593015e-02  2.48263106e-02 -9.92855895e-03
   8.49216506e-02  2.66800761e-01 -4.33383919e-02 -1.29327923e-01
   1.59219168e-02 -6.36062101e-02 -2.73640174e-02  2.28849471e-01
  -2.63869180e-03  2.18160346e-01 -4.99631949e-02  1.35256156e-01
  -1.22463284e-02 -5.92276827e-02  9.00485963e-02 -1.32273287e-01
  -7.05541149e-02  2.06834618e-02  2.19058514e-01  7.82446638e-02
  -7.67025165e-03 -1.75457895e-01 -9.79597792e-02 -7.62104848e-03
  -6.24249093e-02 -3.37020084e-02 -3.17183919e-02 -9.45272818e-02
  -8.53405595e-02  5.98606355e-02 -1.17958128e-01  1.33462265e-01
  -4.02402207e-02  2.11227182e-02 -2.77783215e-01 -1.42939379e-02
  -1.28160939e-01  6.75206492e-03  5.30269034e-02  2.19644219e-01
   3.76422741e-02 -8.41652974e-02  1.46375895e-01 -1.68929204e-01
  -6.51269704e-02  3.97500433e-02 -9.98397171e-02  2.19429865e-01
   1.25181615e-01 -7.57829770e-02 -7.89866820e-02 -7.41710290e-02
   5.80578065e-03 -7.86579624e-02  2.16686781e-02  5.40643604e-03
   2.66054757e-02 -6.15131594e-02 -1.31018102e-01  4.37392183e-02
  -1.15487669e-02 -5.12907431e-02  2.09295098e-02  1.92545517e-03
   5.12802135e-03 -2.42481492e-02 -1.10525312e-02  3.15267518e-02
  -1.55647203e-01 -5.11068478e-03  3.77393588e-02 -1.15838215e-01]
 [-5.24500571e-02 -3.56224388e-01 -4.19427976e-02  2.18688980e-01
  -6.57931715e-02 -7.62818679e-02  4.21373686e-03 -3.87812853e-02
  -1.50910035e-01  4.16118689e-02 -2.67893642e-01 -9.67489406e-02
  -1.40684739e-01 -2.43203454e-02 -1.40928179e-02  4.48918864e-02
  -1.00743130e-01  1.43081442e-01 -4.57862653e-02  1.37445837e-01
   5.67664430e-02 -1.89016890e-02 -8.37046057e-02 -7.23894313e-02
  -3.79627384e-02 -4.10021655e-03 -5.04175723e-02  1.16207562e-02
  -8.76910314e-02  2.78654188e-01  2.81363800e-02 -2.35324595e-02
  -4.94967140e-02 -2.37277344e-01  3.12895440e-02 -3.88834216e-02
   2.70155482e-02  1.21124893e-01  7.39768818e-02 -6.16397597e-02
   6.55272976e-02  6.19205944e-02  1.74100563e-01 -4.12271172e-01
  -1.14903264e-01 -5.08189797e-01  3.43644053e-01 -1.32844761e-01
  -4.36716191e-02 -8.75983760e-02 -9.74483192e-02 -1.08193494e-02
   2.02813044e-01 -1.16835400e-01  1.56228952e-02 -3.83721404e-02
   1.00537457e-01  2.23595083e-01 -2.14277003e-02 -1.18910886e-01
  -1.62975676e-02  6.78627267e-02 -2.34758370e-02  7.98932370e-03
   2.20418740e-02  5.11902682e-02 -1.28596956e-02 -1.67606577e-01
  -7.38854334e-02 -5.95093407e-02  1.53113663e-01  3.69295590e-02
  -2.47200429e-01  2.12147832e-02 -4.79619838e-02 -1.26839988e-02
   8.80343746e-03 -9.99600859e-04 -9.70799401e-02 -6.73081726e-02
  -2.46266890e-02  1.16095528e-01 -6.34065494e-02  5.88045195e-02
   8.02336037e-02 -1.24142751e-01 -3.84482928e-02  1.01373516e-01
   5.06648533e-02 -2.21208826e-01  1.86299920e-01 -4.69430462e-02
  -3.03489387e-01  5.16434759e-03 -1.00068510e-01  1.04896240e-01
  -2.65676789e-02 -5.96794225e-02  3.42631824e-02 -6.35827556e-02
  -7.94130117e-02 -4.08290982e-01 -1.41223803e-01 -4.21694249e-01
   1.28377393e-01  4.70191166e-02  1.08131602e-01 -8.76733214e-02
  -2.35275142e-02 -1.70563888e-02 -4.43475917e-02 -2.09419549e-01
  -1.54776812e-01  1.13765590e-01 -1.01123706e-01  1.41070038e-01
  -8.67324881e-04 -4.65735607e-02  8.27154890e-03 -2.87904799e-01
  -1.43021107e-01 -5.62398806e-02 -1.56103030e-01 -2.04245359e-01
  -1.16935126e-01 -6.45433813e-02  6.92712069e-02 -7.33702481e-02]
 [-1.91108584e-02  1.75667718e-01 -6.30965689e-03  1.72913179e-01
  -4.17293720e-02  1.50202624e-02 -8.19136724e-02  5.21671548e-02
   1.08197458e-01  3.25505435e-03 -1.76145405e-01  3.87188755e-02
  -3.13975802e-03 -6.60778508e-02 -2.52058953e-01  1.82663918e-01
  -2.12069869e-01  6.75618723e-02 -2.25428194e-02 -1.39989212e-01
  -1.45748839e-01  7.61176646e-02  1.88406989e-01 -3.16387832e-01
  -1.45680818e-03 -4.16288450e-02  2.28608008e-02  1.57121047e-02
  -4.54628728e-02 -1.73204929e-01  2.66391728e-02  1.73555225e-01
  -3.85108411e-01  3.01728219e-01 -5.30019179e-02  1.20948404e-02
  -9.07718912e-02 -4.95866016e-02 -5.68097904e-02 -9.24103260e-02
  -7.16074184e-02 -1.79196313e-01 -7.51047283e-02 -6.68281615e-02
   3.13176304e-01 -1.35600865e-01  9.06579643e-02 -2.50827193e-01
  -4.66580577e-02 -4.68931906e-02  1.02685489e-01  2.53769696e-01
  -1.46541314e-03 -1.13551199e-01 -8.97281170e-02  3.75512242e-03
   2.37717718e-01 -3.24917808e-02 -2.59170271e-02  7.70564824e-02
   2.30807960e-02 -1.82519272e-01  8.21834952e-02  2.44512856e-01
  -4.05814983e-02 -1.34032834e-02  8.99993554e-02  1.11065835e-01
  -8.48647300e-03 -4.37369421e-02 -6.41757399e-02 -3.47198814e-01
   3.87260556e-01  1.26657952e-02 -4.71452214e-02  3.60333212e-02
  -7.48782186e-03 -2.10324317e-01 -6.21480495e-02 -1.78510711e-01
  -6.65176064e-02 -1.09448843e-01  4.10722941e-02  1.22077562e-01
  -5.09524420e-02 -1.83497727e-01  2.06062883e-01 -4.34462577e-01
  -2.01362610e-01  9.16621611e-02  2.22080916e-01 -3.59143019e-02
  -4.40783799e-02  2.55950149e-02 -4.86218110e-02 -9.34789181e-02
   1.56071214e-02  2.42726672e-02 -2.37697020e-01  2.17365891e-01
   5.28886216e-03 -2.10284352e-01  9.78146419e-02 -9.52590909e-03
  -4.86708395e-02 -1.40708074e-01  2.83711940e-01 -8.86417776e-02
  -1.55416839e-02  1.06082678e-01 -2.03096624e-02  5.41997068e-02
  -1.37229756e-01 -5.25001027e-02 -3.87659967e-02 -7.04857260e-02
  -3.20953876e-02 -5.03043607e-02  3.90653089e-02 -3.74234349e-01
   3.30177769e-02  3.71209858e-03  7.20588043e-02 -3.09911788e-01
  -1.89078182e-01 -8.41794163e-02  8.31245109e-02 -2.40216088e-02]
 [-9.87774208e-02  8.81477967e-02  5.84352389e-02 -4.36833978e-01
  -5.06022014e-02 -3.30550456e-03 -8.61834064e-02 -5.49154244e-02
  -1.07019342e-01 -2.26594403e-01 -4.20930177e-01  1.72045425e-01
   1.74379066e-01 -8.30861107e-02  4.83355105e-01 -2.66952127e-01
   2.17520550e-01 -2.80279398e-01  2.49164551e-01  2.17497915e-01
   3.73291224e-02 -3.53091359e-01 -2.62627363e-01 -2.27628425e-01
  -2.05085352e-02 -4.01244219e-03 -7.92395025e-02  2.16425270e-01
  -7.85493944e-03 -8.76421854e-02  4.45982106e-02  9.15769041e-02
  -1.55383989e-01  1.76844597e-01 -2.00854857e-02 -6.64600683e-03
  -3.46367806e-02  2.59813309e-01 -1.11410491e-01 -1.51125237e-01
  -3.98088843e-02 -1.03089713e-01 -5.70238158e-02  1.10722624e-01
  -5.76168895e-01  2.09658556e-02 -2.81666517e-01 -1.02301545e-01
   7.37926289e-02 -1.40189230e-02 -6.19743355e-02 -2.55053639e-01
   1.35924578e-01 -2.07765587e-02 -8.35014135e-02  2.40110047e-02
   5.95706441e-02 -1.53318578e-02 -4.82852235e-02 -1.16863377e-01
   7.84071628e-03  2.28662997e-01 -6.15555942e-02 -6.12437055e-02
  -5.45646958e-02 -1.85155079e-01 -3.08680683e-01  1.52672097e-01
  -8.02597404e-02 -7.32797980e-02 -2.00737759e-01 -2.67605931e-01
  -6.36308253e-01 -6.64335117e-02  6.64746314e-02  5.34482002e-01
  -4.56737122e-03 -2.18074188e-01  1.93825781e-01  1.44590870e-01
   8.04411694e-02  3.26889336e-01 -5.75059617e-04  2.99417257e-01
  -1.88706152e-03  1.87314615e-01  2.29292735e-02 -5.39582036e-02
   7.36986622e-02 -1.14413396e-01 -1.02449976e-01  1.12087959e-02
  -3.09106678e-01 -2.12071296e-02 -2.10524648e-02 -8.82066414e-02
  -6.55614585e-03 -2.96917427e-02  3.08759838e-01 -5.82869686e-02
   1.70245439e-01 -1.07136935e-01  2.09179848e-01  3.95939827e-01
  -2.09110752e-01 -2.14949008e-02  5.27859479e-02 -3.49209681e-02
   2.14493833e-02  5.93263842e-02  1.92978084e-02  2.32823985e-03
  -2.41890639e-01 -4.43760538e-03  2.16966525e-01 -1.25657886e-01
   8.08569714e-02 -1.87600367e-02 -1.47590330e-02  2.35946119e-01
  -1.62608728e-01 -2.07795091e-02  2.61100143e-01  1.86775520e-01
  -1.44226179e-01  1.03170276e-02 -1.43292964e-01  1.80960842e-03]
 [-1.07755736e-02  3.26482773e-01 -1.18159978e-02 -1.81562036e-01
   8.42887908e-03  6.28016517e-02 -9.19190571e-02 -4.38099168e-02
  -1.47517920e-01  7.96168596e-02 -3.39916229e-01  1.18733183e-01
  -2.39007160e-01  2.25489661e-02 -3.09490651e-01 -1.40010014e-01
  -8.13624486e-02 -8.54432583e-02 -4.82076854e-02  2.05925956e-01
   2.42016467e-04 -6.39566556e-02 -2.21202433e-01 -2.29708515e-02
  -3.19421053e-01  1.80473514e-02 -8.20881501e-03 -1.31562963e-01
  -1.06659733e-01 -1.84443384e-01 -1.01487838e-01 -2.27363080e-01
   7.80819431e-02 -5.70276082e-02  4.82975915e-02  5.19488845e-03
  -7.34344199e-02  1.48481727e-01 -1.10260151e-01 -2.07086787e-01
  -7.12923408e-02 -2.71524757e-01  4.04552883e-03 -1.26744121e-01
   1.78737976e-02 -1.41604006e-01 -8.88496935e-02 -6.36087582e-02
  -6.77192137e-02 -3.63904089e-02 -7.74533525e-02 -3.68753634e-02
  -6.04515895e-04 -2.57966936e-01  2.37224549e-02  2.49062404e-02
  -5.91340661e-01  1.43645883e-01 -8.94152597e-02 -2.90264308e-01
  -4.93007861e-02 -9.64742824e-02 -1.17142703e-02 -1.72770768e-01
  -8.31288174e-02  1.08884789e-01  7.11851045e-02 -8.61265957e-02
   1.70274843e-02  1.97182912e-02  1.15230404e-01 -5.62875085e-02
   1.36963069e-01 -4.42624055e-02 -4.63251024e-02 -2.54201204e-01
   1.21930717e-02 -1.67273372e-01 -1.18689328e-01 -2.41071254e-01
  -6.21095076e-02 -1.75337180e-01 -9.09719169e-02  3.06473095e-02
   4.98707443e-02  6.72126859e-02  8.99168327e-02 -1.90739468e-01
   2.36078978e-01  2.91261300e-02 -6.31178692e-02  1.31232217e-02
   1.54599100e-01 -5.36896922e-02 -1.37469284e-02 -1.71377942e-01
  -6.47100359e-02  2.37863604e-02  1.08410448e-01  1.53010815e-01
  -1.70443460e-01  5.28726503e-02 -8.05455372e-02  6.96023181e-02
   1.64519697e-01  7.74633959e-02 -8.79576281e-02 -1.72702875e-02
  -1.43666059e-01 -2.45758444e-01 -2.07182750e-01  1.68445483e-01
  -1.13627873e-01  3.30733252e-03  1.09622404e-02  1.85430422e-01
  -6.25676587e-02 -7.95716271e-02 -4.12263796e-02  9.02570114e-02
  -1.40885025e-01  8.62529427e-02 -2.79015660e-01  1.57119840e-01
   7.79282078e-02 -3.67716551e-02  9.12493542e-02 -5.85155748e-02]
 [-6.15400523e-02  2.47182027e-01  3.80926440e-03 -2.53126681e-01
  -1.51806083e-02 -7.81613886e-02  3.09140366e-02 -1.37837678e-02
   2.43635163e-01  2.56171763e-01 -6.84902370e-01 -3.76625210e-01
   2.82151401e-01  7.25649744e-02 -4.95326966e-01 -3.99603657e-02
   8.20058733e-02 -4.50524054e-02  2.09202021e-01  9.48823690e-02
  -1.69513717e-01 -5.52707464e-02 -7.06758142e-01 -1.20009355e-01
  -2.23890524e-02 -3.43499705e-02 -2.55559161e-02 -7.68150343e-03
  -2.68895030e-02  1.52829587e-01 -1.14743123e-02 -1.50637448e-01
  -2.84654647e-01 -2.07371321e-02  2.09232830e-02 -3.07284556e-02
  -5.49789481e-02  3.52412999e-01 -9.58627313e-02  2.66093552e-01
  -1.08599380e-01 -2.80089855e-01  1.31903544e-01  2.52494644e-02
   3.37547958e-01  1.23329952e-01  1.77044779e-01 -4.08048362e-01
   2.02456117e-02  3.37386318e-02  1.31813496e-01  1.84269696e-01
  -1.68560609e-01 -1.25440970e-01 -7.18179867e-02  4.82838601e-02
  -6.86552823e-02  3.67032349e-01 -7.41846263e-02  7.85683990e-02
   3.92483687e-03  1.34882465e-01 -1.95180457e-02 -2.07393616e-01
  -3.70246619e-02 -4.80700210e-02  5.32490276e-02  1.82165071e-01
   2.78830770e-02 -5.61517738e-02  1.03228260e-02  6.62723631e-02
   9.15284455e-02 -3.08003817e-02  4.23063524e-02 -8.44030917e-01
  -4.62409947e-03 -3.68355036e-01  3.33523601e-02 -1.34149522e-01
  -3.40998173e-03  2.51459256e-02 -9.54918712e-02 -1.11791134e-01
  -2.22690292e-02  1.13476748e-02 -1.46754205e-01  4.77046566e-03
  -3.53572355e-03 -3.97986267e-03  1.56802148e-01  7.72868376e-03
   2.22376436e-01  1.92086771e-02 -1.25553265e-01 -4.80924636e-01
  -6.47890493e-02 -3.70530076e-02 -3.47320497e-01  8.83478746e-02
   1.81318577e-02  2.96838969e-01  2.11858436e-01  8.18299353e-02
  -3.03189784e-01 -6.27613664e-02  2.04221234e-01 -4.74150851e-02
  -6.38815910e-02  1.24881260e-01  1.90076455e-02  6.75187781e-02
  -3.47188324e-01  3.21552634e-01 -4.61553317e-03 -3.30428481e-01
  -1.71504412e-02  1.65501069e-02  2.31137429e-03 -1.12275481e-01
  -1.61354870e-01 -4.73464802e-02 -4.19163443e-02 -3.42616029e-02
  -7.63570130e-01  1.66551825e-02 -1.77219149e-03 -2.66527925e-02]
 [-3.99071537e-02 -4.14433420e-01  3.43672447e-02 -1.78291306e-01
  -7.84897991e-03 -5.54100517e-03  3.10832933e-02  7.60369512e-05
   2.93885041e-02 -1.03521068e-02  1.87826380e-02 -4.00583306e-03
   1.41903888e-02  3.97062227e-02  8.16839561e-02  9.30653512e-02
  -1.06356747e-01 -1.74956858e-01 -1.46151492e-02 -1.76800400e-01
   1.06697522e-01  2.03690771e-03  1.55532554e-01  4.64699231e-02
   1.04517294e-02 -1.09575326e-02 -6.64016977e-02 -9.66485664e-02
  -1.12012796e-01 -6.25928491e-02 -8.15078244e-02  1.50607765e-01
   3.11596598e-02 -3.07752639e-01 -1.92681546e-04 -5.41536473e-02
  -5.42446263e-02 -4.46684957e-02  1.64501444e-01  2.01457858e-01
  -3.23435664e-01 -2.37139523e-01 -8.36568922e-02 -2.84340203e-01
  -1.13557667e-01 -6.79418892e-02 -3.61317992e-02  7.30355307e-02
  -1.63770355e-02 -2.10268144e-03  1.28841281e-01  1.01746209e-02
  -1.17709480e-01  1.79586783e-01 -4.03737910e-02 -6.57018572e-02
   7.81349465e-02  9.89334956e-02  7.22410604e-02 -5.24978787e-02
  -8.26886222e-02  4.81883883e-02 -1.14050414e-02  2.15825841e-01
  -9.07427743e-02  2.00031891e-01 -1.11318529e-01  1.55195117e-01
  -6.01411611e-02 -1.19279459e-01 -1.36352070e-02 -7.27170706e-02
  -1.30891383e-01 -5.90340942e-02  2.03668803e-01  1.22655995e-01
   1.00119216e-02 -1.03745565e-01  5.37792919e-03 -8.23988765e-02
  -5.98168038e-02 -7.37253949e-02 -2.78631896e-02  1.22528851e-01
  -8.32102075e-02 -5.24559692e-02 -1.36651516e-01  1.59408934e-02
  -1.76287040e-01  5.99747673e-02 -2.29128867e-01  7.83446580e-02
   6.74692318e-02 -4.98865135e-02  1.13963924e-01  3.83368522e-01
   1.11544468e-02 -6.98236004e-02  2.23924275e-02 -2.79393852e-01
  -7.50654265e-02 -2.16367349e-01  8.50999821e-03  1.42945290e-01
   9.29708257e-02  8.78211781e-02  4.82074693e-02 -7.70326480e-02
  -9.31958705e-02 -2.25044563e-02  8.90485197e-02  5.04323468e-02
   2.36393884e-01 -2.71510124e-01 -2.52652675e-01  5.55231720e-02
  -4.36135605e-02 -3.19737643e-02 -1.07083516e-03 -7.16897249e-02
  -3.17147560e-02 -5.08158095e-02  1.13840789e-01  1.25801042e-01
  -2.46164706e-02 -2.87241507e-02  1.18073437e-03 -7.77990893e-02]
 [-1.29206190e-02 -1.86585516e-01 -7.85991102e-02  1.19002961e-01
  -2.26684231e-02 -2.10008919e-02 -7.55409375e-02  3.20434272e-02
   2.22498998e-02 -1.24886535e-01 -3.18282634e-01 -1.13919638e-01
   1.19280536e-02 -6.50605559e-02 -1.60692707e-01  7.47472644e-02
   8.83542299e-02  6.55084848e-02  8.84080902e-02  6.66517913e-02
  -5.11115976e-02 -2.29198471e-01 -2.67175194e-02 -2.12292597e-01
  -8.36179703e-02  2.02919841e-02  7.86036253e-03 -9.68617201e-03
   1.39827123e-02  1.57609358e-01  4.30529378e-02  2.11724475e-01
  -2.12247550e-01 -7.44493604e-02 -6.25654235e-02 -4.45374064e-02
   2.68697795e-02  2.70142078e-01  3.20184156e-02 -1.99166849e-01
  -1.65076822e-01 -4.22519058e-01  3.24872434e-01 -2.68547565e-01
  -6.81795925e-02 -5.69563270e-01  2.35020995e-01  1.60189971e-01
   4.49651480e-03 -7.20118955e-02 -7.41567910e-02 -8.19025859e-02
   1.26727059e-01 -1.61905557e-01 -7.27069378e-02  5.39603131e-03
   1.88904516e-02  7.97609761e-02 -6.24508299e-02 -2.33620927e-01
  -7.57939555e-03 -2.06302151e-01  6.87749125e-03 -1.47169009e-01
  -9.77415475e-04  6.06079912e-03  1.41144589e-01 -1.24733761e-01
  -7.75201470e-02 -5.79372197e-02 -5.77026196e-02  2.49483004e-01
  -3.16002488e-01  1.37662478e-02  1.95593853e-02  3.04013163e-01
  -2.77350862e-02  6.16890900e-02  7.19661312e-03 -1.05904967e-01
   5.46104126e-02 -1.48210404e-02 -1.02927377e-02  3.54283564e-02
  -6.45388663e-02 -2.39804953e-01 -1.99976210e-02  2.12119311e-01
  -9.97184403e-03 -2.98468973e-02 -7.73961991e-02 -8.67004991e-02
   4.42238711e-02  2.71335877e-02  4.73043993e-02  1.97925538e-01
  -2.77118850e-02 -2.46465355e-02 -6.37139603e-02  1.36149064e-01
   1.35035783e-01 -3.03626031e-01 -2.01899245e-01  2.62543440e-01
  -3.53451483e-02 -1.60657912e-02 -2.50979125e-01  1.13966456e-02
   3.93531546e-02  7.41817728e-02  1.18953869e-01  2.88432520e-02
  -2.20194504e-01 -2.06711609e-02 -6.03905320e-02  1.05213068e-01
  -5.51186055e-02  1.09493462e-02 -6.36812896e-02  3.45405966e-01
  -9.87866670e-02 -9.75479558e-03 -1.88853860e-01 -2.08589077e-01
   9.63976257e-04 -4.41613607e-02 -1.51407227e-01 -2.12705489e-02]
 [-6.33843616e-02  2.10886925e-01 -1.18461382e-02  2.35756952e-03
   5.09916358e-02 -1.12711042e-02  3.33565958e-02 -1.44698266e-02
   3.17991942e-01  9.01474133e-02 -2.16755327e-02 -1.12682939e-01
  -6.57333657e-02 -9.65297893e-02 -7.16606677e-02  5.46761090e-03
  -1.89077519e-02 -9.06776562e-02  1.49890184e-01  1.89988807e-01
   1.28001586e-01  1.16922334e-01 -1.04251742e-01  1.54729292e-01
  -9.01250765e-02 -5.90587640e-03 -1.17161945e-02  2.79789954e-01
  -8.10742676e-02 -9.91446152e-02  2.32281238e-02 -1.64390411e-02
  -1.96687728e-01 -1.30592892e-02  1.04887283e-03  1.30646992e-02
  -5.98580092e-02  7.92857781e-02  2.14229256e-01  1.05092883e-01
  -2.36782078e-02 -1.33634973e-02  1.82307661e-01 -1.52821317e-01
   7.14021996e-02 -3.55353445e-01  8.17679912e-02 -1.64447024e-01
   1.74942636e-03 -6.21469207e-02  1.36507869e-01 -6.37465417e-02
  -3.48893434e-01  1.29268363e-01 -9.07623693e-02  3.89746800e-02
  -4.96934615e-02 -1.43156741e-02 -8.45982209e-02  1.84487030e-01
  -5.62446825e-02 -9.00751054e-02  1.62138436e-02  2.48158455e-01
   6.90471902e-02 -1.81080207e-01 -3.50672066e-01  2.71426253e-02
  -2.48635393e-02 -8.72030035e-02 -4.37408760e-02 -9.17954147e-02
   1.84553102e-01 -6.03587776e-02  9.53501016e-02  1.49431318e-01
   4.87953919e-04  2.88244383e-03  1.35368288e-01  6.91915154e-02
  -8.33557639e-03  1.36381596e-01 -8.30112323e-02  7.76766287e-03
   4.11672108e-02  2.63852239e-01 -3.26579601e-01  2.12507606e-01
  -2.99349457e-01  2.39576280e-01  1.67598441e-01 -6.70712143e-02
   1.24713726e-01 -1.75764021e-02 -1.02510182e-02  2.67544724e-02
   7.44695216e-02  2.87789106e-02  5.13031147e-02  1.28514826e-01
  -3.32688361e-01 -1.56753942e-01 -1.03216261e-01  5.49466573e-02
   1.05075531e-01 -7.22951889e-02 -2.28558585e-01  2.12655449e-03
  -2.52893809e-02 -3.00221611e-02  8.85578319e-02 -1.59839183e-01
  -5.31020820e-01  1.54674008e-01 -1.30648147e-02 -8.61501843e-02
   1.36765111e-02 -5.68229631e-02 -3.90383299e-03 -2.28803337e-01
   5.72622521e-03 -3.14646363e-02  2.44023025e-01 -2.74174154e-01
  -2.59130418e-01  2.33202777e-03  5.22095594e-04 -5.82240932e-02]
 [-3.04040462e-02 -6.63902611e-02 -1.24137867e-02 -2.42968380e-01
  -3.32143642e-02 -4.94073257e-02 -2.00780574e-02 -2.03684829e-02
   2.94672847e-02 -3.14222090e-02  2.71712504e-02  1.86168373e-01
   2.64710277e-01  7.16728643e-02 -3.68849665e-01 -3.07471126e-01
  -1.33645132e-01 -1.72901332e-01  1.57499865e-01 -1.98839664e-01
  -7.72804320e-02 -3.77911925e-01 -2.61509925e-01  1.39287591e-01
   2.34829132e-02  1.36832753e-02  3.44408937e-02  6.76180841e-03
   1.76213235e-02  1.34370779e-03  6.54384401e-03 -2.96072006e-01
  -4.47082132e-01  3.70563194e-02 -8.91764183e-03 -9.18737501e-02
  -1.21185067e-03  2.00110093e-01 -6.62088767e-02  1.41391069e-01
   2.56801397e-01 -8.13373476e-02  3.95075455e-02  2.58490026e-01
  -2.32598558e-03 -6.14354834e-02 -7.64706805e-02  2.28173323e-02
  -7.73013309e-02 -4.63965014e-02 -1.39924079e-01  3.97698991e-02
   4.11767028e-02 -1.07038923e-01 -6.19982779e-02  5.50096557e-02
   2.07085043e-01 -6.04423648e-03  7.92429671e-02  2.53752023e-01
  -9.53801572e-02 -8.43924507e-02 -4.54862639e-02  3.37393396e-03
  -4.60783727e-02 -3.26071531e-01 -5.32029495e-02  3.27575975e-03
  -2.01712251e-02 -3.69267166e-02 -1.55759394e-01 -2.24446639e-01
  -1.36252254e-01 -1.65105220e-02  2.55208053e-02 -2.72970676e-01
   2.16353685e-02 -2.63314366e-01  4.89902087e-02  8.35636929e-02
  -1.31653277e-02  1.23097941e-01  1.60798263e-02 -5.23548909e-02
   5.59341460e-02  1.19070828e-01  2.04112455e-01 -2.43622229e-01
  -1.79920048e-02 -5.93066961e-02 -1.47238865e-01 -1.05946571e-01
   2.72793353e-01  5.27765527e-02 -5.58035254e-01  2.00360775e-01
   2.37724017e-02  1.91863887e-02  2.12706570e-02  2.17215821e-01
   3.71808745e-03 -2.14335561e-01  1.28601938e-01  2.15517301e-02
   1.97420016e-01 -7.26292357e-02  1.61002055e-01 -2.26118416e-02
  -3.25600468e-02  6.92097545e-02  2.39635870e-01 -5.35609424e-01
   1.18379362e-01  4.45483513e-02  2.78223842e-01  3.07271689e-01
  -5.44221364e-02  4.81847003e-02 -7.42872506e-02 -1.30738303e-01
  -1.17147900e-01 -1.44065367e-02 -3.25869679e-01 -2.75476366e-01
  -2.45320499e-01  8.08283016e-02 -9.10296943e-03 -9.19879675e-02]
 [-5.24751050e-03  4.23915125e-02 -6.45946413e-02 -3.24726924e-02
  -2.63291169e-02  8.24335497e-03 -4.45439219e-02 -6.87165037e-02
  -6.22581281e-02 -1.52771488e-01 -9.17045474e-02 -1.40852958e-01
   1.20245829e-01 -1.42591055e-02 -1.93620667e-01 -5.11069745e-02
  -1.61591277e-01 -2.13527352e-01 -1.82103232e-01 -5.89142516e-02
   1.64229587e-01  5.11200391e-02  4.82050665e-02 -2.07002163e-01
  -1.14132129e-01  2.76667364e-02 -5.77257350e-02 -1.95566460e-01
  -9.81509164e-02 -2.89364159e-01 -7.39209540e-03 -1.21154197e-01
  -6.29843697e-02 -4.32977200e-01 -4.69133630e-02  1.17655108e-02
   1.52023714e-02  5.43006137e-02 -1.74471900e-01 -7.07573295e-02
  -1.53972864e-01 -1.93574056e-01  1.23877428e-01 -4.43552643e-01
   1.91283524e-01 -1.87727302e-01 -1.30692884e-01 -6.55996799e-03
  -3.86532135e-02 -3.78197469e-02  1.94895864e-01  1.54842511e-01
   2.93451198e-03 -1.01315072e-02 -8.51362869e-02 -3.61338630e-02
  -1.67375088e-01  9.06264707e-02 -1.66998673e-02 -1.76010549e-01
   6.31537810e-02 -7.01131448e-02 -1.00188933e-01 -1.89244792e-01
   5.66755934e-03  1.51599184e-01  2.67305255e-01  3.37923467e-02
  -5.35236783e-02  6.04208112e-02  1.51705176e-01 -1.02324158e-01
   2.63080806e-01  2.08449811e-02  7.59347677e-02 -1.20685548e-01
   1.05884932e-02 -1.33197799e-01  3.50241572e-01 -3.92172515e-01
  -4.34984919e-03 -2.29727462e-01 -6.67296574e-02  1.01603068e-01
   1.64671186e-02  9.18844417e-02 -1.30580574e-01  1.46026433e-01
  -4.55961600e-02  1.50295690e-01 -1.32175284e-02  1.72211565e-02
  -1.12784160e-02 -5.84398471e-02  1.58678308e-01 -8.23727772e-02
  -1.56204309e-02 -4.30566855e-02  5.06221130e-02  2.17868075e-01
  -2.38112584e-02  1.17883690e-01  1.43915609e-01  1.21050879e-01
   1.79727823e-02 -8.84731337e-02 -4.35037836e-02  7.04903081e-02
   6.43153768e-03 -6.23186538e-03 -4.64578301e-01  1.39743201e-02
  -1.60171181e-01 -1.28048375e-01 -1.93136260e-01  2.83434838e-01
  -6.81642303e-03 -6.64966851e-02 -3.86589207e-02  2.28439629e-01
  -2.40844041e-01 -4.24693190e-02 -2.04819500e-01  4.93481979e-02
   1.26468912e-01 -4.58666077e-03 -4.03945260e-02 -3.48667279e-02]
 [-1.08367018e-01  4.66773033e-01  6.69095367e-02 -2.41815180e-01
   6.89153671e-02  8.34171474e-03 -3.19394581e-02 -1.93051201e-05
  -1.29854660e-02  1.96324766e-01 -7.68570244e-01 -2.42353171e-01
   2.50073848e-03 -7.14537874e-02 -9.74708050e-02 -7.34320655e-02
  -7.26893246e-02 -1.07866034e-01  1.36496378e-02  9.36499313e-02
  -5.54417193e-01 -3.16619352e-02 -7.88100660e-02  4.36130427e-02
   1.76410571e-01 -1.15559867e-03 -2.11868044e-02 -2.17697714e-02
   1.08159631e-02  2.44005904e-01 -4.46350612e-02 -1.19214490e-01
  -7.89717063e-02  1.44021168e-01 -6.28100708e-02 -3.50644849e-02
   2.54334640e-02  1.75446197e-01  2.50002354e-01 -9.37806144e-02
  -1.81512237e-01 -1.12307899e-01  4.45710458e-02 -1.60593495e-01
   2.26582691e-01 -5.38956933e-02  5.90837859e-02 -4.70825791e-01
   1.69094428e-02 -6.78749084e-02  7.91495889e-02 -2.53082048e-02
  -1.78072318e-01 -9.69560370e-02 -7.52650797e-02  1.95157900e-02
   7.09953019e-03  7.95362592e-02 -8.70749280e-02  2.75363158e-02
  -5.08767553e-02 -9.67038646e-02 -3.26757296e-03 -2.38545626e-01
   6.08168691e-02  1.88375544e-02  1.25756755e-01  8.21594819e-02
  -8.79773349e-02  3.58581245e-02  4.03705090e-02 -2.59620622e-02
   2.74354160e-01 -1.57087587e-03 -5.28757833e-02 -5.21052718e-01
   3.04012857e-02 -2.81295687e-01  9.20947492e-02 -1.05910376e-01
  -1.11903828e-02 -2.77354103e-02 -1.74714420e-02 -2.61721388e-02
   1.69192366e-02  1.28020465e-01 -9.06531811e-02 -2.76974201e-01
   5.13611548e-02  2.63864279e-01  1.94107249e-01 -7.27820396e-02
  -1.11068502e-01  7.77440816e-02  9.18668061e-02 -8.90193433e-02
  -2.09618136e-02 -2.94049755e-02 -3.55744660e-01  7.41998181e-02
   3.06651480e-02 -3.20391148e-01 -1.29267335e-01 -4.61211950e-02
  -9.82049033e-02  9.43039209e-02 -8.36427063e-02 -1.02404937e-01
  -3.31394859e-02 -7.27719143e-02 -2.40470693e-01  2.11599514e-01
  -1.86422199e-01  1.75704554e-01 -6.02416322e-02 -8.34220350e-02
   3.21694687e-02 -8.87631178e-02  3.07257064e-02  1.72915477e-02
   2.46334281e-02 -9.07520726e-02 -2.55459994e-01  8.27601776e-02
  -5.22624850e-01  6.96154730e-03 -1.82581186e-01 -1.49502466e-02]
 [-6.12328909e-02 -1.20817043e-01 -3.18892933e-02 -1.18372679e-01
  -6.84904158e-02 -5.13140261e-02 -7.75534958e-02  5.95648726e-03
   2.69957352e-02 -9.73942429e-02  4.67198305e-02  1.38600603e-01
   8.76551569e-02 -7.44339526e-02  2.74567958e-02  1.10259846e-01
   1.28430292e-01 -6.90455660e-02  8.81729499e-02 -1.09658465e-01
   4.31450419e-02  2.39035059e-02 -7.25779533e-02 -1.08914748e-02
  -7.07108229e-02 -7.53799407e-03 -1.92814842e-02 -2.13133901e-01
   4.10433346e-03 -9.50303525e-02 -1.89305581e-02  1.01471711e-02
   1.93663910e-01 -1.84503958e-01 -2.86890641e-02 -8.24484676e-02
   9.95608699e-03  1.96990058e-01  1.68823898e-01  2.37597506e-02
  -1.06249735e-01 -3.32731366e-01 -1.94086462e-01 -1.49692014e-01
  -1.19176470e-01 -6.55913427e-02 -5.64994290e-02  9.66749713e-02
  -7.10844696e-02 -3.12823206e-02  1.66161627e-01 -7.97264576e-02
  -2.55481869e-01 -6.44680336e-02  9.33676399e-03 -3.09672616e-02
   7.81387463e-02  1.24582380e-01 -6.62941784e-02 -2.15459242e-01
  -9.40560773e-02  1.43296540e-01  1.69740769e-03  7.95292668e-03
   5.39524201e-03 -9.36926901e-03 -1.63388550e-01 -3.95163931e-02
  -2.73115393e-02 -8.79100114e-02  6.37792349e-02 -3.07596494e-02
  -1.92293599e-02 -6.32827729e-02  5.49388751e-02  1.09462865e-01
   1.60247330e-02  2.38470789e-02 -6.63309544e-02 -9.86230150e-02
   2.66224408e-04 -2.60012954e-01 -8.84984359e-02  1.26996651e-01
  -7.46319145e-02 -2.78734509e-02 -5.50718009e-02  1.05994649e-01
  -1.30986676e-01  1.36162028e-01 -4.10389863e-02 -4.05113213e-02
   1.82990611e-01 -7.79971629e-02  1.74979597e-01  2.10775539e-01
   4.90376353e-02 -4.07313704e-02 -1.03198536e-01  2.00425833e-02
   6.29685074e-02 -1.07643448e-01  1.47514924e-01  1.90474510e-01
   7.82682076e-02  6.85658678e-02  1.01237684e-01 -6.65329173e-02
   1.37291327e-02  3.06496788e-02  1.70824721e-01 -2.91104674e-01
   2.14603782e-01 -2.42909893e-01 -3.67511958e-01 -1.39105275e-01
  -9.86945480e-02 -8.44906047e-02 -8.48600790e-02 -1.10338584e-01
   2.78562438e-02 -1.18279681e-02  3.83781381e-02  1.25432491e-01
   2.24963948e-02 -7.16246739e-02 -9.25682038e-02  1.30603584e-02]
 [-7.13149598e-03  2.03340918e-01 -7.17650577e-02  2.22870260e-01
   1.11877881e-02 -3.81697267e-02 -7.89865758e-03 -5.39326183e-02
  -4.44374010e-02 -3.00833732e-02 -1.32311106e-01 -1.51537778e-02
  -2.34626420e-02 -1.47094289e-02 -2.08416641e-01  5.57438508e-02
   8.74547884e-02  1.18528835e-01  2.18998082e-02  1.14120841e-01
  -1.07341178e-01 -2.44349111e-02 -3.21779758e-01 -4.28315312e-01
   1.88920751e-01 -4.00146581e-02 -7.20398054e-02 -4.65740919e-01
  -2.23435685e-02 -3.05417068e-02 -1.76138692e-02 -1.25779985e-02
  -2.23040521e-01 -1.52087286e-01 -4.68265228e-02 -4.22472581e-02
   1.51010230e-03  9.59543809e-02 -1.70101359e-01 -1.37620568e-01
  -2.19265670e-01 -5.01906037e-01  1.60591960e-01 -5.58131993e-01
   1.21193595e-01 -5.35545290e-01 -9.87788197e-03  9.28235874e-02
  -1.52235329e-02  7.85076059e-03 -1.26901418e-01  7.08756521e-02
  -1.26550123e-01 -4.94035751e-01 -6.22304417e-02  2.14328635e-02
  -2.91009415e-02  2.21921548e-01  3.10632996e-02 -7.89812952e-02
   1.43298153e-02 -1.16503969e-01  3.57463695e-02 -2.29063645e-01
  -3.50093134e-02  5.17231636e-02  1.50489137e-01 -2.07116187e-01
  -5.12267835e-02 -5.13263270e-02 -1.65400460e-01  1.40746087e-01
  -2.59579688e-01 -4.49058153e-02 -7.19455583e-03 -2.53420085e-01
  -5.58868833e-02 -1.19684227e-01 -2.44775459e-01 -3.57500352e-02
  -2.07804069e-02  2.04248484e-02  1.36393243e-02 -7.72188455e-02
   4.48445901e-02 -5.07259108e-02 -3.06026451e-02  2.11216047e-01
  -1.74070820e-01  3.30558330e-01 -2.56756216e-01 -9.16084126e-02
   3.89261037e-01  5.22429422e-02 -4.04118979e-03  1.41540691e-01
   1.10369995e-02  1.86521304e-03 -1.30630415e-02  1.06275983e-01
  -5.84242120e-02 -9.46031064e-02  1.07811939e-03 -2.50338316e-01
  -9.83027145e-02 -2.83656027e-02 -2.11443193e-03 -3.92798260e-02
   4.46526110e-02  7.71380588e-02  8.98406655e-02 -6.21530488e-02
  -1.65312216e-02  3.67686115e-02 -4.42515463e-01 -3.80813599e-01
   3.62729169e-02  6.17331825e-02  3.36323008e-02  1.26646161e-01
  -5.47292270e-02 -6.79251552e-02 -1.71082661e-01 -1.03966929e-01
   1.43941551e-01 -7.13348910e-02 -2.43029207e-01 -6.41462673e-03]
 [ 2.05799881e-02  2.61072040e-01 -9.61137190e-02  3.26961339e-01
   3.46509404e-02 -2.77300854e-03 -6.30512461e-02 -6.53826743e-02
   2.82225460e-01  9.27724466e-02 -5.71423210e-02 -1.29708409e-01
   4.76785511e-01 -4.56582010e-02 -8.28114972e-02 -4.73088026e-02
   1.46282494e-01  1.01644985e-01  1.78318262e-01 -9.71319154e-02
  -3.56143266e-01  1.49008527e-01  1.92931458e-01 -2.54499484e-02
  -5.71664870e-02 -1.83301792e-02 -7.64307529e-02 -9.24048498e-02
  -1.99200530e-02 -1.94774896e-01 -6.26188517e-02  1.98311985e-01
  -3.33140939e-01 -3.78866106e-01  1.04049006e-02  1.66104902e-02
   1.56907272e-02  1.72259938e-02 -5.70470877e-02 -3.93334657e-01
   6.51663020e-02 -5.39464295e-01  5.63468747e-02 -1.52174667e-01
   2.28618145e-01 -4.87924278e-01  4.73658331e-02 -3.85511965e-01
  -8.86560902e-02 -1.72014963e-02  1.17403597e-01 -1.74133349e-02
   1.07314559e-02  1.01078479e-02  2.71564443e-02  1.43427551e-02
  -3.49294767e-02 -6.10321574e-02  1.91156473e-02  5.88764250e-02
   1.27216922e-02 -1.49448039e-02  5.67745604e-03  1.00960009e-01
   9.77483671e-03 -6.43314272e-02 -3.15947711e-01 -1.69470623e-01
   1.83340106e-02  2.42873784e-02 -3.03661227e-01  1.02178752e-01
  -7.80157894e-02 -4.19149436e-02  3.58506404e-02  2.21137270e-01
  -2.12268196e-02 -2.44739756e-01 -1.31887034e-01 -6.01532087e-02
  -8.32563415e-02 -1.15197450e-01 -5.77546209e-02 -9.31621194e-02
   5.62027879e-02 -1.51607633e-01 -5.38838059e-02 -2.07334727e-01
  -5.50661534e-02  1.47224486e-01 -8.79383758e-02 -2.84714103e-02
   4.17622507e-01 -4.40856777e-02  1.01918213e-01  6.76212162e-02
  -4.11224924e-02  2.46579535e-02 -9.67763457e-03 -3.50851528e-02
  -3.46674696e-02  1.30615786e-01  2.59523600e-01 -1.87931508e-01
   7.74273872e-02 -9.87198055e-02  2.32398044e-02  4.62893769e-03
  -5.26659489e-02 -4.99247730e-01  3.88127238e-01  4.99142930e-02
  -4.63338792e-02 -4.30966429e-02 -8.31859261e-02  3.58637482e-01
  -1.36647835e-01 -9.65167396e-03  3.96515727e-02  5.92394583e-02
   2.87786685e-02 -7.78516158e-02  2.91606486e-01 -5.94345592e-02
   4.74671535e-02  1.61769036e-02  5.22360094e-02 -9.65825170e-02]
 [ 4.63746488e-04 -7.26358443e-02 -5.61452582e-02 -3.10397506e-01
   2.28647999e-02 -7.19450414e-02 -5.52520789e-02 -5.19436374e-02
  -8.63381010e-03 -1.03137121e-01  1.36230588e-01 -2.10151106e-01
  -1.83782518e-01 -1.05749547e-01 -1.47808596e-01 -1.81971695e-02
   1.58726141e-01 -2.17593566e-01  1.63776055e-01 -1.49215087e-01
   5.44151142e-02 -1.25203310e-02 -1.96310952e-01 -1.37382731e-01
   1.13098793e-01 -2.25380957e-02  4.46823612e-03  3.78077984e-01
   3.26451175e-02 -3.46318781e-01  6.72089010e-02  4.90705222e-02
   2.98686683e-01 -2.05112115e-01 -5.19487299e-02 -4.30083908e-02
  -2.96702553e-02  1.92159548e-01 -2.10381955e-01  2.54241616e-01
  -2.02814922e-01 -1.08479328e-01 -3.97071801e-02  2.59619951e-01
  -5.91311216e-01  5.18980250e-02 -8.09268132e-02 -2.03372940e-01
   4.31091012e-03 -2.34284978e-02 -1.45360827e-01 -2.54536092e-01
  -2.54424483e-01  1.38461336e-01  1.27589272e-03 -2.97413208e-02
  -6.70907870e-02  4.76260372e-02  1.22399104e-03 -3.04451257e-01
  -6.39384538e-02  2.01215409e-02 -7.49744028e-02 -2.26921618e-01
  -7.35141113e-02 -3.58506851e-02 -5.35054326e-01 -1.55187711e-01
  -5.96359000e-02 -4.82907258e-02 -2.28073403e-01  1.27689376e-01
  -4.37983215e-01 -2.80783363e-02 -1.70906872e-01 -7.02197701e-02
  -8.44827741e-02 -3.23499143e-01  1.28874287e-01  3.48628432e-01
   3.76799740e-02 -2.98634320e-01 -4.45187464e-02 -3.64393853e-02
  -3.28929350e-02  4.15569320e-02  6.96928650e-02  1.94249824e-02
   3.77791934e-02 -1.40523657e-01  2.08232477e-01 -5.44266216e-02
   2.65377220e-02 -1.98243055e-02  2.37569213e-01  3.27216163e-02
  -7.33925914e-03 -1.05715945e-01 -3.30484420e-01 -2.62342729e-02
  -1.09619163e-01  3.54865044e-01 -1.86260730e-01  3.67457360e-01
  -1.76961701e-02 -2.97783501e-02  8.71227309e-02 -8.15095305e-02
   6.88000917e-02  2.07498521e-01  1.46372944e-01  1.18501976e-01
   7.81644061e-02  9.63116065e-02 -4.50734884e-01 -2.91496329e-02
  -3.90440859e-02 -2.10470352e-02  8.67010187e-03  7.18868747e-02
  -1.60449713e-01 -9.48415473e-02  4.37313765e-02 -6.30370080e-02
  -2.25095212e-01 -4.17671427e-02 -7.37841055e-02 -8.01383797e-03]
 [ 2.41585057e-02  8.76092613e-02  5.00898510e-02  9.94924605e-02
   1.53944669e-02  2.82413401e-02 -6.66459650e-02 -2.21524350e-02
  -3.31760980e-02 -8.06149095e-02 -2.90860891e-01  8.94515738e-02
  -7.95956999e-02  7.52056614e-02 -1.35671347e-01  6.14239872e-02
  -1.35473266e-01  4.71080281e-02 -7.46112317e-02  1.05355717e-01
   3.40728670e-01 -9.14491490e-02  1.77872762e-01 -6.05667867e-02
   9.63705704e-02 -8.15989822e-02  2.25536823e-02 -6.56880513e-02
  -2.41036508e-02 -4.73761111e-02 -1.07715137e-01  9.47258845e-02
   2.09287092e-01 -3.80433165e-02 -1.01644883e-03 -4.23178682e-03
  -2.21272111e-02  1.26114890e-01 -9.40151885e-02  6.41778648e-01
   1.26717731e-01 -9.71806049e-02  1.27943859e-01 -7.26315528e-02
   2.21124068e-02 -1.14579750e-02 -1.18556902e-01  1.59898493e-02
  -9.90552455e-02 -6.86630979e-02  9.92951021e-02  1.90123662e-01
  -3.24769393e-02  2.27079261e-02 -2.09682155e-03 -2.93398984e-02
   1.69728681e-01  9.93054509e-02 -9.13569983e-03  7.02238381e-02
  -3.29713896e-02 -1.19401775e-01 -1.16285235e-01 -3.20348859e-01
   1.78793352e-02 -1.08196528e-03 -9.92408022e-02  1.38504595e-01
  -6.52360963e-03 -6.75622933e-03  1.30052209e-01 -2.02776328e-01
   1.23503573e-01 -1.48862312e-02 -1.93249911e-01 -2.09579598e-02
  -9.22831073e-02 -5.25631197e-02 -1.13845333e-01 -2.02918053e-01
  -7.37471879e-02 -2.22249731e-01  4.96238424e-03  3.81039903e-02
  -5.32932915e-02 -1.01353392e-01 -1.26495272e-01  2.11726248e-01
  -2.75384113e-02  1.08013511e-01 -2.33751051e-02 -2.76190862e-02
   1.73802897e-01 -1.03894733e-02  2.97792256e-01 -1.59281686e-01
   4.26931418e-02 -1.30959814e-02  5.88086769e-02 -2.80882955e-01
  -9.19931307e-02 -1.96350411e-01  6.02367111e-02 -1.56410202e-01
  -7.67916143e-02 -3.76222357e-02  6.35896251e-03 -4.94424663e-02
  -8.16174373e-02  9.23633873e-02 -1.60709351e-01 -4.96353954e-03
  -7.98100978e-03  5.35382368e-02  1.80458561e-01  3.43619213e-02
  -7.58495415e-03 -4.88914810e-02 -7.25454316e-02  2.41140164e-02
  -3.63110095e-01 -4.50886786e-02 -2.70248055e-01  4.51336540e-02
   9.22453701e-02 -3.97874638e-02  9.89277381e-03 -4.78403196e-02]
 [-4.17321771e-02 -2.10878588e-02  8.24394375e-02 -1.45207331e-01
  -3.25263478e-02 -1.93603715e-04 -4.73339856e-02  4.43196520e-02
   1.73185989e-01 -6.36491701e-02 -3.29057314e-02  4.30728868e-03
   1.13211639e-01 -7.47652203e-02  1.31300747e-01  9.82138291e-02
  -1.52231948e-02 -3.21304798e-01  1.31535172e-01 -6.82405829e-02
   3.33247393e-01  9.77626536e-03 -1.19449593e-01  2.46142372e-01
  -1.07289031e-01  3.88109423e-02  4.29872610e-02  6.16728701e-02
   4.04382870e-02  1.81323722e-01 -4.17405553e-02 -4.67863858e-01
   3.05961639e-01  1.61708191e-01  6.32792264e-02 -1.12568274e-01
  -3.60155515e-02 -1.81184653e-02  1.53176248e-01 -3.15028131e-02
   5.29599451e-02 -3.17382179e-02 -1.57800049e-01 -5.70526626e-03
   2.60288119e-01 -3.74647416e-02 -1.55709252e-01 -3.51140201e-02
  -4.69591431e-02 -7.08518699e-02  3.05096507e-01  7.35468650e-03
   5.26910663e-01  1.65259987e-01 -1.25650282e-03 -1.19611807e-02
  -2.19214052e-01  2.65496913e-02 -7.23563060e-02  1.82452381e-01
   1.12287812e-02  1.91600084e-01 -7.18059838e-02  1.20358504e-02
  -7.34517202e-02 -8.09348421e-04  2.29090184e-01 -8.04093555e-02
  -8.45822245e-02 -7.96730351e-03  5.24264798e-02 -2.47609224e-02
  -4.74737138e-01 -5.23835141e-03 -5.76830320e-02 -1.88731492e-01
   7.06913099e-02  2.27695882e-01 -4.46427971e-01  3.53775501e-01
  -1.54216378e-03  8.99187289e-03 -3.24508026e-02 -4.10870090e-02
  -1.81113090e-02 -2.11090803e-01 -1.35593966e-01 -1.94110051e-02
  -9.81438532e-03  9.49516967e-02 -5.64772263e-02 -9.71830338e-02
   2.47194752e-01 -1.30031742e-02  1.70532525e-01  3.90803292e-02
  -3.37642916e-02 -6.10146932e-02 -1.03270141e-02  4.77267876e-02
   1.32594258e-01 -1.16036825e-01  1.73378691e-01  8.98202434e-02
   9.50097144e-02 -8.09279177e-03  4.35704291e-01 -6.52803406e-02
  -1.14875026e-02 -5.19758128e-02 -2.52486974e-01  5.70843399e-01
   3.97462510e-02  4.23637122e-01  2.29188845e-01 -1.80126995e-01
  -9.26115271e-03  2.80119367e-02 -2.24752761e-02  3.08858246e-01
   1.09092511e-01 -8.70524794e-02 -2.29243681e-01  2.05708086e-01
  -3.81628752e-01  5.57403862e-02  3.72320116e-02 -8.70891139e-02]
 [-6.29409403e-02 -2.69178618e-02 -7.34155178e-02  8.16731434e-03
  -4.65459637e-02 -6.13986440e-02 -1.31969694e-02 -8.76000375e-02
  -7.01459199e-02 -8.82793218e-02  4.99638356e-03 -5.92893967e-03
   1.17283352e-01  2.08276194e-02  1.82656363e-01  2.01888174e-01
   1.02708258e-01  1.79697528e-01  1.09313525e-01  6.75169155e-02
   6.90826923e-02  4.58887927e-02  4.94358279e-02 -1.04634121e-01
   2.32508238e-02 -6.64932653e-02 -3.31306681e-02 -1.51955962e-01
  -4.09319848e-02 -8.54575336e-02 -5.88892177e-02 -3.86223048e-02
   1.34512052e-01 -1.25433475e-01 -1.05776731e-02 -5.37621751e-02
  -3.05155758e-02  1.84829626e-03  1.80731997e-01  8.62114280e-02
  -1.49813667e-01 -1.65835574e-01 -2.18970761e-01 -4.65704650e-01
  -4.60735820e-02  1.91474501e-02  4.14931104e-02  2.09088787e-01
