dense/kernel:0
(784, 128)
[[ 1.64624929e+00 -2.14013934e+00  5.98189116e-01  1.37477577e+00
   3.30952913e-01  6.30830526e-01 -6.30409908e+00 -1.51044786e-01
  -3.28061849e-01  3.91999334e-02  6.21126533e-01 -5.86055994e-01
   1.74663484e-01 -1.13189185e+00  1.81003845e+00 -4.98581362e+00
   4.29417714e-02  1.04631138e+00 -1.03701063e-01  2.36045051e+00
  -1.23094670e-01 -4.06777978e-01 -4.21234854e-02  2.02550340e+00
  -5.30551672e-02 -1.04510474e+00 -2.76846910e+00  3.88013154e-01
   7.31303751e-01  7.69677699e-01  8.50179255e-01  1.85825393e-01
  -2.16614270e+00  3.66632342e-02 -3.46067071e+00 -9.17075500e-02
   3.29467386e-01  1.10303342e+00  4.06561941e-01 -4.47298586e-02
   4.42453414e-01 -6.35372251e-02 -1.07971945e+01 -9.02272284e-01
   1.11403801e-01  2.64302734e-03 -7.04984814e-02  9.42922384e-02
  -1.37366593e+00 -7.27077365e-01  5.54361880e-01 -1.55683234e-01
  -3.77095550e-01  2.11129710e-02 -3.08382678e+00 -8.32925856e-01
  -7.79130682e-02 -1.37429208e-01 -1.48549044e+00 -3.25668871e-01
  -1.02734551e-01 -3.05516505e+00  1.07232809e+00 -6.13023248e-03
   5.66050969e-02  2.37298265e-01  1.29239750e+00  3.74537408e-01
   2.82621980e-01  1.06264210e+00  6.67770356e-02 -4.39668608e+00
   1.47434926e+00 -4.92231287e-02 -6.62109554e-02  1.48186612e+00
  -2.57745028e-01 -2.83228129e-01 -1.84714153e-01 -8.18634555e-02
   1.82999000e-01  1.84417069e+00  2.41269115e-02 -2.13652700e-01
  -3.06817561e-01  4.70121175e-01  1.32747322e-01 -1.45086336e+00
   3.00952256e-01  5.70265710e-01 -1.68363369e+00  7.12331712e-01
   1.74056724e-01 -4.63498503e-01  2.74617411e-02 -9.62549686e-01
  -1.65146697e+00 -8.65636468e-01 -7.57210404e-02 -9.51465070e-01
   1.10731781e+00 -4.46983799e-02 -8.12700748e-01 -6.16924286e-01
   8.26207995e-02 -7.56948769e-01 -2.83439016e+00  2.11308271e-01
   3.81788880e-01  6.62626103e-02  5.99592447e-01  5.38429618e-02
  -1.89039850e+00  8.34422290e-01  4.11636889e-01  1.37386739e+00
  -6.52117550e-01  1.05443561e+00 -1.36556518e+00  2.79000521e-01
  -1.07292080e+01  8.10337961e-01  1.09761171e-02  5.09790003e-01
  -1.24608648e+00 -1.99090894e-02 -5.85751534e+00  1.52148461e+00]
 [ 1.50935575e-01 -5.68263195e-02 -7.27314427e-02  2.29554701e+00
  -6.89119995e-01 -5.11003852e-01 -3.80968571e+00 -3.50154549e-01
  -1.32892799e+00 -8.64732563e-02 -6.31563142e-02  4.38923001e-01
   5.48747301e-01 -1.71245658e+00  1.71652985e+00 -1.74011993e+00
   7.57001936e-02 -1.21227488e-01  7.42087126e-01  1.58051920e+00
  -4.44207609e-01  3.63840282e-01 -6.39080629e-02  1.21691203e+00
  -1.61805842e-02  2.19465160e+00 -7.15635240e-01  9.03013527e-01
   4.73091714e-02  2.48215064e-01  1.27380896e+00  2.55327187e-02
   8.04845333e-01 -6.58783913e-02 -1.66161203e+00 -9.35778618e-02
  -1.57560337e+00  1.01518953e+00  1.22834110e+00 -1.38154731e-03
   1.62308246e-01  4.02863789e-03 -1.24467392e+01 -7.31274411e-02
   8.02340657e-02  1.42676413e-01  7.22103193e-02 -8.46427321e-01
   3.07285875e-01  5.88663578e-01 -9.62584987e-02  5.79753876e-01
   1.88302255e+00 -2.52189245e-02 -1.53672421e+00  8.48723501e-02
  -2.06487864e-01 -1.65989622e-01 -1.10452116e+00  2.41376236e-01
  -7.45784521e-01 -3.26964378e+00 -4.33136523e-02  6.28463626e-02
  -4.27190736e-02 -1.30578488e-01 -2.34145567e-01 -7.59058118e-01
   4.72660750e-01 -4.68701184e-01 -6.31425232e-02 -5.41962719e+00
  -1.03085630e-01  1.99003723e-02  1.41286552e-02 -1.25483632e+00
   2.93367654e-01  2.54652444e-02 -9.78028536e-01 -5.85114211e-02
  -1.74997759e+00  1.39485791e-01 -9.42766607e-01  3.55797231e-01
  -1.89540279e+00  5.98227419e-02 -6.25542030e-02 -8.61412585e-01
   1.27173257e+00  3.92925218e-02 -1.79235637e+00 -2.05841094e-01
   2.85860281e-02  3.81324500e-01  1.17959162e-05 -1.87671691e-01
  -2.46852249e-01  1.07354879e+00  4.49389368e-02 -6.23027086e-01
   1.74117017e+00  8.60563889e-02  3.09423804e-01  1.38041782e+00
   1.07049737e-02  4.51896697e-01 -1.48134160e+00 -5.96402213e-02
  -8.64885747e-02  2.86426656e-02  7.19720721e-01 -1.65058021e-02
  -2.32264948e+00  1.19383633e+00 -6.23480082e-01  1.18045533e+00
   2.63644218e-01  4.16136324e-01  1.16470112e-02  7.72885740e-01
  -9.87111568e+00  7.94717576e-03 -3.64478715e-02  9.42719281e-01
   1.01915807e-01  7.87432715e-02 -3.26308918e+00  2.33348254e-02]
 [ 1.69535931e-02 -2.49757648e+00 -4.00822788e-01  4.37112391e-01
   7.70063233e-03 -1.30788255e+00 -1.89944553e+00 -1.89345494e-01
  -1.20036995e+00  4.07855287e-02  1.67057037e-01 -1.04999864e+00
   6.77768067e-02 -2.50794101e+00  1.16031253e+00 -2.15573096e+00
   3.55233848e-02  5.57389140e-01 -4.42141473e-01  4.21663791e-01
   4.26937521e-01 -4.16503400e-01  2.27804929e-02 -5.05043805e-01
  -8.34699795e-02  1.47912920e+00 -8.96795094e-02  1.54627338e-01
   3.70774627e-01 -8.63406956e-01  7.28811622e-01  1.12978625e+00
   1.65228939e+00 -7.16336146e-02 -1.83726394e+00 -1.56391829e-01
   1.83110684e-01  1.24616933e+00  2.20516992e+00 -1.25556970e-02
   4.22497422e-01 -1.78589392e-02 -1.31700964e+01  1.26815581e+00
  -4.32574809e-01 -1.51386797e+00  3.08047216e-02  4.40730192e-02
  -6.62854254e-01 -5.12590110e-01 -2.53832221e-01  2.79901475e-01
   3.25410932e-01 -7.65237138e-02 -3.00909788e-03 -1.26322973e+00
  -1.64040938e-01  7.82157183e-01 -1.42461264e+00  2.98868895e-01
  -4.76699591e-01 -3.18428636e+00 -1.13561368e+00 -7.27694407e-02
  -7.19389096e-02 -1.90324157e-01  1.50337249e-01 -6.69834495e-01
   9.72707689e-01 -2.60250062e-01 -1.05513521e-02 -5.40775633e+00
   3.78107786e-01 -8.28524753e-02 -4.83939983e-02 -1.62198293e+00
   1.54007399e+00 -5.49869478e-01  3.14008258e-02 -4.41789180e-02
  -2.03643775e+00  8.31805646e-01 -1.26066697e+00 -1.68754131e-01
  -5.88889346e-02  5.81942856e-01 -2.23943278e-01 -5.17884552e-01
   1.27104163e+00  1.78456873e-01 -2.01742840e+00  1.42114186e+00
   5.12317359e-01 -1.19810891e+00 -5.83662167e-02 -6.16175711e-01
   4.74639654e-01  1.19625711e+00  3.74483913e-02 -9.42512453e-01
   5.41655481e-01  7.14315414e-01  5.70924580e-01 -7.92313695e-01
   2.45121390e-01  2.93935031e-01 -1.18471873e+00  3.73721868e-01
   4.97274905e-01 -4.26566713e-02  1.11313593e+00  2.99071483e-02
  -3.01679897e+00  6.99526370e-01  1.45496690e+00  2.14937046e-01
   7.61437416e-01  1.79064557e-01  6.92215085e-01 -9.06230658e-02
  -9.38061810e+00  1.00987899e+00 -5.28803207e-02 -1.00729525e+00
   4.88384992e-01 -3.63381803e-02 -3.42822719e+00  2.24921212e-01]
 [ 5.37679374e-01 -5.77868283e-01 -2.50512570e-01  1.64546788e-01
   5.30107856e-01  2.69325286e-01 -8.06367576e-01  4.91866022e-01
  -2.97038347e-01 -1.01275975e-02  3.96845847e-01 -8.75079453e-01
   1.70302078e-01 -2.87472486e+00  6.33979499e-01 -1.53520942e+00
  -6.39775395e-02  1.04119933e+00  5.10475695e-01  4.89403278e-01
   5.26274815e-02  7.38629341e-01  1.09121939e-02  3.43897998e-01
  -1.00798875e-01 -1.21987414e+00 -1.22186673e+00 -6.15357757e-01
  -3.19098458e-02  6.39128685e-01 -1.76107764e+00  2.13615537e+00
   8.48156631e-01 -2.44271997e-02 -6.59522891e-01 -7.54555613e-02
   1.22677791e+00  2.58205032e+00 -1.64144790e+00  2.58671306e-03
   6.43360137e-04 -8.48027878e-03 -1.23489695e+01 -6.47018790e-01
  -4.04591812e-03 -6.02881536e-02 -4.08928171e-02  6.82228744e-01
  -1.89963269e+00 -1.09651017e+00 -1.12605834e+00  7.39878953e-01
   7.81266540e-02 -5.48588932e-02  5.56077421e-01 -6.92813694e-01
  -1.83198571e-01 -6.84859231e-02 -1.26615894e+00  7.92365447e-02
  -8.99283648e-01 -3.40962100e+00  1.04903507e+00 -5.43873273e-02
   6.71573877e-02  6.91860467e-02 -1.18088275e-01 -5.69008648e-01
   6.95290565e-01  2.77472913e-01 -3.94298732e-02 -5.12799501e+00
   1.19027162e+00 -2.94806566e-02  5.46720400e-02  8.70646238e-01
   1.23334806e-02  6.75936103e-01  5.27787387e-01 -3.04849967e-02
  -1.44329464e+00 -1.63580751e+00 -1.06721170e-01  9.50761363e-02
   5.38226552e-02  2.80482590e-01 -4.57869232e-01 -1.83830336e-02
   8.06319714e-01  1.56015679e-01 -1.51494241e+00  2.52460748e-01
   5.21570385e-01 -6.63642704e-01 -1.83520745e-02  5.29604852e-01
   1.54788601e+00 -4.73468900e-01  2.50788741e-02 -1.22290981e+00
  -2.04001833e-02  1.47382885e-01 -7.88994014e-01  6.76697195e-01
  -2.80377954e-01 -3.62057775e-01 -1.12092555e+00  5.51731527e-01
  -1.23988532e-01 -1.78744942e-02  5.20676136e-01 -8.04076623e-03
  -3.79049110e+00  3.47898081e-02 -8.30604076e-01  4.41614985e-01
   7.24161088e-01 -6.12431839e-02  4.89073992e-01  3.87784690e-01
  -7.60923624e+00  8.97407830e-01 -7.52392337e-02  5.99301457e-01
   6.94738150e-01 -9.23798233e-02 -6.81595278e+00  6.15431070e-01]
 [ 7.44926860e-04 -5.20829737e-01 -4.03205007e-01 -2.46513531e-01
   8.00642312e-01 -6.83623016e-01  1.05041754e+00  3.87144595e-01
   7.08313048e-01 -2.24299903e-04  1.05391097e+00 -8.98823798e-01
   3.15308988e-01 -2.58348393e+00  9.47612941e-01  8.13656151e-01
   5.54708689e-02  9.09967780e-01 -1.09017886e-01  1.05104923e+00
   1.61621839e-01 -9.98311266e-02  3.38797122e-02  1.23903084e+00
  -1.18070114e-02  1.62782192e+00 -1.56682336e+00  1.56708181e+00
   4.16553080e-01 -3.15118551e-01 -1.65603185e+00 -3.01115990e-01
   9.77192223e-01 -7.22003654e-02 -1.53683102e+00 -8.75073373e-02
   1.03590913e-01  1.21987641e+00 -1.58400047e+00 -7.06783384e-02
   7.49589056e-02 -1.09077133e-01 -1.11313457e+01  1.54486001e+00
   3.02322835e-01 -9.75377858e-02 -5.56409135e-02 -3.70737702e-01
  -1.08598995e+00 -3.49088520e-01 -1.32904172e+00  1.97382891e+00
  -3.77490282e-01 -2.81289201e-02 -1.17543131e-01 -3.19050044e-01
  -1.07965194e-01 -1.39510608e+00 -9.25848246e-01 -1.42182201e-01
   1.17158854e+00 -3.64701462e+00  7.61952519e-01 -4.26072292e-02
  -6.01873845e-02  5.46488881e-01  1.33636281e-01 -2.87045538e-01
  -6.69612825e-01 -4.48787093e-01 -4.04994190e-02 -4.70620346e+00
   1.30167019e+00 -7.43691325e-02 -4.31555249e-02  5.00723183e-01
   1.31396055e+00  5.12735009e-01 -2.88432270e-01  9.01739392e-03
  -1.60795256e-01  6.59215689e-01 -8.82611275e-01  4.39476579e-01
  -1.24800181e+00  6.14158772e-02 -4.39097226e-01  3.19599718e-01
   2.71779001e-01 -2.29908213e-01 -4.46884722e-01 -7.36544490e-01
   4.69395101e-01  1.52404881e+00  8.58888868e-03  2.66211685e-02
   3.97434741e-01 -1.89990342e-01  4.92540710e-02 -1.47592151e+00
  -1.87004842e-02 -1.02937117e-01 -1.47218621e+00 -8.11431766e-01
   1.10913619e-01  4.31913048e-01  9.39962566e-01  3.39546889e-01
   2.38081709e-01 -8.28001928e-03  1.68788046e-01 -3.49532925e-02
  -3.78677773e+00 -9.68953013e-01 -6.36707366e-01  7.89185584e-01
   1.22518218e+00  4.02552336e-01 -2.00775504e+00  6.22147262e-01
  -2.55841446e+00 -2.65219927e-01 -1.80347227e-02  7.96378255e-01
  -1.65824926e+00 -7.21996799e-02 -1.62684381e+00  4.96212870e-01]
 [-6.33667648e-01 -9.89872336e-01 -6.39304101e-01  7.16451287e-01
   4.89783287e-01 -6.30344689e-01 -2.55283862e-01 -4.26297665e-01
  -8.84411573e-01  5.90782836e-02 -1.96806505e-01 -3.89347732e-01
   2.77831078e-01 -3.34610224e+00  3.07630718e-01  9.44559276e-01
  -2.42961776e-02  4.16145205e-01  4.26440954e-01  4.47711110e-01
   9.48986173e-01  2.26896256e-01 -4.00831737e-02  3.55180293e-01
  -6.83767051e-02  9.85527337e-01 -6.96881950e-01  1.11617339e+00
   1.58225402e-01  6.84943855e-01 -6.93774700e-01  1.21436782e-01
   1.38520348e+00 -6.61311671e-02 -9.49988008e-01 -9.38399509e-02
   2.75945902e-01  3.47802043e-01 -9.93606687e-01  9.67291370e-03
   1.55822918e-01 -1.03774387e-02 -7.85021687e+00  1.06429458e-02
   9.48887408e-01  6.85999274e-01  3.94542776e-02 -4.13410664e-02
   3.47580552e-01  2.50918115e-03 -1.47811019e+00 -9.63467300e-01
  -1.03130615e+00 -9.62241963e-02  6.71425343e-01 -5.93574882e-01
   8.63274038e-02  1.51998794e+00 -1.06411934e+00 -6.96383774e-01
   1.06035101e+00 -1.39786017e+00 -3.85909900e-02 -6.82774112e-02
   6.86991736e-02  1.30825901e+00 -6.26238644e-01  5.86145967e-02
   2.62709320e-01 -6.12900615e-01 -4.70487885e-02 -3.46727395e+00
   3.75911921e-01 -1.10362703e-02  5.85419759e-02  1.75142393e-01
   2.81211823e-01 -1.48997247e-01 -2.36902118e-01 -9.73411649e-02
  -5.42904019e-01  6.17362380e-01 -9.90535840e-02  1.37406632e-01
  -4.63465601e-01  4.18739431e-02 -9.67869520e-01 -2.11951518e+00
  -5.33881009e-01 -3.14335614e-01  2.97410898e-02  2.43728682e-01
  -1.32658496e-03  1.28857183e+00 -4.94654439e-02 -4.75201875e-01
   4.33310986e-01  4.28997248e-01 -4.22226787e-02 -3.64311665e-01
  -1.25152719e+00 -1.23254621e+00 -1.33205700e+00  8.91606390e-01
   2.48894557e-01 -2.71301091e-01 -1.19780481e+00 -4.70343828e-01
   3.62817973e-01 -9.27225202e-02  2.99029112e-01  4.13061529e-02
  -5.08751678e+00 -6.00364625e-01 -5.41153967e-01  1.00271738e+00
   5.48749506e-01  3.48664731e-01 -2.10453153e-01  6.17089033e-01
  -1.43595636e+00  4.77859557e-01 -5.44586293e-02 -5.66231012e-01
  -3.61870289e-01  4.66959551e-03 -1.21280694e+00 -2.44365036e-01]
 [-1.23304594e+00 -4.66870874e-01 -4.57415789e-01 -3.97337794e-01
   1.03560042e+00  1.33565319e+00 -1.02398574e+00 -5.29851735e-01
  -1.82248938e+00  4.86061610e-02  4.97246295e-01 -1.23274498e-01
   7.20921978e-02 -4.02513123e+00 -9.05853152e-01  1.79135859e+00
  -5.97139746e-02  1.01288176e+00  9.63861823e-01  1.22741115e+00
   4.16346937e-02  5.51830053e-01  4.51927036e-02 -2.50719666e-01
   4.85555008e-02 -1.48004651e-01  1.06207776e+00  1.80091962e-01
  -3.02191854e-01  4.63448584e-01 -2.16244888e+00 -8.25731933e-01
  -6.18706524e-01  6.75859898e-02 -1.18158829e+00 -1.24342509e-01
   8.17196488e-01 -1.05464125e+00 -1.69570410e+00  3.98668833e-02
   3.61134738e-01  8.61444883e-03 -3.23858380e+00  2.92139530e-01
   5.60012519e-01  1.25107974e-01 -2.65236143e-02  7.42709517e-01
   7.42687106e-01 -9.80716825e-01 -2.40938020e+00  2.45585218e-01
   8.64125714e-02 -5.29793948e-02 -2.68653780e-01 -3.84425402e-01
  -1.94524843e-02  5.30068278e-01 -3.82550269e-01 -6.32309973e-01
  -4.21858996e-01 -3.04175639e+00  1.74081385e-01 -4.19786163e-02
   2.95201577e-02  3.14166635e-01 -4.19409484e-01  9.05851305e-01
  -5.85502572e-02 -2.42527306e-01  2.69702612e-03 -3.12890506e+00
   5.19018233e-01 -8.06716979e-02 -1.36281615e-02 -3.92429441e-01
   8.12546253e-01  2.74944216e-01 -1.72600821e-01 -4.60091718e-02
   4.95395809e-01  8.85636508e-01  9.55945909e-01  2.06600040e-01
   7.35929430e-01  1.74799874e-01 -1.13326597e+00 -8.96616340e-01
   6.25676513e-02 -5.45937777e-01 -9.20135856e-01  4.52441067e-01
  -1.39593706e-01 -7.21827030e-01 -1.00809775e-01 -7.54241407e-01
  -2.46526361e-01 -1.20305133e+00 -8.77897292e-02 -8.50865722e-01
  -2.44094157e+00  7.82757282e-01 -2.66871262e+00  1.26613736e+00
   1.48837775e-01 -2.87097037e-01  8.22208151e-02  1.16468832e-01
  -1.07837655e-01 -2.95992680e-02  2.70046979e-01 -5.10989837e-02
  -5.53691959e+00  1.65533483e+00 -7.10165739e-01  2.07715750e+00
   8.03861499e-01  1.08098590e+00 -1.95808664e-01  1.00008142e+00
  -6.05980456e-02 -7.93466389e-01 -8.26808885e-02 -1.23055673e+00
  -4.87479955e-01 -2.95698922e-02 -2.15323234e+00  9.98631239e-01]
 [-1.27908611e+00 -1.06794822e+00 -1.06111276e+00  3.37912440e-01
   1.06090891e+00  9.29965019e-01  4.40799505e-01  3.01765859e-01
  -7.00298667e-01 -2.32871696e-02 -1.11190833e-01 -9.03030872e-01
   2.98501372e-01 -4.78542280e+00 -7.98514783e-01  1.38940263e+00
  -1.47871524e-02  1.06559634e+00  8.07415187e-01 -3.26732218e-01
  -6.31046966e-02  9.39256608e-01 -3.01664155e-02 -2.66316533e-01
   5.73229715e-02 -5.30079842e-01  5.76885521e-01  7.45758489e-02
  -3.39628518e-01 -3.06407884e-02 -1.27850974e+00  3.94334108e-01
  -5.67781217e-02  3.10134143e-02  2.68493555e-02 -8.90330877e-03
   5.39237022e-01 -1.75381494e+00 -4.59825134e+00 -1.85702220e-02
   1.19066220e-02 -6.15343228e-02 -6.87070072e-01  1.44983900e+00
  -6.83032811e-01 -2.51816958e-01  4.83609140e-02  5.36347091e-01
  -1.31196010e+00 -9.26979065e-01 -2.06287837e+00 -8.95463586e-01
   1.45043522e-01 -7.85752311e-02  1.68775290e-01 -2.34386623e-01
  -3.44778925e-01 -1.87756479e-01 -2.20967680e-01 -1.71195292e+00
  -1.42711592e+00 -2.37356639e+00 -1.35828781e+00  1.62118524e-02
  -5.69899268e-02  1.32074511e+00 -2.88049161e-01 -5.00110425e-02
   5.61021686e-01 -1.68935061e-01 -6.97442442e-02 -2.80729556e+00
   1.40391660e+00  5.97762242e-02 -5.37981391e-02  3.02796423e-01
   3.21399271e-01  8.54371309e-01  6.36433780e-01 -1.10351890e-01
   4.79137808e-01 -5.66741526e-01  9.79551494e-01  4.88155425e-01
   4.74174708e-01  4.13423777e-02 -8.20200086e-01 -8.38812053e-01
   1.04620242e+00 -7.09560037e-01 -2.48849377e-01  1.89683187e+00
  -1.77167103e-01  1.57889575e-01  2.21928507e-02 -3.49587709e-01
  -9.84400630e-01 -1.04782426e+00  6.86794221e-02 -5.67473233e-01
  -2.66151643e+00 -2.96605766e-01 -2.61456537e+00  6.54424071e-01
   1.73434079e-01  1.13488221e+00 -1.28685963e+00  1.29696265e-01
   2.95953393e-01 -7.52747357e-02 -2.28488460e-01  6.29064143e-02
  -5.54417706e+00  2.21295810e+00  9.75269437e-01  1.41466892e+00
   1.82867491e+00  8.58534873e-01  6.54092193e-01 -1.20089149e+00
  -2.22441196e-01 -2.71321297e-01  3.24517637e-02  9.90365863e-01
   7.15109706e-01  2.14193453e-04  3.77771348e-01  2.97944427e-01]
 [-1.93924296e+00 -1.19863307e+00 -1.76540792e+00  4.29652691e-01
  -8.38316262e-01  1.85327888e-01  6.20256960e-01  8.70705172e-02
  -4.64413822e-01 -8.44957083e-02 -2.17482507e-01 -8.36562335e-01
   3.85003656e-01 -3.51947069e+00 -8.15756992e-02  4.88295346e-01
   7.59758279e-02  1.24130166e+00  3.72312814e-01 -6.11226678e-01
  -7.14846909e-01  7.30161786e-01 -6.81977719e-02  1.08130038e+00
  -6.25595171e-03 -1.33352029e+00  3.99328560e-01  7.66691640e-02
  -5.30847013e-01 -1.33839715e+00 -2.31244111e+00  8.38659048e-01
   5.42645693e-01 -2.80625243e-02  6.75017357e-01 -7.09468871e-02
   7.02196836e-01 -1.98494005e+00 -4.82764387e+00  7.47216791e-02
   8.53425860e-02  8.26221332e-03 -1.13353336e+00  5.65123081e-01
  -1.25276577e+00 -5.91872036e-01  5.00383228e-02 -1.73408970e-01
  -1.53138053e+00  1.80246364e-02 -3.18354464e+00  7.59858191e-01
  -8.29841018e-01 -1.67460088e-02  3.99683684e-01 -4.22541708e-01
  -1.52467251e-01 -5.86242788e-03 -1.19615924e+00 -2.24509788e+00
  -1.07820618e+00 -2.94206572e+00 -7.26337254e-01 -6.36297613e-02
  -5.19546196e-02  4.68878448e-01 -8.92547250e-01 -4.60181862e-01
  -6.53679311e-01 -1.60345748e-01 -6.86321035e-02 -1.40874827e+00
  -3.33156437e-01 -4.86819372e-02  2.09787358e-02  5.66525757e-01
   1.23071037e-02 -1.08138062e-01  1.36541963e-01 -8.32020417e-02
  -2.36717716e-01 -1.02797128e-01  7.15925515e-01  4.67143357e-01
  -7.03602493e-01  1.11436836e-01 -8.48052502e-01 -5.50480366e-01
  -6.18798852e-01 -6.56007767e-01 -3.06381345e-01  9.25907671e-01
   6.70041203e-01 -5.50324500e-01  3.78128402e-02 -6.47282541e-01
   2.85053611e-01  4.87320155e-01  1.10571478e-02 -5.87779701e-01
  -3.56499863e+00 -5.51330984e-01 -4.04525185e+00 -3.66040096e-02
  -2.98740238e-01  7.10317731e-01 -9.98658895e-01  8.52152169e-01
  -2.87142992e-01 -5.69858253e-02  1.30371615e-01  7.88120776e-02
  -5.07036018e+00  3.71879935e-01 -4.16957140e-01  8.10539246e-01
   1.72244906e-01 -2.28226352e-02 -5.13008177e-01 -1.95724100e-01
  -5.37892282e-01  7.09697425e-01 -6.70857579e-02  8.60692561e-01
   1.03703260e-01 -2.45036688e-02  2.45393757e-02 -3.08878422e-01]
 [-6.82025790e-01 -5.50851583e-01 -4.40944970e-01 -2.82610893e-01
  -1.07234180e+00  3.86795253e-01  5.87007284e-01  8.56205583e-01
  -2.09058952e+00 -3.52168866e-02 -6.37684643e-01  1.63274825e-01
   9.78710949e-02 -4.83135080e+00  5.93493581e-02  4.28148955e-01
   4.99342419e-02  5.91186166e-01  8.13748240e-02  7.03994215e-01
  -1.00350475e+00  7.04226315e-01 -7.94951990e-03  1.34432292e+00
  -1.10721633e-01 -9.41727996e-01  1.91591680e-02  2.15871155e-01
   7.04506278e-01 -2.65785068e-01 -1.74316549e+00  2.05618441e-01
   4.63811040e-01  1.24154612e-02  4.44169432e-01 -8.58106301e-04
   5.21005452e-01 -2.97013330e+00 -3.22162223e+00  3.54690999e-02
  -3.63323092e-02  3.10710929e-02 -7.15433776e-01 -3.08864824e-02
  -2.13557625e+00  4.18504596e-01 -1.58815756e-02 -3.92281830e-01
  -4.26414460e-01 -6.80931270e-01 -5.56515753e-01  4.39828098e-01
   1.65247217e-01 -7.72014931e-02  7.46033907e-01  3.33323926e-01
  -5.78870952e-01 -2.94186901e-02  1.02845602e-01 -2.73635578e+00
   5.08345477e-02 -4.65811777e+00  1.29171535e-01 -2.44020321e-03
  -5.55870049e-02 -9.39903110e-02 -9.46072280e-01  2.65236109e-01
  -6.07862830e-01 -5.26736915e-01  1.72334127e-02 -1.01925218e+00
  -3.90946180e-01 -5.16880229e-02 -6.95562363e-02  1.42339551e+00
   2.68636703e-01  4.67637062e-01  9.69417930e-01 -2.13574525e-02
  -1.39259899e+00 -5.15962481e-01  2.59477794e-01  6.51661515e-01
  -6.78700209e-01  1.19613428e-02 -7.97835708e-01 -7.77495265e-01
  -9.98954415e-01 -3.40612978e-01  5.74916959e-01  8.15216824e-02
   4.31126595e-01 -8.24569985e-02  4.67906892e-03  4.54965919e-01
   1.75078467e-01  7.96287656e-01 -9.24647376e-02 -1.27861798e+00
  -3.63535357e+00 -6.73775673e-01 -5.62177277e+00 -1.84799377e-02
  -3.96607697e-01 -5.52433729e-01  1.29505754e-01  7.78498530e-01
  -1.34335846e-01  1.63051940e-03 -7.07464814e-01 -1.08646946e-02
  -5.42517710e+00 -1.56655416e-01 -1.09417498e+00  3.79196405e-01
   6.93297982e-01  6.40273511e-01 -3.97591978e-01  7.79955089e-01
  -1.28519580e-01 -1.54729784e-01 -6.14751130e-02  9.30379272e-01
  -6.13815375e-02 -3.09768785e-02 -7.67364919e-01 -3.31482738e-01]
 [-2.71817327e+00 -5.80767870e-01 -2.80290866e+00  2.65351832e-01
  -2.38775283e-01  2.22617656e-01  7.14304686e-01  9.72667038e-01
  -9.19293106e-01  6.48417622e-02 -1.72200873e-01  1.27399728e-01
   7.33626723e-01 -3.88214421e+00 -3.40729505e-01  2.41026089e-01
   4.29829992e-02  1.21473777e+00  3.00677001e-01  1.20606828e+00
   6.48314580e-02  6.80825293e-01  4.31632698e-02  3.22724998e-01
   5.99871539e-02 -1.70829132e-01 -6.77734375e-01 -9.53081131e-01
  -9.59438860e-01  6.87752068e-02 -2.69046545e+00  1.13520515e+00
  -2.02924103e-01 -1.48390913e-02 -1.18626249e+00  5.26991151e-02
   1.66059077e-01 -1.73979151e+00 -3.12837815e+00  6.09653331e-02
  -5.49201012e-01  3.17495205e-02  1.75814196e-01 -3.56728621e-02
  -6.83699131e-01 -3.24118853e-01 -1.62196811e-02  7.72855878e-01
  -4.40396637e-01 -7.74829924e-01 -3.22739363e+00 -5.90613842e-01
  -8.32385361e-01 -1.31498119e-02  6.32194817e-01 -3.07366699e-01
  -8.15745711e-01  2.87155122e-01 -8.10860157e-01 -1.46725166e+00
   6.94090009e-01 -5.75557232e+00  2.08978683e-01 -2.19764747e-02
   3.83150242e-02  1.20958245e+00 -9.64130998e-01  2.36867934e-01
  -8.66798401e-01 -7.30121493e-01 -1.14024460e-01 -3.79855841e-01
   4.67549950e-01 -5.01727611e-02  3.36609334e-02  1.07884371e+00
  -2.56655335e-01  5.04688621e-02  6.75027549e-01  4.12336104e-02
  -7.03395307e-01  2.83991426e-01  1.54634118e+00  2.39048928e-01
  -5.44301331e-01  4.96353596e-01 -1.13956809e+00 -2.27933094e-01
   1.26175180e-01 -8.80756974e-01  5.72208047e-01  2.88256258e-01
  -7.46711791e-02  1.46021858e-01  2.87847929e-02 -1.35417223e-01
  -6.63487753e-03 -4.88974184e-01 -9.11065489e-02 -2.61847347e-01
  -4.24361372e+00 -8.03613663e-01 -6.62369013e+00  1.47165552e-01
  -7.60734081e-01 -1.37430024e+00  5.38386464e-01  1.13083494e+00
   8.53175223e-01  6.34368286e-02 -1.21784282e+00 -7.46949166e-02
  -5.46581745e+00 -4.32145864e-01 -1.46849167e+00  1.07472754e+00
   1.12408316e+00  1.18724966e+00  1.14095199e-03  8.25410604e-01
  -6.90008700e-01 -7.09395051e-01  9.69432108e-03 -4.47726399e-02
  -8.22779238e-01  4.00440246e-02 -7.50831604e-01  6.53104782e-01]
 [-1.18125308e+00  2.88291514e-01 -2.64511585e+00  1.34181470e-01
   1.01040757e+00  1.50111750e-01  4.98151332e-01 -3.23945284e-01
   1.07458687e+00 -1.33414017e-02  1.55824885e-01 -1.79761022e-01
   2.88339704e-01 -2.58242536e+00  7.98809648e-01  2.60485798e-01
   2.48076227e-02  5.02641737e-01  1.80961788e-01  2.67898500e-01
   1.34602547e-01  2.22796574e-01  4.21099216e-02 -1.12876010e+00
  -3.20639089e-02  2.71463156e-01 -9.41445470e-01 -1.13487828e+00
  -1.12932421e-01  4.52070087e-01  1.86175972e-01  2.00003767e+00
   5.04842848e-02 -1.15768025e-02 -3.17530334e-01 -3.00309751e-02
  -2.96750814e-01 -2.77552104e+00 -1.17668056e+00  5.47327027e-02
  -1.24670613e+00 -7.49130100e-02  9.05816406e-02  5.82845211e-01
  -7.95485303e-02 -2.82799572e-01  4.30440605e-02 -3.91702533e-01
  -4.39289361e-01  5.94683647e-01 -1.21620500e+00  4.85822231e-01
  -6.50701225e-01 -4.32695113e-02  4.71512705e-01 -7.83991337e-01
  -4.92954075e-01  7.25031972e-01 -1.20058489e+00 -2.51738286e+00
   1.78535223e-01 -6.25447416e+00  4.96919215e-01 -9.85103101e-02
   5.64229153e-02  7.63024151e-01 -5.20632386e-01  5.31130970e-01
  -2.53902406e-01 -4.35112000e-01  4.96976562e-02 -2.61269474e+00
  -1.52467191e-01  3.59553657e-02  7.06408098e-02  3.32037061e-01
  -4.08430219e-01  1.08157225e-01  1.34175763e-01  3.34844887e-02
   1.99657679e-01  6.42994344e-01  5.40167212e-01 -9.39723179e-02
  -7.95738220e-01  5.54372489e-01 -1.16052365e+00  2.57381141e-01
   2.75515586e-01 -1.52962625e+00  1.49357423e-01  1.53602791e+00
  -2.48304367e-01  5.05584598e-01  6.71387825e-04 -6.61462843e-01
  -6.54302165e-02 -1.51956439e-01 -7.43696168e-02  3.77508998e-01
  -5.72068310e+00  3.83987695e-01 -5.19299650e+00 -1.66261047e-02
  -5.01813352e-01 -8.15235555e-01  7.02291965e-01  4.95407432e-01
   4.85899568e-01  5.69231212e-02 -2.27694297e+00  5.83461262e-02
  -5.74739552e+00 -4.21288401e-01 -4.11817789e-01  7.36041248e-01
   3.43253821e-01  9.82717633e-01  2.40811318e-01  1.18809216e-01
  -1.82626590e-01 -7.67179906e-01 -2.72956491e-02 -8.76341641e-01
  -2.61877447e-01 -2.54181284e-03  6.97894573e-01  5.61510101e-02]
 [ 1.16731572e+00 -6.02644943e-02 -2.35385013e+00  2.26629768e-02
   1.09439099e+00 -1.05057836e-01  1.16426080e-01 -1.73992172e-01
  -3.94666225e-01 -1.04373917e-02  1.17451513e+00 -1.02487290e+00
   3.48903164e-02 -1.80292499e+00 -1.00147314e-01 -2.02696323e-01
  -4.16162238e-02 -6.84518278e-01  6.81281745e-01  9.66213644e-03
   5.00376105e-01  1.09849846e+00  1.49482554e-02 -1.03978351e-01
   3.63579951e-02  1.85471326e-01  1.03420585e-01 -5.61165392e-01
  -3.38856250e-01 -8.08809400e-01  9.68298733e-01  1.72262657e+00
  -1.88398704e-01  6.06060624e-02  5.40203154e-01  1.02645280e-02
  -3.21741030e-02 -2.19986725e+00 -5.06629169e-01 -2.14952277e-03
  -1.48806334e+00 -9.11713615e-02 -1.41748860e-01  1.55390918e-01
   2.64315456e-01  4.40482438e-01  4.27497039e-03 -5.49556851e-01
   5.55051208e-01  5.72549224e-01 -9.40563560e-01  9.47527766e-01
   1.64008617e-01  1.52932154e-02  2.99795002e-01 -8.00198495e-01
  -1.73869789e+00  2.56521314e-01 -4.39925730e-01 -2.29270077e+00
  -7.78931826e-02 -5.62833309e+00  3.49976063e-01 -6.95598051e-02
  -5.72043424e-03  6.56977296e-02 -3.37329835e-01  6.54645264e-02
   4.09519719e-03 -1.98830873e-01 -8.22477713e-02 -1.60037208e+00
  -4.18991119e-01 -6.57955259e-02 -4.51034643e-02  5.90265989e-01
  -1.76234022e-01  3.34236950e-01  6.20827019e-01 -4.98572551e-02
   5.75446188e-01  4.27571386e-01 -8.87137175e-01 -8.02627429e-02
  -4.56086397e-01  1.72605604e-01 -1.77542329e+00  1.29299033e-02
   9.90224779e-01 -7.79644370e-01  1.61006421e-01  8.31799567e-01
  -3.86236273e-02  1.05516160e+00  2.38848366e-02  6.11654809e-03
  -2.73241192e-01  1.05266213e-01  2.73570661e-02 -4.19705957e-01
  -3.02198339e+00 -2.47596443e-01 -3.92708683e+00 -2.03429788e-01
   1.61489919e-01  9.47090983e-02 -5.25484085e-01 -4.16733325e-01
  -1.77466363e-01  4.41841036e-02 -3.01587415e+00  1.02478666e-02
  -7.47532368e+00  5.38222253e-01 -1.51957953e+00  8.81160796e-01
  -1.48183972e-01  5.88720262e-01  6.76648691e-02  2.46245697e-01
  -4.95671511e-01 -7.84849405e-01 -5.71977459e-02  2.09140673e-01
  -5.08716464e-01 -4.64356355e-02  3.92806590e-01  4.96240675e-01]
 [ 1.26642779e-01 -3.43715996e-02 -3.23219275e+00  3.51814419e-01
   8.78242731e-01  6.96605325e-01 -1.01646967e-01 -5.35771370e-01
  -4.02538627e-01 -6.17059646e-03  6.87419415e-01 -1.15409303e+00
   7.34865904e-01 -1.16043890e+00 -3.41565907e-01 -6.38468862e-02
   6.42815977e-02 -2.18479171e-01 -1.25341371e-01  1.30153626e-01
   1.06042278e+00  7.74694979e-01  2.83616073e-02 -3.42234462e-01
   3.50013226e-02  3.84868532e-01  1.06265771e+00  8.85608494e-02
  -8.60839188e-01 -1.97643891e-01  6.94160700e-01  3.54365796e-01
   5.89780277e-03  4.95275296e-02  3.80731314e-01  6.83978572e-02
   5.77067062e-02 -2.66051269e+00  3.78093213e-01  4.53124605e-02
  -1.27364838e+00  1.57093089e-02 -1.19620137e-01  1.71447501e-01
  -3.13350737e-01  5.67966521e-01  2.57497523e-02 -1.72319666e-01
   2.74787635e-01  1.77562818e-01 -1.29567277e+00  1.24637020e+00
  -2.47572381e-02 -6.86218739e-02  7.88479328e-01 -4.92512017e-01
  -1.73234212e+00  3.37437451e-01 -2.33231258e+00 -2.59691477e+00
  -1.23747706e+00 -6.53582525e+00  4.55158055e-02 -1.90912001e-02
  -8.38482846e-03  2.82949537e-01  7.60869980e-01 -4.99101311e-01
   5.18671334e-01  6.01185501e-01  2.32186764e-02 -9.12933797e-02
  -5.90277374e-01 -1.90635044e-02 -3.45200934e-02 -6.21654950e-02
   4.83173192e-01  6.06499016e-01  5.41032493e-01  6.55343698e-04
   4.51890290e-01 -2.05659330e-01 -2.59299707e+00  8.59094381e-01
  -5.17191231e-01 -3.06122508e-02 -2.19301486e+00  5.33182211e-02
   3.18151116e-01 -3.77147406e-01 -2.87929118e-01  3.88868034e-01
   5.44030488e-01  5.65769672e-01  4.51518893e-02 -1.23678856e-02
  -4.44003761e-01  4.45218056e-01 -5.47448285e-02 -8.69845152e-01
  -3.33465266e+00  1.23619929e-01 -3.09422803e+00 -3.79194617e-01
   3.36413354e-01  5.38640022e-01  5.74847199e-02 -1.62875846e-01
   2.29293741e-02  5.32696694e-02 -4.25778818e+00  1.68267712e-02
  -7.45568991e+00  4.90874439e-01 -1.81150162e+00  3.34517509e-01
  -4.75581214e-02  6.85928091e-02 -1.23511747e-01  1.66344374e-01
   8.92535374e-02 -1.08121645e+00  7.13359416e-02 -9.80169699e-02
  -5.48415303e-01 -9.16163847e-02  7.31798410e-01 -4.80402708e-01]
 [ 9.88011181e-01  2.33131260e-01 -2.27110696e+00  1.74134836e-01
   7.37927914e-01  1.06418002e+00 -4.48254466e-01  5.43218143e-02
  -1.72809109e-01  7.04066157e-02 -1.15314387e-01 -6.07117653e-01
   9.04629230e-01 -1.39709306e+00 -6.47874415e-01  4.85079549e-02
   7.02696890e-02  1.75191730e-01 -2.68599242e-01  8.06256309e-02
   7.43395746e-01  1.04499698e+00  4.91396487e-02 -6.94870830e-01
  -8.39753896e-02  4.00008596e-02  1.27721751e+00  1.10218084e+00
  -5.60153842e-01  2.11500883e-01  8.29090178e-01  1.06213540e-01
  -2.37355933e-01  3.49878930e-02  4.45698053e-01  6.95636496e-02
  -3.63584235e-02 -2.63619542e+00  9.13723290e-01  3.43466774e-02
  -1.36408329e+00 -3.44087109e-02 -4.44210976e-01  1.63240224e-01
  -1.43642081e-02  5.70829213e-01  5.17891720e-02 -2.37769991e-01
  -5.75982183e-02  5.08171380e-01 -1.10249169e-01  9.51071739e-01
  -9.99179333e-02  1.38456165e-03  1.12105107e+00 -2.42258415e-01
  -1.29854751e+00  3.96900147e-01 -2.45013165e+00 -3.72834659e+00
  -1.68751347e+00 -6.75497627e+00  4.06578541e-01  5.33287525e-02
  -8.59789774e-02  5.49002469e-01  5.80110312e-01 -5.59295654e-01
   9.01282251e-01  9.56276476e-01 -7.56487027e-02  2.86197186e-01
  -4.19566303e-01 -4.53923531e-02 -2.23128386e-02 -6.35518253e-01
   3.32901269e-01  5.99145472e-01 -3.45766991e-01 -2.14541554e-02
   4.03711379e-01 -9.35842276e-01 -2.52823257e+00  3.03651333e-01
  -1.30646989e-01 -1.14735045e-01 -2.18250132e+00  4.01901871e-01
  -8.36628973e-02 -9.53211665e-01 -1.19365084e+00  6.78033531e-01
   3.78168225e-01  7.46056080e-01 -3.05987354e-02  9.20703709e-02
  -1.61174759e-01  2.60416776e-01  3.36431675e-02  7.64690414e-02
  -1.68635333e+00  4.80762541e-01 -1.53373361e+00 -4.86681461e-01
   1.51130602e-01  3.66785079e-01 -5.80689199e-02  4.54290837e-01
   2.16641709e-01  9.32959840e-03 -3.70418167e+00  6.68429434e-02
  -7.79106808e+00  4.33892041e-01 -1.61722779e+00 -7.33420402e-02
  -3.72395664e-02  3.83217752e-01  5.95385492e-01  6.80745959e-01
  -2.41008922e-01 -1.22349417e+00 -1.87808983e-02 -6.10554636e-01
  -7.29978383e-01 -7.16443919e-03  5.20484626e-01 -4.12535250e-01]
 [ 3.00445706e-01 -3.22153009e-02 -1.70945692e+00  1.06403656e-01
   7.18504310e-01  4.66444939e-01  6.40145391e-02 -5.56561202e-02
  -3.56063128e-01 -7.43466392e-02  7.38113821e-01 -5.90950966e-01
   3.99633229e-01 -2.21122816e-01 -1.47694916e-01  1.04294471e-01
   6.37850091e-02 -8.28341901e-01  8.61667842e-02  2.19573230e-01
   8.28276947e-02  7.40290642e-01 -5.88904843e-02 -1.06717503e+00
  -1.17574207e-01  7.89658487e-01  2.35569343e-01  6.44085228e-01
  -5.65491438e-01 -7.79854879e-02  1.13863683e+00  8.47754002e-01
  -3.44380379e-01  4.47891988e-02  3.21841329e-01 -5.44068851e-02
  -7.07983613e-01 -2.25318742e+00  3.25219393e-01 -2.20967811e-02
  -1.54339468e+00  3.24506052e-02  1.06663732e-02 -1.72247961e-01
  -1.62960127e-01  4.69866037e-01  4.06497121e-02 -6.53570741e-02
   5.66123843e-01  6.87713474e-02 -2.53572464e-01  5.79263389e-01
   1.77098423e-01 -3.81573252e-02 -1.39067508e-02 -4.57368225e-01
  -1.42585385e+00  1.81846432e-02 -2.84550524e+00 -4.00068283e+00
  -9.85507846e-01 -7.88850641e+00  3.10461462e-01 -2.07094066e-02
  -1.01108402e-01 -2.18729496e-01  1.29319772e-01  1.02253985e+00
   1.18027680e-01  2.71919161e-01  2.27390323e-02  1.89261630e-01
  -5.41253030e-01 -3.34235281e-02 -1.66686140e-02  3.68169785e-01
   4.72158998e-01  4.02775884e-01  2.03964576e-01 -2.98020840e-02
   4.54664677e-01  2.40933344e-01 -1.29945016e+00 -4.15514529e-01
   1.72695085e-01 -1.32985517e-01 -2.16474104e+00  3.54903519e-01
  -2.90870517e-01 -2.30148888e+00 -6.77599609e-01  5.23194432e-01
   1.86749578e-01 -1.41297624e-01 -8.32848400e-02  6.19277358e-01
  -2.85541654e-01  4.29294854e-01 -5.31588905e-02 -3.71393085e-01
  -8.18312287e-01 -2.40444168e-01 -1.69405138e+00 -2.53803968e-01
  -6.78318813e-02  5.52370131e-01 -9.19297859e-02 -7.40236789e-02
   1.58881545e-01 -1.59960464e-02 -2.89656878e+00  5.66122085e-02
  -8.55952358e+00  4.10348654e-01 -1.36696053e+00  5.98644018e-01
   9.42851827e-02  1.10310286e-01 -1.34174347e-01  4.52113867e-01
   3.41528147e-01 -1.17841196e+00  7.48270452e-02 -4.33250338e-01
  -1.64377823e-01  1.38365636e-02  2.54893184e-01 -4.47244585e-01]
 [-2.51833260e-01  7.19887912e-02 -4.66446698e-01  1.08086998e-02
  -2.18006313e-01 -5.13438396e-02 -3.78203213e-01  4.89214174e-02
  -1.07020512e-01 -7.20937643e-03 -3.19089741e-02 -1.55621208e-02
   2.34740674e-01  1.07171245e-01 -1.01925723e-01  5.83309352e-01
  -4.03941348e-02 -3.16100232e-02 -1.75553672e-02  3.48498672e-01
  -1.88120171e-01  9.41954613e-01 -7.61975497e-02 -1.60319591e+00
  -9.75653753e-02  6.61625087e-01  3.19789052e-01  1.66494399e-01
  -1.21047103e+00 -3.78574543e-02  3.74337316e-01  1.52251768e+00
  -4.07584041e-01 -2.87772045e-02 -1.01485047e-02  5.05101122e-02
   4.00072709e-02 -1.11246645e+00 -3.42968136e-01 -6.20156154e-03
  -2.30866694e+00 -5.13304174e-02  7.78228939e-01 -5.34683391e-02
  -5.84033906e-01 -6.89288557e-01 -7.15403333e-02 -7.22533882e-01
  -2.07701385e-01  2.05146894e-02  2.54669070e-01 -9.26286936e-01
  -1.05644390e-01 -3.52115743e-02 -8.62587318e-02 -4.34475213e-01
  -8.64946485e-01  4.37766522e-01 -2.71837020e+00 -2.37841344e+00
  -5.07217050e-01 -6.08192778e+00  9.02351588e-02 -3.37246433e-02
   3.82092744e-02 -1.81512788e-01 -2.19851315e-01 -1.17373012e-01
  -1.36685109e+00 -3.88583392e-01  1.92526300e-02  1.84782952e-01
   4.31150682e-02 -6.94422275e-02 -1.01701073e-01  3.22514862e-01
   3.34248729e-02  5.39744377e-01  3.72399509e-01  1.62438897e-04
   4.39358801e-02 -3.64828892e-02  7.29723752e-01 -1.83874592e-01
  -5.88227391e-01  1.16234861e-01 -2.47142220e+00  1.43231124e-01
  -3.48981172e-01 -2.98944092e+00 -2.77393341e+00  1.06809723e+00
  -3.02563965e-01  4.02218282e-01  6.70672022e-03  2.13165626e-01
   3.09621245e-01 -2.87466258e-01  4.20375131e-02 -3.89597595e-01
  -7.64948800e-02 -7.30262220e-01 -8.38516355e-01 -1.30386114e-01
  -2.87081182e-01  6.62629306e-02  6.02374971e-01  1.76887825e-01
   3.70760947e-01 -7.61282817e-02 -2.29285264e+00 -5.69141954e-02
  -5.61700630e+00 -3.95326205e-02 -1.41053689e+00  3.51864338e-01
   1.92203653e+00 -1.48956031e-01  5.85729241e-01 -1.26666646e-03
   5.16331911e-01 -8.11547320e-03  6.40528351e-02 -3.38828206e-01
   1.23839390e+00 -1.07764937e-01 -1.91874415e-01 -3.37981790e-01]
 [-1.73635757e+00 -1.79462671e-01 -1.44451094e+00  8.63638415e-04
   2.54787862e-01 -1.44578025e-01 -5.61070405e-02  1.36988497e+00
   3.86508882e-01 -2.80020367e-02 -3.43854815e-01  8.67157400e-01
   6.35363400e-01 -2.56589353e-01 -3.99047792e-01  5.07037640e-01
  -9.94275510e-03  5.09180307e-01 -1.08682491e-01  1.52509674e-01
   3.24960649e-01  7.70324409e-01  4.45734523e-02 -1.85825348e+00
   5.04008820e-03  7.36724198e-01  9.07637119e-01 -1.14675067e-01
  -1.82663286e+00  7.15264857e-01 -7.10224435e-02  7.60575533e-01
   3.09954770e-02 -8.49949643e-02 -3.75850081e-01  1.78458448e-02
   8.10211673e-02 -9.98380542e-01  1.07693732e+00 -4.75746058e-02
  -3.04029632e+00 -5.35527728e-02  1.11309433e+00  5.91772974e-01
  -1.03341818e+00  4.96142022e-02 -2.14620098e-03  5.58189034e-01
  -7.23248348e-02 -1.42358363e-01 -5.54232359e-01 -6.06136382e-01
  -1.73549831e-01  4.46604518e-03 -3.20861191e-01  9.42561496e-03
  -1.02832901e+00  6.33631587e-01 -7.94401765e-01 -1.46485400e+00
   4.14701164e-01 -6.26435375e+00 -2.98330396e-01  9.97437444e-03
  -1.24305710e-02 -6.46758497e-01 -1.08374751e+00 -3.06067586e-01
  -1.81772196e+00 -9.22311723e-01 -9.02335197e-02 -5.10145538e-02
   2.16787830e-01  4.45810929e-02  3.82287847e-03  2.86752731e-01
   1.08102441e-01  1.99864790e-01  1.06111896e+00 -9.64284763e-02
   2.54768908e-01  1.45315323e-02  9.85132813e-01 -1.92908391e-01
  -1.32885015e+00  4.27920908e-01 -2.48108006e+00 -5.67467511e-03
   3.78962517e-01 -3.38112378e+00 -5.75233221e+00  8.05865347e-01
  -5.76280475e-01  3.80756766e-01 -5.29517569e-02 -8.96706939e-01
  -1.40190318e-01 -2.84409225e-01 -8.90580863e-02 -1.71635270e-01
  -8.50590318e-02  1.08337745e-01 -6.22542381e-01  2.42117524e-01
  -3.64378154e-01 -7.61157572e-01  1.37819433e+00  3.20768297e-01
   1.10891616e+00 -1.04078455e-02 -2.85389400e+00 -6.17452972e-02
  -4.59986687e+00  4.26818281e-01 -1.34996819e+00  2.41121009e-01
   8.03735316e-01  5.28817773e-01  2.66025901e-01 -7.50494659e-01
  -2.30268925e-01 -3.00343633e-01  2.13827286e-02 -5.72885156e-01
  -6.76563621e-01 -3.81844724e-03 -5.44607401e-01 -8.14865351e-01]
 [-2.12514663e+00 -4.55430597e-01 -8.41535032e-02  5.67272194e-02
  -2.05490679e-01  5.73603570e-01  3.01880538e-01  1.35824132e+00
  -3.27346027e-01 -5.40714711e-02 -7.49611855e-01  2.39820093e-01
   8.29475045e-01 -9.45145905e-01 -6.55792832e-01  4.62376058e-01
  -5.20967357e-02  6.26253486e-01 -5.78542233e-01 -8.93619955e-01
  -1.76127851e-02  1.70767701e+00 -1.67349237e-03 -1.53670955e+00
  -3.24986763e-02 -5.92804514e-02  9.58478600e-02 -3.41292977e-01
  -4.24022818e+00 -6.77123427e-01 -1.29091167e+00  4.18766260e-01
   1.51874408e-01 -4.34623063e-02 -3.28527987e-01 -5.88834509e-02
   6.18538737e-01 -1.92101967e+00 -4.04313803e-01 -4.54201773e-02
  -3.87112951e+00 -2.94830762e-02  8.21366727e-01 -1.64732471e-01
  -9.68671143e-01 -3.20392370e-01  6.04447573e-02 -2.15062946e-01
  -2.86479443e-01 -4.24942762e-01  6.52428329e-01 -4.70012516e-01
  -9.77283895e-01 -5.74322157e-02 -5.45240521e-01 -5.09525836e-01
  -5.05033076e-01 -5.89780957e-02 -1.10988200e+00 -9.27666724e-01
  -5.83031625e-02 -4.44718504e+00 -2.50529647e-01  3.50275896e-02
  -3.03978324e-02  2.42713585e-01 -9.30449009e-01  1.58508047e-01
  -2.34306455e+00 -6.23125613e-01 -1.31657161e-03  2.27309942e-01
  -1.77159518e-01 -3.46305035e-02 -7.73003846e-02  5.91964364e-01
  -1.14726879e-01  2.41632849e-01  5.64223289e-01 -1.59200802e-02
  -2.24549949e-01 -6.49693608e-02  8.94209266e-01 -1.79433763e-01
  -4.88002390e-01 -3.70622054e-03 -2.90672970e+00  2.27001011e-01
   6.37720823e-02 -3.01907659e+00 -8.27314854e+00  6.58263028e-01
  -1.60901740e-01 -5.15300035e-01  4.35497845e-03  1.97591946e-01
  -7.56000876e-01  9.01818946e-02 -9.69312266e-02 -1.19318974e+00
   9.40995395e-01  1.59560844e-01  2.72232085e-01 -2.25174539e-02
  -3.66025031e-01  2.99239159e-02  3.96876872e-01  6.65035844e-01
   4.44660485e-02  5.75068407e-03 -2.11116266e+00  2.76240855e-02
  -5.02840471e+00 -3.33842576e-01 -4.01674837e-01  4.68788482e-02
  -4.37646389e-01  9.85327005e-01 -5.60653321e-02 -9.17502463e-01
   1.30393207e-01  4.52870637e-01 -1.79577805e-02  4.97806966e-02
   3.14977884e-01 -1.17632397e-01 -1.46630299e+00 -5.98595858e-01]
 [-1.99321520e+00 -8.75151694e-01 -1.36394870e+00  4.47391599e-01
  -3.60672414e-01  1.83872783e+00  1.08826533e-02  8.92924130e-01
  -1.08473802e+00  2.82088239e-02 -7.03355730e-01 -6.82053566e-01
   4.64889497e-01 -4.27163541e-01 -1.10173953e+00  4.06608790e-01
  -4.61717248e-02  8.00315022e-01  6.69667900e-01 -1.60825670e+00
  -5.91865420e-01  6.52022362e-01  3.19075845e-02 -8.96788180e-01
  -9.09715332e-03  2.72293508e-01  3.55609506e-01  6.22206889e-02
  -4.90177965e+00 -7.27078795e-01 -1.45145500e+00  3.70471209e-01
   7.59133518e-01 -3.66293192e-02  3.11270267e-01 -3.32459509e-02
   9.61600244e-01 -1.16312695e+00 -1.70047057e+00 -4.46556695e-02
  -4.60352325e+00 -6.04331074e-03  1.84688881e-01  1.21974051e+00
  -1.29652882e+00 -9.02214170e-01  7.02499673e-02 -9.28589106e-01
  -3.59232157e-01 -5.49215972e-01 -4.51319546e-01 -1.00473809e+00
   4.06028360e-01  7.79870749e-02 -6.09037936e-01  5.22905529e-01
  -3.36691469e-01 -3.19988966e-01 -3.04780555e+00 -2.16898370e+00
  -4.96571809e-01 -3.76337075e+00 -1.44701958e-01 -7.03362525e-02
   1.57983284e-02  1.56124926e+00 -8.48774076e-01  1.08987838e-01
  -2.45493555e+00 -6.42415285e-01  6.85230084e-03  1.11407340e+00
   2.05452338e-01  5.73019944e-02 -5.89350089e-02  2.88890302e-01
   1.81498174e-02  5.02134144e-01 -6.92180358e-03 -3.46743762e-02
   1.68260500e-01 -5.41340653e-03 -8.44360173e-01 -5.95290549e-02
  -9.13651228e-01 -2.74239063e-01 -2.76972198e+00 -8.02549899e-01
  -3.03110003e-01 -1.94002461e+00 -7.25723600e+00  1.11860073e+00
   2.30548903e-01 -1.87171381e-02 -7.80339167e-02 -4.57456142e-01
  -7.25073293e-02  2.00348988e-01  3.94800939e-02 -6.10249102e-01
   4.30778973e-03 -7.67032355e-02  4.26670685e-02 -5.14698386e-01
   4.46886510e-01  1.00361729e+00 -8.56645823e-01  7.38096893e-01
  -1.55542165e-01 -2.64116214e-03 -2.51002598e+00  6.69856817e-02
  -4.54246283e+00 -3.62834275e-01 -1.31766260e-01  3.26653421e-01
  -8.36728364e-02  3.32100898e-01 -8.35585818e-02 -1.56926620e+00
   1.98941544e-01 -2.49321088e-01  6.49032295e-02  6.91198230e-01
  -5.21429539e-01 -2.82160807e-02 -7.98619747e-01 -5.53420007e-01]
 [-3.30961227e+00  2.95500815e-01 -7.90415645e-01 -6.12601578e-01
  -1.45516872e-01  1.53232443e+00  4.15707171e-01  4.66599017e-01
  -5.53277135e-03 -6.06034137e-03 -6.07492685e-01 -3.52644235e-01
   1.76783741e+00 -2.86511093e-01 -2.08380938e+00  4.96035755e-01
   4.29225042e-02  7.45975852e-01  5.68111956e-01 -3.76561356e+00
  -6.81498408e-01  1.42473534e-01  1.75608844e-02 -1.90128374e+00
  -1.13282807e-01  5.99512123e-02  6.62794948e-01  1.23351729e+00
  -4.67940331e+00  8.36641565e-02 -8.57437193e-01  1.02951086e+00
   2.79659748e-01 -3.47312056e-02 -5.75267673e-01 -8.98617730e-02
   9.63073671e-01 -1.21103060e+00 -2.22304034e+00 -6.63181245e-02
  -4.15438080e+00 -1.01400226e-01 -7.21819028e-02  9.47752893e-01
  -1.42862225e+00 -1.62264919e+00  1.37209035e-02  7.75981545e-02
   3.16920549e-01 -2.08782464e-01 -8.41557384e-01 -2.63506389e+00
   3.80364805e-01 -4.07025665e-02 -1.03210129e-01  6.22951508e-01
  -8.30097020e-01 -9.04341042e-02 -2.21373224e+00 -2.11650872e+00
  -1.16408837e+00 -2.28685594e+00 -6.37426257e-01 -5.99115454e-02
  -3.90720256e-02  8.94105077e-01 -1.66315138e+00 -4.73408043e-01
  -1.63928044e+00 -5.40652871e-01 -4.75555994e-02  1.31615639e+00
   1.74446180e-01  2.47350745e-02 -2.45582666e-02  7.29318202e-01
   4.31636572e-01  8.81668210e-01 -1.79453373e-01  1.17279934e-02
   4.45441663e-01 -4.19445604e-01  9.18780625e-01  3.44391495e-01
   1.56395328e+00 -1.16251461e-01 -2.33805132e+00  2.64912933e-01
  -2.72924840e-01 -2.60294104e+00 -5.45410538e+00  1.87343144e+00
   1.40192002e-01 -3.79573166e-01 -5.33041507e-02 -3.15962046e-01
   2.85848349e-01  3.94966245e-01 -2.26963102e-03  8.71426985e-02
  -6.81003511e-01 -3.42242777e-01  2.78354287e-01  2.76627332e-01
   4.13142890e-01  1.31108725e+00 -7.22833395e-01 -5.20318002e-02
   5.77015698e-01  8.84834863e-03 -2.42783141e+00 -4.84523438e-02
  -2.54802728e+00 -2.81077772e-01  8.36257517e-01  3.70361120e-01
  -4.85104591e-01 -1.38790220e-01  1.38344181e+00 -2.13444281e+00
  -1.06628947e-01 -1.52489683e-02  4.52432334e-02  4.31109190e-01
   4.83688653e-01 -9.27655324e-02 -1.33060670e+00 -1.48764157e+00]
 [-9.05487537e-01  6.81562424e-01 -8.59663129e-01 -4.23922598e-01
   1.67963493e+00  1.98122427e-01  2.29007512e-01  3.72644395e-01
  -1.16337739e-01 -4.72394302e-02  1.43132433e-01  3.21233541e-01
   1.29670405e+00 -1.09953612e-01 -6.55964315e-01  2.23776031e+00
   3.53149585e-02  1.63598788e+00 -1.34074056e+00 -3.29988384e+00
   4.99993982e-03  4.38011378e-01  6.46725073e-02 -1.67009056e+00
  -4.96995151e-02  1.31918204e+00  1.25486374e+00  7.60393023e-01
  -3.70851064e+00 -2.97012717e-01 -2.50525331e+00 -5.82651794e-01
  -1.54054463e+00 -7.53736496e-02 -3.49650919e-01 -4.77063991e-02
   7.03039944e-01 -1.91328421e-01 -6.08696342e-01 -3.69729996e-02
  -3.55184007e+00 -3.65622118e-02  3.57859492e-01  8.68585169e-01
   2.22241729e-01 -8.31052780e-01 -2.60193162e-02  2.28177404e+00
   3.47193778e-01 -3.69920135e-01 -6.52968466e-01 -8.77621591e-01
   5.26983678e-01 -5.81444725e-02 -7.65543580e-01 -4.46455956e-01
   1.72064919e-02 -3.75705242e-01 -3.90010142e+00 -1.10951436e+00
   3.20326805e-01 -1.86903226e+00  9.42728147e-02 -7.25168139e-02
   6.05883189e-02  3.52217704e-01 -7.53962636e-01 -1.10263087e-01
  -8.49979043e-01 -3.80228162e-01 -4.12964486e-02  8.16733360e-01
   5.61770082e-01 -1.72531195e-02 -1.81913115e-02 -1.79302931e-01
   1.05688250e+00  5.05576789e-01 -1.05795979e+00 -6.76799491e-02
   1.60296369e+00  4.01690215e-01  5.57830274e-01 -2.26836577e-01
   6.68762088e-01  3.04942951e-02 -2.19736886e+00 -1.14796460e-01
  -4.94327694e-01 -1.91194582e+00 -3.16058564e+00 -4.61233079e-01
  -8.24621141e-01  9.55524966e-02 -7.00161532e-02  9.53724742e-01
   3.10386807e-01 -5.64341724e-01  4.20717821e-02 -1.05825558e-01
   3.50620985e-01 -7.81672776e-01  5.16841233e-01  1.19194889e+00
   3.49904358e-01  7.13292539e-01 -4.45833415e-01  9.09061059e-02
   8.19254369e-02 -1.08567581e-01 -2.44723558e+00  6.39383197e-02
  -4.40883923e+00  6.10989869e-01  1.35318911e+00  1.32864881e+00
  -3.93491507e-01  7.34692991e-01 -5.81413269e-01 -3.99484873e+00
   2.47749999e-01 -8.03905964e-01 -6.03500381e-02 -3.79545957e-01
  -5.81148624e-01 -5.17925099e-02 -1.08803928e+00 -5.72446406e-01]
 [ 6.88229740e-01  1.88526541e-01 -7.94783056e-01 -6.82364941e-01
   1.75169304e-01 -1.45874411e-01  4.05927867e-01  4.69525665e-01
   1.83075041e-01 -2.69410573e-02  5.00945330e-01 -2.50878483e-01
   5.24903357e-01 -2.10936472e-01  2.66705424e-01  7.98803747e-01
  -1.09589780e-02 -2.87505984e-01  4.44641769e-01 -5.65341997e+00
   2.09420130e-01 -1.41520724e-01 -7.55484551e-02 -1.77232659e+00
  -1.22030295e-01 -1.35070607e-01  1.14307034e+00  1.06778336e+00
  -4.17531919e+00  5.21440282e-02 -1.34950733e+00  3.61503184e-01
   1.85768858e-01 -1.35835381e-02  7.49538913e-02  5.47439158e-02
   1.21471131e+00  3.74484271e-01 -4.32835847e-01 -9.85747874e-02
  -3.32113552e+00  1.61347818e-02  1.19021857e+00  5.58352619e-02
   4.12530079e-02  3.77609283e-01 -1.63933765e-02  1.04539144e+00
   7.03355134e-01 -1.54413447e-01  8.32663953e-01 -2.01979756e+00
  -5.80210388e-01 -8.53771865e-02  4.47898865e-01  4.93054599e-01
   4.23409700e-01  5.75548291e-01 -3.56652284e+00 -5.59076607e-01
   1.06708193e+00 -1.65169859e+00 -1.05800010e-01 -7.38079324e-02
   6.58483356e-02  4.77145672e-01 -3.24232906e-01  1.92449436e-01
  -1.14537263e+00 -3.31506401e-01 -1.94098353e-02  8.20762753e-01
   7.26703942e-01 -8.73256661e-03 -1.48071479e-02 -6.21483982e-01
   1.45581886e-01 -4.13223021e-02  1.52759969e-01 -1.16990402e-01
   2.02987027e+00  4.48201835e-01 -9.37760115e-01 -7.43626297e-01
   1.32418778e-02 -5.40145859e-02 -1.44054043e+00 -6.48251176e-01
   4.07095663e-02 -8.64326894e-01 -1.50959182e+00  1.07235599e+00
   4.21126992e-01 -6.68866277e-01 -5.35397306e-02  3.71860504e-01
  -1.14725351e-01 -7.14402258e-01  5.79989888e-02 -6.69265330e-01
  -5.15197515e-01  1.63366292e-02 -4.74707216e-01 -6.60011292e-01
   4.37730491e-01  9.25131321e-01  2.80182600e-01 -1.45403996e-01
  -3.49839747e-01  1.73395069e-03 -2.18753815e+00  8.68156087e-03
  -4.87763929e+00 -1.25922167e+00 -5.45801735e-03  8.39080870e-01
  -6.23455226e-01  4.68700200e-01 -1.08690965e+00 -5.54187202e+00
   5.17157912e-01 -1.01768315e+00 -1.56270340e-02 -1.62289345e+00
  -1.32284582e+00 -8.46309587e-02  2.02505022e-01  2.13201329e-01]
 [-8.21708143e-01 -6.78746223e-01  1.49711430e+00 -5.36528111e-01
   6.66276455e-01 -1.83584738e+00  2.29453826e+00  9.54709113e-01
   9.63516235e-01 -4.05072346e-02  1.98671567e+00 -1.43605262e-01
   1.06685042e+00  9.59791765e-02  5.34522235e-01  9.99246657e-01
  -2.14041639e-02  3.30252200e-01 -5.97281575e-01 -5.68458891e+00
   3.78321052e-01  1.09989119e+00 -1.36169912e-02 -1.68065894e+00
  -5.26450835e-02  2.35687941e-01  2.19756812e-01  3.43364626e-02
  -3.95857596e+00 -3.62889111e-01 -8.85042071e-01  3.77282649e-01
  -6.06647491e-01  3.77643555e-02 -1.71768352e-01  7.02728629e-02
   8.04187119e-01  2.06042767e+00 -5.49822211e-01 -6.31634798e-03
  -3.34339428e+00  8.47692881e-03  1.44242361e-01  1.35717702e+00
   1.65554527e-02 -3.16498995e-01 -1.92449661e-03  6.50264263e-01
   2.49833718e-01  3.18303317e-01 -2.05404982e-01 -1.41595161e+00
   1.37476055e-02 -1.20861987e-02  4.58135456e-02  1.73759744e-01
   3.14705968e-01 -6.24215841e-01 -5.16845560e+00 -8.82630646e-01
   2.20794773e+00 -3.26234412e+00  8.72543752e-01 -1.03525750e-01
   4.81493957e-02 -4.74623404e-02 -5.14917910e-01 -8.28609467e-01
  -1.86192405e+00 -6.52251005e-01 -9.01233405e-02  9.80254233e-01
   9.50087428e-01 -4.34209220e-03  1.30082872e-02  4.86956805e-01
   7.96150923e-01  2.97849119e-01 -8.91781151e-01 -1.01943940e-01
   9.01211560e-01  6.12379551e-01  3.52321953e-01 -6.64550543e-01
  -9.27456260e-01  2.11470127e-01 -9.97535527e-01 -6.89934909e-01
   4.91160691e-01 -2.43581831e-01 -1.27037144e+00 -2.15470716e-01
  -2.57380694e-01  1.60242125e-01 -2.43027508e-02 -2.42700949e-01
  -1.06690156e+00 -9.04696763e-01  6.92311153e-02 -9.98675942e-01
   2.50747830e-01  3.16191576e-02  7.93651640e-01 -7.72705674e-02
  -1.05028637e-01  4.62588310e-01  1.44207031e-01 -1.72420874e-01
   1.25696540e-01 -6.47406355e-02 -1.98514032e+00  1.63696148e-02
  -4.85884237e+00 -2.95946039e-02 -1.86989272e+00 -1.42070353e-01
   1.84623092e-01 -5.72022721e-02 -2.23552608e+00 -6.88589144e+00
   1.89373267e+00 -6.93132222e-01 -4.97392118e-02 -1.05472457e+00
  -1.47633231e+00 -9.73509625e-02 -9.10277814e-02  8.41538548e-01]
 [ 6.46209955e-01 -1.52580068e-01 -4.71806407e-01 -4.37956721e-01
   4.41824228e-01 -2.94764340e-01 -7.68863559e-01  1.10838223e+00
  -6.74738824e-01  3.89970243e-02  2.92908195e-02 -1.44199979e+00
   4.90749896e-01 -1.06995031e-01  1.14163458e+00 -2.66352117e-01
  -1.23451352e-02 -4.01663482e-01 -2.64172816e+00 -8.67979145e+00
   4.01785403e-01 -3.84704649e-01  5.33254780e-02 -1.20806456e+00
   3.88731323e-02 -5.21731806e+00 -1.96632370e-01 -3.88605356e-01
  -4.24780703e+00 -3.77657861e-01 -4.66115385e-01  5.18111885e-01
  -1.96487236e+00 -8.64842311e-02  1.35913718e+00 -4.90374342e-02
   7.80851483e-01  8.25846493e-01 -8.81215453e-01 -3.29164742e-03
  -2.92581367e+00  1.29814176e-02  2.59027869e-01 -4.85073924e-01
  -9.03602317e-02  2.15215907e-01 -5.83632616e-03  9.48431373e-01
   4.62719291e-01  1.04803097e+00 -6.71494782e-01 -1.28800237e+00
   4.97707158e-01  4.92670462e-02 -3.88170868e-01 -5.93795955e-01
   4.65160996e-01  3.81136239e-01 -6.10938549e+00 -1.15081087e-01
   9.11280274e-01 -3.35772896e+00 -2.69657344e-01  4.57425788e-03
   2.17627082e-03  8.56783241e-02  1.16355836e-01  6.14161670e-01
  -1.97020578e+00 -4.24889117e-01  1.20986998e-02  2.32692078e-01
   2.02556342e-01  5.01055159e-02  3.83443199e-02  3.85425210e-01
   2.68254548e-01  6.88363910e-01  3.54572475e-01  3.03125158e-02
   3.16495031e-01 -1.22891295e+00  9.75807130e-01 -9.32440534e-02
   4.70205545e-01  7.58815333e-02 -4.18348789e-01 -1.20091103e-01
  -6.61031902e-01 -3.46472919e-01 -1.08542120e+00  4.51508373e-01
  -3.62972990e-02  7.47276127e-01 -5.02072833e-02  7.99030304e-01
   6.51400864e-01  7.94310272e-01 -8.66968930e-02 -7.18286037e-01
   1.58020899e-01  3.96137357e-01  7.42547154e-01  1.21184755e-02
  -2.82362223e-01 -6.00327402e-02  3.88487101e-01  2.70180583e-01
   1.67037249e-01  7.87601247e-02 -6.91669047e-01  7.80283436e-02
  -4.35510778e+00  7.89894640e-01 -3.11656266e-01 -2.59626001e-01
   5.32943487e-01 -7.99983963e-02 -7.12540388e-01 -6.87597322e+00
   7.92268217e-01  2.54262745e-01  6.86676381e-03  6.18937053e-02
   2.74614617e-02 -5.38579226e-02 -1.05203867e+00  6.92015231e-01]
 [-5.13458028e-02 -4.24424648e-01  1.00392425e+00 -4.89198297e-01
  -1.87101126e-01 -2.28694156e-01 -6.29109919e-01 -1.47845745e-01
   3.06393296e-01 -7.26513565e-02  5.31793952e-01 -3.47798377e-01
  -4.98282403e-01 -5.50526440e-01  1.25230920e+00 -2.02711248e+00
  -5.59578538e-02 -1.91361988e+00 -2.38550615e+00 -8.49298286e+00
  -5.50478399e-01 -3.26957740e-02 -8.47804695e-02 -2.34212875e+00
   2.30615661e-02 -6.67158890e+00  5.68466425e-01 -8.27782750e-02
  -3.53616357e+00  3.40044528e-01  1.75237370e+00 -4.46481444e-02
  -9.70315993e-01 -2.54537947e-02  1.45484824e-02  2.89259721e-02
   1.14853692e+00  3.76891881e-01 -2.26868033e+00 -1.43353082e-02
  -2.65962076e+00 -3.00062057e-02  5.37912130e-01 -5.02801418e-01
  -8.94303441e-01 -1.58438250e-01  6.08941726e-02  2.36149773e-01
  -1.17158556e+00  6.09137118e-01  1.09226072e+00 -5.51072001e-01
  -5.52234590e-01  3.12935039e-02  5.74541152e-01 -3.54368329e-01
   4.97097403e-01  4.48138088e-01 -5.78098536e+00 -3.75846997e-02
   2.96223089e-02 -3.62769365e+00  8.93098116e-02 -2.23693755e-02
  -8.09867308e-02  1.23934960e+00  3.77494469e-02 -1.18335116e+00
  -8.20693314e-01  1.57989487e-02  8.01354274e-02  7.52308905e-01
   6.11970186e-01  3.07523012e-02 -2.35350858e-02 -9.83106256e-01
  -6.92393661e-01 -4.90711868e-01 -6.81845367e-01  4.75485064e-03
   1.14017844e+00 -9.50365245e-01  3.57627541e-01  2.94182599e-01
  -5.66132486e-01 -3.22185196e-02 -2.02178821e-01 -1.40169606e-01
   2.78698891e-01  4.90904450e-01 -1.49547172e+00  1.85017765e+00
  -2.57557362e-01 -1.19578528e+00 -9.13009644e-02 -8.49324048e-01
   7.60495484e-01  2.04770967e-01  1.63440537e-02  1.72499001e-01
   4.83209878e-01  1.31718194e+00  1.16453588e+00 -2.92442799e-01
  -1.33359417e-01  3.12538683e-01  2.22918391e-03  7.59678781e-01
  -3.97924811e-01 -1.92951206e-02  7.04326928e-02  3.48445284e-03
  -3.23525596e+00 -7.26454139e-01  1.71398127e+00  4.45452988e-01
  -8.38024765e-02  4.13866490e-01  3.36056769e-01 -6.93773365e+00
   4.41042721e-01  5.03655970e-01  5.46738096e-02 -1.54823124e+00
   1.16158175e+00  2.22280025e-02  8.60480130e-01 -1.37430310e-01]
 [ 1.08699441e+00 -1.61503863e+00  4.94114757e-01  2.82695174e-01
  -8.29560578e-01 -3.45677487e-03 -2.93427444e+00 -1.33867264e-01
   2.48905256e-01 -5.81556372e-02  7.90595233e-01  4.67056036e-01
  -1.99796903e+00 -1.72946304e-01 -1.21533282e-01 -3.46752572e+00
   5.75661436e-02 -8.77297211e+00 -4.45191717e+00 -8.59596539e+00
  -2.04533413e-01  5.23854256e-01 -5.08912951e-02 -1.02975750e+00
  -1.71494242e-02 -5.63050747e+00 -6.03268016e-03  9.00897831e-02
  -3.28125834e+00 -1.64041948e+00  7.16312945e-01 -4.34492603e-02
  -2.03988528e+00  7.16516823e-02 -5.05403340e-01  3.48938778e-02
   3.69580865e-01  6.48157120e-01 -1.32602167e+00 -9.63176414e-02
  -1.86538041e+00  3.01742051e-02  1.76456940e+00  4.02209342e-01
  -6.55516207e-01 -9.94732022e-01 -7.58876428e-02  5.66311359e-01
   1.06987822e+00 -1.66191781e+00 -4.20359313e-01 -8.13091457e-01
  -4.91467983e-01 -2.53524110e-02 -2.54087299e-01  4.74803373e-02
   7.85326719e-01 -2.44037247e+00 -5.45376205e+00  2.70577759e-01
   8.44989300e-01 -3.09336948e+00  5.96703410e-01  4.66103368e-02
  -1.68189835e-02  6.44349754e-01  8.16426873e-02  6.37849033e-01
  -1.31755662e+00 -3.02494973e-01  7.84033909e-02 -7.82380402e-01
   1.56945515e+00  1.61751604e-03  3.34447324e-02  4.41097140e-01
  -1.43701270e-01 -9.14981008e-01  1.50635755e+00 -2.58169658e-02
   9.72293615e-01 -7.21588492e-01 -7.82783628e-01  3.10365468e-01
   4.76770699e-01  8.16751942e-02  1.16933353e-01 -4.74361837e-01
  -6.41515374e-01  9.56289291e-01 -1.69915760e+00 -9.36847389e-01
  -5.08978844e-01  1.57582890e-02 -3.67422104e-02  4.82088357e-01
  -8.61098409e-01 -7.02719927e-01  4.32773605e-02  1.23471648e-01
  -1.50394827e-01  4.92595583e-01 -1.54422715e-01  1.87623024e-01
  -8.12701061e-02 -1.18179548e+00  1.06296766e+00 -2.53882438e-01
   2.35189930e-01  5.02334312e-02 -1.32511008e+00 -1.04538705e-02
  -1.84119618e+00  8.39191228e-02 -3.91995013e-01 -4.90016788e-01
   2.81133652e-01  3.87668699e-01 -1.45542991e+00 -7.17878532e+00
   1.71936303e-01 -4.91268814e-01 -5.98060042e-02 -1.81852257e+00
  -1.48162591e+00  3.56488377e-02  1.58510417e-01  9.88003761e-02]
 [ 1.49385023e+00 -1.88438213e+00  8.11594903e-01  6.37353361e-01
  -7.73394048e-01 -2.53733516e-01 -2.53624225e+00 -1.24413359e+00
   1.66096374e-01 -6.95961416e-02  9.43135679e-01 -1.09615815e+00
  -3.64053011e+00  1.20998383e+00  4.78050768e-01 -6.52956867e+00
   5.22882305e-02 -1.22675018e+01 -4.29783869e+00 -9.05514812e+00
  -3.27095129e-02 -2.97749549e-01 -3.72790396e-02 -1.92466414e+00
   4.81291078e-02 -6.90498066e+00  1.56903684e-01  2.30236098e-01
  -2.52555871e+00 -1.45396245e+00  1.08741395e-01  1.43597007e+00
  -6.24603891e+00  2.05668658e-02  1.43552154e-01  4.89546396e-02
   7.01959848e-01  1.53196168e+00 -9.22209799e-01  4.26912084e-02
  -1.32986093e+00 -7.88880214e-02  4.45431858e-01  2.03756392e-01
  -1.47517002e+00 -4.98495549e-01 -2.02246220e-03  1.05403829e+00
   2.12503076e-01 -1.03957069e+00 -3.21880460e-01  4.10547823e-01
  -1.48610103e+00  3.76803763e-02  2.68220425e-01 -1.08120465e+00
   2.41620764e-02 -2.57998610e+00 -4.99177980e+00  1.18020006e-01
  -9.73698974e-01 -2.26056337e+00  2.10171729e-01  3.03348787e-02
  -8.40731114e-02  6.53586984e-01 -2.14463413e-01 -7.81866193e-01
  -9.91616964e-01  5.83772101e-02  5.48596531e-02 -1.28468513e+00
   8.07822824e-01 -3.92425852e-03 -5.35705360e-03  7.78704584e-01
   8.95116031e-01 -6.61992908e-01  1.05525374e+00  8.53037927e-03
  -6.85778439e-01 -6.25430763e-01 -7.28145614e-02 -3.41165632e-01
   3.60155702e-02 -6.96542636e-02  2.04437211e-01 -2.42424861e-01
   6.03590190e-01  5.93515933e-01 -1.82883179e+00  9.09982622e-01
   4.67502296e-01  1.42592326e-01  2.18957735e-04 -1.98809549e-01
   1.82298794e-01 -1.41418529e+00  3.94310988e-02 -7.21209884e-01
   7.44232178e-01 -6.56742454e-02 -7.92041868e-02  7.22727656e-01
   8.08843002e-02 -2.25644541e+00  8.22197676e-01  3.88520718e-01
   2.22117528e-01  1.04632400e-01 -7.63528645e-02  6.79688156e-02
  -1.18901968e+00 -3.99188250e-01  1.52951574e+00 -8.57710481e-01
  -1.63655889e+00 -6.07486367e-01  1.01502262e-01 -4.21752357e+00
   2.93668687e-01 -3.67241412e-01  5.35926409e-02 -6.34385586e-01
   1.73290089e-01 -7.61852264e-02 -4.73584086e-01 -1.92409587e+00]
 [ 6.19793594e-01 -9.20099258e-01  3.41259211e-01 -1.97221730e-02
  -1.03733552e+00 -1.54565096e+00 -5.20933771e+00 -3.24301630e-01
  -7.80653000e-01  2.50254013e-02 -9.08515602e-02 -1.10826075e+00
  -2.52667427e-01 -7.49458075e-01  2.42478752e+00 -3.05560613e+00
  -7.75140077e-02  8.37024629e-01 -4.08602148e-01  1.57768860e-01
   2.08857909e-01 -7.51119405e-02 -1.21557787e-02  1.38377571e+00
   6.00152127e-02  1.15282714e+00 -5.19340992e-01  5.67169845e-01
   4.77897108e-01 -6.58938944e-01  1.57934129e+00  2.04285860e+00
  -1.39309251e+00 -4.18445244e-02 -1.21933472e+00 -3.85395139e-02
  -1.75356328e-01  1.63728166e+00 -1.40505433e-01  5.37993349e-02
   9.35980007e-02  3.90375033e-02 -1.32834234e+01  1.51905870e+00
  -3.12556446e-01 -3.00753545e-02 -2.29304750e-03 -5.88543177e-01
   1.71976641e-03 -1.10885605e-01 -1.53029159e-01  1.12603173e-01
   1.01186538e+00 -5.34769939e-03 -1.75583017e+00 -7.16298163e-01
  -6.17482841e-01 -7.20332980e-01 -1.82182133e+00  7.14390516e-01
   9.17222321e-01 -1.60644948e+00  1.62992880e-01  5.95044903e-02
   3.50461751e-02  1.35267913e-01 -3.77389729e-01 -1.52065349e+00
   8.50409091e-01 -3.07677597e-01 -6.33006096e-02 -1.95693052e+00
  -1.87985337e+00 -4.56124507e-02  2.13517826e-02 -9.24120843e-03
   5.57479978e-01 -1.05128205e+00  7.82475591e-01  1.83728524e-02
  -2.86426830e+00 -8.50059927e-01 -1.53330207e+00 -1.23792447e-01
  -1.53504694e+00  3.04382563e-01  2.90117502e-01 -1.66912675e+00
  -5.89025952e-02  1.08517772e-02 -5.91462672e-01 -5.09679675e-01
  -6.08460456e-02 -1.33905256e+00  4.20482047e-02  2.36862206e+00
   9.68376637e-01  3.11657071e-01  1.71193983e-02  1.20938647e+00
   8.69784355e-01 -1.81062430e-01  1.46262157e+00  5.71893096e-01
  -5.15333116e-02 -3.85219216e-01 -2.91757655e+00 -2.91175485e-01
  -2.15424702e-01  3.92741896e-02  7.82456338e-01 -8.74937475e-02
  -9.83127058e-01  1.04435539e+00  5.25916755e-01  5.24195910e-01
   1.96196407e-01  9.65628982e-01 -1.03930843e+00 -1.41534626e+00
  -9.53671932e+00  3.75099123e-01  9.02601518e-03  6.61991239e-01
   5.61076522e-01 -4.06791978e-02 -3.36760759e+00  6.13166034e-01]
 [ 1.23501718e-01  4.49704379e-01  2.92428374e-01 -1.16288757e+00
   1.25713944e+00 -5.81772804e-01 -3.65399957e+00 -2.20306349e+00
  -1.26540720e-01 -8.28860849e-02  4.77661401e-01 -3.82216424e-01
   3.52552921e-01 -9.11417305e-01 -3.98178399e-02 -8.93161178e-01
   9.15490091e-03  7.47617304e-01  6.15674734e-01  1.04972565e+00
  -3.56874347e-01  8.27670813e-01  3.05031519e-02 -6.91307783e-02
  -1.95661169e-02  1.15687752e+00 -5.61878920e-01 -1.16117179e-01
  -1.33485466e-01 -7.05299854e-01  3.77505600e-01 -3.77414495e-01
  -4.66251932e-02 -2.93989293e-03 -1.19646072e-01 -1.24208197e-01
   1.12335049e-01  1.01030564e+00  7.30783761e-01  7.29253218e-02
  -2.08584145e-01 -1.82520375e-02 -1.04624081e+01  4.70844597e-01
  -3.00143123e-01  1.99462265e-01 -9.24283918e-03  3.56323034e-01
  -1.40073979e+00  1.85188234e-01  1.77776814e-01  4.20815766e-01
   5.83254576e-01 -8.70649368e-02 -3.12327504e-01  1.22432178e-02
   1.78923741e-01 -4.14580286e-01 -7.81221032e-01  3.60674620e-01
  -3.71151626e-01 -1.79480469e+00 -5.55890277e-02  2.76485365e-03
   3.34640443e-02  8.41640055e-01  1.18399906e+00  7.50849783e-01
  -1.38442114e-01  9.81361806e-01 -6.72941357e-02 -3.75882196e+00
  -8.55210960e-01 -6.20917119e-02 -7.53916204e-02  1.93358913e-01
   1.44564426e+00  3.07769597e-01 -1.25761378e+00 -5.42300642e-02
  -2.05836964e+00  1.69591057e+00 -1.99601203e-02  7.19748810e-02
   1.36106014e+00  1.83220550e-01  1.45860195e-01 -1.59085464e+00
  -6.45955145e-01 -2.86728680e-01 -1.44505537e+00 -8.02339613e-01
  -6.42688572e-01 -5.77608049e-01  4.49836962e-02  1.05743498e-01
   2.24889424e-02 -7.82811224e-01 -8.87738094e-02 -2.44939663e-02
   1.13483191e+00  6.84586763e-01 -1.80560306e-01  2.05162311e+00
  -2.01631323e-01 -6.42821342e-02 -1.40288115e+00 -2.80453891e-01
  -2.17251971e-01  1.36385513e-02 -4.06191528e-01 -5.92864938e-02
  -1.77710366e+00  1.06015909e+00 -4.07600820e-01  1.28534520e+00
   4.81747359e-01 -1.22688746e+00  9.38452363e-01  4.92009401e-01
  -7.50821590e+00 -1.54696964e-02  3.62386480e-02  6.89279795e-01
   2.14403644e-01  5.67586944e-02 -3.91544771e+00 -1.39586195e-01]
 [ 4.25474048e-01  6.87174320e-01  1.02083221e-01 -9.68754351e-01
  -6.72503352e-01 -1.94426015e-01 -3.79557282e-01 -8.18166435e-01
   1.68680203e+00 -3.66767533e-02  1.99492961e-01  6.35276198e-01
   1.09854355e-01 -1.75206208e+00  7.14438498e-01 -2.09497973e-01
   3.45169604e-02  4.64859158e-01  9.22632158e-01  1.01942778e+00
   6.90776706e-02  5.09302557e-01 -5.71948923e-02 -6.45849481e-02
  -3.05068353e-03  5.08743823e-01 -1.25164223e+00 -2.60664914e-02
  -1.39741212e-01  4.29169387e-01 -4.94600832e-01  9.68198657e-01
  -3.82994026e-01 -2.65559107e-02  1.43279865e-01 -1.29199699e-01
  -3.66958290e-01  1.36171713e-01 -1.60989851e-01  6.93913475e-02
  -8.46570507e-02 -4.17765491e-02 -9.90578365e+00 -3.83097500e-01
  -5.09315841e-02  3.29797685e-01  4.82776351e-02  1.94802892e+00
  -2.84861970e+00 -2.82844812e-01 -5.93403652e-02  5.15354693e-01
  -1.00161171e+00 -7.38915950e-02 -1.87250793e+00 -8.92689943e-01
  -7.74714936e-05 -8.94914210e-01 -7.13164151e-01  5.15144706e-01
   1.77309439e-01 -1.46428883e+00  3.98776114e-01 -6.31075427e-02
   7.47775510e-02  6.12419367e-01  3.18673730e-01  1.32233524e+00
   2.38730103e-01  2.43643716e-01 -7.78168291e-02 -4.09611988e+00
  -2.56272048e-01 -7.65724555e-02 -2.09743381e-02  5.49118698e-01
  -2.96943635e-01 -5.54520965e-01 -2.41825247e+00  2.02834513e-02
  -1.48198462e+00  1.05667520e+00 -2.81211913e-01  3.04023296e-01
   1.08505201e+00  3.38742137e-01  3.43159661e-02  7.14231133e-01
   7.42602408e-01 -5.91292083e-01 -9.05547202e-01 -8.41351509e-01
   6.31250292e-02  6.52316332e-01 -8.60927105e-02  9.40485895e-01
  -9.49877262e-01 -3.68932545e-01 -7.08672742e-04  6.36281729e-01
   9.06996965e-01  1.41318345e+00  1.05801523e+00  4.06378359e-01
  -4.86598015e-02 -3.06976914e-01 -1.12934545e-01  2.13657901e-01
   6.43695831e-01 -6.66602254e-02  3.76038253e-01  4.40139063e-02
  -2.53349495e+00 -6.83670759e-01 -5.99300899e-02  8.35154474e-01
  -8.93316448e-01 -7.38099754e-01 -2.12873411e+00  8.95154700e-02
  -6.34783888e+00  1.27531677e-01  2.71224212e-02 -1.10014307e+00
   1.08640127e-01 -3.77877168e-02 -3.38317132e+00 -1.06497669e+00]
 [ 7.97571987e-02  3.68709415e-01  4.28669490e-02  3.21470648e-02
  -3.98056069e-03 -8.03653061e-01 -5.17568767e-01  7.30944276e-01
   1.15499064e-01 -3.53178829e-02 -1.25908196e-01  1.06120634e+00
   3.34501952e-01 -2.26226997e+00  7.83606172e-01 -9.89724874e-01
   3.82990837e-02 -5.00218332e-01  1.27640605e+00 -5.79100251e-01
   4.10618782e-01  4.44774330e-01  6.24807142e-02 -6.58644689e-03
  -6.94918707e-02 -1.76855370e-01 -8.37843895e-01 -6.41056478e-01
  -3.79152775e-01  3.57482195e-01  3.64279568e-01  4.65537310e-01
  -3.06229800e-01  2.03836411e-02 -2.15764299e-01  1.68768540e-02
  -7.95444921e-02  2.13128269e-01 -2.00965971e-01 -3.30318213e-02
   7.48522638e-04 -1.75643582e-02 -9.55564022e+00  4.52287674e-01
  -1.07462180e+00 -1.49567679e-01 -3.05789467e-02 -4.87051934e-01
   1.24311900e+00  5.86106479e-01  3.92411232e-01 -7.53768027e-01
   5.92797473e-02 -5.98817058e-02 -1.05891311e+00 -3.12258583e-02
  -2.50630289e-01 -2.50554860e-01 -8.54573607e-01  4.27005500e-01
  -4.13964659e-01 -2.18052238e-01 -3.69406104e-01 -3.94973680e-02
  -5.48369586e-02  1.16433077e-01  4.36373711e-01 -1.05352670e-01
   9.11604702e-01  8.07986706e-02  2.13170368e-02 -3.34237885e+00
   2.06304237e-01 -5.16186282e-03 -4.58461195e-02 -1.09192200e-01
   2.13286906e-01 -3.34545448e-02  3.64933103e-01 -9.06464607e-02
  -1.33419132e+00  1.22295516e-02 -1.57649517e-01  3.13810080e-01
   9.13394690e-01  3.72781157e-02 -3.62625837e-01  5.04397750e-01
  -7.54702911e-02 -1.64692685e-01 -4.73622948e-01 -3.47021341e-01
  -1.01930760e-01  5.17868996e-01 -3.78279164e-02 -4.77624595e-01
   6.40471756e-01 -1.29402235e-01  3.99321727e-02 -4.50888574e-01
   3.05151999e-01 -9.17503312e-02 -5.42664155e-02  2.09026188e-01
  -8.74122307e-02 -1.94043219e-02 -5.73686898e-01  5.03469221e-02
  -3.32395881e-02  7.33673275e-02  2.31180966e-01  7.27483034e-02
  -3.29580665e+00  2.37128824e-01 -3.28720689e-01  1.66694367e+00
  -1.04882491e+00 -5.61563551e-01 -3.51513296e-01 -1.10439897e-01
  -3.86982131e+00 -1.21229194e-01 -6.49015233e-02 -1.45053613e+00
  -8.13073397e-01 -5.06089367e-02 -1.84410048e+00  2.46884912e-01]
 [-6.02073073e-02  9.60425317e-01 -3.76235396e-01 -3.55411738e-01
   3.32995683e-01 -1.01117231e-01 -3.26596648e-01 -3.36386412e-01
  -3.33667129e-01 -7.23667145e-02  5.17153561e-01  6.07631385e-01
   2.47216955e-01 -2.91417933e+00  7.86075234e-01  7.70127416e-01
  -4.55549695e-02  5.18426776e-01  2.08888516e-01 -5.95010491e-03
   8.22356164e-01 -1.05529092e-01 -8.19713101e-02 -1.55113131e-01
   8.57746322e-03  7.12938786e-01 -1.37737620e+00  3.49243760e-01
   8.16465449e-03  2.68806756e-01 -1.28130868e-01 -7.36413896e-01
  -1.14337981e-01 -6.01799078e-02  1.88225672e-01 -2.38075573e-02
  -6.87924325e-01 -5.09735346e-01  1.23072617e-01 -3.18951681e-02
  -1.27010882e-01 -9.11000520e-02 -9.04436493e+00  2.34886222e-02
   4.61359024e-02  3.24739754e-01  5.90716675e-02 -1.13742852e+00
  -6.22639418e-01 -4.92852360e-01  7.76065737e-02 -8.10637116e-01
  -7.11763144e-01  7.09764436e-02 -1.70831549e+00 -1.41129076e+00
  -2.27834638e-02 -9.61337149e-01  7.90130720e-02  2.86605895e-01
   9.35867250e-01  9.39250171e-01 -5.48042476e-01  7.17409700e-03
  -3.86976078e-02  1.42570600e-01  1.94508195e-01  3.78235608e-01
   2.97714025e-01 -1.95097655e-01 -1.22512117e-01 -2.36551356e+00
   2.73971766e-01 -2.04235930e-02  1.09977499e-02  4.42387253e-01
   3.93599570e-01 -2.09347010e-01  1.40536368e+00  4.40692948e-03
   4.99480486e-01  4.91050690e-01 -3.59374106e-01  2.43117318e-01
   1.06709063e+00  9.71830189e-02 -3.16620916e-01 -5.75870037e-01
  -8.26040685e-01 -6.41810775e-01  4.36413139e-01 -2.22987786e-01
   1.98693961e-01 -9.86869261e-02  4.94008325e-02 -7.38116682e-01
  -3.84079635e-01 -8.21250379e-01  3.44261415e-02  5.05127907e-01
   3.02527249e-01  2.48912528e-01 -8.22756767e-01 -7.82052353e-02
   1.93592623e-01  3.83786887e-01 -1.10608518e+00  6.97885156e-02
  -2.58915156e-01 -5.68986312e-02  8.74553919e-02 -2.61876676e-02
  -3.77361083e+00  7.22495735e-01  1.95223108e-01  1.78161108e+00
   1.06339365e-01  2.34475862e-02 -1.31879568e+00  1.12556624e+00
   1.61338007e+00 -5.40886402e-01  4.83224578e-02 -1.27745539e-01
  -2.07844162e+00 -5.61845228e-02 -1.54196131e+00  7.66116560e-01]
 [ 2.29274720e-01 -6.57833099e-01 -1.50996894e-01 -6.32454097e-01
   1.36101508e+00  2.84250289e-01 -1.16679549e+00 -5.40447198e-02
  -4.68535006e-01 -8.64434764e-02  1.93949848e-01  3.15165728e-01
   1.35065317e-01 -2.57582140e+00  5.18256009e-01 -8.12585652e-01
  -7.34596178e-02 -8.08525160e-02  4.08178866e-01 -3.88955384e-01
   1.36223838e-01  1.21631436e-01 -9.05940309e-04 -2.07789168e-01
  -3.25602330e-02 -1.08582056e+00 -2.09911406e-01  3.42063606e-01
  -7.93093815e-02  9.64726090e-01 -2.22769451e+00 -7.03894794e-01
  -2.91930705e-01 -2.17356104e-02  3.36349517e-01  1.37219382e-02
   4.37331408e-01 -4.32863504e-01 -2.71797538e+00  4.50316221e-02
  -1.20666057e-01 -7.30132610e-02 -5.09276772e+00  2.26430893e-01
   1.55520421e-02  2.80502159e-02  4.94442172e-02  3.19126546e-01
  -4.57179129e-01 -2.64479220e-01 -6.42054439e-01  5.87321997e-01
  -1.97269797e-01 -9.80843455e-02 -7.88629800e-03 -9.75834846e-01
  -2.41778895e-01  2.12783575e-01 -5.19212782e-01 -9.10144508e-01
  -1.56956658e-01  1.03292763e-01  4.91682887e-01  3.13806608e-02
   3.94254886e-02  9.19541642e-02  6.61214709e-01  7.21480772e-02
  -2.10396513e-01  5.22653878e-01 -1.23025879e-01 -2.60075259e+00
   2.26319015e-01 -2.20979080e-02 -7.26110861e-02  5.97625673e-01
   1.84290335e-01  7.97188640e-01  3.31766397e-01  5.91308065e-03
  -3.08771491e-01  3.77638608e-01 -1.87509030e-01  2.80023187e-01
   3.78054351e-01  9.68628824e-02 -4.63052064e-01  6.14063926e-02
   4.56283569e-01 -3.12337220e-01  4.89643812e-01 -1.37161195e-01
  -1.25804484e-01 -1.44661188e-01 -5.83977364e-02 -1.43224883e+00
  -6.25566691e-02 -6.57507002e-01  1.20663410e-02  4.13487315e-01
  -9.88673344e-02 -4.87935767e-02 -1.53940809e+00 -8.55971053e-02
   4.66419347e-02  5.88627875e-01 -7.59528875e-02 -6.38700426e-02
   9.89222080e-02 -4.03573662e-02  1.42584622e-01 -3.05819884e-02
  -3.98298836e+00 -2.52527386e-01  1.68634701e+00  4.95341659e-01
  -1.21103853e-01  7.36577436e-02 -9.47535157e-01 -5.20574868e-01
  -1.54698625e-01 -2.66460121e-01 -7.91087300e-02  3.36793453e-01
   5.07466197e-01 -1.95169877e-02 -2.19882011e+00  1.96633503e-01]
 [ 1.76569417e-01 -6.31810308e-01 -2.18318224e-01 -9.38638210e-01
  -2.07724914e-01 -2.18445256e-01 -5.97673059e-01  1.47114605e-01
   1.99196059e-02  4.83255759e-02  5.40695190e-01  9.95794535e-02
   3.35315466e-01 -3.02253842e+00  2.31840019e-03 -2.55660623e-01
  -7.54591227e-02 -1.84943348e-01 -1.14896625e-01 -4.14059371e-01
  -9.39389840e-02  2.06711054e-01  7.11261015e-03  7.44439289e-02
   6.49772808e-02 -7.17271686e-01  1.04216576e-01 -5.63626830e-03
  -3.04159820e-01 -4.40496951e-01 -2.15916529e-01 -5.64913750e-01
  -6.39239669e-01  3.42584401e-02  1.26123548e-01 -9.23734084e-02
   3.85220557e-01 -1.19526672e+00 -1.69388556e+00  5.87970112e-03
   1.17300097e-02 -8.33189413e-02 -8.69556487e-01  1.19460434e-01
  -5.42140961e-01 -4.56870109e-01 -2.26256736e-02  8.63007829e-03
  -8.15994322e-01 -1.19902655e-01 -6.22406602e-01  7.32969820e-01
   7.80913055e-01  1.79509297e-02  4.47499231e-02 -6.04384840e-01
  -4.43367630e-01 -1.32416451e+00 -4.13224965e-01 -7.61003137e-01
   4.52452362e-01  5.94155848e-01  2.94974118e-01  2.01721732e-02
   6.89855719e-04  5.79265296e-01  1.29943538e+00  3.79578352e-01
  -6.53814733e-01  5.51492214e-01 -3.84402499e-02 -2.11085153e+00
  -4.65676874e-01 -1.11453254e-02  1.81947909e-02  4.59321767e-01
   6.32921278e-01  6.42770231e-01 -2.53234297e-01 -4.50303033e-03
  -3.12572926e-01  2.07096443e-01 -6.24492824e-01  3.26737553e-01
  -1.02148391e-01  1.65779233e-01 -3.74522001e-01  1.64673671e-01
  -4.87164319e-01 -5.03989220e-01 -1.06128171e-01  3.31336200e-01
  -6.13033891e-01  3.51870686e-01 -8.70779529e-02  4.14967686e-01
  -7.89154246e-02 -4.91725773e-01 -3.88392881e-02  1.62796780e-01
  -1.01142716e+00 -9.74605903e-02 -1.31644320e+00  1.86232731e-01
  -1.17645383e-01  6.44177079e-01 -1.36649179e+00  4.44097340e-01
  -3.62052888e-01 -8.70083496e-02  2.87890255e-01  6.62495196e-02
  -4.64721394e+00  1.51400149e+00  8.81227314e-01  3.68583679e-01
   6.34285882e-02 -6.11055732e-01 -6.41828775e-01  3.85163277e-01
   5.37705362e-01 -1.87769547e-01 -3.14010791e-02  5.72053604e-02
   2.03350186e-01 -2.64861286e-02  7.68362761e-01  1.88062295e-01]
 [ 3.14011544e-01  3.83672684e-01 -3.52272093e-01 -1.26481727e-02
  -4.42233145e-01 -3.94316852e-01 -2.40728825e-01  2.88354427e-01
  -7.31923282e-01  1.24717895e-02  3.01635653e-01  2.66723186e-01
   2.83378929e-01 -3.61795950e+00 -1.10103540e-01 -6.17643714e-01
  -4.94496301e-02  2.21542805e-01  5.00968039e-01 -7.60754824e-01
  -2.28879392e-01  2.45116055e-02  5.67750772e-03  7.74323702e-01
  -1.60037261e-02 -5.69194853e-02 -3.09992358e-02 -1.66984985e-03
  -4.01846349e-01 -4.48466480e-01 -1.23603630e+00 -4.23339546e-01
   1.71129748e-01 -8.29203352e-02 -5.78103662e-02 -9.48441103e-02
  -1.03981666e-01 -1.86110783e+00 -3.16437769e+00 -3.91625352e-02
  -7.30080158e-02 -5.68068996e-02  5.31353712e-01  3.17851901e-01
  -9.91153896e-01 -3.66116539e-02 -1.40907208e-03 -3.41315836e-01
  -7.09038556e-01 -5.24127245e-01 -1.31860900e+00 -9.70001966e-02
   9.47490096e-01 -2.21862588e-02  1.02757536e-01  2.27981329e-01
  -6.72580957e-01 -1.31051290e+00 -2.22160503e-01 -5.64117670e-01
  -1.32214487e-01  6.10343039e-01  5.12006469e-02 -3.89382690e-02
   5.86503046e-03  4.80608881e-01  7.24168777e-01 -1.17490388e-01
  -4.35930043e-01  4.05194648e-02 -9.01633650e-02 -2.38496351e+00
  -2.87864804e-01  3.51852253e-02  3.56249921e-02 -2.69363493e-01
   5.41531026e-01  4.79970455e-01 -2.33201638e-01 -5.71278706e-02
   1.63959816e-01 -6.10118210e-02 -1.06306064e+00  4.06043053e-01
  -9.13315490e-02  1.05827026e-01 -3.62507820e-01 -1.34872541e-01
   9.47215557e-01 -5.99737287e-01  9.17513192e-01 -2.75080711e-01
  -4.59324658e-01 -4.90605801e-01 -2.16989499e-02  4.57692236e-01
  -6.97652102e-01 -4.51244235e-01  2.13646870e-02 -1.32601961e-01
  -1.79230225e+00  4.89780933e-01 -1.78385353e+00 -3.27214226e-02
  -2.11681709e-01  2.94868469e-01 -9.54531670e-01  6.22540042e-02
  -4.30407405e-01  3.45562287e-02 -1.37881979e-01 -2.40774453e-02
  -4.85778236e+00  8.63145113e-01  6.48527086e-01  9.22523499e-01
  -9.47638452e-01  1.03300586e-01 -4.96767253e-01  2.21573878e-02
  -3.47612128e-02 -1.40135854e-01 -7.02531040e-02  3.57845455e-01
   4.53152895e-01 -2.22102320e-03  2.06610546e-01  2.00294420e-01]
 [-5.29739745e-02 -9.72117409e-02 -8.80848646e-01  9.47011635e-02
  -6.19328260e-01  5.12774736e-02 -3.46474797e-02  8.10235202e-01
  -7.04828978e-01 -1.03496164e-02  1.37725309e-01 -2.83797562e-01
  -2.50209272e-01 -4.19126701e+00 -3.99566405e-02 -5.76579347e-02
  -2.92579792e-02 -4.24340963e-02  7.07803011e-01 -1.10227130e-01
  -1.00285065e+00  1.81087911e-01  6.17855713e-02  3.57873738e-01
   3.87921482e-02  2.80482527e-02 -5.43713152e-01 -7.52472699e-01
   5.24032533e-01 -3.78598012e-02 -9.66240883e-01  3.88646215e-01
  -4.89548743e-01 -8.26078728e-02 -8.15180987e-02 -8.38995054e-02
   2.14304477e-01 -9.51751292e-01 -3.39290333e+00 -7.40182102e-02
   1.86796635e-01 -4.50360477e-02 -3.57476264e-01 -1.28970399e-01
   6.06726147e-02 -5.05905375e-02  6.82584792e-02  4.75750357e-01
  -7.75140762e-01 -6.89128816e-01 -2.40819049e+00 -2.51752257e-01
   2.97665894e-01 -4.55628661e-03  1.06786799e+00  3.20391297e-01
  -2.78972358e-01 -4.22937989e-01 -1.19869339e+00 -1.23857701e+00
   7.86612332e-01 -2.25250617e-01  3.88412267e-01 -5.09574860e-02
   6.49855956e-02  3.77986617e-02  8.33779499e-02 -7.72180781e-02
  -4.43565100e-01 -3.53604048e-01  7.48855015e-03 -4.74838465e-01
   8.26414675e-02 -3.14251408e-02  4.21883129e-02  2.19823033e-01
   6.25618100e-02  2.91013241e-01 -3.59812886e-01 -1.56028969e-02
  -7.15833962e-01 -9.46546718e-02 -4.87853318e-01  4.50100809e-01
   2.61506718e-02  1.75264612e-01 -4.56693739e-01 -4.47604284e-02
   8.64895046e-01  2.19755858e-01  1.09953880e+00  9.06557322e-01
  -3.70671302e-02 -8.97291675e-03 -5.90999424e-02  5.38662113e-02
  -5.55499434e-01  6.86019659e-02 -3.79999094e-02  8.11779201e-02
  -2.33172727e+00 -2.45823726e-01 -2.59987545e+00  2.16690637e-02
  -2.92371571e-01 -4.48246626e-03  1.29745066e-01  3.54216576e-01
  -7.11772144e-02  3.83392051e-02  8.56752992e-02  2.65921783e-02
  -4.27505875e+00 -2.50306755e-01  6.72871232e-01  4.01157141e-01
  -4.95711833e-01  4.93757397e-01  3.71845037e-01  5.39915562e-01
   1.10135816e-01 -6.94634497e-01 -2.93563083e-02  7.41752446e-01
   2.57494271e-01 -7.57162943e-02  2.66174912e-01  2.11207509e-01]
 [-5.03521383e-01  1.21986769e-01  1.71441114e+00  6.22556806e-01
  -7.92048395e-01  1.12530977e-01 -6.25285447e-01  1.28113627e-01
  -6.04547560e-01 -2.44616047e-02 -3.49586874e-01  4.02848840e-01
  -4.80248451e-01 -3.99740434e+00 -7.39760399e-01  7.34491646e-01
   4.80824187e-02 -1.15437537e-01  1.15223564e-01  9.56469953e-01
  -4.63525534e-01  3.92425239e-01 -1.22465575e-02  6.39028475e-03
  -9.73115638e-02  9.13127959e-01  9.87586856e-01 -6.04891121e-01
   1.23424172e-01  6.51581824e-01 -7.67863274e-01 -3.24465692e-01
  -1.54287994e-01  2.13859696e-02 -1.18909740e+00 -6.14049807e-02
  -1.72778100e-01 -2.06593561e+00 -2.00262356e+00 -5.91219142e-02
   1.74036115e-01  2.52953246e-02  2.26700883e-02 -3.88583899e-01
  -5.46465635e-01 -2.67508760e-04 -4.16928791e-02 -1.13915794e-01
  -6.66224658e-01 -2.35619664e-01 -1.47910655e-01 -8.88619781e-01
   2.86310136e-01  1.77951548e-02  3.33332002e-01  3.13945591e-01
  -1.22244945e-02  6.01493299e-01 -5.03311872e-01 -8.10642123e-01
  -2.75788724e-01 -1.61174715e+00 -4.04076278e-01 -1.13267200e-02
  -2.11541802e-02  3.79588641e-02  5.07839143e-01 -6.38099313e-02
  -4.81007755e-01 -2.55521871e-02 -5.05251475e-02 -4.38034177e-01
  -4.10770364e-02  4.65543568e-02 -2.55294871e-02  1.35146111e-01
   2.42754817e-01  3.75747085e-01 -2.00822845e-01 -2.47956626e-02
  -2.51483113e-01  5.80671251e-01  2.51138099e-02  1.31475225e-01
  -4.21919376e-01  1.96850121e-01 -5.76162159e-01  8.86807814e-02
   7.99980462e-01 -4.85582083e-01  1.17314422e+00  3.92155349e-01
  -2.10862700e-03  6.07360341e-02  1.48400078e-02 -1.75508842e-01
   2.20521470e-03 -1.40588313e-01  1.06588658e-02  3.14811051e-01
  -3.01223326e+00 -1.99970245e-01 -4.30879211e+00  8.03941786e-01
  -9.76434767e-01 -1.06162632e+00  1.20456360e-01  3.50849181e-01
   3.93414125e-02  3.85127626e-02 -2.42623553e-01 -1.67595502e-02
  -5.33759975e+00  1.04785955e+00 -5.46498239e-01  5.60700357e-01
  -1.67826042e-01 -3.62248309e-02  1.20653622e-01  6.00943744e-01
  -6.91278458e-01  1.82986576e-02  4.47445996e-02  2.04768524e-01
   1.29080877e-01  2.14538872e-02  2.65570611e-01 -1.63125977e-01]
 [-2.11485648e+00 -1.07060753e-01 -8.95759165e-02 -1.33939251e-01
  -2.22067803e-01 -1.81887224e-01 -7.16516554e-01  3.00051779e-01
   1.21518917e-01 -5.89114241e-02  6.41014352e-02  3.57365608e-01
  -3.03367376e-01 -2.29932904e+00 -2.97670305e-01  2.24900618e-01
   6.47745952e-02  1.61911875e-01 -4.26739961e-01  9.23577368e-01
  -5.90395927e-01 -1.09952264e-01 -5.78389596e-03  1.19471222e-01
   3.74111794e-02  7.15945899e-01  7.60121942e-01 -8.68807137e-01
   9.58514691e-04  6.43922210e-01 -1.07282352e+00  7.67759025e-01
   3.20030153e-01 -5.81665561e-02 -3.96631688e-01  6.84408918e-02
  -2.34308839e-01 -1.11311519e+00  4.28670675e-01 -3.70420166e-03
   1.85127020e-01 -1.02541797e-01  1.03766046e-01  4.91633296e-01
  -4.30988938e-01  6.98356628e-01 -4.64507826e-02 -1.11690387e-01
  -8.12685847e-01  1.53751150e-01 -9.90594625e-01 -9.57205892e-02
  -6.28304947e-03  2.25356556e-02  3.50492299e-01  2.63266534e-01
  -8.84035528e-02  9.16953504e-01 -1.08459055e+00 -5.02022505e-01
  -1.49087742e-01 -2.22200799e+00 -9.38649923e-02  9.31900693e-04
  -7.81149268e-02  2.79185951e-01 -4.94444221e-02 -2.11411446e-01
  -7.49666333e-01 -1.87083900e-01  1.31945079e-02 -1.49042892e+00
  -5.75520806e-02  2.75309347e-02 -9.84992981e-02  3.31100821e-01
   3.31823468e-01  2.42823288e-01 -1.34905070e-01 -1.46951806e-02
  -1.22089358e-02  1.95156671e-02  4.83640254e-01 -7.57854581e-02
   6.29664660e-02  2.45865554e-01 -3.49797994e-01 -2.09448695e-01
   6.14186883e-01 -9.14243877e-01  1.17016423e+00 -3.18947077e-01
   2.57380847e-02  1.64732352e-01 -4.59731966e-02 -9.53416407e-01
   3.10298055e-01 -4.29858983e-01  3.34236696e-02  3.89949739e-01
  -3.20197153e+00  3.64017636e-01 -4.71352530e+00 -2.79556692e-01
  -1.05812418e+00 -1.11731283e-01 -7.37969354e-02  2.78237537e-02
   2.02766135e-01 -1.12001337e-01 -3.25630844e-01  5.12804538e-02
  -3.76906943e+00  5.46910405e-01  3.85604322e-01  2.50712365e-01
  -1.23018749e-01  3.01839173e-01  3.01311284e-01  7.75369182e-02
  -5.75696468e-01 -1.62052214e-01 -1.34467063e-02  2.62679309e-01
   2.08722487e-01 -1.67751852e-02  7.18170047e-01 -9.23985615e-02]
 [-1.56659138e+00  3.35090190e-01 -8.48484397e-01 -1.28595501e-01
  -1.30533606e-01  2.22082838e-01  1.14869758e-01 -1.53829932e-01
   9.53205228e-01 -1.92709232e-03  2.88824081e-01  4.05507684e-01
  -7.01170504e-01 -5.67289352e-01  4.62021619e-01 -8.41293857e-02
  -8.37942660e-02  5.18735468e-01 -2.01248646e-01  6.08306885e-01
  -1.28370691e-02  1.46745831e-01 -4.87767197e-02 -1.20457903e-01
   2.33367446e-05  5.77838719e-01  3.09515893e-01 -2.65117735e-01
   5.30664980e-01  1.28627211e-01 -9.00264144e-01  5.52866518e-01
   4.37951833e-01 -3.74411757e-04 -2.81723402e-03 -2.78516114e-02
  -4.77572083e-01 -9.47960317e-01  6.72004044e-01  4.99096215e-02
  -1.78547233e-01 -5.01276813e-02 -1.03783280e-01  2.54554749e-01
  -1.12701260e-01  4.93405223e-01 -4.89500985e-02 -2.01883718e-01
  -5.80466688e-01  2.21420541e-01 -1.33662248e+00  7.97302425e-01
   2.00763773e-02  3.72616984e-02  6.68026447e-01 -3.32667232e-01
   6.36758059e-02  3.52638006e-01 -2.15441251e+00 -1.81693840e+00
   1.12059250e-01 -6.48081660e-01  2.81570941e-01 -8.24798942e-02
  -5.72880656e-02  3.37396681e-01  1.23764604e-01 -1.93257734e-01
   3.94369453e-01 -1.99504897e-01 -1.81412958e-02 -1.49482751e+00
  -4.33206111e-01 -4.40666229e-02 -7.49212280e-02  5.40828526e-01
  -9.32283849e-02  1.25859037e-01 -6.20023131e-01 -1.93690415e-04
  -4.49771523e-01 -2.95610785e-01  3.34903806e-01 -4.58875656e-01
   3.40204060e-01  5.21592140e-01 -9.56885099e-01  1.68434069e-01
  -1.73703693e-02 -6.08839929e-01  8.48112404e-01  2.25917697e-01
  -4.49913815e-02  2.13226095e-01  1.19421948e-02 -1.47437394e-01
  -1.97008401e-01 -4.97783154e-01 -3.75884362e-02  3.88096012e-02
  -2.50944042e+00 -2.30329484e-01 -3.92208385e+00 -5.34140229e-01
  -3.79646003e-01  3.06564122e-01  3.57880592e-01 -2.18613923e-01
   2.01608643e-01  8.11664201e-03 -1.20074201e+00  2.20467057e-03
  -4.94599152e+00  8.00699592e-02 -2.65012950e-01  2.69896328e-01
   3.11786890e-01  3.65338117e-01  8.25253963e-01  4.98041123e-01
  -1.11819515e-02 -3.99025440e-01  5.58404699e-02  1.60172343e-01
  -1.35249095e-02 -8.18762407e-02  1.03273678e+00 -7.69611835e-01]
 [-2.60150015e-01  1.40985891e-01 -1.36694884e+00 -1.82088390e-01
   2.13735715e-01 -5.50879955e-01  1.33705527e-01 -3.37575495e-01
   2.26916641e-01 -7.55446181e-02  4.68001246e-01  4.43341509e-02
  -1.89679727e-01  1.32208630e-01  1.03294063e+00  6.47616237e-02
   4.58036177e-02  4.17521298e-01  4.03849781e-01  1.48600757e-01
   3.29416454e-01  2.76248693e-01  7.84893557e-02  3.35381567e-01
   2.48940047e-02  1.18606798e-01 -3.66766006e-01 -2.29271472e-01
  -3.03696126e-01 -6.98641837e-02  5.78514218e-01  2.75387943e-01
  -4.37229633e-01  4.89187799e-02 -4.53208834e-02 -3.91477048e-02
   2.28528932e-01 -6.54929101e-01 -4.27688181e-01 -3.03828809e-02
  -5.99150836e-01 -1.93815643e-03 -1.65238068e-01 -2.02878471e-03
   4.99318808e-01  3.59366089e-01  2.03630943e-02  6.04150474e-01
   1.30223393e-01 -1.50773656e-02 -1.84138751e+00  7.03351945e-02
  -2.60360271e-01  7.48779476e-02  4.80648279e-01 -3.49769831e-01
  -5.18904150e-01 -8.17520097e-02 -4.42086756e-01 -2.76388884e+00
   4.84451950e-01  9.32053506e-01  4.04619157e-01 -4.65487316e-02
   3.08396015e-03  2.39726365e-01 -6.43396005e-02  8.40579644e-02
   7.19498336e-01 -2.98893303e-01  9.55504831e-03 -9.19264257e-01
   1.53069004e-01 -4.66069914e-02 -1.81310903e-02  2.95697838e-01
  -5.04015274e-02 -2.22257763e-01  1.30050182e-01 -2.57755332e-02
  -1.68826014e-01  1.02659144e-01  3.49731952e-01 -3.02584201e-01
  -4.89829108e-02  2.81727284e-01 -1.55997264e+00  2.05293655e-01
   3.70996624e-01  9.09406021e-02 -3.19565505e-01  5.36040030e-02
  -4.03540522e-01  3.15021127e-01  1.31054595e-02  5.84307909e-01
  -2.74470568e-01 -3.77809465e-01 -4.91980761e-02  4.65155840e-01
  -1.12430751e+00 -4.18066055e-01 -3.25149560e+00 -5.38952798e-02
  -2.52980411e-01 -4.00507152e-02  1.38594374e-01 -2.24765316e-01
   2.60629267e-01  4.90389392e-02 -1.65567005e+00  3.55276302e-03
  -6.39834213e+00  7.64070973e-02 -4.66669112e-01  1.97429568e-01
  -5.39323129e-02  5.44788957e-01 -1.54384956e-01  2.61364251e-01
  -1.48126796e-01  2.65468447e-03 -7.26341009e-02 -2.56734908e-01
   5.49241193e-02 -5.09969331e-03  6.16869509e-01  1.08639628e-01]
 [-1.37914479e+00  1.26952007e-01 -2.00966215e+00  5.57324402e-02
   1.03798196e-01 -2.13872969e-01 -8.25586244e-02 -6.85314015e-02
   3.32977504e-01 -2.26489920e-02 -3.22344042e-02 -1.28324609e-02
   6.06976710e-02  6.60373047e-02  1.45242050e-01  2.44685099e-01
   3.89893018e-02 -3.93621564e-01  3.38597625e-01  8.10359493e-02
   7.08289504e-01  2.41405100e-01 -4.32058312e-02  1.53831735e-01
  -9.59793404e-02  4.58963364e-01  4.87925336e-02 -2.30041593e-02
  -1.26583385e+00 -2.64502000e-02  6.73265040e-01  6.56535506e-01
   1.17167741e-01 -6.59538880e-02 -3.86728257e-01  2.59873066e-02
   3.28692824e-01 -9.76631105e-01 -4.26090777e-01 -1.37546360e-02
  -5.73231220e-01 -1.32166296e-02  1.36625737e-01 -3.69359136e-01
  -1.19596228e-01 -1.41207710e-01 -2.25278921e-02  1.04915000e-01
   2.92000920e-01  4.94163930e-01 -1.64318144e+00  5.01796663e-01
   2.44763289e-02 -5.34251593e-02  9.62012470e-01 -5.25102437e-01
  -7.10042059e-01  4.91694540e-01 -8.81469429e-01 -3.17392921e+00
  -7.03499734e-01  4.50608760e-01 -1.72512025e-01 -5.04403235e-03
  -6.06358014e-02  2.38754198e-01  1.83569938e-01  3.73360068e-02
   1.67601153e-01 -2.09184095e-01 -7.93247148e-02 -4.75496978e-01
  -2.26376235e-01 -9.63304490e-02 -6.32685572e-02  8.83458480e-02
  -1.04363769e-01  2.17845663e-01 -1.39780000e-01 -5.65571636e-02
  -2.55757987e-01  5.64030297e-02 -1.85669318e-01  3.75383832e-02
   1.63369894e-01  2.65260428e-01 -1.46969700e+00 -5.91872409e-02
   2.25354001e-01  2.67859101e-01 -6.59785867e-01  7.48462081e-01
  -3.24247658e-01  2.70873249e-01  4.72674407e-02  2.80627996e-01
   7.61019289e-02  2.05442384e-01 -5.26254140e-02  3.54319215e-01
   3.76639247e-01 -1.87656447e-01 -7.24971592e-01  1.87068239e-01
  -7.28420690e-02  1.79394037e-02  2.64659703e-01  2.46148989e-01
   3.25385109e-02 -2.64777802e-02 -1.60671258e+00  1.11857988e-02
  -5.34835434e+00  6.11518025e-01 -4.56802607e-01 -1.27468213e-01
   4.04311687e-01  6.63530290e-01  6.73816144e-01  2.47656181e-02
  -2.76542813e-01  2.36129865e-01 -6.11672327e-02  1.00651823e-01
   5.79638183e-01  1.35642551e-02  1.73520267e-01  2.33233780e-01]
 [-1.10464609e+00  3.23408037e-01 -1.59624028e+00  4.02102083e-01
  -2.47056857e-01 -1.61341310e-01  6.82159234e-03 -2.19439641e-01
   3.45682919e-01  1.40204988e-02  9.63751972e-02 -2.14465842e-01
   2.93878615e-01  1.20628320e-01  6.17012441e-01  2.16416910e-01
  -4.18314226e-02 -6.55742660e-02  4.21006173e-01  1.58600017e-01
   8.10707867e-01  1.25672435e-02  5.19644693e-02 -3.18934917e-02
   1.09508028e-02  9.22625959e-01  2.23514706e-01  2.11168170e-01
  -7.24058211e-01 -5.94094880e-02  7.29275525e-01  8.90988290e-01
   3.84672940e-01 -6.73831925e-02 -4.23584916e-02  3.39514539e-02
   1.90646455e-01 -9.67023194e-01 -3.43300343e-01  8.01656172e-02
  -6.67424977e-01 -9.87960324e-02 -3.69441439e-03 -2.52488762e-01
   1.39987797e-01  2.77780473e-01 -1.54787563e-02 -2.98017301e-02
   4.19783294e-01  8.53213549e-01 -5.96944571e-01  3.45381021e-01
   5.33777714e-01 -4.27438645e-03  6.04325593e-01 -1.88020915e-01
  -3.03799957e-01  1.00072646e+00 -2.01404524e+00 -3.48241735e+00
  -6.90038681e-01  4.05990273e-01 -1.06867000e-01  2.33258423e-03
   2.64989231e-02  7.11200178e-01 -1.16230391e-01 -6.03326023e-01
  -1.96215138e-01 -3.75260741e-01  2.51900330e-02 -8.76823902e-01
  -1.04749131e+00  4.39722650e-02  3.85384336e-02 -2.12852597e-01
  -1.48948506e-01  5.42637885e-01  1.50188366e-02  9.12636239e-03
  -2.71683007e-01  1.42339066e-01 -7.60225356e-01 -6.34592623e-02
  -3.20703089e-02  2.18420386e-01 -1.64175403e+00 -7.32408345e-01
  -5.62423579e-02 -4.69806343e-01 -4.56446081e-01  6.46263421e-01
  -3.51739734e-01  7.46190473e-02  1.28151737e-02  3.07960957e-01
   2.11233601e-01  5.02652526e-01  5.93188927e-02  4.20771182e-01
   6.40148997e-01  1.34086713e-01 -4.63500708e-01  3.17001641e-01
  -3.49855304e-01 -1.12105183e-01  4.22717705e-02  1.04290791e-01
  -9.62480754e-02  7.30569940e-04 -1.66220284e+00 -4.82223704e-02
  -6.92011452e+00  5.03699899e-01 -3.56576771e-01 -6.27752617e-02
   4.03505266e-01  1.87670112e-01  3.76956373e-01 -2.47955024e-01
   1.54468045e-01  1.55088067e-01  6.89396784e-02 -1.63455412e-01
   3.15249503e-01 -1.16164491e-01  3.02525640e-01  9.11151543e-02]
 [-1.09424853e+00  2.15576544e-01 -1.43125057e+00  1.34057969e-01
  -8.23808387e-02 -2.75541574e-01  4.89468038e-01 -4.37024921e-01
   5.68930387e-01  1.65777206e-02  1.06604777e-01  1.48992032e-01
  -1.31744206e-01 -1.97551280e-01  6.15517497e-01 -1.91149652e-01
   5.99311963e-02  9.78983641e-02  3.66653025e-01 -1.07325695e-01
  -4.67263050e-02  6.36774242e-01 -3.76350433e-02 -2.94810943e-02
  -7.64073953e-02  5.41158736e-01 -4.05041367e-01  4.37379688e-01
   1.49497822e-01 -1.55586451e-01  6.81175470e-01  5.18658400e-01
   7.29318932e-02  5.83566539e-02  4.34441447e-01  7.52368122e-02
  -1.35003582e-01 -8.88949871e-01 -3.18305463e-01 -1.82588734e-02
  -9.44680154e-01 -5.54399192e-02 -1.23696782e-01 -1.09038956e-01
   6.57070696e-01  2.80424878e-02 -6.81197792e-02 -8.43479782e-02
   2.26573348e-01  6.11367404e-01 -1.41870901e-01  2.92587638e-01
   1.80323005e-01 -8.16017017e-02  3.28499496e-01 -4.40757066e-01
  -2.59441525e-01  6.72053620e-02 -1.82538700e+00 -2.68542290e+00
   1.20485261e-01 -1.73522139e+00  5.35350502e-01 -1.05876885e-02
  -7.57948533e-02 -6.76216304e-01  5.67098297e-02 -3.14432025e-01
   1.63170651e-01 -1.55833960e-01 -2.67267860e-02  3.81607205e-01
  -3.96342099e-01  1.19146584e-02 -5.77632003e-02  2.88210809e-01
  -2.75443733e-01  2.23229855e-01  9.75966454e-02  3.05387788e-02
  -7.93951988e-01 -1.62688009e-02 -4.01523232e-01 -3.07636619e-01
  -1.39896154e-01  2.38145292e-01 -1.76529431e+00 -1.72309086e-01
   2.86231905e-01 -8.46647143e-01 -4.06761914e-01  5.57409585e-01
  -2.80209240e-02  4.12266195e-01 -1.22832591e-02  1.47049338e-01
  -1.79230377e-01  4.47393060e-01 -3.78127992e-02  3.47146899e-01
   4.03099477e-01 -1.14459939e-01  3.97531316e-02  6.14321083e-02
  -5.56602478e-01  4.48103935e-01 -1.18640348e-01  2.89853394e-01
   1.09916769e-01 -1.00164330e-02 -1.21286178e+00 -1.38768321e-02
  -7.19270515e+00  2.25596249e-01 -6.52773082e-02 -2.58310325e-02
  -9.48010162e-02  2.79865593e-01  6.21010251e-02 -1.46732375e-01
   2.85388947e-01  1.28215225e-02 -1.14346063e-02  2.23195493e-01
   3.36256683e-01  2.33757254e-02  3.40343148e-01  1.96234569e-01]
 [-3.24952698e+00 -1.76173046e-01 -1.26102436e+00  7.60072321e-02
  -3.35556418e-01  2.32846364e-01  2.86377668e-01  6.20089769e-01
   4.77224946e-01 -7.07207918e-02 -9.96668190e-02  2.17973143e-01
  -5.27544022e-01 -1.82271108e-01  2.32603792e-02 -3.28787148e-01
   3.95664945e-02  2.37774923e-02  4.82518449e-02 -1.44266322e-01
  -1.82346985e-01  4.60096151e-01  5.51558211e-02 -6.90350950e-01
  -3.84732485e-02  5.35770893e-01  3.56022477e-01  6.21703982e-01
  -3.80167454e-01  2.83715248e-01 -6.09741449e-01  9.84787822e-01
   5.05351663e-01  1.37214847e-02 -2.53884405e-01  2.83730999e-02
  -1.08527824e-01 -7.62209356e-01  4.22762990e-01 -6.33333623e-02
  -9.05926347e-01 -2.31308094e-03  3.33788767e-02  4.11254875e-02
   6.83124438e-02  1.14143565e-01  3.85303125e-02 -2.81117827e-01
  -1.09636281e-02  6.09105527e-01  1.62577614e-01  4.96676415e-01
   2.60488123e-01 -3.05271782e-02  4.72889900e-01 -1.96879342e-01
   2.52608746e-01  3.42939943e-01 -1.65883505e+00 -1.06873119e+00
  -1.61350906e-01 -2.12414122e+00  2.52709180e-01  3.36320177e-02
   3.39699723e-02  4.04956162e-01  7.80524500e-03 -3.86576176e-01
  -2.73231924e-01 -5.86848795e-01  2.35360600e-02  2.04970405e-01
   2.56602734e-01 -5.98331988e-02 -4.16575260e-02  5.62255740e-01
  -1.60993114e-01  2.45945994e-02 -3.13909054e-02 -5.61914891e-02
  -2.93977499e-01 -3.36650163e-01  7.34902546e-02 -2.00752288e-01
  -2.37783104e-01  3.08642626e-01 -2.62264132e+00  2.83953547e-01
  -3.11523736e-01 -2.06298065e+00 -1.27300262e+00  1.16269529e-01
   1.79297626e-01 -3.44329476e-01 -6.80419430e-02  2.20643401e-01
   1.74516156e-01 -9.46812099e-04  2.43899841e-02  4.72636938e-01
   1.24782793e-01 -5.62354684e-01 -5.34014761e-01 -4.09861952e-01
  -5.07496893e-01  2.56374478e-01 -1.44307598e-01 -3.89725357e-01
   2.23446310e-01 -5.89902215e-02 -1.59866095e+00  3.73196080e-02
  -4.67224884e+00 -2.97122329e-01 -3.25124979e-01  6.20028656e-03
   5.80811441e-01 -4.51940358e-01  5.81373334e-01 -3.82568538e-01
   3.81781757e-01 -1.68866083e-01  3.55635248e-02  1.54920533e-01
   1.93309903e-01 -4.56340462e-02  3.59612703e-01 -5.65036805e-03]
 [-1.75147092e+00 -2.75843441e-01 -1.26219916e+00 -2.93829367e-02
  -5.41893423e-01 -4.60227877e-02  1.49166092e-01  7.76893497e-01
   1.15487106e-01 -1.96862202e-02  4.14126337e-01  4.91206259e-01
  -2.14799583e-01  6.21811450e-01 -6.89675927e-01  1.11628130e-01
   3.28723043e-02 -5.82748540e-02 -3.74964088e-01  3.80813926e-01
  -4.45658527e-03 -3.84066910e-01 -6.73898160e-02 -1.23504841e+00
   1.56765003e-02  4.66542244e-01  1.22834539e+00 -1.99393764e-01
  -1.05258095e+00  2.32207432e-01 -1.30559325e+00  3.52136582e-01
   3.98852110e-01 -2.96759941e-02 -5.10963321e-01 -8.23725481e-03
   4.45711054e-02 -9.99082386e-01  1.08777857e+00 -2.21201070e-02
  -1.71180654e+00  3.46715078e-02 -3.46693635e-01  2.13704452e-01
  -3.01191002e-01  6.31452978e-01 -7.12282658e-02  3.55585366e-01
  -3.64709109e-01  1.40687361e-01  2.87029266e-01 -7.45670319e-01
   3.68499532e-02  6.28427193e-02  3.10839355e-01  3.83806318e-01
   4.28537607e-01  5.26567280e-01 -1.50566471e+00 -2.92085338e+00
  -3.83836120e-01 -7.76765168e-01  3.13863695e-01 -6.73502982e-02
  -9.82190520e-02  4.67361271e-01 -3.57665688e-01 -9.69999507e-02
  -2.15717912e+00 -4.71504867e-01  1.14693306e-02 -1.23002492e-01
   6.56500459e-01 -5.77734318e-03 -7.47289658e-02  6.70439482e-01
  -2.12451696e-01  2.15127364e-01 -3.34513217e-01 -7.49842003e-02
   1.66845024e-01 -3.76365572e-01  3.95320207e-01  2.23666370e-01
  -4.70914058e-02  2.81036705e-01 -2.76976824e+00 -1.08683552e-03
  -5.15344441e-01 -2.87767553e+00 -1.46973479e+00 -3.36434513e-01
   3.96629572e-01  1.65269729e-02 -7.71580189e-02 -7.61905611e-01
  -8.73017590e-03 -3.08307409e-01 -9.95036028e-03  8.20667982e-01
   3.15292299e-01  1.69966090e-02  2.32640520e-01 -2.68451422e-01
  -7.51991391e-01 -3.93420100e-01 -1.41379554e-02 -4.14882079e-02
   1.68535978e-01 -9.69323516e-02 -1.48867595e+00 -2.93109510e-02
  -5.54401922e+00 -6.08684182e-01 -1.61881939e-01 -5.42917073e-01
   7.71253467e-01  2.19012558e-01  1.13643920e+00 -1.16515577e-01
  -8.99969161e-01 -1.39061615e-01 -5.50888218e-02  1.32468715e-01
   1.52899727e-01 -9.71498787e-02  7.72016108e-01 -1.82821125e-01]
 [-1.10242426e+00  1.43523011e-02 -1.64276898e+00 -8.22229385e-02
  -1.05232632e+00 -5.18337429e-01 -3.08858175e-02  7.81718969e-01
  -5.08105695e-01 -1.26948440e-02 -1.91818625e-02  4.96089071e-01
  -2.57499069e-01  4.19832245e-02 -1.15184903e+00  4.00401771e-01
  -1.05283950e-02  2.73286760e-01 -3.18457037e-01  6.10236704e-01
   6.91413507e-02  7.05885410e-01  6.07600361e-02 -1.84970200e+00
  -1.53296757e-02  5.18477559e-01  6.30368888e-01  2.02164605e-01
  -1.13431919e+00 -3.10008414e-04 -1.83378541e+00  5.20324469e-01
   7.68081769e-02  1.80770438e-02 -8.00019085e-01 -6.44494593e-03
   1.87678516e-01 -1.27549624e+00  6.19973719e-01 -5.02092317e-02
  -2.76295733e+00  5.09322882e-02  3.14298391e-01  5.41363843e-02
  -4.44011509e-01  4.05835174e-02 -2.80529503e-02  4.51708958e-02
   1.66128814e-01 -8.87952372e-02 -1.79783419e-01 -1.09537351e+00
  -1.39262937e-02 -6.28298819e-02  1.21748209e-01  3.14803600e-01
   7.80547708e-02  7.77565598e-01 -3.06272364e+00 -1.87109339e+00
  -2.16732919e-01 -9.86639798e-01 -6.58901274e-01 -6.58798590e-02
  -9.67413783e-02  1.44433752e-01 -1.22368813e-01  4.60604439e-03
  -1.79367185e+00 -5.90023518e-01 -1.62119698e-02  3.08319807e-01
  -1.37730956e-01  5.37207574e-02 -9.25265327e-02  2.31224209e-01
   2.70434976e-01  2.84640670e-01 -6.63533628e-01 -3.80074233e-02
  -9.68013145e-03  1.70614541e-01  3.29862297e-01 -1.09451711e-01
  -1.66570008e-01  1.22269109e-01 -2.13667464e+00 -5.22551417e-01
   2.82417864e-01 -2.32980680e+00 -2.49102926e+00  2.04771504e-01
  -4.53033075e-02  4.00352031e-01 -1.11366794e-01 -7.49466181e-01
   2.70455271e-01  4.55170199e-02 -1.52613418e-02  5.11205375e-01
   2.56984204e-01  8.58094767e-02  4.87853527e-01  3.00523341e-01
  -8.25504541e-01 -2.91398227e-01  3.85391414e-01  2.99898177e-01
  -1.03888005e-01  1.10845186e-03 -1.58016598e+00  2.19035018e-02
  -2.92837811e+00 -9.19450596e-02  5.10726631e-01  2.04762304e-03
   9.38548297e-02 -8.81823059e-03  8.78165483e-01 -1.09647393e+00
  -7.19804585e-01  4.72622037e-01  2.11469494e-02 -1.31669253e-01
   7.50848353e-02 -2.27522720e-02  4.20537561e-01 -3.00080292e-02]
 [-9.16921437e-01 -1.08896621e-01 -6.34018838e-01 -6.19980283e-02
  -7.35191524e-01  2.80288041e-01 -5.01085997e-01  9.18555558e-01
  -2.50219673e-01  5.57911433e-02 -3.41922849e-01 -1.06237210e-01
   6.08775675e-01 -5.34897074e-02 -9.01163220e-01  2.73184150e-01
   1.56637803e-02 -1.42919207e-02 -2.37401500e-02 -8.70436653e-02
   8.44935477e-02  9.89696681e-01  4.72796895e-02 -1.64574802e+00
   7.28855142e-03  1.85112759e-01 -7.01958537e-02 -4.17241067e-01
  -3.17743254e+00  8.84072483e-02 -6.08378530e-01 -4.71045762e-01
  -2.23318458e-01  1.45016825e-02 -5.46280324e-01  2.72502610e-03
   5.17269790e-01 -8.28129828e-01  7.09236562e-02  4.04066257e-02
