dense/kernel:0
(784, 128)
[[ 1.80073524e+00 -2.09374952e+00  5.98189116e-01  1.31696308e+00
   2.99232274e-01  7.99567640e-01 -6.26746130e+00 -1.00227959e-01
  -2.29282022e-01  3.91999334e-02  7.26256311e-01 -4.49467719e-01
   2.29868785e-01 -1.14066541e+00  1.83071625e+00 -4.97836304e+00
   4.29417714e-02  1.00876653e+00 -7.69142732e-02  2.36994267e+00
  -1.23094670e-01 -4.02492374e-01 -4.21234854e-02  2.11876345e+00
  -5.30551672e-02 -1.11366284e+00 -2.88877964e+00  3.13526988e-01
   6.79412186e-01  7.34512627e-01  7.22899914e-01  9.55738053e-02
  -2.18254948e+00  3.66632342e-02 -3.32116675e+00 -9.17075500e-02
   1.67455450e-01  1.18902338e+00  3.38871360e-01 -4.47298586e-02
   2.86857128e-01 -6.35372251e-02 -1.09200668e+01 -8.54654193e-01
   1.90510263e-03  5.59260659e-02 -7.04984814e-02  1.97813243e-01
  -1.34328830e+00 -6.23094201e-01  6.19836152e-01 -2.61123329e-01
  -2.77963668e-01  2.11129710e-02 -3.05316496e+00 -8.79001737e-01
  -7.79130682e-02 -7.75710270e-02 -1.45834613e+00 -3.51077646e-01
  -1.90931574e-01 -3.18028116e+00  1.13851917e+00 -6.13023248e-03
   5.66050969e-02  9.36613306e-02  1.52261734e+00  5.23727655e-01
   4.38855857e-01  1.06264210e+00  6.67770356e-02 -4.34424973e+00
   1.43966222e+00 -4.92231287e-02 -6.62109554e-02  1.54905725e+00
  -2.00118288e-01 -2.03483820e-01 -5.45910224e-02 -8.18634555e-02
   3.70852977e-01  1.76789534e+00 -4.39747125e-02 -2.30903268e-01
  -2.88741946e-01  3.31638277e-01  1.43466771e-01 -1.40219378e+00
   4.76060271e-01  6.20712817e-01 -1.86409426e+00  7.66964555e-01
   1.74056724e-01 -3.80734473e-01  2.74617411e-02 -1.03463244e+00
  -1.44425380e+00 -7.59426355e-01 -7.57210404e-02 -1.00632131e+00
   1.05835962e+00  7.41003407e-03 -7.53887892e-01 -5.96173942e-01
   9.90152210e-02 -7.52014458e-01 -2.94961238e+00  3.36708546e-01
   4.41034883e-01  6.62626103e-02  5.99592447e-01  5.38429618e-02
  -1.82365072e+00  8.87460232e-01  5.48667490e-01  1.32617354e+00
  -6.32929146e-01  1.00068057e+00 -1.46094644e+00  2.35741764e-01
  -1.07121820e+01  7.70031571e-01  1.09761171e-02  5.84377587e-01
  -1.31819332e+00 -1.99090894e-02 -5.76750946e+00  1.49370360e+00]
 [ 2.25069895e-01 -6.53489307e-02 -7.27314427e-02  2.32092738e+00
  -8.51379573e-01 -5.80538452e-01 -3.79576588e+00 -4.61780667e-01
  -1.27457929e+00 -8.64732563e-02 -1.78209141e-01  5.98489940e-01
   7.15517938e-01 -1.71264255e+00  1.82136202e+00 -1.76221752e+00
   7.57001936e-02 -1.45399168e-01  7.71355152e-01  1.82248831e+00
  -4.44207609e-01  3.39194030e-01 -6.39080629e-02  1.12691748e+00
  -1.61805842e-02  2.27771425e+00 -5.06134629e-01  8.97327721e-01
  -7.74279237e-02  3.54441315e-01  1.23969448e+00  6.58431053e-02
   8.90682578e-01 -6.58783913e-02 -1.74945104e+00 -9.35778618e-02
  -1.68767631e+00  1.18519664e+00  1.23316777e+00 -1.38154731e-03
   1.85374960e-01  4.02863789e-03 -1.24393892e+01 -1.22494303e-01
   2.21236557e-01  7.88883194e-02  7.22103193e-02 -9.33235586e-01
   2.66939908e-01  6.75831616e-01 -1.58726960e-01  3.99247348e-01
   1.93332577e+00 -2.52189245e-02 -1.53903937e+00  9.19006392e-02
  -2.06487864e-01 -3.27292234e-01 -9.29843426e-01  1.80540875e-01
  -6.81518734e-01 -3.26779604e+00 -3.19031440e-02  6.28463626e-02
  -4.27190736e-02 -9.70368739e-03 -3.12702894e-01 -8.17625642e-01
   4.02713865e-01 -4.68701184e-01 -6.31425232e-02 -5.38957310e+00
   2.95608938e-02  1.99003723e-02  1.41286552e-02 -1.30751443e+00
   4.16747242e-01  1.51877701e-01 -9.55441535e-01 -5.85114211e-02
  -1.81328595e+00  2.09601492e-01 -9.18687880e-01  4.62089241e-01
  -1.96637917e+00  1.80536672e-01 -6.77625984e-02 -8.95899951e-01
   1.15083587e+00 -5.72548807e-03 -1.35166514e+00 -2.20343918e-01
   2.85860281e-02  2.82717258e-01  1.17959162e-05 -2.17130437e-01
  -4.05018240e-01  9.91331995e-01  4.49389368e-02 -6.07418358e-01
   1.72761285e+00  1.31971210e-01  3.50078881e-01  1.35208344e+00
   8.87148604e-02  4.87994820e-01 -1.49959230e+00 -2.61421382e-01
  -4.92516123e-02  2.86426656e-02  7.19720721e-01 -1.65058021e-02
  -2.12658620e+00  1.33832121e+00 -5.64593315e-01  1.34202647e+00
   1.76301122e-01  4.23921049e-01 -1.12526521e-01  7.80535579e-01
  -9.81763649e+00  6.06648475e-02 -3.64478715e-02  1.01945317e+00
   1.17361218e-01  7.87432715e-02 -3.22710776e+00  1.31933138e-01]
 [-9.89284590e-02 -2.62603807e+00 -4.00822788e-01  5.02990305e-01
  -2.73296610e-02 -1.34913111e+00 -1.92108095e+00 -2.93015420e-01
  -1.20029151e+00  4.07855287e-02  1.97880194e-01 -1.39085126e+00
   1.23106636e-01 -2.56330895e+00  1.17191720e+00 -2.19620156e+00
   3.55233848e-02  4.79800820e-01 -4.30811018e-01  4.67923194e-01
   4.26937521e-01 -4.13709611e-01  2.27804929e-02 -2.46204808e-01
  -8.34699795e-02  1.52210391e+00 -3.59005779e-02  1.54444471e-01
   2.33807817e-01 -1.02894866e+00  7.13333070e-01  1.06728411e+00
   1.72263432e+00 -7.16336146e-02 -1.89724398e+00 -1.56391829e-01
   1.42724082e-01  1.28867972e+00  2.28155851e+00 -1.25556970e-02
   4.95976090e-01 -1.78589392e-02 -1.30379972e+01  1.15833223e+00
  -4.14120048e-01 -1.44250202e+00  3.08047216e-02 -5.00239134e-02
  -4.91903752e-01 -4.32720691e-01 -2.63968766e-01  2.73106486e-01
   3.67812246e-01 -7.65237138e-02  4.86906655e-02 -1.19058740e+00
  -1.64040938e-01  9.29049790e-01 -1.35603428e+00  2.89389819e-01
  -5.53858221e-01 -3.21061397e+00 -1.06467545e+00 -7.27694407e-02
  -7.19389096e-02 -4.90259007e-02  3.47343266e-01 -6.46317840e-01
   9.77921903e-01 -2.60250062e-01 -1.05513521e-02 -5.38713551e+00
   2.81290233e-01 -8.28524753e-02 -4.83939983e-02 -1.74922895e+00
   1.44890451e+00 -6.38952136e-01  4.40441146e-02 -4.41789180e-02
  -2.02656698e+00  8.53303075e-01 -1.34052932e+00 -1.55686334e-01
   1.08846435e-02  4.07969832e-01 -1.80277184e-01 -6.60359740e-01
   1.19522858e+00  1.48504451e-01 -2.00840950e+00  1.50307238e+00
   5.12317359e-01 -1.18109155e+00 -5.83662167e-02 -5.97991645e-01
   5.77094257e-01  1.24484694e+00  3.74483913e-02 -8.33674550e-01
   3.17374200e-01  5.05953372e-01  5.38837433e-01 -7.99477339e-01
   2.08707690e-01  1.76426291e-01 -1.27038789e+00  4.73040015e-01
   4.55823869e-01 -4.26566713e-02  1.11313593e+00  2.99071483e-02
  -3.13077760e+00  6.38277590e-01  1.49075019e+00  1.34351894e-01
   8.19445789e-01 -3.77473445e-03  6.62757695e-01 -2.09006399e-01
  -9.30035782e+00  9.87172663e-01 -5.28803207e-02 -1.12702310e+00
   4.94632483e-01 -3.63381803e-02 -3.27946949e+00  1.78725779e-01]
 [ 6.11773551e-01 -6.45847380e-01 -2.50512570e-01  1.02884054e-01
   6.11170471e-01  2.13150680e-01 -7.85599053e-01  7.79171288e-01
  -3.36093366e-01 -1.01275975e-02  4.59436536e-01 -6.69275582e-01
   3.30267638e-01 -2.86628866e+00  5.24087489e-01 -1.47829342e+00
  -6.39775395e-02  1.07569337e+00  4.94424492e-01  5.97850859e-01
   5.26274815e-02  7.79386580e-01  1.09121939e-02  3.74701351e-01
  -1.00798875e-01 -1.29921222e+00 -1.34084976e+00 -6.80328667e-01
  -1.09942906e-01  8.46701920e-01 -1.72282541e+00  2.25679135e+00
   9.04397070e-01 -2.44271997e-02 -5.19080520e-01 -7.54555613e-02
   1.21627200e+00  2.51633048e+00 -1.87732518e+00  2.58671306e-03
  -5.70827769e-03 -8.48027878e-03 -1.22662077e+01 -7.37307310e-01
  -1.54104173e-01 -1.73394307e-01 -4.08928171e-02  6.51756525e-01
  -2.01990485e+00 -1.07910633e+00 -1.13835704e+00  6.00612760e-01
   5.18872142e-02 -5.48588932e-02  6.66206360e-01 -7.55902946e-01
  -1.83198571e-01 -5.68275042e-02 -1.21698606e+00  1.17239784e-02
  -7.40967572e-01 -3.31985188e+00  1.02944863e+00 -5.43873273e-02
   6.71573877e-02  1.89114958e-02 -2.43068978e-01 -6.20047748e-01
   8.28309476e-01  2.77472913e-01 -3.94298732e-02 -5.21725225e+00
   1.03356302e+00 -2.94806566e-02  5.46720400e-02  9.38799322e-01
   1.61651492e-01  7.59207726e-01  6.74921870e-01 -3.04849967e-02
  -1.59809172e+00 -1.79443169e+00  9.06922296e-02 -5.63708134e-02
  -1.33106053e-01  1.36927053e-01 -4.07426208e-01 -6.06335700e-04
   7.46552408e-01  1.00092761e-01 -1.56603110e+00  1.94414571e-01
   5.21570385e-01 -6.43279195e-01 -1.83520745e-02  4.36677098e-01
   1.56964624e+00 -3.64314288e-01  2.50788741e-02 -1.26298499e+00
  -1.53903916e-01  1.31852090e-01 -7.32343495e-01  7.13796139e-01
  -3.70852351e-01 -4.20651644e-01 -1.00125587e+00  6.90194726e-01
  -8.83393139e-02 -1.78744942e-02  5.20676136e-01 -8.04076623e-03
  -3.93307996e+00  1.22938948e-02 -8.80313218e-01  4.41160053e-01
   6.50022507e-01  1.12607637e-02  4.51116920e-01  4.49043214e-01
  -7.63621473e+00  9.06142414e-01 -7.52392337e-02  7.14673936e-01
   6.85321271e-01 -9.23798233e-02 -6.92494059e+00  7.99130738e-01]
 [ 1.33594826e-01 -3.90011460e-01 -4.03205007e-01 -2.73045242e-01
   6.67730391e-01 -7.50353992e-01  1.09987247e+00  4.34897900e-01
   6.64695501e-01 -2.24299903e-04  1.02037108e+00 -8.85594249e-01
   4.36761707e-01 -2.60202909e+00  8.86291206e-01  7.93995559e-01
   5.54708689e-02  9.46106911e-01 -1.72802210e-01  1.31379116e+00
   1.61621839e-01 -3.09567630e-01  3.38797122e-02  1.31377363e+00
  -1.18070114e-02  1.76731145e+00 -1.55659509e+00  1.53500795e+00
   2.30367765e-01 -3.15914363e-01 -1.75095439e+00 -3.28352630e-01
   1.08356369e+00 -7.22003654e-02 -1.53799641e+00 -8.75073373e-02
   1.27374763e-02  1.31851876e+00 -1.36356986e+00 -7.06783384e-02
   1.62921935e-01 -1.09077133e-01 -1.13280153e+01  1.70640016e+00
   1.42910987e-01 -2.76090335e-02 -5.56409135e-02 -5.05064189e-01
  -1.15076745e+00 -4.19405669e-01 -1.27290571e+00  2.00878406e+00
  -4.92495358e-01 -2.81289201e-02 -1.69909135e-01 -3.04750681e-01
  -1.07965194e-01 -1.51317096e+00 -9.56371784e-01 -1.45027757e-01
   1.23459423e+00 -3.66577768e+00  7.31972635e-01 -4.26072292e-02
  -6.01873845e-02  6.86202884e-01  1.80005312e-01 -2.68882722e-01
  -6.80756986e-01 -4.48787093e-01 -4.04994190e-02 -4.70158672e+00
   1.29133630e+00 -7.43691325e-02 -4.31555249e-02  5.19769788e-01
   1.25969875e+00  4.55865204e-01 -3.71531814e-01  9.01739392e-03
  -1.48395315e-01  7.08701134e-01 -8.81971896e-01  4.96850163e-01
  -1.20611370e+00  3.18852812e-01 -4.40300107e-01  2.46895492e-01
   1.96128666e-01 -1.88963056e-01 -4.92946237e-01 -8.45964968e-01
   4.69395101e-01  1.56039202e+00  8.58888868e-03  1.06241152e-01
   4.43176299e-01 -1.56005725e-01  4.92540710e-02 -1.55494893e+00
  -9.06979218e-02 -9.85294133e-02 -1.44340861e+00 -7.11735964e-01
   1.04178898e-01  4.79923457e-01  9.51991618e-01  4.04851675e-01
   2.35238075e-01 -8.28001928e-03  1.68788046e-01 -3.49532925e-02
  -3.91999125e+00 -9.29779410e-01 -7.37745941e-01  8.25695515e-01
   1.19081151e+00  4.49757993e-01 -2.12024927e+00  7.23103285e-01
  -2.45343995e+00 -2.33152688e-01 -1.80347227e-02  8.47215116e-01
  -1.74098885e+00 -7.21996799e-02 -1.42601073e+00  5.69051504e-01]
 [-8.49095523e-01 -1.04572403e+00 -6.39304101e-01  7.63801873e-01
   5.09643972e-01 -6.14934981e-01 -2.48194292e-01 -4.10545677e-01
  -9.20747340e-01  5.90782836e-02 -3.67972195e-01 -4.85529214e-01
   3.02145332e-01 -3.37516046e+00  4.64080691e-01  9.60636735e-01
  -2.42961776e-02  3.48000377e-01  6.05388224e-01  7.46812224e-01
   9.48986173e-01  8.41499865e-02 -4.00831737e-02  3.16632062e-01
  -6.83767051e-02  8.89588535e-01 -7.41433442e-01  1.12607253e+00
  -2.79083196e-03  7.12051332e-01 -5.70749879e-01  1.13148294e-01
   1.36342478e+00 -6.61311671e-02 -9.71923947e-01 -9.38399509e-02
   2.55967498e-01  5.38166046e-01 -1.09606493e+00  9.67291370e-03
   1.99921355e-01 -1.03774387e-02 -7.79306889e+00  2.10856702e-02
   1.02825928e+00  7.38945782e-01  3.94542776e-02  1.93313584e-01
   4.10267532e-01 -1.36255920e-02 -1.49344289e+00 -7.85089254e-01
  -1.14796758e+00 -9.62241963e-02  7.20811725e-01 -6.50662363e-01
   8.63274038e-02  1.55579221e+00 -9.13390756e-01 -7.70373762e-01
   1.23233211e+00 -1.31698918e+00  9.56128165e-02 -6.82774112e-02
   6.86991736e-02  1.42897189e+00 -6.09381676e-01  1.52658507e-01
   1.25392258e-01 -6.12900615e-01 -4.70487885e-02 -3.35349655e+00
   2.73571938e-01 -1.10362703e-02  5.85419759e-02  2.31355727e-01
   1.77398488e-01 -1.82703972e-01 -3.21857244e-01 -9.73411649e-02
  -5.18476248e-01  5.89690447e-01 -9.96780246e-02  1.53733000e-01
  -4.13554758e-01  1.89638019e-01 -9.37553108e-01 -2.08217931e+00
  -4.04185683e-01 -3.11392128e-01  8.15588236e-02  3.68924648e-01
  -1.32658496e-03  1.30133963e+00 -4.94654439e-02 -4.58604604e-01
   4.61120695e-01  4.68166590e-01 -4.22226787e-02 -2.90755600e-01
  -1.31265795e+00 -1.24951696e+00 -1.37229073e+00  9.81105387e-01
   3.64830524e-01 -3.28409314e-01 -1.22229016e+00 -3.60566944e-01
   3.58214051e-01 -9.27225202e-02  2.99029112e-01  4.13061529e-02
  -5.14405155e+00 -6.14600956e-01 -5.08722007e-01  1.11943543e+00
   5.74872553e-01  3.08582127e-01 -2.45232075e-01  4.52364177e-01
  -1.37589085e+00  6.50213003e-01 -5.44586293e-02 -5.46811402e-01
  -3.92417550e-01  4.66959551e-03 -1.34470987e+00 -2.46367052e-01]
 [-1.22513294e+00 -5.22692323e-01 -4.57415789e-01 -3.81749541e-01
   1.00104666e+00  1.39622056e+00 -1.09418690e+00 -5.02726734e-01
  -1.94232821e+00  4.86061610e-02  4.54645485e-01 -9.03357342e-02
   8.06376413e-02 -4.03198481e+00 -9.74705994e-01  1.75498843e+00
  -5.97139746e-02  1.16779089e+00  1.05522966e+00  9.69790816e-01
   4.16346937e-02  4.91742641e-01  4.51927036e-02 -1.88622311e-01
   4.85555008e-02 -3.09431136e-01  1.07837093e+00  2.35373139e-01
  -3.48553330e-01  3.79806429e-01 -2.20035625e+00 -9.78275836e-01
  -6.76701427e-01  6.75859898e-02 -1.20484340e+00 -1.24342509e-01
   8.53650868e-01 -1.11599147e+00 -1.70756137e+00  3.98668833e-02
   3.11167210e-01  8.61444883e-03 -3.19540238e+00  1.41854569e-01
   4.21104729e-01  1.77252054e-01 -2.65236143e-02  8.84093225e-01
   6.81614041e-01 -9.62057531e-01 -2.39165401e+00  4.82986271e-01
   7.31633157e-02 -5.29793948e-02 -2.77252108e-01 -3.45205069e-01
  -1.94524843e-02  6.33109808e-01 -3.17746460e-01 -6.26682520e-01
  -3.73435766e-01 -2.90250468e+00  2.01057121e-01 -4.19786163e-02
   2.95201577e-02  3.60250145e-01 -3.45262468e-01  8.63742352e-01
  -4.93334513e-03 -2.42527306e-01  2.69702612e-03 -3.21981525e+00
   5.09978294e-01 -8.06716979e-02 -1.36281615e-02 -4.40394163e-01
   8.12031746e-01  2.17724770e-01 -2.21136212e-01 -4.60091718e-02
   5.23409545e-01  8.51241231e-01  9.67214882e-01  1.57163724e-01
   5.43768942e-01  1.94522589e-01 -1.09102917e+00 -9.98777628e-01
   8.17077532e-02 -5.49931169e-01 -7.10905433e-01  4.98204082e-01
  -1.39593706e-01 -5.93224525e-01 -1.00809775e-01 -7.79818296e-01
  -1.73967436e-01 -1.28641570e+00 -8.77897292e-02 -8.72991204e-01
  -2.55878615e+00  7.69557774e-01 -2.75263977e+00  1.27758276e+00
   2.96681851e-01 -3.90402496e-01 -1.34601397e-02  1.68740943e-01
  -9.89384353e-02 -2.95992680e-02  2.70046979e-01 -5.10989837e-02
  -5.69338465e+00  1.66395891e+00 -8.60347211e-01  2.26197886e+00
   6.87366307e-01  1.06903493e+00 -1.45126745e-01  1.23866093e+00
  -1.96710341e-02 -6.63957775e-01 -8.26808885e-02 -1.18129683e+00
  -4.84106004e-01 -2.95698922e-02 -2.13043737e+00  1.22352707e+00]
 [-1.23933101e+00 -1.08348536e+00 -1.06111276e+00  3.38496596e-01
   1.08869505e+00  9.68511701e-01  4.03512418e-01  3.77018273e-01
  -6.25643969e-01 -2.32871696e-02 -4.40861508e-02 -8.78527224e-01
   3.47410709e-01 -4.79470062e+00 -8.64656031e-01  1.48299408e+00
  -1.47871524e-02  1.05238950e+00  8.92650962e-01 -4.07784134e-02
  -6.31046966e-02  8.45532417e-01 -3.01664155e-02 -1.27529919e-01
   5.73229715e-02 -6.92683935e-01  5.30934691e-01  1.05692342e-01
  -3.36265266e-01 -1.75793484e-01 -1.40837681e+00  3.35318416e-01
  -1.93811595e-01  3.10134143e-02 -4.00496349e-02 -8.90330877e-03
   4.48703885e-01 -1.71099651e+00 -4.57288456e+00 -1.85702220e-02
  -4.71092165e-02 -6.15343228e-02 -8.81691456e-01  1.46316302e+00
  -7.88452864e-01 -1.57294586e-01  4.83609140e-02  6.20281219e-01
  -1.34221447e+00 -9.22111630e-01 -2.05732632e+00 -9.02955711e-01
   1.75709397e-01 -7.85752311e-02  1.37636900e-01 -2.48883784e-01
  -3.44778925e-01 -1.57208532e-01 -2.70847142e-01 -1.76211929e+00
  -1.47928536e+00 -2.20699668e+00 -1.38331795e+00  1.62118524e-02
  -5.69899268e-02  1.36910951e+00 -2.52123743e-01 -7.24916384e-02
   5.48332095e-01 -1.68935061e-01 -6.97442442e-02 -2.92569685e+00
   1.41378474e+00  5.97762242e-02 -5.37981391e-02  4.65795070e-01
   4.06017721e-01  7.88722038e-01  5.79782605e-01 -1.10351890e-01
   4.64300752e-01 -6.34206355e-01  1.01300442e+00  5.39796174e-01
   4.69685167e-01 -1.09144419e-01 -8.28030944e-01 -9.60746706e-01
   1.04555655e+00 -8.01438689e-01 -3.01491648e-01  1.95902205e+00
  -1.77167103e-01  3.63797545e-01  2.21928507e-02 -4.73009914e-01
  -9.68091488e-01 -1.05121374e+00  6.86794221e-02 -5.60056269e-01
  -2.76688838e+00 -3.54747772e-01 -2.77704334e+00  6.26150429e-01
   2.64274001e-01  1.12934291e+00 -1.46657646e+00  9.74565446e-02
   2.71375805e-01 -7.52747357e-02 -2.28488460e-01  6.29064143e-02
  -5.47944021e+00  2.22919965e+00  9.52658296e-01  1.40082860e+00
   1.75758541e+00  8.95072460e-01  6.51495278e-01 -1.11356688e+00
  -1.68978080e-01 -2.81603694e-01  3.24517637e-02  1.09577453e+00
   7.00721085e-01  2.14193453e-04  5.02372682e-01  3.54736090e-01]
 [-1.91438949e+00 -1.24337256e+00 -1.68168068e+00  4.26635832e-01
  -8.95586729e-01  1.98964506e-01  5.70535898e-01  2.36815587e-01
  -4.36658949e-01 -8.44957083e-02 -1.60812601e-01 -7.29494035e-01
   2.28183150e-01 -3.54781842e+00 -2.14479715e-01  6.05813980e-01
   7.59758279e-02  1.22604179e+00  4.33834642e-01 -6.47227407e-01
  -7.14846909e-01  6.72843933e-01 -6.81977719e-02  1.01991940e+00
  -6.25595171e-03 -1.42065680e+00  2.76424706e-01  6.35081017e-03
  -5.59004366e-01 -1.52445626e+00 -2.46401978e+00  7.73086548e-01
   5.13033628e-01 -2.80625243e-02  6.64309740e-01 -7.09468871e-02
   5.77552021e-01 -2.06058359e+00 -4.78295851e+00  7.47216791e-02
  -4.08165939e-02  8.26221332e-03 -1.15977812e+00  6.12409413e-01
  -1.38676226e+00 -5.94096482e-01  5.00383228e-02 -1.53316826e-01
  -1.59227514e+00 -4.51922938e-02 -3.05512142e+00  7.47624755e-01
  -8.41381490e-01 -1.67460088e-02  3.47854584e-01 -4.64054137e-01
  -1.52467251e-01  1.12438172e-01 -1.19827366e+00 -2.19584823e+00
  -1.01950014e+00 -3.08635950e+00 -7.51014888e-01 -6.36297613e-02
  -5.19546196e-02  5.04280448e-01 -9.01096642e-01 -5.86868167e-01
  -6.06595874e-01 -1.60345748e-01 -6.86321035e-02 -1.38690710e+00
  -3.56226563e-01 -4.86819372e-02  2.09787358e-02  6.42672479e-01
  -4.09708805e-02 -1.09749913e-01  1.11574732e-01 -8.32020417e-02
  -2.29407802e-01 -8.84969831e-02  8.00701439e-01  5.58256745e-01
  -8.02031875e-01  1.56000510e-01 -8.53932023e-01 -6.51678920e-01
  -6.31152868e-01 -6.52570367e-01 -2.14503542e-01  8.43393862e-01
   6.70041203e-01 -4.50205743e-01  3.78128402e-02 -6.83365405e-01
   3.51789325e-01  5.10114551e-01  1.10571478e-02 -4.45838898e-01
  -3.56095362e+00 -6.18323326e-01 -4.01375341e+00 -6.86714426e-02
  -1.43669546e-01  8.43140423e-01 -1.03703070e+00  9.36680675e-01
  -3.24077696e-01 -5.69858253e-02  1.30371615e-01  7.88120776e-02
  -5.04142523e+00  3.11689109e-01 -5.10173202e-01  8.18346083e-01
   1.84956163e-01 -3.93352099e-02 -4.79992419e-01 -1.57560691e-01
  -5.10328591e-01  5.20026565e-01 -6.70857579e-02  8.77224326e-01
   1.35690600e-01 -2.45036688e-02  5.17327711e-02 -3.85407776e-01]
 [-5.48852146e-01 -6.17773831e-01 -5.52687526e-01 -2.85952538e-01
  -1.19653594e+00  4.27857459e-01  5.99659622e-01  8.27246726e-01
  -2.09387279e+00 -3.52168866e-02 -6.46900654e-01  1.34768873e-01
   9.60608050e-02 -4.43937922e+00 -1.81751736e-02  4.25265253e-01
   4.99342419e-02  5.83456218e-01  5.83487600e-02  4.98747051e-01
  -1.00350475e+00  7.55303919e-01 -7.94951990e-03  1.15388083e+00
  -1.10721633e-01 -9.60216463e-01 -3.68078016e-02  1.04541287e-01
   5.71835160e-01 -2.72989810e-01 -1.84541297e+00  2.07922459e-01
   4.75574017e-01  1.24154612e-02  5.10339975e-01 -8.58106301e-04
   5.79179764e-01 -2.89931703e+00 -3.14136171e+00  3.54690999e-02
  -1.74063891e-01  3.10710929e-02 -7.13935614e-01  1.47323102e-01
  -2.34725523e+00  5.08577049e-01 -1.58815756e-02 -4.07073677e-01
  -5.63008130e-01 -8.01625788e-01 -6.45662963e-01  5.06414711e-01
   3.08568835e-01 -7.72014931e-02  6.60633802e-01  2.58153975e-01
  -5.78870952e-01  5.66307530e-02  2.20143721e-01 -2.82584405e+00
   9.58015472e-02 -4.61298943e+00  1.80071503e-01 -2.44020321e-03
  -5.55870049e-02 -1.42762691e-01 -9.54081118e-01  2.32120022e-01
  -6.37309313e-01 -5.26736915e-01  1.72334127e-02 -1.00748873e+00
  -3.83124441e-01 -5.16880229e-02 -6.95562363e-02  1.50084257e+00
   1.44997001e-01  4.65400100e-01  1.03659511e+00 -2.13574525e-02
  -1.43068898e+00 -4.24213588e-01  2.52986759e-01  6.77586377e-01
  -7.27527857e-01 -1.38719231e-01 -8.07567298e-01 -6.76405311e-01
  -1.15355897e+00 -2.58490235e-01  5.94406426e-01  3.61283384e-02
   4.31126595e-01 -1.17667310e-01  4.67906892e-03  5.31319141e-01
   2.60141313e-01  7.57123291e-01 -9.24647376e-02 -1.35291791e+00
  -3.72432518e+00 -7.60531664e-01 -5.74405003e+00 -3.65274586e-02
  -2.68379569e-01 -4.69208241e-01  1.97934031e-01  8.15161467e-01
  -1.34594053e-01  1.63051940e-03 -7.07464814e-01 -1.08646946e-02
  -5.39372206e+00 -9.58520621e-02 -1.19019508e+00  3.32254112e-01
   7.87236869e-01  6.45954013e-01 -4.43656743e-01  8.94673526e-01
  -1.68109074e-01 -1.43813759e-01 -6.14751130e-02  9.49207962e-01
  -3.16105671e-02 -3.09768785e-02 -8.55454922e-01 -4.44521159e-01]
 [-2.77557063e+00 -4.89252597e-01 -2.92671204e+00  2.84563214e-01
  -2.02828050e-01  2.97218442e-01  7.42378473e-01  9.81570601e-01
  -9.11894619e-01  6.48417622e-02 -2.24435061e-01  1.93659797e-01
   8.73678446e-01 -3.81828713e+00 -2.89025903e-01  2.23543569e-01
   4.29829992e-02  1.19683373e+00  2.49458551e-01  1.07976198e+00
   6.48314580e-02  6.22254074e-01  4.31632698e-02  4.35487717e-01
   5.99871539e-02 -1.93936691e-01 -7.50697076e-01 -9.83304441e-01
  -8.88503015e-01  1.53983757e-01 -2.75560308e+00  1.19400895e+00
  -2.23742917e-01 -1.48390913e-02 -1.19241309e+00  5.26991151e-02
   1.69581026e-01 -1.77991259e+00 -3.20590520e+00  6.09653331e-02
  -4.52128261e-01  3.17495205e-02  9.97322872e-02  3.17986272e-02
  -7.25197017e-01 -2.36977354e-01 -1.62196811e-02  7.85972357e-01
  -4.66491818e-01 -8.47093999e-01 -3.13815475e+00 -5.60990810e-01
  -8.13231945e-01 -1.31498119e-02  6.42143190e-01 -3.65652680e-01
  -8.15745711e-01  2.74151564e-01 -6.99192584e-01 -1.47637439e+00
   7.27343321e-01 -5.74879408e+00  2.20414385e-01 -2.19764747e-02
   3.83150242e-02  1.13637292e+00 -1.04699433e+00  1.27187043e-01
  -1.02888393e+00 -7.30121493e-01 -1.14024460e-01 -2.75864661e-01
   5.58639467e-01 -5.01727611e-02  3.36609334e-02  1.16291690e+00
  -3.75496566e-01 -1.29500441e-02  6.72947407e-01  4.12336104e-02
  -7.64807582e-01  2.85087585e-01  1.53089023e+00  1.02007963e-01
  -4.58219200e-01  2.48426020e-01 -1.14874780e+00 -1.57398984e-01
   5.96984243e-03 -9.34507072e-01  4.89933282e-01  2.58462638e-01
  -7.46711791e-02  1.09585315e-01  2.87847929e-02 -4.53688167e-02
   9.90154296e-02 -5.24370193e-01 -9.11065489e-02 -3.40574324e-01
  -4.23145008e+00 -9.36987638e-01 -6.60371876e+00  1.44459203e-01
  -6.69490814e-01 -1.29015601e+00  5.04291654e-01  1.23946309e+00
   7.88379014e-01  6.34368286e-02 -1.21784282e+00 -7.46949166e-02
  -5.48065567e+00 -4.13202763e-01 -1.44601572e+00  1.06821275e+00
   1.16997719e+00  1.18131638e+00 -4.24255840e-02  8.50865960e-01
  -6.30522847e-01 -6.60905719e-01  9.69432108e-03 -8.44714567e-02
  -7.87954628e-01  4.00440246e-02 -8.58081758e-01  7.06030846e-01]
 [-1.13724983e+00  3.72738808e-01 -2.81546164e+00  1.02112330e-01
   1.07030022e+00  1.41829312e-01  5.47579944e-01 -3.53617728e-01
   1.11984670e+00 -1.33414017e-02  1.55287946e-03 -3.56502719e-02
   3.10312212e-01 -2.55561471e+00  8.02211523e-01  1.46786928e-01
   2.48076227e-02  4.91742671e-01  1.50738761e-01  1.85795411e-01
   1.34602547e-01  2.24630147e-01  4.21099216e-02 -1.22099733e+00
  -3.20639089e-02  2.84305215e-01 -9.54219937e-01 -1.13119018e+00
  -1.50781989e-01  4.57808137e-01  1.47351354e-01  1.93073726e+00
   3.78675386e-02 -1.15768025e-02 -3.86199206e-01 -3.00309751e-02
  -3.64325523e-01 -2.72617817e+00 -1.26653588e+00  5.47327027e-02
  -1.25633645e+00 -7.49130100e-02  4.07698415e-02  5.84658086e-01
  -2.73642782e-02 -2.08480448e-01  4.30440605e-02 -4.13615614e-01
  -3.75098109e-01  6.02371395e-01 -1.22431123e+00  4.57020432e-01
  -6.51169479e-01 -4.32695113e-02  4.77745265e-01 -8.58156145e-01
  -4.92954075e-01  6.77756906e-01 -1.22218001e+00 -2.51369095e+00
   1.71764657e-01 -6.18913889e+00  4.69486415e-01 -9.85103101e-02
   5.64229153e-02  7.89313138e-01 -4.93743747e-01  5.97285151e-01
  -2.96151191e-01 -4.35112000e-01  4.96976562e-02 -2.52829027e+00
  -1.09416261e-01  3.59553657e-02  7.06408098e-02  3.28126311e-01
  -4.81746614e-01  4.82768379e-02  1.24385655e-01  3.34844887e-02
   1.33119985e-01  6.36024594e-01  5.54207683e-01 -2.62207836e-01
  -8.78786087e-01  5.21156669e-01 -1.16325057e+00  2.64087617e-01
   3.10677886e-01 -1.50940144e+00  1.34882197e-01  1.47654426e+00
  -2.48304367e-01  4.96054888e-01  6.71387825e-04 -6.66794896e-01
  -6.39854148e-02 -1.21345967e-01 -7.43696168e-02  3.03295344e-01
  -5.68253899e+00  3.61851931e-01 -5.17474937e+00 -7.24783726e-03
  -4.83486474e-01 -6.88658476e-01  7.03569770e-01  5.78453362e-01
   4.49135125e-01  5.69231212e-02 -2.27694297e+00  5.83461262e-02
  -5.63946772e+00 -3.70921254e-01 -3.41779768e-01  8.02124679e-01
   3.32968056e-01  9.82063472e-01  1.85899556e-01  6.82860985e-02
  -1.06719963e-01 -7.72654116e-01 -2.72956491e-02 -8.73770237e-01
  -2.64451236e-01 -2.54181284e-03  7.47441709e-01  2.39648446e-01]
 [ 1.05067229e+00 -8.69408399e-02 -2.45333982e+00  4.34078602e-03
   1.04932046e+00 -1.34427905e-01  1.02834217e-01 -2.50836074e-01
  -4.36431736e-01 -1.04373917e-02  1.09705627e+00 -1.03650868e+00
  -9.97070447e-02 -1.74960244e+00 -1.70850173e-01 -2.47498855e-01
  -4.16162238e-02 -7.45831192e-01  6.08094573e-01  6.36609457e-03
   5.00376105e-01  1.06104994e+00  1.49482554e-02 -1.38076931e-01
   3.63579951e-02  1.39049917e-01  1.17418796e-01 -5.22543192e-01
  -3.55560422e-01 -8.38881493e-01  9.71752286e-01  1.72397375e+00
  -1.44159511e-01  6.06060624e-02  5.58078706e-01  1.02645280e-02
  -3.43508795e-02 -2.07641673e+00 -5.68988979e-01 -2.14952277e-03
  -1.33013773e+00 -9.11713615e-02 -2.62342215e-01  9.57192406e-02
   2.38322318e-01  4.61632401e-01  4.27497039e-03 -5.39518893e-01
   5.78986585e-01  5.82249463e-01 -9.18863654e-01  8.73956919e-01
   1.27074942e-01  1.52932154e-02  3.16690534e-01 -8.63449872e-01
  -1.73869789e+00  2.45913252e-01 -3.04384708e-01 -2.39901400e+00
  -8.57893229e-02 -5.62529707e+00  2.76906371e-01 -6.95598051e-02
  -5.72043424e-03  4.96512279e-02 -3.08441490e-01  1.59574509e-01
  -9.69734229e-03 -1.98830873e-01 -8.22477713e-02 -1.62098539e+00
  -4.31130379e-01 -6.57955259e-02 -4.51034643e-02  5.30979156e-01
  -2.43131787e-01  2.53684938e-01  6.38573766e-01 -4.98572551e-02
   5.49462020e-01  4.67567831e-01 -8.56612504e-01 -1.10090829e-01
  -7.01600850e-01  3.55779827e-01 -1.78096163e+00  6.62147999e-04
   1.00555837e+00 -8.43332887e-01  2.80067652e-01  8.47445428e-01
  -3.86236273e-02  1.09864438e+00  2.38848366e-02  3.91890295e-02
  -2.83078671e-01  1.30654588e-01  2.73570661e-02 -5.52451909e-01
  -3.03891444e+00 -9.84053984e-02 -3.97824883e+00 -1.86433032e-01
   1.58365861e-01  7.60821551e-02 -5.27281344e-01 -4.03555989e-01
  -1.43106535e-01  4.41841036e-02 -3.01587415e+00  1.02478666e-02
  -7.48919058e+00  5.15357673e-01 -1.48495936e+00  9.65748012e-01
  -1.82547256e-01  6.50289536e-01  7.33234212e-02  3.11757028e-01
  -4.96318936e-01 -7.34860361e-01 -5.71977459e-02  2.07054108e-01
  -5.47980785e-01 -4.64356355e-02  3.20210189e-01  5.60816169e-01]
 [ 7.98725337e-02 -4.52856906e-02 -3.26292038e+00  3.68266165e-01
   8.44066262e-01  7.10729659e-01 -1.53474912e-01 -6.26594603e-01
  -3.91853958e-01 -6.17059646e-03  6.47398651e-01 -1.12150025e+00
   5.53914309e-01 -1.06119192e+00 -3.72941643e-01 -7.78351128e-02
   6.42815977e-02 -2.43414938e-01 -2.37030953e-01  1.82637066e-01
   1.06042278e+00  7.29578316e-01  2.83616073e-02 -2.81801283e-01
   3.50013226e-02  3.69754106e-01  1.00814688e+00  9.73530412e-02
  -7.60006666e-01 -2.02309117e-01  7.24255025e-01  3.48845631e-01
   2.58245375e-02  4.95275296e-02  3.49892765e-01  6.83978572e-02
   1.30760018e-02 -2.60880709e+00  2.81935483e-01  4.53124605e-02
  -1.28403080e+00  1.57093089e-02 -4.45579775e-02  1.37567043e-01
  -2.83136606e-01  5.00140429e-01  2.57497523e-02 -1.55377120e-01
   2.53511727e-01  1.87340125e-01 -1.28425777e+00  1.26601756e+00
  -6.13301061e-02 -6.86218739e-02  7.86990583e-01 -4.82328981e-01
  -1.73234212e+00  3.26054811e-01 -2.16066480e+00 -2.62480593e+00
  -1.22549593e+00 -6.58332253e+00 -3.61613296e-02 -1.90912001e-02
  -8.38482846e-03  2.06103921e-01  7.75502384e-01 -4.99863088e-01
   4.42696899e-01  6.01185501e-01  2.32186764e-02 -8.10306147e-02
  -6.41521633e-01 -1.90635044e-02 -3.45200934e-02 -1.35214105e-01
   4.95549351e-01  4.97442305e-01  5.02539158e-01  6.55343698e-04
   4.43343341e-01 -1.64945170e-01 -2.60722184e+00  8.72485697e-01
  -7.68706262e-01  1.21248335e-01 -2.18600416e+00  9.55993459e-02
   2.72987962e-01 -4.94167119e-01 -1.87758282e-01  3.99745017e-01
   5.44030488e-01  6.01664543e-01  4.51518893e-02 -4.53194650e-03
  -4.30586129e-01  4.82933432e-01 -5.47448285e-02 -1.09483993e+00
  -3.52652693e+00  1.65276229e-01 -2.93467665e+00 -3.85961652e-01
   2.25905642e-01  5.64512908e-01  7.98571855e-02 -1.01031087e-01
   1.17302816e-02  5.32696694e-02 -4.25778818e+00  1.68267712e-02
  -7.47450876e+00  4.77403790e-01 -1.85084546e+00  3.81016672e-01
  -1.00541979e-01  1.09607339e-01 -1.60350829e-01  2.02707320e-01
   2.09965140e-01 -1.01124430e+00  7.13359416e-02 -8.29467401e-02
  -5.75307012e-01 -9.16163847e-02  6.75438046e-01 -4.38615203e-01]
 [ 1.06280541e+00  2.41717666e-01 -2.20651054e+00  1.39426559e-01
   7.07694948e-01  1.08976519e+00 -5.39656162e-01  7.54509587e-03
  -1.47291273e-01  7.04066157e-02 -1.63368523e-01 -6.02240920e-01
   7.15250373e-01 -1.31401980e+00 -7.00896263e-01  6.06532842e-02
   7.02696890e-02  1.79153025e-01 -3.44320953e-01  7.33146220e-02
   7.43395746e-01  1.02187824e+00  4.91396487e-02 -5.98637223e-01
  -8.39753896e-02  3.27228904e-02  1.23855257e+00  1.14423025e+00
  -5.09733379e-01  1.89638123e-01  8.76969039e-01  8.91754553e-02
  -2.05935538e-01  3.49878930e-02  4.58238125e-01  6.95636496e-02
  -1.00849710e-01 -2.61110687e+00  8.40333641e-01  3.43466774e-02
  -1.23893344e+00 -3.44087109e-02 -3.34471643e-01  1.46339357e-01
   1.07004978e-02  5.65754294e-01  5.17891720e-02 -1.98184252e-01
  -6.44689873e-02  5.04891574e-01 -2.09382195e-02  9.59850013e-01
  -1.30779281e-01  1.38456165e-03  1.12482893e+00 -3.25798482e-01
  -1.29854751e+00  3.98949951e-01 -2.21963668e+00 -3.83090806e+00
  -1.69267201e+00 -6.82075167e+00  2.86082268e-01  5.33287525e-02
  -8.59789774e-02  5.06584942e-01  5.89601099e-01 -5.23949921e-01
   8.93405020e-01  9.56276476e-01 -7.56487027e-02  3.05910170e-01
  -4.64084476e-01 -4.53923531e-02 -2.23128386e-02 -7.25115001e-01
   3.70718569e-01  5.07970333e-01 -3.29237729e-01 -2.14541554e-02
   3.53454918e-01 -9.42166209e-01 -2.56883454e+00  2.94105113e-01
  -3.92864615e-01  3.05106249e-02 -2.19197702e+00  4.01368827e-01
  -1.34263545e-01 -1.03788924e+00 -9.92629111e-01  6.97119653e-01
   3.78168225e-01  7.70718157e-01 -3.05987354e-02  7.56400973e-02
  -1.33577853e-01  2.63479173e-01  3.36431675e-02 -1.33199692e-02
  -1.81592774e+00  4.92207289e-01 -1.46177900e+00 -4.63912994e-01
   8.01285952e-02  4.15478498e-01 -3.26526277e-02  4.43664432e-01
   2.24769309e-01  9.32959840e-03 -3.70418167e+00  6.68429434e-02
  -7.93266249e+00  3.97309840e-01 -1.66871583e+00 -6.70597479e-02
  -2.90324613e-02  4.81212348e-01  5.83791554e-01  6.79800987e-01
  -1.49705559e-01 -1.12455297e+00 -1.87808983e-02 -6.05688334e-01
  -7.51921535e-01 -7.16443919e-03  4.68441546e-01 -3.92003149e-01]
 [ 2.22449020e-01 -2.02516355e-02 -1.74059331e+00  7.35010877e-02
   7.07455099e-01  4.38561797e-01  1.65655315e-02 -1.42303050e-01
  -3.20081770e-01 -7.43466392e-02  6.93456352e-01 -5.27366102e-01
   3.59667391e-01 -3.17048341e-01 -1.90766245e-01  1.00109942e-01
   6.37850091e-02 -8.79714131e-01 -6.08454756e-02  1.42906114e-01
   8.28276947e-02  6.28868639e-01 -5.88904843e-02 -1.01805735e+00
  -1.17574207e-01  7.83478618e-01  2.39034638e-01  6.16751075e-01
  -5.86858869e-01 -7.22677037e-02  1.17016578e+00  8.15959394e-01
  -3.33036721e-01  4.47891988e-02  3.00659895e-01 -5.44068851e-02
  -6.98672175e-01 -2.14605832e+00  2.63915300e-01 -2.20967811e-02
  -1.53983581e+00  3.24506052e-02  4.78125997e-02 -2.23478332e-01
  -1.56208754e-01  5.05598307e-01  4.06497121e-02 -8.73315781e-02
   5.64431369e-01 -4.50310111e-02 -1.47428140e-01  5.23907244e-01
   1.41895920e-01 -3.81573252e-02 -3.88789475e-02 -5.17608702e-01
  -1.42585385e+00  1.67810507e-02 -2.89704776e+00 -4.02270699e+00
  -9.56281126e-01 -7.85631943e+00  2.58416861e-01 -2.07094066e-02
  -1.01108402e-01 -2.36234561e-01  1.26844466e-01  1.20090175e+00
   1.63964882e-01  2.71919161e-01  2.27390323e-02  2.12317407e-01
  -5.73615432e-01 -3.34235281e-02 -1.66686140e-02  2.90965885e-01
   4.77084726e-01  3.17830443e-01  1.95045277e-01 -2.98020840e-02
   5.03285408e-01  2.77223051e-01 -1.28869021e+00 -5.17111659e-01
  -1.15514663e-03  1.23116761e-01 -2.14156032e+00  3.23998004e-01
  -3.25965911e-01 -2.23949528e+00 -7.21441746e-01  5.15413105e-01
   1.86749578e-01 -1.58845395e-01 -8.32848400e-02  6.64563239e-01
  -2.58797348e-01  4.80441779e-01 -5.31588905e-02 -5.44314325e-01
  -1.01967406e+00 -1.96377516e-01 -1.66263509e+00 -2.47623637e-01
  -7.12157637e-02  5.47862589e-01 -5.46318516e-02 -2.07878873e-01
   1.42182782e-01 -1.59960464e-02 -2.89656878e+00  5.66122085e-02
  -8.45013428e+00  4.19932395e-01 -1.38562179e+00  6.05103850e-01
   8.40418339e-02  2.29404062e-01 -1.65019736e-01  4.58234102e-01
   4.02436674e-01 -1.06453788e+00  7.48270452e-02 -4.42082405e-01
  -1.86183184e-01  1.38365636e-02  2.08014891e-01 -3.97998482e-01]
 [-3.22346032e-01  1.41086161e-01 -3.37684661e-01 -2.08061445e-03
  -1.95134223e-01 -3.30809951e-02 -3.65100890e-01 -4.47453707e-02
  -7.15138838e-02 -7.20937643e-03 -2.04148024e-01  4.30636369e-02
   4.50005054e-01  2.50702146e-02 -2.02473819e-01  5.12970150e-01
  -4.03941348e-02  9.14702832e-05 -1.59767456e-02  3.77629668e-01
  -1.88120171e-01  8.57538462e-01 -7.61975497e-02 -1.52657759e+00
  -9.75653753e-02  6.30356908e-01  2.76626110e-01  9.52559859e-02
  -1.16314363e+00  5.70053328e-03  3.29806149e-01  1.57890582e+00
  -3.96080911e-01 -2.87772045e-02 -7.93337822e-02  5.05101122e-02
   4.75359559e-02 -9.36538517e-01 -4.41078395e-01 -6.20156154e-03
  -2.26041794e+00 -5.13304174e-02  7.54326105e-01 -1.84475154e-01
  -5.09225905e-01 -6.00872934e-01 -7.15403333e-02 -8.59628797e-01
  -2.19605923e-01  3.93793099e-02  1.32430643e-01 -1.00888669e+00
  -1.66387111e-01 -3.52115743e-02 -6.12939261e-02 -5.08578539e-01
  -8.64946485e-01  4.63754773e-01 -2.88613248e+00 -2.53632474e+00
  -4.37830895e-01 -6.14099550e+00  1.49413748e-02 -3.37246433e-02
   3.82092744e-02 -2.19144538e-01 -2.60223478e-01 -7.37341344e-02
  -1.50538921e+00 -3.88583392e-01  1.92526300e-02  2.66466618e-01
   3.93721648e-02 -6.94422275e-02 -1.01701073e-01  3.19408655e-01
  -2.86102574e-02  5.11017025e-01  3.66722792e-01  1.62438897e-04
   1.07294038e-01 -5.26843444e-02  7.39246428e-01 -2.87223101e-01
  -6.19100928e-01  2.78231263e-01 -2.47043705e+00  1.72913253e-01
  -3.20562303e-01 -2.94449615e+00 -2.92212391e+00  1.07246733e+00
  -3.02563965e-01  3.37944061e-01  6.70672022e-03  2.55290508e-01
   3.45935553e-01 -2.21536681e-01  4.20375131e-02 -5.53150415e-01
  -1.43879592e-01 -6.61925495e-01 -7.89357722e-01 -1.77946016e-01
  -3.56285304e-01  6.14511222e-02  6.76578760e-01  2.33773246e-01
   3.99981976e-01 -7.61282817e-02 -2.29285264e+00 -5.69141954e-02
  -5.57137489e+00 -8.29950795e-02 -1.40136194e+00  3.53518754e-01
   1.95240903e+00 -1.68389514e-01  6.11740291e-01 -8.10203627e-02
   6.07366502e-01 -7.43503347e-02  6.40528351e-02 -3.30030113e-01
   1.24719536e+00 -1.07764937e-01 -2.32253492e-01 -2.84922719e-01]
 [-1.76987004e+00 -1.96063817e-01 -1.42720258e+00 -1.88601110e-02
   3.46598059e-01 -1.79201886e-01 -5.56082949e-02  1.30791473e+00
   4.07239914e-01 -2.80020367e-02 -4.55656260e-01  9.26048636e-01
   7.66142786e-01 -2.05592632e-01 -4.04536158e-01  4.68817204e-01
  -9.94275510e-03  5.72194576e-01 -2.01413602e-01  1.85105398e-01
   3.24960649e-01  7.28053629e-01  4.45734523e-02 -2.12923384e+00
   5.04008820e-03  7.38452554e-01  8.34784448e-01 -9.27293748e-02
  -1.94470930e+00  7.06775486e-01 -1.11651488e-01  7.92272329e-01
  -3.06061506e-02 -8.49949643e-02 -4.29109484e-01  1.78458448e-02
   2.20472559e-01 -1.12745762e+00  1.15333664e+00 -4.75746058e-02
  -2.91652632e+00 -5.35527728e-02  1.06289244e+00  5.63510537e-01
  -1.03279972e+00  4.18782681e-02 -2.14620098e-03  6.46982312e-01
  -8.66533443e-02 -1.73838601e-01 -5.87024808e-01 -5.76257408e-01
  -1.58216134e-01  4.46604518e-03 -3.30714136e-01 -2.25738566e-02
  -1.02832901e+00  6.56115294e-01 -7.41613269e-01 -1.49149156e+00
   4.66921002e-01 -6.33735895e+00 -3.44680101e-01  9.97437444e-03
  -1.24305710e-02 -7.25135922e-01 -1.09784806e+00 -2.78881490e-01
  -1.78716588e+00 -9.22311723e-01 -9.02335197e-02  4.10924293e-02
   2.42813975e-01  4.45810929e-02  3.82287847e-03  2.78030872e-01
   4.75080013e-02  1.73762858e-01  1.11372232e+00 -9.64284763e-02
   2.24681765e-01  2.74346620e-02  9.70374763e-01 -3.84790897e-01
  -1.26111472e+00  3.04485053e-01 -2.47577715e+00  1.47574067e-01
   2.53368199e-01 -3.42164135e+00 -5.77414465e+00  7.45217681e-01
  -5.76280475e-01  2.89587319e-01 -5.29517569e-02 -8.30737650e-01
  -7.02748969e-02 -2.87240148e-01 -8.90580863e-02 -2.20234513e-01
  -1.29008129e-01  5.58052585e-02 -5.00478625e-01  2.15150103e-01
  -3.37905109e-01 -5.41333556e-01  1.42629027e+00  4.42451388e-01
   1.03952897e+00 -1.04078455e-02 -2.85389400e+00 -6.17452972e-02
  -4.57796097e+00  4.71179545e-01 -1.36124599e+00  3.16683739e-01
   8.14153671e-01  4.72333074e-01  1.60355374e-01 -5.49219310e-01
  -1.25720456e-01 -3.83761436e-01  2.13827286e-02 -5.60158372e-01
  -6.53824747e-01 -3.81844724e-03 -5.47165990e-01 -6.65454507e-01]
 [-2.12368488e+00 -5.39793313e-01  1.12313898e-02  6.30650520e-02
  -1.38390243e-01  5.27193308e-01  3.25607181e-01  1.36979592e+00
  -3.17072183e-01 -5.40714711e-02 -8.26678216e-01  3.04426372e-01
   9.61196363e-01 -8.54500592e-01 -6.48051977e-01  4.75137651e-01
  -5.20967357e-02  5.80407441e-01 -6.98471844e-01 -1.05049825e+00
  -1.76127851e-02  1.72866940e+00 -1.67349237e-03 -1.75299537e+00
  -3.24986763e-02 -4.66802865e-02  1.03527494e-01 -3.83961976e-01
  -4.33846903e+00 -7.27861583e-01 -1.30511224e+00  4.46192741e-01
   1.02233112e-01 -4.34623063e-02 -3.35295111e-01 -5.88834509e-02
   6.48443222e-01 -1.86953938e+00 -5.07571042e-01 -4.54201773e-02
  -3.80228257e+00 -2.94830762e-02  7.16651618e-01 -1.79317236e-01
  -9.37957287e-01 -2.84129590e-01  6.04447573e-02 -2.28525952e-01
  -3.35928380e-01 -4.24392045e-01  6.50265396e-01 -4.57690567e-01
  -8.29345107e-01 -5.74322157e-02 -5.57617128e-01 -4.83871102e-01
  -5.05033076e-01 -1.56801045e-02 -1.01909113e+00 -9.27572727e-01
  -8.50850046e-02 -4.44915438e+00 -3.35691988e-01  3.50275896e-02
  -3.03978324e-02  1.98620692e-01 -1.01472485e+00  2.31429413e-01
  -2.26482844e+00 -6.23125613e-01 -1.31657161e-03  2.99032241e-01
  -2.08426148e-01 -3.46305035e-02 -7.73003846e-02  5.86533546e-01
  -1.64415076e-01  2.10747361e-01  5.61756134e-01 -1.59200802e-02
  -2.63450325e-01 -6.14716187e-02  9.02249992e-01 -1.81677371e-01
  -6.56662822e-01 -1.07823454e-01 -2.88157749e+00  3.27573270e-01
  -7.63343088e-03 -3.07118821e+00 -8.24023342e+00  6.47675335e-01
  -1.60901740e-01 -5.26964128e-01  4.35497845e-03  1.78138137e-01
  -7.28137136e-01  2.73115803e-02 -9.69312266e-02 -1.22143734e+00
   9.48116958e-01  5.55780679e-02  3.47627252e-01 -1.03789335e-02
  -2.87158310e-01  5.17653264e-02  3.78110260e-01  8.73531640e-01
  -4.01246687e-03  5.75068407e-03 -2.11116266e+00  2.76240855e-02
  -5.12413120e+00 -3.15875143e-01 -4.18968588e-01  1.01054236e-01
  -4.35832262e-01  9.69355822e-01 -1.13505051e-01 -9.40971971e-01
   1.90494582e-01  5.29020607e-01 -1.79577805e-02 -2.54960954e-02
   3.97909015e-01 -1.17632397e-01 -1.47319186e+00 -5.20737827e-01]
 [-2.20177078e+00 -9.65491295e-01 -1.35395908e+00  3.98268729e-01
  -3.80432427e-01  1.81549740e+00 -6.19263342e-03  1.00891793e+00
  -1.05951262e+00  2.82088239e-02 -6.44659519e-01 -6.36148512e-01
   3.60322565e-01 -3.51029664e-01 -1.18908572e+00  5.23631096e-01
  -4.61717248e-02  8.79918337e-01  6.41108394e-01 -1.69198573e+00
  -5.91865420e-01  5.24707615e-01  3.19075845e-02 -9.12154317e-01
  -9.09715332e-03  3.07548404e-01  3.29472810e-01  8.17119181e-02
  -4.89197493e+00 -7.05085993e-01 -1.52359331e+00  2.69749671e-01
   6.96706653e-01 -3.66293192e-02  3.13460439e-01 -3.32459509e-02
   8.37068081e-01 -1.23493958e+00 -1.72048390e+00 -4.46556695e-02
  -4.64021635e+00 -6.04331074e-03  1.78525642e-01  1.22695875e+00
  -1.30895567e+00 -8.10773551e-01  7.02499673e-02 -9.08534884e-01
  -4.47466671e-01 -4.26793218e-01 -4.48348075e-01 -1.10247421e+00
   3.76427740e-01  7.79870749e-02 -6.06485963e-01  5.78047276e-01
  -3.36691469e-01 -2.53296494e-01 -3.20732379e+00 -2.13813925e+00
  -5.18276930e-01 -3.72217393e+00 -2.74853915e-01 -7.03362525e-02
   1.57983284e-02  1.53123665e+00 -7.98821151e-01  1.51943997e-01
  -2.28788376e+00 -6.42415285e-01  6.85230084e-03  1.10515058e+00
   1.44187391e-01  5.73019944e-02 -5.89350089e-02  2.68531471e-01
  -1.04391485e-01  5.00786960e-01  5.66684827e-02 -3.46743762e-02
   1.60376698e-01 -1.19888633e-02 -8.38841915e-01 -3.97303365e-02
  -9.72634614e-01 -2.79087901e-01 -2.74179387e+00 -8.79071712e-01
  -4.07075673e-01 -1.86422598e+00 -7.45161819e+00  1.11987054e+00
   2.30548903e-01  6.74228743e-02 -7.80339167e-02 -4.63226944e-01
  -1.30128607e-01  1.90433562e-01  3.94800939e-02 -7.15199113e-01
   6.25594407e-02 -8.63921121e-02  4.74230153e-03 -5.56429029e-01
   4.34368074e-01  1.01695490e+00 -1.02240598e+00  7.54175067e-01
  -9.86868516e-02 -2.64116214e-03 -2.51002598e+00  6.69856817e-02
  -4.41592550e+00 -3.08657855e-01 -2.25920737e-01  2.78875738e-01
  -1.11012518e-01  3.50430310e-01 -1.32972822e-01 -1.62149262e+00
   2.08697170e-01 -2.90238410e-01  6.49032295e-02  7.15316594e-01
  -4.34235781e-01 -2.82160807e-02 -8.14027369e-01 -6.74263537e-01]
 [-3.09952974e+00  3.43086362e-01 -7.65403450e-01 -7.42799282e-01
  -1.58551961e-01  1.60084820e+00  4.75522906e-01  5.65599263e-01
  -8.60677063e-02 -6.06034137e-03 -5.29283702e-01 -3.55683297e-01
   1.53166807e+00 -1.31098807e-01 -2.17951179e+00  5.00249088e-01
   4.29225042e-02  8.04557025e-01  5.93086839e-01 -3.91322279e+00
  -6.81498408e-01 -6.41350402e-04  1.75608844e-02 -2.08769679e+00
  -1.13282807e-01  6.26071095e-02  6.45897806e-01  1.30998373e+00
  -4.80030012e+00  3.06620039e-02 -9.68764305e-01  9.19071257e-01
   1.83919281e-01 -3.47312056e-02 -5.35854757e-01 -8.98617730e-02
   9.06673014e-01 -1.11166453e+00 -2.26367331e+00 -6.63181245e-02
  -4.19966936e+00 -1.01400226e-01 -6.15302622e-02  8.30284119e-01
  -1.43974543e+00 -1.58553326e+00  1.37209035e-02  1.28352195e-01
   2.23116621e-01 -1.37898743e-01 -7.97244012e-01 -2.58435822e+00
   3.92258346e-01 -4.07025665e-02 -1.50920581e-02  6.62485659e-01
  -8.30097020e-01 -1.23080425e-01 -2.14666986e+00 -2.13243508e+00
  -1.11548924e+00 -2.12453580e+00 -7.04607368e-01 -5.99115454e-02
  -3.90720256e-02  9.28940594e-01 -1.66442740e+00 -6.31774664e-01
  -1.54534543e+00 -5.40652871e-01 -4.75555994e-02  1.24991405e+00
   1.07555434e-01  2.47350745e-02 -2.45582666e-02  7.69835293e-01
   3.81311089e-01  7.84954786e-01 -2.03832552e-01  1.17279934e-02
   4.90142375e-01 -4.34125990e-01  9.75696146e-01  2.97056675e-01
   1.51650000e+00 -1.38319969e-01 -2.29607034e+00  2.02582330e-01
  -2.57268578e-01 -2.60661721e+00 -5.33461046e+00  1.97428644e+00
   1.40192002e-01 -3.88119489e-01 -5.33041507e-02 -3.27504784e-01
   2.16510072e-01  3.23515326e-01 -2.26963102e-03  4.27479036e-02
  -6.87109590e-01 -2.82400250e-01  2.41550162e-01  2.24433973e-01
   5.35104752e-01  1.26754940e+00 -6.84993804e-01 -3.75021286e-02
   5.75321674e-01  8.84834863e-03 -2.42783141e+00 -4.84523438e-02
  -2.60640049e+00 -2.52547532e-01  7.56118834e-01  3.97418022e-01
  -4.74560231e-01 -5.00532724e-02  1.39550912e+00 -2.15102887e+00
  -5.09054288e-02  3.68329585e-02  4.52432334e-02  4.81153786e-01
   4.66171890e-01 -9.27655324e-02 -1.35597384e+00 -1.30396581e+00]
 [-9.24243450e-01  7.36553192e-01 -7.52308905e-01 -4.16746587e-01
   1.73089635e+00  2.06418231e-01  1.82961032e-01  4.04205203e-01
  -7.11682290e-02 -4.72394302e-02  1.52583554e-01  3.02328825e-01
   1.20884907e+00  3.44508253e-02 -6.68271482e-01  2.10793209e+00
   3.53149585e-02  1.76812398e+00 -1.31978011e+00 -3.45846581e+00
   4.99993982e-03  3.51773411e-01  6.46725073e-02 -1.54970932e+00
  -4.96995151e-02  1.19108891e+00  1.29409361e+00  8.33108902e-01
  -3.71461821e+00 -4.09498483e-01 -2.63720536e+00 -6.87822223e-01
  -1.60618269e+00 -7.53736496e-02 -4.00080681e-01 -4.77063991e-02
   6.89114809e-01 -6.19782880e-02 -7.29614913e-01 -3.69729996e-02
  -3.54776645e+00 -3.65622118e-02  1.42494544e-01  7.39709437e-01
   2.47665688e-01 -8.79686892e-01 -2.60193162e-02  2.47372222e+00
   3.66295189e-01 -4.11385447e-01 -6.11212432e-01 -6.62026227e-01
   4.92383510e-01 -5.81444725e-02 -6.53096855e-01 -6.29752934e-01
   1.72064919e-02 -2.55400211e-01 -3.87585497e+00 -1.10257173e+00
   3.51463050e-01 -1.85259986e+00  1.38279051e-01 -7.25168139e-02
   6.05883189e-02  4.54462856e-01 -7.15104103e-01 -1.15304381e-01
  -9.38409030e-01 -3.80228162e-01 -4.12964486e-02  9.13981080e-01
   4.78592664e-01 -1.72531195e-02 -1.81913115e-02 -1.08337849e-01
   1.16372824e+00  3.13639432e-01 -1.12556279e+00 -6.76799491e-02
   1.56674623e+00  4.06581134e-01  5.06706357e-01 -3.84115994e-01
   6.20485663e-01 -3.25215235e-02 -2.17848420e+00 -3.22036833e-01
  -5.36192477e-01 -2.02071905e+00 -3.21811080e+00 -3.08643222e-01
  -8.24621141e-01  1.83932036e-01 -7.00161532e-02  1.02834404e+00
   3.19907814e-01 -5.53221345e-01  4.20717821e-02  2.87967231e-02
   3.68332744e-01 -7.62845635e-01  3.58171076e-01  1.17533481e+00
   4.30719823e-01  6.02872074e-01 -4.42034513e-01  1.99716672e-01
   1.02617741e-01 -1.08567581e-01 -2.44723558e+00  6.39383197e-02
  -4.48114824e+00  6.41519785e-01  1.33498609e+00  1.39791226e+00
  -4.71722633e-01  7.81476796e-01 -6.58250213e-01 -4.05459452e+00
   2.08618432e-01 -8.47566009e-01 -6.03500381e-02 -2.78838038e-01
  -5.45749545e-01 -5.17925099e-02 -1.10131109e+00 -5.08218586e-01]
 [ 5.73733687e-01  1.44686386e-01 -8.39653909e-01 -6.92804217e-01
   1.64000779e-01 -1.03698529e-01  4.15274590e-01  5.56969166e-01
   7.08238631e-02 -2.69410573e-02  3.61027390e-01 -2.09929779e-01
   5.05464435e-01 -1.98376924e-01  2.47551546e-01  7.85184145e-01
  -1.09589780e-02 -3.25201124e-01  6.31562948e-01 -5.56676245e+00
   2.09420130e-01 -2.92102814e-01 -7.55484551e-02 -1.81353366e+00
  -1.22030295e-01 -1.67290986e-01  1.14619219e+00  1.09922147e+00
  -4.14359426e+00  7.64110163e-02 -1.26459813e+00  2.84315467e-01
   2.10016206e-01 -1.35835381e-02  6.58072531e-02  5.47439158e-02
   1.11933446e+00  3.93919379e-01 -5.14406145e-01 -9.85747874e-02
  -3.33877110e+00  1.61347818e-02  1.30235255e+00 -1.14694282e-01
  -1.14170678e-01  3.80548358e-01 -1.63933765e-02  1.22997749e+00
   6.31281018e-01 -6.29028156e-02  1.00596714e+00 -1.91210926e+00
  -5.88349998e-01 -8.53771865e-02  3.95160615e-01  4.93095398e-01
   4.23409700e-01  6.74902201e-01 -3.67816830e+00 -6.37327492e-01
   1.10170507e+00 -1.63556921e+00 -9.38887596e-02 -7.38079324e-02
   6.58483356e-02  5.23926198e-01 -2.96401680e-01  1.35151654e-01
  -1.02134514e+00 -3.31506401e-01 -1.94098353e-02  8.23756576e-01
   6.55933559e-01 -8.73256661e-03 -1.48071479e-02 -6.43022299e-01
   2.40343466e-01  1.11537099e-01  1.81822076e-01 -1.16990402e-01
   1.96818745e+00  4.60067183e-01 -9.15659189e-01 -8.51513505e-01
  -6.36491776e-02 -1.71478406e-01 -1.44604266e+00 -6.92321897e-01
  -5.85672027e-03 -8.44536364e-01 -1.56180465e+00  1.11464417e+00
   4.21126992e-01 -6.70464158e-01 -5.35397306e-02  4.05945957e-01
  -1.97870657e-01 -7.60305226e-01  5.79989888e-02 -5.47698021e-01
  -6.37071908e-01  4.22392040e-02 -4.43365097e-01 -5.99671721e-01
   4.30696160e-01  9.33693767e-01  4.13279682e-01  1.55457109e-02
  -3.47760767e-01  1.73395069e-03 -2.18753815e+00  8.68156087e-03
  -4.75087500e+00 -1.20562923e+00 -2.37207059e-02  9.46701825e-01
  -5.79132020e-01  4.45529461e-01 -1.17577398e+00 -5.51958656e+00
   7.17442751e-01 -1.02254534e+00 -1.56270340e-02 -1.56746280e+00
  -1.24658275e+00 -8.46309587e-02  2.92414069e-01  1.74958736e-01]
 [-7.78747261e-01 -6.39765680e-01  1.39712954e+00 -5.11172533e-01
   5.60690165e-01 -1.87248850e+00  2.43613267e+00  9.41408217e-01
   1.03298974e+00 -4.05072346e-02  1.99432051e+00 -1.95680391e-02
   1.22576606e+00  2.70387143e-01  5.50121069e-01  9.57265258e-01
  -2.14041639e-02  2.71274954e-01 -5.52806675e-01 -5.77965117e+00
   3.78321052e-01  1.17613661e+00 -1.36169912e-02 -1.57402968e+00
  -5.26450835e-02  2.59662062e-01  5.79693206e-02 -2.06187312e-02
  -3.86239219e+00 -2.73406744e-01 -9.11671519e-01  4.42262053e-01
  -4.78511125e-01  3.77643555e-02 -1.55378893e-01  7.02728629e-02
   7.26349771e-01  2.09247923e+00 -6.43928647e-01 -6.31634798e-03
  -3.27389383e+00  8.47692881e-03  3.56944986e-02  1.47273231e+00
  -6.93277717e-02 -3.38419557e-01 -1.92449661e-03  7.66616821e-01
   2.98880279e-01  3.31039011e-01 -1.78373471e-01 -1.35358083e+00
  -6.06539547e-02 -1.20861987e-02  1.17956102e-01  1.80012167e-01
   3.14705968e-01 -7.20811903e-01 -5.16126585e+00 -8.91492009e-01
   2.19731045e+00 -3.29888558e+00  9.88035142e-01 -1.03525750e-01
   4.81493957e-02  1.07100062e-01 -5.27146161e-01 -7.65528262e-01
  -1.96378124e+00 -6.52251005e-01 -9.01233405e-02  1.04559350e+00
   9.69662070e-01 -4.34209220e-03  1.30082872e-02  5.06820083e-01
   8.76758933e-01  1.46710575e-01 -1.00922227e+00 -1.01943940e-01
   9.33199584e-01  5.33424735e-01  3.15604270e-01 -6.32887006e-01
  -1.02368915e+00  1.85788065e-01 -9.85913992e-01 -7.97214627e-01
   5.09841979e-01 -1.55249581e-01 -1.17288733e+00 -2.57312506e-01
  -2.57380694e-01  8.49167854e-02 -2.43027508e-02 -3.30568463e-01
  -1.00284457e+00 -8.96426320e-01  6.92311153e-02 -8.24935198e-01
   2.83588111e-01 -3.17047574e-02  7.16496170e-01  1.08675830e-01
  -1.29496545e-01  4.34043437e-01 -6.45864308e-02 -1.10249989e-01
   2.22932935e-01 -6.47406355e-02 -1.98514032e+00  1.63696148e-02
  -4.89154053e+00  8.46760999e-03 -1.79701734e+00 -7.79412091e-02
   2.20980152e-01  8.56801271e-02 -2.29988003e+00 -6.85729313e+00
   1.81789064e+00 -6.21329725e-01 -4.97392118e-02 -1.00126922e+00
  -1.51599121e+00 -9.73509625e-02 -6.56232759e-02  8.71475518e-01]
 [ 4.36644495e-01 -3.07214320e-01 -6.47738338e-01 -5.07033288e-01
   4.82128918e-01 -2.62016803e-01 -1.00716722e+00  1.02402723e+00
  -7.80351877e-01  3.89970243e-02  4.06790189e-02 -1.42366302e+00
   5.81176281e-01 -3.84153128e-02  1.27443397e+00 -1.72310904e-01
  -1.23451352e-02 -2.42392555e-01 -2.65945864e+00 -8.60601616e+00
   4.01785403e-01 -2.79339284e-01  5.33254780e-02 -1.34165645e+00
   3.88731323e-02 -5.25859642e+00 -2.80744016e-01 -3.83549452e-01
  -4.24780703e+00 -2.70463020e-01 -4.95676428e-01  4.91586506e-01
  -2.10232902e+00 -8.64842311e-02  1.44135725e+00 -4.90374342e-02
   7.25938797e-01  8.93385828e-01 -8.55129063e-01 -3.29164742e-03
  -2.88154602e+00  1.29814176e-02  3.59310180e-01 -4.10473794e-01
  -1.95168033e-01  2.68097252e-01 -5.83632616e-03  1.07623792e+00
   4.26152229e-01  1.17503858e+00 -6.67893529e-01 -1.30995142e+00
   4.17363644e-01  4.92670462e-02 -4.75649714e-01 -5.60828030e-01
   4.65160996e-01  3.44704181e-01 -6.18972206e+00 -6.85546249e-02
   9.65532362e-01 -3.15714836e+00 -2.76968181e-01  4.57425788e-03
   2.17627082e-03  1.03640825e-01  1.62302315e-01  7.63682365e-01
  -2.05738688e+00 -4.24889117e-01  1.20986998e-02  2.90110588e-01
   7.58587942e-02  5.01055159e-02  3.83443199e-02  3.36961985e-01
   3.23560089e-01  7.16761410e-01  4.49133933e-01  3.03125158e-02
   2.94450581e-01 -1.26332629e+00  9.90575373e-01 -5.31936698e-02
   5.48364460e-01  7.80399889e-02 -4.42178965e-01 -2.77131975e-01
  -5.30978560e-01 -3.53701860e-01 -1.17698526e+00  2.92313069e-01
  -3.62972990e-02  7.47721791e-01 -5.02072833e-02  1.08808637e+00
   6.61705673e-01  8.83933902e-01 -8.66968930e-02 -6.63869679e-01
   1.43604979e-01  4.14595604e-01  6.41195357e-01  5.98973148e-02
  -3.25884521e-01  4.31932732e-02  3.23370785e-01  3.35614413e-01
   2.64133751e-01  7.87601247e-02 -6.91669047e-01  7.80283436e-02
  -4.17098379e+00  8.77698839e-01 -1.65124729e-01 -1.97697759e-01
   5.40573895e-01 -6.30923081e-03 -7.04859734e-01 -6.84836197e+00
   8.60761642e-01  3.39155532e-02  6.86676381e-03  9.98236388e-02
   5.91586120e-02 -5.38579226e-02 -1.11642110e+00  6.62344933e-01]
 [-6.98481947e-02 -3.94425482e-01  9.90377605e-01 -5.68763137e-01
  -3.12408298e-01 -3.07090729e-01 -6.12765551e-01  2.16839202e-02
   1.46247506e-01 -7.26513565e-02  4.01916385e-01 -5.11347294e-01
  -5.20882189e-01 -7.04578161e-01  1.35431516e+00 -2.02266479e+00
  -5.59578538e-02 -1.72774792e+00 -2.25448537e+00 -8.38701153e+00
  -5.50478399e-01 -2.62237415e-02 -8.47804695e-02 -2.51499724e+00
   2.30615661e-02 -6.73314905e+00  6.02486134e-01 -3.03301103e-02
  -3.53616357e+00  4.60486352e-01  1.87267315e+00  9.61344037e-03
  -9.16550577e-01 -2.54537947e-02  3.11908890e-02  2.89259721e-02
   1.32279789e+00  3.72472912e-01 -2.48852587e+00 -1.43353082e-02
  -2.66505694e+00 -3.00062057e-02  5.70217490e-01 -3.77885133e-01
  -1.08608651e+00 -1.21331848e-01  6.08941726e-02  1.91498622e-01
  -1.21962178e+00  7.01569140e-01  1.17636979e+00 -7.25855350e-01
  -4.34138030e-01  3.12935039e-02  6.74902081e-01 -4.89656895e-01
   4.97097403e-01  4.60303247e-01 -5.94579697e+00 -1.95383012e-01
   8.45505148e-02 -3.76381826e+00  2.69706011e-01 -2.23693755e-02
  -8.09867308e-02  1.21774983e+00  5.35631664e-02 -1.20124233e+00
  -8.73656809e-01  1.57989487e-02  8.01354274e-02  8.95309389e-01
   6.33836031e-01  3.07523012e-02 -2.35350858e-02 -1.12608671e+00
  -9.40727293e-01 -6.59421504e-01 -7.06792176e-01  4.75485064e-03
   1.18895710e+00 -1.12712777e+00  3.33870113e-01  3.66367251e-01
  -6.19005263e-01  2.91323438e-02 -1.98890388e-01 -2.96794742e-01
   1.88290894e-01  4.97006893e-01 -1.45534933e+00  1.99783826e+00
  -2.57557362e-01 -1.10348344e+00 -9.13009644e-02 -1.16858733e+00
   7.46686101e-01  3.33705097e-01  1.63440537e-02  3.32479835e-01
   6.13683164e-01  1.31854582e+00  1.19494355e+00 -3.28631967e-01
  -2.50715166e-01  3.92943829e-01 -2.17665844e-02  8.02377105e-01
  -3.43191385e-01 -1.92951206e-02  7.04326928e-02  3.48445284e-03
  -3.28573823e+00 -8.12598348e-01  1.52811003e+00  4.59313780e-01
  -2.51617208e-02  4.58815873e-01  2.44816735e-01 -6.96022844e+00
   5.43477416e-01  7.29928076e-01  5.46738096e-02 -1.60650659e+00
   1.21048343e+00  2.22280025e-02  9.74254429e-01 -4.45484892e-02]
 [ 1.12239146e+00 -1.60548079e+00  5.52343667e-01  3.10266316e-01
  -8.83400619e-01 -8.41394216e-02 -2.86101508e+00 -1.74773529e-01
   1.08322188e-01 -5.81556372e-02  8.10768664e-01  5.55436790e-01
  -1.97612727e+00 -2.74915546e-01 -7.01413900e-02 -3.46356368e+00
   5.75661436e-02 -8.72585106e+00 -4.39563799e+00 -8.67455101e+00
  -2.04533413e-01  5.86327076e-01 -5.08912951e-02 -1.03176200e+00
  -1.71494242e-02 -5.66550112e+00  1.42322928e-01  7.38283694e-02
  -3.28125834e+00 -1.59350812e+00  5.61411321e-01 -5.20358235e-02
  -1.97043157e+00  7.16516823e-02 -5.67449272e-01  3.48938778e-02
   3.87591094e-01  9.59491313e-01 -1.34843051e+00 -9.63176414e-02
  -1.93394518e+00  3.01742051e-02  1.80684245e+00  4.82822865e-01
  -6.59676492e-01 -9.97362077e-01 -7.58876428e-02  5.68637967e-01
   1.02802980e+00 -1.82682133e+00 -4.07436401e-01 -7.54521906e-01
  -5.70076525e-01 -2.53524110e-02 -3.66826415e-01  1.57968029e-01
   7.85326719e-01 -2.55129480e+00 -5.36707735e+00  2.11768016e-01
   9.39987183e-01 -3.11703181e+00  4.72250849e-01  4.66103368e-02
  -1.68189835e-02  5.97391009e-01  6.60977736e-02  5.10737538e-01
  -1.38134050e+00 -3.02494973e-01  7.84033909e-02 -7.65380800e-01
   1.59647536e+00  1.61751604e-03  3.34447324e-02  5.48126280e-01
  -1.72858521e-01 -8.88086557e-01  1.52206409e+00 -2.58169658e-02
   9.53962684e-01 -7.11205721e-01 -7.45185494e-01  1.80697352e-01
   3.82373124e-01  7.91115835e-02  6.57245889e-02 -5.11145413e-01
  -7.07601547e-01  9.08430636e-01 -1.79000401e+00 -1.10344934e+00
  -5.08978844e-01  2.26587340e-01 -3.67422104e-02  4.36122894e-01
  -8.93159211e-01 -6.86752081e-01  4.32773605e-02  2.94620931e-01
  -2.22709492e-01  4.90891248e-01 -2.86767840e-01  2.23103657e-01
  -7.05693141e-02 -1.17830431e+00  1.17181480e+00 -2.19663188e-01
   3.52760434e-01  5.02334312e-02 -1.32511008e+00 -1.04538705e-02
  -1.76189816e+00  7.09280148e-02 -5.72469592e-01 -5.60786784e-01
   2.08469972e-01  3.37191999e-01 -1.57528353e+00 -7.28023958e+00
   2.67473817e-01 -4.50915933e-01 -5.98060042e-02 -1.79121244e+00
  -1.49016082e+00  3.56488377e-02  2.36245304e-01  1.01034015e-01]
 [ 1.59111917e+00 -2.11898804e+00  7.81880260e-01  5.69239438e-01
  -7.51241982e-01 -3.02841246e-01 -2.56281972e+00 -1.35045433e+00
   1.45553455e-01 -6.95961416e-02  9.10056233e-01 -1.09099579e+00
  -3.69751120e+00  1.31351042e+00  5.58252573e-01 -6.40127802e+00
   5.22882305e-02 -1.20873699e+01 -4.21054649e+00 -9.10208893e+00
  -3.27095129e-02 -1.36746883e-01 -3.72790396e-02 -2.18591309e+00
   4.81291078e-02 -7.06713486e+00  1.16673447e-01  2.49221116e-01
  -2.52555871e+00 -1.48459947e+00  2.41309285e-01  1.38186383e+00
  -6.35817671e+00  2.05668658e-02  5.57534676e-03  4.89546396e-02
   4.80610311e-01  1.58966446e+00 -8.67760718e-01  4.26912084e-02
  -1.30326128e+00 -7.88880214e-02  5.14156759e-01  1.69883043e-01
  -1.47973931e+00 -3.72916222e-01 -2.02246220e-03  1.07908177e+00
   3.03511858e-01 -1.05205572e+00 -2.49985799e-01  4.72244442e-01
  -1.24791443e+00  3.76803763e-02  3.50811750e-01 -8.89584363e-01
   2.41620764e-02 -2.69848394e+00 -4.98485851e+00 -6.99713677e-02
  -1.07437956e+00 -2.16240740e+00  2.52147526e-01  3.03348787e-02
  -8.40731114e-02  5.28204858e-01 -9.15034562e-02 -8.92157435e-01
  -1.03520501e+00  5.83772101e-02  5.48596531e-02 -1.20030594e+00
   8.74025106e-01 -3.92425852e-03 -5.35705360e-03  9.40007627e-01
   9.23755527e-01 -6.06701255e-01  1.16611862e+00  8.53037927e-03
  -8.02855492e-01 -4.63220358e-01 -5.04379980e-02 -3.13527912e-01
   1.03178881e-01 -9.50264409e-02  1.94371983e-01 -2.20974103e-01
   4.38406885e-01  5.82016826e-01 -1.80224645e+00  9.37188029e-01
   4.67502296e-01  1.32395476e-01  2.18957735e-04 -3.87554139e-01
   1.30220577e-01 -1.54206645e+00  3.94310988e-02 -7.07540691e-01
   7.16072559e-01  8.85133445e-02  2.85577904e-02  6.45601928e-01
   1.14690304e-01 -2.17362213e+00  7.31508076e-01  4.76380646e-01
   1.95282966e-01  1.04632400e-01 -7.63528645e-02  6.79688156e-02
  -1.18367457e+00 -3.20088476e-01  1.47255695e+00 -7.98946381e-01
  -1.59125328e+00 -6.10593975e-01  7.30255097e-02 -4.31486034e+00
   2.53679574e-01 -4.40275162e-01  5.35926409e-02 -6.07803226e-01
   1.64445430e-01 -7.61852264e-02 -5.81919014e-01 -1.92247915e+00]
 [ 6.48293316e-01 -7.75638402e-01  3.41259211e-01 -4.49900515e-02
  -8.56749713e-01 -1.50413418e+00 -5.21464777e+00 -3.80266696e-01
  -7.17236280e-01  2.50254013e-02 -1.88210905e-01 -1.17745531e+00
  -2.76147753e-01 -7.62548625e-01  2.42840910e+00 -2.93432212e+00
  -7.75140077e-02  8.99207175e-01 -5.50616622e-01  9.07375738e-02
   2.08857909e-01 -1.64029837e-01 -1.21557787e-02  1.31506002e+00
   6.00152127e-02  1.17037249e+00 -5.64269185e-01  5.37694216e-01
   4.61174697e-01 -6.45515859e-01  1.56219840e+00  2.04582691e+00
  -1.41882968e+00 -4.18445244e-02 -1.03605497e+00 -3.85395139e-02
  -1.47258759e-01  1.89604044e+00 -2.33287632e-01  5.37993349e-02
   8.40598568e-02  3.90375033e-02 -1.34172115e+01  1.57976401e+00
  -2.83171922e-01 -4.45098989e-03 -2.29304750e-03 -6.22036099e-01
   1.00050963e-01 -7.59771615e-02 -1.72838211e-01  1.45072237e-01
   8.94879580e-01 -5.34769939e-03 -1.86946309e+00 -7.20733941e-01
  -6.17482841e-01 -6.65215135e-01 -1.67411816e+00  7.34329641e-01
   1.07623100e+00 -1.81796670e+00  1.93361491e-01  5.95044903e-02
   3.50461751e-02  3.30337524e-01 -3.99001896e-01 -1.52138472e+00
   6.55891955e-01 -3.07677597e-01 -6.33006096e-02 -1.85046363e+00
  -1.91031969e+00 -4.56124507e-02  2.13517826e-02 -3.59390341e-02
   4.36985493e-01 -1.09086370e+00  7.06288040e-01  1.83728524e-02
  -3.12920451e+00 -7.27869928e-01 -1.40840733e+00 -6.75298274e-02
  -1.61359596e+00  2.55067110e-01  3.37274730e-01 -1.81624854e+00
  -1.70318723e-01  1.72060039e-02 -7.81323731e-01 -5.45878530e-01
  -6.08460456e-02 -1.19764555e+00  4.20482047e-02  2.42763281e+00
   8.93683970e-01  3.65888298e-01  1.71193983e-02  1.24213314e+00
   8.21992874e-01 -9.08557922e-02  1.39650893e+00  6.27014518e-01
  -8.99254717e-03 -3.14653844e-01 -3.02196074e+00 -2.39177614e-01
  -1.81837529e-01  3.92741896e-02  7.82456338e-01 -8.74937475e-02
  -9.64514375e-01  1.11047566e+00  4.07673478e-01  5.78295231e-01
   1.84608907e-01  9.12733197e-01 -1.01115751e+00 -1.53208077e+00
  -9.39375401e+00  5.77485502e-01  9.02601518e-03  6.12874568e-01
   6.11044645e-01 -4.06791978e-02 -3.53807187e+00  7.66835630e-01]
 [ 1.37901530e-01  4.66384530e-01  2.92428374e-01 -1.09260237e+00
   1.20926702e+00 -8.50617290e-01 -3.68565559e+00 -2.10266042e+00
  -2.53478110e-01 -8.28860849e-02  5.32477558e-01 -5.23947001e-01
   5.26237488e-01 -9.19696331e-01  1.31447716e-02 -9.35973287e-01
   9.15490091e-03  8.54794145e-01  6.58247411e-01  1.10827470e+00
  -3.56874347e-01  8.39876771e-01  3.05031519e-02 -1.49918556e-01
  -1.95661169e-02  1.10691333e+00 -5.31390846e-01 -1.72659755e-01
  -3.50430936e-01 -7.03284562e-01  3.25279564e-01 -3.68436396e-01
  -4.82735112e-02 -2.93989293e-03 -1.17081001e-01 -1.24208197e-01
   2.90863097e-01  7.98631549e-01  6.90612972e-01  7.29253218e-02
  -2.21589804e-01 -1.82520375e-02 -1.05029240e+01  5.66740811e-01
  -3.09859008e-01  2.23576725e-01 -9.24283918e-03  4.37265694e-01
  -1.43451846e+00  2.30359420e-01  1.35102555e-01  3.17457706e-01
   6.94096804e-01 -8.70649368e-02 -3.25341254e-01  3.25540714e-02
   1.78923741e-01 -3.60370994e-01 -8.01319003e-01  2.96056956e-01
  -3.71498615e-01 -1.61965799e+00 -5.35938628e-02  2.76485365e-03
   3.34640443e-02  7.27285147e-01  1.29372633e+00  7.21067369e-01
  -2.65911222e-01  9.81361806e-01 -6.72941357e-02 -3.73454523e+00
  -8.52731705e-01 -6.20917119e-02 -7.53916204e-02  2.34413013e-01
   1.55824113e+00  2.91250706e-01 -1.27534199e+00 -5.42300642e-02
  -2.03872967e+00  1.67412019e+00 -3.39383334e-02 -1.19567983e-01
   1.41125834e+00  4.94359732e-01  1.92499906e-01 -1.54449928e+00
  -5.40844142e-01 -3.03855389e-01 -1.31847394e+00 -7.58936942e-01
  -6.42688572e-01 -5.83475947e-01  4.49836962e-02  2.69388050e-01
   9.75830033e-02 -7.26767957e-01 -8.87738094e-02 -2.86770109e-02
   1.11060524e+00  6.49096549e-01 -1.26461282e-01  2.13039970e+00
  -1.17510207e-01 -1.14168867e-01 -1.28415489e+00 -2.92964667e-01
  -1.96500063e-01  1.36385513e-02 -4.06191528e-01 -5.92864938e-02
  -1.73934555e+00  1.04652882e+00 -3.84261489e-01  1.31853163e+00
   3.02725762e-01 -1.11557817e+00  9.77385223e-01  5.53264737e-01
  -7.44705153e+00 -7.87053481e-02  3.62386480e-02  7.41327643e-01
   2.03658625e-01  5.67586944e-02 -3.89699793e+00 -2.34059185e-01]
 [ 3.54667306e-01  9.43176627e-01  1.02083221e-01 -1.09473622e+00
  -7.65311241e-01 -1.02810666e-01 -4.41049844e-01 -7.29190707e-01
   1.75321102e+00 -3.66767533e-02  3.15144181e-01  6.42412007e-01
   1.27247229e-01 -1.82246017e+00  7.73115933e-01 -2.15089411e-01
   3.45169604e-02  5.88034987e-01  9.73115921e-01  1.11945581e+00
   6.90776706e-02  4.80554760e-01 -5.71948923e-02 -3.80871385e-01
  -3.05068353e-03  4.53129977e-01 -1.19585454e+00 -6.33978471e-02
  -2.30748236e-01  4.80206519e-01 -4.98149842e-01  9.89923716e-01
  -3.65463078e-01 -2.65559107e-02  2.52633542e-01 -1.29199699e-01
  -3.73795837e-01  3.31841826e-01 -1.87065780e-01  6.93913475e-02
  -1.59978479e-01 -4.17765491e-02 -1.01266251e+01 -3.86339188e-01
  -1.34310633e-01  2.54501522e-01  4.82776351e-02  2.07286525e+00
  -2.95153332e+00 -2.99140841e-01 -8.91081542e-02  4.08281803e-01
  -9.51498032e-01 -7.38915950e-02 -1.89752126e+00 -9.78522122e-01
  -7.74714936e-05 -8.30557168e-01 -7.91605175e-01  4.39271837e-01
   3.36441696e-01 -1.57985187e+00  3.26942861e-01 -6.31075427e-02
   7.47775510e-02  5.42293370e-01  2.85691947e-01  1.35415995e+00
   2.42624894e-01  2.43643716e-01 -7.78168291e-02 -3.88202214e+00
  -2.10575178e-01 -7.65724555e-02 -2.09743381e-02  5.16334891e-01
  -4.04994667e-01 -4.52600628e-01 -2.33795714e+00  2.02834513e-02
  -1.47357833e+00  1.06638360e+00 -2.54819065e-01  3.49893868e-01
   9.71967995e-01  4.27033603e-01  3.64159644e-02  7.75397062e-01
   8.76564980e-01 -6.24111414e-01 -8.34096670e-01 -9.36921179e-01
   6.31250292e-02  5.83083749e-01 -8.60927105e-02  1.13624096e+00
  -7.87971199e-01 -3.17730993e-01 -7.08672742e-04  5.87003350e-01
   8.68813813e-01  1.37738681e+00  1.03068936e+00  4.25713956e-01
  -3.29254828e-02 -4.10142601e-01 -1.63632229e-01  2.23356575e-01
   6.29801035e-01 -6.66602254e-02  3.76038253e-01  4.40139063e-02
  -2.38342190e+00 -7.64493167e-01  9.33447760e-03  8.99106383e-01
  -1.03325176e+00 -8.32099140e-01 -2.20590162e+00 -6.46764711e-02
  -6.33068800e+00  2.59195808e-02  2.71224212e-02 -9.86168146e-01
   2.36228220e-02 -3.77877168e-02 -3.36401653e+00 -1.14824426e+00]
 [ 1.37792498e-01  5.08692741e-01  4.28669490e-02 -7.00985566e-02
   4.52416763e-02 -9.05842662e-01 -4.97554839e-01  7.03248501e-01
   4.02848661e-01 -3.53178829e-02 -1.88722447e-01  1.30065095e+00
   3.42624724e-01 -2.29781938e+00  8.43560338e-01 -9.15109158e-01
   3.82990837e-02 -5.42035997e-01  1.35253334e+00 -6.08530998e-01
   4.10618782e-01  4.35010254e-01  6.24807142e-02  2.06178859e-01
  -6.94918707e-02 -1.82164222e-01 -9.16802645e-01 -6.20448649e-01
  -3.69287521e-01  2.58121848e-01  3.19769859e-01  4.98367578e-01
  -3.86666238e-01  2.03836411e-02 -2.66067594e-01  1.68768540e-02
  -1.57535717e-01  4.95058030e-01 -2.45094299e-01 -3.30318213e-02
  -1.41119674e-01 -1.75643582e-02 -9.62931442e+00  6.06983304e-01
  -1.18083501e+00 -2.34708101e-01 -3.05789467e-02 -3.64861071e-01
   1.19034052e+00  6.43480301e-01  4.58468735e-01 -7.75710702e-01
   2.19454467e-01 -5.98817058e-02 -1.03146625e+00  7.36385118e-03
  -2.50630289e-01 -3.07356119e-01 -7.51684785e-01  3.94443423e-01
  -3.44539285e-01 -2.07810044e-01 -2.88855195e-01 -3.94973680e-02
  -5.48369586e-02  1.82863101e-01  3.96730155e-01 -4.86285314e-02
   8.20906699e-01  8.07986706e-02  2.13170368e-02 -3.39639950e+00
   1.57429636e-01 -5.16186282e-03 -4.58461195e-02 -1.16706476e-01
   2.48413980e-01  8.65919814e-02  4.27057862e-01 -9.06464607e-02
  -1.32366252e+00  5.57329552e-03 -1.16441265e-01  3.55653167e-01
   9.15609658e-01  1.50265053e-01 -3.80408734e-01  4.86622572e-01
   2.42093229e-03 -2.40695745e-01 -5.47006428e-01 -3.63392472e-01
  -1.01930760e-01  6.87309384e-01 -3.78279164e-02 -5.63391387e-01
   6.67563260e-01 -2.05325767e-01  3.99321727e-02 -4.33342785e-01
   1.82825476e-01 -1.77839652e-01  8.13744068e-02  4.26853329e-01
  -1.79608062e-01 -9.27260667e-02 -6.25241637e-01  8.49057585e-02
  -9.61828232e-03  7.33673275e-02  2.31180966e-01  7.27483034e-02
  -3.26268840e+00  4.15179938e-01 -2.26489872e-01  1.75315905e+00
  -1.14145160e+00 -5.46526015e-01 -3.77371401e-01 -2.92656422e-01
  -3.97669649e+00 -1.55454591e-01 -6.49015233e-02 -1.46157515e+00
  -9.47743356e-01 -5.06089367e-02 -1.79464746e+00  2.42670149e-01]
 [-6.31490722e-02  1.02933097e+00 -3.76235396e-01 -4.14825290e-01
   3.22423398e-01 -5.43973595e-02 -2.60674775e-01 -3.67985100e-01
  -4.15602744e-01 -7.23667145e-02  4.66305256e-01  7.99952865e-01
   2.96741426e-01 -3.00547791e+00  9.34099495e-01  7.17076540e-01
  -4.55549695e-02  4.52016801e-01  4.28722262e-01  5.95047586e-02
   8.22356164e-01 -1.00600637e-01 -8.19713101e-02 -3.61846149e-01
   8.57746322e-03  6.14532948e-01 -1.46057665e+00  2.53018737e-01
  -1.82040110e-01  1.33561626e-01 -1.82421178e-01 -7.88624465e-01
  -9.57921147e-02 -6.01799078e-02  8.11691955e-02 -2.38075573e-02
  -6.39797330e-01 -4.31593925e-01  2.91790646e-02 -3.18951681e-02
  -1.89601690e-01 -9.11000520e-02 -8.81545162e+00 -1.39034674e-01
  -4.34476957e-02  3.03999871e-01  5.90716675e-02 -1.08752120e+00
  -7.59305775e-01 -2.93434113e-01  1.37707919e-01 -6.26072288e-01
  -6.88944817e-01  7.09764436e-02 -1.65514338e+00 -1.35691118e+00
  -2.27834638e-02 -9.19644892e-01  1.40589312e-01  3.16195995e-01
   1.05167484e+00  1.06017959e+00 -5.35259902e-01  7.17409700e-03
  -3.86976078e-02  2.79519200e-01  1.70930997e-01  5.57327330e-01
   2.39217058e-01 -1.95097655e-01 -1.22512117e-01 -2.28927541e+00
   2.55117118e-01 -2.04235930e-02  1.09977499e-02  4.50734824e-01
   2.24047020e-01 -1.69391751e-01  1.39499521e+00  4.40692948e-03
   5.37842214e-01  5.68660140e-01 -4.27193373e-01  2.05217808e-01
   9.71800089e-01  2.48842984e-02 -2.95891970e-01 -5.38459480e-01
  -8.95519555e-01 -6.90991044e-01  4.31578279e-01 -2.22956344e-01
   1.98693961e-01 -6.62561581e-02  4.94008325e-02 -8.71689737e-01
  -4.30568486e-01 -8.66618574e-01  3.44261415e-02  5.02879262e-01
   1.65263012e-01  5.98791130e-02 -7.07155466e-01  2.64276043e-02
   1.21787846e-01  2.80406654e-01 -1.25787735e+00  1.49258345e-01
  -2.60513723e-01 -5.68986312e-02  8.74553919e-02 -2.61876676e-02
  -3.68741703e+00  8.39141309e-01  2.38166362e-01  1.92118096e+00
   9.25820917e-02 -6.91000670e-02 -1.33079040e+00  1.18953705e+00
   1.55894291e+00 -5.61600089e-01  4.83224578e-02 -2.16837943e-01
  -2.02631664e+00 -5.61845228e-02 -1.54699016e+00  8.32951665e-01]
 [ 1.84510261e-01 -7.20004022e-01 -1.50996894e-01 -6.13636017e-01
   1.41265428e+00  2.92812884e-01 -1.21209908e+00 -9.77339447e-02
  -5.68272889e-01 -8.64434764e-02  2.39254832e-01  5.34089744e-01
   2.70768970e-01 -2.64048767e+00  6.21517301e-01 -8.55173171e-01
  -7.34596178e-02 -1.74278840e-01  5.24125874e-01 -4.83853012e-01
   1.36223838e-01  2.66351432e-01 -9.05940309e-04 -1.49601445e-01
  -3.25602330e-02 -1.24366188e+00 -3.15125883e-01  3.69156480e-01
  -2.23182082e-01  8.96266282e-01 -2.27673411e+00 -7.39212751e-01
  -1.79073766e-01 -2.17356104e-02  2.64606655e-01  1.37219382e-02
   4.22201127e-01 -2.98928738e-01 -2.60874271e+00  4.50316221e-02
  -1.92547068e-01 -7.30132610e-02 -5.16754436e+00  1.81511819e-01
   5.33197587e-03 -3.32436599e-02  4.94442172e-02  4.41606581e-01
  -5.64416349e-01 -2.42589101e-01 -6.13381445e-01  7.71654069e-01
  -8.77715126e-02 -9.80843455e-02 -1.00505665e-01 -9.57160115e-01
  -2.41778895e-01  3.12394530e-01 -5.51623404e-01 -9.97147799e-01
  -1.13176025e-01  3.19939703e-01  5.37915409e-01  3.13806608e-02
   3.94254886e-02  1.56606823e-01  7.15373755e-01  2.12106839e-01
  -3.00295115e-01  5.22653878e-01 -1.23025879e-01 -2.62780333e+00
   1.75494671e-01 -2.20979080e-02 -7.26110861e-02  6.32335246e-01
   1.73850864e-01  7.90627122e-01  2.64452815e-01  5.91308065e-03
  -2.50763088e-01  4.24189299e-01 -2.30861679e-01  2.94447929e-01
   4.78272855e-01 -2.10581087e-02 -4.56625223e-01  6.70657828e-02
   3.13547432e-01 -4.10723686e-01  3.65887851e-01 -1.51651889e-01
  -1.25804484e-01  2.04870179e-02 -5.83977364e-02 -1.65558183e+00
   1.32426349e-02 -6.68472826e-01  1.20663410e-02  3.18566382e-01
  -1.76840648e-01 -1.57315686e-01 -1.51753378e+00 -2.76291110e-02
   8.15154240e-02  6.24229789e-01 -1.85537085e-01 -6.33650422e-02
   4.96163554e-02 -4.03573662e-02  1.42584622e-01 -3.05819884e-02
  -3.96682882e+00 -2.41560355e-01  1.59630775e+00  6.98060572e-01
  -1.83674872e-01  1.83978841e-01 -9.65461969e-01 -5.52456439e-01
  -1.51007161e-01 -2.52507329e-01 -7.91087300e-02  3.07458609e-01
   4.64354038e-01 -1.95169877e-02 -2.18375134e+00  2.43935138e-01]
 [ 1.12270236e-01 -6.14884198e-01 -2.18318224e-01 -9.97203648e-01
  -2.05619425e-01 -1.81868419e-01 -6.29459023e-01  2.74223059e-01
   8.06637406e-02  4.83255759e-02  6.03522360e-01  1.62015393e-01
   3.09510171e-01 -3.09533739e+00 -7.41283521e-02 -2.40751579e-01
  -7.54591227e-02 -1.63103029e-01 -5.49327731e-02 -5.95117688e-01
  -9.39389840e-02  2.15247154e-01  7.11261015e-03  8.40776190e-02
   6.49772808e-02 -8.31247926e-01 -1.34380106e-02 -4.90182862e-02
  -2.97843754e-01 -4.81337786e-01 -2.58609772e-01 -5.36650777e-01
  -6.33303106e-01  3.42584401e-02  1.49506837e-01 -9.23734084e-02
   3.74938548e-01 -1.13455641e+00 -1.61999047e+00  5.87970112e-03
   2.65626349e-02 -8.33189413e-02 -1.11863124e+00  1.56759799e-01
  -5.78972638e-01 -4.75112438e-01 -2.26256736e-02  1.20792910e-01
  -7.58065879e-01 -6.90279156e-02 -6.03652179e-01  7.68524170e-01
   7.68710494e-01  1.79509297e-02  4.12053475e-03 -6.27076507e-01
  -4.43367630e-01 -1.21612847e+00 -3.32997501e-01 -7.93967068e-01
   5.12889564e-01  7.20393062e-01  3.25661153e-01  2.01721732e-02
   6.89855719e-04  5.34577906e-01  1.31046307e+00  2.62756407e-01
  -6.39910638e-01  5.51492214e-01 -3.84402499e-02 -2.12850332e+00
  -5.03597319e-01 -1.11453254e-02  1.81947909e-02  4.73868400e-01
   6.20090425e-01  6.59891009e-01 -3.16298693e-01 -4.50303033e-03
  -2.25162297e-01  2.04505339e-01 -6.61464751e-01  3.82404238e-01
  -2.13402137e-01  1.32841125e-01 -3.71041119e-01  1.93517447e-01
  -6.38750553e-01 -5.27445614e-01 -9.18860137e-02  3.99987578e-01
  -6.13033891e-01  4.12070066e-01 -8.70779529e-02  4.41122383e-01
  -2.70804837e-02 -4.93243575e-01 -3.88392881e-02  4.92979176e-02
  -1.13129175e+00 -9.34450701e-02 -1.26796067e+00  1.91652298e-01
  -7.69331232e-02  6.64582968e-01 -1.30941355e+00  3.61596614e-01
  -3.25279713e-01 -8.70083496e-02  2.87890255e-01  6.62495196e-02
  -4.83517838e+00  1.49348402e+00  7.79825926e-01  4.30264354e-01
   6.35192692e-02 -5.24619758e-01 -5.93036473e-01  5.39680660e-01
   6.97825253e-01 -8.33676681e-02 -3.14010791e-02  3.86887677e-02
   2.04917610e-01 -2.64861286e-02  7.40165234e-01  2.07283527e-01]
 [ 5.21191917e-02  4.06150550e-01 -3.52272093e-01 -2.53361259e-02
  -4.72323865e-01 -3.83838624e-01 -3.18013877e-01  3.56421322e-01
  -6.78148448e-01  1.24717895e-02  3.52808714e-01  2.49319285e-01
   2.84904838e-01 -3.69092822e+00 -1.84219256e-01 -5.78955948e-01
  -4.94496301e-02  2.65225321e-01  4.94583189e-01 -8.64665568e-01
  -2.28879392e-01 -1.31055880e-02  5.67750772e-03  7.43535459e-01
  -1.60037261e-02 -1.25478074e-01 -7.37225637e-02 -1.40685692e-01
  -3.72607768e-01 -4.50758666e-01 -1.25379515e+00 -4.16942418e-01
   1.65048122e-01 -8.29203352e-02 -2.28180084e-02 -9.48441103e-02
  -5.30226789e-02 -1.83106923e+00 -3.08846426e+00 -3.91625352e-02
  -1.06415607e-01 -5.68068996e-02  4.88482267e-01  3.79489243e-01
  -1.01573491e+00 -8.86819437e-02 -1.40907208e-03 -2.79318213e-01
  -7.29794264e-01 -4.85484272e-01 -1.29886031e+00 -1.66252092e-01
   9.42448735e-01 -2.21862588e-02  6.16480522e-02  2.09469587e-01
  -6.72580957e-01 -1.30241632e+00 -1.72200382e-01 -5.56418121e-01
  -1.00455903e-01  6.57644570e-01  6.98979199e-02 -3.89382690e-02
   5.86503046e-03  4.66952711e-01  7.57496119e-01 -2.09767714e-01
  -5.17997921e-01  4.05194648e-02 -9.01633650e-02 -2.48711061e+00
  -2.50556082e-01  3.51852253e-02  3.56249921e-02 -2.93937087e-01
   6.25199854e-01  4.92515415e-01 -2.60708660e-01 -5.71278706e-02
   1.55724615e-01 -3.81589383e-02 -1.07136011e+00  3.87002498e-01
  -2.27393925e-01  1.74049027e-02 -3.24534476e-01 -1.43605769e-01
   8.41047764e-01 -6.56351686e-01  9.86883461e-01 -3.26946110e-01
  -4.59324658e-01 -5.39976239e-01 -2.16989499e-02  5.39864779e-01
  -6.78212702e-01 -4.70973045e-01  2.13646870e-02 -1.65115312e-01
  -1.80883336e+00  4.16767418e-01 -1.84014869e+00 -5.20290919e-02
  -1.49920419e-01  3.51674497e-01 -9.58430827e-01 -7.65878707e-03
  -4.77508694e-01  3.45562287e-02 -1.37881979e-01 -2.40774453e-02
  -4.99625969e+00  8.92116904e-01  5.81745625e-01  9.58038330e-01
  -8.29012036e-01  5.76076508e-02 -5.29931486e-01  1.42826498e-01
  -7.36365020e-02 -1.00187980e-01 -7.02531040e-02  3.34739625e-01
   4.21649069e-01 -2.22102320e-03  1.42380267e-01  2.22225711e-01]
 [-1.62258223e-01 -1.04749262e-01 -1.00176144e+00  1.23670571e-01
  -6.45286143e-01  1.56355366e-01 -6.89724609e-02  8.42498541e-01
  -6.62024796e-01 -1.03496164e-02  1.41504884e-01 -2.71653563e-01
  -1.64600149e-01 -4.24363899e+00 -4.61271517e-02 -5.21847345e-02
  -2.92579792e-02 -1.05604291e-01  7.44819343e-01 -1.20207995e-01
  -1.00285065e+00  2.22612679e-01  6.17855713e-02  2.06682354e-01
   3.87921482e-02 -1.17019964e-02 -6.07419670e-01 -8.37313890e-01
   5.82745612e-01 -1.51642542e-02 -9.80145514e-01  3.61798048e-01
  -5.10958374e-01 -8.26078728e-02 -9.43224207e-02 -8.38995054e-02
   2.34496132e-01 -8.62926543e-01 -3.27271485e+00 -7.40182102e-02
  -5.36691807e-02 -4.50360477e-02 -2.24525079e-01 -6.90695792e-02
   3.38879526e-02 -9.87112224e-02  6.82584792e-02  4.89284724e-01
  -8.13411534e-01 -6.80167973e-01 -2.44086480e+00 -2.35329747e-01
   3.58758956e-01 -4.55628661e-03  1.04690182e+00  2.87542790e-01
  -2.78972358e-01 -4.36534375e-01 -1.10497797e+00 -1.30464959e+00
   8.24549019e-01 -2.35065326e-01  4.07034993e-01 -5.09574860e-02
   6.49855956e-02  2.66579334e-02  1.11398034e-01 -1.57755613e-01
  -3.56002837e-01 -3.53604048e-01  7.48855015e-03 -5.12182474e-01
   1.77850127e-01 -3.14251408e-02  4.21883129e-02  2.68201232e-01
   9.33700129e-02  3.72502685e-01 -3.26392084e-01 -1.56028969e-02
  -7.96177387e-01 -7.68371820e-02 -5.74542701e-01  4.38270688e-01
  -7.61151721e-04  1.35295734e-01 -4.75432664e-01  1.04412533e-01
   8.41563463e-01  1.53252393e-01  9.91153300e-01  8.52931857e-01
  -3.70671302e-02 -4.10398059e-02 -5.90999424e-02  1.25771493e-01
  -5.44360101e-01  3.33556272e-02 -3.79999094e-02  1.18485682e-01
  -2.29171205e+00 -3.03321660e-01 -2.51628637e+00  1.16444295e-02
  -2.08538517e-01  4.12873253e-02  1.39314547e-01  3.88892829e-01
  -1.67428106e-01  3.83392051e-02  8.56752992e-02  2.65921783e-02
  -4.27176523e+00 -2.55480856e-01  6.91957593e-01  4.30718303e-01
  -4.01468009e-01  4.98530686e-01  3.00612748e-01  5.48133850e-01
   1.19744666e-01 -7.48519063e-01 -2.93563083e-02  7.44918227e-01
   2.17954755e-01 -7.57162943e-02  1.69102907e-01  2.72432357e-01]
 [-5.46801805e-01  8.36877152e-02  1.65305805e+00  6.55841231e-01
  -7.90668488e-01  1.84340551e-01 -5.95385253e-01  1.33970946e-01
  -5.55813313e-01 -2.44616047e-02 -3.61993492e-01  4.21294004e-01
  -2.91820884e-01 -3.85064816e+00 -7.31377542e-01  7.02751398e-01
   4.80824187e-02 -2.25847140e-01  1.27828866e-01  1.06116998e+00
  -4.63525534e-01  4.26357508e-01 -1.22465575e-02 -2.79589832e-01
  -9.73115638e-02  8.73889148e-01  9.80307519e-01 -6.56072140e-01
   7.26824552e-02  6.21271074e-01 -8.80109668e-01 -3.71750057e-01
  -1.43422455e-01  2.13859696e-02 -1.23363376e+00 -6.14049807e-02
  -2.48175144e-01 -2.12791777e+00 -1.97049129e+00 -5.91219142e-02
   1.43051431e-01  2.52953246e-02  4.76506874e-02 -4.55411613e-01
  -6.08874500e-01 -2.18227524e-02 -4.16928791e-02 -8.74923021e-02
  -6.49157703e-01 -2.88289040e-01 -2.26868153e-01 -8.26386690e-01
   3.27806056e-01  1.77951548e-02  3.41332644e-01  2.75133312e-01
  -1.22244945e-02  6.19818449e-01 -4.22261655e-01 -8.36525619e-01
  -3.15834910e-01 -1.60353529e+00 -4.24619734e-01 -1.13267200e-02
  -2.11541802e-02  4.05790769e-02  5.48054755e-01 -8.49184543e-02
  -3.71972471e-01 -2.55521871e-02 -5.05251475e-02 -3.76707911e-01
   2.80258935e-02  4.65543568e-02 -2.55294871e-02  1.47275224e-01
   2.07957417e-01  4.99900013e-01 -1.77775845e-01 -2.47956626e-02
  -3.24663430e-01  6.02183878e-01 -4.61272337e-02  1.03462406e-01
  -4.27270710e-01  6.86535835e-02 -5.87492883e-01  1.75681069e-01
   8.63394797e-01 -6.15216136e-01  1.22388482e+00  3.91446352e-01
  -2.10862700e-03  4.47380953e-02  1.48400078e-02 -1.29446641e-01
   7.22505823e-02 -1.81150168e-01  1.06588658e-02  3.43000263e-01
  -3.13212490e+00 -2.29647338e-01 -4.34506989e+00  8.12836051e-01
  -9.62098360e-01 -1.10380256e+00  1.41096070e-01  4.07510757e-01
  -3.68952714e-02  3.85127626e-02 -2.42623553e-01 -1.67595502e-02
  -5.34775352e+00  1.02697909e+00 -5.72501957e-01  5.90001106e-01
  -1.79639965e-01 -1.00769468e-01  1.19769841e-01  5.51191390e-01
  -5.65554261e-01  1.02887526e-01  4.47445996e-02  2.13255405e-01
   1.47310227e-01  2.14538872e-02  2.45304570e-01 -1.61987171e-01]
 [-2.08100224e+00 -9.13326889e-02 -7.51634315e-03 -1.28088415e-01
  -1.49078831e-01 -1.66319564e-01 -7.00996101e-01  2.85226375e-01
   1.13722354e-01 -5.89114241e-02  4.27255854e-02  3.11344683e-01
  -2.31588200e-01 -2.11951804e+00 -3.36282164e-01  1.81102008e-01
   6.47745952e-02  1.33675843e-01 -4.31462973e-01  8.75019073e-01
  -5.90395927e-01 -1.51009157e-01 -5.78389596e-03 -4.75205630e-02
   3.74111794e-02  6.96927249e-01  7.35722423e-01 -8.20757985e-01
   2.25713141e-02  6.58664048e-01 -1.07463944e+00  7.44954646e-01
   3.15115094e-01 -5.81665561e-02 -4.22648162e-01  6.84408918e-02
  -2.96251595e-01 -1.19765592e+00  3.90057564e-01 -3.70420166e-03
   2.28262946e-01 -1.02541797e-01  6.32955730e-02  5.44830978e-01
  -4.98262942e-01  6.75846457e-01 -4.64507826e-02 -1.03053257e-01
  -7.67582238e-01  2.24640056e-01 -9.62158024e-01 -4.40165065e-02
   2.52194214e-03  2.25356556e-02  3.63419741e-01  1.83389410e-01
  -8.84035528e-02  8.63738120e-01 -1.06474042e+00 -5.97958624e-01
  -1.80235878e-01 -2.25706983e+00 -1.11344829e-01  9.31900693e-04
  -7.81149268e-02  2.98823148e-01 -5.29890619e-02 -2.03406781e-01
  -7.13982999e-01 -1.87083900e-01  1.31945079e-02 -1.44760728e+00
  -6.16590399e-03  2.75309347e-02 -9.84992981e-02  3.06633502e-01
   3.49549115e-01  3.37504476e-01 -1.16264150e-01 -1.46951806e-02
  -5.62186055e-02  2.43080268e-03  4.54476446e-01 -9.86795202e-02
   1.70861296e-02  1.44592226e-01 -3.24702382e-01 -2.03463659e-01
   7.09634900e-01 -8.77916098e-01  1.23436403e+00 -3.30911964e-01
   2.57380847e-02  1.44864932e-01 -4.59731966e-02 -9.51253057e-01
   3.65082592e-01 -4.68729883e-01  3.34236696e-02  3.63984704e-01
  -3.34021139e+00  2.97921866e-01 -4.71545839e+00 -2.51579523e-01
  -1.05196297e+00 -1.55020580e-01 -1.37013540e-01  8.69003013e-02
   1.70736879e-01 -1.12001337e-01 -3.25630844e-01  5.12804538e-02
  -3.87995887e+00  5.43037355e-01  3.45336378e-01  2.68151313e-01
  -9.32143480e-02  2.43257880e-01  2.88668603e-01  5.98272011e-02
  -6.00405037e-01 -1.36361554e-01 -1.34467063e-02  2.47859105e-01
   2.40973651e-01 -1.67751852e-02  6.96196556e-01 -6.77673742e-02]
 [-1.41150987e+00  3.51295054e-01 -7.33184397e-01 -1.65759698e-01
  -1.47715211e-01  2.43889168e-01  1.43087119e-01 -1.30392805e-01
   9.85312045e-01 -1.92709232e-03  2.87581086e-01  3.88009191e-01
  -5.59094548e-01 -7.15974867e-01  4.57422584e-01 -1.16198391e-01
  -8.37942660e-02  5.50578296e-01 -2.13786483e-01  5.33726275e-01
  -1.28370691e-02  1.74006239e-01 -4.87767197e-02 -2.19329208e-01
   2.33367446e-05  5.53652704e-01  3.00153434e-01 -3.12936187e-01
   5.78401089e-01  1.43287674e-01 -8.76848757e-01  5.54851353e-01
   4.70540494e-01 -3.74411757e-04  5.44752292e-02 -2.78516114e-02
  -5.18156946e-01 -8.86943281e-01  6.42529845e-01  4.99096215e-02
  -6.93762898e-02 -5.01276813e-02 -1.66649401e-01  2.66794115e-01
  -5.10010608e-02  5.38074374e-01 -4.89500985e-02 -2.12904260e-01
  -5.84370196e-01  2.97464937e-01 -1.18268585e+00  7.90700018e-01
   2.14996794e-03  3.72616984e-02  6.88183010e-01 -3.34404588e-01
   6.36758059e-02  3.02635461e-01 -1.99645007e+00 -1.77787912e+00
   9.64236334e-02 -5.06148398e-01  2.79085755e-01 -8.24798942e-02
  -5.72880656e-02  3.17900389e-01  1.40044108e-01 -1.92693785e-01
   3.72625142e-01 -1.99504897e-01 -1.81412958e-02 -1.35905170e+00
  -4.23477829e-01 -4.40666229e-02 -7.49212280e-02  5.22982776e-01
  -8.93150941e-02  1.30179331e-01 -6.05522394e-01 -1.93690415e-04
  -5.19924641e-01 -2.94039726e-01  3.53491247e-01 -5.22431076e-01
   3.18289548e-01  4.66270208e-01 -9.52786267e-01  1.81161612e-01
   3.84744145e-02 -6.18802369e-01  9.01650786e-01  2.28290662e-01
  -4.49913815e-02  1.93645462e-01  1.19421948e-02 -1.54639289e-01
  -2.28722975e-01 -4.87159461e-01 -3.75884362e-02 -5.59147038e-02
  -2.52843666e+00 -3.24731946e-01 -3.92339134e+00 -5.14654934e-01
  -5.16107380e-01  2.76534945e-01  3.50422442e-01 -1.82106912e-01
   2.43072152e-01  8.11664201e-03 -1.20074201e+00  2.20467057e-03
  -5.05011892e+00  1.16284512e-01 -2.44890243e-01  2.80682594e-01
   3.67282063e-01  3.72064054e-01  8.29606295e-01  5.14616370e-01
  -1.04239330e-01 -3.99042666e-01  5.58404699e-02  1.76252365e-01
  -5.21749537e-03 -8.18762407e-02  1.02604234e+00 -6.94691837e-01]
 [-2.17974663e-01  1.24234721e-01 -1.34490991e+00 -2.02785611e-01
   2.16190249e-01 -5.61327696e-01  1.34123206e-01 -3.86205375e-01
   2.48852372e-01 -7.55446181e-02  4.69482154e-01  2.76721101e-02
  -1.41499415e-01  1.81249037e-01  1.03863907e+00  3.11357025e-02
   4.58036177e-02  4.40631270e-01  4.06262457e-01  6.96016848e-02
   3.29416454e-01  2.94595689e-01  7.84893557e-02  3.61080021e-01
   2.48940047e-02  9.64434296e-02 -4.03041422e-01 -2.26317644e-01
  -2.30657190e-01 -6.80468082e-02  5.76422632e-01  2.64484346e-01
  -4.05176103e-01  4.89187799e-02 -2.73558572e-02 -3.91477048e-02
   1.89826041e-01 -5.23140669e-01 -4.17780697e-01 -3.03828809e-02
  -5.24601936e-01 -1.93815643e-03 -2.11447224e-01  1.45861534e-02
   5.25337517e-01  3.49470854e-01  2.03630943e-02  5.63483119e-01
   1.02995835e-01  3.18879671e-02 -1.81361282e+00  7.95786604e-02
  -2.88737327e-01  7.48779476e-02  5.10806143e-01 -3.85352463e-01
  -5.18904150e-01 -3.76189910e-02 -3.49346340e-01 -2.77952123e+00
   4.62095737e-01  9.17716324e-01  4.06448364e-01 -4.65487316e-02
   3.08396015e-03  2.08145574e-01 -2.11997461e-02  1.73744768e-01
   7.93705702e-01 -2.98893303e-01  9.55504831e-03 -9.31121588e-01
   1.24884583e-01 -4.66069914e-02 -1.81310903e-02  2.57395595e-01
  -4.57988977e-02 -2.52033055e-01  9.72102657e-02 -2.57755332e-02
  -2.19935074e-01  1.20950162e-01  3.81229550e-01 -3.46984714e-01
  -5.01081236e-02  2.18431517e-01 -1.56073594e+00  2.25964993e-01
   3.54494333e-01 -1.09936729e-01 -2.60854483e-01  6.59443811e-02
  -4.03540522e-01  3.15016866e-01  1.31054595e-02  6.14963174e-01
  -2.75818169e-01 -3.66749108e-01 -4.91980761e-02  3.47976446e-01
  -1.02535093e+00 -4.45421129e-01 -3.15365696e+00 -7.85908401e-02
  -4.03253287e-01 -1.41093684e-02  6.83298260e-02 -2.80030906e-01
   2.49264076e-01  4.90389392e-02 -1.65567005e+00  3.55276302e-03
  -6.36623096e+00  7.46296048e-02 -4.19531703e-01  2.37281978e-01
  -5.49392179e-02  6.50559604e-01 -1.69108406e-01  2.83353329e-01
  -1.69318855e-01  5.64140603e-02 -7.26341009e-02 -2.76170790e-01
   3.40860374e-02 -5.09969331e-03  6.22260332e-01  1.81826055e-01]
 [-1.47562480e+00  1.38377562e-01 -2.10048413e+00  3.69845815e-02
   1.04142636e-01 -2.07437590e-01 -8.06696117e-02 -1.21859387e-01
   3.52518618e-01 -2.26489920e-02 -2.80894637e-02 -2.97826119e-02
   1.21971749e-01  1.29486263e-01  1.26432940e-01  2.33115822e-01
   3.89893018e-02 -3.80660415e-01  3.13231081e-01 -1.92842111e-02
   7.08289504e-01  2.74402171e-01 -4.32058312e-02  1.40410662e-01
  -9.59793404e-02  4.32809830e-01  2.78593637e-02 -2.82051302e-02
  -1.28004074e+00 -2.44753119e-02  6.67941749e-01  6.85654044e-01
   1.28897578e-01 -6.59538880e-02 -3.95502031e-01  2.59873066e-02
   2.79582739e-01 -8.87622714e-01 -4.55657423e-01 -1.37546360e-02
  -4.68456268e-01 -1.32166296e-02  1.03471287e-01 -3.76782537e-01
  -1.23489968e-01 -1.72692597e-01 -2.25278921e-02  1.50438935e-01
   2.76548088e-01  5.27458608e-01 -1.69673467e+00  4.80591923e-01
   5.80568844e-03 -5.34251593e-02  9.94798481e-01 -6.08063996e-01
  -7.10042059e-01  5.23864567e-01 -7.22303867e-01 -3.20151520e+00
  -6.85018897e-01  4.90749449e-01 -2.06624627e-01 -5.04403235e-03
  -6.06358014e-02  1.98744521e-01  1.84312835e-01  1.98092490e-01
   1.73060372e-01 -2.09184095e-01 -7.93247148e-02 -5.54417729e-01
  -2.56799638e-01 -9.63304490e-02 -6.32685572e-02  3.73170339e-02
  -1.16224311e-01  1.60751060e-01 -1.48468003e-01 -5.65571636e-02
  -3.03746879e-01  7.70438910e-02 -1.58638507e-01  2.91794855e-02
   1.71096474e-01  1.29137129e-01 -1.45927227e+00  5.13519952e-03
   1.99512735e-01  9.32626575e-02 -6.03218496e-01  7.79378593e-01
  -3.24247658e-01  2.89719641e-01  4.72674407e-02  3.02445829e-01
   5.80567606e-02  1.99743181e-01 -5.26254140e-02  2.38328472e-01
   4.46629703e-01 -2.02684954e-01 -7.20126629e-01  1.77073658e-01
  -1.00210324e-01  3.87068428e-02  2.41374806e-01  2.24006072e-01
   1.65535510e-02 -2.64777802e-02 -1.60671258e+00  1.11857988e-02
  -5.27934647e+00  6.13907754e-01 -4.47210610e-01 -9.45535377e-02
   3.82269293e-01  7.25610256e-01  6.81059718e-01  9.27116871e-02
  -2.60043144e-01  3.05867702e-01 -6.11672327e-02  1.00466356e-01
   5.45721173e-01  1.35642551e-02  1.75749123e-01  2.85767138e-01]
 [-1.09997737e+00  3.23549509e-01 -1.71737933e+00  3.83002698e-01
  -2.63571054e-01 -1.72799110e-01  2.57040430e-02 -2.68981576e-01
   3.73184532e-01  1.40204988e-02  8.84496570e-02 -3.26436013e-01
   3.32898885e-01  3.37032117e-02  6.87116504e-01  2.27773130e-01
  -4.18314226e-02 -3.83863635e-02  3.93925369e-01  1.39662072e-01
   8.10707867e-01  2.77098846e-02  5.19644693e-02 -5.65614318e-03
   1.09508028e-02  9.16459024e-01  2.15106025e-01  2.78200328e-01
  -7.02011347e-01 -3.53316665e-02  7.39171445e-01  8.97693217e-01
   3.96578312e-01 -6.73831925e-02 -5.05587049e-02  3.39514539e-02
   1.61241397e-01 -8.58164907e-01 -3.31553459e-01  8.01656172e-02
  -5.50923645e-01 -9.87960324e-02 -4.61722948e-02 -2.04960778e-01
   8.52411836e-02  2.96459675e-01 -1.54787563e-02  3.28159742e-02
   4.26049948e-01  8.50260198e-01 -6.15921676e-01  3.26094300e-01
   5.32786012e-01 -4.27438645e-03  6.27110481e-01 -2.52354085e-01
  -3.03799957e-01  1.04535627e+00 -1.76278925e+00 -3.38113880e+00
  -6.66354597e-01  4.02942538e-01 -1.37896404e-01  2.33258423e-03
   2.64989231e-02  6.96547210e-01 -1.17841594e-01 -4.85431224e-01
  -1.90042019e-01 -3.75260741e-01  2.51900330e-02 -9.54238594e-01
  -1.11624014e+00  4.39722650e-02  3.85384336e-02 -2.73154616e-01
  -1.63248703e-01  5.23232162e-01  2.90791243e-02  9.12636239e-03
  -3.20024729e-01  1.54028028e-01 -7.67288506e-01 -7.05719218e-02
  -5.75729609e-02  1.23418212e-01 -1.64860582e+00 -6.99251235e-01
  -5.14598861e-02 -5.95179856e-01 -4.40335840e-01  6.61430299e-01
  -3.51739734e-01  5.18341772e-02  1.28151737e-02  2.88722754e-01
   1.61402389e-01  5.11938274e-01  5.93188927e-02  3.32829565e-01
   6.15608156e-01  1.01224087e-01 -4.54086781e-01  3.35761487e-01
  -3.87833506e-01 -7.99033344e-02  3.06887012e-02  2.87658107e-02
  -1.00792430e-01  7.30569940e-04 -1.66220284e+00 -4.82223704e-02
  -6.84891176e+00  5.22699177e-01 -3.30938280e-01 -2.49697715e-02
   3.79199505e-01  1.99396610e-01  3.56637120e-01 -2.28489950e-01
   1.67633459e-01  2.39155248e-01  6.89396784e-02 -1.34006083e-01
   2.53689438e-01 -1.16164491e-01  3.10515970e-01  1.10515557e-01]
 [-1.12855399e+00  2.19017297e-01 -1.56349993e+00  1.29156217e-01
  -8.28621760e-02 -3.25775027e-01  4.78014350e-01 -5.02864182e-01
   6.18953347e-01  1.65777206e-02  1.03289969e-01  1.16694383e-01
  -3.74751464e-02 -2.13977918e-01  6.59076393e-01 -1.89433098e-01
   5.99311963e-02  1.26579404e-01  3.24111819e-01 -9.68614221e-02
  -4.67263050e-02  6.26357257e-01 -3.76350433e-02  3.26357060e-03
  -7.64073953e-02  5.31786203e-01 -4.32120442e-01  4.52441484e-01
   2.47806802e-01 -1.40497848e-01  6.87352300e-01  5.28810740e-01
   9.40143839e-02  5.83566539e-02  4.66028243e-01  7.52368122e-02
  -1.08566336e-01 -8.50626767e-01 -3.13720316e-01 -1.82588734e-02
  -7.34062433e-01 -5.54399192e-02 -1.53524697e-01 -5.25059216e-02
   7.10212886e-01  6.89967126e-02 -6.81197792e-02 -8.04218352e-02
   2.16111168e-01  6.54785872e-01 -2.43451402e-01  3.28904957e-01
   1.72391236e-01 -8.16017017e-02  3.43779653e-01 -4.63427693e-01
  -2.59441525e-01  1.19308792e-01 -1.76971376e+00 -2.54125929e+00
   1.15486845e-01 -1.84318244e+00  5.29443502e-01 -1.05876885e-02
  -7.57948533e-02 -6.95297956e-01  7.18868300e-02 -1.87859431e-01
   2.18135297e-01 -1.55833960e-01 -2.67267860e-02  3.75876188e-01
  -4.62841749e-01  1.19146584e-02 -5.77632003e-02  2.52270758e-01
  -2.92414725e-01  2.00586274e-01  8.19337070e-02  3.05387788e-02
  -8.35527658e-01  9.77642555e-03 -4.04087633e-01 -2.72388607e-01
  -1.49102584e-01  2.01376781e-01 -1.76132441e+00 -2.00222135e-01
   3.00962836e-01 -9.32326555e-01 -3.53738070e-01  5.80915511e-01
  -2.80209240e-02  4.06988382e-01 -1.22832591e-02  1.87061191e-01
  -2.19586432e-01  4.71095085e-01 -3.78127992e-02  2.48977691e-01
   3.96987796e-01 -1.57477468e-01  1.19947150e-01  5.47208153e-02
  -6.73239052e-01  4.54761088e-01 -1.45472720e-01  2.04629838e-01
   9.54351649e-02 -1.00164330e-02 -1.21286178e+00 -1.38768321e-02
  -7.24630928e+00  2.21901953e-01 -4.52796817e-02 -7.72028556e-03
  -9.64690596e-02  3.60838681e-01  3.52356695e-02 -1.82699963e-01
   2.73882985e-01  7.93471858e-02 -1.14346063e-02  2.37862945e-01
   3.21222246e-01  2.33757254e-02  3.60125571e-01  2.44249269e-01]
 [-3.21008444e+00 -2.16712445e-01 -1.19917440e+00  5.11035547e-02
  -3.51739198e-01  2.21730828e-01  3.10508549e-01  6.18596017e-01
   4.73004997e-01 -7.07207918e-02 -1.04148313e-01  2.68342406e-01
  -3.39035094e-01 -2.76504397e-01  3.83794196e-02 -3.45849037e-01
   3.95664945e-02  4.35837619e-02  3.64131741e-02 -1.08384512e-01
  -1.82346985e-01  4.21826899e-01  5.51558211e-02 -7.47687340e-01
  -3.84732485e-02  5.43143034e-01  3.38081598e-01  6.29546940e-01
  -3.08870941e-01  3.05862337e-01 -5.94847023e-01  9.85087037e-01
   5.54940820e-01  1.37214847e-02 -2.56527543e-01  2.83730999e-02
  -1.21670194e-01 -6.90974951e-01  4.06497180e-01 -6.33333623e-02
  -7.67667055e-01 -2.31308094e-03 -1.29140839e-02  3.80873755e-02
   6.65394962e-02  1.33376881e-01  3.85303125e-02 -3.01771909e-01
  -4.07864451e-02  6.27618372e-01  2.22039595e-01  5.17728686e-01
   2.07331479e-01 -3.05271782e-02  4.94550854e-01 -1.44268304e-01
   2.52608746e-01  3.65760535e-01 -1.52553582e+00 -1.00468898e+00
  -1.34245768e-01 -2.06914306e+00  1.94673896e-01  3.36320177e-02
   3.39699723e-02  3.88498753e-01  2.55227881e-03 -3.04596961e-01
  -2.65948832e-01 -5.86848795e-01  2.35360600e-02  2.72673130e-01
   2.19331548e-01 -5.98331988e-02 -4.16575260e-02  5.36250830e-01
  -1.42218485e-01  2.67533008e-02 -2.74557285e-02 -5.61914891e-02
  -3.67965996e-01 -3.31295013e-01  7.84561336e-02 -2.58385986e-01
  -2.42169157e-01  2.90797174e-01 -2.59298968e+00  2.95339495e-01
  -3.55323732e-01 -2.12293410e+00 -1.23960984e+00  1.09171860e-01
   1.79297626e-01 -3.53275150e-01 -6.80419430e-02  2.57013917e-01
   1.70421660e-01 -2.47139134e-03  2.43899841e-02  3.80574673e-01
   1.52510136e-01 -6.20596707e-01 -4.61729497e-01 -4.27275121e-01
  -7.01547742e-01  2.12630197e-01 -1.71068579e-01 -4.22482312e-01
   2.53277391e-01 -5.89902215e-02 -1.59866095e+00  3.73196080e-02
  -4.61360598e+00 -2.98234135e-01 -3.69951516e-01 -2.19196547e-03
   5.85222483e-01 -4.24491674e-01  5.67386270e-01 -4.01626110e-01
   4.19834226e-01 -2.20742270e-01  3.55635248e-02  1.21491179e-01
   1.82973906e-01 -4.56340462e-02  3.54131550e-01  4.87102568e-02]
 [-1.70803320e+00 -3.37730557e-01 -1.18990278e+00 -1.10234413e-02
  -5.47305882e-01 -6.50218651e-02  1.65131822e-01  8.19202065e-01
   1.83032364e-01 -1.96862202e-02  4.19920295e-01  4.64326471e-01
  -1.56317621e-01  4.93773431e-01 -7.04382539e-01  6.06972836e-02
   3.28723043e-02 -4.69638668e-02 -3.84918749e-01  3.53372067e-01
  -4.45658527e-03 -4.39691067e-01 -6.73898160e-02 -1.55530548e+00
   1.56765003e-02  4.50552523e-01  1.16313171e+00 -1.21860318e-01
  -1.19160450e+00  2.74012089e-01 -1.29364431e+00  3.39532226e-01
   3.90856385e-01 -2.96759941e-02 -5.47566354e-01 -8.23725481e-03
   1.38062444e-02 -1.01526451e+00  1.06705630e+00 -2.21201070e-02
  -1.55499959e+00  3.46715078e-02 -3.96988213e-01  1.93762213e-01
  -2.66281724e-01  6.16029978e-01 -7.12282658e-02  3.67847025e-01
  -3.63799572e-01  1.10068239e-01  3.28754783e-01 -6.85604274e-01
   2.93995906e-02  6.28427193e-02  3.25830817e-01  4.46615666e-01
   4.28537607e-01  5.00669837e-01 -1.39412189e+00 -2.95950460e+00
  -3.65741938e-01 -8.48702788e-01  2.50665128e-01 -6.73502982e-02
  -9.82190520e-02  4.13177758e-01 -3.59256685e-01 -5.93298338e-02
  -2.16913795e+00 -4.71504867e-01  1.14693306e-02  3.19120660e-02
   6.77998960e-01 -5.77734318e-03 -7.47289658e-02  6.07746184e-01
  -2.14459658e-01  3.11604381e-01 -2.88147330e-01 -7.49842003e-02
   1.38269931e-01 -4.06434655e-01  3.85949612e-01  1.63026765e-01
  -9.59636047e-02  2.59759545e-01 -2.77269435e+00  7.10662007e-02
  -4.82040614e-01 -2.81741023e+00 -1.33537447e+00 -3.61189693e-01
   3.96629572e-01 -1.99314230e-03 -7.71580189e-02 -7.41950333e-01
   1.48165245e-02 -3.30033869e-01 -9.95036028e-03  8.05737436e-01
   2.92299867e-01  8.94846115e-03  2.91905910e-01 -2.57184267e-01
  -8.79750609e-01 -3.36310357e-01 -1.13473302e-02  2.08120677e-04
   1.87392220e-01 -9.69323516e-02 -1.48867595e+00 -2.93109510e-02
  -5.58530188e+00 -5.99082410e-01 -1.98883832e-01 -5.06976008e-01
   7.66175747e-01  2.47105882e-01  1.14427400e+00 -7.45509267e-02
  -9.21526372e-01 -1.17911726e-01 -5.50888218e-02  1.42584801e-01
   1.56345218e-01 -9.71498787e-02  7.81196773e-01 -1.30132154e-01]
 [-1.06535351e+00 -2.82103419e-02 -1.55058396e+00 -8.33475068e-02
  -1.06713223e+00 -5.18374264e-01  6.93319179e-03  8.17617714e-01
  -4.47849631e-01 -1.26948440e-02 -8.36640410e-03  5.30881524e-01
  -1.01821557e-01 -9.82798114e-02 -1.16139257e+00  3.63334090e-01
  -1.05283950e-02  2.28339657e-01 -3.32752198e-01  5.18173933e-01
   6.91413507e-02  7.03628838e-01  6.07600361e-02 -2.07472563e+00
  -1.53296757e-02  4.92040575e-01  5.78378797e-01  2.06046864e-01
  -1.17523658e+00 -8.12533051e-02 -1.83670521e+00  5.32703340e-01
   5.71432710e-02  1.80770438e-02 -7.78106928e-01 -6.44494593e-03
   1.07602328e-01 -1.25970244e+00  5.65967917e-01 -5.02092317e-02
  -2.66119742e+00  5.09322882e-02  2.33936995e-01  5.05435206e-02
  -4.11232084e-01  4.30751294e-02 -2.80529503e-02  7.91072473e-02
   2.03070015e-01 -3.81661393e-02 -1.81916893e-01 -1.05873823e+00
   3.15367877e-02 -6.28298819e-02  1.64259493e-01  3.85160953e-01
   7.80547708e-02  7.33433664e-01 -3.13849282e+00 -1.68575323e+00
  -2.04822183e-01 -1.02582455e+00 -6.46469057e-01 -6.58798590e-02
  -9.67413783e-02  2.90912371e-02 -1.01697221e-01 -1.24765933e-02
  -1.81739426e+00 -5.90023518e-01 -1.62119698e-02  3.41181934e-01
  -1.01195075e-01  5.37207574e-02 -9.25265327e-02  2.36031204e-01
   2.66036510e-01  3.67144048e-01 -6.55758440e-01 -3.80074233e-02
  -2.66140699e-02  1.44988537e-01  3.09416622e-01 -1.27721757e-01
  -1.04365647e-01  5.98470718e-02 -2.07193542e+00 -5.30428350e-01
   4.22649086e-01 -2.27027822e+00 -2.35009909e+00  1.65661082e-01
  -4.53033075e-02  3.77497047e-01 -1.11366794e-01 -7.33602703e-01
   2.75317550e-01  1.06348777e-02 -1.52613418e-02  4.87766832e-01
   2.44774222e-01  2.51930691e-02  5.76318443e-01  3.04236859e-01
  -8.64493787e-01 -2.33626306e-01  3.96209896e-01  3.90474379e-01
  -1.99920774e-01  1.10845186e-03 -1.58016598e+00  2.19035018e-02
  -2.98161697e+00 -9.65569094e-02  5.55106580e-01  5.00443913e-02
   6.73909485e-02 -9.87995602e-03  8.82294953e-01 -1.15806663e+00
  -6.69541419e-01  4.50496197e-01  2.11469494e-02 -1.59181073e-01
   1.19062833e-01 -2.27522720e-02  3.81604463e-01 -9.82558448e-03]
 [-1.09011602e+00 -1.06861174e-01 -6.31431699e-01  1.81661581e-03
  -7.65478909e-01  2.52991885e-01 -5.16216457e-01  9.50838745e-01
  -1.84557244e-01  5.57911433e-02 -3.81834179e-01 -4.00451198e-02
   7.09938705e-01 -1.24021824e-02 -8.76962185e-01  2.87964046e-01
   1.56637803e-02 -1.58856325e-02  5.97059168e-03 -2.64662746e-02
   8.44935477e-02  1.00314701e+00  4.72796895e-02 -1.87632620e+00
   7.28855142e-03  1.77081421e-01 -9.50650573e-02 -5.12641251e-01
  -3.14211845e+00  7.50611275e-02 -6.33334398e-01 -4.87751424e-01
  -2.33869687e-01  1.45016825e-02 -5.33115745e-01  2.72502610e-03
   4.49752569e-01 -8.23654711e-01  9.58915576e-02  4.04066257e-02
