gru/gru_cell/kernel:0
(1, 240)
[[ 1.05646975e-01 -3.96007538e-01 -3.44110161e-01 -1.92474097e-01
  -3.69968683e-01 -1.70078591e-01 -2.49817982e-01 -2.08905235e-01
  -2.74522960e-01 -4.34832901e-01 -3.86394531e-01 -1.49387762e-01
  -4.32995021e-01 -4.36959624e-01 -1.54378355e-01 -2.66727984e-01
  -4.02417302e-01 -3.72178584e-01 -2.93331057e-01 -3.51388782e-01
  -1.99832395e-01 -3.52457702e-01 -3.05288583e-01 -3.58802527e-01
  -2.66372293e-01 -5.25463462e-01 -1.98055834e-01 -3.59707236e-01
  -4.40018952e-01 -2.99422950e-01 -1.77056402e-01 -2.54551291e-01
  -4.84747469e-01 -2.97068149e-01 -5.55596948e-01 -3.90990615e-01
  -9.56138745e-02 -2.68293649e-01 -3.61605495e-01 -3.62261087e-01
   1.20840799e-02 -5.12487948e-01 -5.67849398e-01 -1.20127298e-01
  -4.13955182e-01 -3.21455657e-01 -5.55649757e-01 -2.28899702e-01
  -2.32260242e-01 -3.67536813e-01 -5.24189830e-01 -1.05272375e-01
  -5.86529732e-01 -3.62011999e-01 -2.47961283e-01 -1.32808223e-01
  -2.64814764e-01 -1.64579362e-01 -3.18776876e-01 -3.91043305e-01
  -4.28514689e-01 -2.44304925e-01 -1.87857002e-01 -2.03894779e-01
  -3.64561081e-01 -1.36399016e-01 -2.79185534e-01 -2.45021805e-01
  -3.59503418e-01 -3.97063673e-01 -2.78057575e-01 -2.65706331e-02
  -1.64375305e-01 -4.77088004e-01 -1.61681443e-01 -1.89428091e-01
  -5.45159280e-01 -4.70188051e-01 -5.29511213e-01 -3.43315929e-01
   2.48220898e-02 -1.44716511e-02  5.75703196e-02 -2.87598409e-02
  -4.29247916e-02 -2.25332957e-02  8.31566826e-02 -1.19081968e-02
   5.31360619e-02  1.22558109e-01 -5.11540249e-02  1.47299424e-01
  -1.08100343e-02  2.04663407e-02  1.90488640e-02  1.21759787e-01
  -1.46338016e-01  7.04035759e-02 -1.32225394e-01 -1.30550712e-01
  -6.76267222e-02 -1.84992549e-03  3.01466743e-03  1.40554681e-01
   1.67511043e-03 -5.94673231e-02 -1.98539838e-01 -7.92938396e-02
  -1.46516236e-02 -1.47308083e-02  5.62589094e-02 -1.99197307e-02
   6.49329349e-02 -1.79832652e-01 -5.34217581e-02  2.32501440e-02
   1.53937772e-01 -5.64311892e-02  1.92420222e-02 -7.91904181e-02
   2.76585910e-02 -3.05008758e-02 -3.16348523e-02 -1.16397530e-01
  -5.23936152e-02 -2.17462610e-02  7.29717240e-02  1.07955016e-01
  -1.31562203e-01 -2.15244349e-02 -2.93412209e-02  9.63367075e-02
  -1.66413754e-01 -1.08486645e-01  2.44610757e-02  1.20572433e-01
   3.93698588e-02 -1.02524340e-01  5.46574369e-02  9.98606682e-02
  -1.57490313e-01 -1.26695082e-01  3.22044306e-02 -8.17839727e-02
  -1.79708898e-01  5.38759027e-03  3.13650840e-03 -7.97464773e-02
  -2.87676812e-07 -1.51023030e-01 -9.07217562e-02  8.89972299e-02
  -4.69133351e-03  7.39280507e-02 -9.67650861e-02 -3.22569683e-02
  -7.22821131e-02  3.35233957e-02 -3.56333591e-02 -2.40943149e-01
  -1.05680101e-01 -9.57912654e-02  1.33639961e-01 -3.17876264e-02
  -1.55487925e-01  1.36983007e-01  4.14096117e-02 -7.91712254e-02
   7.76885003e-02  1.45389766e-01 -9.25739035e-02 -6.82518408e-02
  -4.29712161e-02  1.01832323e-01  7.72547126e-02  1.22948460e-01
   1.48488343e-01 -6.24796860e-02  1.22124955e-01  1.83061793e-01
   8.53146464e-02  9.06844437e-02  1.55327097e-01 -1.55477643e-01
   1.30157486e-01 -1.15719154e-01 -1.43069923e-01 -8.51191953e-02
   1.49256825e-01 -1.13121510e-01 -8.01464543e-02 -4.65568416e-02
   8.10430720e-02 -3.10176294e-02  1.59921065e-01 -7.33274594e-02
  -7.18773156e-02  1.13513283e-01  7.88975060e-02  9.77925360e-02
  -2.16227602e-02  1.19876064e-01  1.15950763e-01  1.20902561e-01
  -1.17471047e-01  2.78042406e-02  1.04855180e-01  1.41326666e-01
  -4.57846299e-02  9.91403759e-02 -1.23585656e-01 -4.55115736e-02
  -9.84277949e-02  1.20744564e-01 -1.02932990e-01 -2.69946251e-02
   3.35491002e-02 -1.02792889e-01 -1.25141531e-01  1.21023230e-01
   1.48667112e-01 -1.45393670e-01 -1.51259795e-01  4.64119911e-02
   1.04692869e-01 -1.34164557e-01  8.91216323e-02  1.38092071e-01
  -1.47055551e-01 -6.52946681e-02 -6.45459667e-02 -6.96794912e-02
   7.27923885e-02 -1.71651319e-01 -1.21738330e-01 -3.49589176e-02
  -1.14225425e-01  1.11372352e-01 -1.42087147e-01  6.32521659e-02]]
gru/gru_cell/recurrent_kernel:0
(80, 240)
[[-0.17122225  0.09501787  0.14867762 ...  0.05173565 -0.17482652
  -0.12260624]
 [-0.09821367  0.07245105  0.14993627 ...  0.05012986  0.00242218
  -0.04848069]
 [ 0.02272558 -0.11978598 -0.19068964 ... -0.05070776 -0.05491031
  -0.0249443 ]
 ...
 [ 0.06625684 -0.09683974 -0.03496409 ... -0.03398272  0.00840106
  -0.07589932]
 [-0.05802096  0.01222041  0.07906367 ...  0.05074486 -0.09648047
  -0.01235173]
 [-0.00537369  0.14071406  0.1041133  ... -0.11989956  0.14553653
  -0.11164815]]
gru/gru_cell/bias:0
(2, 240)
[[ 3.12624127e-02 -5.13873518e-01 -6.83674932e-01 -1.60932720e-01
  -7.00813830e-01 -4.84723866e-01 -4.23206151e-01 -4.91926998e-01
  -5.32560110e-01 -5.16863883e-01 -4.92022157e-01 -3.69653404e-01
  -4.92638975e-01 -6.10943079e-01 -4.21632618e-01 -6.93646252e-01
  -4.94843215e-01 -5.17465174e-01 -6.31972611e-01 -7.49047875e-01
  -4.17032987e-01 -5.42684376e-01 -5.46865940e-01 -5.60250759e-01
  -3.87259156e-01 -7.25647151e-01 -5.01375854e-01 -6.28356874e-01
  -4.74488139e-01 -4.35173303e-01 -3.87875229e-01 -5.33539474e-01
  -5.67295909e-01 -3.13812584e-01 -6.41162038e-01 -4.90885705e-01
  -2.92528093e-01 -4.03281629e-01 -4.90346968e-01 -5.88319838e-01
  -5.38169108e-02 -6.66852951e-01 -6.43766999e-01 -2.82700211e-01
  -6.90126717e-01 -3.53258252e-01 -7.42690086e-01 -3.96385103e-01
  -3.34393799e-01 -5.31288743e-01 -6.93812132e-01 -2.62398154e-01
  -7.58659720e-01 -4.18572009e-01 -6.01056457e-01 -3.40555273e-02
  -2.38509342e-01 -3.41931701e-01 -4.43884730e-01 -5.86294591e-01
  -4.34748709e-01 -5.25997639e-01 -4.80114728e-01 -3.13353658e-01
  -7.40997612e-01 -4.23336804e-01 -5.48516929e-01 -4.72134590e-01
  -4.43090647e-01 -3.95870566e-01 -6.23578608e-01 -2.95767546e-01
  -5.34610629e-01 -6.46265864e-01 -4.26543057e-01 -1.97741047e-01
  -6.31734669e-01 -5.83657980e-01 -6.07303977e-01 -3.70393991e-01
   3.08386213e-03 -4.52391244e-02 -2.71463487e-02 -4.66805175e-02
   9.13167186e-03  1.96190998e-02 -3.91254239e-02 -4.11935225e-02
  -8.63696411e-02 -1.63698709e-03 -1.45550640e-02 -1.71596799e-02
  -3.65263224e-02 -3.02426293e-02 -3.12240012e-02 -1.67168155e-02
   1.07353088e-02 -4.98953834e-02  1.05475290e-02  1.91531945e-02
  -1.78609192e-02 -4.48698662e-02 -4.69500152e-03  2.20634826e-02
   2.51170713e-02 -1.37369549e-02 -3.12894695e-02 -3.06184832e-02
  -2.87181465e-04  4.84218961e-03 -2.30379086e-02 -3.51702645e-02
  -5.22641242e-02 -6.86290562e-02  1.78346559e-02 -4.92466427e-02
  -3.72415371e-02 -1.61472876e-02 -2.45776959e-02 -4.11255918e-02
  -8.43262766e-03 -1.76340435e-02 -4.25064750e-02 -1.77000109e-02
  -9.43390746e-03 -1.21908048e-02 -1.27538359e-02 -8.56447313e-03
  -1.68710183e-02 -2.29529552e-02 -8.26447038e-04 -5.78734726e-02
  -3.04111019e-02  1.70465242e-02 -2.16069985e-02 -4.79797311e-02
  -4.76116091e-02 -1.93863809e-02 -2.47663297e-02  1.46422256e-02
   1.12874003e-03  1.48831438e-02 -2.15654317e-02 -7.02659711e-02
  -7.94885606e-02 -1.76345860e-03 -1.03837065e-01 -3.95162497e-03
   2.86764521e-02 -4.81861010e-02 -1.54908121e-01 -2.26125270e-02
  -1.89614352e-02  2.17840709e-02  1.43199768e-02 -5.49661592e-02
  -6.71274811e-02 -2.48974618e-02  5.34705399e-03 -1.00993171e-01
   2.05174033e-02  2.14745998e-02 -2.41871253e-02  4.95371968e-03
   2.82730367e-02 -2.19585840e-02 -1.44520020e-02  1.67733952e-02
  -1.73017886e-02 -2.60014087e-02  1.92477498e-02  1.43168690e-02
   8.55859462e-03 -1.58284828e-02 -1.43374493e-02 -2.15078350e-02
  -2.51667090e-02  1.18542835e-02 -2.36144904e-02 -3.34405676e-02
  -1.90277770e-02 -1.44936144e-02 -2.83863563e-02  2.69985106e-02
  -2.53134165e-02  2.24216469e-02  2.39771493e-02  1.76497549e-02
  -2.65580863e-02  2.10291743e-02  1.53028984e-02  1.20857237e-02
  -1.89903416e-02  7.84430560e-03 -2.70241816e-02  1.38275316e-02
   1.35923279e-02 -1.98854879e-02 -1.73485465e-02 -2.45083608e-02
   2.54912837e-03 -1.65750999e-02 -1.91087853e-02 -1.91478990e-02
   2.04362050e-02 -6.15002913e-03 -1.91418584e-02 -2.54968405e-02
   7.65519449e-03 -1.70027856e-02  2.19581276e-02  7.51120318e-03
   1.68872178e-02 -2.08249632e-02  1.99944526e-02  4.15715715e-03
  -4.02787421e-03  1.69598144e-02  2.11302619e-02 -2.39536110e-02
  -2.92654634e-02  2.46962197e-02  2.55468953e-02 -1.03907771e-02
  -1.90013144e-02  2.57954244e-02 -1.43659925e-02 -2.71427389e-02
   2.43802574e-02  1.48116974e-02  1.45805199e-02  1.42945517e-02
  -1.45524126e-02  2.83107851e-02  1.98451076e-02  1.01638231e-02
   2.37119310e-02 -2.19286401e-02  2.69232057e-02 -3.33087123e-03]
 [ 3.12624127e-02 -5.13873518e-01 -6.83674932e-01 -1.60932720e-01
  -7.00813830e-01 -4.84723866e-01 -4.23206151e-01 -4.91926998e-01
  -5.32560110e-01 -5.16863883e-01 -4.92022157e-01 -3.69653404e-01
  -4.92638975e-01 -6.10943079e-01 -4.21632618e-01 -6.93646252e-01
  -4.94843215e-01 -5.17465174e-01 -6.31972611e-01 -7.49047875e-01
  -4.17032987e-01 -5.42684376e-01 -5.46865940e-01 -5.60250759e-01
  -3.87259156e-01 -7.25647151e-01 -5.01375854e-01 -6.28356874e-01
  -4.74488139e-01 -4.35173303e-01 -3.87875229e-01 -5.33539474e-01
  -5.67295909e-01 -3.13812584e-01 -6.41162038e-01 -4.90885705e-01
  -2.92528093e-01 -4.03281629e-01 -4.90346968e-01 -5.88319838e-01
  -5.38169108e-02 -6.66852951e-01 -6.43766999e-01 -2.82700211e-01
  -6.90126717e-01 -3.53258252e-01 -7.42690086e-01 -3.96385103e-01
  -3.34393799e-01 -5.31288743e-01 -6.93812132e-01 -2.62398154e-01
  -7.58659720e-01 -4.18572009e-01 -6.01056457e-01 -3.40555273e-02
  -2.38509342e-01 -3.41931701e-01 -4.43884730e-01 -5.86294591e-01
  -4.34748709e-01 -5.25997639e-01 -4.80114728e-01 -3.13353658e-01
  -7.40997612e-01 -4.23336804e-01 -5.48516929e-01 -4.72134590e-01
  -4.43090647e-01 -3.95870566e-01 -6.23578608e-01 -2.95767546e-01
  -5.34610629e-01 -6.46265864e-01 -4.26543057e-01 -1.97741047e-01
  -6.31734669e-01 -5.83657980e-01 -6.07303977e-01 -3.70393991e-01
   3.08386213e-03 -4.52391244e-02 -2.71463487e-02 -4.66805175e-02
   9.13167186e-03  1.96190998e-02 -3.91254239e-02 -4.11935225e-02
  -8.63696411e-02 -1.63698709e-03 -1.45550640e-02 -1.71596799e-02
  -3.65263224e-02 -3.02426293e-02 -3.12240012e-02 -1.67168155e-02
   1.07353088e-02 -4.98953834e-02  1.05475290e-02  1.91531945e-02
  -1.78609192e-02 -4.48698662e-02 -4.69500152e-03  2.20634826e-02
   2.51170713e-02 -1.37369549e-02 -3.12894695e-02 -3.06184832e-02
  -2.87181465e-04  4.84218961e-03 -2.30379086e-02 -3.51702645e-02
  -5.22641242e-02 -6.86290562e-02  1.78346559e-02 -4.92466427e-02
  -3.72415371e-02 -1.61472876e-02 -2.45776959e-02 -4.11255918e-02
  -8.43262766e-03 -1.76340435e-02 -4.25064750e-02 -1.77000109e-02
  -9.43390746e-03 -1.21908048e-02 -1.27538359e-02 -8.56447313e-03
  -1.68710183e-02 -2.29529552e-02 -8.26447038e-04 -5.78734726e-02
  -3.04111019e-02  1.70465242e-02 -2.16069985e-02 -4.79797311e-02
  -4.76116091e-02 -1.93863809e-02 -2.47663297e-02  1.46422256e-02
   1.12874003e-03  1.48831438e-02 -2.15654317e-02 -7.02659711e-02
  -7.94885606e-02 -1.76345860e-03 -1.03837065e-01 -3.95162497e-03
   2.86764521e-02 -4.81861010e-02 -1.54908121e-01 -2.26125270e-02
  -1.89614352e-02  2.17840709e-02  1.43199768e-02 -5.49661592e-02
  -6.71274811e-02 -2.48974618e-02  5.34705399e-03 -1.00993171e-01
   2.04364248e-02  1.97619107e-02 -2.15489212e-02  4.12973668e-03
   2.76079979e-02 -2.16920469e-02 -1.38831548e-02  1.57421958e-02
  -1.62795391e-02 -2.43644211e-02  1.86055470e-02  1.34501187e-02
   8.35445244e-03 -1.41598666e-02 -1.36486618e-02 -1.92381870e-02
  -2.52684876e-02  1.05677033e-02 -2.37561390e-02 -3.37137543e-02
  -1.90510284e-02 -1.23346131e-02 -2.74750255e-02  2.62910966e-02
  -2.53997613e-02  2.20237058e-02  2.45810915e-02  1.70220379e-02
  -2.58858036e-02  2.05337089e-02  1.46705229e-02  1.17524248e-02
  -1.72587913e-02  7.72670330e-03 -2.69332845e-02  1.21985106e-02
   1.41262515e-02 -1.93099566e-02 -1.62915122e-02 -2.36216076e-02
   2.76873005e-03 -1.54074468e-02 -1.77629795e-02 -1.81717928e-02
   1.99647490e-02 -6.52854796e-03 -1.73845384e-02 -2.43346281e-02
   8.22802540e-03 -1.60557423e-02  2.05921885e-02  7.58438837e-03
   1.73298139e-02 -2.14201547e-02  1.84790902e-02  3.87574360e-03
  -4.36088489e-03  1.67733319e-02  1.99187808e-02 -2.32111402e-02
  -2.87864320e-02  2.53055822e-02  2.43773460e-02 -8.96150619e-03
  -1.79065801e-02  2.52708327e-02 -1.12940772e-02 -2.67325677e-02
   2.44594850e-02  1.45998010e-02  1.23638520e-02  1.29412329e-02
  -1.38372229e-02  2.76538152e-02  1.99481230e-02  1.04858195e-02
   2.16006786e-02 -2.04997510e-02  2.63015535e-02 -5.02331834e-03]]
gru_1/gru_cell_1/kernel:0
(80, 300)
[[-0.07444312 -0.08269134 -0.03502454 ...  0.14662337 -0.03933661
   0.03491373]
 [ 0.0943719  -0.04870317  0.031291   ... -0.02968309  0.01513169
  -0.12257963]
 [ 0.00493463  0.16381027  0.04306339 ... -0.04407188  0.03554366
  -0.03204057]
 ...
 [ 0.09882863 -0.03703956 -0.07519114 ... -0.10418753  0.09239412
   0.08452373]
 [-0.03664264 -0.01770787 -0.03307436 ...  0.02280351  0.08236416
   0.00139817]
 [ 0.06856367 -0.11256563 -0.06990812 ...  0.03758116  0.08435831
   0.11681788]]
gru_1/gru_cell_1/recurrent_kernel:0
(100, 300)
[[-0.10747157 -0.03250084  0.01643535 ... -0.07427631 -0.07873703
   0.03967297]
 [-0.04519831  0.0135332   0.06049423 ...  0.00718413 -0.00720705
   0.00373597]
 [ 0.0469395  -0.04230436 -0.05154492 ... -0.02190025 -0.0469198
  -0.01016189]
 ...
 [-0.14364132  0.07568543 -0.11486333 ... -0.00860958 -0.02139815
   0.02312868]
 [ 0.06661411  0.03161369 -0.01453155 ... -0.07111477 -0.03986464
   0.05579668]
 [ 0.08328409  0.06257024  0.08243589 ...  0.00492588  0.0060467
   0.05004402]]
gru_1/gru_cell_1/bias:0
(2, 300)
[[ 0.15328181  0.10283601  0.06759353  0.07021254  0.12970982  0.11590472
   0.03209824  0.07889252  0.16893806 -0.01893581  0.09199414  0.16482368
  -0.0334408   0.00440419  0.18267687  0.12288829 -0.00244193 -0.08072945
   0.06792816  0.11138497  0.16855748  0.03670871  0.08628745 -0.04661689
   0.0868522   0.00155892  0.00372708  0.11136938  0.13513945  0.15173429
   0.00835021  0.00711587  0.05748639  0.17132816 -0.04659625  0.061169
   0.12278868  0.09365406  0.02292144  0.05042676  0.04245596  0.07208604
   0.11051919  0.11883623  0.04949141  0.08835012  0.11003377  0.1178456
   0.05264333  0.02817465 -0.03830439  0.12526512  0.08334653  0.03317742
   0.13184147  0.09191564  0.079082    0.0549107   0.0622973   0.07289764
   0.09300627  0.11888098  0.08050161  0.06969858  0.02560908  0.08544234
   0.10887791  0.07494578  0.16143683  0.04267481 -0.04445549  0.11442565
   0.06010268  0.1100713   0.02172417  0.00254234  0.08445464  0.14156488
   0.05896452  0.13449967  0.12019151  0.16386035  0.10152922  0.09627143
   0.11395061  0.01548483  0.04429488  0.01690572  0.07647488  0.07478935
  -0.02009536  0.13741757  0.14467967  0.03213294  0.03858278  0.07553808
   0.03966323  0.10687899  0.06965524  0.0766604  -0.12783965 -0.01818291
  -0.14588816 -0.02891636 -0.07124671 -0.11235137 -0.05822985 -0.03737895
  -0.03728054 -0.10530078 -0.05559227 -0.09327906 -0.12358186 -0.05647865
  -0.11388668 -0.05570616 -0.06247455 -0.10867814 -0.1751809  -0.05216665
  -0.12554283 -0.0763944  -0.04143152 -0.07368804 -0.1067726  -0.07340556
  -0.0620246  -0.12280248 -0.05292194 -0.12675636 -0.09699921 -0.06788365
  -0.08562487 -0.07340595 -0.07156867 -0.07869557 -0.05956103 -0.09169571
  -0.07579675 -0.09624091 -0.10452388 -0.03148048 -0.07480197 -0.01899047
  -0.14597751 -0.1447731  -0.04193871 -0.0818705  -0.09376542 -0.09066731
  -0.03726526 -0.07950425 -0.04310035 -0.13377222 -0.04545104 -0.06925174
  -0.10219378 -0.04366606  0.00250281 -0.05485671 -0.04779208 -0.01620297
  -0.00939423 -0.09364919 -0.09936868 -0.09858966 -0.12193751 -0.12004229
  -0.10314158 -0.0694128  -0.18810531 -0.02854844 -0.06007154 -0.07358713
  -0.11826478 -0.10197373 -0.051509   -0.09395079 -0.07807509 -0.06840716
  -0.06786451 -0.04105112 -0.08089311 -0.04129054 -0.06865797 -0.04806775
  -0.12764286 -0.14259727 -0.10781139 -0.0723564  -0.09696835 -0.05926487
  -0.10194522 -0.04506891 -0.06042451 -0.04963817 -0.10925984 -0.10149357
  -0.0276559  -0.07447932 -0.00411108 -0.00101787 -0.0061142  -0.00903856
  -0.0048046   0.00850614 -0.0095656  -0.008368   -0.00818488 -0.0055373
  -0.0098343   0.01254809  0.01009046 -0.01091515 -0.01082531 -0.00388806
   0.00973682 -0.00720692 -0.00251392 -0.00856771  0.00684621 -0.00548421
  -0.00732007  0.0069021   0.00848554  0.00595196  0.00606097 -0.0057736
   0.00914556  0.00348696 -0.00377737  0.00487264  0.00625882  0.00958833
   0.00750362  0.00850372 -0.00861388  0.01153619  0.00759917  0.00805249
   0.00518597  0.00571183 -0.00441875 -0.00084666 -0.0065738  -0.00631123
  -0.00205966 -0.00701407  0.00483168 -0.01050586  0.0040539   0.00976478
  -0.01060546  0.00767551  0.00312144 -0.00809355 -0.00538804  0.01192019
  -0.00560224  0.00406379  0.00558096  0.00143674  0.00167998 -0.01199814
  -0.00406408  0.00868647 -0.00884476 -0.00227184  0.00909521 -0.00642581
   0.01109367 -0.00933908 -0.00526841  0.01011668  0.01592769  0.00598422
  -0.00934927  0.00469605 -0.01154622  0.00667956  0.00558683 -0.0081551
   0.00430617  0.00777486 -0.00669583 -0.00412823 -0.00551048 -0.00757582
  -0.00574428  0.00671086 -0.01292023  0.00727202  0.00836975 -0.007223
  -0.00511526 -0.00476099  0.0089087  -0.01476773 -0.00040124  0.00808902]
 [ 0.15328181  0.10283601  0.06759353  0.07021254  0.12970982  0.11590472
   0.03209824  0.07889252  0.16893806 -0.01893581  0.09199414  0.16482368
  -0.0334408   0.00440419  0.18267687  0.12288829 -0.00244193 -0.08072945
   0.06792816  0.11138497  0.16855748  0.03670871  0.08628745 -0.04661689
   0.0868522   0.00155892  0.00372708  0.11136938  0.13513945  0.15173429
   0.00835021  0.00711587  0.05748639  0.17132816 -0.04659625  0.061169
   0.12278868  0.09365406  0.02292144  0.05042676  0.04245596  0.07208604
   0.11051919  0.11883623  0.04949141  0.08835012  0.11003377  0.1178456
   0.05264333  0.02817465 -0.03830439  0.12526512  0.08334653  0.03317742
   0.13184147  0.09191564  0.079082    0.0549107   0.0622973   0.07289764
   0.09300627  0.11888098  0.08050161  0.06969858  0.02560908  0.08544234
   0.10887791  0.07494578  0.16143683  0.04267481 -0.04445549  0.11442565
   0.06010268  0.1100713   0.02172417  0.00254234  0.08445464  0.14156488
   0.05896452  0.13449967  0.12019151  0.16386035  0.10152922  0.09627143
   0.11395061  0.01548483  0.04429488  0.01690572  0.07647488  0.07478935
  -0.02009536  0.13741757  0.14467967  0.03213294  0.03858278  0.07553808
   0.03966323  0.10687899  0.06965524  0.0766604  -0.12783965 -0.01818291
  -0.14588816 -0.02891636 -0.07124671 -0.11235137 -0.05822985 -0.03737895
  -0.03728054 -0.10530078 -0.05559227 -0.09327906 -0.12358186 -0.05647865
  -0.11388668 -0.05570616 -0.06247455 -0.10867814 -0.1751809  -0.05216665
  -0.12554283 -0.0763944  -0.04143152 -0.07368804 -0.1067726  -0.07340556
  -0.0620246  -0.12280248 -0.05292194 -0.12675636 -0.09699921 -0.06788365
  -0.08562487 -0.07340595 -0.07156867 -0.07869557 -0.05956103 -0.09169571
  -0.07579675 -0.09624091 -0.10452388 -0.03148048 -0.07480197 -0.01899047
  -0.14597751 -0.1447731  -0.04193871 -0.0818705  -0.09376542 -0.09066731
  -0.03726526 -0.07950425 -0.04310035 -0.13377222 -0.04545104 -0.06925174
  -0.10219378 -0.04366606  0.00250281 -0.05485671 -0.04779208 -0.01620297
  -0.00939423 -0.09364919 -0.09936868 -0.09858966 -0.12193751 -0.12004229
  -0.10314158 -0.0694128  -0.18810531 -0.02854844 -0.06007154 -0.07358713
  -0.11826478 -0.10197373 -0.051509   -0.09395079 -0.07807509 -0.06840716
  -0.06786451 -0.04105112 -0.08089311 -0.04129054 -0.06865797 -0.04806775
  -0.12764286 -0.14259727 -0.10781139 -0.0723564  -0.09696835 -0.05926487
  -0.10194522 -0.04506891 -0.06042451 -0.04963817 -0.10925984 -0.10149357
  -0.0276559  -0.07447932 -0.00448155 -0.00240643 -0.00440405 -0.00747175
  -0.00297829  0.00765772 -0.01083646 -0.0093121  -0.00920677 -0.0072568
  -0.01075743  0.0125951   0.01121092 -0.01188068 -0.00938793 -0.00380451
   0.01021992 -0.00836851 -0.00323298 -0.00931831  0.00731012 -0.00617076
  -0.00836721  0.0077313   0.00946345  0.00688997  0.00643859 -0.00705939
   0.00997546  0.00349753 -0.00377477  0.00350629  0.00594116  0.01034858
   0.00799032  0.00863634 -0.00897089  0.00979001  0.00704574  0.00849404
   0.00554384  0.00584406 -0.00386145  0.00124617 -0.00604806 -0.00602959
  -0.00278786 -0.00677073  0.00389478 -0.0117794   0.00344396  0.00851747
  -0.01156069  0.00798955  0.00262722 -0.00714976 -0.00619397  0.01101312
  -0.00579125  0.00257419  0.00330374  0.00237135  0.00413286 -0.01274658
  -0.00432484  0.00840283 -0.00834229 -0.00280467  0.00748476 -0.00633413
   0.01025435 -0.00995198 -0.00603767  0.01071627  0.01635783  0.00619771
  -0.00949403  0.00456817 -0.01298753  0.00767258  0.00509087 -0.00736984
   0.00398594  0.00689281 -0.00769061 -0.00501273 -0.0060938  -0.00844603
  -0.00629159  0.0063251  -0.01325797  0.00868501  0.00882372 -0.00753995
  -0.00591055 -0.00503376  0.00783087 -0.01408546  0.0011759   0.00904354]]
dense/kernel:0
(100, 1)
[[-0.15096033]
 [ 0.09934654]
 [-0.1299843 ]
 [-0.06667347]
 [-0.10055371]
 [ 0.0673463 ]
 [-0.12848663]
 [-0.20298986]
 [-0.08649077]
 [-0.09986849]
 [-0.12566866]
 [ 0.06171549]
 [ 0.10051002]
 [-0.10465514]
 [-0.06533107]
 [-0.11457138]
 [ 0.12684052]
 [-0.18713927]
 [-0.12896594]
 [-0.18784258]
 [ 0.13758329]
 [-0.13565663]
 [-0.14612156]
 [ 0.15899192]
 [ 0.07163613]
 [ 0.15211077]
 [ 0.16481705]
 [-0.13066873]
 [ 0.16397357]
 [ 0.15242209]
 [-0.16274579]
 [ 0.11401863]
 [ 0.06294607]
 [ 0.16042955]
 [ 0.17239314]
 [ 0.11681981]
 [-0.1543026 ]
 [ 0.06461015]
 [ 0.13914372]
 [ 0.1926398 ]
 [ 0.11506723]
 [ 0.16342936]
 [-0.14864434]
 [-0.07556494]
 [-0.14213905]
 [-0.17918524]
 [ 0.08524508]
 [-0.07952292]
 [ 0.10241014]
 [-0.1429542 ]
 [ 0.1586922 ]
 [ 0.09636148]
 [-0.15563546]
 [ 0.11826313]
 [ 0.14942329]
 [-0.07129498]
 [-0.15666594]
 [ 0.05883569]
 [ 0.06628575]
 [ 0.15748833]
 [ 0.06579465]
 [-0.0627896 ]
 [-0.07550294]
 [-0.1371414 ]
 [-0.1424109 ]
 [ 0.14578684]
 [-0.10086695]
 [-0.15012896]
 [ 0.06971889]
 [-0.12149712]
 [ 0.12025695]
 [-0.17663993]
 [-0.18884416]
 [ 0.1295579 ]
 [ 0.06543621]
 [ 0.17446075]
 [-0.11569306]
 [ 0.1929074 ]
 [-0.08856642]
 [ 0.14540236]
 [ 0.08748809]
 [-0.10085136]
 [ 0.09878991]
 [ 0.08408402]
 [-0.13099205]
 [-0.16076623]
 [-0.1737972 ]
 [-0.09123985]
 [-0.10771582]
 [ 0.16317102]
 [-0.0649913 ]
 [ 0.1928537 ]
 [ 0.17928231]
 [-0.17543691]
 [-0.18345037]
 [-0.064456  ]
 [ 0.07234553]
 [-0.05133599]
 [-0.08509167]
 [ 0.15113452]]
dense/bias:0
(1,)
[0.17409287]
