conv2d/kernel:0
(3, 3, 3, 16)
[[[[ 1.77332491e-01 -3.42248559e-01 -5.87304980e-02 -5.64438961e-02
     1.40139818e-01 -1.18115470e-01 -3.70626688e-01 -1.35235295e-01
    -1.30489796e-01 -1.88518137e-01 -2.75288165e-01  2.17343599e-01
    -1.68294013e-01  1.22235179e-01  3.32730152e-02 -3.74669704e-04]
   [-1.24445513e-01 -1.67488277e-01 -1.82632044e-01 -3.45320702e-01
     1.78251103e-01  2.23747075e-01 -3.28378171e-01  2.84617096e-01
     1.75543725e-01  3.28026861e-02 -1.78863794e-01 -5.71342856e-02
    -1.99983791e-01 -7.65465200e-02  1.24403864e-01 -1.13667578e-01]
   [-8.66709426e-02  1.26275688e-01  8.48827511e-02 -5.18060848e-03
     6.15957864e-02  2.16449812e-01 -4.63644773e-01 -1.41646296e-01
     4.73219492e-02 -1.19528107e-01 -3.39717455e-02  1.92567371e-02
    -3.39305669e-01 -6.63539022e-02  2.41671443e-01 -1.57508299e-01]]

  [[ 1.83884397e-01 -1.60791814e-01  2.18929946e-02  4.58941385e-02
    -2.08945334e-01  2.38670837e-02 -2.12553758e-02  1.72859475e-01
    -1.01900235e-01  3.34953129e-01 -2.83780187e-01  4.77443755e-01
     1.40775293e-01 -9.37220603e-02 -3.48539025e-01  1.24195859e-01]
   [-2.51830190e-01 -2.91725751e-02 -4.79631275e-02 -1.85439259e-01
    -1.80977181e-01  1.17390789e-01  6.35351762e-02  4.51830447e-01
     1.51433662e-01  4.04141158e-01 -2.45906159e-01 -1.06316857e-01
     8.81836191e-02 -1.68863591e-02 -2.83137560e-01  1.96897611e-01]
   [ 9.20705590e-03 -7.11166933e-02  2.48742625e-01  1.11782782e-01
    -2.21504159e-02  2.55947649e-01 -1.48482680e-01  7.23768324e-02
    -2.89021373e-01  1.04275972e-01  1.21693939e-01  3.97098482e-01
     1.92836523e-01 -1.26268059e-01 -3.94228131e-01  4.17778380e-02]]

  [[ 1.68124974e-01 -2.26614341e-01  2.32132062e-01 -2.68500969e-02
     2.47283608e-01  6.41794056e-02  1.71028391e-01 -1.19750291e-01
     2.26727854e-02  7.80039579e-02 -1.53861880e-01  1.92382693e-01
     4.48276810e-02  2.67555304e-02  9.16780606e-02 -2.74242610e-01]
   [ 1.07652515e-01  5.50767668e-02  1.10630982e-01 -1.76567301e-01
     1.57642245e-01  9.24890116e-02  1.83641881e-01  1.87454700e-01
     1.65015966e-01  4.74617869e-01 -1.45616278e-01 -9.98884290e-02
     2.76776642e-01  8.62531550e-03 -8.72538760e-02 -4.07658815e-01]
   [-2.55493913e-02 -1.05035238e-01  2.32876897e-01  1.67052269e-01
     1.58741310e-01  3.11192930e-01  1.83953390e-01 -2.08400130e-01
    -3.31453353e-01  2.07328424e-01  4.11879048e-02  1.14534184e-01
     2.65721440e-01  4.14644890e-02 -6.42741248e-02 -4.61346656e-01]]]


 [[[ 2.20784232e-01  7.09820986e-02 -2.49722958e-01 -2.17347234e-01
    -8.71068388e-02 -9.14928764e-02 -3.22787791e-01 -2.14305401e-01
     2.49014556e-01  3.78158391e-02 -2.15653673e-01  3.72352958e-01
    -4.87822115e-01  2.18830839e-01  1.87898368e-01 -1.35633856e-01]
   [-8.25625882e-02 -1.97780132e-01 -1.82029113e-01 -3.59283954e-01
    -1.46462873e-01  1.34195620e-02 -1.85268283e-01 -1.88071489e-01
     2.59381622e-01  1.29612505e-01 -1.58071190e-01  1.68148726e-01
    -5.57716608e-01  2.32618582e-02  4.05856133e-01 -3.68947722e-02]
   [-1.93752751e-01 -1.29586592e-01 -7.06469193e-02 -3.89124781e-01
     2.14117557e-01  1.05421476e-01 -6.02829754e-01 -4.59871858e-01
    -1.11690536e-01  6.66789114e-02  1.67552352e-01  2.51490623e-01
    -3.81056786e-01  4.13770080e-02  2.60918528e-01 -1.14183672e-01]]

  [[ 1.85219646e-01 -1.52897730e-01 -3.13162297e-01  1.16179459e-01
     1.39436319e-01 -1.75001044e-02  2.19825998e-01  1.88997641e-01
     1.00473426e-01 -2.11145639e-01 -6.96023405e-02  1.85944185e-01
     1.57582983e-02  3.94236296e-01 -1.24991581e-01 -2.57741421e-01]
   [-2.60659996e-02 -1.46633506e-01 -3.55370641e-01  1.49558470e-01
     2.20995635e-01  2.11818054e-01  3.11696708e-01  2.57466704e-01
     1.23897515e-01  3.66500109e-01  2.72906646e-02 -1.97713882e-01
     7.44020939e-02  3.33818942e-01 -9.85467210e-02  1.31555712e-02]
   [-1.43137798e-01 -8.29875320e-02 -3.02542001e-01 -5.27879149e-02
     4.63461667e-01  3.64314541e-02  1.16524108e-01  5.27144782e-02
    -2.88388819e-01 -1.88960545e-02  1.71597317e-01  1.07304849e-01
     1.28018677e-01  2.77051121e-01  2.62029674e-02  2.01512456e-01]]

  [[ 4.20468777e-01  3.37472484e-02 -2.76504487e-01  3.13398778e-01
     3.48410085e-02 -2.54294097e-01  1.81405291e-01  1.44778892e-01
     1.16295636e-01 -6.94620758e-02 -2.32680991e-01 -2.95556765e-02
     3.26692760e-01  2.03235343e-01 -3.69777441e-01 -1.56532690e-01]
   [ 3.31679247e-02 -1.09017521e-01  5.26026785e-02  3.59216213e-01
    -8.86509269e-02  9.35023576e-02  8.97398591e-02  1.61490276e-01
     1.46513626e-01  2.83546388e-01 -1.79876804e-01 -4.13920820e-01
     4.09469783e-01  2.17955485e-01 -3.34398985e-01  2.73828208e-01]
   [-1.79404810e-01  5.97382721e-04 -2.69682467e-01  2.86203027e-01
     3.04857224e-01  2.48770446e-01  9.41785350e-02 -2.07490698e-01
    -1.11099869e-01 -9.81414542e-02  1.03323348e-01 -3.73561382e-01
     2.24108785e-01  1.01599596e-01 -2.83738494e-01  3.38070929e-01]]]


 [[[ 1.27721429e-01  1.04970112e-01  1.12003349e-01 -3.77601609e-02
    -5.54518141e-02 -9.32708196e-03 -2.17783511e-01  1.41104236e-02
    -2.02036835e-02 -2.28550538e-01 -1.29384354e-01  2.89843470e-01
     3.71034518e-02 -3.93460065e-01  2.03385055e-02  1.37750179e-01]
   [ 4.62075435e-02 -2.43048087e-01  5.66348247e-02 -2.45315745e-01
    -3.62261087e-01 -1.53926581e-01 -1.16887026e-01  7.58393630e-02
    -5.02909869e-02  1.57244056e-01 -1.02609590e-01  3.54030333e-03
    -2.31189430e-01 -4.51730072e-01  2.85576910e-01  2.00713575e-01]
   [-2.42060050e-01 -6.08952902e-02  3.56005818e-01 -1.31598860e-01
     1.46164722e-03  1.85434237e-01 -5.23793936e-01  7.56060854e-02
    -5.33993483e-01 -1.06641511e-03 -2.39606947e-01  4.94556576e-02
     5.00161685e-02 -3.79054636e-01  2.45462164e-01  1.31926909e-01]]

  [[ 3.52566689e-01 -2.19277710e-01 -1.05341278e-01  3.70327719e-02
    -1.85336545e-01 -2.05356106e-01  1.26125142e-01 -1.41131848e-01
    -9.50455386e-03 -2.77159631e-01 -2.19672874e-01 -2.21590087e-01
    -1.81441396e-01 -2.86795259e-01  3.15647185e-01 -6.75573200e-02]
   [ 1.27793804e-01  1.84905902e-02  8.27677399e-02  6.41176701e-02
    -2.29095057e-01 -6.73889592e-02  4.64775443e-01 -1.68773577e-01
     9.16306973e-02  3.49401012e-02 -3.93210769e-01 -3.17007333e-01
    -2.19998211e-02 -5.13889611e-01  2.92199284e-01 -1.18233524e-01]
   [-1.09743193e-01 -1.07240481e-02 -1.78790748e-01  2.38688260e-01
     2.90791184e-01 -1.00527510e-01  2.00160056e-01 -2.29674503e-01
    -4.79711920e-01 -3.43212605e-01 -2.65502065e-01 -1.60112083e-01
    -1.30120784e-01 -3.74964148e-01  4.14084792e-01  7.07309768e-02]]

  [[ 2.95955569e-01 -4.71349135e-02  6.79368302e-02  2.04227448e-01
    -3.30492437e-01 -3.46102081e-02 -1.15399867e-01  2.41813101e-02
    -5.94925061e-02 -3.08183402e-01 -2.27875605e-01 -2.60085817e-02
     2.71622002e-01  5.25758527e-02 -4.68432344e-03  2.29530841e-01]
   [ 1.14692762e-01 -1.19510792e-01 -1.84484154e-01  2.48815626e-01
    -1.73078448e-01 -1.77121595e-01 -8.14199895e-02  2.59232610e-01
     1.20490724e-02 -1.76877216e-01 -7.25860372e-02 -4.09629196e-01
     2.03971893e-01 -1.97357804e-01  1.30845979e-01  3.75434399e-01]
   [-9.96541455e-02 -1.62735716e-01 -7.57965744e-02  4.06840861e-01
    -1.81616530e-01  1.06850989e-01  1.41400084e-01 -2.47853726e-01
    -6.39609247e-02 -1.59178272e-01 -2.76640534e-01 -7.07275569e-02
    -2.16393527e-02 -9.85612348e-02 -1.77014396e-01  4.02453423e-01]]]]
conv2d/bias:0
(16,)
[-0.03615604 -0.04912631 -0.01745137  0.02713111  0.03620774 -0.06647568
  0.00768699  0.03104404 -0.09584052  0.02432427 -0.01328921  0.05461673
  0.09314507  0.09850493  0.06198707  0.02587898]
batch_normalization/gamma:0
(16,)
[1.0407163  1.005664   0.99244666 1.1797177  1.2223973  0.8244081
 1.1654886  1.4712148  0.9514544  1.3139116  1.1296692  1.4462583
 1.4725248  1.3126578  1.393461   1.245655  ]
batch_normalization/beta:0
(16,)
[-0.02726023 -0.04873789 -0.00990838  0.03458418  0.04260689 -0.0567709
  0.01688623  0.03709344 -0.08552276  0.03049422 -0.01128528  0.06090919
  0.09673427  0.10352699  0.06836864  0.03363174]
conv2d_1/kernel:0
(1, 1, 16, 16)
[[[[ 3.41063172e-01  3.94567430e-01 -8.76171142e-02  2.88939357e-01
    -4.28875297e-01  3.74802560e-01 -4.26323533e-01  2.65274405e-01
    -5.93508840e-01  3.91870469e-01  3.76383424e-01  2.53892541e-01
     4.64558959e-01  2.17066109e-01  1.85415193e-01 -3.70858282e-01]
   [-3.38908553e-01 -3.65473628e-01 -4.25758719e-01  1.01249933e-01
    -8.31731334e-02 -1.71837658e-02  4.01832461e-01 -1.48622289e-01
     9.98435728e-03 -1.42239733e-02  2.26665676e-01 -2.83924311e-01
    -3.95391405e-01 -3.24127823e-01  9.77491811e-02 -3.59558970e-01]
   [-5.30811667e-01 -1.19475976e-01  3.71232927e-01 -8.66636813e-01
     1.66654095e-01 -2.97522366e-01 -6.03554189e-01  5.52175790e-02
     2.35850528e-01  1.70506820e-01 -4.17987257e-02  5.39789677e-01
    -8.35756585e-02 -2.23090068e-01 -1.96567357e-01 -1.26973003e-01]
   [ 5.15003443e-01 -3.83796543e-01  4.09404516e-01  5.00864327e-01
     2.82958090e-01 -4.04603258e-02 -4.31885803e-03  2.72125036e-01
     4.93791029e-02  3.27165604e-01  3.40538800e-01 -4.19106066e-01
     3.88789147e-01 -7.09091365e-01  3.62449259e-01 -6.93832517e-01]
   [-6.13410473e-01 -1.00281574e-01  8.03737640e-02 -1.13134593e-01
    -8.49881396e-02  1.78993847e-02 -9.25757647e-01 -3.87584001e-01
     1.83830068e-01  4.29274410e-01 -2.72387534e-01  6.72766715e-02
    -3.06197554e-01  3.71832848e-02  1.76065043e-01 -1.02767341e-01]
   [ 3.70381549e-02 -2.83028305e-01  2.81170309e-01  3.56645852e-01
     1.90613531e-02  3.60133857e-01 -1.56260654e-01 -1.29131466e-01
    -5.65368533e-01 -4.84492064e-01 -2.61082709e-01 -3.49701971e-01
    -2.68617153e-01  4.66306955e-01 -2.31760457e-01 -1.96014956e-01]
   [ 9.55903158e-02  5.23682773e-01 -1.76416218e-01  3.16933423e-01
    -2.62853593e-01 -4.20477390e-01  4.66843136e-02 -3.46604258e-01
    -1.35525569e-01  4.61633652e-02  2.22020626e-01 -5.33892494e-03
    -4.88362044e-01  1.16813630e-01  2.61660963e-02 -2.89449066e-01]
   [-3.89410943e-01 -1.00823224e+00  4.67928529e-01  1.30706042e-01
    -3.45435411e-01  1.98379103e-02  2.54059702e-01 -9.74848211e-01
    -3.81657034e-01 -1.35276034e-01 -2.07240023e-02  2.29898304e-01
    -8.83084759e-02 -3.19443077e-01 -5.46206474e-01  4.08332944e-02]
   [ 1.96866721e-01 -4.71662700e-01 -5.12431324e-01  3.77446085e-01
     1.16255164e-01 -2.03603745e-01 -4.40238751e-02  3.71805578e-02
     1.32713094e-01  4.19644475e-01 -2.04650536e-01  4.17717457e-01
    -3.89896989e-01  1.85705736e-01  8.98570120e-02 -1.63861942e-02]
   [-3.54806483e-01 -5.54197013e-01  3.61702323e-01  3.05590570e-01
    -6.78625762e-01  5.60789049e-01  3.59696954e-01 -4.27612901e-01
    -4.10487950e-01 -5.33188343e-01  2.06893399e-01  4.62908238e-01
    -5.48652112e-01  4.96377110e-01 -1.56221986e-01  8.43765493e-03]
   [ 4.07757163e-01 -2.76936233e-01  2.25372776e-01  1.43139049e-01
    -1.45893067e-01  4.15978283e-01 -2.36486629e-01  2.63777554e-01
     5.42692430e-02  2.31215179e-01  4.98809129e-01  1.90234140e-01
    -4.90329325e-01  3.21065307e-01 -4.33233321e-01 -7.05763772e-02]
   [-6.43655956e-01  4.04004753e-01 -2.38462612e-01  1.90202203e-02
    -6.93639696e-01 -3.31637174e-01  3.62966478e-01 -3.05489302e-01
     4.47508156e-01  5.08568048e-01 -8.29397738e-01  5.40812075e-01
     1.13683358e-01  6.72819018e-02 -7.59686902e-02  5.44857979e-01]
   [-2.19082564e-01 -9.09214139e-01  5.89258671e-01  1.60211131e-01
     3.36744487e-01 -3.01570835e-05 -3.99118587e-02 -2.28851795e-01
    -4.56404924e-01  1.18219852e-01  4.88047093e-01  3.30788285e-01
    -1.82995886e-01 -7.55055666e-01 -3.36774856e-01 -8.50386620e-01]
   [-4.64962542e-01  1.30910546e-01 -4.88238893e-02 -7.04568803e-01
    -1.67129517e-01 -1.13363549e-01 -3.09299175e-02  8.08127373e-02
    -3.67388248e-01  4.19863164e-01 -8.91084224e-02  4.63826537e-01
    -5.19601703e-01 -3.60342830e-01  1.02543712e+00 -8.57240632e-02]
   [ 3.35561663e-01  4.27314728e-01 -4.76317018e-01  4.21421289e-01
     3.23497266e-01  3.02072138e-01 -3.40985537e-01 -1.77081853e-01
     3.18535268e-01  8.07722285e-03 -4.44182515e-01 -5.98497279e-02
     3.71021628e-02  3.70240122e-01  2.42398813e-01  4.39996421e-01]
   [-1.98313385e-01 -2.54891515e-01 -2.98643619e-01  5.24462879e-01
     2.53951102e-01  1.61474988e-01  6.15335226e-01  2.94791192e-01
    -2.28902012e-01  2.39064470e-01 -6.99509606e-02 -7.28389978e-01
     3.69412482e-01 -5.63195944e-01  1.21250965e-01 -1.50326118e-01]]]]
conv2d_1/bias:0
(16,)
[ 0.15366939  0.11659596 -0.08365898 -0.08527756  0.09982368 -0.09193684
  0.06796452  0.20413476  0.04092088 -0.13352285  0.07909943 -0.066915
  0.13979794  0.00394108 -0.08837555  0.12921517]
batch_normalization_1/gamma:0
(16,)
[1.3829055 1.4375888 1.1241605 1.0879091 1.3857107 1.0097643 1.7928971
 1.3326217 1.3452189 1.1385766 1.2341907 1.1866083 1.0767678 1.2908541
 1.0449291 1.563682 ]
batch_normalization_1/beta:0
(16,)
[ 0.15797727  0.12176276 -0.07419628 -0.07585651  0.10602961 -0.08107691
  0.07260617  0.2063449   0.04760866 -0.12250585  0.08546467 -0.05727105
  0.14729443  0.01248005 -0.07907899  0.13427603]
conv2d_2/kernel:0
(1, 1, 16, 16)
[[[[-0.3795543  -0.08402015 -0.38875663  0.38570637 -0.2450049
     0.18779728  0.3948238   0.20692359  0.4641775  -0.46025366
    -0.4734549   0.19694386  0.46509427  0.05226303  0.5232018
    -0.22406225]
   [ 0.2721675  -0.0462368   0.34671926 -0.40158528  0.2948003
     0.3956905  -0.15826364  0.37796995 -0.20602031  0.24739505
    -0.28945348 -0.15281913 -0.44980544 -0.09147331  0.06724788
     0.49403214]
   [-0.18194474 -0.04880698  0.5960986   0.24863677  0.02610117
    -0.18776509 -0.12761638  0.14785166  0.30447242 -0.24169435
    -0.42773703  0.35953182  0.08882454  0.18481614 -0.34613392
     0.11868023]
   [-0.5698869   0.12798211 -0.4591883   0.18267103  0.37545556
    -0.5105059  -0.12703615  0.12021297  0.22732395  0.19271141
     0.3598991  -0.60323834  0.10656506 -0.38208133 -0.13032153
     0.12340929]
   [-0.21700822 -0.627367    0.40468588  0.02519421 -0.08301119
    -0.12400027 -0.5805482  -0.3506474   0.04714781  0.5015984
     0.58456725 -0.21155772 -0.40661335 -0.23281829 -0.7043408
     0.32862258]
   [-0.14766376 -0.07120346  0.17579192 -0.01671649 -0.04064507
     0.0183301  -0.4048808  -0.1785554   0.53063244  0.23359151
    -0.14523266  0.2925823   0.04275194 -0.19515842 -0.62986875
     0.18817015]
   [ 0.15212378  0.10420197  0.20310433 -0.23888338 -0.03655268
    -0.0371547  -0.6849221  -0.11748087 -0.39061984  0.3368322
     0.09800898 -0.6532831   0.25458705  0.20945084 -0.133665
    -0.5743812 ]
   [ 0.08533964  0.5552128  -0.07714795  0.20907335  0.0298891
     0.4785121   0.31863528  0.2537507  -0.20196544 -0.11600663
    -0.6810289  -0.5561592  -0.18108672 -0.6834778   0.32119694
     0.29950014]
   [ 0.05881378  0.22208567  0.40840566 -0.04934484  0.04136863
     0.01932091 -0.09957694  0.0415656   0.13599043 -0.1373533
    -0.11270476 -0.3045828  -0.00605977 -0.81075364  0.6747864
     0.28584528]
   [ 0.29605347  0.26917282 -0.11354227 -0.07825743  0.26852524
     0.44934478 -0.17535989  0.06330476  0.29777575 -0.10323255
    -0.01861258 -0.3416582  -0.63247347 -0.2744809  -0.31429034
     0.23570015]
   [ 0.28339806  0.07314883 -0.49843347  0.26009682 -0.220545
     0.1953462   0.16242024  0.291409   -0.16004968 -0.23245646
     0.12154319  0.13796422  0.03869111 -0.3307886  -0.22630261
     0.26259974]
   [-0.48346016  0.27559096  0.4364024  -0.1459914  -0.7889562
    -0.5109286  -0.1863551   0.46988404 -0.28832072  0.2615714
    -0.17354974  0.03062162 -0.58037025  0.17710042 -0.34894016
     0.40328375]
   [-0.15171044 -0.19651334  0.53718245 -0.8438602   0.49977097
     0.11035296  0.48202357 -0.19422321 -0.6648985  -0.01182898
     0.00770762 -0.3735445  -0.19896789  0.29073274  0.29964346
     0.2287326 ]
   [ 0.06111949  0.6896632   0.5469586  -0.2394375   0.37884635
     0.5757253   0.2961669  -0.3103835   0.01988398 -0.10048614
    -0.1537912  -0.30921522 -0.33542335  0.3098328  -0.10400895
    -0.02801229]
   [ 0.4135257   0.04749327 -0.11097229  0.1567202   0.18344133
     0.20852071 -0.32155886 -0.53188735  0.19774479  0.3619743
     0.00510962  0.6710389   0.34922963 -0.5213602  -0.4437485
    -0.7654996 ]
   [ 0.22124009 -0.29221895 -0.67543095  0.19630091  0.08134242
    -0.3019327  -0.23133682 -0.06432518 -0.10067245  0.24684693
     0.12384563 -0.3702491   0.2499329  -0.08609769  0.17926188
     0.4517515 ]]]]
conv2d_2/bias:0
(16,)
[ 0.05803508 -0.03459283 -0.01335586 -0.20081462 -0.01211903 -0.00300994
  0.17611192  0.06122504 -0.19418886 -0.10103332  0.10784204  0.22877096
  0.10082006  0.14645502  0.06108505 -0.02200498]
batch_normalization_2/gamma:0
(16,)
[1.3850565  1.0454322  1.1059835  1.090567   1.1083117  1.2573633
 1.2603248  1.1178486  0.987133   0.97773516 1.2746925  1.4171634
 1.2354553  1.31698    1.3321574  1.3253427 ]
batch_normalization_2/beta:0
(16,)
[ 0.06424697 -0.0254191  -0.00473941 -0.18941382 -0.0030955   0.00505033
  0.18180794  0.06803448 -0.18256985 -0.09151613  0.11376861  0.2310723
  0.10652417  0.14515354  0.06737868 -0.01487727]
conv2d_3/kernel:0
(3, 3, 16, 16)
[[[[ 1.30568236e-01 -1.62149698e-01 -5.39814755e-02  8.27531740e-02
    -2.19873682e-01 -1.49183810e-01 -2.61016399e-01 -8.05174932e-03
     1.45311758e-01 -5.62413968e-02 -1.85096994e-01  1.15495928e-01
    -3.20832729e-01  2.46535599e-01  1.51334479e-02 -1.54909357e-01]
   [ 8.49292576e-02 -1.75933000e-02  4.71596569e-01 -3.18855256e-01
    -2.78859995e-02 -1.32991031e-01  9.74127203e-02 -1.36505187e-01
    -1.27452895e-01 -6.17127446e-03  2.05564678e-01 -3.01546961e-01
     2.15014949e-01 -1.42414019e-01 -3.71154211e-02 -7.17932433e-02]
   [-1.76259458e-01 -1.01402320e-01  7.80744478e-02 -1.91142216e-01
    -6.55876994e-02 -3.82645935e-01 -1.42380577e-02 -5.97862005e-02
     4.52765729e-03  2.52794605e-02  1.76852215e-02 -2.09166616e-01
     3.37567590e-02  2.07762476e-02  7.29121864e-02  2.17064992e-01]
   [ 9.23668221e-02 -1.49143919e-01 -1.51470929e-01 -1.17539195e-02
    -1.31614087e-03 -2.84060687e-01  1.59167305e-01 -7.06786523e-03
     8.88376534e-02  8.74033663e-03 -2.72468477e-01  1.49615571e-01
     8.76850933e-02  2.41921600e-02 -3.21549743e-01  1.11988343e-01]
   [-2.91542083e-01  1.73608344e-02 -3.41705114e-01 -2.21781656e-02
    -1.02502049e-03 -2.19855875e-01  5.74507900e-02  4.14479300e-02
    -1.78365186e-02 -2.02171773e-01  8.39011595e-02 -7.18611851e-02
    -1.82784140e-01 -4.29647595e-01 -8.75671953e-02 -1.71353206e-01]
   [-2.11221099e-01 -5.70691884e-01  2.77204752e-01 -6.91974014e-02
    -6.87763616e-02 -5.71870059e-02 -2.65017390e-01 -6.24407604e-02
    -3.67593735e-01  1.77082960e-02 -7.62019902e-02 -2.38539517e-01
    -3.22093338e-01 -1.23463035e-01 -2.62629002e-01  1.64047182e-01]
   [-9.78042707e-02 -9.79789495e-02  5.27041018e-01 -2.41386428e-01
     1.73025370e-01  1.31296436e-03  2.84446716e-01 -5.27367443e-02
    -1.88457906e-01 -5.43372380e-03 -6.56926781e-02 -2.86217868e-01
     6.80390671e-02 -6.29002303e-02  2.00021192e-02 -1.96733832e-01]
   [ 1.09724909e-01  1.92687601e-01  3.63686413e-01 -2.88064312e-02
     9.17572677e-02 -2.01694027e-01  1.21882811e-01 -2.26877645e-01
    -2.72062998e-02 -2.91125961e-02  2.45838568e-01 -6.13585562e-02
     1.87386607e-03  3.62768676e-03  2.18586493e-02  8.41231644e-02]
   [-2.56031826e-02 -1.94827259e-01 -2.21620589e-01 -5.68034388e-02
    -6.29328489e-02 -1.37775466e-01  6.24609366e-02 -1.04263783e-01
    -2.41820261e-01  3.15692881e-03 -2.77452320e-01  1.94012478e-01
     7.07462803e-02  3.91966328e-02 -3.30914766e-01  1.06883749e-01]
   [ 1.01004906e-01 -3.39254178e-02 -1.44019172e-01  2.35988393e-01
    -4.92020786e-01  1.16982330e-02  4.46396023e-02 -7.16888979e-02
    -2.49603670e-02 -1.55872613e-01 -1.30310684e-01  3.40196192e-01
     2.30180919e-01  1.55212641e-01 -6.68224692e-02  1.42010301e-01]
   [-3.25840026e-01 -8.07539895e-02 -1.22868888e-01  5.46368480e-01
    -2.01354444e-01  1.14755593e-02  1.56898230e-01 -3.73447277e-02
     1.66512236e-01  3.43773663e-02  1.49985760e-01  2.63887078e-01
     3.38544860e-03 -5.14260381e-02 -7.07867295e-02 -6.96855336e-02]
   [ 2.69778669e-01  1.09352484e-01  7.61189312e-02 -5.36023676e-02
    -4.80290353e-02  1.42095447e-01 -3.19212601e-02 -1.19299553e-02
     6.13866895e-02 -1.95375998e-02 -2.12754622e-01  1.12826400e-01
    -1.63018838e-01  5.25707185e-01  2.17322990e-01  1.54855996e-01]
   [ 9.54917260e-03  2.26593390e-01  7.64661282e-02 -3.26306731e-01
     1.00261318e-02  1.92513674e-01  2.14859247e-01  5.88238686e-02
    -4.35366295e-02 -2.47593783e-02 -1.02142580e-01 -3.13146383e-01
    -7.29526356e-02 -9.89872068e-02 -2.27055430e-01  4.88836765e-02]
   [-1.96779504e-01 -1.91971827e-02  3.11902165e-01 -2.75652647e-01
     1.19113222e-01 -1.45295694e-01  4.17878814e-02 -1.33746788e-01
    -2.27266699e-01 -1.00639895e-01  1.49506807e-01 -9.88278389e-02
    -1.21542364e-01  8.07891861e-02  8.86325315e-02 -1.14125259e-01]
   [-3.27615619e-01 -1.23521164e-02  3.37031096e-01 -2.45176286e-01
     1.16629727e-01  1.43951863e-01  3.76167685e-01 -7.85774142e-02
    -6.97288960e-02 -1.28276184e-01  2.02326581e-01 -4.01750237e-01
     1.99826136e-02  1.44559547e-01 -1.12409241e-01 -1.02999501e-01]
   [-5.52918054e-02 -2.27839813e-01 -1.38757586e-01  1.48325801e-01
     1.97704911e-01 -2.92143315e-01  4.29511182e-02 -1.90951735e-01
    -1.43181413e-01 -1.65536683e-02  7.98058584e-02  1.40377611e-01
     1.59000650e-01 -2.15548411e-01 -2.15451047e-01 -3.67775336e-02]]

  [[ 2.82957166e-01 -3.15628499e-01  8.76246765e-02 -2.85549104e-01
     1.00547664e-01  4.14877124e-02 -2.00651333e-01  1.41500384e-01
     4.22930419e-02 -1.70213446e-01 -4.39299159e-02  1.83916345e-01
     1.57510340e-01 -3.98836136e-02  2.93377012e-01 -1.33179784e-01]
   [ 5.47476560e-02 -1.98697582e-01 -1.04084998e-01 -9.00784954e-02
     6.97001815e-02 -1.00131005e-01 -4.09421548e-02  4.66107950e-02
    -2.00211599e-01 -2.55737342e-02 -2.25380823e-01 -5.65636158e-01
     8.38381350e-02 -1.82285264e-01 -5.33077940e-02  5.80853224e-02]
   [-8.44702870e-02  3.48054647e-01  1.52465522e-01  5.10866195e-02
    -4.13814327e-03 -2.99363643e-01  1.45932049e-01 -1.89180896e-01
     1.07500754e-01  2.09166370e-02 -3.39039028e-01 -9.28958058e-02
    -4.61646542e-02 -3.80269676e-01  2.98874248e-02  5.49105071e-02]
   [-1.94953308e-01 -7.42971152e-02 -2.99091756e-01  2.82613020e-02
    -6.61864690e-03  5.42152040e-02  5.43259159e-02 -8.02026987e-02
     7.04991221e-02 -1.68422773e-01 -1.17762317e-03 -1.68365508e-01
    -3.57276201e-02  5.22778183e-03 -2.73250222e-01  2.09406130e-02]
   [-1.12189785e-01  2.21754998e-01  1.78856984e-01 -1.49087265e-01
    -3.42991650e-01 -2.53922641e-01  8.76216441e-02  1.79679468e-02
     2.51894981e-01 -8.75192881e-02 -2.40355581e-01  1.29052222e-01
    -2.90183723e-01 -1.49241984e-01  6.21880442e-02  7.59033710e-02]
   [-1.34874517e-02 -5.37349358e-02 -8.89566168e-02 -1.31405815e-01
     1.03956945e-01 -9.38215032e-02 -2.53933549e-01  7.24975253e-03
     4.53765243e-02 -1.02888040e-01 -4.14638191e-01 -2.61286646e-01
     7.84899294e-02 -1.76178381e-01  4.80797291e-02  2.38024160e-01]
   [ 2.23661333e-01  4.78205420e-02  3.37534398e-01 -4.86786455e-01
    -2.47636419e-02 -5.13034873e-02 -2.61851009e-02  1.63998008e-02
     8.05324614e-02 -1.85632646e-01 -4.32217777e-01 -2.12572783e-01
    -3.58697534e-01  1.23153277e-01  9.56686735e-02 -1.58886895e-01]
   [-2.32321713e-02 -4.06516433e-01  1.23159356e-01 -2.32237905e-01
     2.19753180e-02 -2.48515397e-01 -2.47408189e-02 -1.91495121e-01
    -9.49238092e-02  8.49490054e-03 -6.03153296e-02 -4.20325249e-01
    -1.27850426e-02 -2.71055736e-02  1.57995746e-01 -1.41747415e-01]
   [-3.97057608e-02 -3.60652775e-01 -2.18626216e-01 -3.66871320e-02
     1.37535512e-01  5.91179989e-02  2.12515235e-01 -1.61332060e-02
    -3.51286471e-01  1.71090029e-02  1.37910858e-01  1.77269667e-01
     1.92150459e-01 -1.24146156e-01 -2.98529238e-01 -9.68890861e-02]
   [-3.27153355e-01 -2.30900660e-01 -3.30527872e-02  2.95132995e-01
     5.32700755e-02  1.23360671e-01  1.48891136e-01  1.72396153e-02
     5.78676946e-02 -1.89462855e-01  2.43239388e-01  3.31103086e-01
     1.74118415e-01 -8.51378143e-02  6.56915382e-02 -4.03852500e-02]
   [-1.44923896e-01  3.99358645e-02 -1.89512692e-04  4.98261988e-01
     2.10961923e-01 -2.57509649e-01  3.24171692e-01  5.21465056e-02
     2.11142823e-01 -1.43042088e-01  4.37143773e-01  3.43358070e-01
    -2.93672439e-02  2.44793579e-01 -1.45950811e-02  2.54080296e-01]
   [ 2.20611960e-01 -9.22462046e-02  1.81473926e-01  9.94807109e-02
     2.53042221e-01  3.18590403e-01 -1.58131525e-01 -1.06298245e-01
    -1.00914262e-01 -1.24774493e-01 -8.57984126e-02 -2.30284467e-01
     2.36784577e-01 -4.84476894e-01  1.70756251e-01 -2.71044821e-01]
   [ 7.67255649e-02  7.87995309e-02 -4.56674993e-02 -1.15352444e-01
     1.73605815e-01  1.90025672e-01 -2.44705603e-01 -4.54718061e-02
    -4.92462784e-01 -3.30162756e-02  3.28513347e-02 -4.38511401e-01
     1.32141650e-01 -2.04527691e-01  1.95781946e-01 -1.96756683e-02]
   [ 1.15564719e-01  1.84703574e-01  2.16139778e-01 -2.87273914e-01
    -2.29875892e-01 -6.03467599e-02  6.90684617e-02  1.81421116e-02
     2.31838711e-02 -2.41697371e-01 -1.04801536e-01 -4.90262695e-02
    -8.75516012e-02  2.40948930e-01  1.70418113e-01 -6.44694716e-02]
   [ 2.77298570e-01  2.38156959e-01  3.62402260e-01 -5.55469871e-01
    -6.42023161e-02  1.36769012e-01 -4.85804416e-02 -6.90531656e-02
     2.45126244e-03 -1.60060778e-01 -2.15253353e-01 -1.38161004e-01
    -1.85887069e-01  1.40321124e-02  4.21736985e-02 -8.44887868e-02]
   [-1.99614272e-01 -2.78177708e-01  3.19958776e-02  8.24162290e-02
    -2.25759685e-01 -2.69523442e-01  1.07659034e-01 -8.38046297e-02
     1.83814257e-01 -1.39994606e-01  4.89146821e-02  2.70202726e-01
    -4.36432362e-02  1.71705663e-01 -1.46793395e-01  4.77800220e-02]]

  [[-7.80510381e-02  2.72687548e-03  1.92753688e-01 -3.58266294e-01
     4.79746647e-02 -2.70696372e-01  4.18713577e-02  6.53876737e-02
    -2.53862143e-01 -1.34623423e-01  2.09555030e-03  8.68731663e-02
    -7.63906315e-02 -1.18417263e-01  3.45839888e-01  1.91154867e-01]
   [ 9.58832204e-02 -1.59166247e-01  3.35339233e-02 -1.67938426e-01
     2.57585272e-02 -1.21371605e-01 -2.35868655e-02 -4.51078312e-03
     2.42038175e-01  7.18748495e-02 -2.40896475e-02 -3.46910626e-01
     3.49415243e-01  6.88787503e-03 -1.65562138e-01 -2.10431889e-01]
   [ 1.18817268e-02 -9.95466784e-02  5.69704697e-02  3.00750434e-02
    -1.31424859e-01 -2.80862331e-01 -8.04394037e-02 -1.74676403e-01
    -2.93107837e-01 -9.29270834e-02  1.70723662e-01 -1.12180911e-01
     2.13009909e-01 -1.41563222e-01 -4.67018753e-01  3.31210196e-02]
   [ 1.67509526e-01 -2.33895287e-01 -2.86707103e-01 -3.25095087e-01
     1.12869315e-01 -5.99512719e-02 -3.40264946e-01 -3.55988853e-02
    -2.73577988e-01 -1.90254189e-02  1.72102600e-01  7.70756677e-02
     1.23310238e-02  2.45862961e-01  2.60093845e-02  4.19710502e-02]
   [-8.49341154e-02 -6.75441623e-02  1.62966281e-01 -1.47055894e-01
     2.02213123e-01 -1.85876787e-02 -2.55506605e-01  3.08020343e-03
    -5.06185740e-02  6.62973821e-02 -3.44258070e-01  6.10058457e-02
     2.85808504e-01  1.67120509e-02  2.16162473e-01 -8.92428160e-02]
   [ 8.80071595e-02 -4.59341764e-01 -2.55862415e-01 -9.49178785e-02
     9.61629450e-02  6.74235076e-02  2.03275075e-03 -1.57441378e-01
     3.37028742e-01  3.59690599e-02 -1.27959371e-01  9.46223065e-02
     4.09121484e-01  1.60790518e-01 -1.02395549e-01  2.82846242e-01]
   [ 5.26814938e-01  1.04418218e-01  2.54634470e-01 -2.47036964e-01
     1.76001817e-01  5.96826635e-02 -9.22021195e-02  4.87895198e-02
     6.32784069e-01 -7.95063749e-02  1.46359671e-02 -2.11544603e-01
     1.55598223e-01 -2.82739401e-02 -1.67101454e-02  1.49404377e-01]
   [ 4.45756584e-01 -6.05606735e-01  8.26828461e-03 -1.07195273e-01
     8.64950567e-02 -5.76623939e-02 -2.64292449e-01 -2.80008763e-01
     3.96304160e-01 -7.13631287e-02  1.03340924e-01 -1.87138721e-01
     2.58988708e-01  3.33602637e-01 -8.41826424e-02  1.19204380e-01]
   [-2.72330672e-01 -1.14150502e-01 -1.58424824e-01 -2.71336794e-01
     3.96819040e-02 -7.28490278e-02 -4.74078298e-01 -8.50280970e-02
    -3.10291529e-01 -1.60090432e-01  2.05717117e-01  1.13156065e-01
    -2.93753326e-01  1.51775196e-01 -1.90755978e-01  1.29556218e-02]
   [-3.31883758e-01  2.52338380e-01  4.31053601e-02  1.81545913e-01
    -1.94149584e-01  1.04663044e-01 -3.74420434e-01  6.64406270e-02
     2.69242804e-02  3.06216255e-02  1.18178733e-01  1.51986226e-01
    -5.68108857e-02 -2.03576282e-01 -2.35532187e-02  5.79152210e-03]
   [-1.31448627e-01 -2.64585912e-01  8.81494731e-02  1.32774450e-02
     2.79973838e-02 -1.83315918e-01 -4.18449491e-01 -7.93882087e-02
     4.25147898e-02 -1.72844559e-01 -3.09625305e-02  1.18922479e-01
    -9.30033699e-02 -7.00974539e-02  6.48044050e-02  3.98488976e-02]
   [-3.32784146e-01  2.32242912e-01  8.52220803e-02  1.10494025e-01
    -1.60151452e-01  2.42809411e-02 -1.68940555e-02 -1.18752994e-01
     4.64107729e-02 -8.90352950e-02 -6.16953485e-02 -1.29002795e-01
    -1.00079849e-01  1.02846034e-01 -1.00528918e-01  4.38173711e-02]
   [-3.87736820e-02  1.98054492e-01  1.09865375e-01 -1.79633856e-01
    -1.34312883e-01  2.47557368e-02 -4.30802763e-01  8.72320384e-02
    -2.86250234e-01  5.38592301e-02  3.47854979e-02 -1.80413008e-01
     1.35792568e-01 -4.95735481e-02  2.32762218e-01  3.96681130e-02]
   [ 9.23581868e-02 -2.17039302e-01  4.27279472e-02 -2.67656147e-01
    -3.20034355e-01 -2.04306412e-02  2.17911415e-02  3.96896824e-02
    -1.16067305e-01  1.11111924e-01 -4.68205661e-02 -2.10370690e-01
     7.76867270e-02  1.71990007e-01 -1.01697883e-02  2.38962293e-01]
   [ 4.63246971e-01 -1.13781966e-01  2.34872445e-01 -2.82457560e-01
    -2.57928818e-01  8.59276429e-02 -3.07351142e-01 -1.06115537e-02
     4.78895456e-02 -1.51753249e-02 -9.45002511e-02 -3.68707627e-01
    -1.68219507e-01  1.15006037e-01  1.22041861e-02 -1.18620515e-01]
   [ 1.36851266e-01  1.24106444e-01 -3.73347737e-02  2.27741942e-01
     1.33436695e-01 -1.83541104e-01 -5.55759490e-01 -9.67231765e-02
    -2.37718951e-02 -8.02316144e-02 -3.35790887e-02  1.29244015e-01
     2.67271817e-01 -2.06376966e-02 -3.32371071e-02  4.70485501e-02]]]


 [[[-1.09318241e-01 -4.96664584e-01 -2.39126921e-01 -4.83968779e-02
    -1.23909116e-01 -9.14258063e-02 -2.69661427e-01 -2.44484439e-01
    -7.46215042e-03 -8.13786164e-02  2.70646304e-01 -3.31715494e-01
    -1.05811849e-01  1.37389034e-01  1.12096056e-01 -1.03344552e-01]
   [-1.09836295e-01 -6.12072051e-02 -2.64109194e-01 -3.79177853e-02
    -1.55878365e-01  1.79314688e-01 -2.34571934e-01 -4.27813083e-02
    -3.02652359e-01 -1.24394391e-02  7.53485113e-02  3.38798791e-01
    -1.01138152e-01  4.63523762e-03  1.11139275e-01 -9.12507344e-03]
   [-1.68235183e-01 -1.11404039e-01  9.41276457e-03  2.01799884e-01
    -2.26739883e-01  3.73362839e-01  1.37485385e-01  1.19247116e-01
    -3.51075470e-01 -4.96042939e-03 -8.97596031e-02  3.65034729e-01
    -2.81836748e-01  1.83540970e-01 -2.89224774e-01 -4.28838998e-01]
   [ 3.30990642e-01 -1.76441580e-01 -3.34642023e-01 -2.17149585e-01
    -6.24457039e-02 -4.36855257e-02 -2.10153293e-02 -1.31831840e-01
     5.03030904e-02  1.11971386e-02  2.17909217e-01 -2.67257541e-01
    -2.68720746e-01 -5.92694916e-02  2.01219603e-01  8.26125517e-02]
   [ 8.57722852e-03 -7.99904764e-02  7.69758224e-02 -2.99635142e-01
    -4.66406107e-01  9.18188095e-02  1.82503723e-02 -3.39188129e-02
     1.88585132e-01  7.54526556e-02 -3.22434843e-01  2.52332110e-02
    -4.47861254e-02 -2.59201914e-01 -2.18861580e-01 -1.19822577e-01]
   [-1.42848134e-01 -4.15816724e-01  3.04073561e-03  1.23873055e-01
    -2.55534738e-01  3.89403611e-01 -1.66757628e-01 -1.57400385e-01
    -1.55937433e-01  7.82997012e-02 -1.30677233e-02 -1.62497014e-02
    -2.28729770e-02 -4.14357960e-01  1.07498668e-01 -9.22167301e-02]
   [-4.48227644e-01 -1.44980550e-01 -1.25160426e-01  8.60062540e-02
    -2.59610265e-01  2.62294174e-03 -2.37189546e-01  6.12293966e-02
    -3.28467667e-01 -5.77029325e-02  2.67441124e-01  1.80786923e-01
     1.70840278e-01 -2.86071151e-01 -1.19044408e-01 -5.80236986e-02]
   [-1.74499139e-01  2.58266300e-01 -3.85987401e-01 -2.16871276e-01
    -7.49139786e-02  9.48698819e-02 -3.63224037e-02 -3.19336891e-01
    -4.24921274e-01 -1.86454654e-02 -1.77206416e-02  2.16819972e-01
     7.20951930e-02 -1.98366776e-01  1.47086188e-01  1.02772810e-01]
   [ 1.28186285e-01 -2.32309386e-01 -1.38203651e-01 -2.11278751e-01
     1.85273841e-01 -6.09452240e-02  1.06643820e-02 -1.03481807e-01
    -4.71814089e-02 -1.12764038e-01 -2.00848561e-02  5.92969693e-02
     1.03295714e-01  2.96893027e-02  2.83117771e-01  2.36600071e-01]
   [ 1.87465638e-01 -2.41898850e-01  1.52960911e-01  3.63318622e-02
    -1.55007206e-02  3.37674357e-02  4.16026562e-01 -1.38010517e-01
     8.68420005e-02  5.08915819e-02 -2.59472251e-01 -1.22373566e-01
    -1.12417482e-01  2.25079820e-01 -4.73711602e-02 -4.35532369e-02]
   [ 2.34990433e-01  2.62178318e-03  2.92547911e-01 -1.32725999e-01
     2.42832705e-01 -1.23995885e-01  1.83355391e-01 -3.75606157e-02
     1.07174858e-01 -6.28584325e-02 -1.10196076e-01 -2.45879605e-01
     3.08054183e-02  1.56747967e-01 -2.11032376e-01 -1.87180787e-01]
   [-1.00044444e-01 -1.00546107e-01 -2.38983408e-01  2.25866437e-01
     3.64866525e-01 -2.88489521e-01 -2.34604329e-02  1.02271540e-02
    -2.75887340e-01 -1.97291687e-01  2.38933727e-01  1.37738764e-01
    -6.28319085e-01  3.10869753e-01 -3.67630839e-01  3.29689652e-01]
   [ 1.05882563e-01  2.56262869e-01  3.08826625e-01 -8.22620839e-02
     4.87877913e-02 -2.53740758e-01  1.19025365e-01  1.38794053e-02
    -1.05282277e-01 -1.06317602e-01  2.69301951e-01 -3.85928750e-02
    -5.87150514e-01 -7.16005087e-01 -1.58296153e-01 -1.70161307e-01]
   [-9.06453207e-02 -2.30860740e-01 -2.84200907e-01  3.78106594e-01
    -1.72535926e-01 -2.22831324e-01  9.58252847e-02 -1.19187564e-01
    -3.31711411e-01 -5.96598089e-02  3.93584073e-02  9.89718363e-02
     5.10756075e-02 -2.98224352e-02 -3.46096992e-01 -1.58255443e-01]
   [-6.05627060e-01 -8.90164673e-02  2.78852254e-01 -2.34209135e-01
    -3.06059211e-01 -1.30117521e-01 -2.07840413e-01 -1.12424098e-01
    -2.20108807e-01 -1.82684794e-01 -1.36990488e-01  1.27344325e-01
     3.86480868e-01 -1.69256583e-01 -4.90389653e-02 -1.09235913e-01]
   [ 2.87183642e-01  5.53973541e-02  8.38422924e-02  1.15489826e-01
    -5.21698110e-02  2.86035389e-01  1.95661783e-02 -1.17299043e-01
    -7.45603070e-02 -1.33961841e-01 -4.30783361e-01 -6.93699047e-02
     3.14704210e-01 -4.45737630e-01  7.23252669e-02 -3.75787139e-01]]

  [[ 1.01512998e-01 -8.11751604e-01 -4.57966477e-02 -4.75886434e-01
    -4.66078371e-02 -7.35443458e-02  2.77826965e-01 -1.11959681e-01
     8.65820795e-02 -5.82218207e-02 -1.84705317e-01 -1.55383185e-01
    -8.85893255e-02 -1.40651569e-01  2.65617341e-01 -3.89246553e-01]
   [-3.38782996e-01  2.31527314e-01 -4.19569701e-01  1.47698611e-01
    -3.27423811e-02  1.34640679e-01 -8.87965877e-03 -1.56020105e-01
    -5.08625090e-01 -7.78187532e-03 -2.72628188e-01  4.58368883e-02
    -2.84639001e-01 -2.90900856e-01  2.75078952e-01 -1.64101735e-01]
   [-1.13530703e-01 -3.11880410e-02  2.08143666e-01  2.23812163e-01
     1.36781940e-02  3.65109026e-01  9.52521414e-02 -1.16365030e-01
    -1.52169079e-01 -1.83129869e-02  7.71743208e-02  1.42704055e-01
    -5.57453334e-01 -1.78264648e-01  5.19539528e-02 -3.57482851e-01]
   [ 1.64260864e-02 -2.48858541e-01 -3.96665223e-02 -4.67677385e-01
    -2.17175886e-01 -3.81038198e-03  1.76277623e-01 -1.07403420e-01
     5.32553829e-02 -8.63169059e-02  2.29170382e-01 -3.68942916e-02
     3.10462832e-01 -4.35732543e-01  2.34424338e-01 -2.63226479e-01]
   [-2.15948015e-01 -2.06826508e-01  1.90318123e-01  1.89815518e-02
     3.30013260e-02 -8.20556805e-02  2.04557672e-01 -5.64082116e-02
     3.67085516e-01  5.99014945e-02  2.54846096e-01 -2.66967028e-01
    -3.17348301e-01  1.32785380e-01  2.36984134e-01  2.18921497e-01]
   [-2.01921552e-01 -1.03206433e-01 -2.70001832e-02  1.35668844e-01
     3.84320840e-02 -4.39802371e-02 -1.59838870e-01 -7.87893906e-02
    -3.70845586e-01 -1.12455346e-01 -1.19685575e-01 -1.35731623e-01
    -4.74339306e-01 -1.07077546e-01  3.20160866e-01  8.23793933e-03]
   [-2.35067233e-01 -4.46952730e-02 -7.67003119e-01  4.60211188e-01
     2.23328680e-01  4.71758395e-02 -2.90690064e-01 -2.49996945e-01
     4.96137142e-02  6.97009340e-02 -2.50292253e-02 -3.39751504e-02
    -2.51190394e-01 -1.00145800e-04 -2.68623456e-02  1.68748945e-01]
   [-3.27615499e-01  1.89129516e-01 -5.40956616e-01  7.27213100e-02
     9.36589539e-02  1.78472146e-01  1.14777856e-01 -2.70754576e-01
    -3.14113200e-01 -1.88946113e-01 -7.72396773e-02  7.65184015e-02
    -1.99492425e-01  1.28918132e-02 -1.28638610e-01  5.61393390e-05]
   [-1.06072478e-01 -1.20156273e-01  7.66031817e-02 -2.02085054e-03
     4.14282084e-02  1.53401718e-01 -6.39448315e-02 -1.97057009e-01
     1.37569189e-01 -7.26248547e-02 -1.57455146e-01  1.26650453e-01
     1.36564776e-01  8.26781243e-02  1.67383552e-01 -1.59668803e-01]
   [ 1.64642572e-01 -1.73794672e-01  2.62126774e-01 -1.15851983e-01
    -2.13312283e-02  4.95996475e-02  3.86003524e-01 -1.02057010e-01
     5.61107956e-02 -1.20349757e-01 -4.33904342e-02 -9.14178416e-03
     2.67370731e-01 -9.11538601e-02  1.55029729e-01 -8.26064125e-02]
   [ 5.21513857e-02 -3.28633428e-01  4.63022143e-01 -2.85698891e-01
     5.63329756e-02  1.83870435e-01  2.38084674e-01 -2.61094391e-01
     1.52200177e-01  4.79289927e-02 -1.57762393e-02 -4.80842702e-02
     1.34192109e-01  1.35907337e-01  9.62554067e-02  2.94090360e-01]
   [ 2.65944868e-01 -3.27453345e-01 -3.18045914e-01 -7.99455494e-02
    -2.53578395e-01 -4.99668449e-01  5.75111769e-02 -1.09844245e-01
     8.76766369e-02  3.08779217e-02 -2.78126925e-01 -3.37502137e-02
     1.83554456e-01 -6.13078415e-01  7.55751729e-02 -9.59787548e-01]
   [ 7.45565305e-03  2.33074185e-03 -1.55359805e-01 -3.57659519e-01
     5.41849881e-02 -1.00675189e+00  5.66202290e-02 -1.64158225e-01
    -2.68981373e-03  5.31431586e-02 -1.73340842e-01  1.23802058e-01
    -8.04336816e-02 -5.49300075e-01 -1.04767591e-01 -4.40606803e-01]
   [ 5.05108805e-03 -6.96112752e-01 -1.68900400e-01  1.57851547e-01
     2.08903491e-01 -9.10167769e-02 -2.05695465e-01  5.52930422e-02
     1.02303103e-01 -3.37499380e-02  1.86258689e-01  1.97224662e-01
    -2.53987104e-01 -1.34328559e-01 -4.48049307e-02  3.19992095e-01]
   [-2.66022652e-01 -1.31312102e-01 -2.69367188e-01 -1.10391282e-01
     1.54253677e-01  9.34970751e-02 -7.38799348e-02 -1.75773084e-01
    -1.49167508e-01  1.45971095e-02 -2.37115607e-01  1.48884077e-02
    -1.06789224e-01 -1.37562513e-01 -9.31806117e-02  1.80041790e-01]
   [-4.32668209e-01  1.41165331e-02  2.95441244e-02  7.84586533e-04
     2.45059729e-01  1.68356955e-01  2.31420755e-01 -2.24128008e-01
    -1.31080359e-01  6.72814203e-03  3.57671827e-01 -1.24042548e-01
    -1.74315006e-01  2.96838611e-01  6.64484501e-02  3.69706064e-01]]

  [[-1.71249643e-01 -4.00191814e-01  7.06273094e-02 -6.47941589e-01
     1.60106525e-01 -3.96232039e-01  7.18135014e-02  9.34689790e-02
     4.10402976e-02 -3.10963504e-02  3.01036658e-03 -6.00692742e-02
    -9.58486572e-02 -9.31047183e-03  9.94490087e-02  3.19742441e-01]
   [ 4.69656810e-02  1.99439656e-03 -4.60205615e-01 -2.08587274e-01
     2.24237218e-01  1.18080795e-01 -6.96853399e-02  7.77269974e-02
     2.76816458e-01  8.08472037e-02 -1.31405830e-01 -8.55548456e-02
     7.81911537e-02 -1.11002035e-01  1.57110393e-01 -1.58401191e-01]
   [-3.18366319e-01  7.93120041e-02  1.66617975e-01 -3.18502337e-02
     2.66266745e-02  1.03416823e-01 -3.45873117e-01  1.64605588e-01
     1.30054027e-01  1.02941424e-01  1.56268142e-02  2.73361593e-01
     1.42921090e-01 -2.57780813e-02 -2.78013855e-01 -3.40796262e-01]
   [-3.41305137e-01  1.95329618e-02 -3.44646454e-01 -2.95741946e-01
    -1.92834467e-01 -1.06347524e-01 -5.12011409e-01 -9.30271372e-02
     1.97307348e-01 -1.56791747e-01 -5.85333407e-02  3.07642013e-01
     8.62004831e-02 -2.23935694e-01 -1.84970424e-01 -2.91748866e-02]
   [-2.99400359e-01 -2.24281639e-01 -2.89165199e-01  3.27291071e-01
    -4.37036484e-01 -8.90957471e-03 -1.97668776e-01 -7.66086131e-02
    -3.98091257e-01 -7.04099461e-02  1.18748672e-01 -1.97806992e-02
    -1.47619739e-01 -7.19972178e-02 -1.54811293e-01 -2.78274506e-01]
   [ 3.30566033e-03 -3.57444942e-01 -2.79069632e-01 -2.43749842e-01
     1.32446706e-01  6.46444112e-02 -5.20789921e-02 -1.61152035e-01
     1.50303051e-01 -1.67114079e-01  9.31562632e-02  9.56732407e-02
     1.21310957e-01  7.43550584e-02  1.69281095e-01  4.89074439e-02]
   [ 1.00287870e-01 -2.29410967e-03 -6.86031520e-01  1.87989265e-01
     1.78858638e-01 -8.63284543e-02 -2.83686779e-02 -8.91803429e-02
     5.31112134e-01 -1.35989532e-01 -8.04892108e-02 -1.39473662e-01
    -7.57099539e-02  1.08032927e-01 -1.12478428e-01  3.23867500e-02]
   [ 2.60300726e-01 -1.04361540e-02 -2.29769632e-01  5.81067801e-02
     1.12544581e-01  2.44110629e-01 -3.06390047e-01  4.38556224e-02
     4.04515296e-01 -9.43477005e-02 -3.92463803e-01  5.98927625e-02
     4.85041589e-02 -3.69849391e-02  1.75120458e-01  1.21494653e-02]
   [-2.48765051e-01 -1.42465487e-01  1.19705431e-01 -1.08690813e-01
    -4.37263846e-02  4.32481840e-02 -7.76640594e-01 -1.63192637e-02
     7.78330415e-02 -7.39318281e-02  2.69264162e-01  1.91635877e-01
    -1.06339686e-01  1.53978363e-01 -2.65151188e-02  1.28103659e-01]
   [-2.37355366e-01 -6.04392961e-02  2.06029698e-01  2.81815771e-02
    -1.56744555e-01 -3.74797806e-02 -3.33475381e-01 -1.98648155e-01
    -1.37812853e-01  9.16823298e-02  2.52449274e-01  2.03911126e-01
    -2.76262492e-01 -1.22958288e-01  2.65181214e-01  9.17417333e-02]
   [-2.23288506e-01 -3.17808151e-01  2.55761504e-01  5.65475747e-02
    -1.02495044e-01  9.51329917e-02 -2.05004275e-01 -4.05679196e-02
    -2.67341375e-01 -1.35799393e-01  3.15368950e-01  3.76687534e-02
    -1.57315675e-02  2.11039618e-01  5.18240444e-02  3.87117155e-02]
   [-1.77651301e-01 -8.36250037e-02 -1.20522464e-02  2.75470242e-02
    -9.32745934e-02 -9.92363244e-02 -1.34499028e-01 -1.96955074e-02
     2.52652586e-01 -5.74141107e-02 -2.34978542e-01 -7.59554133e-02
     6.77364320e-02  1.51583152e-02 -1.14692122e-01  3.07586819e-01]
   [-3.95833343e-01 -9.06229466e-02 -2.78475523e-01  1.69140860e-01
     1.39288977e-03 -2.63935804e-01 -4.97108489e-01 -5.02551533e-02
    -8.37912783e-02  1.18826710e-01 -3.50925714e-01  1.65139839e-01
    -1.55777022e-01 -1.45803332e-01 -2.76605695e-01 -1.16052434e-01]
   [ 2.03383088e-01 -2.58966923e-01 -3.57852072e-01  3.04232925e-01
     3.71705554e-02 -2.23667491e-02 -5.82049191e-02 -1.01481870e-01
     4.75132257e-01 -1.25396755e-02 -3.55388746e-02 -1.61143336e-02
     1.56893998e-01  1.51331156e-01 -3.63764286e-01 -1.79907992e-01]
   [-1.10245876e-01 -3.03381979e-01 -2.60637850e-01  2.67797917e-01
     1.01648770e-01 -5.84186241e-02  1.45355314e-01 -9.46902856e-03
     9.75809246e-02 -9.06337649e-02 -2.08990708e-01 -1.01376712e-01
    -2.30208158e-01  1.05793677e-01 -6.11212365e-02  2.48414502e-01]
   [-2.40200083e-03 -9.31461975e-02  5.04786223e-02 -2.47244254e-01
    -2.57117432e-02  2.82656997e-01 -4.75401342e-01 -3.21717598e-02
    -7.98025057e-02  1.60983205e-02  2.05337599e-01  2.03684881e-01
    -1.11418180e-01 -7.20029473e-02  1.97575599e-01 -3.50341588e-01]]]


 [[[ 1.34460896e-01 -3.93799335e-01 -6.88852966e-02  1.24563105e-01
    -1.93893034e-02  4.77062836e-02 -3.61289144e-01 -1.69176459e-01
    -6.33179247e-02  7.46541545e-02  9.74980816e-02 -4.31406021e-01
     5.06540239e-01  1.96653772e-02  2.32462436e-01 -1.31209373e-01]
   [ 1.72230512e-01 -6.20148815e-02  1.34733230e-01  1.49611726e-01
    -2.42564846e-02  1.14154987e-01  2.19939232e-01  4.03633155e-03
    -1.93897620e-01 -9.00226384e-02  2.27502018e-01  2.89323300e-01
    -1.15499999e-02  1.18879162e-01  1.41459867e-01  1.67392656e-01]
   [-6.72947764e-02 -3.18888277e-01  5.03038988e-02  3.45409811e-02
    -4.13599551e-01  3.52837965e-02  8.23152140e-02  6.31962270e-02
     5.62293343e-02  2.85134073e-02  1.40132224e-02  2.95786351e-01
    -2.24094987e-01  2.58587450e-02 -2.45610088e-01 -3.13374430e-01]
   [ 2.34028604e-03  8.29580501e-02  1.18259594e-01 -3.99869792e-02
     3.13788682e-01 -4.47375715e-01 -2.42947191e-01 -1.76441580e-01
     6.99176639e-02 -1.93350157e-03 -1.15316324e-02  2.89666086e-01
     1.32672656e-02  2.25002229e-01  1.40555613e-02  2.89830685e-01]
   [ 5.19258864e-02  1.40689716e-01 -5.79922535e-02 -5.92401862e-01
    -6.55594945e-01  5.86005971e-02 -3.15029770e-01  8.29719231e-02
     2.47982398e-01  4.43383418e-02 -3.20017755e-01 -3.77588987e-01
    -3.99167165e-02 -2.27756888e-01  1.97541431e-01 -6.50474653e-02]
   [ 8.54105949e-02 -2.83068031e-01 -1.67614773e-01  1.44634619e-01
    -4.72505480e-01  5.30795939e-03  2.71055341e-01  4.00048234e-02
     1.93206042e-01  2.37399880e-02  1.41188845e-01  5.20719541e-03
    -1.37909472e-01 -2.35277236e-01  4.85453278e-01 -1.21433781e-02]
   [-1.19905658e-01  2.43941069e-01  1.49582997e-01  2.21696779e-01
    -1.12934388e-01  4.22817729e-02  1.71767727e-01 -5.55986539e-02
    -2.21551538e-01  7.78699219e-02  3.54942858e-01  7.31068179e-02
    -2.68348325e-02 -2.12695122e-01  1.14437662e-01 -8.02926421e-02]
   [-1.02016658e-01  2.85230815e-01  2.55466700e-01  2.78524488e-01
     1.79936990e-01  1.07273720e-01  2.03920394e-01 -9.30715539e-03
    -2.76738942e-01 -3.63960415e-02  2.38759130e-01  4.05328423e-01
    -2.90272329e-02 -4.05555032e-03  3.99711765e-02  1.53406158e-01]
   [-5.91651984e-02  1.48245518e-03 -6.35305569e-02  5.51507287e-02
     2.35822707e-01 -4.41816114e-02 -9.79656056e-02 -3.90617140e-02
     1.31533042e-01 -7.35054389e-02  4.11937349e-02 -4.22354937e-01
    -2.00103104e-01  1.29042804e-01  1.31047666e-01  5.89300096e-02]
   [ 1.62443668e-01 -2.11120293e-01 -1.92307577e-01 -1.56651318e-01
     2.29900658e-01 -1.12861238e-01  9.75395590e-02 -2.85335258e-02
     1.47010326e-01  3.94534282e-02 -2.27301300e-01 -4.00019675e-01
    -2.45964318e-03  1.97515011e-01 -1.68424278e-01 -2.48335991e-02]
   [ 2.93036252e-02 -3.55797321e-01 -1.81304812e-01 -2.49648727e-02
    -4.67461869e-02  1.83270216e-01 -3.85992564e-02 -1.98856406e-02
    -1.40784487e-01 -6.68459609e-02  1.89809641e-03 -6.68672264e-01
    -5.01993373e-02  1.06895290e-01 -3.34770411e-01 -3.00866783e-01]
   [-1.13168862e-02 -3.01025063e-01  1.11700900e-01  1.66199386e-01
     3.51752728e-01  1.01143070e-01  1.36383593e-01 -3.83160822e-02
    -2.33499944e-01  8.96771997e-03 -1.77842118e-02  6.21364564e-02
    -3.21768284e-01  5.35178147e-02 -3.73410225e-01 -1.09600350e-01]
   [-1.83920592e-01 -7.28272870e-02  2.16281526e-02  1.69025108e-01
     2.13943303e-01  2.47063369e-01 -7.86215365e-02  7.26242512e-02
     6.88911229e-03  3.96604538e-02 -1.46916524e-01 -9.60187428e-03
    -5.16911626e-01  1.11550219e-01 -2.51897156e-01  1.23960197e-01]
   [ 7.85560682e-02 -3.09265137e-01  1.95663378e-01 -6.84542134e-02
    -1.42000452e-01  2.52648056e-01  2.42908329e-01 -2.80537438e-02
    -1.08809695e-01 -4.83250804e-02 -2.57071704e-01  4.15711105e-01
     6.49759918e-02  3.04771531e-02 -6.16149278e-04 -7.51610398e-02]
   [-4.46680963e-01 -5.92559278e-02 -1.30721211e-01  2.78236628e-01
    -2.35366926e-01  7.28053972e-02 -3.75493973e-01 -8.01681057e-02
    -2.31185898e-01 -1.50309831e-01  1.62228242e-01  9.63708386e-02
     1.00084499e-01 -2.57624716e-01  2.36111600e-02  1.39234468e-01]
   [ 9.73173752e-02  2.47431621e-01 -2.53418665e-02 -1.10509388e-01
    -3.22728842e-01 -7.01938123e-02  5.86712360e-02 -1.68552428e-01
     1.05175171e-02 -1.49494871e-01  3.52460481e-02 -6.92200065e-02
     6.17119996e-03 -4.09186810e-01  1.44347802e-01  1.45691425e-01]]

  [[-2.97883805e-02 -1.60401538e-01 -1.35714844e-01 -9.76143032e-02
    -4.39017832e-01  3.41651104e-02 -4.91893589e-02 -1.22619227e-01
    -3.64244491e-01 -1.20215803e-01  8.56996328e-02 -1.85236484e-01
    -6.20664805e-02 -6.75366595e-02  6.25594020e-01 -1.10117570e-01]
   [-2.05065995e-01  6.48710877e-02 -5.76355495e-02  1.44110516e-01
     1.37111425e-01 -2.02034980e-01 -8.81091058e-02  7.50756115e-02
    -1.24541320e-01 -7.57811517e-02 -6.53654411e-02  1.71278104e-01
     6.71397597e-02  1.54690519e-01  3.27624410e-01  1.02329820e-01]
   [ 2.16162398e-01 -1.35492340e-01 -1.45956844e-01 -1.60181839e-02
     1.04802690e-01 -2.18089148e-01  7.57996216e-02  1.10782750e-01
    -7.98329562e-02 -3.53629589e-02  1.02175094e-01  6.95300922e-02
    -4.64601040e-01 -1.95511058e-01 -1.04895063e-01  3.15437578e-02]
   [-1.88923582e-01 -2.40809396e-01  1.74451247e-01  3.25225025e-01
    -1.18409306e-01  2.33634990e-02 -1.84674367e-01 -6.31005317e-02
     5.61386198e-02 -1.31851472e-02  3.15140903e-01  7.99005926e-02
    -3.10782492e-01 -3.43941450e-01  3.91290784e-02 -2.12057382e-01]
   [ 9.86703262e-02 -1.69525340e-01 -4.81978022e-02 -4.45857048e-02
     1.15152923e-02 -2.11981162e-01  1.11975469e-01 -1.12132624e-01
     1.37532875e-01 -8.06568116e-02 -1.13792039e-01 -7.29792774e-01
     2.73004740e-01  1.43566906e-01  3.78891714e-02  2.90531009e-01]
   [-2.51632124e-01 -1.15478948e-01 -1.71266034e-01  1.19271696e-01
    -1.71759516e-01  1.42652802e-02 -1.23234458e-01  1.44343115e-02
    -5.94488271e-02 -1.92494333e-01  2.17130408e-02  3.19551826e-02
    -5.32044888e-01  1.63478393e-03  3.38893443e-01 -7.17778057e-02]
   [-2.24381164e-01 -2.70289760e-02 -1.68235049e-01  3.46378237e-01
    -8.40896927e-03 -9.32261646e-02 -7.63096362e-02 -1.36552840e-01
    -3.13899547e-01 -1.91766113e-01  5.08460440e-02  2.34564334e-01
     2.21678227e-01  2.55726427e-01 -8.43234807e-02 -7.41059333e-02]
   [-5.22163510e-02  4.12574969e-02  2.61415932e-02  1.76648125e-01
     6.26505539e-02 -6.79034442e-02 -4.76069525e-02 -2.34462857e-01
    -3.97271574e-01 -1.33307338e-01  4.52256985e-02  2.96416402e-01
    -1.30190879e-01  2.94231921e-01  5.49760833e-02 -3.99939306e-02]
   [-4.04996425e-02 -9.66454521e-02  2.10123524e-01 -8.05642977e-02
    -3.68591845e-01  1.22372821e-01  9.76613238e-02  2.36830171e-02
     3.22358221e-01 -1.75295636e-01 -1.25195328e-02  5.77700585e-02
    -2.66391989e-02 -3.96498978e-01  1.36092737e-01 -2.14007959e-01]
   [-5.76698482e-02 -2.96941161e-01 -8.19961876e-02 -3.32798719e-01
    -2.85685629e-01 -1.74130380e-01  2.32851669e-01 -2.56934240e-02
     1.79362059e-01 -1.82016164e-01 -9.03681442e-02 -4.10087466e-01
     6.88854679e-02 -1.19505793e-01 -1.27760917e-01 -8.56411010e-02]
   [ 2.44650990e-01 -3.29088837e-01  1.14537194e-01 -1.75422952e-01
    -2.95639217e-01  1.49319604e-01  2.83874452e-01 -2.49327406e-01
     2.71241646e-02  4.90308665e-02  7.02972561e-02 -7.51359463e-01
    -4.80426215e-02  2.12701470e-01 -2.13310763e-01  1.18443161e-01]
   [ 2.32103303e-01 -1.98506624e-01 -2.79755797e-02  1.91754326e-01
    -2.49530435e-01  6.18392527e-02  1.52079165e-01 -1.19743839e-01
    -2.51173705e-01 -1.58067584e-01  3.06200683e-01 -2.02429984e-02
    -1.95177734e-01 -4.02029455e-01  6.58432171e-02  6.34542704e-02]
   [-4.63019311e-02 -3.95866930e-01 -9.63272303e-02  3.71568829e-01
    -3.27369682e-02  2.18558803e-01 -3.02242339e-01  2.44598538e-02
    -1.01566009e-01  1.72391571e-02  3.14272225e-01 -4.22971956e-02
    -4.14259553e-01  7.55672753e-02 -2.58975565e-01 -2.95658618e-01]
   [-2.20899180e-01 -3.17030400e-01  1.06992193e-01  6.12233020e-02
     1.91512391e-01  6.80306554e-02  1.46642774e-01 -1.12504177e-01
    -5.71047142e-02 -1.23724505e-01  3.96764517e-01  3.97630781e-01
     8.70063081e-02  5.45229502e-02 -2.99284399e-01 -4.67892662e-02]
   [-2.51275927e-01 -1.30188614e-01 -2.13061616e-01  1.66928634e-01
     6.39070347e-02 -1.39433697e-01 -1.34305075e-01 -3.07127964e-02
    -2.57864147e-01 -1.11164592e-01 -1.06033184e-01  2.51654476e-01
     5.08790910e-01  9.31570455e-02 -1.18188988e-02 -3.16978246e-02]
   [ 5.21293702e-03  6.07101573e-03 -3.02234292e-02 -7.88023397e-02
     3.15541804e-01 -2.92145878e-01 -2.46822219e-02  1.20955911e-02
     2.11734831e-01 -8.05964395e-02 -2.58074641e-01 -6.75652875e-03
     2.09700286e-01  4.50260907e-01 -3.44501026e-02  1.39971301e-01]]

  [[-1.38448671e-01 -5.35329163e-01 -4.00498182e-01 -3.67319047e-01
    -6.01408184e-02 -4.24859345e-01 -9.26537439e-02 -1.10857867e-01
    -1.91225559e-01 -9.72671732e-02 -8.27629939e-02 -1.63808763e-01
     3.48309457e-01  3.69038552e-01  2.32720941e-01  2.88217992e-01]
   [-1.74036771e-01  2.92014778e-01  7.30511546e-03  2.86096454e-01
     9.74898413e-02 -1.58564508e-01  1.92547008e-01 -4.53358218e-02
     2.27430597e-01 -1.85437679e-01 -4.35890019e-01  1.29687011e-01
    -4.92056310e-01  1.16897104e-02 -1.42035529e-01 -1.35409862e-01]
   [ 5.61449770e-03  1.60808470e-02 -2.65854225e-03 -2.77899429e-02
    -2.27244012e-02 -1.42438024e-01  1.98568791e-01  1.42503381e-01
    -2.28652880e-02  2.77464800e-02  7.38923252e-02  1.95685014e-01
    -1.83955774e-01  9.00511369e-02 -3.70030031e-02  8.19900706e-02]
   [-1.26679748e-01 -1.36365190e-01 -1.51287258e-01  7.80070797e-02
    -7.97513127e-02  1.06402688e-01  5.73579408e-02 -2.09211916e-01
     3.75028163e-01 -1.35644540e-01  4.54299860e-02  1.19065069e-01
    -3.14596504e-01  1.93496540e-01  1.85164884e-02 -1.09405674e-01]
   [ 1.50379278e-02 -4.32760894e-01 -7.78056383e-02  2.01274186e-01
    -4.13687468e-01  4.89804596e-02 -2.81479299e-01  1.62631571e-02
    -4.33514297e-01 -7.74740428e-02  5.98871782e-02 -2.15510637e-01
    -2.93366425e-02 -5.53965718e-02 -2.66701251e-01 -1.56608745e-01]
   [-3.00321966e-01 -1.32277766e-02 -3.74417156e-02  2.95651019e-01
    -5.94098913e-03 -2.41286904e-01 -3.07549513e-03 -1.46816820e-01
    -3.03410798e-01 -5.19618616e-02 -1.90201119e-01  2.46574119e-01
    -7.36717209e-02  1.18308673e-02  9.38504413e-02  1.18742183e-01]
   [-6.37292862e-02  3.29678766e-02  1.42463565e-01  1.51514411e-01
     9.89424512e-02 -6.74490770e-03 -4.69377870e-03 -2.41815019e-02
     3.08505654e-01 -1.19076066e-01 -1.04092591e-01  4.35415097e-02
    -4.00397241e-01  1.32930996e-02 -1.25494286e-01  2.78888159e-02]
   [-1.41656965e-01  1.80737644e-01 -1.49269775e-01  4.76761051e-02
     4.51888256e-02 -1.39667347e-01 -2.07857907e-01  3.34304236e-02
     1.16569936e-01 -1.71396777e-01 -1.58340931e-01  1.92024916e-01
    -5.18005788e-01 -5.54152206e-02 -1.20141618e-01 -1.80284977e-01]
   [ 9.65066254e-02  1.47724286e-01  8.40429589e-02 -7.73296878e-02
     2.23917458e-02 -1.92889601e-01 -5.55789948e-01 -1.95341006e-01
     3.29258263e-01  6.27935007e-02 -9.08672884e-02  1.88917130e-01
    -1.27175286e-01  1.68391153e-01 -1.11877121e-01 -1.44643679e-01]
   [-2.82040630e-02 -2.69784778e-02  6.08913489e-02 -1.63509563e-01
    -1.97469234e-01 -6.73445389e-02 -5.87758303e-01 -1.62256271e-01
     2.83550382e-01 -1.43934622e-01 -2.22808823e-01 -2.15237021e-01
    -5.02143763e-02  3.26087028e-02  7.61530846e-02 -2.66973004e-02]
   [ 1.78438962e-01 -4.61260468e-01 -1.60010606e-01 -2.55192846e-01
     1.17366193e-02  1.42242283e-01 -7.02185214e-01 -5.16676810e-03
     6.50789915e-03  3.21491696e-02  3.38103436e-02 -2.46387511e-01
     1.10513315e-01  6.98534250e-02 -2.58631527e-01  1.28042802e-01]
   [ 8.32493529e-02  9.00632218e-02  6.75818548e-02 -1.50699183e-01
     2.86988139e-01  5.38448282e-02 -1.85187593e-01 -1.74158424e-01
     2.61237442e-01 -6.50652498e-02  1.57744676e-01  6.25295416e-02
     3.97350252e-01  6.58544200e-03 -6.06731214e-02  1.91639751e-01]
   [-1.27986312e-01 -9.39610824e-02 -7.31176063e-02  1.31210148e-01
    -7.54270107e-02 -3.51267308e-02 -1.61239654e-01 -1.44781858e-01
    -1.01963636e-02 -1.20970502e-01  3.59046422e-02 -3.15180331e-01
    -2.30337549e-02  1.61930874e-01 -2.88147703e-02  1.05249047e-01]
   [-1.15781449e-01 -6.01283312e-01  1.80979654e-01 -3.81221384e-01
     1.33019656e-01  2.14897275e-01 -2.48853669e-01 -4.49641608e-02
    -9.69178677e-02 -9.70104188e-02  1.35287523e-01  1.91197217e-01
     2.24094614e-01  1.92856506e-01 -5.41590691e-01 -3.92032489e-02]
   [-2.62077808e-01 -3.65832970e-02 -6.34887516e-02  1.55935183e-01
    -1.94282651e-01  1.90127432e-01  1.57402173e-01 -2.66778737e-01
     1.31626189e-01  1.13999799e-01 -2.67492265e-01 -8.08995590e-02
    -1.83676351e-02  1.88431621e-01 -1.89769834e-01 -1.79261148e-01]
   [ 4.05417606e-02  6.72031417e-02 -7.20547587e-02 -6.36561066e-02
    -8.90759155e-02 -1.68683156e-01 -7.27443874e-01  2.26347093e-02
    -7.45826662e-02 -7.46633410e-02 -1.35372236e-01  1.77434027e-01
    -3.15010071e-01 -1.55037701e-01  8.91682059e-02 -1.20283186e-01]]]]
conv2d_3/bias:0
(16,)
[-0.02777597  0.00630396  0.0457392   0.01852843  0.03737277  0.07116852
  0.13251498 -0.12975343 -0.06595559 -0.09578052 -0.01878769 -0.04183109
  0.01212273  0.05134487  0.04681358  0.10153669]
batch_normalization_3/gamma:0
(16,)
[1.0858307  1.0249152  1.1089721  1.0370401  0.9864851  1.0632741
 1.3265243  0.8624001  1.0308238  0.904961   1.2402378  1.2007047
 1.1795472  1.2745385  0.91621256 1.054691  ]
batch_normalization_3/beta:0
(16,)
[-0.01878124  0.01474284  0.05458192  0.02882152  0.04677638  0.0795775
  0.13853143 -0.12933426 -0.05569641 -0.09637116 -0.01123775 -0.03261336
  0.02083951  0.05879389  0.05562223  0.1095958 ]
conv2d_4/kernel:0
(1, 1, 16, 16)
[[[[ 0.40959975  0.4879009   0.23448595 -0.1645437  -0.23929133
     0.37745005  0.01837544 -0.14046846  0.01724163  0.08126345
     0.15947236  0.46526167  0.17280942 -0.37709644 -0.10540728
     0.43614635]
   [ 0.10529741 -0.05173818 -0.48080656 -0.36799014  0.13511236
    -0.17243534 -0.23712458 -0.19413196 -0.22080196  0.09792306
    -0.24658382 -0.02738467  0.35100973 -0.00953908  0.35975724
    -0.04195626]
   [-0.02091147  0.34703493 -0.02090942 -0.06790224 -0.08171895
     0.29728746  0.00886266 -0.03117879  0.4259953  -1.060256
     0.6813642   0.44370675 -0.4431969   0.02808656 -0.61389357
    -0.28179568]
   [ 0.05633518 -0.23800449  0.21180427 -0.1488738   0.02510249
     0.06136181  0.04966391 -0.35885537 -0.2164757   0.12697351
     0.12234806  0.26513004  0.2029116  -0.5927639   0.0427032
     0.39400312]
   [-0.47594765 -0.31850943  0.24972925  0.16568102  0.2544194
    -0.07397995 -0.36141953  0.02792735 -0.5511453   0.38664973
    -0.8920672  -0.04885817  0.10210399 -0.14130072  0.32541525
     0.3048592 ]
   [-0.54189104 -0.3224634  -0.24258532 -0.03020141  0.1835816
     0.43213287  0.07851808  0.06693839 -0.10407662  0.10941544
    -0.2648471  -0.17119597  0.02565904  0.28701323  0.42024451
    -0.09348666]
   [-0.31961703 -0.19846947  0.27450377  0.15140502  0.4300031
     0.17953734 -0.03734386 -0.3912904   0.2378279   0.02923859
    -0.02594718  0.1481081  -0.81226206 -0.33887544 -0.20397195
    -0.03513248]
   [ 0.4065565  -0.32348537 -0.3706362   0.01342184  0.06600273
    -0.15912342 -0.19674103  0.08904175  0.48767412 -0.61033833
     0.6846067  -0.20160179 -0.165507   -0.25688526 -0.061254
     0.03524005]
   [ 0.35345602  0.32895997  0.64258087  0.00219887 -0.02224469
    -0.01361677  0.3477602   0.02899796  0.41339704 -0.70959646
     0.3475645  -0.54248637  0.32684654 -0.40893945 -0.3161302
     0.07806507]
   [-0.31370822 -0.5480321  -0.25601742  0.3739465   0.39132676
    -0.24106091 -0.73323333  0.37880415  0.20650467 -0.41960073
     0.21106067 -0.36190215 -0.0092674  -0.11173031  0.3947537
     0.09162749]
   [ 0.05863713 -0.01578325  0.01955515 -0.09726405  0.14579973
    -0.41794768 -0.2926657  -0.11634863  0.17843914 -0.4654654
     0.13157758 -0.22365475  0.3165392  -0.5004123  -0.10471197
    -0.10381958]
   [-0.11756636  0.4035106   0.38932753 -0.32020172  0.43623215
     0.16670473 -0.5576903  -0.15129699  0.25478372  0.23496558
    -0.3477349   0.31792888 -0.31702134  0.11261152 -0.28362855
     0.15950796]
   [-0.5559645   0.34582046 -0.51553816  0.523596   -0.42150185
    -0.54908305  0.31213233 -0.74761075 -0.35641584  0.41545814
    -0.10733974  0.02496894  0.3485018  -0.6494482  -0.02210755
    -0.07371949]
   [-0.08284761  0.26903987  0.26557848  0.3237921   0.01179942
    -0.13790016 -0.09573087 -0.7507104   0.14069428 -0.59920126
     0.11518946 -0.17582358  0.41485986  0.26051426 -1.2017853
    -0.10028254]
   [ 0.11439759 -0.46461514  0.29626378 -0.5435235  -0.12723623
    -0.04588641  0.3886187   0.50010234 -0.29391772 -0.08057288
    -0.24100585  0.12737852 -0.64655185  0.41931513  0.10043427
    -0.0281618 ]
   [ 0.18538854 -0.44173235 -0.641229    0.19323383 -0.12826587
     0.09803714  0.26871228  0.19927487 -0.40296695  0.32419118
    -0.0062085  -0.41183922  0.07172692 -0.3599386  -0.0725935
     0.10800122]]]]
conv2d_4/bias:0
(16,)
[-0.00509248  0.11146392 -0.03837436 -0.06756525 -0.06662214 -0.13196543
  0.03281664 -0.09866704  0.0417511  -0.08215787 -0.14711165 -0.02977881
  0.07333869  0.16273175 -0.09089418 -0.22799167]
batch_normalization_4/gamma:0
(16,)
[0.8737619  1.3257613  0.9420378  0.99129343 0.93463266 1.046563
 1.0296477  1.1867383  1.1176548  0.94431347 1.3424023  0.81358355
 1.2408253  1.3765086  0.95125496 0.90939045]
batch_normalization_4/beta:0
(16,)
[ 0.00508724  0.11505228 -0.02931982 -0.05797758 -0.05731092 -0.12151252
  0.04140311 -0.09008972  0.04916045 -0.07359942 -0.13675265 -0.02005089
  0.07902673  0.16649278 -0.0800356  -0.21711765]
conv2d_5/kernel:0
(5, 5, 16, 16)
[[[[-9.94347110e-02  1.33658260e-01  2.70481724e-02 -4.04848397e-01
     2.57911384e-01  9.93139967e-02 -6.09390698e-02 -1.23657040e-01
     1.77143082e-01  2.75458116e-03  5.35697192e-02 -5.44970483e-02
     2.08610699e-01 -1.46476477e-01 -1.08544424e-01 -1.87125698e-01]
   [ 1.08648883e-02  9.48733464e-02 -8.61430913e-02  9.69985093e-04
    -1.55085072e-01 -4.26224917e-02 -2.86143124e-01  7.59982504e-03
    -3.63134593e-02  1.31478146e-01 -1.04189068e-01  9.44392234e-02
     2.40076959e-01 -2.21208796e-01 -6.79571256e-02 -1.88371353e-02]
   [ 1.20805912e-01  5.55122606e-02 -4.63599823e-02  2.16288164e-01
     1.55741721e-02  2.77221173e-01  1.06998481e-01 -8.56181756e-02
     2.51237988e-01  3.88633609e-02  1.19658619e-01 -1.27882481e-01
     1.01799645e-01  5.64694740e-02  1.12191737e-01 -9.09098089e-02]
   [ 6.70085102e-02  1.88040584e-02  1.81081370e-02  1.09841712e-01
     4.02629003e-03 -1.22599214e-01  5.93672693e-02 -2.64863260e-02
    -2.95934472e-02 -1.15406223e-01 -3.33365619e-01 -2.25037932e-01
    -4.91523556e-02 -2.09627107e-01  4.63939644e-02 -2.90911701e-02]
   [ 2.85356548e-02 -1.09128393e-01  1.80950284e-01 -8.55258608e-04
     2.90652961e-01  1.36504218e-01  8.17131549e-02  3.37094441e-02
    -1.62501074e-02 -5.98286018e-02 -1.39639482e-01  1.05636276e-01
     2.39637941e-01  4.53738682e-03  1.17218353e-01  4.31403108e-02]
   [ 1.81295991e-01 -4.42384183e-02  8.35483428e-03 -2.69038260e-01
    -1.63897369e-02 -1.10338688e-01 -5.04396893e-02 -1.22332936e-02
     4.23748940e-01  1.89407885e-01  5.63549213e-02 -1.62266120e-01
     4.09464054e-02 -9.96248573e-02 -6.22131601e-02 -2.87494451e-01]
   [-1.09050572e-02  1.83428153e-02 -3.83472890e-02 -2.38850471e-02
    -6.02211691e-02 -8.94792601e-02  2.59445280e-01 -1.32182032e-01
    -3.14211845e-02 -1.26707196e-01  9.57410410e-02 -1.91841498e-01
     1.89239249e-01 -4.11637962e-01  5.51830325e-03 -3.56465846e-01]
   [ 2.21953362e-01 -2.20994204e-02  1.65349051e-01  5.38877666e-01
    -1.05154574e-01  1.20789237e-01 -3.29211727e-02 -8.18703100e-02
     3.02598745e-01 -8.20816774e-03  1.51705369e-01 -4.76485610e-01
     7.49253407e-02 -1.54291578e-02 -1.03480637e-01 -2.50272620e-02]
   [-5.18694781e-02 -4.09440622e-02  9.19890404e-02 -1.51576445e-01
    -3.34585160e-02  3.25232416e-01 -1.29457787e-01 -1.00821361e-01
    -1.89713836e-01  1.16535045e-01 -1.33919895e-01  1.68967217e-01
     1.54266164e-01 -2.45687723e-01  2.80611128e-01 -3.18347663e-02]
   [-2.71450095e-02  2.23149404e-01  1.53870285e-01 -1.36015743e-01
    -1.62139431e-01 -5.60662262e-02  1.93702444e-01  6.39699250e-02
     4.50412840e-01  9.91320685e-02 -2.84018040e-01 -3.33787888e-01
     3.22575361e-01 -1.95470735e-01 -2.31961876e-01 -7.20201358e-02]
   [ 1.68902636e-01  2.08803192e-01 -9.30077881e-02 -4.76152271e-01
     1.76411450e-01  1.30961701e-01 -1.32793337e-01 -9.52451862e-03
     2.22233087e-01  1.37759671e-01 -4.28971201e-02 -2.38207534e-01
    -4.63170797e-01 -6.61121607e-01 -1.50400013e-01 -2.03054324e-02]
   [ 1.14341184e-01  4.45279330e-02 -1.20612957e-01  5.66707877e-03
     9.36064199e-02  2.93804318e-01 -1.10866502e-03 -4.17286567e-02
     2.66438484e-01  8.54349956e-02  1.28122076e-01 -7.33356625e-02
     1.73037007e-01 -1.88188493e-01 -2.38764696e-02 -7.77661102e-04]
   [-6.49915263e-02  2.26875335e-01  3.11678439e-01  2.83783913e-01
    -5.46525717e-02 -5.00614978e-02  2.83104599e-01 -1.46910310e-01
    -4.66653317e-01 -5.18049486e-02 -2.75229841e-01 -5.57938516e-02
     1.00627959e-01 -1.81886405e-01 -9.59224720e-03 -4.35524397e-02]
   [ 4.02497649e-02  8.88810977e-02  4.43327650e-02  3.83522689e-01
     8.39324817e-02  1.83517009e-01  2.05858856e-01 -3.66522036e-02
     6.08168542e-02 -1.63994879e-01  9.71481297e-03 -5.78743696e-01
     1.37068987e-01  1.47459716e-01  3.86679806e-02  1.07602691e-02]
   [-1.39366863e-02  1.39356107e-01  1.56831875e-01  6.58966601e-02
     1.04758047e-01 -7.82779455e-02 -5.28730601e-02 -4.52099852e-02
     1.56225562e-01 -9.19188745e-03 -2.69667320e-02 -2.55018204e-01
     6.02119602e-02 -1.09296426e-01 -2.11140797e-01  6.21747188e-02]
   [ 3.48053537e-02  1.63097501e-01  2.91955695e-02 -4.20621008e-01
    -4.98912223e-02  7.21436664e-02  1.04470134e-01 -8.24981630e-02
     3.36559564e-01  9.07969624e-02 -8.02845657e-02 -8.03807229e-02
     1.98124990e-01  2.27292940e-01 -4.69297394e-02 -2.40080923e-01]]

  [[-6.16860995e-03  9.42893773e-02 -1.18404970e-01 -4.34711538e-02
    -1.46583766e-01 -2.31921062e-01  1.24202035e-01  1.29324105e-02
     2.50375032e-01 -1.20777944e-02 -8.68114363e-03  2.20137760e-02
    -2.32749879e-01  4.81975563e-02  4.41471674e-02 -3.22656751e-01]
   [ 1.00981757e-01  1.18817598e-01 -4.47795764e-02  3.12103927e-01
     2.62538701e-01 -9.42210183e-02 -1.45231172e-01 -2.75424905e-02
    -5.66944107e-03  4.56756145e-01 -3.88582237e-02  4.12756465e-02
    -2.23077431e-01 -6.27610162e-02 -3.78149040e-02  1.06939323e-01]
   [-5.67724891e-02  2.59011120e-01 -6.80101737e-02  1.72483891e-01
    -1.13511486e-02 -3.77294980e-02  2.36232713e-01  1.20218284e-02
     1.20228276e-01  1.76071703e-01  1.09567039e-01 -1.01437479e-01
     8.59592184e-02 -1.18946031e-01 -3.18798982e-02 -5.51439822e-02]
   [-2.04909131e-01  1.81382820e-02 -2.66646054e-02 -1.84572577e-01
    -1.60885707e-01 -2.18426898e-01 -2.08247766e-01 -8.15516524e-03
    -4.54689264e-01 -1.86604679e-01 -1.36824116e-01  2.94657284e-03
    -8.22197795e-02  1.21194378e-01  8.14054627e-03  7.74807706e-02]
   [-1.62852660e-01 -2.61838976e-02  3.10778134e-02 -4.06911641e-01
    -3.80812003e-03  2.12436803e-02  1.12935670e-01 -7.10825995e-02
     3.11676636e-02 -8.74196365e-02 -2.49179248e-02 -1.22495979e-01
     1.33798763e-01 -6.49674758e-02 -1.67404026e-01  1.52766868e-01]
   [-1.19687207e-01  1.31511658e-01 -7.66401738e-02 -1.42388806e-01
    -9.36687663e-02 -3.48254502e-01  2.34224245e-01 -2.52507683e-02
     1.65312275e-01  2.96974361e-01 -3.21717113e-01 -2.74919599e-01
    -1.50564760e-01  5.59215248e-02  2.34504715e-02 -1.87366068e-01]
   [-3.59026305e-02 -1.20187616e-02 -1.48723394e-01 -1.11233793e-01
    -3.91439736e-01  4.01125848e-02  3.80370677e-01 -5.90181239e-02
     1.26631930e-01 -2.55509198e-01  6.94035664e-02 -1.41261518e-01
    -1.03859007e-01 -3.68227996e-02 -2.05247864e-01 -3.57630581e-01]
   [-7.44109899e-02  2.07473755e-01 -2.07824290e-01 -3.76053676e-02
    -8.03435966e-02  2.01870292e-01  1.58607379e-01 -1.22118585e-01
     2.01810122e-01  3.08122151e-02 -2.18502149e-01  4.50189225e-02
     3.16091180e-02 -9.55811813e-02 -3.59596044e-01 -5.05778845e-03]
   [-2.18647763e-01 -6.37091463e-03 -6.12043822e-03  1.20329618e-01
    -1.62133992e-01 -1.10152448e-02 -1.27761170e-01 -5.69142252e-02
    -3.19626257e-02  1.54627338e-01 -8.11933428e-02  7.52844512e-02
     2.07907647e-01 -1.84991926e-01  5.56611829e-02  6.12625182e-02]
   [ 1.34228975e-01  9.30360928e-02  4.40812632e-02  1.47816375e-01
    -4.95226160e-02 -1.67614967e-03  6.05970025e-02 -3.64211053e-02
     8.19540098e-02  7.42477551e-02 -6.24695495e-02 -1.30198836e-01
     1.45514444e-01  1.93130993e-03 -2.26316899e-01 -2.05009766e-02]
   [ 9.64162722e-02  2.90508829e-02  5.57882264e-02 -5.18744588e-01
    -3.99839357e-02  8.56261253e-02 -1.10892825e-01  2.22967323e-02
     7.78642744e-02 -3.04904971e-02 -9.79243666e-02 -1.37724996e-01
    -3.41737419e-01  4.19220403e-02  7.11119696e-02 -7.34421387e-02]
   [ 4.51938100e-02  1.53940260e-01 -1.02344081e-01  2.07866788e-01
    -1.03878146e-02 -1.33472502e-01  8.98963735e-02 -4.03987207e-02
     1.90296263e-01  1.56832263e-01  1.24061175e-01  7.65411481e-02
     2.33423132e-02  3.41082700e-02 -3.70415896e-02  3.50618996e-02]
   [ 5.75297475e-02 -5.21222316e-02  1.63453668e-01  1.25714570e-01
     1.67216122e-01 -4.20085154e-02  1.16594136e-01 -2.72267126e-02
    -2.68547922e-01 -1.93604790e-02 -8.70069489e-02  2.77606398e-02
    -3.35503936e-01  2.14246735e-01  4.44721393e-02  1.65653322e-02]
   [-9.16999765e-03 -5.29865399e-02  8.89076740e-02  2.33238330e-03
     2.90993422e-01  2.40715131e-01  3.48764300e-01 -4.26086634e-02
     4.09801491e-02 -1.18691154e-01 -6.76988214e-02 -1.00205103e-02
     2.52044499e-01 -2.79617161e-01 -1.54844165e-01 -3.81267294e-02]
   [-1.90457776e-02 -2.10546199e-02  1.50586152e-02 -1.21795453e-01
     8.10900182e-02  5.45648001e-02 -4.10716468e-03  4.96124886e-02
     4.58995253e-02 -1.85428504e-02 -1.32376835e-01 -3.00939739e-01
    -1.10961977e-04  6.18329458e-02 -1.74009576e-01  8.81511420e-02]
   [-2.07555611e-02  1.30585343e-01  2.20244125e-01 -8.00464153e-02
    -2.39969697e-02 -1.10666290e-01 -2.93003350e-01 -2.13558767e-02
     4.90873009e-02  1.35643154e-01  1.17209675e-02  1.26709804e-01
    -5.45822224e-03  1.15483455e-01  2.91868318e-02 -7.42344633e-02]]

  [[ 1.36588708e-01 -2.54919790e-02  8.10940713e-02  8.27495307e-02
    -1.21518470e-01 -1.32550627e-01  2.88344864e-02  4.79897391e-03
     4.45652120e-02  6.07828461e-02 -3.11576098e-01 -1.01904295e-01
    -4.22670901e-01  4.40146327e-02  5.04456870e-02 -2.12538451e-01]
   [ 2.87981480e-01  1.83879301e-01 -9.31196064e-02  3.73461932e-01
     1.92298219e-01 -2.94988155e-01 -9.95685756e-02 -8.52880254e-02
    -4.16760519e-02  4.85196531e-01 -1.11243561e-01 -1.16144605e-01
    -6.60061985e-02  5.30455522e-02  1.25557572e-01  2.00678751e-01]
   [ 2.49150917e-02 -4.17911168e-03  1.06766038e-01  2.12823704e-01
    -7.82179609e-02  9.32188109e-02  6.79198503e-02 -5.33744954e-02
    -5.77878952e-02  1.98893100e-01 -4.83306348e-02  2.65095234e-01
    -2.28569090e-01 -1.64131790e-01 -5.81777953e-02 -5.56358099e-02]
   [ 3.25508595e-01 -2.69972116e-01  1.44516349e-01  3.06254085e-02
    -2.12642983e-01  2.86282212e-01  2.81477749e-01 -2.26395316e-02
     1.11586712e-01 -1.18092619e-01  6.67673796e-02 -5.76584749e-02
    -1.76322401e-01  1.26889184e-01  6.61212355e-02 -1.00533545e-01]
   [-1.47037789e-01  4.42425273e-02  1.77692130e-01 -3.09832215e-01
     3.22403125e-02  4.86518443e-02 -1.79731138e-02  2.57936702e-03
     9.27699059e-02 -2.93689850e-03  6.29780963e-02 -1.43089294e-01
    -1.29493490e-01  1.29313901e-01 -2.11184144e-01  1.53038070e-01]
   [-7.60684395e-03  3.84131931e-02 -7.86008313e-02  1.94570899e-01
     2.11512327e-01 -4.13522750e-01 -1.20139092e-01 -4.76210527e-02
    -2.72691041e-01  1.21335283e-01  9.54742655e-02  1.28155723e-01
    -2.88648844e-01  8.82205144e-02  1.70973957e-01  8.58423486e-02]
   [ 1.75547153e-01 -5.35321720e-02 -9.76547003e-02 -2.54456609e-01
    -1.56753194e-02  7.29841515e-02  2.61466295e-01 -6.59887642e-02
    -8.29968303e-02 -4.99307543e-01 -7.41472021e-02 -4.36926857e-02
    -9.19909105e-02 -6.91995844e-02 -1.65886417e-01 -8.24458659e-01]
   [ 8.00501108e-02 -2.62946516e-01  1.26787916e-01 -1.33218557e-01
    -1.83433816e-01  8.44367892e-02  1.39590383e-01 -5.78674451e-02
    -2.00659141e-01  1.05008699e-01 -1.47627190e-01 -9.77211520e-02
    -8.39480758e-02 -6.63220063e-02 -1.78927451e-01 -4.24159840e-02]
   [-1.88110694e-01  1.77769795e-01  1.83648452e-01  1.54170886e-01
     1.51207641e-01  1.33852914e-01 -1.23260424e-01 -1.10602595e-01
     2.41269395e-01  1.69903606e-01  2.88917292e-02 -9.96777117e-02
    -2.26528987e-01  4.88168150e-02  2.78619509e-02 -2.73064664e-03]
   [ 1.82305321e-01  1.12345368e-01  2.55965232e-03  1.62456468e-01
    -1.53064311e-01  5.81057295e-02  2.32302472e-01  2.28411816e-02
    -7.02666342e-02  1.18754767e-01 -9.19495150e-02 -4.26964276e-02
     5.13071604e-02 -1.47449583e-01 -6.19403869e-02 -5.65458499e-02]
   [ 2.40967020e-01  1.17714375e-01  1.34536047e-02 -1.01079457e-01
     3.70074958e-01  8.23404491e-02  3.50622507e-03 -1.02328278e-01
     4.15754840e-02  3.15506980e-02 -8.88138935e-02  5.71564063e-02
    -1.56024426e-01 -9.79239494e-02  8.97221118e-02 -3.11301500e-01]
   [ 1.82702631e-01 -2.10522972e-02 -3.69557627e-02  2.90045589e-01
    -1.37652293e-01 -3.68779093e-01 -4.17493209e-02 -3.39229479e-02
     4.98538688e-02  1.21626347e-01 -1.96571834e-02  1.28527999e-01
    -2.09775805e-01 -1.85540900e-01 -6.84082732e-02  9.26113203e-02]
   [ 3.72580439e-01 -7.89003670e-02  9.60744917e-02  1.06915824e-01
     4.83895801e-02  8.87130499e-02  1.21283934e-01 -4.34066802e-02
     2.15401612e-02  8.74200165e-02  1.19485222e-01 -1.34544536e-01
    -1.02630995e-01  1.80441570e-02  2.75561005e-01  4.49113660e-02]
   [-6.32972717e-02 -4.56033051e-01  1.33098930e-01  5.48849478e-02
    -1.35028854e-01  1.28584906e-01  3.03554267e-01 -1.32281870e-01
     5.46273999e-02 -2.71918364e-02 -2.20489264e-01  2.00972170e-01
     1.45865351e-01 -2.30599746e-01 -1.71483666e-01 -1.62451237e-01]
   [ 3.70140374e-03  8.54463428e-02  1.45446241e-01 -1.38443843e-01
     3.35484706e-02  2.18963891e-01  1.07732974e-01 -9.16859135e-02
    -1.19142838e-01  1.54113680e-01  3.60060781e-02 -1.84968427e-01
     2.18206659e-01 -4.30245064e-02 -3.84776853e-02  1.46442596e-02]
   [ 9.02995542e-02  3.00357491e-02  1.84347153e-01  3.65312621e-02
    -3.54484499e-01 -2.49771103e-01  9.70962048e-02 -9.31755453e-02
     6.09284006e-02  2.49689817e-01  1.19036734e-01  7.73126632e-02
    -1.70874164e-01  6.07103780e-02  1.10298365e-01 -5.33529483e-02]]

  [[ 3.02919354e-02  1.33463815e-01  3.10941059e-02  7.67409727e-02
    -8.15590620e-02 -1.02771372e-01 -3.45805548e-02  9.10357945e-03
    -8.49789591e-04  1.17575698e-01 -1.28123522e-01  9.36241001e-02
     2.36213550e-01 -9.18028876e-02  1.77646562e-01 -3.77262771e-01]
   [ 1.95025623e-01  1.40632614e-01  9.84694511e-02  4.33981657e-01
     1.59671605e-01 -2.30676413e-01 -1.20626710e-01 -4.22777310e-02
    -1.75593913e-01  2.13665962e-01 -8.69509876e-02 -3.85856144e-02
    -3.05869371e-01  1.76759899e-01  8.32480192e-02  1.18841156e-01]
   [ 1.53236195e-01  5.96629679e-02  2.56190915e-02  9.91398171e-02
    -7.70787224e-02 -4.54051606e-02 -2.35927105e-01 -4.94427197e-02
    -1.00219190e-01  9.11046043e-02  1.18253194e-01 -2.40652114e-01
    -2.64951944e-01  2.48146486e-02 -2.63300329e-01 -1.73264503e-01]
   [ 1.42124191e-01 -9.83508006e-02  5.54730035e-02 -1.52979940e-01
     9.99592319e-02  1.62428752e-01 -2.85599045e-02 -5.52833974e-02
     7.92322233e-02  2.41893847e-02  1.08761430e-01  8.08403790e-02
    -3.33843708e-01 -2.11428747e-01 -2.58898940e-02 -1.91369966e-01]
   [ 3.59333873e-01  7.46782916e-03  9.56356153e-02 -2.65334457e-01
    -2.67796926e-02  1.84789628e-01  6.38684398e-03 -2.04616925e-03
     8.04778785e-02 -4.30565141e-03  3.38663876e-01  8.01386461e-02
    -1.31422415e-01  1.56386361e-01 -1.77746072e-01 -4.60096896e-02]
   [ 8.99228156e-02  1.44040480e-01 -1.39059825e-02  1.06366381e-01
    -2.21932799e-01 -3.29147279e-01 -1.45313129e-01 -1.35318795e-02
    -1.83621392e-01 -3.60831469e-02 -9.15839523e-02 -6.23859689e-02
     4.37674811e-03  1.95506513e-02  9.07780156e-02 -7.48053193e-02]
   [-9.57370922e-02  1.18017927e-01 -3.03542148e-02 -1.01451688e-01
    -9.55671668e-02  1.09168477e-01  9.14184377e-02  3.89040560e-02
    -9.76706222e-02 -2.27083787e-01 -3.24772686e-01 -3.95548157e-02
    -2.88185745e-01  2.04491809e-01 -1.54902264e-02 -6.32556200e-01]
   [ 1.76095977e-01 -7.40018263e-02  3.25361267e-02  1.00381307e-01
    -2.76684053e-02  1.26370713e-02 -2.24075988e-01  7.04490319e-02
    -1.50475875e-02  1.25072241e-01 -2.21187323e-01  2.02484488e-01
     5.75855896e-02  1.06190845e-01  8.08831826e-02  1.56456590e-01]
   [ 1.98798716e-01  1.57016814e-01  1.14402205e-01  8.12427998e-02
    -1.64252922e-01 -2.23099589e-02  1.10025719e-01 -2.45011076e-02
    -3.11734714e-02  1.22138165e-01  2.33895481e-01 -1.10291988e-02
     9.07595828e-02  1.09481409e-01 -1.20395653e-01 -1.12070054e-01]
   [ 1.01459846e-01  6.63448498e-02 -6.24397546e-02 -1.45571321e-01
    -3.04753661e-01 -3.20439860e-02 -7.46143088e-02  8.05640873e-03
    -2.19196558e-01  8.41549598e-03 -1.13045365e-01  2.78211944e-02
    -7.33289063e-01 -5.97405992e-02 -5.08154370e-02 -7.98366219e-02]
   [ 7.11505488e-02  1.67124197e-01 -1.10904485e-01 -6.22251518e-02
     5.82199404e-03  8.31375569e-02  1.11507230e-01 -7.11833909e-02
     1.38324827e-01 -7.44438358e-03 -2.57735223e-01 -2.57640481e-01
    -2.09063157e-01  9.38259717e-03  9.62022543e-02 -6.04299486e-01]
   [ 1.29888043e-01  1.22628354e-01  7.12163150e-02  3.67676556e-01
    -9.70696881e-02 -2.90643901e-01 -1.55379742e-01  2.70560365e-02
     6.88156411e-02  2.77713031e-01 -2.39210129e-01  8.15580115e-02
    -1.54441655e-01 -1.14943720e-01 -9.00677219e-02  4.61761542e-02]
   [ 1.45992562e-01 -2.44831410e-03  3.71982455e-02 -1.16501160e-01
     3.25154141e-02  8.76205042e-02 -8.04480687e-02 -1.59201678e-02
    -4.46605384e-02  3.52666304e-02  9.14041996e-02 -3.85989472e-02
    -5.04186630e-01 -9.30663869e-02  1.88363254e-01 -6.42497092e-02]
   [ 1.00331113e-01 -3.07197213e-01 -1.10368982e-01 -2.98359767e-02
    -5.72880283e-02  2.33032182e-01 -2.64638662e-01 -1.17947236e-01
     1.72356322e-01  1.57687187e-01 -1.40974700e-01 -2.58629382e-01
     4.70499881e-02  3.59802097e-02 -5.89414127e-02  3.83089781e-02]
   [ 2.38305226e-01 -1.15221702e-01 -5.26287407e-02 -3.50205302e-01
    -7.34530389e-02  1.21460825e-01 -6.48353994e-02  4.85798903e-02
    -1.62571996e-01  2.11134385e-02  4.85109240e-02 -7.21853450e-02
    -2.71872543e-02 -9.98508185e-02  2.97151618e-02 -8.04938003e-02]
   [ 2.15816975e-01  7.60437250e-02  2.62770891e-01 -4.96984087e-02
    -3.07142287e-01  3.82713117e-02 -3.68539244e-02 -4.29826751e-02
    -1.54193252e-01  1.20700262e-01  9.04738009e-02  2.36416534e-01
    -5.15139341e-01 -1.20568890e-02  1.58818483e-01  7.13944361e-02]]

  [[-1.27765357e-01 -1.36914616e-02  1.81143463e-01 -8.26830938e-02
     1.73971951e-01  4.93315831e-02 -2.09364250e-01 -5.66633306e-02
     5.23385182e-02  5.51820695e-02 -9.60305426e-03  1.36291936e-01
    -3.96497026e-02 -8.68391246e-03  1.72663793e-01 -2.99053520e-01]
   [-1.09329810e-02  3.59190395e-03 -1.45084009e-01  8.81867930e-02
     1.66204348e-01 -1.24476604e-01 -1.10526763e-01 -3.41089591e-02
    -7.05574229e-02 -7.21753314e-02 -7.94635247e-03 -6.48095012e-02
    -6.05376244e-01 -8.05288330e-02 -8.49236622e-02 -1.30079880e-01]
   [ 5.90081001e-03 -2.35795140e-01  8.27469490e-03 -1.17743120e-01
    -8.28276500e-02 -6.67657778e-02 -1.91984743e-01  7.77261034e-02
    -1.55590698e-01 -8.66457000e-02  6.66482598e-02  1.89989105e-01
    -2.93249995e-01  2.22454309e-01  1.06272191e-01 -1.21100746e-01]
   [ 2.66884192e-04 -3.54767665e-02 -1.87662661e-01  1.07493578e-02
    -3.22831236e-02  4.04729433e-02  6.23739362e-02  2.92369686e-02
     2.75359273e-01  1.23450108e-01 -3.17242555e-02  1.65005758e-01
    -1.46064207e-01  2.68906027e-01  1.74943656e-01  8.03315192e-02]
   [ 6.05365112e-02  1.77285522e-01  2.65229106e-01 -1.28587693e-01
     5.84397055e-02  3.42828333e-02 -7.00246990e-02 -1.62175670e-02
     4.23864871e-02 -1.03866644e-01  2.58559257e-01  1.13287635e-01
    -1.59587208e-02 -1.70078099e-01 -2.87617415e-01 -1.00674979e-01]
   [ 2.09820215e-02 -1.40922576e-01  4.93658967e-02 -1.20039359e-01
    -1.30286789e-04 -1.77441090e-01 -3.62821460e-01  7.18900282e-03
    -3.29860419e-01  5.20655327e-02 -1.89127289e-02  3.35195243e-01
    -4.59714383e-01  1.61297042e-02  2.12221175e-01  9.57650784e-03]
   [ 3.83575633e-02  2.86195744e-02  1.85544770e-02 -3.36194277e-01
     1.98432058e-02 -6.93726093e-02  6.07543811e-02 -1.04523115e-01
    -1.73205778e-01 -1.84730306e-01  3.98785025e-02  8.17173868e-02
     1.09697923e-01  2.46810392e-01  3.12942833e-01 -4.30234224e-01]
   [ 1.36474237e-01 -2.49292016e-01  1.61451716e-02  1.48239240e-01
    -1.70744956e-01 -5.75303147e-03 -5.30375056e-02  4.61606942e-02
    -1.69273224e-02  1.05095178e-01  7.37108216e-02 -6.87412024e-02
    -5.86734572e-03  3.11931297e-02  2.13225737e-01 -1.47519082e-01]
   [ 1.35449525e-02  4.57414947e-02  2.33513087e-01  2.71705594e-02
     1.71924278e-01 -2.23964565e-02 -1.95110127e-01 -1.21207669e-01
     7.91436508e-02  2.01001000e-02  1.17746390e-01  1.13913640e-01
     5.58499172e-02 -1.82972789e-01 -3.76964882e-02 -1.32283092e-01]
   [ 2.74195522e-01  1.18348986e-01  3.11856321e-03 -3.15099806e-01
    -1.47616312e-01 -2.39406880e-02  6.40622452e-02 -1.91815384e-02
    -2.10767850e-01 -7.52448216e-02 -3.28255087e-01  2.37561956e-01
    -5.02386570e-01 -5.14711207e-03  1.04719445e-01 -1.31033406e-01]
   [ 1.31355956e-01  1.24011926e-01 -2.56593376e-02  5.18756270e-01
     5.91044836e-02 -2.96691507e-01 -5.98125421e-02 -9.87244770e-02
     1.28217684e-02  2.36896917e-01 -1.52219236e-01 -1.86638504e-01
    -3.17502618e-01 -1.99160770e-01  3.86920869e-02 -3.83316934e-01]
   [-4.59566750e-02  5.62055083e-03 -1.23020612e-01  5.79654984e-02
    -1.37761474e-01  3.13497223e-02 -1.96371049e-01 -5.69824269e-03
    -1.93064660e-01  6.47124499e-02 -1.61049873e-01  2.29583740e-01
    -5.35955429e-01 -6.82252124e-02  1.19145148e-01  1.53811905e-03]
   [ 2.27947399e-01  1.69193581e-01 -1.77373514e-01  8.19350407e-03
     2.02737197e-01 -6.45311102e-02  6.90299943e-02 -1.04282834e-01
     2.59258211e-01  4.16627117e-02 -4.52323109e-02  7.35015348e-02
    -5.85878015e-01  1.05754949e-01  5.23303561e-02 -3.76495607e-02]
   [ 1.74010873e-01 -2.50706911e-01 -1.08376101e-01 -1.72177911e-01
    -1.37830731e-02  7.19545782e-02  2.72437304e-01 -6.81688413e-02
     2.39793584e-01 -2.93143410e-02  1.35596976e-01  1.61348566e-01
     5.60268499e-02  1.55756831e-01 -1.71921611e-01 -1.69171855e-01]
   [ 2.31271312e-01 -1.58904329e-01 -9.98615250e-02 -2.67771244e-01
    -1.92991450e-01 -2.16920692e-02  1.55995950e-01 -4.89647016e-02
    -4.03106436e-02  1.20678395e-01 -8.03762749e-02 -1.83112938e-02
    -1.90694481e-02 -1.36966452e-01  5.37068285e-02  2.45535350e-03]
   [ 1.44492671e-01  1.48923531e-01  1.25899315e-01 -2.11014122e-01
    -1.94369227e-01  1.85489450e-02  2.68169641e-02 -2.51520295e-02
    -1.50984228e-01  9.03949365e-02  1.63345188e-02  1.63526222e-01
    -1.34159327e-01 -9.10398662e-02  2.09379226e-01 -1.34316593e-01]]]


 [[[ 3.91845405e-02  1.30290717e-01 -2.19214350e-01 -3.79781872e-01
     2.32427523e-01 -7.45983720e-02 -1.17443234e-01 -2.57839803e-02
     6.62062466e-02  3.02808762e-01 -8.52706581e-02  1.06752954e-01
     9.76016968e-02 -1.80229828e-01  4.73248214e-02  1.76625803e-01]
   [ 7.12168813e-02  9.78576466e-02  1.39492810e-01 -5.61013222e-01
    -5.29591441e-01 -4.06421542e-01 -9.74356458e-02 -5.17263450e-02
    -1.78997651e-01  1.67094126e-01 -1.69708043e-01  3.56327385e-01
     3.04918110e-01 -2.69955963e-01 -1.83329225e-01 -1.89641923e-01]
   [ 1.18372001e-01  4.13915068e-02  1.08449213e-01 -7.09217042e-02
    -3.11098527e-02  8.18131268e-02  9.95801613e-02  2.78219227e-02
    -6.44265935e-02  1.88963532e-01 -1.82608590e-02  1.34955212e-01
    -2.15151548e-01  1.19796008e-01  5.21195419e-02  1.74117759e-01]
   [-5.34256622e-02 -1.82403922e-01 -1.06753923e-01  1.19747639e-01
    -9.00377855e-02  5.58800437e-02  9.40982774e-02  3.78834493e-02
    -7.20859021e-02 -1.85019195e-01 -1.65448949e-01  8.62143561e-03
    -5.32485783e-01 -4.52478379e-01 -1.18703544e-01 -2.05116734e-01]
   [ 2.21391261e-01  8.53954032e-02  2.39139602e-01  3.35267857e-02
    -2.86231190e-02  2.42352933e-02  3.75567049e-01 -1.71830282e-02
     1.60908431e-01 -6.62837103e-02 -9.90243405e-02 -4.57728729e-02
     5.84093407e-02 -2.08152309e-01  6.98152483e-02 -3.01527471e-04]
   [-5.93831949e-02 -9.66365933e-02  2.94224322e-02 -2.81241387e-01
     2.09560812e-01 -5.07399365e-02 -3.38748872e-01 -4.93898019e-02
     2.14294910e-01  3.35010171e-01 -9.79298502e-02  4.92712930e-02
    -2.16911241e-01  1.78788919e-02 -1.55112728e-01 -2.15052456e-01]
   [ 1.48554087e-01 -1.22877799e-01 -6.68219030e-01  1.63722470e-01
     7.82908425e-02  1.16895504e-01  1.88244566e-01 -1.45305172e-02
    -4.09594178e-02 -4.56641614e-02 -3.06729406e-01 -1.32460129e-02
     1.06082214e-02 -3.42045575e-01  2.14857638e-01  2.22733095e-02]
   [-1.20886443e-02 -8.59319195e-02  6.54996932e-02  1.06854931e-01
     1.07096359e-01 -1.32890381e-02 -9.34959352e-02 -1.21162780e-01
     7.05818683e-02 -1.88365579e-01  4.10906924e-03 -3.06358665e-01
    -3.01814377e-01  1.98189765e-01  2.74271250e-01  3.42876352e-02]
   [ 6.20365292e-02  2.67912727e-02  1.13440730e-01 -3.14085633e-01
    -2.40733903e-02 -1.24696024e-01  2.25685120e-01 -1.15065493e-01
    -3.39790761e-01  3.12770605e-01 -1.91857874e-01  2.80818909e-01
     1.66733995e-01 -1.52312279e-01  9.58151147e-02  2.04384141e-02]
   [ 5.58874086e-02 -1.59791425e-01 -8.26179702e-03 -2.07729284e-02
    -4.02496755e-02 -9.00931358e-02  1.79012135e-01  2.15005986e-02
     3.20120990e-01 -3.65366824e-02 -2.19361484e-01 -6.34449422e-02
     1.24277703e-01 -3.95980358e-01 -6.71086386e-02 -6.62962124e-02]
   [ 2.66561747e-01  3.82010788e-01  3.54378894e-02 -2.03705758e-01
    -5.62083982e-02 -6.36758730e-02 -1.45272717e-01 -4.76562865e-02
     1.92588416e-03  2.36771181e-01  1.77757919e-01  4.84686084e-02
    -3.42981666e-01 -3.26584518e-01 -1.62788451e-01  4.35508847e-01]
   [ 1.57691255e-01  7.49275163e-02 -2.81539619e-01 -2.81533390e-01
    -8.66220817e-02 -4.68277931e-02  4.39181849e-02 -5.68339378e-02
    -1.67181790e-02  2.07986340e-01 -1.91698354e-02  2.64073163e-01
     1.10223986e-01 -6.97023049e-02  5.81816658e-02  1.20715521e-01]
   [-1.26522756e-03  1.11822784e-01  4.11657214e-01  3.42397876e-02
    -1.86612651e-01 -8.75702221e-03  1.90836787e-01  4.31162380e-02
    -2.50783771e-01 -7.67232776e-02 -1.62224114e-01  1.73837423e-01
    -8.40254053e-02 -5.36299348e-01 -2.04510927e-01 -1.05178930e-01]
   [-4.50339764e-02  9.01903864e-03  1.47022486e-01  2.79736042e-01
     1.17076725e-01  1.80533469e-01  2.11048037e-01  1.63729619e-02
    -1.15249023e-01 -1.33428022e-01  7.31647620e-03 -2.65872627e-01
     2.11313162e-02  8.95371139e-02  1.53170591e-02  2.43320107e-01]
   [-5.95979318e-02 -3.09224389e-02  4.18691486e-01  1.30558938e-01
    -6.24169596e-02 -2.09012881e-01 -1.70370340e-01 -4.49845195e-02
     2.92393684e-01 -1.92301452e-01  4.63193990e-02 -1.09077051e-01
    -3.53145562e-02 -1.52586967e-01 -7.78970262e-03  1.72314420e-02]
   [ 1.76986028e-02 -3.81849445e-02  1.10342894e-02 -5.55599868e-01
    -2.10126024e-03 -2.87481576e-01  2.58964002e-02 -2.97072399e-02
     2.54766911e-01  1.15864418e-01 -1.82144284e-01 -2.63815999e-01
     1.21607222e-01 -6.49621859e-02 -1.41093984e-01 -2.02051431e-01]]

  [[ 2.77061522e-01  1.80632591e-01 -2.56695271e-01 -1.43240303e-01
    -1.78504437e-01 -1.26273215e-01 -2.20021163e-03 -8.13569427e-02
     1.03475712e-02  2.29472280e-01 -1.30046949e-01  1.05572730e-01
    -2.67490447e-02  6.60530701e-02  1.02063559e-01  1.61336631e-01]
   [ 4.29256946e-01  2.43703902e-01  7.39033595e-02 -2.04837769e-01
    -5.88351749e-02 -3.74363244e-01 -2.29551166e-04  4.78894785e-02
    -9.71171260e-03  5.40325284e-01 -4.21858609e-01 -8.95941257e-03
    -2.35413626e-01 -1.25607401e-01  1.41306937e-01  8.41471031e-02]
   [ 1.39067754e-01  2.00177744e-01  1.33492678e-01  2.37572994e-02
     9.50551704e-02 -9.12511721e-02  1.98598489e-01 -5.53006828e-02
     5.39210290e-02  3.81308466e-01  1.06256537e-01 -4.41782743e-01
    -1.24727234e-01 -5.58027267e-01  2.18080521e-01 -1.41391531e-01]
   [-1.58770338e-01  4.71355673e-03 -1.78457499e-01 -3.22068445e-02
     6.42768890e-02  3.01123261e-02  1.17891841e-01 -8.06115121e-02
    -5.11863589e-01 -4.49688099e-02 -2.59938575e-02  2.04131290e-01
    -2.28044361e-01  1.64037034e-01  4.47452962e-02 -1.57725662e-02]
   [-4.48494479e-02 -2.94888262e-02  1.21692576e-01  7.25201219e-02
    -9.66698229e-02  3.01722437e-01  2.38201693e-02 -4.29336540e-02
     1.56602591e-01  1.91501319e-01 -2.91447729e-01 -5.15295006e-02
     7.17467219e-02  3.79932337e-02 -1.72845244e-01 -1.14417054e-01]
   [ 7.33521879e-02 -4.31999117e-02 -7.28918705e-03 -1.09888896e-01
    -5.27585670e-02 -2.19655678e-01 -3.97508927e-02 -5.54541722e-02
     1.69560954e-01  2.55052954e-01 -3.08707114e-02 -5.26882336e-02
    -1.94555312e-01 -2.56649643e-01  1.58924267e-01 -2.44369879e-01]
   [ 2.08959699e-01 -1.83066323e-01 -6.98080540e-01  8.35552514e-02
    -9.45572779e-02  6.85101673e-02  2.26415440e-01 -9.75578465e-03
     1.00727193e-01 -1.43560484e-01 -1.33621871e-01  3.91064323e-02
     3.75983096e-03 -9.94427055e-02  5.38680106e-02 -1.21658981e-01]
   [ 8.57686102e-02 -1.12682067e-01  2.17440818e-02 -2.95339990e-02
     1.84705928e-01  9.97181311e-02  5.83713576e-02 -7.76457042e-02
     9.97214615e-02  6.73553646e-02 -1.39345258e-01  7.31884129e-03
     2.78987233e-02 -2.05912635e-01 -9.35182050e-02  5.99793941e-02]
   [ 2.49047294e-01  7.07410276e-02  1.28396107e-02 -1.52199015e-01
    -2.78453231e-01 -2.43707255e-01  6.53324202e-02 -1.21450260e-01
     5.48873618e-02  2.72102952e-01 -1.71857253e-01 -4.39595096e-02
     2.75239229e-01  1.39292002e-01  1.64275751e-01 -2.10235000e-01]
   [-1.14919856e-01 -7.12046400e-02 -1.75326332e-01  1.39563754e-01
    -7.56333470e-02  5.60627356e-02 -9.08851326e-02  1.80221070e-02
     2.07662106e-01  1.32393762e-02 -8.50524660e-03 -2.11548507e-01
     3.83289754e-02  9.09285694e-02 -2.61549860e-01 -3.55486006e-01]
   [ 4.98290271e-01  1.64277732e-01  1.48092449e-01 -2.37987384e-01
    -1.48564249e-01 -3.01932722e-01  1.60439815e-02  1.99489836e-02
     5.21094799e-02  1.44865170e-01  1.07319608e-01  3.25221829e-02
     2.84027196e-02  8.63139629e-02  3.25291514e-01  3.13669562e-01]
   [ 2.94346452e-01  1.66644812e-01 -1.90561771e-01  3.47266309e-02
     8.15016478e-02 -3.01261038e-01  1.74213260e-01  1.29791545e-02
     9.50836614e-02  3.30018908e-01  2.15084985e-01  6.79591894e-02
     3.00535671e-02 -5.65542951e-02  2.50145614e-01 -2.96980236e-03]
   [-4.95444685e-02  1.23452973e-02  9.68402252e-02 -6.34375215e-02
     1.44258633e-01 -1.00385040e-01  4.63696942e-02 -3.92873399e-02
    -2.68240482e-01 -1.70416757e-02 -1.66903302e-01  1.09208278e-01
    -2.75241971e-01  1.08341597e-01 -1.96668759e-01  6.11536019e-02]
   [-2.60200858e-01 -8.72412175e-02  2.69382261e-02 -6.20045140e-02
     5.07996559e-01  2.14266524e-01  1.19451761e-01 -2.73267273e-02
    -4.94085625e-02 -1.57552138e-01  5.44910645e-03 -2.57320732e-01
     5.92590943e-02 -5.62210858e-01 -4.50469255e-02 -1.50246397e-02]
   [-1.30995527e-01  9.75270718e-02  1.44392744e-01  4.31766221e-03
    -6.75324053e-02  2.97597069e-02 -6.81509748e-02 -5.88638671e-02
    -1.22284032e-01 -1.37430534e-01  7.09628165e-02 -1.12247653e-01
     1.65895149e-01 -9.23244953e-02 -2.95412064e-01 -1.19023927e-01]
   [ 3.99541967e-02  8.68611559e-02 -6.47378936e-02 -2.93328911e-01
    -1.33418545e-01 -4.95766908e-01 -5.32630570e-02  3.86755355e-02
     1.00452930e-01  1.49155691e-01  1.14964731e-01 -1.18764350e-02
    -2.43578590e-02  1.46496966e-01 -5.70571683e-02 -4.17590514e-02]]

  [[ 1.55941427e-01  4.11707193e-01 -4.28087920e-01 -2.41313130e-03
    -1.54943064e-01 -1.63341537e-01 -1.17583878e-01 -7.03541413e-02
     2.97366560e-01  1.05423026e-01 -5.87129854e-02 -4.73643318e-02
    -2.67797947e-01  1.42837867e-01  2.16160446e-01  3.06787074e-01]
   [ 2.92847604e-01  3.35183948e-01  1.76061213e-01 -1.85343057e-01
    -2.36393780e-01 -5.43958068e-01  7.43055716e-02 -1.40593515e-03
    -1.08820304e-01  3.27499777e-01 -4.05743062e-01 -3.72271806e-01
    -9.09766778e-02 -1.14453927e-01  2.91810721e-01  2.33474717e-01]
   [ 2.50088513e-01  2.23918974e-01  6.53650090e-02 -1.72995567e-01
     2.30486542e-02 -4.53665197e-01  3.23428363e-02  5.69273829e-02
     1.88958913e-01  6.19312264e-02  7.98619539e-02 -1.31875873e-01
     2.52742879e-02 -7.47915655e-02 -6.12630360e-02  3.78655307e-02]
   [-2.32878774e-02 -6.51455522e-02  9.33255553e-02 -2.51513743e-03
     2.37064093e-01  1.57107443e-01  4.07606721e-01 -6.56971112e-02
    -2.15323821e-01  1.82769626e-01  2.60219481e-02 -2.71046739e-02
    -2.29470924e-01 -2.67754439e-02 -1.41257554e-01 -6.34264126e-02]
   [ 2.37402823e-02 -1.91357598e-01  2.10043684e-01 -6.57882541e-02
     1.32636517e-01  2.11551517e-01 -3.86955403e-02 -7.84028918e-02
     2.35899016e-02  2.26105511e-01 -9.49249268e-02  5.13081737e-02
     1.55924767e-01  2.39177644e-02 -1.54884726e-01  7.16172606e-02]
   [ 8.06422159e-02  1.70270398e-01  2.47525498e-02 -2.47534871e-01
    -5.64448312e-02 -3.37584674e-01 -9.63003635e-02  4.66067046e-02
    -1.20303102e-01  1.89066410e-01  1.14838995e-01 -1.88983157e-01
    -7.48555362e-02 -9.99596864e-02 -4.29241769e-02 -2.38170940e-02]
   [ 1.15584433e-01 -1.35659412e-01 -4.46023345e-01  1.64342016e-01
     1.21332286e-02  1.55659363e-01  7.24855065e-02 -6.00035265e-02
    -2.91191712e-02 -2.09773555e-02 -1.27914578e-01  1.89227998e-01
    -1.61892459e-01 -6.41928986e-02 -3.35045934e-01 -3.74135375e-01]
   [-8.79158676e-02 -9.99484584e-03  6.89789131e-02 -2.45245378e-02
    -1.44461632e-01 -1.00190714e-01 -1.59628883e-01 -1.14329472e-01
    -1.72463860e-02  1.02660723e-01 -4.95551899e-02 -8.54822621e-02
    -8.55078474e-02 -8.21960941e-02 -4.80329335e-01 -3.16714831e-02]
   [ 1.94602370e-01  2.84958750e-01 -1.77730937e-02 -2.12599307e-01
    -9.41778645e-02 -3.14184219e-01 -3.03718424e-03 -7.19182193e-02
     1.02531515e-01 -2.70107109e-03  2.39593893e-01 -6.76414147e-02
     1.96138278e-01  4.07501608e-02  1.13576986e-01  6.08442090e-02]
   [-5.83004653e-02  6.56933263e-02 -2.51000196e-01  2.69420832e-01
     1.32583454e-01  2.46223956e-01  8.22807327e-02 -1.86924152e-02
    -8.28936398e-02  5.34164086e-02  2.06911210e-02  2.71928608e-02
    -3.22340846e-01 -1.16098218e-01 -2.24085927e-01 -2.69361466e-01]
   [ 1.96833536e-01  1.10171817e-01  6.93664923e-02  2.27539778e-01
     5.12721613e-02 -6.92459643e-02  1.94609642e-01 -1.68339536e-02
    -2.81801015e-01 -2.10416708e-02  1.64055198e-01 -6.95778057e-02
    -2.96474487e-01 -6.76550791e-02  3.94343346e-01  7.31050596e-02]
   [ 2.49274805e-01  3.06354851e-01 -1.14680462e-01  4.94057797e-02
    -6.47173151e-02 -3.63672048e-01  2.98834741e-01 -7.90010542e-02
     1.17640346e-01  8.94418880e-02 -2.19918266e-01 -7.74762630e-02
    -4.07488704e-01 -1.37393475e-01  4.37324569e-02  1.02930814e-01]
   [-1.56912684e-01 -1.49578080e-01  1.78419977e-01 -1.51006892e-01
     3.13465506e-01 -5.07052764e-02 -2.91399322e-02 -1.15673523e-03
    -3.58886629e-01  2.16563214e-02  7.99348429e-02 -6.22933060e-02
    -2.06840947e-01 -2.14606732e-01 -2.92602256e-02 -1.48655698e-01]
   [-2.69098915e-02 -3.38062137e-01  3.93166728e-02 -3.64124179e-01
    -6.35411823e-03  4.56405841e-02 -1.32828671e-02 -4.49268743e-02
     1.12755045e-01 -2.21576214e-01 -1.52697414e-01  3.37343104e-02
     8.72561410e-02 -3.31993252e-02 -3.07435915e-02 -4.74198386e-02]
   [-3.23681086e-02 -4.65501398e-02  2.12882832e-01  1.80217832e-01
     8.74353275e-02  6.33032769e-02 -7.37194121e-02 -5.16279042e-03
    -3.07922959e-01 -8.48557130e-02  5.36698066e-02  6.62329048e-02
     2.32699379e-01 -1.65174846e-02 -1.72143802e-01 -1.61956832e-01]
   [ 1.56176627e-01  1.53127313e-01 -3.83250825e-02  1.55145554e-02
     1.08589875e-02 -3.54136825e-01  7.81920627e-02 -7.07540661e-02
     6.51181489e-03  1.87764376e-01 -1.47245407e-01 -3.25052179e-02
     9.97300744e-02 -5.91724068e-02  1.37689665e-01 -1.24746300e-02]]

  [[-8.74541476e-02  1.92768842e-01 -2.80381829e-01  8.16534907e-02
     5.81892813e-03 -2.76163548e-01  6.62898272e-02 -1.10343866e-01
     1.72646657e-01  4.81871255e-02 -1.59505773e-02 -2.01142222e-01
     1.61922097e-01  3.05147059e-02  7.82359168e-02  1.32960081e-01]
   [ 3.27126592e-01  3.29542994e-01  1.39282987e-01 -9.21561271e-02
    -1.30021572e-01 -4.74821627e-01  5.24025410e-02 -2.78750025e-02
     9.23200399e-02  2.99045116e-01 -6.12837188e-02 -3.15336704e-01
     1.42350802e-02 -1.19787097e-01  1.02587705e-02  1.96545854e-01]
   [ 5.51974997e-02  9.03459415e-02  6.88517541e-02 -1.06658041e-01
     1.85010552e-01 -5.30261993e-01 -7.90205784e-03  6.32431209e-02
     1.53997362e-01  1.73515245e-01  2.10709691e-01 -5.09315252e-01
     7.43682012e-02 -3.14900398e-01 -7.74589539e-01 -8.57812818e-03]
   [-2.93465257e-02 -5.78976631e-01 -8.41243565e-02 -7.80299485e-01
     1.28672019e-01  1.80006087e-01  1.90012738e-01 -4.80454527e-02
    -1.53000019e-02  1.78465202e-01 -1.53644294e-01  2.08409175e-01
    -6.38988316e-01 -8.19933787e-02  1.90817013e-01 -9.84901264e-02]
   [-7.51927048e-02 -6.21905886e-02  4.86016944e-02 -1.20614853e-03
     2.97270775e-01  5.52788749e-03 -3.39009583e-01  4.18960266e-02
     2.24239379e-02  2.09229484e-01 -1.73199438e-02  1.00120157e-01
    -2.24892974e-01 -3.89928930e-02 -1.28929153e-01  2.36440301e-01]
   [ 7.18044564e-02  1.88281253e-01 -1.30746216e-01  1.63232416e-01
    -4.86035179e-03 -4.20049340e-01  1.31574690e-01 -5.80831580e-02
    -2.84195412e-02 -4.92121503e-02 -2.31266245e-01 -4.81604695e-01
    -4.44433093e-02 -2.67648190e-01 -2.80950069e-01  1.44169882e-01]
   [-1.42933622e-01 -1.40998647e-01 -4.73674327e-01  1.37454689e-01
     1.62475985e-02  3.44632715e-02  5.56795783e-02 -8.45074952e-02
    -1.26256317e-01  2.28338931e-02  6.19478747e-02  1.87901467e-01
     3.76802906e-02  1.01086095e-01 -1.09263763e-01 -1.77327871e-01]
   [-3.24923694e-01 -7.95924291e-02 -3.02345753e-01 -1.32242844e-01
     2.77192026e-01 -1.37309432e-01 -1.67783737e-01 -6.67506158e-02
    -7.66988993e-02  8.98936465e-02  1.35919303e-01 -2.30848156e-02
     5.75407557e-02 -3.50005180e-02 -6.42300025e-02 -3.63770008e-01]
   [-1.78791340e-02  2.01129228e-01 -5.73249254e-03 -1.38825655e-01
     4.36522905e-03 -4.25079912e-01  4.86352034e-02 -1.30359471e-01
     1.85623765e-01  1.52225588e-02 -2.52875388e-01 -2.91776031e-01
     4.42285761e-02  1.82569213e-02 -2.87183702e-01  1.05492391e-01]
   [ 1.06133074e-01  9.09454972e-02 -1.78162366e-01  2.08451286e-01
     1.58841759e-01 -3.68606709e-02 -1.80789858e-01  3.98255177e-02
    -5.94005942e-01 -2.20411737e-02 -2.88915306e-01  2.51951724e-01
    -7.10866392e-01 -8.95199249e-04  1.22576684e-01 -2.52140403e-01]
   [-2.16092661e-01  9.46875513e-02 -2.41985857e-01  1.88932285e-01
    -4.29374091e-02 -1.04396835e-01  2.36340687e-01 -3.76126170e-02
     1.60778105e-01 -3.12381443e-02 -1.83869731e-02 -2.22899988e-01
    -2.92630076e-01 -2.16029644e-01 -1.33072898e-01 -3.46603245e-01]
   [ 2.99120575e-01  2.52335280e-01 -1.39422148e-01  8.35511312e-02
    -1.30605221e-01 -2.94424474e-01  1.47272334e-01  3.59571166e-02
     1.67695105e-01  2.88073152e-01 -1.09263226e-01 -1.28706917e-01
    -2.34097354e-02 -1.91507697e-01 -1.61929995e-01  6.82332367e-02]
   [-1.60550196e-02 -2.60836691e-01  1.33999631e-01 -3.08209687e-01
     1.06938675e-01 -5.78005277e-02 -1.01754703e-01 -4.33734320e-02
    -2.81014174e-01 -4.01318856e-02 -2.53492296e-01  2.39241838e-01
    -2.34524146e-01 -1.47553787e-01  3.89279664e-01  8.44234899e-02]
   [-9.99553353e-02 -1.89674214e-01 -1.66779891e-01 -6.21836424e-01
     4.31820095e-01 -2.69115679e-02 -4.01969582e-01 -5.77231050e-02
     1.83382377e-01 -4.10792045e-02  2.12322548e-01 -2.43499339e-01
