conv2d/kernel:0
(3, 3, 3, 16)
[[[[ 0.16730763 -0.34933504 -0.05915518 -0.07155156  0.12222913
    -0.1130525  -0.33653745 -0.14108072 -0.10862565 -0.16234122
    -0.18542099  0.21074308 -0.16075769  0.11301227  0.02156574
    -0.01052809]
   [-0.12261834 -0.17367703 -0.15745594 -0.34020105  0.17342846
     0.21350485 -0.3491697   0.26532036  0.17456755  0.03791844
    -0.11512862 -0.04559311 -0.18330592 -0.08245396  0.10301948
    -0.12102775]
   [-0.10333778  0.12243604  0.13196327 -0.01820303  0.04797802
     0.19757707 -0.40999165 -0.13989088  0.03871105 -0.08724093
    -0.06885004  0.01985413 -0.32364562 -0.07917619  0.2301653
    -0.13980359]]

  [[ 0.17618987 -0.16579182 -0.01354246  0.04937626 -0.21278061
     0.02043984 -0.03214203  0.140427   -0.08647265  0.3251839
    -0.14103988  0.44608375  0.13220367 -0.11065312 -0.31497407
     0.12688892]
   [-0.23941334 -0.03180288 -0.05261241 -0.17014347 -0.17394686
     0.09106716  0.03245687  0.41012543  0.14581314  0.36692113
    -0.18151754 -0.10432273  0.0861805  -0.02569188 -0.2601411
     0.18300706]
   [ 0.01630505 -0.07331233  0.273147    0.10801531 -0.02403242
     0.22300822 -0.15439075  0.05757245 -0.26150212  0.10118734
     0.12093288  0.3899885   0.18316844 -0.13883078 -0.3701243
     0.0430898 ]]

  [[ 0.14943726 -0.22661434  0.15983967 -0.03444151  0.23010974
     0.05081587  0.16180824 -0.10458377  0.04520822  0.06056338
    -0.05916985  0.18203437  0.04270082  0.03837268  0.08225322
    -0.22603418]
   [ 0.1064434   0.05507677  0.06378617 -0.18083984  0.15516444
     0.0659598   0.16713043  0.18977766  0.15952182  0.43663594
    -0.11834244 -0.08237691  0.2635141   0.02630779 -0.09282615
    -0.37389246]
   [-0.03010038 -0.10503524  0.21685995  0.15263896  0.15523373
     0.28390872  0.18058102 -0.17680177 -0.2999082   0.21252711
     0.02874652  0.11352     0.24339446  0.05711317 -0.06806832
    -0.40900093]]]


 [[[ 0.202504    0.1133341  -0.15307602 -0.20978588 -0.09014804
    -0.0740848  -0.28795514 -0.19222037  0.2338691   0.04986467
    -0.15806334  0.33622754 -0.45632622  0.211564    0.1574107
    -0.1272989 ]
   [-0.08013523 -0.18975955 -0.09987865 -0.32525352 -0.14579633
     0.00464682 -0.18248472 -0.18090576  0.23197517  0.10779897
    -0.09217782  0.15858184 -0.5227039   0.01682709  0.38001886
    -0.02980893]
   [-0.18186656 -0.1032801  -0.0127102  -0.36610988  0.19573486
     0.08658551 -0.55637485 -0.4285284  -0.11028421  0.06509025
     0.1151148   0.22790793 -0.34305593  0.0284241   0.24501501
    -0.11421815]]

  [[ 0.15381412 -0.1265467  -0.19601834  0.10945482  0.114134
     0.00752108  0.19774918  0.16579005  0.07735242 -0.19835648
     0.01672873  0.16137691  0.01953386  0.34965292 -0.11645377
    -0.23387688]
   [-0.02236979 -0.14210808 -0.26502088  0.15593562  0.19338983
     0.20080414  0.2764273   0.22493118  0.08576055  0.33373576
     0.08208501 -0.17883351  0.0789848   0.29807094 -0.08936934
     0.00974823]
   [-0.11695737 -0.05259554 -0.24177325 -0.06099631  0.40848932
     0.01435768  0.08409299  0.04975788 -0.25447974 -0.03055837
     0.13983184  0.11175099  0.12550962  0.24484614  0.03175111
     0.18913347]]

  [[ 0.3797233   0.08279505 -0.23594666  0.29734176  0.03633169
    -0.24329071  0.19708575  0.12982547  0.10327401 -0.04383759
    -0.14101976 -0.01439832  0.3146122   0.18684742 -0.34973958
    -0.14627053]
   [ 0.02314918 -0.09346648  0.07338846  0.3386528  -0.0834289
     0.07906294  0.10169201  0.12862521  0.11394616  0.26854962
    -0.12915127 -0.35546973  0.38089836  0.2111008  -0.2936753
     0.2537034 ]
   [-0.17026047  0.04196917 -0.25620812  0.2534799   0.2896339
     0.2242285   0.10764327 -0.20343123 -0.08063874 -0.09147833
     0.07670213 -0.3391736   0.18513057  0.1056224  -0.24839552
     0.30988422]]]


 [[[ 0.12059852  0.14883243  0.03188737 -0.02594101 -0.04888622
    -0.00076932 -0.22415945  0.01514155 -0.02598581 -0.21847117
    -0.11574402  0.2602199   0.0428616  -0.3591913  -0.00296574
     0.1366661 ]
   [ 0.04445473 -0.2391328  -0.00912765 -0.20793319 -0.34785125
    -0.1675929  -0.12485041  0.06583331 -0.05247513  0.14028718
    -0.08153314  0.0020911  -0.22147731 -0.43280172  0.26999938
     0.20773034]
   [-0.22455908 -0.03282031  0.30456886 -0.09494721 -0.00112764
     0.17017773 -0.5096966   0.06486241 -0.5436641  -0.00243927
    -0.215561    0.03377175  0.07265349 -0.39249912  0.23578636
     0.12739207]]

  [[ 0.31875917 -0.19106191 -0.17842259  0.00937972 -0.18231292
    -0.17038675  0.08593052 -0.12231898 -0.03216355 -0.23123759
    -0.11682253 -0.21576    -0.17706597 -0.25594923  0.28431654
    -0.06715216]
   [ 0.11399654  0.02796447  0.03560211  0.04946688 -0.22685365
    -0.05923251  0.4231694  -0.14897206  0.07084817  0.04139188
    -0.3201955  -0.27451497 -0.00872288 -0.46403033  0.2625398
    -0.12884082]
   [-0.09672116  0.01909829 -0.2147944   0.2131924   0.26611
    -0.09655177  0.16310129 -0.19198951 -0.4789891  -0.3230806
    -0.21425743 -0.13638297 -0.1162487  -0.33324432  0.37984776
     0.05098901]]

  [[ 0.28333452 -0.01273871  0.04113535  0.19052263 -0.29129583
    -0.00659144 -0.08323892  0.00721283 -0.06600931 -0.28517544
    -0.14221908 -0.0243112   0.25216487  0.05775236 -0.01804864
     0.2173809 ]
   [ 0.11546297 -0.10180618 -0.18032953  0.22944479 -0.13413729
    -0.16668911 -0.0553247   0.23486024 -0.00113715 -0.19268297
    -0.01360877 -0.38257334  0.18628597 -0.17614469  0.13468215
     0.34848708]
   [-0.08561276 -0.12274668 -0.08973816  0.37454888 -0.16834179
     0.11184718  0.16670945 -0.24297696 -0.07183903 -0.161794
    -0.2235858  -0.06780537 -0.04118557 -0.07607742 -0.17727217
     0.3678067 ]]]]
conv2d/bias:0
(16,)
[-0.03314343 -0.0168658  -0.02439603  0.03796205  0.03391901 -0.06563561
 -0.00742906  0.03073035 -0.09486005  0.03334073 -0.11856198  0.04733665
  0.07834706  0.09088858  0.05887933  0.01314427]
batch_normalization/gamma:0
(16,)
[1.0481272 1.0535564 0.9152284 1.1785976 1.1945182 0.8438456 1.1600276
 1.4299253 1.0011839 1.299711  0.9356405 1.401242  1.4385397 1.2898692
 1.360533  1.2068294]
batch_normalization/beta:0
(16,)
[-0.02631692 -0.01645797 -0.02017386  0.04339883  0.03895865 -0.05850141
  0.00032195  0.03552195 -0.08703012  0.03797326 -0.11782043  0.05225264
  0.08106419  0.09505297  0.06373728  0.01974558]
conv2d_1/kernel:0
(1, 1, 16, 16)
[[[[ 3.23855907e-01  3.69812757e-01 -8.08772743e-02  2.86459982e-01
    -4.39017981e-01  3.92115980e-01 -4.11240727e-01  2.44984046e-01
    -5.47633708e-01  3.66440386e-01  3.07486236e-01  2.48756528e-01
     4.42751288e-01  2.05573723e-01  1.79303259e-01 -3.75738263e-01]
   [-3.42807561e-01 -3.57826978e-01 -4.25758719e-01  1.19566791e-01
    -8.31731334e-02 -1.49708539e-02  4.56929266e-01 -1.63957030e-01
     1.37199806e-02  2.68522324e-03  2.32881457e-01 -2.60038406e-01
    -4.03321147e-01 -3.30496103e-01  7.87630528e-02 -3.61838281e-01]
   [-5.01492202e-01 -2.43635178e-02  2.74063021e-01 -6.30035520e-01
     1.59318194e-01 -1.82505995e-01 -5.22852182e-01 -8.74447674e-02
     2.93055415e-01 -8.03681165e-02  3.81679609e-02  6.04286253e-01
    -2.22938694e-02  3.91237922e-02 -1.41692266e-01 -6.91807941e-02]
   [ 4.95085448e-01 -3.86789501e-01  3.89091611e-01  4.62765366e-01
     2.65044779e-01 -6.06880113e-02  1.92686275e-05  2.82398343e-01
     9.43166390e-02  3.10754150e-01  3.47035259e-01 -3.90497118e-01
     3.81675750e-01 -6.64008260e-01  3.66626084e-01 -6.36756837e-01]
   [-6.31599605e-01 -8.64454880e-02  4.86176535e-02 -1.33327946e-01
    -1.24785259e-01  2.86733638e-02 -9.22866344e-01 -3.70550394e-01
     1.95639446e-01  4.22283620e-01 -2.87038922e-01  6.98422566e-02
    -3.34361553e-01  4.19349112e-02  1.85615748e-01 -9.22560617e-02]
   [ 8.84661358e-03 -2.58720011e-01  2.30182037e-01  3.33405644e-01
    -8.71936511e-03  3.42565805e-01 -1.67720467e-01 -8.36047456e-02
    -6.04769766e-01 -4.78294194e-01 -2.58163065e-01 -3.40332061e-01
    -2.91893750e-01  4.73093480e-01 -2.02489600e-01 -1.59092113e-01]
   [ 6.98238909e-02  5.21039248e-01 -1.31285027e-01  3.00433636e-01
    -2.45290875e-01 -3.60784769e-01  5.12699746e-02 -3.51652354e-01
    -3.08330208e-01 -4.59849127e-02  2.28346884e-01  3.47985973e-04
    -5.33624232e-01  1.35681003e-01  1.32127598e-01 -1.49070770e-01]
   [-3.80387127e-01 -9.63497162e-01  4.54065591e-01  1.00331694e-01
    -3.48844588e-01 -1.09243542e-02  2.46938452e-01 -9.36276734e-01
    -4.36408579e-01 -1.59078375e-01 -9.28637758e-02  2.43624389e-01
    -8.79923850e-02 -3.68053347e-01 -6.18325770e-01  3.03918067e-02]
   [ 5.51017940e-01 -3.49940777e-01 -5.39490938e-01  2.08442733e-01
    -7.23838806e-02 -2.26092204e-01 -1.34569556e-02  3.17350365e-02
     4.57318798e-02  2.16346517e-01 -2.48955339e-01  4.22900826e-01
    -3.26061726e-01  1.68315679e-01  3.32839787e-02 -7.67209679e-02]
   [-3.68778288e-01 -5.19028068e-01  3.39864135e-01  3.01136166e-01
    -6.71221256e-01  5.49142838e-01  3.51628572e-01 -3.52999866e-01
    -4.02588964e-01 -5.22227764e-01  2.07151338e-01  4.42746729e-01
    -5.31453311e-01  5.10131180e-01 -1.07581064e-01  1.51245883e-02]
   [ 4.00491953e-01 -1.96496502e-01  1.48760840e-01  2.44812056e-01
    -1.76800579e-01  5.00626624e-01 -3.39930117e-01  2.77675360e-01
     9.41747874e-02  4.04207349e-01  4.18937832e-01  1.85950339e-01
    -3.47425163e-01  3.84230584e-01 -3.13446224e-01 -7.61268511e-02]
   [-6.39294028e-01  4.24886733e-01 -2.72895932e-01  2.76484992e-02
    -6.35762334e-01 -2.93843061e-01  3.51793349e-01 -2.72230864e-01
     3.99232537e-01  4.85487401e-01 -8.03402841e-01  4.87793952e-01
     1.24787360e-01  4.40915227e-02 -3.85453701e-02  5.23742378e-01]
   [-2.76336461e-01 -9.04299855e-01  5.53034842e-01  1.65269569e-01
     2.98858792e-01  7.76292244e-03 -3.68583463e-02 -2.49448285e-01
    -4.00123715e-01  1.07279077e-01  4.48392034e-01  3.50112081e-01
    -2.22071901e-01 -7.01432586e-01 -3.33468318e-01 -7.93114007e-01]
   [-5.34565449e-01  2.04211816e-01 -5.74646369e-02 -6.82353616e-01
    -2.03252152e-01 -3.23033333e-02  2.32947581e-02  1.35413587e-01
    -4.13328081e-01  4.68835145e-01 -1.34521037e-01  4.37818468e-01
    -3.60185832e-01 -3.94459784e-01  8.49944711e-01 -1.13632888e-01]
   [ 2.88094223e-01  4.01151985e-01 -4.12881225e-01  3.92745942e-01
     3.14998120e-01  2.75145084e-01 -2.83716559e-01 -1.81872904e-01
     3.19467515e-01  2.80954093e-02 -4.22318250e-01 -3.66284028e-02
     3.67783047e-02  3.73084992e-01  2.36628368e-01  4.51103419e-01]
   [-2.44849861e-01 -2.52377540e-01 -3.33062202e-01  4.95094836e-01
     2.17029452e-01  1.32874280e-01  5.60799420e-01  2.87687033e-01
    -1.84258014e-01  2.63453871e-01 -3.94955166e-02 -6.49583578e-01
     3.58025700e-01 -5.47637284e-01  1.33114889e-01 -1.40344575e-01]]]]
conv2d_1/bias:0
(16,)
[ 0.12010388  0.100672   -0.0712574  -0.07106534  0.07953763 -0.08914423
  0.0638845   0.19487238  0.04414383 -0.11349849  0.06831449 -0.06113975
  0.13149434  0.01302549 -0.06563034  0.12127786]
batch_normalization_1/gamma:0
(16,)
[1.414903  1.4107469 1.097985  1.0722466 1.3594458 1.0066233 1.7146177
 1.301181  1.3009732 1.134254  1.1842859 1.1477594 1.0874424 1.3055254
 1.0149522 1.5448021]
batch_normalization_1/beta:0
(16,)
[ 0.12333161  0.10437252 -0.06425864 -0.06419478  0.08429035 -0.08089826
  0.06758685  0.19644742  0.04942772 -0.10508431  0.07338088 -0.0533891
  0.13709424  0.01966494 -0.05830695  0.125079  ]
conv2d_2/kernel:0
(1, 1, 16, 16)
[[[[-0.35231987 -0.04246658 -0.38683042  0.3448612  -0.23420328
     0.19267029  0.3770821   0.15006977  0.41752198 -0.45941484
    -0.467961    0.18969984  0.45934737  0.03799076  0.48178133
    -0.23354739]
   [ 0.27051297 -0.06193739  0.37912992 -0.40158528  0.2948003
     0.3956905  -0.16895284  0.3980605  -0.20749092  0.24739505
    -0.29143876 -0.14821844 -0.4634561  -0.05407454  0.05496561
     0.49552834]
   [-0.28848296 -0.1902358   0.59349036  0.16782741 -0.0898511
    -0.19930261 -0.22198257  0.19958918  0.13640441 -0.20490916
    -0.30121177  0.39395165  0.13226607  0.26359904 -0.37021786
     0.13570051]
   [-0.57038766  0.19975919 -0.47731662  0.1925258   0.36316583
    -0.4549856  -0.15820509  0.1332137   0.26804438  0.18728769
     0.34225297 -0.5976807   0.09646648 -0.38511544 -0.12829912
     0.12339862]
   [-0.1924081  -0.61524814  0.36796308 -0.01120182 -0.07147613
    -0.11227313 -0.61457664 -0.32511127  0.03814858  0.46686164
     0.5621707  -0.26900232 -0.40818456 -0.29224855 -0.6664293
     0.31000125]
   [-0.17776543 -0.09049373  0.13275158 -0.03455805 -0.03626391
     0.01793339 -0.4256988  -0.19552462  0.541989    0.23357737
    -0.16264193  0.30846298  0.06176643 -0.26835185 -0.5919967
     0.15995511]
   [ 0.08880028  0.14760444  0.25446755 -0.30310407 -0.03076947
    -0.04105104 -0.733521   -0.19894004 -0.30139536  0.32990518
     0.13065347 -0.40953243  0.25778615  0.254469   -0.14283858
    -0.54583734]
   [ 0.12117168  0.5639115   0.02501993  0.27430427  0.0423167
     0.45214587  0.31997296  0.23599517 -0.22086382 -0.13122955
    -0.6693618  -0.5187351  -0.17724286 -0.53066444  0.19237372
     0.2893623 ]
   [ 0.03861506  0.3121727   0.33320022 -0.23869555 -0.04947873
    -0.08394133  0.01102885  0.04107453  0.13521883 -0.18623494
    -0.1823957  -0.258992   -0.0262567  -0.7460075   0.833135
     0.00362221]
   [ 0.28105184  0.28073445 -0.11911768 -0.0240423   0.29288375
     0.45109636 -0.15776984  0.02514466  0.3126966  -0.08312701
    -0.00327437 -0.36101177 -0.60314906 -0.28385535 -0.34684873
     0.19440602]
   [ 0.27986875  0.11948389 -0.40583417  0.26009682 -0.17079912
     0.2269181   0.15209796  0.23666285 -0.16402932 -0.15166645
     0.12935477  0.3344679   0.0487974  -0.36100084 -0.2305605
     0.18098687]
   [-0.47674355  0.2586311   0.4449091  -0.2011378  -0.7329043
    -0.49061733 -0.15299335  0.44983724 -0.29715654  0.240305
    -0.1588445   0.00794132 -0.5808736   0.15511023 -0.33344015
     0.37835628]
   [-0.10627832 -0.17909124  0.5272735  -0.8088186   0.48755938
     0.09186181  0.44626373 -0.18713483 -0.5745198  -0.00142518
    -0.01733784 -0.34269044 -0.19575354  0.294308    0.33396584
     0.22649768]
   [-0.01018594  0.6875699   0.5392128  -0.34955904  0.36998743
     0.53255737  0.25459683 -0.3142493   0.07501338 -0.07397263
    -0.08041123 -0.32968116 -0.346874    0.3096402  -0.05907952
    -0.00791525]
   [ 0.38734248  0.06033801 -0.06244917  0.17324208  0.15639545
     0.15660323 -0.3647866  -0.51938015  0.17836961  0.34268263
     0.0268176   0.65779114  0.33601028 -0.52260315 -0.48201346
    -0.758533  ]
   [ 0.16941185 -0.21325509 -0.63743675  0.19823939  0.0489762
    -0.27300468 -0.2527565  -0.05144899 -0.1236964   0.23636864
     0.13710748 -0.3627179   0.25461072 -0.10902479  0.18644917
     0.4568622 ]]]]
conv2d_2/bias:0
(16,)
[ 0.04976106 -0.02700784 -0.02093865 -0.16174357 -0.01542129 -0.00831277
  0.1467557   0.06658582 -0.19007863 -0.11204041  0.08835796  0.19301131
  0.09107114  0.13552406  0.03589587 -0.01795002]
batch_normalization_2/gamma:0
(16,)
[1.3499804  1.0969559  1.1190248  1.101925   1.0967832  1.2114221
 1.3040614  1.096256   0.9813592  0.98090667 1.298229   1.4107314
 1.2450429  1.2945905  1.3501402  1.3176318 ]
batch_normalization_2/beta:0
(16,)
[ 0.05462652 -0.01879661 -0.0138625  -0.1526945  -0.00777969 -0.00166064
  0.15155016  0.07237682 -0.18092869 -0.10513724  0.09236392  0.19485521
  0.09537444  0.13336796  0.04142333 -0.0125078 ]
conv2d_3/kernel:0
(3, 3, 16, 16)
[[[[ 9.67196748e-02 -7.69020170e-02 -6.67316318e-02  6.47715479e-02
    -2.08101138e-01 -1.03800006e-01 -2.87849873e-01 -6.97388966e-03
     1.80276573e-01 -5.62413968e-02 -1.45164967e-01  9.15699899e-02
    -3.48502547e-01  1.87393159e-01 -2.46361159e-02 -1.64002150e-01]
   [ 7.78854340e-02 -1.42077759e-01  5.02881050e-01 -3.36686730e-01
    -8.14911947e-02 -1.62565976e-01  1.53499246e-01 -1.36505187e-01
    -1.25121459e-01 -6.17127446e-03  1.28098547e-01 -2.86320567e-01
     1.58989280e-01 -7.53487200e-02 -6.25241324e-02 -6.49202615e-02]
   [-1.12393640e-01 -1.96651250e-01  5.62369488e-02 -1.74937516e-01
    -5.54245291e-03 -3.07026267e-01  2.71334127e-02 -5.97862005e-02
    -7.96050299e-03  2.52794605e-02 -3.11188921e-02 -1.68523550e-01
     2.47942004e-02  3.44092920e-02  8.58133957e-02  2.07660884e-01]
   [ 2.39659369e-01 -3.77139151e-02 -2.38843173e-01  8.74046981e-02
    -2.64024641e-03 -2.09844932e-01  2.31671363e-01 -3.05569693e-02
     2.00241338e-02  8.74033663e-03 -1.84741378e-01  1.70882586e-02
     1.07994430e-01  1.38261020e-01 -2.50219613e-01  1.58661216e-01]
   [-2.77853578e-01  1.08452663e-01 -3.29325378e-01  5.54951690e-02
     4.57149819e-02 -2.07787037e-01  8.13779533e-02  2.75544450e-02
    -1.33579336e-02 -2.02171773e-01  8.88439789e-02 -7.16341585e-02
    -1.87660992e-01 -4.18567657e-01 -7.26393014e-02 -2.24129707e-01]
   [-1.87287822e-01 -4.24155265e-01  2.15397164e-01 -1.49624646e-01
    -7.04171285e-02 -1.39586031e-01 -1.82574973e-01 -6.24407604e-02
    -3.82805020e-01  1.77082960e-02 -1.42320236e-02 -2.43805692e-01
    -2.94509619e-01 -1.48665935e-01 -2.70953476e-01  1.61955625e-01]
   [-1.04253605e-01 -1.46953717e-01  4.84384835e-01 -2.71446347e-01
     1.68947205e-01  1.33407681e-04  2.62809575e-01 -5.27367443e-02
    -1.38555810e-01 -5.43372380e-03 -8.92801508e-02 -2.09077924e-01
     7.58016706e-02 -8.26787129e-02 -4.23747003e-02 -1.59890801e-01]
   [ 8.52788463e-02  8.93655345e-02  3.07565659e-01 -2.53992863e-02
     6.72648922e-02 -1.92224026e-01  1.42786056e-01 -2.26877645e-01
     4.90018278e-02 -2.91125961e-02  1.92101926e-01  3.93441413e-03
     4.70761806e-02  3.54675092e-02 -1.21901175e-02  7.59836286e-02]
   [ 8.90539289e-02  2.17515659e-02 -1.77374825e-01 -9.20720249e-02
    -8.67173970e-02 -1.46962598e-01 -2.05739141e-02 -1.05141036e-01
    -2.75816888e-01  3.15692881e-03 -2.35303909e-01  1.42064393e-01
     3.16912271e-02  2.86730789e-02 -2.60357052e-01  1.14073634e-01]
   [ 3.74634638e-02 -4.37085703e-02 -1.20325603e-01  2.12875858e-01
    -4.07384425e-01  5.40122529e-03  1.95614304e-02 -8.25415999e-02
    -2.67367717e-02 -1.55872613e-01 -1.17969394e-01  3.19191158e-01
     2.28219584e-01  7.66737163e-02 -6.75717667e-02  1.08613580e-01]
   [-3.22908670e-01 -4.53550294e-02 -1.04994930e-01  5.53917527e-01
    -2.09486961e-01  1.99808720e-02  1.45912066e-01 -4.94346693e-02
     2.05114141e-01  3.43773663e-02  1.09653220e-01  2.71879882e-01
    -9.26876627e-03 -5.45863211e-02 -7.46078342e-02 -8.02871510e-02]
   [ 2.48587847e-01  5.58284968e-02  7.04807192e-02 -7.14418665e-02
    -3.10180914e-02  1.35205954e-01 -4.47143055e-02 -2.41432656e-02
     6.41799271e-02 -1.95375998e-02 -2.07263216e-01  7.66626820e-02
    -1.67170510e-01  5.01314759e-01  1.82212800e-01  1.29839078e-01]
   [ 6.96534142e-02  2.54180938e-01  6.06914796e-02 -3.34022284e-01
     4.27955203e-02  2.02279955e-01  1.79463908e-01  3.95636186e-02
     1.36823161e-02 -2.47593783e-02 -3.74741964e-02 -3.61564308e-01
    -8.47065821e-02 -7.51528963e-02 -1.68446928e-01 -1.01866098e-02]
   [-6.14086241e-02 -5.17789908e-02  1.86453447e-01 -2.50879854e-01
     1.88635483e-01 -8.46236870e-02  4.76471297e-02 -1.33746788e-01
    -2.48615846e-01 -1.00639895e-01  7.62420744e-02 -1.83744356e-01
    -8.55810270e-02  1.23264246e-01 -2.51606014e-02 -4.19373512e-02]
   [-2.89115310e-01 -2.43495889e-02  2.48404473e-01 -2.37057671e-01
     6.87682107e-02  8.81499723e-02  3.59990150e-01 -9.81376395e-02
    -1.22051373e-01 -1.28276184e-01  1.65971905e-01 -2.90714532e-01
     5.37423603e-02  1.14912406e-01 -1.39901757e-01 -1.12823337e-01]
   [-4.92583513e-02 -2.57414460e-01 -1.05378352e-01  1.22464880e-01
     1.67786181e-01 -2.53478259e-01  3.89066562e-02 -1.90951735e-01
    -1.38282359e-01 -1.65536683e-02  7.05626830e-02  1.49295360e-01
     1.46702886e-01 -2.19046742e-01 -1.65734947e-01 -3.39200832e-02]]

  [[ 2.14907378e-01 -1.25400826e-01  4.20387872e-02 -2.22940609e-01
     6.38167858e-02  8.67893547e-02 -2.56423503e-01  1.21501520e-01
     1.02141775e-01 -1.70213446e-01 -8.72553661e-02  2.14047298e-01
     1.22534782e-01  5.74672818e-02  2.32198671e-01 -1.74752325e-01]
   [ 7.48088211e-02 -1.69772267e-01 -1.21299855e-01 -5.40170670e-02
     7.09240586e-02 -9.81379598e-02  2.23944988e-02  4.66107950e-02
    -1.45126492e-01 -2.55737342e-02 -2.07906902e-01 -4.95032221e-01
     9.58034545e-02 -1.54981479e-01 -4.66218330e-02  2.62961704e-02]
   [-5.81800491e-02  4.16082982e-03  1.37904033e-01  4.29205447e-02
    -1.97025407e-02 -2.71045178e-01  1.54168874e-01 -1.89180896e-01
     1.31746456e-01  2.09166370e-02 -3.10532928e-01 -1.42609403e-01
    -2.59101558e-02 -3.73122931e-01  8.29244629e-02  3.69183794e-02]
   [-1.52250350e-01  2.47189570e-02 -3.22050601e-01  1.72762498e-01
    -8.06993395e-02  8.62336606e-02  4.87111844e-02 -1.08093366e-01
    -1.46023845e-02 -1.68422773e-01  2.95244269e-02 -1.69546723e-01
     1.23251202e-02  6.69061169e-02 -2.47406065e-01  2.32617967e-02]
   [-1.53653771e-01  1.71701580e-01  1.55491397e-01 -7.99076483e-02
    -2.84855455e-01 -2.65061915e-01  5.10192327e-02  1.10968947e-02
     2.61633784e-01 -8.75192881e-02 -2.40572736e-01  1.42123535e-01
    -3.27242404e-01 -1.47059545e-01  8.37071389e-02  6.82742745e-02]
   [-7.06504751e-03 -1.99424803e-01 -1.11137904e-01 -1.63634494e-01
     1.53954133e-01 -1.28417656e-01 -1.54297292e-01  7.24975253e-03
     3.03734131e-02 -1.02888040e-01 -3.10704052e-01 -2.76863098e-01
     3.63779217e-02 -2.08645031e-01  3.89001258e-02  1.99147865e-01]
   [ 2.08170161e-01  3.02754417e-02  3.35858256e-01 -4.48124468e-01
    -4.13863882e-02 -3.03564295e-02 -4.36924063e-02  2.34632734e-02
     1.11223519e-01 -1.85632646e-01 -4.39086467e-01 -2.05391794e-01
    -3.76905590e-01  1.34801850e-01  2.97102369e-02 -1.37417451e-01]
   [-4.03895639e-02 -3.66499543e-01  1.23601951e-01 -2.37436906e-01
     3.48718874e-02 -1.94494113e-01 -1.19941058e-02 -1.91495121e-01
    -7.67460987e-02  8.49490054e-03 -1.62005514e-01 -4.07825232e-01
    -3.95547133e-03 -3.13627683e-02  1.07551016e-01 -1.14310093e-01]
   [ 3.96582335e-02 -2.32777059e-01 -2.09075451e-01 -4.78221364e-02
     1.18960235e-02  4.76112440e-02  1.52896658e-01 -3.74714285e-02
    -3.32906991e-01  1.71090029e-02  1.34671554e-01  1.97114348e-01
     1.72466084e-01 -7.82122388e-02 -2.98225939e-01 -9.83675644e-02]
   [-2.67449975e-01 -2.19387025e-01 -2.61126016e-03  2.83454090e-01
     9.06383023e-02  7.38374442e-02  1.22098908e-01  7.25213392e-03
     6.89146593e-02 -1.89462855e-01  2.51501739e-01  2.82971352e-01
     2.02559114e-01 -9.26741064e-02  5.77311330e-02 -4.59730141e-02]
   [-1.54789507e-01 -4.68973443e-02 -3.48051228e-02  4.68289733e-01
     1.74574152e-01 -2.52943695e-01  3.02079231e-01  4.31555547e-02
     2.59961665e-01 -1.43042088e-01  3.96501541e-01  3.55037242e-01
    -4.30034474e-03  2.27902189e-01 -2.76139639e-02  2.67345488e-01]
   [ 1.83379680e-01 -5.16153052e-02  2.02533469e-01  1.03585809e-01
     2.85522848e-01  2.77770460e-01 -2.03989387e-01 -1.36888742e-01
    -1.51669249e-01 -1.24774493e-01 -8.66543651e-02 -1.68723047e-01
     2.27567554e-01 -4.25776362e-01  1.78828284e-01 -3.12767059e-01]
   [ 7.59499222e-02  7.93035328e-02 -5.66585623e-02 -1.05602778e-01
     1.12337224e-01  1.76467195e-01 -2.12234437e-01 -6.38796613e-02
    -4.09086496e-01 -3.30162756e-02  5.02620712e-02 -4.17137206e-01
     1.41083732e-01 -1.93750232e-01  2.14612797e-01 -4.93772663e-02]
   [ 1.67871431e-01  8.36965740e-02  1.50847480e-01 -3.29936892e-01
    -2.28625298e-01 -6.25900552e-02  1.68847039e-01  1.81421116e-02
    -4.00480628e-02 -2.41697371e-01 -4.23917286e-02 -8.85168836e-02
    -5.25687002e-02  1.91393822e-01  2.10782483e-01 -6.37576059e-02]
   [ 2.60599226e-01  2.69842684e-01  3.70611727e-01 -4.61106718e-01
    -1.20423675e-01  1.31540328e-01 -1.00122802e-01 -5.41863851e-02
     7.25081041e-02 -1.60060778e-01 -1.65478140e-01 -8.94307047e-02
    -2.77392507e-01  3.97894308e-02  3.60943042e-02 -5.70295937e-02]
   [-1.54462740e-01 -2.23541126e-01  6.53652698e-02  7.27763996e-02
    -1.65062368e-01 -2.56467342e-01  1.28052026e-01 -7.49164969e-02
     1.84998095e-01 -1.39994606e-01  2.26632711e-02  2.00441390e-01
    -4.40379791e-02  1.61622599e-01 -1.01143025e-01  3.00862882e-02]]

  [[-2.81897694e-01 -1.46985903e-01  5.93446121e-02 -3.16473663e-01
     7.05432743e-02 -2.78636247e-01  7.54102245e-02  7.11728483e-02
    -1.82322592e-01 -1.34623423e-01  8.19328614e-03  6.64077848e-02
     3.84073183e-02 -8.09945390e-02  2.87535161e-01  1.70976013e-01]
   [ 1.05538219e-01 -6.18367456e-02  1.40604610e-02 -7.73058087e-02
     3.08652483e-02 -1.24406584e-01 -5.83426980e-03 -4.51078312e-03
     1.82969242e-01  7.18748495e-02 -7.98263550e-02 -2.70548075e-01
     3.56873810e-01 -4.85245809e-02 -1.18918113e-01 -1.73437417e-01]
   [ 1.31040290e-02 -2.71916240e-02  7.84227327e-02  3.70965227e-02
    -1.12666309e-01 -2.94865072e-01 -1.24947228e-01 -1.74676403e-01
    -3.35959315e-01 -9.29270834e-02  1.63587019e-01 -1.55417576e-01
     1.83125779e-01 -7.90014639e-02 -3.59028399e-01  4.60620597e-02]
   [ 2.79468626e-01 -2.20084846e-01 -3.32587063e-01 -1.80849537e-01
     9.01831239e-02  2.20297072e-02 -2.91578412e-01 -4.84689102e-02
    -1.16908498e-01 -1.90254189e-02  1.90379560e-01 -2.80465502e-02
     7.09014088e-02  2.39534587e-01  6.95586950e-02  9.95342806e-03]
   [-7.40741789e-02 -7.58038387e-02  8.51835981e-02 -1.64176196e-01
     1.63987264e-01 -3.45124267e-02 -3.84137064e-01 -1.60862077e-02
    -5.57987988e-02  6.62973821e-02 -3.95342320e-01  1.01629816e-01
     1.68374956e-01  4.96411547e-02  2.09499180e-01 -7.80382827e-02]
   [ 1.31898016e-01 -3.43870223e-01 -2.27776736e-01 -1.00945055e-01
     1.05466381e-01  1.28285170e-01 -5.38865440e-02 -1.57441378e-01
     2.92986184e-01  3.59690599e-02 -6.45450205e-02  1.09029092e-01
     3.57309967e-01  6.56518191e-02 -8.65315124e-02  2.70177454e-01]
   [ 4.95516330e-01 -2.31360062e-03  2.92246491e-01 -2.41013542e-01
     1.90760881e-01  1.03005528e-01 -9.31204110e-02  3.86708751e-02
     6.05161309e-01 -7.95063749e-02 -7.81987086e-02 -1.97762027e-01
     1.21532515e-01 -2.12938283e-02  1.57664027e-02  1.50567055e-01]
   [ 3.83095592e-01 -5.23144722e-01  3.21979895e-02 -6.50790036e-02
     1.00970306e-01 -5.50069381e-03 -2.34204367e-01 -2.80008763e-01
     3.39185894e-01 -7.13631287e-02 -4.95504588e-02 -1.43968031e-01
     2.03634709e-01  3.03564578e-01 -4.53380421e-02  1.37022242e-01]
   [-1.35148987e-01 -1.33268666e-02 -2.19946459e-01 -1.80281594e-01
     2.70928703e-02 -6.93164989e-02 -3.95756871e-01 -7.68331513e-02
    -2.97787219e-01 -1.60090432e-01  1.82935521e-01  1.47589490e-01
    -2.16835126e-01  1.50502592e-01 -1.53934121e-01 -4.65675853e-02]
   [-3.08403820e-01  8.89351591e-02  4.15237173e-02  1.66388467e-01
    -1.41981915e-01  3.71731445e-02 -3.84744138e-01  5.60429096e-02
     3.64457406e-02  3.06216255e-02  7.68776387e-02  1.01230666e-01
    -5.83449416e-02 -1.73795730e-01 -1.44833121e-02  2.00424306e-02]
   [-1.36144608e-01 -3.49385977e-01  1.35939317e-02  1.32555310e-02
    -1.25948079e-02 -1.79551080e-01 -4.66855675e-01 -9.48914811e-02
     8.30074027e-02 -1.72844559e-01 -5.07939532e-02  1.37772545e-01
    -6.22207262e-02 -7.76404813e-02 -2.46701762e-02  3.99408080e-02]
   [-3.71227741e-01  1.78664774e-01  9.31972563e-02  1.20564967e-01
    -1.49297535e-01 -3.22553515e-02 -2.57159416e-02 -1.19486161e-01
     5.11976741e-02 -8.90352950e-02 -8.05085748e-02 -1.51352465e-01
    -9.11601409e-02  1.17515825e-01 -4.70415279e-02  1.77793317e-02]
   [-6.74306974e-02  1.31064013e-01  3.97617482e-02 -8.00850168e-02
    -7.44703263e-02  1.66099370e-02 -2.91966230e-01  7.10243583e-02
    -3.68850827e-01  5.38592301e-02  3.90713848e-02 -2.29151309e-01
     1.59418747e-01  1.37217026e-02  2.20764786e-01 -3.38387415e-02]
   [ 5.71161658e-02 -2.25523517e-01 -7.33737182e-03 -2.11060867e-01
    -2.97651380e-01 -3.13603990e-02  5.11045940e-02  2.68522613e-02
    -4.58917804e-02  1.11111924e-01 -1.28535470e-02 -2.81166703e-01
     1.14036694e-01  1.92021713e-01 -8.05092826e-02  2.12533832e-01]
   [ 4.53636169e-01 -1.56338587e-01  2.85232157e-01 -1.96028441e-01
    -3.12123239e-01  1.27628699e-01 -4.04664665e-01 -3.75041254e-02
     6.02528714e-02 -1.51753249e-02 -2.08013907e-01 -3.24312776e-01
    -1.50761455e-01  1.40997991e-01  4.13656868e-02 -5.82116917e-02]
   [ 1.23069748e-01  9.92825329e-02  8.94316193e-03  1.82704329e-01
     9.34565589e-02 -2.17988878e-01 -4.77717340e-01 -9.67231765e-02
     1.64553914e-02 -8.02316144e-02 -5.29523417e-02  1.10031642e-01
     1.93775713e-01 -1.09466016e-02  6.54850563e-04  8.29894841e-02]]]


 [[[-3.54300365e-02 -7.20309079e-01 -1.27940029e-01 -1.15062527e-01
    -1.79870620e-01 -8.77433866e-02 -2.63236582e-01 -2.44484439e-01
    -3.48995924e-02 -8.13786164e-02  2.39966244e-01 -2.70029128e-01
    -1.97823733e-01  5.23685329e-02  4.99183536e-02 -1.15623094e-01]
   [-7.52306432e-02 -1.10294364e-01 -2.44492456e-01 -1.69252623e-02
    -1.67742833e-01  1.66716382e-01 -1.71929002e-01 -6.13598749e-02
    -3.89947206e-01 -1.24394391e-02  7.52811357e-02  3.07835340e-01
    -1.00220129e-01  2.71150433e-02  6.62164092e-02  2.73226425e-02]
   [-2.77664870e-01 -4.94999513e-02 -5.55611681e-03  1.43363923e-01
    -2.11513072e-01  3.09792578e-01  8.99621919e-02  1.15840688e-01
    -3.08524042e-01 -4.96042939e-03 -7.20636994e-02  3.00376356e-01
    -3.04967552e-01  2.20781475e-01 -2.12711155e-01 -3.91100585e-01]
   [ 2.47380346e-01 -2.89981365e-01 -2.82409281e-01 -1.39607291e-04
    -1.93668231e-01  7.57730566e-03 -4.80296761e-02 -1.02875777e-01
     1.41379505e-01  1.11971386e-02  2.20272079e-01 -2.20864624e-01
    -3.71639192e-01 -1.28349200e-01  2.94872046e-01  9.49241146e-02]
   [ 2.88937408e-02 -8.01765397e-02  6.33081198e-02 -2.49669075e-01
    -3.59962016e-01  7.29272738e-02  3.15422565e-02 -3.15892659e-02
     1.56528100e-01  7.54526556e-02 -2.00958714e-01  2.21757423e-02
    -8.58569443e-02 -3.21452200e-01 -1.46544427e-01 -1.65110022e-01]
   [-9.90446806e-02 -3.12188923e-01 -7.64669105e-02  1.10006735e-01
    -2.14418307e-01  3.00669104e-01 -1.17475949e-01 -1.62341386e-01
    -1.77440241e-01  7.82997012e-02 -1.44918086e-02 -1.60727720e-03
    -9.27957073e-02 -3.70857924e-01  1.07930660e-01 -8.27231184e-02]
   [-3.78913313e-01 -7.80569911e-02 -1.34055287e-01  2.31014192e-02
    -2.20240340e-01 -8.80654622e-03 -2.87645072e-01  5.58193699e-02
    -3.79074991e-01 -5.77029325e-02  2.19485253e-01  1.80239946e-01
     9.91204455e-02 -2.95152515e-01 -1.27489880e-01 -9.78606865e-02]
   [-1.50146678e-01  2.07914919e-01 -3.41414690e-01 -1.53019905e-01
    -9.29764733e-02  9.54338163e-02 -4.34615016e-02 -3.25476795e-01
    -3.54467392e-01 -1.86454654e-02 -6.36120066e-02  2.31259182e-01
     9.42123681e-02 -1.88379049e-01  1.12369778e-02  8.92743021e-02]
   [ 1.28672317e-01 -1.76430464e-01 -9.32493880e-02 -2.00050429e-01
     8.80619809e-02 -5.42459860e-02 -1.68997683e-02 -8.39129388e-02
    -7.04210103e-02 -1.12764038e-01 -6.46790937e-02  3.17627117e-02
     8.48642513e-02 -4.28910181e-02  2.90568680e-01  1.49938911e-01]
   [ 2.03016028e-01 -2.72987634e-01  1.75774112e-01  3.98860127e-02
     3.10343923e-04  4.99442127e-03  3.36720735e-01 -1.33055329e-01
     1.36304796e-01  5.08915819e-02 -2.19147190e-01 -7.72399232e-02
    -8.58652294e-02  1.70117095e-01 -3.72029617e-02 -6.21309243e-02]
   [ 2.08930194e-01 -3.32342423e-02  2.69953430e-01 -1.26681194e-01
     2.53502399e-01 -1.36259988e-01  1.61038324e-01 -3.04336268e-02
     1.63930789e-01 -6.28584325e-02 -5.66004142e-02 -2.25812003e-01
     2.75409743e-02  1.38835236e-01 -2.47323796e-01 -1.45475924e-01]
   [-3.51135619e-02 -1.99137136e-01 -1.90486923e-01  2.19187140e-01
     3.11328769e-01 -2.16359109e-01 -9.95949060e-02 -1.02278357e-02
    -2.17585325e-01 -1.97291687e-01  1.96102485e-01  1.52885497e-01
    -5.47524750e-01  3.01037699e-01 -2.51733810e-01  3.03331107e-01]
   [ 6.87593818e-02  2.27194220e-01  2.86212295e-01 -5.28773628e-02
     2.91258693e-02 -2.73561090e-01  9.62293819e-02  1.37735335e-02
    -7.26805106e-02 -1.06317602e-01  2.40855306e-01 -6.80847391e-02
    -5.79764068e-01 -6.55590057e-01 -1.37003452e-01 -1.81412354e-01]
   [-1.26461402e-01 -2.74006486e-01 -2.15482816e-01  2.08209053e-01
    -1.65340856e-01 -1.81659356e-01  4.87791523e-02 -1.19187564e-01
    -3.04626316e-01 -5.96598089e-02 -1.26147762e-01  3.83357815e-02
     5.05997166e-02  5.32434992e-02 -2.96816051e-01 -1.29359439e-01]
   [-6.07851267e-01 -2.92100552e-02  3.13022465e-01 -2.90370971e-01
    -2.94483006e-01 -1.19730130e-01 -2.24133447e-01 -1.12424098e-01
    -2.74071187e-01 -1.82684794e-01 -5.10036796e-02  1.20293602e-01
     2.92189866e-01 -2.81167895e-01 -5.47302440e-02 -1.51009247e-01]
   [ 2.91797757e-01  7.94793740e-02  6.22542202e-02  9.34555233e-02
    -3.61246429e-02  2.48462409e-01  6.32421672e-02 -1.24435969e-01
    -6.53150156e-02 -1.33961841e-01 -3.86811018e-01 -5.28955348e-02
     2.49629915e-01 -4.54808325e-01  5.13535850e-02 -3.50270838e-01]]

  [[ 1.86022416e-01 -8.67460251e-01 -3.54477651e-02 -4.96534705e-01
    -1.02373920e-01 -4.03511934e-02  2.35767171e-01 -1.11959681e-01
     8.30386877e-02 -5.82218207e-02 -1.38630211e-01 -2.14419946e-01
    -1.22898884e-01 -1.60007849e-01  2.21225262e-01 -3.63959044e-01]
   [-3.49581420e-01  1.91886976e-01 -4.12362307e-01  1.48045093e-01
    -1.84995180e-03  1.56392068e-01 -3.41613330e-02 -1.79174677e-01
    -5.09061933e-01 -7.78187532e-03 -2.64110476e-01  1.12080462e-01
    -2.64676511e-01 -2.61208385e-01  2.40976468e-01 -1.62881017e-01]
   [-9.98599380e-02 -5.82517646e-02  2.05919668e-01  1.82479560e-01
     3.75486575e-02  3.66161913e-01  6.82448968e-02 -1.16900682e-01
    -3.12840492e-02 -1.83129869e-02  4.59867120e-02  1.31924525e-01
    -5.27464867e-01 -2.34150335e-01  8.79465416e-02 -2.96753317e-01]
   [-3.75547968e-02 -2.38355860e-01 -2.32216083e-02 -2.76082546e-01
    -1.40708819e-01  1.24503493e-01  7.11801415e-03 -1.07403420e-01
     7.44232312e-02 -8.63169059e-02  2.30179667e-01  7.11042807e-02
     2.69898832e-01 -3.13543946e-01  2.58434176e-01 -1.88054428e-01]
   [-1.61222532e-01 -2.16739506e-01  1.87396362e-01  4.21097279e-02
     5.13609964e-03 -6.17267266e-02  1.80357322e-01 -5.23989648e-02
     3.06421369e-01  5.99014945e-02  2.53785759e-01 -2.71640211e-01
    -3.03736150e-01  1.16710424e-01  2.00065523e-01  1.94315776e-01]
   [-1.08086094e-01 -1.27242506e-01  6.10917583e-02  9.72606316e-02
     5.11225350e-02  2.88815820e-03 -1.29388645e-01 -7.87893906e-02
    -3.25447172e-01 -1.12455346e-01 -6.12804107e-02 -1.23043947e-01
    -4.35810715e-01 -1.63380787e-01  2.83207774e-01  7.09053781e-03]
   [-1.23409472e-01 -5.18998578e-02 -7.01631308e-01  4.58674997e-01
     2.30034009e-01  6.31964654e-02 -2.45276928e-01 -2.50015616e-01
    -5.37988206e-04  6.97009340e-02 -2.03222428e-02 -1.52661121e-02
    -2.35165864e-01  8.91728560e-04 -4.26017158e-02  1.40359715e-01]
   [-2.83353567e-01  2.08127186e-01 -5.07399678e-01  9.31348279e-02
     1.11397400e-01  1.41054973e-01  5.82416020e-02 -2.83516377e-01
    -2.09471524e-01 -1.88946113e-01 -8.28397349e-02  1.34790078e-01
    -2.40693241e-01  4.99788597e-02 -1.66567355e-01  1.30569097e-03]
   [-4.14429121e-02 -1.45944819e-01  3.53689748e-03 -7.09603578e-02
    -3.06173991e-02  1.85694695e-01  7.60019850e-03 -1.79435179e-01
     6.43000230e-02 -7.26248547e-02 -1.34945899e-01  1.71799213e-01
     1.35073692e-01  7.44643733e-02  2.14956433e-01 -1.41534373e-01]
   [ 1.55352384e-01 -2.35030174e-01  2.44639069e-01 -1.62445962e-01
    -3.66170593e-02 -2.91841887e-02  3.44407797e-01 -9.97705013e-02
     9.45760235e-02 -1.20349757e-01  3.71307204e-03 -2.85008848e-02
     2.26776481e-01 -7.69159049e-02  1.52091593e-01 -9.19246525e-02]
   [ 3.40850018e-02 -5.14043152e-01  4.06840324e-01 -2.90372074e-01
    -4.76425607e-03  1.24074057e-01  2.14962140e-01 -2.57700264e-01
     1.87513977e-01  4.79289927e-02  4.01231386e-02 -1.17073424e-01
     1.16030984e-01  1.34142384e-01  2.02607326e-02  2.36438036e-01]
   [ 2.56696731e-01 -2.54114121e-01 -3.36065471e-01 -9.48539823e-02
    -2.14793175e-01 -5.03229797e-01  3.71381380e-02 -1.39451474e-01
     6.48610815e-02  3.08779217e-02 -2.73608327e-01 -7.15203360e-02
     2.02924907e-01 -5.35977006e-01  3.52271833e-02 -8.73536944e-01]
   [ 6.87362254e-02  6.47122739e-03 -1.45909339e-01 -3.01839650e-01
     9.31723043e-02 -8.89327109e-01 -7.08601624e-02 -1.68791473e-01
     1.43002141e-02  5.31431586e-02 -1.92540884e-01  1.02102727e-01
    -2.90343352e-02 -4.97735649e-01 -3.30037661e-02 -4.41407621e-01]
   [ 2.05931384e-02 -4.55882162e-01 -1.49069726e-01  7.61983991e-02
     1.30585551e-01 -8.10373425e-02  1.10763777e-02  5.52930422e-02
     1.02183267e-01 -3.37499380e-02  1.28373802e-01  1.44743636e-01
    -2.80714005e-01 -1.23134702e-01 -5.10400124e-02  2.70060003e-01]
   [-2.22189263e-01 -1.25400126e-01 -1.54363096e-01 -1.12126060e-01
     9.39530060e-02  6.62613511e-02 -6.07755594e-02 -1.75773084e-01
    -6.95596635e-02  1.45971095e-02 -2.96253026e-01 -5.02803959e-02
    -1.20336160e-01 -1.18581705e-01 -8.39293823e-02  1.85712546e-01]
   [-3.84236753e-01 -2.00333539e-02  3.45326439e-02 -2.93686651e-02
     2.30301261e-01  1.57146141e-01  1.84963763e-01 -2.23327383e-01
    -1.06352575e-01  6.72814203e-03  2.97681481e-01 -8.16878527e-02
    -2.22402930e-01  2.79140562e-01  8.89965221e-02  3.30559880e-01]]

  [[-1.20336846e-01 -4.34889197e-01  1.81941204e-02 -5.33593953e-01
     2.50811547e-01 -1.85847461e-01  1.23908348e-01  9.34689790e-02
    -6.32130951e-02 -3.10963504e-02  2.52112206e-02 -7.64259547e-02
    -1.37228176e-01 -4.90970314e-02  6.68645725e-02  3.76352340e-01]
   [ 2.95185316e-02  9.41213146e-02 -3.53467137e-01 -1.89092457e-01
     2.03225911e-01  1.42034367e-01 -4.54280302e-02  4.83544171e-02
     2.38045409e-01  8.08472037e-02 -1.65577516e-01 -1.12411708e-01
     1.53570637e-01 -8.85489583e-02  1.55350417e-01 -9.84264985e-02]
   [-2.81111598e-01  1.44539446e-01  1.66698441e-01 -1.87526289e-02
     4.71683731e-03  1.45603225e-01 -2.75933921e-01  1.60107777e-01
     4.14471366e-02  1.02941424e-01  2.76997853e-02  1.58551618e-01
     1.81914225e-01  2.11915076e-02 -2.30283648e-01 -2.62178034e-01]
   [-3.55816036e-01  6.79169148e-02 -3.16332966e-01 -2.43771449e-01
    -1.87797219e-01  3.00325658e-02 -3.50335509e-01 -9.31986645e-02
     1.85543582e-01 -1.56791747e-01  9.13474783e-02  2.45050639e-01
     6.80354461e-02 -2.48952582e-01 -6.46891445e-02 -1.12324711e-02]
   [-2.80087471e-01 -1.45514369e-01 -1.93599463e-01  3.35699826e-01
    -4.73512083e-01 -4.66939807e-02 -1.68572605e-01 -7.66086131e-02
    -2.94471979e-01 -7.04099461e-02  4.06127311e-02 -5.45428284e-02
    -1.85310498e-01 -7.45208561e-02 -2.31834650e-01 -3.56328279e-01]
   [ 9.37138423e-02 -3.20428252e-01 -2.33769655e-01 -2.32999578e-01
     4.73039001e-02  8.08468387e-02 -7.82662109e-02 -1.69874668e-01
     1.24464609e-01 -1.67114079e-01  9.47915316e-02  1.15071060e-02
     1.88665427e-02  8.83861072e-03  1.70392513e-01  1.18809372e-01]
   [ 9.45900083e-02 -9.72264633e-02 -7.24968135e-01  1.79439291e-01
     1.82283923e-01 -8.80904421e-02  1.26091614e-02 -8.91803429e-02
     5.16272962e-01 -1.35989532e-01 -9.92528200e-02 -1.42939910e-01
    -8.05004537e-02  9.17717367e-02 -1.61946490e-01  2.15308815e-02]
   [ 2.19934493e-01 -8.00450798e-03 -1.79967448e-01  5.47335334e-02
     1.21408522e-01  2.51996636e-01 -2.19638735e-01  2.11622193e-02
     3.49594474e-01 -9.43477005e-02 -3.86438459e-01  3.08360625e-02
     5.16589619e-02 -2.35698037e-02  1.66074544e-01  1.71405040e-02]
   [-1.65518627e-01 -1.27677694e-01  4.90375645e-02 -8.72187316e-03
    -1.20785981e-01  6.82545751e-02 -7.22676754e-01  4.07807808e-03
     4.42655012e-02 -7.39318281e-02  1.97878614e-01  1.74257174e-01
    -3.61324735e-02  5.77706806e-02 -3.18430103e-02  7.98995718e-02]
   [-2.06859589e-01 -7.68853799e-02  2.03276873e-01  2.94678584e-02
    -9.17903483e-02 -5.17471321e-02 -2.87204951e-01 -1.93922222e-01
    -1.52152270e-01  9.16823298e-02  1.76033050e-01  1.59259856e-01
    -2.49627054e-01 -8.70973021e-02  2.12791517e-01  1.06911086e-01]
   [-2.06607357e-01 -5.50283790e-01  2.75418907e-01  2.26836298e-02
    -8.50760639e-02  9.28459316e-02 -2.18956515e-01 -3.97986546e-02
    -1.57671914e-01 -1.35799393e-01  2.64171541e-01  1.28080305e-02
    -9.40108113e-03  1.94203526e-01 -3.91445821e-03  2.16024127e-02]
   [-8.22943971e-02 -9.90488380e-03 -3.06432135e-02  7.53841102e-02
    -9.35237706e-02 -9.75521430e-02 -8.97642300e-02 -3.77923474e-02
     2.00302169e-01 -5.74141107e-02 -2.15277985e-01 -5.57056740e-02
     4.67209481e-02  3.53412628e-02 -1.45621657e-01  2.87757576e-01]
   [-3.33527714e-01 -1.94601733e-02 -2.06425086e-01  2.03885481e-01
     7.07738101e-02 -2.55249888e-01 -3.77196491e-01 -5.07111624e-02
    -1.21667944e-01  1.18826710e-01 -3.06104749e-01  1.03078522e-01
    -1.33371145e-01 -1.56171247e-01 -2.63757557e-01 -1.24930628e-01]
   [ 1.32889584e-01 -1.77983850e-01 -4.52571124e-01  2.96228617e-01
    -4.20665741e-02  7.37017300e-03 -7.84969479e-02 -1.01481870e-01
     4.00615931e-01 -1.25396755e-02 -1.84390098e-02 -1.22583866e-01
     1.32253274e-01  1.35913372e-01 -4.07719523e-01 -1.62579492e-01]
   [-9.29539204e-02 -2.62342125e-01 -2.10913852e-01  2.53706723e-01
     8.74954909e-02 -7.17007965e-02  1.83411300e-01 -9.46902856e-03
     1.11627974e-01 -9.06337649e-02 -3.10379356e-01 -1.27400294e-01
    -1.69702277e-01  1.01532444e-01 -6.63418695e-02  2.01791361e-01]
   [-4.48080264e-02 -1.32473469e-01 -4.90924297e-03 -2.64558136e-01
    -5.78900566e-03  2.81931132e-01 -4.08530086e-01 -3.95927243e-02
    -1.42609254e-01  1.60983205e-02  1.71294361e-01  1.78789452e-01
    -1.03050798e-01 -6.45911023e-02  1.63422719e-01 -3.06449980e-01]]]


 [[[ 7.47055933e-02 -9.23990235e-02  2.28019748e-02  1.58955276e-01
     2.87508518e-02 -6.11436144e-02 -3.97171944e-01 -1.69176459e-01
    -8.60687941e-02  7.46541545e-02  1.29575774e-01 -4.90555763e-01
     3.06371868e-01  2.03090422e-02  1.96749792e-01 -1.54428884e-01]
   [ 1.06824651e-01 -1.44714668e-01  7.04694390e-02  1.73018366e-01
    -3.56336758e-02  7.73837119e-02  1.86067805e-01 -6.62222458e-03
    -3.06731403e-01 -9.00226384e-02  3.15533727e-01  2.46820375e-01
    -1.12981789e-01  1.62463576e-01  1.18723363e-01  1.33365005e-01]
   [-8.58947188e-02 -3.63486975e-01  8.19547288e-03  6.85394853e-02
    -3.48339230e-01  1.61736757e-02  2.63782851e-02  4.98714894e-02
     5.91293052e-02  2.85134073e-02  6.00908846e-02  2.85994232e-01
    -2.09596902e-01  6.64366260e-02 -1.98341012e-01 -4.26168948e-01]
   [ 7.54685514e-03 -6.91552758e-02  9.23522413e-02  4.19629738e-02
     2.66023099e-01 -3.52213264e-01 -2.81493634e-01 -1.76441580e-01
     1.98180676e-01 -1.93350157e-03 -5.65581955e-02  2.33408570e-01
    -1.27677470e-01  2.16360450e-01 -4.22362611e-02  2.30177149e-01]
   [-1.36412522e-02  1.08525634e-01 -8.42608660e-02 -5.87158144e-01
    -5.95980704e-01  6.83433115e-02 -2.53046572e-01  7.25017563e-02
     1.89442217e-01  4.43383418e-02 -2.81577677e-01 -3.58734906e-01
     1.30675454e-02 -1.85320541e-01  1.55773491e-01 -2.09463276e-02]
   [ 6.59821555e-02 -3.06697339e-01 -2.15380505e-01  1.87604234e-01
    -3.81839246e-01 -7.49212354e-02  1.80167258e-01  2.53342278e-02
     6.48476556e-02  2.37399880e-02  1.35279596e-01 -2.11324804e-02
    -1.74178675e-01 -1.32207468e-01  4.07741368e-01 -1.98736861e-02]
   [-1.69952035e-01  2.11644039e-01  9.70385522e-02  1.70566916e-01
    -7.12887049e-02  3.69663797e-02  9.25886780e-02 -6.26879632e-02
    -1.89291537e-01  7.78699219e-02  3.15146655e-01  1.35675699e-01
    -5.04442602e-02 -2.49632895e-01  6.01978339e-02 -6.74342886e-02]
   [-1.28372461e-01  2.42454529e-01  1.96069509e-01  2.64148384e-01
     1.35524482e-01  7.87913948e-02  1.75348133e-01 -1.69029068e-02
    -1.94320723e-01 -3.63960415e-02  2.28757173e-01  4.01281118e-01
    -4.40875739e-02  1.03905499e-02  8.76727104e-02  1.34009495e-01]
   [-3.54013480e-02 -4.22636829e-02 -2.56684627e-02  7.63024315e-02
     1.98042572e-01 -5.57381893e-03 -1.44087717e-01 -4.48295847e-02
     2.14688718e-01 -7.35054389e-02 -5.42222783e-02 -3.35157663e-01
    -2.08100140e-01  1.20589547e-02  1.33061916e-01 -5.64992055e-03]
   [ 1.48954839e-01 -2.12567657e-01 -1.59919009e-01 -1.31839082e-01
     2.64363974e-01 -1.15080215e-01  1.25583736e-02 -3.50882597e-02
     1.67223260e-01  3.94534282e-02 -2.58247465e-01 -3.26619178e-01
     1.71828910e-03  1.60149559e-01 -9.29338485e-02 -2.38995701e-02]
   [ 2.86507439e-02 -2.79949039e-01 -1.69759914e-01 -8.34861025e-03
    -6.59154281e-02  1.58932731e-01 -3.93625908e-02 -2.81529110e-02
    -9.22117159e-02 -6.68459609e-02  1.00288959e-02 -6.45676613e-01
    -3.16091180e-02  7.32615292e-02 -2.55347192e-01 -2.66141981e-01]
   [-1.14883631e-02 -2.43600994e-01  6.87306970e-02  1.39935404e-01
     3.56487900e-01  7.56096840e-02  6.55660853e-02 -4.17341888e-02
    -1.86687395e-01  8.96771997e-03 -4.66295425e-03  5.29902428e-02
    -2.96655089e-01  6.23757355e-02 -3.08638811e-01 -8.81538019e-02]
   [-2.00082451e-01 -2.59733144e-02  1.44590467e-01  1.98599815e-01
     2.22761840e-01  1.67480335e-01 -1.58582821e-01  7.26242512e-02
     3.15585732e-02  3.96604538e-02 -1.58088222e-01 -1.29599363e-01
    -4.43263888e-01  1.05868012e-01 -2.86323488e-01  7.20209777e-02]
   [ 4.08478454e-02 -3.24649930e-01  1.17731921e-01 -1.90471821e-02
    -9.87825841e-02  3.34280193e-01  2.13708371e-01 -4.18578610e-02
    -7.55816251e-02 -4.83250804e-02 -2.50376165e-01  4.36725229e-01
     1.42371491e-01  1.19215278e-02 -2.48077121e-02 -5.13625629e-02]
   [-4.35261339e-01 -5.00528142e-02 -7.65714496e-02  1.88512564e-01
    -1.97714970e-01  9.31199044e-02 -3.88919830e-01 -8.01681057e-02
    -2.61546969e-01 -1.50309831e-01  1.65232792e-01  2.27193013e-01
     1.34097978e-01 -2.20638186e-01 -2.62979884e-02  8.25150684e-02]
   [ 9.86105800e-02  1.51992515e-01 -2.39631478e-02 -9.48400646e-02
    -3.35512191e-01 -2.19428129e-02  4.23518568e-02 -1.78198323e-01
    -7.64718372e-03 -1.49494871e-01  4.22056355e-02 -5.85865527e-02
     1.01249656e-02 -4.23029274e-01  9.89025384e-02  1.05745710e-01]]

  [[-2.14911047e-02 -1.44028232e-01 -5.55219762e-02 -7.19913021e-02
    -4.51893300e-01 -7.76294293e-03  2.01201066e-03 -1.22619227e-01
    -3.22374016e-01 -1.20215803e-01  1.01074114e-01 -2.16857314e-01
    -6.54715970e-02 -8.71526599e-02  5.54610193e-01 -9.20700654e-02]
   [-2.06529215e-01  8.60076472e-02 -2.66687702e-02  1.05670147e-01
     1.81538239e-01 -1.39114127e-01 -5.92446551e-02  6.03273325e-02
    -1.48415178e-01 -7.57811517e-02  3.29557876e-03  2.09668666e-01
     1.08187228e-01  1.23858467e-01  3.95136446e-01  1.00889727e-01]
   [ 2.20992237e-01 -1.36901647e-01 -8.90475959e-02 -8.31429884e-02
     1.17620759e-01 -2.47345835e-01  6.40653297e-02  9.57685113e-02
    -1.15872204e-01 -3.53629589e-02  1.08005047e-01  2.95773335e-02
    -4.09396142e-01 -2.01609224e-01 -9.92778763e-02  2.61988286e-02]
   [-1.92655057e-01 -2.86209285e-01  8.17628130e-02  3.23919356e-01
    -1.72425434e-01  3.35244052e-02 -1.90858930e-01 -6.31005317e-02
     9.85233765e-03 -1.31851472e-02  3.00903112e-01  2.03978688e-01
    -1.35864690e-01 -3.27297091e-01  3.35138589e-02 -2.32452199e-01]
   [ 1.15482621e-01 -1.75764099e-01 -5.06969355e-02 -2.43625115e-03
    -4.80335616e-02 -2.32385099e-01  6.95859119e-02 -1.24781698e-01
     1.38833061e-01 -8.06568116e-02 -1.65990219e-02 -6.57784820e-01
     1.94579408e-01  9.42364261e-02  3.13656591e-02  2.01113492e-01]
   [-1.94467932e-01 -1.37564167e-01 -9.10654441e-02  9.39446762e-02
    -1.40548795e-01 -1.28704477e-02 -1.46297798e-01 -2.73444643e-03
    -5.08043393e-02 -1.92494333e-01  7.11163282e-02  4.42923121e-02
    -5.03545761e-01 -4.40248139e-02  3.43405515e-01 -5.25754392e-02]
   [-1.54368699e-01 -8.54339451e-03 -1.57175362e-01  3.22603524e-01
    -8.06080364e-03 -7.54467845e-02 -2.69983523e-02 -1.36552840e-01
    -2.98235387e-01 -1.91766113e-01  3.22201801e-03  1.94801584e-01
     2.01836273e-01  2.18307182e-01 -6.35978132e-02 -7.90511370e-02]
   [-8.50551352e-02  5.84009327e-02  4.18969654e-02  1.24106131e-01
     8.93056840e-02 -5.58353886e-02 -6.55153319e-02 -2.29080543e-01
    -3.95155072e-01 -1.33307338e-01  8.69009569e-02  3.04823279e-01
    -5.08392081e-02  2.77832210e-01  1.01755403e-01 -1.01646204e-02]
   [-1.86108835e-02 -2.12358329e-02  1.38963789e-01 -7.44091421e-02
    -3.73991907e-01  1.08594842e-01  9.86834094e-02  2.35633366e-02
     3.05530936e-01 -1.75295636e-01 -3.71611640e-02  1.24415226e-01
    -2.87582614e-02 -3.79323959e-01  6.32693172e-02 -1.82879850e-01]
   [-6.34457618e-02 -3.05105448e-01 -4.96100113e-02 -3.31158549e-01
    -2.24293351e-01 -1.42808169e-01  2.06388965e-01 -2.77351160e-02
     1.90233782e-01 -1.82016164e-01 -8.11364278e-02 -4.06260312e-01
     3.27856243e-02 -1.54949605e-01 -1.64983019e-01 -4.19768579e-02]
   [ 1.91064760e-01 -3.61190826e-01  7.81704485e-02 -1.29568249e-01
    -2.59128988e-01  1.47829548e-01  2.61293232e-01 -2.53896505e-01
     5.95579259e-02  4.90308665e-02  9.12992656e-02 -6.97419405e-01
    -9.10906866e-02  1.63023800e-01 -1.69703215e-01  1.00000754e-01]
   [ 2.67603904e-01 -1.91860139e-01 -4.20111045e-02  1.90489367e-01
    -2.98702627e-01  4.38840576e-02  1.54016867e-01 -1.19743839e-01
    -1.77049980e-01 -1.58067584e-01  2.85312384e-01 -2.18727514e-02
    -1.48047566e-01 -3.61092836e-01 -5.14422208e-02  7.12759001e-03]
   [-6.13905080e-02 -3.73144597e-01 -3.38564329e-02  3.54270309e-01
    -6.82952031e-02  2.05962658e-01 -2.59532750e-01  2.44598538e-02
    -8.49306360e-02  1.72391571e-02  2.69620806e-01 -8.68815109e-02
    -3.75852287e-01  2.20107101e-02 -3.26925606e-01 -3.13520133e-01]
   [-1.32634431e-01 -1.30561441e-01  1.16439320e-01  9.53357443e-02
     1.91625506e-01  1.05548821e-01  2.57724077e-01 -1.12504177e-01
     6.17786683e-02 -1.23724505e-01  3.05947989e-01  4.12176907e-01
     1.16471268e-01  7.71003217e-02 -2.87338197e-01 -1.23466812e-02]
   [-2.45150313e-01 -8.15139040e-02 -1.40626773e-01  1.26694083e-01
     4.73369732e-02 -1.17959239e-01 -1.53745770e-01 -3.07127964e-02
    -2.02315316e-01 -1.11164592e-01 -6.95986599e-02  2.00801983e-01
     4.01937157e-01  4.72544096e-02 -1.08543159e-02 -7.00291768e-02]
   [ 3.14091556e-02 -3.17553505e-02 -8.63637868e-03 -8.04514214e-02
     3.38907063e-01 -2.66080230e-01 -2.67888401e-02 -6.18105172e-04
     2.06533656e-01 -8.05964395e-02 -2.52160132e-01 -1.49699431e-02
     2.93502569e-01  4.13423985e-01  2.29001921e-02  1.11396812e-01]]

  [[-5.86485043e-02 -3.14360410e-01 -4.99603242e-01 -2.99594522e-01
    -2.64220089e-02 -3.56780052e-01 -1.17440261e-01 -1.10857867e-01
    -1.49081066e-01 -9.72671732e-02 -7.66845644e-02 -1.94071621e-01
     2.98180491e-01  3.23289275e-01  2.39895687e-01  2.77984083e-01]
   [-7.80405402e-02  2.36601382e-01  3.99426073e-02  3.09706181e-01
     7.27234408e-02 -1.40602842e-01  1.69924036e-01 -5.98390587e-02
     2.37751842e-01 -1.85437679e-01 -3.52294177e-01  9.30169597e-02
    -3.72319877e-01 -4.79599321e-03 -6.21251389e-02 -7.29814768e-02]
   [-1.10727347e-01 -2.47416887e-02  1.08768884e-02 -5.56949701e-04
     1.61038656e-02 -8.00768062e-02  6.64647371e-02  1.28276482e-01
    -3.37198712e-02  2.77464800e-02  8.85979608e-02  1.81279764e-01
    -1.60463855e-01  7.98797831e-02 -1.08211540e-01  1.16654895e-01]
   [-4.62378599e-02 -1.02098234e-01 -2.57473618e-01  1.22441359e-01
    -3.29653881e-02  9.11524519e-02 -1.87252939e-01 -2.09211916e-01
     2.72243261e-01 -1.35644540e-01  1.02664046e-01 -6.63071265e-03
    -1.11451276e-01  2.28660747e-01 -1.13283023e-01  2.60488741e-04]
   [-4.85225022e-02 -4.27659333e-01 -7.79831409e-02  1.95026830e-01
    -3.88142258e-01 -9.38187912e-03 -2.27019414e-01  1.62631571e-02
    -4.18898672e-01 -7.74740428e-02  3.70524228e-02 -1.86637476e-01
    -5.87575994e-02 -1.15364157e-01 -2.53483802e-01 -2.02430993e-01]
   [-2.28932917e-01 -8.77729580e-02 -5.88759221e-02  2.43299574e-01
     2.21501589e-02 -1.48699507e-01 -2.97211763e-02 -1.63555339e-01
    -2.53541887e-01 -5.19618616e-02 -1.32476717e-01  1.85431048e-01
    -7.79946893e-02 -6.65647760e-02  1.46560043e-01  1.95824653e-01]
   [-3.34041342e-02 -5.54416031e-02  1.04103446e-01  1.39466554e-01
     1.03881471e-01 -1.93718076e-02  7.33121997e-03 -2.41815019e-02
     3.31273764e-01 -1.19076066e-01 -4.04795781e-02  2.90083960e-02
    -3.51866424e-01 -6.32378273e-03 -1.30554572e-01  6.45444589e-03]
   [-7.64883831e-02  1.97523355e-01 -9.42095891e-02  2.16448419e-02
     3.46428379e-02 -1.20507762e-01 -1.56770766e-01  3.84567231e-02
     1.24803774e-01 -1.71396777e-01 -1.40347376e-01  1.19873412e-01
    -4.79893476e-01 -5.12902513e-02 -1.03382073e-01 -1.47106335e-01]
   [ 1.69713140e-01  8.34510699e-02  5.85848726e-02  8.98289382e-02
     4.92247641e-02 -1.84924811e-01 -5.06888092e-01 -1.95335984e-01
     2.77130365e-01  6.27935007e-02 -1.22809067e-01  2.21705809e-01
    -2.84502353e-03  9.92931873e-02 -9.49189290e-02 -1.68922693e-01]
   [-6.35613650e-02 -7.35377297e-02  6.92269728e-02 -1.31958500e-01
    -1.70788690e-01 -6.06200658e-02 -6.77705944e-01 -1.61449507e-01
     2.41770402e-01 -1.43934622e-01 -2.45618805e-01 -2.48054311e-01
    -3.00444011e-02  7.66263902e-02  7.97668993e-02 -1.01915989e-02]
   [ 1.34601980e-01 -4.35117513e-01 -1.50078401e-01 -2.57616073e-01
     9.35424119e-02  1.14925623e-01 -6.10017776e-01 -1.02171637e-02
     4.46270667e-02  3.21491696e-02  1.92607846e-02 -2.63251185e-01
     7.17999786e-02  6.57989234e-02 -1.85861722e-01  1.13564692e-01]
   [ 1.75975069e-01  7.37580359e-02  1.84508562e-02 -8.51465613e-02
     3.07578862e-01  5.44344522e-02 -1.74513087e-01 -1.74158424e-01
     2.32040301e-01 -6.50652498e-02  1.57146677e-01 -2.39832364e-02
     4.00519997e-01  2.14945208e-02 -7.70045146e-02  1.61058992e-01]
   [-1.11782484e-01 -9.42159146e-02 -3.66833843e-02  1.45915329e-01
    -8.79317895e-02 -1.93831287e-02 -2.32204586e-01 -1.44781858e-01
    -1.31280020e-01 -1.20970502e-01  6.46928996e-02 -3.83735001e-01
     2.70243245e-03  1.46277323e-01 -1.08088598e-01  1.20600931e-01]
   [-5.47523648e-02 -4.69427913e-01  2.50212997e-01 -1.79820985e-01
     9.71614644e-02  2.25005105e-01 -2.80928075e-01 -4.49641608e-02
    -1.19232796e-02 -9.70104188e-02  1.72414511e-01  2.15244278e-01
     2.31349036e-01  1.87976539e-01 -3.96957725e-01 -4.69304435e-02]
   [-2.41158068e-01 -6.38664588e-02 -2.00846046e-02  1.40835777e-01
    -2.09817991e-01  1.20242283e-01  6.42575994e-02 -2.66778737e-01
     8.56590047e-02  1.13999799e-01 -2.52654135e-01 -8.60374048e-02
    -8.94293487e-02  1.96131364e-01 -1.61980882e-01 -2.76915282e-01]
   [-2.24111099e-02  3.10220774e-02 -9.24684703e-02 -5.75023368e-02
    -6.35701269e-02 -1.11254036e-01 -6.86502397e-01  1.17256688e-02
    -4.97845262e-02 -7.46633410e-02 -1.91210210e-01  1.79579914e-01
    -2.79744208e-01 -1.58649549e-01  4.47163694e-02 -8.00940767e-02]]]]
conv2d_3/bias:0
(16,)
[-0.02229454 -0.0359724   0.03145738  0.00492822  0.04817302  0.06010948
  0.11564872 -0.14331071 -0.04012986 -0.09578052 -0.01488492 -0.01693607
 -0.00477253  0.04190659  0.02740467  0.08146779]
batch_normalization_3/gamma:0
(16,)
[1.0963728  1.0261184  1.1135883  1.0425763  1.0369822  1.0673282
 1.2989542  0.8490116  1.0408493  0.904961   1.2483175  1.226322
 1.1559211  1.2645135  0.92703927 1.090177  ]
batch_normalization_3/beta:0
(16,)
[-0.01504833 -0.02927078  0.03832422  0.01319925  0.05535894  0.06645597
  0.11986789 -0.14323922 -0.03155264 -0.09637116 -0.00878112 -0.00966373
  0.0024158   0.04814526  0.03421625  0.08727576]
conv2d_4/kernel:0
(1, 1, 16, 16)
[[[[ 0.4681178   0.50321895  0.21958397 -0.10901084 -0.24817182
     0.36505798  0.05357653 -0.15195195  0.01293886  0.09485688
     0.11052242  0.45612204  0.16603081 -0.37354395 -0.05198073
     0.43429902]
   [ 0.13468836 -0.03524934 -0.45131811 -0.36799014  0.10720441
    -0.18048169 -0.23499219 -0.19413196 -0.28670022  0.12441645
    -0.24658382  0.02925777  0.35124737  0.0096292   0.35975724
    -0.044746  ]
   [-0.1536298   0.32443503  0.04673687 -0.25169125 -0.01954321
     0.26333055 -0.25803784 -0.11846635  0.151418   -1.0604576
     0.43500638  0.24189642 -0.24425575  0.35330588 -0.55853194
    -0.15627313]
   [ 0.07456128 -0.2586773   0.20583083 -0.12629248  0.00576948
     0.02231829  0.0368592  -0.35505438 -0.14366138  0.08959767
     0.1273743   0.27029118  0.18651484 -0.56516683  0.04202292
     0.379142  ]
   [-0.55088466 -0.32735464  0.21864218  0.17487653  0.21926822
    -0.08714954 -0.31625533  0.0182074  -0.49335662  0.33873025
    -0.7457936  -0.07188784  0.09093247 -0.1213556   0.26647642
     0.29672173]
   [-0.44523218 -0.2699313  -0.26407802  0.00764829  0.12490638
     0.41773096  0.06434762  0.03898959 -0.10057788  0.11116262
    -0.24824522 -0.18573594  0.02577513  0.30556172  0.4056038
    -0.09553879]
   [-0.46663737 -0.24190913  0.07090467  0.12264442  0.3610453
     0.29735175 -0.02408209 -0.36589885  0.20654218 -0.02432526
    -0.02645228  0.16711263 -0.78533083 -0.41949347 -0.21230148
     0.03997122]
   [ 0.40235975 -0.3323282  -0.31663308 -0.02744952  0.17697406
    -0.12077286 -0.14019191  0.10381804  0.463879   -0.57109296
     0.6510188  -0.21739838 -0.17987563 -0.28766537 -0.03826521
    -0.00920636]
   [ 0.357412    0.2836531   0.63648784 -0.11501057 -0.0374129
    -0.0835852   0.43685997  0.01158685  0.5134001  -0.72658825
     0.36291566 -0.42060518  0.2832434  -0.28674003 -0.2928383
     0.01900678]
   [-0.28596133 -0.49782634 -0.29157615  0.34591138  0.39879963
    -0.25349477 -0.7183727   0.37246612  0.19500805 -0.39289698
     0.22145788 -0.37640342 -0.01354051 -0.12046389  0.34535486
     0.08996363]
   [ 0.05863713  0.13875195  0.10496495 -0.18508807  0.15978347
    -0.41459265 -0.35947984 -0.12033338  0.09186045 -0.40811473
     0.13157758 -0.27792957  0.3093448  -0.3845387  -0.09826116
    -0.13504507]
   [-0.09996127  0.3815436   0.37733564 -0.29367533  0.4363313
     0.19499648 -0.5164425  -0.09311591  0.24880168  0.23689
    -0.32835174  0.29764286 -0.31227285  0.08798724 -0.26559007
     0.18418518]
   [-0.52609175  0.32656258 -0.5326433   0.5283634  -0.41947213
    -0.4964371   0.2916409  -0.7256523  -0.32431772  0.4253643
    -0.10675695  0.02397474  0.33279172 -0.6334346  -0.02484551
    -0.06347573]
   [-0.01858965  0.24682963  0.33191454  0.35119042  0.02063204
    -0.17429268 -0.02350625 -0.5435024   0.19619153 -0.5445465
     0.09677602 -0.11139782  0.3835455   0.2740613  -1.1370054
    -0.12400336]
   [ 0.11038369 -0.45198786  0.30188677 -0.56213886 -0.10846855
    -0.00412465  0.42773056  0.5083679  -0.2816245  -0.04660929
    -0.25878277  0.15856901 -0.63381815  0.38285872  0.12839113
    -0.01655688]
   [ 0.16956274 -0.36765844 -0.58828264  0.2552954  -0.10673566
     0.07488077  0.26445386  0.20377831 -0.41535544  0.326307
     0.0041865  -0.36483532  0.08774009 -0.41199484 -0.03610422
     0.09891502]]]]
conv2d_4/bias:0
(16,)
[-0.01811503  0.0931431  -0.04207198 -0.0676221  -0.03645995 -0.09863326
  0.03230633 -0.07274563  0.05554577 -0.0567593  -0.11607779 -0.02627706
  0.06375613  0.1394716  -0.07446387 -0.20989288]
batch_normalization_4/gamma:0
(16,)
[0.93580544 1.2946147  0.95870626 1.0158432  0.9576497  1.0638607
 1.0509117  1.2012239  1.102112   0.93666816 1.3017644  0.8367138
 1.2363951  1.3782202  0.90469265 0.9337094 ]
batch_normalization_4/beta:0
(16,)
[-0.01071508  0.0955812  -0.03552139 -0.05999227 -0.02899364 -0.09076384
  0.03898574 -0.0663447   0.06027832 -0.04939514 -0.10777657 -0.01909226
  0.06812668  0.14166121 -0.0663479  -0.20152234]
conv2d_5/kernel:0
(5, 5, 16, 16)
[[[[-4.40258458e-02  1.33175880e-01  7.15105012e-02 -5.07522345e-01
     2.28740126e-01  1.18727505e-01 -8.37444142e-02 -1.23657040e-01
     1.92337781e-01 -5.41251116e-02 -6.16554059e-02 -1.10593308e-02
     8.46218020e-02 -1.36354297e-01 -7.89284483e-02 -1.74699962e-01]
   [-2.05597226e-02  1.18519783e-01 -6.50650188e-02 -8.47366452e-02
    -1.63374245e-01 -5.73154576e-02 -2.45484710e-01  7.59982504e-03
    -4.00120169e-02  1.12710655e-01 -2.80866753e-02  8.83740708e-02
     1.68436378e-01 -2.12442741e-01 -1.06876954e-01 -4.16720323e-02]
   [ 1.60045505e-01  1.31992012e-01 -5.53372391e-02  2.22771108e-01
     1.60116199e-02  1.70306280e-01  1.48496971e-01 -8.56181756e-02
     2.59733468e-01  3.69792655e-02  3.35851200e-02 -1.45677418e-01
     8.42936337e-02  1.08002268e-01  8.45155790e-02 -6.14758283e-02]
   [ 1.70480888e-02  6.84894528e-03  4.65375446e-02 -6.04934134e-02
    -9.19750053e-03 -2.20786389e-02  4.69315238e-02 -2.64863260e-02
    -3.18681709e-02 -6.08601533e-02 -9.43875685e-02 -1.71109840e-01
     2.03285385e-02 -1.58533156e-01  6.47727922e-02 -1.11826835e-02]
   [ 2.44736113e-02 -5.72960302e-02  1.48876756e-01  8.17713588e-02
     2.68803030e-01  7.13150352e-02  5.21669574e-02  3.37094441e-02
     1.82439573e-02 -8.29985216e-02 -2.15078503e-01  1.11962967e-01
     2.65903682e-01 -1.74987945e-03  1.31666511e-01  4.99503203e-02]
   [ 1.73798278e-01  4.04219963e-02 -1.26544051e-02 -1.99175850e-01
    -9.41788405e-02 -8.84732008e-02 -1.20776026e-02 -1.22332936e-02
     3.33041370e-01  1.64673269e-01 -1.99829768e-02 -1.78200185e-01
     5.38748242e-02  5.74781746e-03 -8.49049166e-02 -1.67162493e-01]
   [-3.06252651e-02 -2.63090158e-04 -9.57587641e-03 -9.16651115e-02
     1.28915608e-02 -1.09417774e-01  2.11584255e-01 -1.32182032e-01
    -1.66237690e-02 -1.26305148e-01 -9.25286487e-02 -2.28452355e-01
     2.00969592e-01 -3.13980520e-01 -7.91254360e-03 -2.86251932e-01]
   [ 1.36844963e-01 -3.80862970e-03  1.90708995e-01  4.51299876e-01
    -1.28142864e-01  7.42994994e-02 -9.50162336e-02 -8.18703100e-02
     3.01946759e-01 -6.89478964e-02 -9.27141029e-03 -2.76668161e-01
    -1.48916328e-02  5.80409840e-02 -1.58821672e-01 -2.92637274e-02]
   [-2.71825958e-02 -1.79185662e-02  6.84471577e-02 -2.04512700e-01
    -2.43887641e-02  2.72227168e-01 -1.22861303e-01 -1.00821361e-01
    -2.13771105e-01  1.50848225e-01 -1.02409989e-01  1.81540295e-01
     1.73446625e-01 -2.41107449e-01  2.93693423e-01 -7.50335678e-02]
   [-2.81404182e-02  1.32503390e-01  1.80740923e-01 -4.06815484e-02
    -1.62511289e-01 -6.45640418e-02  1.59948960e-01  6.39699250e-02
     4.44651634e-01  6.55781776e-02 -9.98665094e-02 -3.09448868e-01
     2.87490368e-01 -1.85241595e-01 -1.63584158e-01 -1.22218288e-01]
   [ 1.44681484e-01  2.60666966e-01 -1.64226755e-01 -2.37277448e-01
     2.03061834e-01  1.34368822e-01 -1.40985399e-01 -9.52451862e-03
     1.01859584e-01  1.29441783e-01  6.72190338e-02 -1.04225934e-01
    -3.30471337e-01 -6.38222992e-01 -1.11573547e-01 -4.67515811e-02]
   [ 1.41074955e-01  4.24689464e-02 -7.77114108e-02 -3.80464047e-02
     7.97593743e-02  2.55542994e-01  1.70201045e-02 -4.17286567e-02
     2.31035158e-01  5.87137043e-02 -1.57209083e-01 -1.07226729e-01
     8.72624591e-02 -1.49616614e-01 -4.39878255e-02 -8.74451827e-03]
   [-3.38682011e-02  1.36054754e-01  2.80452728e-01  1.42050922e-01
    -1.73484883e-03 -9.27339420e-02  2.38480732e-01 -1.46910310e-01
    -3.49146634e-01 -7.06635043e-02 -8.00271109e-02 -8.69500563e-02
     1.84517965e-01 -1.72288492e-01  8.63524270e-04 -1.56164214e-01]
   [ 7.25569054e-02  3.93506214e-02  7.23655969e-02  4.16593611e-01
     9.50469226e-02  1.03842773e-01  1.48566261e-01 -3.66522036e-02
     5.93966469e-02 -1.19488567e-01 -1.22935109e-01 -5.14696360e-01
     1.03834465e-01  1.55197755e-01  2.81195878e-03  1.46898227e-02]
   [-4.53635976e-02  8.58850405e-02  1.88760623e-01  3.89282405e-02
     5.47333397e-02 -1.14800304e-01 -9.05805901e-02 -4.52099852e-02
     1.62544310e-01 -7.05966651e-02 -2.77788173e-02 -1.55992001e-01
     9.68669131e-02 -1.32648200e-01 -1.65153861e-01  3.12286485e-02]
   [-2.70107575e-03  1.11973599e-01  1.32234534e-02 -4.00771797e-01
    -3.65831107e-02  6.70515224e-02  5.86652346e-02 -8.24981630e-02
     2.95248955e-01  7.07628876e-02 -7.05486014e-02 -1.75922606e-02
     2.10784629e-01  1.06659800e-01 -8.96404460e-02 -2.35372856e-01]]

  [[ 1.53409527e-03  9.24783796e-02 -9.47085768e-02 -6.37564659e-02
    -1.34234130e-01 -2.04223320e-01  1.02082632e-01  1.29324105e-02
     2.16579810e-01 -5.56546487e-02 -6.12346716e-02  1.05408147e-01
    -1.27881512e-01  3.97351161e-02 -1.09981028e-02 -4.19109643e-01]
   [ 1.31467834e-01  1.34330928e-01 -1.84711237e-02  2.78852642e-01
     2.31203437e-01 -1.39324263e-01 -1.43594041e-01 -2.75424905e-02
    -5.38638420e-02  4.07213658e-01 -3.06379553e-02  2.18183137e-02
    -3.02011788e-01 -2.77872011e-02 -4.86078970e-02  7.13381916e-02]
   [-7.96118379e-02  2.27859497e-01 -1.00127205e-01  1.64130703e-01
    -3.05623729e-02 -7.86228105e-02  2.25762859e-01  1.20218284e-02
     1.23867534e-01  1.12976126e-01 -2.29773559e-02 -5.94310416e-03
     2.56874356e-02 -1.75612018e-01 -2.31457613e-02 -9.42797437e-02]
   [-1.65204719e-01  8.88176784e-02 -1.21568227e-02 -2.78639495e-01
    -1.25425041e-01 -2.07298756e-01 -8.70815068e-02 -8.15516524e-03
    -5.54246247e-01 -1.57964051e-01 -1.62091196e-01 -1.05417147e-02
    -4.10269387e-02  1.27038643e-01  6.99351951e-02  4.96707074e-02]
   [-1.59286857e-01 -1.03084274e-01  3.71087044e-02 -4.13246572e-01
    -5.83962128e-02  6.53199628e-02  1.32940590e-01 -7.10825995e-02
     5.25758974e-02 -1.31992251e-01 -9.68426466e-02 -1.18172452e-01
     1.87770963e-01 -5.57292365e-02 -1.12272628e-01  5.76577149e-02]
   [-9.48324054e-02  1.47856757e-01 -1.40049204e-01 -7.61281624e-02
    -1.14317253e-01 -3.03558588e-01  1.43692985e-01 -2.52507683e-02
     1.71855941e-01  2.67617732e-01 -9.86054987e-02 -2.45558247e-01
    -1.59203991e-01 -6.01135939e-02  7.80278351e-03 -1.98452383e-01]
   [-2.71190237e-02 -5.25231659e-02 -1.34925440e-01 -4.90809372e-03
    -2.51471281e-01  3.37674469e-02  4.03804719e-01 -5.90181239e-02
     1.31487131e-01 -2.72380501e-01 -2.64193229e-02 -1.29147932e-01
    -3.27877142e-02 -3.73882353e-02 -2.32032791e-01 -3.71270448e-01]
   [-1.30788818e-01  1.82846472e-01 -9.05595496e-02 -4.88239825e-02
    -1.08343072e-01  1.18370228e-01  1.52911708e-01 -1.22118585e-01
     1.77418560e-01  1.85656566e-02 -1.81515485e-01  3.26287113e-02
    -3.13496254e-02 -7.81208500e-02 -3.40207547e-01 -1.15939684e-03]
   [-1.67516813e-01  5.46862185e-03  6.40656333e-03 -6.54018372e-02
    -1.44392639e-01 -1.14547973e-02 -1.18484691e-01 -5.69142252e-02
    -4.46148999e-02  1.44525737e-01 -1.74658939e-01  3.90392467e-02
     2.08675727e-01 -1.65041864e-01  8.68719444e-02  4.63934243e-02]
   [ 1.59865618e-01  6.17110804e-02  5.24159856e-02  1.31098866e-01
     2.90032960e-02 -1.42483357e-02  1.11434460e-01 -3.64211053e-02
     1.06894702e-01  6.69628158e-02 -6.21592253e-02 -1.03568450e-01
     7.47150928e-02 -1.02494713e-02 -1.47090390e-01 -1.97741278e-02]
   [ 6.78544194e-02  9.45298076e-02 -9.30099860e-02 -5.53012609e-01
    -3.96422446e-02  4.93391268e-02 -1.46858871e-01  2.22967323e-02
    -1.79733746e-02 -4.03713919e-02  1.19908545e-02 -1.64369330e-01
    -2.26942286e-01  7.61902481e-02  1.88927781e-02 -2.38200873e-02]
   [ 7.00753033e-02  9.17969346e-02 -8.17937329e-02  1.81280687e-01
     2.54325848e-02 -1.01458490e-01  1.07014664e-01 -4.03987207e-02
     1.63906485e-01  1.11470841e-01 -1.25496775e-01  7.65742958e-02
    -6.93885237e-02  5.38440682e-02 -1.87668521e-02  1.36017287e-02]
   [ 7.30622709e-02  5.85454740e-02  1.87943652e-01  1.00977607e-01
     2.18989387e-01 -7.11783469e-02  1.76930726e-01 -2.72267126e-02
    -3.38614434e-01 -1.91715974e-02 -2.74282191e-02 -2.99616326e-02
    -1.99373677e-01  2.18425855e-01  1.44400736e-02  8.89477041e-03]
   [-6.94574369e-03 -1.30264223e-01  6.75886944e-02  5.84631935e-02
     2.21341580e-01  1.62206903e-01  3.55954111e-01 -4.26086634e-02
     6.02290556e-02 -1.54377267e-01 -1.71317577e-01  8.33489150e-02
     1.13960125e-01 -3.29492748e-01 -7.61691481e-02 -1.42524475e-02]
   [-7.76403472e-02 -5.45050763e-02  1.11994501e-02 -1.56609416e-01
    -1.45174598e-03  8.38690177e-02  3.99607904e-02  4.96124886e-02
    -3.57586634e-03 -3.28932703e-02 -1.73925698e-01 -2.90078908e-01
     2.97595542e-02  5.76434471e-03 -1.36717141e-01  6.41267523e-02]
   [ 6.73381463e-02  1.09616376e-01  1.84932783e-01 -2.48334929e-02
    -1.27881812e-02 -1.08963728e-01 -1.78537250e-01 -2.13558767e-02
     8.85289162e-03  1.48236230e-01 -1.03658505e-01  9.00108442e-02
     7.00035691e-02  5.59483171e-02  5.71573293e-03 -1.32295579e-01]]

  [[ 9.48940441e-02 -2.88723987e-02  6.47543520e-02  6.96432590e-02
    -1.21303208e-01 -4.61007580e-02  7.35394284e-02  4.79897391e-03
     3.92312258e-02  6.04192354e-02 -1.86903223e-01 -1.53923070e-03
    -2.74468005e-01  4.68435623e-02 -2.42128298e-02 -1.99504092e-01]
   [ 2.94138193e-01  1.89458221e-01 -9.71575975e-02  3.61591667e-01
     1.15076728e-01 -3.24732989e-01 -1.20156020e-01 -8.52880254e-02
    -6.48916960e-02  4.43203628e-01 -1.13971487e-01 -7.72924274e-02
    -1.45933792e-01  8.32379535e-02  1.05156459e-01  1.85005039e-01]
   [ 1.87258497e-02  5.86143602e-03  5.35385683e-02  1.72737852e-01
    -6.76377863e-02  5.90374805e-02  9.40214563e-03 -5.33744954e-02
    -2.05546394e-02  2.27973044e-01 -1.00699164e-01  2.70071775e-01
    -1.17874570e-01 -1.32488713e-01 -1.06790833e-01 -4.88786474e-02]
   [ 3.11906248e-01 -2.14250118e-01  1.22568101e-01 -5.36452271e-02
    -2.10966349e-01  1.76549897e-01  2.43191719e-01 -2.26395316e-02
     1.35755092e-01 -5.73638938e-02 -5.71653694e-02  1.74959167e-03
    -1.80800065e-01  9.32081044e-02  6.34074733e-02 -9.80668440e-02]
   [-7.61018470e-02 -2.47499589e-02  1.67110309e-01 -4.25464183e-01
    -1.82120351e-03  6.22395687e-02  1.35241291e-02  2.57936702e-03
     5.15704639e-02  1.82016008e-02  1.25755407e-02 -9.92083251e-02
    -5.76264411e-02  7.86406696e-02 -1.36169136e-01  9.71417874e-02]
   [-3.37905400e-02  3.80962454e-02 -1.35332212e-01  2.60134697e-01
     9.05295312e-02 -3.46872717e-01 -1.36884630e-01 -4.76210527e-02
    -2.99567133e-01  2.01530442e-01  2.73744948e-02  1.65689901e-01
    -2.77465284e-01  3.98302339e-02  9.79657993e-02  1.38685763e-01]
   [ 1.31570190e-01 -6.31660298e-02 -1.31247997e-01 -1.49758533e-01
    -5.22263683e-02  1.07708789e-01  2.39242435e-01 -6.59887642e-02
    -8.54280218e-02 -4.60156322e-01 -5.63011952e-02 -7.34740794e-02
     8.26274529e-02 -4.66834866e-02 -2.30833977e-01 -7.06981838e-01]
   [-1.91589724e-03 -2.04559147e-01  2.21491724e-01 -1.09729320e-01
    -7.59147927e-02  1.32740602e-01  1.76647082e-01 -5.78674451e-02
    -1.38970122e-01  1.35204092e-01 -6.50161356e-02 -1.73797384e-02
     2.09955219e-02 -8.16788897e-02 -2.61686325e-01 -7.24531263e-02]
   [-1.78053200e-01  1.42223716e-01  1.74277499e-01  1.08656345e-03
     6.22877181e-02  1.75150663e-01 -1.44276634e-01 -1.10602595e-01
     1.19795121e-01  2.07134277e-01 -1.24223851e-01 -5.20750806e-02
    -2.32912943e-01  5.90403602e-02 -9.48018674e-03 -5.49879670e-03]
   [ 1.88855901e-01  5.68934754e-02  5.75233251e-02  1.32323459e-01
    -1.34892210e-01  5.80649488e-02  1.89731717e-01  2.28411816e-02
    -4.69006561e-02  1.11031003e-01 -6.48958161e-02 -9.49727669e-02
    -1.49970711e-03 -1.62333205e-01 -8.94974619e-02 -6.57523125e-02]
   [ 2.04328954e-01  2.42735341e-01 -1.04756482e-01 -1.42374888e-01
     3.21910769e-01 -1.87719092e-02  6.24023424e-03 -1.02328278e-01
    -1.94982458e-02  5.12054004e-02 -1.16068423e-01  1.96724553e-02
     2.66990196e-02 -3.39845219e-03  8.58941972e-02 -2.11245582e-01]
   [ 1.92210644e-01 -3.23797017e-02 -3.57214510e-02  2.60625631e-01
    -1.52438343e-01 -3.33026499e-01 -6.72648549e-02 -3.39229479e-02
     4.57538292e-02  8.36109072e-02 -9.59864259e-02  9.36484784e-02
    -1.88059747e-01 -1.26857340e-01 -1.03810668e-01  1.11426145e-01]
   [ 3.53479803e-01 -1.07401922e-01  5.39858826e-02  9.40999463e-02
     6.62742406e-02  4.32466678e-02  1.06514826e-01 -4.34066802e-02
     2.59673540e-02  8.87471959e-02 -3.36288288e-02 -1.45933837e-01
    -3.98304574e-02 -2.39910185e-02  2.49348387e-01 -9.88178793e-03]
   [-6.05236590e-02 -4.13356334e-01  1.84003428e-01 -3.98216210e-02
    -6.61084801e-02  1.76690325e-01  1.61752000e-01 -1.32281870e-01
     9.56915095e-02 -2.58032586e-02 -1.03172250e-01  1.59440145e-01
     2.05847755e-01 -1.99533075e-01 -7.54050538e-02 -1.62235439e-01]
   [-1.92916822e-02  9.28898379e-02  1.28420874e-01 -2.27090865e-01
     2.52811052e-02  1.75044268e-01  1.72026560e-01 -9.16859135e-02
    -5.97476400e-02  1.35179654e-01 -3.92006971e-02 -1.73234448e-01
     1.46883085e-01 -9.95998457e-02 -6.69538230e-02  2.18217913e-02]
   [ 8.43935087e-02 -9.35136527e-03  1.59754753e-01 -1.92266069e-02
    -2.92706370e-01 -2.63483554e-01  7.20266923e-02 -9.31755453e-02
     3.42484973e-02  1.99097648e-01  2.94454321e-02  3.90021205e-02
    -1.76754147e-01  3.19481120e-02  9.61851478e-02 -1.03562541e-01]]

  [[ 1.79456454e-02  1.17321417e-01  2.93309428e-02  5.12457862e-02
    -6.96153417e-02 -9.62389335e-02 -7.53310919e-02  9.10357945e-03
    -1.28451074e-02  1.01755403e-01 -1.41312167e-01  1.60210073e-01
     2.96550512e-01 -7.86548108e-02  1.25911742e-01 -3.36457789e-01]
   [ 1.82416379e-01  1.24773383e-01  8.06912109e-02  3.80348563e-01
     1.26569688e-01 -2.47248307e-01 -1.45582542e-01 -4.22777310e-02
    -2.24301457e-01  1.99857667e-01 -1.83973042e-03 -4.40973043e-02
    -3.51024538e-01  1.69233769e-01  4.14118022e-02  1.39302745e-01]
   [ 1.00621358e-01  2.32837144e-02  1.92664657e-02  1.87497050e-01
    -1.56170260e-02 -7.97579810e-02 -1.07342109e-01 -4.94427197e-02
    -6.08739890e-02  1.12711109e-01  7.20998496e-02 -1.78240225e-01
    -2.18347117e-01  7.43734241e-02 -2.46703714e-01 -1.58945590e-01]
   [ 8.85237157e-02 -6.66654184e-02 -2.25137696e-02 -1.44249707e-01
     5.35004549e-02  1.58674642e-01 -6.37606829e-02 -5.52833974e-02
     2.11287700e-02  4.18880135e-02 -6.11281209e-02  8.63703862e-02
    -3.78516406e-01 -1.46224409e-01 -5.21625429e-02 -2.06708759e-01]
   [ 3.47587258e-01  1.39599456e-03  1.21231914e-01 -1.49032176e-01
     4.44029793e-02  1.47205755e-01  3.93390516e-03 -2.04616925e-03
     7.98930451e-02 -7.86118768e-03  4.18514237e-02  1.19739428e-01
    -1.10628113e-01  6.74234778e-02 -2.09687784e-01 -5.54696396e-02]
   [-2.76086759e-02  1.42866090e-01 -2.72630365e-03  9.86738950e-02
    -3.30522172e-02 -3.84072572e-01 -2.26204082e-01 -1.35318795e-02
    -1.72118559e-01 -3.00527234e-02  2.46840972e-03 -4.06344905e-02
    -1.15988046e-01 -2.29120236e-02  7.53523409e-02 -6.10053204e-02]
   [-1.26437068e-01  1.52433440e-01 -5.23352670e-03 -4.17127870e-02
    -1.04385793e-01  9.99171287e-02  7.78158009e-02  3.89040560e-02
    -6.83539137e-02 -1.59637794e-01 -1.60527989e-01 -7.37276673e-02
    -2.31835023e-01  1.50933966e-01  4.90715951e-02 -5.86478710e-01]
   [ 1.98054671e-01 -1.27018362e-01  1.24537542e-01  1.15311861e-01
     8.46169982e-03 -3.66581604e-02 -1.90375656e-01  7.04490319e-02
    -4.85514924e-02  1.58827603e-01 -2.07307953e-02  1.63411289e-01
     1.09567931e-02  7.91506656e-03  5.34607992e-02  9.38105956e-02]
   [ 1.56688333e-01  1.67117029e-01  1.12743415e-01  1.89994603e-01
    -7.08891749e-02  3.27955782e-02  4.84825522e-02 -2.45011076e-02
    -3.52162421e-02  1.77060783e-01 -6.69724718e-02  1.82790607e-02
     7.84114599e-02  9.39947814e-02 -2.23906338e-01 -1.38717175e-01]
   [ 3.81277762e-02  5.91421016e-02 -2.72314344e-02 -1.57685101e-01
    -2.79857069e-01 -1.63850505e-02 -3.34748719e-03  8.05640873e-03
    -2.21234947e-01 -2.83112098e-03 -8.24200213e-02 -3.23071219e-02
    -6.18580759e-01 -4.48818356e-02 -2.78228149e-02 -7.47878924e-02]
   [ 5.69578409e-02  2.00303689e-01 -1.03770673e-01 -4.08631377e-02
     7.57422578e-03  2.33919267e-02  4.12774123e-02 -7.11833909e-02
     6.57441244e-02  1.39177218e-01 -4.07352448e-02 -3.45871180e-01
    -2.63599217e-01  9.40914303e-02  3.42298746e-02 -5.16090631e-01]
   [ 1.14626251e-01  7.79695511e-02  4.00310121e-02  3.48612696e-01
    -6.75392672e-02 -2.66549796e-01 -1.17629997e-01  2.70560365e-02
     2.46324483e-02  2.27579489e-01 -2.02758342e-01  3.36732864e-02
    -1.69125080e-01 -5.59724681e-02 -6.89920038e-02  6.99112341e-02]
   [ 1.34541214e-01 -1.47563675e-02 -3.58619988e-02 -1.14297740e-01
    -3.48103717e-02  3.62938680e-02 -7.32959947e-03 -1.59201678e-02
    -1.20790362e-01  2.32700482e-02  5.89469215e-03  2.27730093e-03
    -4.71758395e-01 -5.95180281e-02  1.92342371e-01 -7.69985765e-02]
   [ 1.74563631e-01 -2.93511480e-01 -5.01208454e-02  3.94428708e-02
     4.11867676e-03  2.54531264e-01 -1.63600758e-01 -1.17947236e-01
     1.72215149e-01  1.26979783e-01 -5.29664643e-02 -2.52170712e-01
     9.58926454e-02  7.14287460e-02 -5.01405783e-02  5.04029728e-02]
   [ 1.47739336e-01 -9.43229347e-02 -3.97837199e-02 -3.72862130e-01
    -1.19992122e-01  1.01846360e-01 -5.77787906e-02  4.85798903e-02
    -1.53283283e-01 -1.90886781e-02  2.66499873e-02 -7.13284314e-02
    -4.91836220e-02 -5.37109710e-02  2.90292352e-02 -8.82156715e-02]
   [ 2.02450797e-01  1.63181461e-02  2.27859214e-01 -5.93806691e-02
    -2.79119104e-01 -2.67003616e-03  8.50982033e-03 -4.29826751e-02
    -1.51127279e-01  9.77308005e-02 -9.31478366e-02  1.91793248e-01
    -4.66062278e-01  4.67356518e-02  1.44774437e-01  4.20980193e-02]]

  [[-1.23689502e-01  5.60546368e-02  1.48781836e-01 -5.70643209e-02
     7.90915862e-02 -1.65350158e-02 -1.99644759e-01 -5.66633306e-02
     4.95597385e-02  3.02133206e-02 -5.21489717e-02  1.99272230e-01
    -1.49025237e-02  6.54586479e-02  1.86882704e-01 -3.10955465e-01]
   [-4.35603149e-02  1.00916447e-02 -1.25890628e-01  5.96049093e-02
     1.55561820e-01 -1.49232328e-01 -1.29314169e-01 -3.41089591e-02
    -8.82999897e-02 -1.14927092e-03  5.36653847e-02 -7.10028037e-02
    -4.75741714e-01 -8.42175707e-02 -1.11319691e-01 -1.06935427e-01]
   [-4.02981378e-02 -1.76149145e-01  4.62388098e-02 -8.23546872e-02
    -8.84794220e-02  3.35909473e-03 -1.21545538e-01  7.77261034e-02
    -1.36633545e-01 -9.90215316e-02 -8.57790262e-02  1.11807153e-01
    -2.64928520e-01  1.76443622e-01  1.51147574e-01 -1.18009537e-01]
   [-2.24530185e-03 -5.24418021e-04 -1.04257032e-01 -1.20369419e-02
     2.83891391e-02  2.45524272e-02  6.23075217e-02  2.92369686e-02
     1.37052804e-01  2.86841691e-02 -8.14871266e-02  1.71597466e-01
    -2.49305099e-01  3.35921496e-01  1.78291515e-01  1.78439114e-02]
   [ 7.49190450e-02  2.15869457e-01  2.59146541e-01 -1.53908864e-01
    -8.19177367e-03  6.61067292e-02 -1.04313560e-01 -1.62175670e-02
     2.24635750e-02 -1.90089315e-01 -2.12924443e-02  6.03237562e-02
    -2.23983526e-01 -8.67709890e-02 -3.52986574e-01 -6.15448691e-02]
   [-4.02622111e-02 -8.65735784e-02  1.54056875e-02 -1.04897961e-01
    -2.13142093e-02 -1.74789250e-01 -2.24852726e-01  7.18900282e-03
    -2.78001368e-01  8.10603425e-03 -5.31998314e-02  2.16136768e-01
    -5.26151776e-01  1.28028259e-01  1.57791644e-01 -1.28217593e-01]
   [ 2.05174778e-02  5.31944335e-02  3.86767369e-03 -1.87165320e-01
    -2.84925215e-02 -6.80262819e-02  6.01730868e-02 -1.04523115e-01
    -1.09984517e-01 -1.35657236e-01 -1.10863177e-02  4.54849079e-02
    -1.46845832e-01  2.11337417e-01  2.72928566e-01 -4.17818338e-01]
   [ 7.72864670e-02 -1.80994108e-01  1.67875327e-02  9.76510122e-02
    -1.81683898e-01 -8.62670466e-02 -1.03163822e-02  4.61606942e-02
    -8.44831392e-02  1.32539645e-01  4.29523066e-02 -1.51458144e-01
    -1.16449699e-01  5.52237481e-02  1.52676567e-01 -2.14418784e-01]
   [-3.72097343e-02  3.57676633e-02  2.53658205e-01  3.20861228e-02
     1.40946344e-01 -3.62851024e-02 -2.39240661e-01 -1.21207669e-01
     5.54689206e-02  3.03146243e-02 -1.25564069e-01  5.86491302e-02
    -9.90706459e-02 -1.03301361e-01 -1.38924167e-01 -1.05530009e-01]
   [ 1.88186973e-01  1.02759577e-01 -6.42247824e-03 -2.32158199e-01
    -1.04770742e-01  3.80636714e-02  1.34985670e-01 -1.91815384e-02
    -2.03310907e-01 -4.60222699e-02 -1.84958786e-01  2.02688798e-01
    -5.19970715e-01 -2.81355064e-02  8.25634971e-02 -1.14911646e-01]
   [ 1.21701032e-01  1.07116960e-01 -6.33697957e-02  5.15705824e-01
     3.48050185e-02 -2.17258617e-01 -1.50709376e-01 -9.87244770e-02
    -8.66469219e-02  2.02136680e-01 -1.23409241e-01 -2.58967012e-01
    -1.68708429e-01 -1.48822337e-01 -3.71729885e-03 -3.95576596e-01]
   [-6.21192269e-02 -1.55393092e-03 -1.41520083e-01  6.01767898e-02
    -1.11803859e-01  7.05377311e-02 -1.39372140e-01 -5.69824269e-03
    -1.63773268e-01  5.45469262e-02 -1.95496514e-01  1.85976833e-01
    -4.60895598e-01 -8.77017155e-02  8.32699984e-02 -8.65034945e-03]
   [ 2.44305506e-01  1.44899756e-01 -1.62463844e-01 -2.47377194e-02
     2.20846772e-01 -2.35754494e-02  9.54613537e-02 -1.04282834e-01
     2.07127273e-01  8.18318978e-04 -1.31066307e-01  3.05866227e-02
    -5.30300617e-01  1.26727164e-01  4.76688333e-02 -5.44735603e-02]
   [ 1.49062067e-01 -2.09038824e-01 -7.83311576e-02 -1.19410850e-01
    -2.25996617e-02  1.29232571e-01  2.26997152e-01 -6.81688413e-02
     2.29031280e-01 -2.68148575e-02  2.26461869e-02  5.11509627e-02
     9.48518217e-02  1.49358451e-01 -1.63533777e-01 -7.75884911e-02]
   [ 1.40536129e-01 -5.42052872e-02 -3.66702713e-02 -2.44678617e-01
    -1.56741306e-01  2.65891943e-02  9.85443816e-02 -4.89647016e-02
    -8.37850720e-02  1.20338954e-01 -5.84542602e-02 -1.37525359e-02
    -6.49220645e-02 -1.61567256e-01  6.87801540e-02  1.90286909e-03]
   [ 1.27601340e-01  1.20294996e-01  9.52150300e-02 -1.83629498e-01
    -1.93282723e-01  4.78812726e-03  5.50483130e-02 -2.51520295e-02
    -1.60288960e-01  8.32668617e-02 -1.50730267e-01  1.27649277e-01
    -2.10734367e-01 -3.77878547e-02  1.46356314e-01 -2.00262144e-01]]]


 [[[ 1.63142353e-01  6.40118644e-02 -1.73301205e-01 -2.89853007e-01
     2.29188949e-01 -3.44825312e-02 -2.02404767e-01 -2.57839803e-02
     3.63122337e-02  2.70406365e-01 -3.55826356e-02  3.78835574e-02
     9.77822859e-03 -1.28599361e-01  8.34631622e-02  1.00731544e-01]
   [ 9.83510241e-02  9.32117328e-02  9.75126252e-02 -4.78939295e-01
    -3.70897740e-01 -3.79681826e-01 -3.15463915e-02 -5.17263450e-02
    -1.63600847e-01  1.82928845e-01 -9.50139090e-02  2.41460174e-01
     2.94754863e-01 -2.78165072e-01 -1.83331028e-01 -2.07348704e-01]
   [ 1.27466336e-01  1.20594271e-01  1.23440303e-01 -8.54541734e-02
    -4.13308218e-02  1.41936506e-03  1.27819404e-01  2.78219227e-02
     2.04104725e-02  1.34660348e-01 -6.18460588e-02  1.34787127e-01
    -2.12031707e-01  1.71646908e-01  7.11302310e-02  1.49745375e-01]
   [-1.07804365e-01 -1.54008329e-01 -1.13580771e-01  1.55830547e-01
    -1.73048243e-01  4.02912647e-02  1.21743612e-01  3.78834493e-02
    -7.96399191e-02 -1.08630933e-01  6.90098181e-02  7.21988603e-02
    -4.68235791e-01 -3.62490237e-01 -3.60172316e-02 -1.94314718e-01]
   [ 1.65238023e-01  1.54267838e-02  1.81372330e-01  1.77996419e-02
    -7.36883357e-02  2.52759662e-02  3.45642954e-01 -1.71830282e-02
     2.19408512e-01 -9.53052491e-02 -1.72873527e-01  2.41355747e-02
     9.87083018e-02 -1.62822694e-01  6.96512163e-02 -1.09196976e-02]
   [ 4.38256972e-02  2.54950915e-02  8.50283802e-02 -1.89150274e-01
     1.03016116e-01 -4.13524956e-02 -2.80060887e-01 -4.93898019e-02
     2.12452248e-01  3.25939447e-01 -7.93402493e-02 -3.89676765e-02
    -2.28850365e-01  2.30748691e-02 -1.27981380e-01 -2.36311078e-01]
   [ 1.67203486e-01 -1.23503372e-01 -5.63803673e-01  1.49035305e-01
     5.33941314e-02  1.59770355e-01  1.50280431e-01 -1.45305172e-02
    -1.07052401e-01 -3.62100713e-02 -1.38513088e-01  5.46939531e-03
     6.78037759e-03 -2.40668699e-01  2.19506100e-01  7.62637518e-03]
   [-3.60411145e-02 -7.06287026e-02  9.28004161e-02  9.66376737e-02
     6.56764880e-02  2.97632869e-02 -1.51807100e-01 -1.21162780e-01
     1.01268351e-01 -2.31253117e-01 -9.39150825e-02 -1.66100129e-01
    -3.53992283e-01  2.28481859e-01  2.13402733e-01  4.24417444e-02]
   [ 1.89039297e-02  3.29370908e-02  7.54550472e-02 -4.10356820e-01
     3.27975824e-02 -1.02567814e-01  1.59016743e-01 -1.15065493e-01
    -2.83906877e-01  3.16890419e-01 -8.37042704e-02  2.44771555e-01
     1.75689220e-01 -1.82548061e-01  5.45820557e-02  2.73891669e-02]
   [ 4.51055504e-02 -1.28660664e-01  2.43525915e-02  2.58271527e-02
    -9.80170816e-02 -8.89954567e-02  1.90664142e-01  2.15005986e-02
     3.22670817e-01 -2.57488489e-02 -1.51267201e-01 -1.04386657e-02
     1.16279200e-01 -2.76599407e-01 -1.63865369e-02 -9.67882574e-02]
   [ 2.86021471e-01  2.80604154e-01 -6.74149916e-02 -2.83434719e-01
     2.93556992e-02 -4.11125235e-02 -1.75320998e-01 -4.76562865e-02
    -1.04468726e-01  1.60339132e-01  5.40674441e-02  1.10793725e-01
    -2.21680969e-01 -4.13385212e-01 -1.46748856e-01  2.43592560e-01]
   [ 1.82748407e-01  9.26796868e-02 -2.16090813e-01 -2.74824858e-01
    -7.95889646e-02 -5.20137623e-02  3.31571475e-02 -5.68339378e-02
    -1.93075545e-03  1.74807310e-01 -1.59514472e-01  2.05752641e-01
     1.17506310e-02 -1.92780271e-02  3.69403251e-02  5.73606342e-02]
   [ 6.48348872e-03  1.10131003e-01  3.21978807e-01  2.06472240e-02
    -1.41305387e-01 -2.51676738e-02  2.26596624e-01  4.31162380e-02
    -1.57603458e-01 -4.81090359e-02  3.63237672e-02  6.86014220e-02
     6.81309076e-03 -4.81832355e-01 -1.90224066e-01 -1.24979638e-01]
   [-6.86873915e-03  1.68535467e-02  1.65638357e-01  2.99158424e-01
     1.27719313e-01  9.55420807e-02  1.40954405e-01  1.63729619e-02
    -5.74375950e-02 -2.55972296e-01 -8.29201490e-02 -2.10386857e-01
    -2.27168053e-02  1.36234537e-01 -2.40338668e-02  2.30571985e-01]
   [-3.46016139e-02 -6.14551753e-02  3.17851603e-01  8.11684430e-02
    -8.18889514e-02 -1.06961340e-01 -1.66854307e-01 -4.49845195e-02
     2.98271805e-01 -1.88977063e-01 -1.05402522e-01 -9.72815529e-02
     4.82271938e-03 -1.03469297e-01  5.53231835e-02 -2.65499298e-03]
   [ 6.62288517e-02 -1.38549721e-02 -4.75424118e-02 -5.25573671e-01
    -3.52437086e-02 -2.61315167e-01  3.68140824e-02 -2.97072399e-02
     2.16985926e-01  9.08121392e-02 -1.21678360e-01 -2.21801013e-01
     7.86497742e-02 -7.10676014e-02 -1.53483927e-01 -1.71479508e-01]]

  [[ 2.51583278e-01  1.63671196e-01 -2.80842572e-01 -5.97639456e-02
    -1.64777085e-01 -1.10065848e-01 -9.98297781e-02 -8.13569427e-02
    -1.42294653e-02  1.37843996e-01 -1.16340317e-01  2.54124384e-02
    -1.08329043e-01  1.15039721e-01  1.68962762e-01  2.40717530e-02]
   [ 3.47581983e-01  2.38575354e-01  6.08985499e-02 -1.98121697e-01
    -7.58581087e-02 -3.30754638e-01 -4.10750397e-02  4.78894785e-02
    -3.61811891e-02  4.57834691e-01 -1.95852086e-01 -2.68290229e-02
    -2.06696719e-01 -1.41480461e-01  1.11717947e-01  8.38924348e-02]
   [ 1.32530019e-01  2.40744039e-01  8.55878145e-02 -7.27625517e-03
     4.21009809e-02 -1.13081791e-01  1.64303795e-01 -5.53006828e-02
     7.68443644e-02  3.11606109e-01  6.44816235e-02 -3.94538105e-01
    -8.71334672e-02 -4.99503493e-01  1.67838633e-01 -9.14872587e-02]
   [-1.28681034e-01  8.51732586e-03 -1.29445389e-01 -5.25198281e-02
     1.01150021e-01  4.01149578e-02  7.86857456e-02 -8.06115121e-02
    -5.44074118e-01  1.54370312e-02 -8.35918859e-02  1.67150483e-01
    -1.08826861e-01  1.61636129e-01  8.10778961e-02 -1.09346444e-02]
   [-2.73727905e-02 -1.17716111e-01  1.09213240e-01  1.89670622e-01
    -1.30785242e-01  2.71488577e-01  3.99528518e-02 -4.29336540e-02
     1.46102041e-01  1.66447997e-01 -2.16871813e-01  2.36903988e-02
     1.00894064e-01  2.03481037e-02 -1.95261374e-01 -5.42078763e-02]
   [ 4.60853502e-02  1.46949477e-02 -9.07863230e-02 -6.73935488e-02
    -4.34590615e-02 -1.25407055e-01 -4.97826301e-02 -5.54541722e-02
     1.41549170e-01  2.46789277e-01 -1.00921944e-01 -1.84281945e-01
    -2.15256214e-01 -2.91188210e-01  1.18193805e-01 -2.25851640e-01]
   [ 1.83822334e-01 -1.86235607e-01 -5.10125220e-01  1.02286130e-01
    -1.31082937e-01  1.20768890e-01  1.77983269e-01 -9.75578465e-03
     7.41791651e-02 -1.08681194e-01 -7.39561841e-02  3.50495502e-02
     1.76250115e-02 -1.07544422e-01  1.65438410e-02 -1.54447705e-01]
   [ 4.03010007e-03 -3.24392022e-04  8.63697156e-02 -9.62416530e-02
     1.40987858e-01  1.11387178e-01  4.17387448e-02 -7.76457042e-02
     1.58741474e-01  3.81549448e-02 -1.97247252e-01  3.78583334e-02
     3.33909430e-02 -1.90492123e-01 -1.26603112e-01  6.70721829e-02]
   [ 1.49122059e-01  7.70759359e-02 -3.43486294e-02 -1.68145940e-01
    -2.73401082e-01 -1.77469015e-01  6.35558143e-02 -1.21450260e-01
    -4.41235043e-02  2.47172415e-01 -1.35518476e-01 -4.09574546e-02
     2.40319729e-01  5.11034615e-02  1.04941957e-01 -1.19255401e-01]
   [-6.70344979e-02 -4.77030724e-02 -1.46817878e-01  1.00477010e-01
    -1.18135564e-01  2.41419785e-02 -5.96647784e-02  1.80221070e-02
     1.32342204e-01  3.80454771e-02 -1.74131412e-02 -1.81490272e-01
     1.42594585e-02  5.23902886e-02 -2.81335056e-01 -2.23029524e-01]
   [ 4.96847659e-01  1.88820183e-01  2.00488623e-02 -3.34692210e-01
    -7.29568526e-02 -2.76788116e-01 -8.20053294e-02  1.99489836e-02
     3.23809534e-02  1.74075335e-01  2.68351156e-02 -2.00131033e-02
     1.36237919e-01  1.28524244e-01  2.48327553e-01  2.17399135e-01]
   [ 2.85720140e-01  1.87006176e-01 -1.85832560e-01  9.86177195e-03
     5.87221533e-02 -2.68703520e-01  1.39784470e-01  1.29791545e-02
     8.19547400e-02  2.74845123e-01  4.07743864e-02  4.21768427e-02
     1.20308828e-02 -6.81102201e-02  1.79424003e-01 -2.43555773e-02]
   [-4.15897518e-02  2.11978592e-02  1.10434458e-01 -1.64811119e-01
     1.89561710e-01 -9.15202498e-02  1.05945335e-03 -3.92873399e-02
    -3.22014332e-01 -5.35561703e-03 -4.37103361e-02  2.37408634e-02
    -1.34101689e-01  1.12954751e-01 -2.21366882e-01  7.02356398e-02]
   [-2.42782861e-01 -2.87170652e-02  3.36569697e-02 -3.95432487e-02
     4.17537540e-01  1.39078513e-01  1.45040825e-01 -2.73267273e-02
    -1.41966697e-02 -1.69896886e-01 -1.88550860e-01 -2.10166037e-01
     7.25370869e-02 -6.11801326e-01 -4.94980477e-02  1.04196100e-02]
   [-1.08564220e-01  3.60865183e-02  6.04700930e-02 -2.86368132e-02
    -1.07744053e-01  1.36831775e-02 -2.97828894e-02 -5.88638671e-02
    -4.28377017e-02 -9.69088227e-02 -3.62891853e-02 -6.11347780e-02
     1.74332216e-01 -5.31112850e-02 -2.00200930e-01 -4.14145365e-02]
   [ 1.12811945e-01  9.44005623e-02 -1.13860622e-01 -2.48852760e-01
    -1.31981567e-01 -4.91982639e-01 -3.75845507e-02  3.86755355e-02
     3.07530686e-02  1.79295599e-01  8.79029334e-02 -5.75537980e-02
    -2.85569858e-02  8.41828585e-02 -8.14740807e-02 -1.67455338e-02]]

  [[ 1.43294677e-01  3.47154140e-01 -3.83960068e-01  4.16855104e-02
    -1.80892557e-01 -7.77167529e-02 -1.15870133e-01 -7.03541413e-02
     2.34634206e-01  9.34517086e-02  1.58542686e-03 -4.84611876e-02
    -1.56730428e-01  1.21941984e-01  1.59241661e-01  1.73924714e-01]
   [ 2.61650801e-01  3.08169842e-01  1.44809157e-01 -5.69410957e-02
    -2.58133292e-01 -5.65866947e-01  5.41817471e-02 -1.40593515e-03
    -8.99507627e-02  2.60654598e-01 -2.49152213e-01 -2.88771331e-01
    -9.15563926e-02 -8.35720599e-02  3.03018749e-01  2.22680911e-01]
   [ 2.20492408e-01  1.92945465e-01 -2.79362015e-02 -1.06637530e-01
     1.24313459e-02 -4.58950788e-01  4.63252282e-03  5.69273829e-02
     1.69111997e-01  1.34433761e-01  8.35978612e-02 -2.56825145e-02
     6.06556982e-02 -3.94111201e-02 -8.40994194e-02  1.77066494e-02]
   [-5.96722513e-02 -5.31811938e-02  9.15239528e-02 -1.22191362e-01
     2.36276805e-01  1.44251421e-01  3.58900338e-01 -6.56971112e-02
    -8.79415125e-02  1.09365277e-01  3.66841559e-03  1.43567249e-02
    -1.12279691e-01 -1.04786426e-01 -1.58230171e-01 -2.79125832e-02]
   [-3.72187160e-02 -1.44865409e-01  1.11255243e-01  1.58840418e-02
     4.52088453e-02  1.73883408e-01 -2.62279399e-02 -7.84028918e-02
     6.95989430e-02  2.02656031e-01 -4.93864045e-02 -3.81801836e-03
     1.90530106e-01  6.04505576e-02 -2.65051216e-01  8.88025165e-02]
   [ 1.03381433e-01  1.57969326e-01 -4.02262136e-02 -2.03260019e-01
    -1.24312967e-01 -3.33479792e-01 -9.55918878e-02  4.66067046e-02
    -7.45266676e-02  2.60535568e-01 -2.40921136e-02 -9.62668359e-02
    -7.03274608e-02 -1.49495542e-01 -2.29290556e-02 -1.05868038e-02]
   [ 3.43047343e-02 -1.28139675e-01 -2.98645288e-01  1.46515697e-01
    -5.54922745e-02  1.24211304e-01  1.07497595e-01 -6.00035265e-02
    -6.66899830e-02  7.43294368e-03 -5.30244671e-02  9.92927104e-02
    -1.17809042e-01 -7.16191307e-02 -2.94882923e-01 -3.95507991e-01]
   [-1.21035695e-01 -4.60670050e-03  4.57360111e-02 -6.25489652e-02
    -1.52622998e-01 -1.20912194e-01 -1.49148226e-01 -1.14329472e-01
    -1.47685101e-02  5.88943772e-02 -1.23188935e-01 -4.50550243e-02
    -9.65733230e-02 -1.04875997e-01 -4.17273819e-01 -1.70863718e-02]
   [ 1.29839763e-01  2.36682668e-01 -2.76113283e-02 -6.35419339e-02
    -9.54525769e-02 -3.01582634e-01 -1.26084518e-02 -7.19182193e-02
     1.43836156e-01  9.89858599e-05 -8.05365504e-04 -1.68362647e-01
     2.40475282e-01  6.12138100e-02  1.54771926e-02 -1.29042407e-02]
   [-6.78365976e-02  7.93804675e-02 -1.70579463e-01  1.52110696e-01
     7.92745948e-02  2.38039449e-01  7.57346153e-02 -1.86924152e-02
    -1.13202326e-01  9.50392857e-02  1.18316291e-02  1.53809227e-03
    -2.32755303e-01 -1.05100945e-01 -2.19552264e-01 -2.14941770e-01]
   [ 2.52526522e-01  1.64970860e-01  3.70122753e-02  1.96100384e-01
     9.46878716e-02 -1.79821581e-01  1.81868151e-01 -1.68339536e-02
    -2.26421803e-01 -4.70661782e-02  5.63501902e-02 -1.44586921e-01
    -1.73934698e-01 -7.82673433e-02  3.22311312e-01  2.65313890e-02]
   [ 2.05279246e-01  2.94328928e-01 -1.36694431e-01  3.00545190e-02
    -6.05263487e-02 -3.09365869e-01  2.39787728e-01 -7.90010542e-02
     7.48551786e-02  8.78762975e-02 -1.40345246e-01 -7.76102170e-02
    -3.16234201e-01 -1.04997538e-01  3.05065028e-02  8.15121755e-02]
   [-1.37446210e-01 -1.89879864e-01  2.09373027e-01 -1.36853352e-01
     2.89157569e-01 -1.66839063e-02 -4.74962406e-02 -1.15673523e-03
    -3.07593912e-01  2.29773279e-02  3.58087793e-02 -4.75204699e-02
    -1.63781404e-01 -2.39660740e-01 -1.75274424e-02 -1.15830258e-01]
   [-3.90583612e-02 -3.74340832e-01 -1.15419701e-02 -3.02035123e-01
     5.58527298e-02 -6.64598402e-03 -3.12233381e-02 -4.49268743e-02
     1.06185406e-01 -2.19887987e-01 -1.41436204e-01  6.11323752e-02
     1.38700873e-01 -4.18384150e-02 -5.19112237e-02 -2.22014617e-02]
   [-4.14437912e-02 -7.59367719e-02  1.55672163e-01  4.29599844e-02
     8.94157141e-02  7.38233328e-02 -6.24510422e-02 -5.16279042e-03
    -2.85059035e-01 -1.74198691e-02 -2.53041163e-02  7.50266993e-03
     1.93758026e-01  1.42389173e-02 -1.58279285e-01 -1.03537075e-01]
   [ 1.63143679e-01  1.66963637e-01 -5.67049123e-02 -2.46775988e-03
     2.35715844e-02 -3.84822577e-01  7.98678398e-02 -7.07540661e-02
    -2.14250088e-02  2.01870158e-01 -1.12917133e-01 -8.23405981e-02
     5.10391407e-02 -3.83550674e-02  7.27286339e-02 -5.75995306e-03]]

  [[-1.19924992e-01  2.44588912e-01 -1.77754760e-01  1.48726225e-01
    -2.56821625e-02 -1.80253476e-01  1.27790898e-01 -1.10343866e-01
     1.70209140e-01  8.58590826e-02  5.27708186e-03 -1.95564389e-01
     1.58908740e-01  7.28102997e-02  2.97212228e-02  7.62198791e-02]
   [ 3.45149875e-01  2.57824540e-01  1.28920838e-01 -4.91938852e-02
    -1.11181453e-01 -4.36241299e-01  1.06973842e-01 -2.78750025e-02
     9.78538245e-02  2.65591949e-01 -4.17498760e-02 -2.58349836e-01
    -7.32129365e-02 -9.23926160e-02  2.14711800e-02  2.02014446e-01]
   [-6.07437268e-03  1.08527869e-01  3.16925235e-02 -6.81217611e-02
     2.47218966e-01 -3.93294841e-01 -7.72326300e-03  6.32431209e-02
     1.30418777e-01  1.70967057e-01  3.49883623e-02 -3.25818688e-01
     5.32960072e-02 -2.36372456e-01 -6.88424647e-01  3.69445309e-02]
   [-8.31177533e-02 -4.84021306e-01 -9.23147798e-02 -6.27829790e-01
     1.19202949e-01  1.17527589e-01  1.16113320e-01 -4.80454527e-02
     3.43318135e-02  1.20610990e-01 -2.38904580e-02  2.22389057e-01
    -5.78225017e-01 -9.63999927e-02  2.15680659e-01 -5.37349433e-02]
   [-8.32299143e-02  3.92206125e-02  8.70248862e-03 -1.48266196e-01
     2.90786862e-01 -2.96814982e-02 -2.70778596e-01  4.18960266e-02
    -2.43505593e-02  1.61533207e-01 -1.26399085e-01  1.05213024e-01
    -2.08508819e-01 -2.74136309e-02 -1.39400393e-01  2.45704338e-01]
   [ 9.69601795e-02  2.34165281e-01 -1.50762498e-01  1.24368645e-01
    -6.51198030e-02 -3.92262191e-01  1.12071015e-01 -5.80831580e-02
     1.82093284e-03  7.21890479e-02 -1.22332707e-01 -4.11223024e-01
    -1.23040423e-01 -2.50423491e-01 -3.35189760e-01  1.79000065e-01]
   [-1.64556608e-01 -1.02012806e-01 -3.76159757e-01  9.34929699e-02
    -2.80673504e-02  4.55229580e-02  1.17029257e-01 -8.45074952e-02
    -9.06815976e-02  8.91013257e-03  2.53740139e-02  1.84456035e-01
    -1.40833063e-02  7.16826841e-02 -1.25303373e-01 -1.96417645e-01]
   [-3.28393072e-01 -9.73762851e-03 -1.94801584e-01 -6.70364648e-02
     2.57524401e-01 -1.04721755e-01 -1.62408054e-01 -6.67506158e-02
    -8.57186019e-02  8.50981846e-02  2.45851818e-02  4.90184650e-02
    -1.21893719e-01 -1.13294363e-01 -2.44248018e-01 -2.77491987e-01]
   [-5.97533248e-02  2.06757292e-01 -4.43447521e-03 -1.05321527e-01
     1.01812147e-02 -3.89529884e-01  3.30989510e-02 -1.30359471e-01
     1.17265485e-01 -2.06671078e-02 -1.75982535e-01 -4.08414513e-01
     5.97541966e-02  6.47263154e-02 -1.96782157e-01  1.44005507e-01]
   [ 8.12821835e-02  3.02951448e-02 -1.24863572e-01  1.16863936e-01
     1.17728800e-01 -9.58315190e-03 -1.33625254e-01  3.98255177e-02
    -4.82702404e-01  1.39950868e-02 -1.42037287e-01  2.56265283e-01
    -6.31463706e-01 -9.17573518e-04  1.22167148e-01 -1.98253408e-01]
   [-1.55539975e-01  9.88009647e-02 -1.72528669e-01  1.61403805e-01
    -1.21481754e-01 -2.36764014e-01  1.44363776e-01 -3.76126170e-02
     8.89645144e-02 -1.59915700e-03 -5.71570918e-02 -2.67695695e-01
    -1.17766447e-01 -2.14337200e-01 -4.72022220e-02 -2.69338995e-01]
   [ 2.59072185e-01  1.99764177e-01 -1.40999362e-01  6.61485121e-02
    -7.07900673e-02 -2.47629419e-01  1.55646652e-01  3.59571166e-02
     1.42776057e-01  2.51707137e-01 -1.82857350e-01 -8.44595134e-02
    -1.51116431e-01 -1.91331118e-01 -1.57027796e-01  6.91247582e-02]
   [-2.18876861e-02 -3.05433482e-01  9.62397084e-02 -2.65685201e-01
     1.41035840e-01 -1.27422540e-02 -2.12159365e-01 -4.33734320e-02
    -2.11263791e-01 -8.41837898e-02 -1.30161256e-01  2.24254981e-01
    -1.96178198e-01 -1.81308761e-01  3.79202396e-01  8.26586708e-02]
   [-8.26800466e-02 -1.81720555e-01 -1.34126529e-01 -4.30480450e-01
     4.72652614e-01 -5.52544333e-02 -4.50667351e-01 -5.77231050e-02
     1.44876465e-01 -8.71700943e-02 -3.99418995e-02 -1.01408936e-01
     1.34140983e-01 -2.20841765e-01 -2.67932564e-01 -1.26591176e-01]
   [-9.43157151e-02 -2.05505386e-01  1.28008202e-01 -2.60861367e-01
    -1.13947749e-01 -2.47904249e-02 -1.44241348e-01  2.84849368e-02
    -2.20957801e-01  1.41304001e-01  5.84863536e-02  2.79861242e-02
     2.49394793e-02 -5.66468202e-02  1.93103865e-01 -1.39847040e-01]
   [ 1.05562165e-01  3.61478254e-02 -2.13631615e-02  2.92850230e-02
     2.79200561e-02 -2.60670334e-01 -3.56653240e-03 -4.12077829e-02
    -1.15297176e-01  1.02610983e-01  1.58667844e-02  1.66477170e-02
    -1.89751938e-01 -5.22296992e-04  1.65858343e-01 -1.13493860e-01]]

  [[-8.69721116e-04  9.38848704e-02  4.42111306e-03  2.78780103e-01
    -8.70549679e-03 -7.76913911e-02 -6.56427117e-03 -1.17326565e-01
    -5.62754832e-02  1.63021803e-01 -4.34609950e-02 -1.16508611e-01
     9.85570028e-02  3.06685027e-02 -1.68293968e-01  1.70909494e-01]
   [ 7.99300373e-02 -6.86609671e-02  4.33844216e-02 -1.99562147e-01
     1.02874532e-01 -4.31259535e-02  1.38294354e-01 -5.13609909e-02
     1.90688353e-02  1.62368923e-01  3.97738628e-02 -3.52118492e-01
    -1.01076648e-01 -1.86528534e-01 -2.50271738e-01  1.17539011e-01]
   [-2.68654644e-01  6.93612965e-03 -7.38819363e-03 -3.09971105e-02
     1.66331664e-01 -1.84228420e-01  9.67435315e-02  3.42359059e-02
    -3.64213325e-02 -1.61276892e-01 -1.27390504e-01  1.22559719e-01
    -3.37732732e-01  9.41044763e-02 -2.23971143e-01 -1.26171529e-01]
   [ 5.38928900e-03 -5.20139486e-02 -2.18810692e-01 -2.45228827e-01
    -1.14278100e-01  1.46994904e-01 -7.22007602e-02 -1.17131792e-01
    -2.23825127e-02  3.63067836e-02  9.27321985e-02  3.10268831e-02
    -3.22817177e-01  9.55481604e-02  1.23964638e-01  6.01397343e-02]
   [ 5.28229438e-02 -1.50243893e-01  2.20111787e-01 -7.70904273e-02
