le_net5/conv2d/kernel:0
(5, 5, 3, 6)
[[[[-1.05595745e-01  2.15455711e-01 -7.47714599e-04 -8.28233659e-02
    -1.61821783e-01  2.82370657e-01]
   [ 3.55016798e-01 -4.39501852e-02 -1.49729460e-01  2.64067352e-01
     1.23157047e-01  2.42765963e-01]
   [ 1.10980697e-01 -3.13390307e-02 -7.03207701e-02  9.55627766e-03
    -2.36701563e-01  1.36485472e-01]]

  [[ 1.94613844e-01  4.37800169e-01 -8.43467489e-02  3.97376455e-02
    -9.37600210e-02  6.84303522e-01]
   [ 1.84518948e-01 -2.47092396e-01 -1.96278453e-01  2.73115914e-02
     1.67047828e-01  2.31963873e-01]
   [-1.65083259e-01  1.68127701e-01 -2.41950899e-02  1.46380691e-02
    -1.53680593e-01  2.70239681e-01]]

  [[ 7.12490305e-02  7.20011890e-01  8.85437950e-02 -1.40287712e-01
    -3.15242231e-01  7.38329709e-01]
   [ 3.83301824e-02 -2.40790263e-01  1.80006996e-01  6.86838776e-02
    -2.32737437e-01  5.61826646e-01]
   [-1.81743667e-01  3.24641764e-01  3.08950633e-01 -1.57667965e-01
    -4.41210926e-01  4.23837692e-01]]

  [[-1.88517570e-02  5.38019061e-01  1.10221297e-01  2.65990820e-04
    -2.80338109e-01  5.43462753e-01]
   [ 2.10766509e-01 -3.54063451e-01  3.21526319e-01 -2.19260529e-03
     4.61766534e-02  3.74355733e-01]
   [-1.09590881e-01  5.45786358e-02  3.22646141e-01 -1.07658394e-01
    -6.46468028e-02  4.95817095e-01]]

  [[-7.79779851e-02  3.64957571e-01 -1.86478212e-01 -1.68978423e-02
     7.27638081e-02  4.45926785e-01]
   [-6.49706945e-02 -5.19426048e-01  1.35663033e-01  2.54918169e-02
     4.10833478e-01  1.96670353e-01]
   [-3.39340478e-01 -6.27217442e-02  2.59598970e-01 -2.82144636e-01
     9.61340144e-02  1.66798234e-01]]]


 [[[-7.30049670e-01  5.47955394e-01 -2.65330017e-01 -1.82169914e-01
     3.85561562e-03  2.17514530e-01]
   [ 2.46968400e-02  1.15291893e-01 -1.92052260e-01  1.42956004e-01
     4.99929994e-01  1.53227404e-01]
   [-2.66430348e-01  5.06593525e-01 -2.03620180e-01  7.32745230e-02
     3.93629558e-02  7.62213022e-02]]

  [[-5.48977554e-01  5.83427191e-01 -2.63292462e-01 -7.58353621e-02
     4.72217910e-02  6.18698716e-01]
   [ 2.14802325e-01 -8.45832303e-02 -3.40256065e-01 -6.01434931e-02
     3.17880481e-01  5.39619625e-01]
   [-1.67938322e-01  4.37980801e-01 -1.36553317e-01  1.09702311e-01
     1.92567840e-01  6.10147476e-01]]

  [[-5.39357483e-01  3.48628461e-01 -3.58299017e-02 -2.59547941e-02
    -1.12163365e+00  5.71712077e-01]
   [ 2.60652065e-01 -5.87850511e-01  4.57075760e-02  5.10537066e-02
    -9.53730643e-01  4.45566148e-01]
   [-8.66966322e-02 -2.39777640e-01  4.99903798e-01 -8.10400397e-02
    -8.87127578e-01  6.85459435e-01]]

  [[-3.25664669e-01  3.30946833e-01 -8.88257548e-02 -1.35419384e-01
    -2.97092140e-01  4.40098375e-01]
   [ 3.00026536e-01 -1.02409065e+00  2.18098387e-01  1.48428515e-01
    -1.24615170e-01  4.05350298e-01]
   [ 1.89049989e-01 -4.25818801e-01  7.64718771e-01 -1.17760733e-01
    -2.91684657e-01  6.95189118e-01]]

  [[-5.22069216e-01  1.63186461e-01 -3.68471414e-01 -1.39321104e-01
     5.31850457e-01  4.65892911e-01]
   [ 3.95476520e-02 -7.49358833e-01  2.22712517e-01 -1.31289363e-02
     7.44578540e-01  1.61585018e-01]
   [-1.18842155e-01 -2.99867600e-01  4.75279331e-01  5.46239922e-03
     4.56132382e-01  4.14900810e-01]]]


 [[[-4.60211225e-02  1.00413525e+00 -5.12262523e-01 -7.69660473e-02
     2.54392862e-01 -6.63650274e-01]
   [ 7.83001125e-01  7.86525071e-01 -5.46918988e-01 -1.00075766e-01
     3.80271703e-01 -4.25877988e-01]
   [ 4.31512803e-01  1.08346319e+00 -8.67837518e-02  2.32258245e-01
    -1.74958766e-01 -1.91881746e-01]]

  [[ 1.75669983e-01  5.85252345e-01 -6.52381003e-01 -1.40949935e-01
     7.48490214e-01 -9.69307899e-01]
   [ 9.06079054e-01  5.88498488e-02 -2.94943869e-01  5.63602373e-02
     1.00441301e+00 -8.93918574e-01]
   [ 6.72314942e-01  5.82562268e-01 -1.76591888e-01 -5.99720217e-02
     4.60075259e-01 -6.64042771e-01]]

  [[-9.25664306e-01  9.29507762e-02 -3.04393917e-01 -1.22308105e-01
    -8.68195772e-01 -8.67905438e-01]
   [ 1.27981514e-01 -1.11452937e+00  2.21679926e-01 -1.17418002e-02
    -4.91646022e-01 -7.91651368e-01]
   [ 2.21178569e-02 -7.84668982e-01  5.37642539e-01 -1.68460086e-01
    -6.66346252e-01 -5.46820700e-01]]

  [[-6.86423302e-01 -2.27659985e-01 -1.58333734e-01 -9.22840536e-02
    -1.08035851e+00 -3.58172774e-01]
   [ 1.58414543e-01 -1.29886544e+00  5.16302764e-01 -1.36535063e-01
    -8.92543852e-01 -5.52035153e-01]
   [ 1.15305685e-01 -9.28775966e-01  7.82285273e-01 -6.65156916e-02
    -9.51356709e-01 -5.09138763e-01]]

  [[-1.73928328e-02  1.45044431e-01 -3.57228607e-01 -1.07685558e-01
     3.56355011e-01 -1.89978063e-01]
   [ 5.57422996e-01 -5.92624128e-01  2.28435680e-01 -7.97461439e-03
     6.40241265e-01 -1.01497628e-01]
   [ 5.18709362e-01  5.05939461e-02  6.23815715e-01 -2.42785558e-01
     3.44257653e-01 -1.88718945e-01]]]


 [[[-7.56698996e-02  7.29977012e-01 -2.67982066e-01 -1.32405534e-01
     7.92778842e-03 -5.88165522e-01]
   [ 8.61449778e-01  6.18805349e-01 -5.24841189e-01 -1.47440240e-01
     1.25383630e-01 -2.66671836e-01]
   [ 6.62226856e-01  1.04023373e+00 -2.49069184e-01  1.58607185e-01
    -8.89483020e-02 -1.28571227e-01]]

  [[-2.04640999e-01  1.53927505e-01 -7.25552201e-01 -2.21077114e-01
     8.34459841e-01 -1.03196359e+00]
   [ 6.48591518e-01 -6.07587956e-02 -2.38937795e-01 -2.12278310e-02
     8.29369664e-01 -6.61748946e-01]
   [ 5.66290557e-01  3.11413825e-01  1.12786606e-01  5.91278113e-02
     6.21699274e-01 -4.67119694e-01]]

  [[-1.16227973e+00 -6.62291348e-01 -2.99282491e-01 -8.99775699e-02
    -2.36829847e-01 -1.20193100e+00]
   [-1.75036997e-01 -1.36770463e+00  5.79320379e-02 -1.22427702e-01
     1.21569119e-01 -1.04898417e+00]
   [ 1.11218914e-01 -1.00181830e+00  5.09411216e-01 -3.81248333e-02
    -1.35439873e-01 -9.18998957e-01]]

  [[-1.28025877e+00 -6.32960379e-01 -5.66403419e-02 -2.33777314e-01
    -7.94517279e-01 -1.02481663e+00]
   [-2.51299411e-01 -1.43573213e+00  2.54228592e-01 -2.30727330e-01
    -7.75416851e-01 -7.95387328e-01]
   [-2.56611437e-01 -7.96068609e-01  7.17063487e-01 -8.41761902e-02
    -8.90131950e-01 -8.31344128e-01]]

  [[-2.89221350e-02  1.85716584e-01 -2.33153611e-01 -1.54481664e-01
     1.51802495e-01 -3.97240728e-01]
   [ 6.37539446e-01 -2.92425990e-01  1.37749538e-01 -8.61068070e-02
     2.73829043e-01 -2.39164457e-01]
   [ 6.15490735e-01  3.80570680e-01  3.83521080e-01 -2.96146125e-01
     1.73468545e-01 -2.63221651e-01]]]


 [[[-1.14906800e+00 -1.96952336e-02 -3.55011106e-01  1.93588585e-01
     4.57111513e-04  2.36848384e-01]
   [-2.48259172e-01  3.22707742e-01 -4.14914370e-01  4.19799872e-02
     4.20363285e-02  3.17757070e-01]
   [-6.10399008e-01  7.70097435e-01  2.72429764e-01  1.57285621e-03
    -3.42496112e-02  2.03636035e-01]]

  [[-1.19124091e+00 -3.56740803e-01 -4.86945063e-01  4.16975990e-02
     2.79278785e-01 -1.98336020e-02]
   [-1.72650069e-01 -3.59354109e-01 -3.30251992e-01 -1.12768665e-01
     2.58010000e-01  4.37539011e-01]
   [-5.71390748e-01  9.76300687e-02  4.15743083e-01 -8.38499069e-02
    -2.34232638e-02  4.12775874e-01]]

  [[-7.05699563e-01 -8.09140444e-01 -2.98056543e-01  1.81005783e-02
     1.07583731e-01  1.73863307e-01]
   [-3.88283059e-02 -1.07127881e+00 -2.09548827e-02 -2.93158710e-01
     8.61638188e-02  9.85237956e-02]
   [ 9.72735807e-02 -7.41428614e-01  5.24764597e-01 -8.69089812e-02
     5.55257164e-02  1.17009439e-01]]

  [[-4.39748436e-01 -7.12516010e-01 -2.43724048e-01  7.23473877e-02
    -3.55863273e-01  7.34650269e-02]
   [ 3.97532761e-01 -5.41932583e-01  1.84272900e-01 -3.22961867e-01
    -2.58143544e-01 -8.47961977e-02]
   [ 5.55066466e-01 -1.56631414e-02  7.40244806e-01 -1.24465540e-01
    -5.16989470e-01  2.66564101e-01]]

  [[-2.60662824e-01  1.01029903e-01 -4.57702756e-01  2.39765435e-01
    -1.77664489e-01  1.82055756e-01]
   [ 3.58489722e-01  2.54472286e-01 -7.83193763e-03 -2.55074888e-01
     1.48117304e-01 -1.59208000e-01]
   [ 2.86288798e-01  8.25287521e-01  5.61517358e-01 -9.20565203e-02
    -2.57530004e-01  1.01484492e-01]]]]
le_net5/conv2d/bias:0
(6,)
[ 0.29711354 -0.02712919 -0.9895199   0.6456154   0.22114284 -0.8459321 ]
le_net5/conv2d_1/kernel:0
(5, 5, 6, 16)
[[[[-3.72857332e-01 -3.55334073e-01 -5.95388532e-01  1.44309253e-01
    -1.81641489e-01 -8.39936912e-01  2.57021695e-01  1.52240515e-01
     3.31326693e-01 -3.34274858e-01 -8.43421593e-02 -1.95050806e-01
     1.01017702e+00 -9.19646174e-02  2.07842126e-01  3.44396055e-01]
   [-2.50364155e-01 -4.93689120e-01 -6.60991192e-01  6.22320354e-01
     1.09917927e+00 -1.27348185e+00  3.84843081e-01  5.85623980e-01
    -4.40231934e-02  7.43183941e-02  7.57510886e-02  4.93572831e-01
     4.27228883e-02 -4.05385405e-01  6.10007048e-01 -9.35870588e-01]
   [-4.22665149e-01 -4.79718000e-01 -1.08459853e-01  4.39713150e-01
    -3.01017255e-01 -1.10140646e+00 -3.29028606e-01  3.00121278e-01
    -4.46316972e-02 -6.16093278e-01 -4.64773297e-01 -8.43957186e-01
    -5.23839474e-01 -2.67975867e-01 -6.22696161e-01  6.80534244e-02]
   [-9.77632999e-02 -7.71979213e-01  4.89753075e-02 -1.68516990e-02
     5.79911992e-02 -9.94759023e-01  3.52788687e-01  2.31937230e-01
     2.85222501e-01 -8.78564775e-01  1.18169419e-01 -3.67218852e-02
     7.25068927e-01  1.90859195e-02  7.86882162e-01  2.22788587e-01]
   [ 2.05007240e-01 -8.45489860e-01 -6.26519382e-01  9.32086825e-01
     1.23930740e+00 -4.31592129e-02  1.01188862e+00  6.38039708e-01
    -1.38246104e-01  5.52771688e-01 -3.50630403e-01  6.05484188e-01
     3.54655713e-01 -4.96111274e-01  3.77675802e-01 -9.16196167e-01]
   [-8.21208417e-01  4.59410716e-03  1.24005973e-01  4.00031991e-02
    -3.45346779e-01 -5.46559751e-01  2.25042865e-01  3.46209884e-01
    -4.15199250e-01  4.26172733e-01  1.05659097e-01 -7.05441952e-01
     1.02517471e-01 -3.12271714e-01  1.12536347e+00 -3.26381847e-02]]

  [[-1.19841378e-02 -2.95588970e-01  3.93832438e-02  2.75662124e-01
     9.97742563e-02 -6.90745950e-01  1.70906559e-01 -1.10173213e+00
     2.07012758e-01 -1.91927508e-01  1.02567114e-01 -5.70565104e-01
     7.93375313e-01 -4.63018520e-03  4.76463765e-01  1.12352729e-01]
   [ 3.34460586e-01 -2.65618622e-01 -3.92431825e-01 -3.42374146e-01
     1.17300048e-01 -1.32662833e+00 -7.77118862e-01  1.55374482e-01
     1.46739471e+00 -5.50294280e-01 -3.08621198e-01  2.88361192e-01
    -5.13758838e-01  2.03513727e-02  8.51371706e-01 -6.37909591e-01]
   [-5.51643789e-01 -7.87399173e-01 -9.25924033e-02  4.75720614e-01
    -1.45703211e-01 -7.79857397e-01  3.53178456e-02 -1.22052062e+00
    -6.44566476e-01 -3.75083238e-02 -4.55008209e-01 -1.87795734e+00
    -3.94210130e-01  1.98531732e-01 -4.69925702e-01 -2.39462227e-01]
   [ 8.62705186e-02 -4.45049256e-01 -1.34153157e-01  3.65251563e-02
     1.19567566e-01 -1.08935094e+00 -3.60586852e-01  3.26204479e-01
     9.49774683e-03 -6.48423374e-01  4.19353992e-01  3.10100734e-01
     3.15312237e-01 -3.91321722e-03  8.96086097e-01  1.89350322e-02]
   [ 4.83100414e-01 -6.37087762e-01 -4.72327650e-01  3.36550288e-02
     2.72254050e-01 -2.04738647e-01  3.48400697e-02  2.59091467e-01
     6.76197410e-02  1.46000668e-01 -9.78889406e-01  3.86830211e-01
     1.40152693e-01 -4.83092427e-01  8.52253512e-02 -4.01993871e-01]
   [-3.45376134e-01 -5.26244998e-01  1.00612812e-01  3.42065990e-01
     8.50900590e-01 -2.98785508e-01 -6.51157200e-02  5.14351249e-01
     4.35500771e-01  2.63653010e-01  2.56468922e-01 -4.62844640e-01
     1.62214011e-01 -9.88824666e-02  1.52295113e-01 -1.13605940e+00]]

  [[-1.71638519e-01 -2.24284261e-01  1.45269200e-01  4.67429429e-01
     7.07856655e-01 -6.42661870e-01 -9.57124174e-01 -1.95883858e+00
    -3.00300092e-01 -3.46299969e-02  2.32525408e-01 -5.96370399e-01
     3.20790708e-01 -1.09504662e-01  5.92492938e-01 -1.43547997e-01]
   [-5.22146106e-01 -8.10173377e-02 -3.75935137e-01  9.81303155e-02
    -6.48592532e-01 -8.11084569e-01 -2.74420977e+00 -5.88379949e-02
     8.91506970e-01  4.64947373e-01 -2.81382591e-01 -1.75810531e-01
    -6.83947861e-01  9.70768854e-02  2.62099922e-01  3.72927010e-01]
   [-2.52464265e-01 -2.86369562e-01 -4.31792066e-02 -3.44034247e-02
    -3.01942229e-04 -5.42672336e-01 -1.89944685e-01 -8.44637990e-01
    -4.63744951e-03 -3.38883311e-01 -8.37815851e-02 -1.32755470e+00
    -7.32354701e-01  1.83416381e-01 -2.14461740e-02 -4.26984072e-01]
   [ 1.08425893e-01 -1.39090270e-01 -8.48113969e-02  5.03456444e-02
     1.62886471e-01 -1.02210760e+00 -1.11452687e+00  5.45473285e-02
    -2.42417365e-01 -5.54945230e-01  5.29529810e-01  4.45997655e-01
    -9.87322330e-02  5.77633977e-02  3.17119360e-01  1.61726177e-01]
   [ 8.87683183e-02  6.31107509e-01 -1.15473099e-01  3.35916013e-01
     9.04237032e-02 -2.62248367e-01 -2.05428258e-01  2.18225032e-01
    -4.64262336e-01  9.62729812e-01 -1.26378715e+00  5.14609478e-02
    -1.09943561e-02 -3.17995459e-01 -6.27057970e-01  2.86800116e-01]
   [-1.83582261e-01 -1.54781193e-01  2.29190156e-01 -2.23499928e-02
     4.62058336e-01 -5.56202292e-01 -1.70758009e+00  5.92563003e-02
     3.40151727e-01  1.54431656e-01  2.87596196e-01 -6.94585312e-03
     2.50932872e-01 -2.89302260e-01  4.63382006e-01 -1.41501510e+00]]

  [[-6.91692114e-01  3.50552648e-01 -2.23054677e-01 -6.74007386e-02
     5.45269430e-01 -2.66570687e-01 -7.78882802e-01 -2.00271273e+00
    -8.90059888e-01 -1.41702265e-01  4.72053975e-01 -4.88887757e-01
    -5.15432298e-01  5.48078828e-02  4.06501114e-01 -1.92902490e-01]
   [-3.45267683e-01 -2.53417999e-01 -4.03481215e-01  2.11683556e-01
    -4.36652601e-01 -4.85702574e-01  1.26485407e-01 -3.69789630e-01
     3.28068823e-01 -3.09013575e-01 -5.52879632e-01 -7.14730322e-01
    -5.97207546e-01  1.36943892e-01  1.83299440e-03  2.59347826e-01]
   [-6.64723754e-01  4.39002395e-01 -1.04026817e-01 -1.81785468e-02
    -9.93965268e-02 -2.59434581e-01 -6.07304215e-01 -8.11097026e-01
     1.39691830e-01 -1.68761522e-01  8.01818430e-01 -5.34381270e-01
    -9.77338612e-01 -7.69887716e-02  5.01221061e-01 -1.20609477e-01]
   [ 1.68553829e-01  4.74723458e-01 -7.35139996e-02 -4.25738208e-02
     4.47775684e-02 -8.03856850e-01 -6.05531633e-01 -2.70890564e-01
    -3.85925174e-01 -4.81176317e-01  6.37826324e-01  4.03651565e-01
    -3.55217487e-01  1.39586359e-01 -2.44727153e-02  4.24273796e-02]
   [ 7.51284719e-01  6.12090528e-01 -2.22615182e-01 -1.15188278e-01
     3.73771608e-01  1.36200458e-01  8.01565051e-01  7.12735802e-02
    -5.21142840e-01  2.47002944e-01 -9.59616005e-01 -2.15391621e-01
     1.08898890e+00 -2.68277854e-01 -7.58771777e-01 -1.43347457e-01]
   [-3.46867472e-01  5.09270668e-01 -2.90067315e-01  2.37382557e-02
    -4.15127069e-01  3.12193811e-01 -9.31493402e-01 -3.78318191e-01
    -6.19825780e-01  6.39276877e-02  5.45193791e-01  9.91911054e-01
    -6.87527582e-02 -3.79308343e-01  1.27243114e+00  8.63128901e-02]]

  [[-4.20533448e-01  1.02447677e+00 -2.49829575e-01  4.34842080e-01
     7.25115180e-01 -3.98601443e-01  1.89494625e-01 -8.13902855e-01
    -4.45507288e-01 -9.20852125e-02  7.44064689e-01 -2.97577441e-01
    -6.03399754e-01  7.88217783e-03  1.07008807e-01 -2.17708349e-01]
   [-4.91721243e-01  4.07901794e-01  8.47668946e-03  1.15465951e+00
     5.36962569e-01 -2.11938098e-01  2.50575632e-01 -3.55658345e-02
     8.37908089e-01 -1.52442545e-01  8.66951346e-02 -4.89234000e-01
     3.38813663e-01 -1.07531503e-01 -9.55607951e-01  1.17703550e-01]
   [-5.09611309e-01  6.73564076e-01 -1.45893544e-01 -2.53218353e-01
    -4.79043901e-01 -1.28225209e-02 -1.26895577e-01  4.76013422e-01
     1.16508771e-02 -1.71003431e-01  1.34782612e+00 -2.70878732e-01
    -6.14519298e-01  1.62332579e-01  7.55142450e-01  6.54569864e-02]
   [ 1.57822884e-04  1.14331341e+00 -1.76949099e-01  1.91558644e-01
    -6.43465817e-02 -5.10801733e-01 -3.33951205e-01 -8.85118991e-02
    -1.68560654e-01 -4.12032515e-01  3.58511329e-01  3.55493665e-01
    -6.29054666e-01 -3.35661530e-01 -2.25986570e-01  1.65814623e-01]
   [ 8.65815282e-01 -5.55289872e-02 -3.06128889e-01  3.31187844e-01
     6.71440363e-01  7.28561804e-02  3.52959782e-01  7.18940571e-02
    -3.56536776e-01  5.22254109e-01 -6.87650025e-01 -3.73393059e-01
     1.25857699e+00 -5.24732888e-01 -7.34305978e-01 -7.81620145e-01]
   [-4.00791794e-01  8.70186508e-01 -2.56890595e-01  5.88430911e-02
    -1.19398341e-01  2.92606473e-01 -5.66840172e-01 -8.66532028e-01
    -3.37830603e-01  1.62508395e-02  6.71443045e-01  9.23484147e-01
    -6.34336621e-02 -3.36926907e-01  1.23327279e+00  2.89867759e-01]]]


 [[[-3.35116386e-02 -3.91856223e-01 -4.88343000e-01 -4.13091063e-01
    -1.75044358e-01 -5.62473953e-01  1.46772340e-01 -3.98530401e-02
     8.59602168e-02  1.66559219e-01 -1.08485192e-01  2.84137875e-01
     1.55910552e+00 -1.20018311e-01  2.83065706e-01  4.52598482e-01]
   [-6.08934224e-01 -5.51957905e-01 -4.82182316e-02 -2.28115618e-01
     1.32741022e+00 -6.83959901e-01  8.83473217e-01  5.48148751e-01
     2.92932570e-01  7.75242448e-02  7.48867318e-02  1.61968738e-01
     4.33568746e-01 -1.21675625e-01  5.70139103e-02 -3.59037548e-01]
   [-1.19685084e-01 -2.41481289e-01 -2.72078604e-01 -2.23166749e-01
    -4.52989012e-01 -1.01062191e+00 -1.99096620e-01  7.27478638e-02
    -2.15548918e-01 -3.73391598e-01 -1.03622270e+00 -2.94219404e-01
     2.52088606e-01 -1.80787876e-01 -3.82201463e-01  2.89064050e-01]
   [-1.33395433e-01 -9.10785377e-01 -1.67142838e-01 -8.59684944e-02
    -2.03053296e-01 -4.67083454e-01  4.46383238e-01  2.08108220e-02
     3.80754888e-01 -7.81396568e-01  1.33613702e-02  8.84137524e-04
     7.02237964e-01  4.34296310e-01  5.12491941e-01  4.65761602e-01]
   [ 3.62019911e-02 -1.07479894e+00 -3.47937882e-01  5.05493343e-01
     4.57156062e-01  9.04725678e-03  5.62671065e-01  5.85296415e-02
    -1.22803174e-01  8.60030234e-01 -3.93994600e-01  2.80281663e-01
     3.06848198e-01 -1.19986245e-03  3.33408564e-01 -3.75910640e-01]
   [-6.27725273e-02 -7.21764684e-01  6.74744099e-02  1.84424490e-01
    -5.44769406e-01  8.86705935e-01 -3.26068513e-02  7.11743474e-01
    -3.07535291e-01 -1.55413434e-01  4.63578045e-01 -5.05318582e-01
    -2.17380390e-01 -3.26487035e-01  7.59705484e-01  8.32367599e-01]]

  [[ 2.53896236e-01 -6.99734986e-01 -7.86664858e-02  2.60551482e-01
     6.57090396e-02 -2.69185513e-01 -1.79182425e-01 -5.95944047e-01
    -1.69440776e-01 -6.67437613e-02  1.28731191e-01  1.05082259e-01
     5.79365373e-01 -5.91153875e-02  1.78154349e-01  1.11905403e-01]
   [-1.16389644e+00 -1.82324553e+00  2.26742085e-02  1.30398840e-01
     5.49614549e-01 -6.19950056e-01 -3.75504643e-01  9.51911151e-01
     1.58204615e+00 -7.89718688e-01 -2.73859710e-03  5.31460881e-01
    -4.32162941e-01  3.82189542e-01  9.14309695e-02 -1.72016954e+00]
   [-4.88962419e-03 -5.38667664e-02 -2.43718863e-01 -1.61897436e-01
    -5.52306116e-01 -1.05612385e+00  3.64463329e-01 -1.45274270e+00
    -6.49410963e-01  2.70095944e-01 -6.23204947e-01 -1.12252653e+00
     1.83318034e-01  1.89121798e-01  9.03322361e-03  6.79103494e-01]
   [ 1.48623111e-02 -8.86900425e-01 -3.83098841e-01  2.38000676e-01
    -3.83143902e-01 -4.38672423e-01 -5.00182211e-01 -4.81878966e-02
     1.33371428e-01 -5.02282977e-01  2.17939690e-01  2.69775659e-01
     2.64882267e-01  4.90373135e-01  3.06291491e-01  4.30489238e-03]
   [-5.69341816e-02 -1.37599277e+00 -3.03972214e-01  2.95802623e-01
     7.10901380e-01  1.67425871e-01 -4.33277696e-01  4.20074046e-01
     1.99516997e-01 -6.87807985e-03 -1.05995798e+00  4.21238840e-01
     2.07715452e-01 -1.13498561e-01 -3.39604825e-01 -8.38931322e-01]
   [ 3.35701481e-02 -1.26846063e+00 -3.08863938e-01  2.68831074e-01
     3.53148133e-01  8.56865644e-01 -1.93739757e-01  6.90872014e-01
    -9.15793106e-02  3.37726533e-01  3.13119859e-01 -1.52096838e-01
    -4.20060121e-02 -7.54032731e-01  1.49222657e-01 -2.20552266e-01]]

  [[ 1.66565359e-01 -2.26112202e-01 -4.40930068e-01  1.32373467e-01
     3.46705168e-02 -2.14002907e-01 -1.04904222e+00 -1.95838535e+00
    -7.98550963e-01  3.31650227e-01  4.61905211e-01 -4.49380130e-01
     4.02273774e-01 -3.94534692e-02  5.09167075e-01  1.94889218e-01]
   [-5.58463812e-01 -4.73788649e-01 -6.15219593e-01  8.05911273e-02
    -1.57359943e-01 -6.72235012e-01 -3.12656283e+00  1.40499794e+00
     4.12013978e-01  2.20207706e-01 -2.72974253e-01 -1.02598548e-01
     2.84730971e-01  3.09596092e-01 -9.48388636e-01 -1.53958786e+00]
   [ 3.30212489e-02 -3.53117466e-01 -1.14749052e-01  4.88921702e-02
     2.20555872e-01 -3.69116604e-01  4.57501441e-01 -1.88965118e+00
     2.41157755e-01 -2.20282063e-01 -2.03149259e-01 -1.40453720e+00
    -2.04711959e-01  2.13925447e-02  1.80038258e-01  5.56259394e-01]
   [ 1.52211666e-01 -2.44157854e-02 -3.57205391e-01  2.76363820e-01
    -4.14581776e-01 -5.94058394e-01 -1.29301667e+00 -4.16233063e-01
    -4.22238857e-01 -2.63308793e-01  3.53985220e-01  3.19626004e-01
    -1.88593730e-01  4.53258425e-01 -6.20849609e-01 -3.80957365e-01]
   [ 2.79003888e-01  3.07098895e-01 -6.08277284e-02  1.96606636e-01
     5.19315064e-01 -5.52330241e-02 -1.47523654e+00  1.32652357e-01
    -7.65703738e-01  8.23062062e-01 -1.02972424e+00  1.85030177e-01
     3.32673639e-01 -4.52595204e-02 -9.52133179e-01 -5.79839170e-01]
   [-3.32612991e-02 -9.01018381e-01 -2.49576613e-01 -1.04767367e-01
     5.75471699e-01  3.98655921e-01 -1.67313743e+00  3.10853869e-01
    -3.68601024e-01  2.75818944e-01 -8.10819864e-02 -3.13336886e-02
     3.78822356e-01 -1.08069575e+00 -2.55240649e-01 -1.84308219e+00]]

  [[ 9.21590999e-03  4.57452625e-01 -5.32941639e-01 -2.66721360e-02
     2.39023194e-01  1.24568343e-01 -6.53440118e-01 -2.53068280e+00
    -9.25961077e-01 -1.24234669e-01  5.07015526e-01 -4.01986301e-01
    -5.50878644e-01  3.98817986e-01 -2.52384782e-01 -2.67828763e-01]
   [-1.49487495e-01  2.82046258e-01  2.29408905e-01  6.26672328e-01
    -4.75445300e-01 -5.47042072e-01  6.82736278e-01  8.45947623e-01
     8.27232301e-01 -4.72029150e-01 -3.54436487e-01 -6.27745926e-01
    -2.16548547e-01  2.24985003e-01 -1.47842598e+00  8.03184152e-01]
   [-9.52292532e-02 -1.89958308e-02 -2.14067817e-01 -1.34761661e-01
     3.46394479e-01  2.91013747e-01 -5.82252145e-01 -1.99060953e+00
     2.21933186e-01  2.92342544e-01  4.48463976e-01 -5.83294094e-01
    -2.43606925e-01  2.34795257e-01  2.82659054e-01 -1.95561066e-01]
   [ 3.09098631e-01  6.81881189e-01 -2.99464941e-01  2.64831424e-01
    -3.29461247e-01 -6.56101704e-01 -6.86063588e-01 -5.94179809e-01
    -5.32790065e-01 -1.78620815e-01  3.68562579e-01  5.78863919e-01
    -4.63279665e-01  3.51906896e-01 -1.05352449e+00 -2.72766352e-02]
   [ 2.97733963e-01  7.80055761e-01 -9.75236818e-02  2.50328500e-02
    -2.37538978e-01  1.27288193e-01  6.79998636e-01  1.62283704e-01
    -5.11893094e-01  5.61335385e-02 -8.76980722e-01 -1.67292386e-01
     4.59132105e-01 -2.63589352e-01 -5.53749919e-01  4.29654360e-01]
   [-9.02211010e-01 -2.97001749e-01  3.87342786e-03  4.62092124e-02
    -1.40960052e-04 -3.29252899e-01 -1.22759032e+00  3.69102061e-02
    -3.35957497e-01  5.81906438e-01  1.03343807e-01  5.64966977e-01
     3.03243965e-01 -1.18083918e+00 -1.45784557e-01 -1.07608998e+00]]

  [[ 9.20615345e-02  1.16557097e+00 -2.84399658e-01  4.34279352e-01
     9.15387690e-01  4.24416006e-01  2.44434804e-01 -1.32451284e+00
    -2.24583209e-01 -4.47275210e-03  8.60211551e-01  3.72341052e-02
    -1.02042508e+00 -1.42026916e-01  5.98627999e-02 -6.40808403e-01]
   [-2.63054013e-01  9.91373956e-01  5.75406969e-01  6.27743781e-01
    -4.42983210e-01  2.93412387e-01  1.43941537e-01  5.20253241e-01
     9.96460140e-01 -1.73731610e-01  3.66806865e-01 -6.06692970e-01
     1.83880717e-01 -4.55073655e-01 -1.36276448e+00  9.65312481e-01]
   [-4.65772748e-01  3.16338569e-01 -2.40643665e-01 -6.51596710e-02
    -8.63759071e-02  1.97809696e-01  1.25461027e-01 -3.70994121e-01
     3.44280452e-01 -4.96503785e-02  1.01581144e+00  1.44451961e-01
    -2.70314395e-01  2.45070145e-01 -2.14153066e-01 -4.16225135e-01]
   [ 2.40383163e-01  1.45980942e+00 -3.51155460e-01  2.31789097e-01
    -6.66016459e-01  7.05673546e-03 -3.42237800e-01 -3.88886929e-01
    -3.00539672e-01 -1.26963556e-01  5.07024646e-01  4.82768476e-01
    -7.23893940e-01  2.75631752e-02 -5.21138489e-01  1.72123924e-01]
   [ 2.87078828e-01  6.26088798e-01 -2.74294894e-02  1.08475737e-01
    -3.79535943e-01 -5.11136465e-02  1.53130412e-01 -3.84223349e-02
    -3.06664258e-01  3.17709386e-01 -2.68963516e-01 -1.95999742e-01
     6.24019146e-01 -1.59355894e-01  2.97161769e-02  1.94318339e-01]
   [-1.38612533e+00  7.36350834e-01  4.95904088e-01  3.27302068e-01
    -2.49604642e-01 -5.69721043e-01 -3.79656434e-01  1.40083864e-01
     1.43568456e-01  9.08870995e-01  5.44199407e-01  4.48873252e-01
    -5.43710828e-01 -1.35963881e+00  6.02887273e-01  5.98247826e-01]]]


 [[[-1.46601364e-01 -9.37884986e-01  3.34750772e-01 -6.77228749e-01
    -2.62088060e-01 -8.98345709e-01 -1.06919691e-01  7.48378217e-01
     1.86232645e-02 -3.00599396e-01  4.18952197e-01  2.38211498e-01
     1.60927474e+00 -3.71350437e-01  4.08058673e-01  1.06724270e-01]
   [-8.21721554e-01 -1.32120275e+00  4.09232944e-01  6.25256300e-02
     1.00316036e+00 -4.54277813e-01  7.77010798e-01  6.30801097e-02
     8.50901246e-01 -4.47608650e-01  3.31987560e-01 -3.72822672e-01
     3.38608980e-01 -1.12563536e-01 -1.80543557e-01  5.54040894e-02]
   [ 2.01664999e-01 -1.11729577e-01 -1.04241177e-01 -4.02587473e-01
     2.00453714e-01 -1.22699571e+00 -3.60860646e-01  1.71178475e-01
    -4.82127726e-01 -5.49356282e-01 -3.97489965e-01  9.92139429e-03
     6.17646515e-01 -2.01705009e-01  7.45601535e-01  1.96522534e-01]
   [-5.60790002e-02 -1.23002636e+00 -2.96845257e-01 -9.07014534e-02
    -4.54519480e-01  5.48172295e-02  6.77280962e-01 -2.03328520e-01
     4.04002458e-01 -7.29536712e-01  1.28459379e-01 -1.00457013e-01
     7.24666774e-01  5.70263267e-01 -4.79414463e-02  8.60991836e-01]
   [ 2.06847787e-01 -1.10229528e+00 -3.72147709e-01  1.83891460e-01
    -4.96241674e-02  3.86769861e-01  9.83118474e-01  3.36064696e-01
    -2.99357492e-02  9.41514671e-01 -6.61217451e-01  1.14171006e-01
     2.00892210e-01  2.05572918e-01 -5.63070297e-01 -9.86952148e-03]
   [ 1.43399432e-01 -2.18495226e+00  1.09310019e+00 -2.17305481e-01
     3.05077046e-01 -1.05745653e-02 -3.86151820e-02 -6.18532121e-01
     3.49658616e-02 -2.31528148e-01  3.68783623e-01 -3.43790293e-01
     5.28153121e-01 -5.17968297e-01 -1.56640902e-01  2.91753769e-01]]

  [[-7.63890073e-02 -5.56992590e-01 -3.05611581e-01  3.87042016e-01
    -5.67504585e-01 -5.98894715e-01 -1.25413656e-01  6.04109168e-01
    -1.72590181e-01  7.16496482e-02  2.83428013e-01 -1.52865064e-03
     7.91189015e-01  1.26945391e-01 -1.65391311e-01  3.12481850e-01]
   [-9.34026420e-01 -9.03956056e-01  6.18543625e-02  7.12775469e-01
    -2.31905058e-01 -2.32677832e-01  2.48773515e-01  3.39990795e-01
     1.04854989e+00 -1.04136574e+00 -3.39559436e-01 -2.65012328e-02
    -4.89502758e-01  1.72527313e-01 -1.74515319e+00 -8.14239740e-01]
   [ 2.58302838e-01  5.96203841e-02 -5.35169005e-01 -1.09066173e-01
    -5.42222679e-01 -1.57558560e+00  3.76174420e-01 -8.23977664e-02
    -1.75726131e-01  1.46086052e-01 -3.03074390e-01 -6.74961925e-01
     2.86496311e-01  2.34464511e-01  3.49414259e-01  3.31791133e-01]
   [ 2.34906793e-01 -8.01539242e-01 -2.90017635e-01  4.32550043e-01
    -5.21535397e-01 -5.77800870e-02  7.42763355e-02 -7.45516121e-02
     6.35158503e-03 -3.89692575e-01  2.44790494e-01  1.35839865e-01
     1.01555325e-01  5.52236736e-01 -4.59811687e-01  2.38096207e-01]
   [-3.82326901e-01 -1.12954092e+00 -4.19515729e-01  2.67305803e-02
    -3.48102868e-01  5.84519982e-01 -1.51278645e-01 -9.91460755e-02
     1.35771081e-01 -1.01272285e-01 -8.61969829e-01  1.95982635e-01
    -8.28405917e-02  4.36563045e-02 -5.29655039e-01 -3.30399781e-01]
   [ 2.03519493e-01 -7.59773672e-01  1.95310861e-01  1.31437987e-01
    -5.78484476e-01  2.21375041e-02 -2.34999269e-01 -2.27024600e-01
    -4.86081630e-01 -5.83400905e-01  1.64696023e-01 -3.75760496e-01
     1.87182993e-01 -1.00695801e+00 -3.30583662e-01  2.52052158e-01]]

  [[ 8.33400041e-02  1.58384785e-01 -6.38105750e-01  5.22341907e-01
     6.27458245e-02  3.08713496e-01 -1.16678965e+00  7.21769705e-02
    -6.98403716e-01  2.67055422e-01  2.77021527e-01 -2.35428333e-01
     2.34197333e-01  3.20847809e-01 -1.40876710e-01  6.00671411e-01]
   [-1.66717422e+00 -4.83504742e-01 -8.08252580e-03  4.98400450e-01
     7.29577959e-01 -2.68799532e-02 -2.50317883e+00  7.43286550e-01
     5.22082806e-01 -2.01978147e-01 -9.26946476e-02  8.73836800e-02
     3.85231942e-01  2.75277078e-01 -8.32818866e-01 -1.62814701e+00]
   [ 1.36295348e-01 -8.98411572e-02 -4.71885681e-01  3.74088526e-01
    -5.59618235e-01 -4.14421767e-01  6.56535685e-01 -6.31683528e-01
     4.26051527e-01 -4.28606927e-01 -1.48497239e-01 -8.83107603e-01
    -4.59283262e-01 -6.81374669e-02  4.84133095e-01  9.80902433e-01]
   [ 6.41483441e-02 -2.07546484e-02 -4.27500576e-01  4.01165903e-01
    -5.92438340e-01 -1.19040564e-01 -6.06900215e-01 -1.50636718e-01
    -5.42315483e-01 -6.11547381e-02  1.73858896e-01  3.99132609e-01
    -3.24055135e-01  5.63925922e-01 -1.10089135e+00 -3.94857824e-01]
   [-2.79119730e-01 -3.79685670e-01 -4.28871632e-01  6.80132881e-02
     8.00262511e-01  8.03089738e-01 -1.47653854e+00 -1.01303689e-01
    -5.07263124e-01  8.96281064e-01 -7.84214497e-01  3.28967124e-01
     5.08453429e-01  9.45669115e-02 -6.61014378e-01 -1.35875678e+00]
   [ 2.08067447e-01 -5.59405684e-01 -2.06712231e-01  4.93309110e-01
    -3.81285697e-01  1.01301201e-01 -5.33171535e-01 -2.20000431e-01
    -3.43920738e-01 -3.88659388e-01 -1.75439030e-01  3.46242785e-02
     1.38317555e-01 -1.48942709e+00  2.63640672e-01 -2.55623847e-01]]

  [[ 1.95295319e-01  4.13879335e-01 -2.15959877e-01  6.10228837e-01
     2.30484486e-01  1.82676941e-01 -4.64805603e-01 -3.93159837e-01
    -5.22906840e-01  9.69258398e-02  2.67862976e-01 -4.02984738e-01
    -2.58750081e-01  2.61899065e-02 -4.37151253e-01 -1.12177096e-01]
   [-7.68542230e-01  3.26166153e-01  6.37193561e-01  1.16857946e+00
     6.53989851e-01 -8.18033874e-01  2.81009614e-01  7.05658257e-01
     6.40584826e-01 -5.11476278e-01 -2.52044320e-01 -3.02881002e-01
    -2.10795641e-01 -1.98258862e-01 -2.96692193e-01 -2.16361985e-01]
   [-1.03524342e-01 -1.17561696e-02 -4.00130600e-01  1.34880230e-01
    -7.13906661e-02  7.43417382e-01 -2.45549649e-01 -5.46790540e-01
     1.15746990e-01 -2.02527046e-01  3.16753864e-01 -8.94532561e-01
    -2.90497810e-01  3.57938826e-01  1.37148231e-01  6.71150923e-01]
   [ 2.98337340e-01  6.44964278e-01 -3.00978124e-01  5.60270369e-01
    -5.88441551e-01 -2.74789125e-01 -1.14287488e-01 -2.73898333e-01
    -6.62822187e-01  1.39803454e-01  4.15663868e-01  6.14951670e-01
    -6.12883568e-01  3.33308399e-01 -1.21308482e+00 -3.89988840e-01]
   [ 1.46589786e-01  5.09976029e-01 -2.17997819e-01 -7.71607012e-02
     6.41440570e-01  6.04324102e-01  1.25360370e-01  1.25983670e-01
    -3.98592174e-01  1.00772440e-01 -7.73661792e-01  1.27781436e-01
     9.66159441e-03 -3.67150187e-01 -7.29820430e-01 -2.92644445e-02]
   [-2.29470089e-01 -6.76094234e-01  1.68084860e-01  2.47954875e-01
     4.69179839e-01 -2.74124086e-01 -4.25540358e-01 -6.68217897e-01
    -8.60841572e-02 -5.49198568e-01  2.42211130e-02  2.29480356e-01
     1.09791733e-01 -1.57042408e+00  9.48960006e-01 -1.65462387e+00]]

  [[ 5.06945431e-01  6.26599133e-01  4.69737500e-02  3.06256592e-01
     1.71507254e-01  6.39687300e-01  7.64641585e-03 -1.73995763e-01
    -1.80647627e-01  4.73408028e-02  6.63066566e-01 -2.86748037e-02
    -1.05075920e+00 -3.43161523e-01 -1.44225210e-01 -4.63471115e-01]
   [ 3.95490885e-01  6.16364062e-01  5.60834765e-01  1.66818708e-01
    -6.56900704e-01  2.03131422e-01  1.06131071e-02  4.68059182e-01
     6.57574907e-02 -8.65361094e-01  2.07031116e-01 -2.05559537e-01
    -3.96956891e-01 -2.22412303e-01  7.20107317e-01  9.05288160e-01]
   [-2.21823171e-01 -3.72677743e-01 -4.86979745e-02  9.37069207e-02
     4.10031110e-01  6.90339059e-02  2.42127016e-01 -1.90669045e-01
     2.99097568e-01 -6.25316620e-01  7.46670306e-01  3.09209615e-01
    -5.63998222e-01 -9.52774882e-02 -2.92789638e-01 -5.76403916e-01]
   [ 3.20150554e-01  1.46284056e+00 -2.62138486e-01  8.87186527e-02
    -8.87003243e-01 -6.39037834e-03 -1.01415358e-01 -2.37971723e-01
    -3.23696822e-01 -1.77873168e-02  5.12515008e-01  7.09816337e-01
    -1.12737954e+00  2.83190966e-01 -3.27332526e-01  1.52535334e-01]
   [ 2.24084303e-01  1.01608109e+00 -2.88499206e-01 -1.00810282e-01
    -2.79834181e-01  3.87847126e-01  4.50066179e-01  1.52769372e-01
    -1.76836371e-01  3.62272888e-01 -3.34944755e-01 -8.48978162e-02
     5.28717756e-01 -8.28578025e-02 -2.74695992e-01  4.15226549e-01]
   [-1.55823370e-02 -7.13953316e-01  1.42397638e-02  7.06737190e-02
     3.53226811e-01 -7.35554516e-01 -1.50590956e-01 -1.41800553e-01
    -2.10915402e-01 -1.40586102e+00 -3.51498611e-02  6.38162673e-01
    -7.39043176e-01 -1.41122448e+00  1.34893131e+00 -5.31481385e-01]]]


 [[[-1.20800048e-01 -3.93670142e-01  1.30967826e-01  6.12232462e-03
    -5.34456670e-01 -5.17695487e-01  6.16445363e-01  7.49383688e-01
     2.15144634e-01  2.69772202e-01  8.34926963e-02  5.93758643e-01
     1.19784403e+00  4.04910110e-02  5.89261390e-02 -2.37488393e-02]
   [-6.07429743e-01 -2.94509470e-01  5.87096334e-01  4.44857106e-02
     5.05433738e-01  3.60169619e-01  1.17343938e+00 -7.07148552e-01
     1.11000967e+00 -4.75769639e-01  1.23986803e-01  3.97201568e-01
    -5.18473506e-01 -9.48001351e-03 -1.68713355e+00 -1.08461455e-01]
   [-1.36021942e-01 -4.55935299e-01  1.53234318e-01 -4.72462565e-01
    -2.54274812e-03 -1.59024191e+00 -3.40965360e-01  3.00757468e-01
    -4.74486113e-01 -6.11744702e-01 -2.72990733e-01  4.16957662e-02
     9.20904815e-01 -4.22912449e-01  1.21598840e+00 -1.52354032e-01]
   [-1.73943013e-01 -6.90478802e-01 -5.65360337e-02 -2.46281981e-01
    -4.29136902e-01  3.47564846e-01  1.01412880e+00 -1.53199404e-01
     6.60134077e-01 -3.62512231e-01 -1.85552076e-01 -1.19522922e-01
     8.68129551e-01  4.92849916e-01 -6.03181779e-01  6.75588131e-01]
   [ 1.28601000e-01 -1.15767062e+00  1.02623375e-02 -9.16761532e-02
     3.35521221e-01  1.01143348e+00  1.13753104e+00 -7.87429512e-03
    -7.72794755e-03  1.04544210e+00 -3.40986878e-01  1.08484074e-01
    -1.62328824e-01  5.62828958e-01 -3.03713977e-01 -9.23383459e-02]
   [-2.85069436e-01 -8.58025372e-01  1.14530575e+00 -4.92432326e-01
    -5.47244906e-01  3.24379444e-01 -2.27420866e-01 -7.69619465e-01
    -3.64345789e-01 -2.13336311e-02  7.96621919e-01 -2.40469635e-01
     7.36749947e-01 -1.83037385e-01  3.56768429e-01 -1.76627398e-01]]

  [[-3.85620520e-02  5.70446067e-03  3.04049224e-01 -7.94835761e-02
    -3.85945529e-01 -1.09258913e-01  3.83475333e-01  1.16932392e+00
    -1.93172634e-01  2.16777444e-01 -4.22131062e-01  1.94331139e-01
     9.08872426e-01  4.21449900e-01 -4.61320072e-01  1.41682744e-01]
   [-8.00079048e-01 -8.92109796e-03  6.58488333e-01  3.52169275e-01
     3.77499759e-01  2.80526698e-01  1.00381933e-01 -2.38004878e-01
     5.98757207e-01 -1.01785326e+00 -2.89200813e-01  2.83403277e-01
     1.99449167e-01 -3.94418448e-01 -1.96401909e-01 -1.31832436e-01]
   [-1.16195843e-01  3.73472720e-02 -1.51169941e-01 -1.58599392e-01
    -3.56919408e-01 -1.00969458e+00  1.93806350e-01  3.60442549e-01
     2.00806975e-01  4.56669182e-02 -5.46312094e-01 -3.00250888e-01
     2.52423137e-01  9.61588845e-02  3.86213958e-01 -4.05048169e-02]
   [-1.09827137e-02 -4.87102428e-03 -1.63894385e-01  2.69987762e-01
    -4.56534952e-01  1.73918813e-01  4.06620860e-01  1.64225474e-01
    -9.66286112e-04 -9.24920067e-02  2.08082050e-02  1.29277065e-01
     2.73678303e-01  2.60046363e-01 -8.38410616e-01  5.36374986e-01]
   [ 3.21433306e-01 -6.20163441e-01 -4.02737379e-01 -1.54438153e-01
     1.41918967e-02  6.73390031e-01  3.69737923e-01 -6.12273589e-02
    -8.94601345e-02 -2.67397203e-02 -5.21543324e-01  1.76096663e-01
    -3.19279075e-01  1.67626143e-01 -4.75859255e-01  2.90943921e-01]
   [ 5.67441463e-01  5.32616317e-01  7.66752899e-01  8.24898720e-01
     3.03631961e-01  2.70279348e-01 -5.06563604e-01 -3.30491304e-01
    -1.36710572e+00  3.51408184e-01  1.95310876e-01  2.16208801e-01
    -1.35570481e-01 -5.88583052e-01  4.32486564e-01  2.14351401e-01]]

  [[ 4.17172685e-02  3.17191705e-02  1.92940503e-01  1.80966944e-01
    -2.55186623e-03  3.00662696e-01 -8.98340121e-02  6.51860535e-01
    -3.01793158e-01  7.57825792e-01 -3.12260866e-01 -2.82675922e-01
     3.39491278e-01  1.30261213e-01 -3.92015100e-01  5.51117122e-01]
   [-1.53218043e+00 -3.62225622e-02  3.57957840e-01  6.78113937e-01
     8.49373937e-01 -3.05491865e-01 -8.26144695e-01 -1.21536486e-01
     6.40324175e-01 -4.79664564e-01 -1.43596098e-01 -7.66676217e-02
     4.84414250e-01 -4.88249451e-01 -4.50454533e-01 -7.77434587e-01]
   [-2.26442050e-02  9.34860185e-02 -2.00039238e-01 -1.47663727e-02
    -3.89956951e-01  1.34810850e-01  3.76929909e-01  2.35099882e-01
     2.73363739e-01 -5.99696815e-01 -4.17470902e-01 -4.15503323e-01
    -3.58794093e-01  1.04121454e-01 -8.09707046e-02  7.48219073e-01]
   [ 2.62246728e-01  3.34075451e-01 -1.63872257e-01  4.83851522e-01
    -4.50923055e-01 -9.31390598e-02  1.29972532e-01  3.34768802e-01
    -3.38217378e-01  1.48847774e-01 -1.22706935e-01  3.93589169e-01
    -1.29409492e-01  2.79473990e-01 -1.02769375e+00  1.13473097e-02]
   [-5.96855432e-02 -3.26547533e-01 -5.84351480e-01  9.04800743e-02
     5.87539747e-02  6.61430657e-01 -7.77872443e-01 -2.04013526e-01
    -3.41688752e-01  1.07254076e+00 -4.58385974e-01  2.18091413e-01
     5.04950047e-01  2.66338706e-01 -6.41322911e-01 -1.46197245e-01]
   [ 6.48619413e-01  1.74295947e-01  3.04214984e-01  1.61129153e+00
     3.39158289e-02 -6.30182087e-01 -6.20932877e-01  1.68228805e-01
    -1.09132910e+00  2.49040812e-01 -1.50616318e-01  1.38234213e-01
     1.53496146e-01 -1.35169184e+00  6.00555837e-01  3.76043618e-01]]

  [[ 4.57986385e-01  7.80725852e-02  1.99783966e-01  2.97778457e-01
    -5.65389208e-02  3.61776024e-01 -1.37391418e-01  5.37186861e-01
    -1.64292425e-01  3.43719333e-01 -4.78910893e-01 -3.10272574e-01
    -1.09732203e-01 -6.96289241e-02 -4.07160163e-01  8.52785334e-02]
   [-1.21993029e+00 -2.84930021e-01  4.97012734e-02  6.47350073e-01
     3.16289395e-01 -5.56393921e-01  1.86293930e-01 -7.09377080e-02
     2.79588215e-02 -1.06888616e+00  2.89604515e-02 -2.58759651e-02
     2.52479255e-01 -2.37588242e-01  2.68491924e-01 -4.30317521e-01]
   [-1.46911368e-01  1.87171876e-01  3.80560830e-02  2.07654119e-01
    -1.54408634e-01  7.33632565e-01 -1.53440759e-01  6.69570327e-01
     4.92996097e-01 -3.04017588e-02 -2.35181332e-01 -6.43610477e-01
    -3.66709977e-01 -8.92960206e-02 -5.00739992e-01  9.28629041e-01]
   [ 3.34198296e-01  6.22779369e-01 -3.49254198e-02  5.12986720e-01
    -3.59293491e-01 -1.06083348e-01  2.22185135e-01  1.52427584e-01
    -3.53329152e-01  1.05365470e-01  1.96850285e-01  5.20131826e-01
    -5.17818093e-01  2.58472919e-01 -9.36481357e-01 -3.70237589e-01]
   [-1.17621772e-01  1.71012074e-01 -6.36330396e-02 -6.89930975e-01
     6.78653896e-01  3.82957548e-01  2.65102863e-01 -1.07133552e-01
    -2.82281667e-01  4.26195450e-02 -4.52546209e-01  2.76710421e-01
     2.99626857e-01  1.19309790e-01 -3.80081266e-01 -5.73473036e-01]
   [ 3.93165469e-01 -2.93465137e-01  2.58760303e-01  1.28339863e+00
    -1.32667050e-01 -1.26884174e+00 -2.42796972e-01  3.47299464e-02
    -2.79944450e-01  3.65551323e-01 -2.43675753e-01  3.36159505e-02
     5.11586368e-01 -6.13253653e-01  4.33347046e-01 -6.37248158e-01]]

  [[ 1.05935550e+00  6.77310705e-01  1.78064689e-01  3.09659541e-01
     1.75364047e-01  7.39981294e-01  1.24988675e-01 -1.90531611e-01
    -8.23328942e-02  1.79579645e-01  4.76390153e-01 -5.82370162e-02
    -1.33922243e+00  1.90888464e-01  1.91090137e-01 -3.52991372e-01]
   [-9.74440455e-01  6.56119227e-01  2.20493942e-01 -5.52855611e-01
    -7.47421533e-02  9.65159833e-01 -2.68459380e-01  2.68368244e-01
    -2.44807284e-02 -4.67036515e-01  1.24343477e-01  1.17063299e-01
    -4.29504901e-01  4.29567456e-01 -1.47840613e-02  7.75685012e-01]
   [ 2.79837906e-01 -4.02646989e-01  7.81801194e-02  3.64020914e-02
     1.62358224e-01  1.13910891e-01 -1.93941623e-01  5.12788475e-01
     4.34121609e-01 -6.51552737e-01  4.04647529e-01 -1.22158855e-01
    -5.76768219e-01 -5.81566513e-01 -3.36019427e-01 -5.73660135e-01]
   [ 1.11013219e-01  1.56242120e+00 -3.07657719e-01  1.54650941e-01
    -6.76028788e-01  2.78995812e-01  4.65765893e-01  1.69845000e-01
    -2.53857166e-01  3.10990084e-02  1.36886477e-01  6.89439356e-01
    -1.05352485e+00  2.60041833e-01 -4.68672007e-01  2.79938169e-02]
   [-1.36220247e-01  4.90516543e-01 -2.86487073e-01 -5.67298830e-01
     1.66685835e-01  9.88009751e-01  7.70705462e-01 -3.54950577e-01
     1.65726766e-01  4.61914003e-01 -2.80362844e-01  2.70259857e-01
     4.24572110e-01  1.99314147e-01  6.56929687e-02 -3.25424343e-01]
   [-4.15619850e-01 -5.83641827e-01  1.65127426e-01  3.72613430e-01
     7.47456551e-02 -6.13040030e-01 -3.24361116e-01 -4.85476226e-01
    -3.07171881e-01  1.84185445e-01 -5.79903066e-01  4.38244849e-01
    -2.92668372e-01 -2.83020705e-01  5.54750919e-01 -1.09309447e+00]]]


 [[[ 2.39599109e-01 -2.35903665e-01  2.68987387e-01 -8.70932102e-01
    -5.67461178e-02 -7.94759989e-01  5.70174009e-02  6.70813322e-01
     3.15755695e-01 -5.16008198e-01  1.81123212e-01  3.63071740e-01
     5.34505308e-01 -8.57954472e-02 -2.58173913e-01 -2.32829034e-01]
   [-7.64855385e-01 -2.20339950e-02  8.06387603e-01 -1.62522697e+00
     8.25732648e-01  1.45870164e-01  7.52709627e-01 -1.03112268e+00
     4.56746280e-01 -1.88237101e-01  4.86275315e-01  1.42053053e-01
    -6.89918339e-01 -7.04581201e-01 -4.93232369e-01 -2.85319686e-01]
   [ 5.94389662e-02 -1.00917637e+00 -1.39318123e-01 -2.90957510e-01
    -8.69624764e-02 -8.51886451e-01 -3.82635057e-01  3.06255966e-01
    -1.67132586e-01 -5.93285561e-01 -1.77055418e-01  6.19762897e-01
     1.92159489e-01 -3.09743345e-01  8.90237987e-01  1.51551828e-01]
   [-1.64498448e-01 -2.61985838e-01 -6.97183013e-02 -7.63221979e-01
    -1.61911547e-01  4.06962812e-01  1.21720397e+00 -9.32883546e-02
     5.41099966e-01 -5.14281511e-01 -2.06979945e-01 -1.19920611e-01
     4.73192215e-01  2.80031532e-01 -4.76668984e-01  3.95946115e-01]
   [ 1.28099233e-01 -7.70736575e-01  2.01269239e-01 -1.30426359e+00
    -2.47274086e-01  6.29588842e-01  8.32540095e-01  8.99954364e-02
     2.48458758e-01  5.80980897e-01 -3.72486115e-01 -2.51140893e-01
    -5.77191055e-01  3.52226764e-01 -8.65923643e-01  1.10830307e-01]
   [ 2.33269811e-01 -4.83643770e-01  4.01328027e-01 -3.39616656e-01
    -1.67184889e-01  3.67104918e-01 -1.71940625e-01 -9.25446630e-01
    -9.47767675e-01  5.59137642e-01  8.10351610e-01 -1.04297400e-01
    -3.43907997e-02  3.08525890e-01  8.03493023e-01 -5.93339086e-01]]

  [[-1.36364818e-01 -2.62102664e-01  5.53874791e-01 -8.26767683e-01
    -6.93440018e-03 -3.36279839e-01  7.03861564e-02  5.49074888e-01
    -3.08659554e-01 -6.10396527e-02  2.73593366e-01 -1.87046081e-02
     1.38136253e-01  2.76415888e-02 -3.73714685e-01 -1.16443284e-01]
   [-1.31285000e+00 -1.66997656e-01  2.15932310e-01 -2.37080431e+00
     4.33328837e-01 -3.78185332e-01 -2.30433047e-01 -8.15138698e-01
    -1.52936444e-01 -2.91240722e-01  3.51772368e-01  9.23537984e-02
     2.85605133e-01 -4.85192895e-01  7.01258719e-01 -3.95287164e-02]
   [-9.41172615e-02 -2.74004042e-01 -9.53300484e-03 -2.21762583e-01
    -2.50591964e-01  8.61829221e-02  2.48055439e-02  2.03698233e-01
     4.74390149e-01 -1.56895518e-01 -8.55572820e-01  6.52071759e-02
     8.98389961e-04 -4.23380852e-01  1.50774226e-01 -9.87627655e-02]
   [-5.99437356e-02  1.94759905e-01  6.35749772e-02 -5.53843319e-01
    -2.18185067e-01 -5.78332925e-03  5.89232147e-01  1.29262492e-01
     1.20462306e-01 -2.23161831e-01 -1.64646834e-01 -5.24215363e-02
    -3.66251245e-02 -8.78486484e-02 -6.35994732e-01  1.66636661e-01]
   [-1.00218035e-01 -3.36798549e-01 -2.48497531e-01 -1.70667315e+00
    -2.68951446e-01  4.73453432e-01  3.00685167e-01 -1.72015488e-01
    -1.89691678e-01  3.36541921e-01 -1.21184632e-01 -1.12317584e-01
    -1.17306024e-01  5.19197404e-01 -8.37167129e-02  9.68252271e-02]
   [-4.43614393e-01 -8.95048082e-02  1.38518989e+00 -4.13767338e-01
     1.94185078e-01 -8.95485103e-01 -1.69883966e-01 -6.41234517e-01
    -9.87723291e-01  5.41830599e-01 -1.42632008e-01 -1.98433831e-01
    -4.41762418e-01 -5.15217125e-01  1.43243015e-01 -3.80961448e-01]]

  [[ 2.12349325e-01 -1.72997192e-01  3.48776489e-01 -1.06417549e+00
    -3.57987881e-02  7.42093101e-02 -1.06468052e-01  7.85724699e-01
     1.97337106e-01  3.11460316e-01  3.90890300e-01 -1.08157622e-03
    -4.92055088e-01 -3.76176313e-02 -9.28524435e-01 -1.28951922e-01]
   [-1.17593443e+00  4.27601576e-01  2.41341636e-01 -2.57945561e+00
     4.54807840e-02 -6.94165707e-01 -7.27111161e-01 -5.98218739e-01
     3.55362564e-01 -2.22091168e-01  2.79436707e-01 -2.05856591e-01
    -7.81594738e-02 -2.32680947e-01  9.27003622e-02  2.03654338e-02]
   [-2.31143415e-01 -3.85694146e-01  5.65607920e-02 -6.95031583e-01
     7.18472749e-02  4.88850385e-01  1.89190164e-01  2.57059801e-02
     3.19664210e-01 -4.93730515e-01 -4.17432219e-01  1.40391767e-01
    -7.80010879e-01 -2.96743751e-01 -6.85397536e-02  7.28863895e-01]
   [-1.21543154e-01  3.93931478e-01  2.99681067e-01 -5.88740945e-01
    -1.00201435e-01 -7.31619820e-02  2.78473914e-01  3.67695302e-01
     2.28313040e-02  9.01433527e-02 -3.69540006e-01  2.41365448e-01
     6.04248531e-02 -1.50594145e-01 -5.64700246e-01 -4.44033295e-02]
   [ 3.07575911e-01 -1.03185609e-01 -3.75014037e-01 -1.16756177e+00
    -6.41696900e-02  5.93070686e-01 -2.42480755e-01 -3.78157347e-01
     2.29455605e-01  7.94158697e-01 -1.93949595e-01 -9.00928676e-02
    -1.19292096e-03  2.90819734e-01 -1.90840304e-01  6.02361500e-01]
   [ 6.32845312e-02 -8.52468163e-02  1.30434608e+00 -3.67603421e-01
     3.02285880e-01 -1.49797285e+00  2.03926638e-01 -3.14846277e-01
    -3.41459721e-01  7.57929504e-01 -4.90658402e-01  5.90904653e-02
    -1.90802254e-02 -1.27337366e-01  7.03218579e-01  2.16346353e-01]]

  [[ 9.77390539e-03 -3.14605352e-03  6.55983508e-01 -8.03167641e-01
     1.96259120e-03  9.05624688e-01  5.36105782e-02  6.67017221e-01
     7.34821782e-02  1.22678623e-01  6.70312643e-02  4.30181995e-02
    -7.29140639e-01 -1.98171705e-01 -7.46837258e-01 -1.79235592e-01]
   [-1.88634050e+00 -2.27417171e-01  2.49807417e-01 -2.25315356e+00
     1.31216496e-01  1.40430677e+00 -1.34609416e-02 -4.80062693e-01
    -1.65294379e-01 -5.04873157e-01  1.89174220e-01 -2.71356881e-01
     1.77834138e-01  3.44801128e-01 -8.19266960e-02  9.04154032e-02]
   [-2.36824334e-01 -3.81024852e-02  2.39436641e-01 -4.39516395e-01
     8.04058835e-02  7.96345294e-01 -1.56421289e-01  5.10007441e-01
     5.92121005e-01 -1.22613661e-01  4.07821462e-02 -2.86334986e-03
    -5.46105921e-01 -8.33620906e-01 -2.42701426e-01  8.16463828e-01]
   [ 2.36822128e-01  4.64119434e-01  3.48055422e-01 -4.26093102e-01
    -2.97734648e-01  2.03044295e-01  4.42232460e-01  2.86354572e-01
    -1.14971921e-01 -1.13624046e-02 -2.60104805e-01  4.29548502e-01
    -1.22837804e-01  9.80765373e-03 -8.40530396e-01 -2.89867520e-01]
   [ 2.47803017e-01 -5.43765258e-03 -3.42390269e-01 -1.18935752e+00
    -8.26158285e-01  6.94474936e-01  1.15135908e-01 -2.12924510e-01
    -1.46744668e-01 -3.10113907e-01 -2.03196824e-01  1.43006459e-01
    -1.41732201e-01  4.66184705e-01  3.19525152e-02 -3.71722668e-01]
   [ 3.96012455e-01  1.22059405e-01  1.10607195e+00  3.10163628e-02
     1.53255284e-01 -5.07693589e-01 -2.72932649e-02 -2.85173923e-01
    -3.98229033e-01  7.92653918e-01 -2.61352003e-01  1.83711991e-01
    -2.35254705e-01  3.54950875e-02  6.85778081e-01  1.37797639e-01]]

  [[ 5.35183489e-01  2.25610614e-01  3.14538479e-01 -8.38814795e-01
     3.46142217e-03  7.87866592e-01  3.18616116e-03  6.82474673e-01
     3.61721456e-01 -1.62668899e-01  6.32673860e-01 -1.31777972e-01
    -1.76306581e+00 -6.90477416e-02 -9.24493551e-01 -3.14332366e-01]
   [-1.96902525e+00  2.80694455e-01 -3.89959455e-01 -1.07590032e+00
     9.06326026e-02  1.33795977e+00 -5.36240876e-01  2.37899218e-02
    -2.82134533e-01 -8.41536745e-03 -1.17635913e-01  4.69882321e-03
    -5.27457058e-01  1.12966187e-01 -3.86378407e-01  2.34353632e-01]
   [ 1.12906126e-02 -7.54362857e-03  2.60082394e-01 -6.26008451e-01
     2.13020686e-02  7.32527852e-01 -3.20234716e-01  7.63302147e-01
     3.58453691e-01 -8.78622174e-01  7.60916352e-01  2.14782223e-01
    -6.90168798e-01 -8.01844954e-01  2.22290754e-01  1.34839281e-01]
   [ 1.05886832e-01  1.00925660e+00 -5.73822148e-02 -1.45666420e-01
    -4.22959894e-01  2.40997851e-01  5.13153076e-01  6.19786382e-01
     9.75187570e-02  7.45075047e-02 -3.74285311e-01  4.50629890e-01
    -1.00580585e+00  4.67845611e-02 -4.88164932e-01 -1.18107490e-01]
   [ 3.65257740e-01  2.57933140e-01 -8.33723009e-01 -1.12851143e+00
    -9.40070301e-02  8.73979568e-01  6.31872833e-01 -1.74711704e-01
    -5.66206016e-02  1.98739529e-01 -1.81703135e-01  5.05563200e-01
    -2.13143572e-01  3.36986110e-02 -5.17032683e-01 -6.55165136e-01]
   [ 7.83728436e-02 -4.78014201e-01  1.54907316e-01  1.18780959e+00
    -1.12443812e-01  1.56027004e-01 -4.09287304e-01 -4.73442137e-01
    -5.17333567e-01  8.63905668e-01 -5.80120623e-01  1.28411865e-02
    -1.14117491e+00 -2.62214094e-01  8.92001748e-01 -8.95698667e-01]]]]
le_net5/conv2d_1/bias:0
(16,)
[ 0.7751757  -0.07902409 -0.5355986  -0.61143047 -1.2502283   0.5267879
 -0.88876486 -0.48609668 -0.46712667 -0.50156105 -0.6027677  -0.37705708
 -1.2183942   1.2043571   0.06693245 -0.6503181 ]
le_net5/dense/kernel:0
(400, 120)
[[ 2.22715884e-02 -5.52687764e-01 -8.01052675e-02  5.21179549e-02
   2.00990617e-01  7.41760373e-01 -1.33516952e-01  9.47899595e-02
   1.70581918e-02 -7.44338989e-01 -7.58706331e-01  4.15405929e-01
   2.53504217e-01 -5.52181542e-01 -9.56243634e-01  1.94061175e-01
   9.26759124e-01  2.61788279e-01 -9.33385730e-01 -2.72207648e-01
   3.82995248e-01 -1.78674132e-01 -8.74551088e-02 -4.35765624e-01
   9.58204791e-02  3.38329524e-01 -1.16547970e-02 -1.34511843e-01
   3.82512599e-01  1.09478927e+00 -1.12578183e-01 -6.38663828e-01
  -3.29144776e-01 -7.36313105e-01 -2.65494525e-01  2.73760468e-01
  -5.02996683e-01  4.22471985e-02  2.49518022e-01 -6.46669328e-01
   7.16917217e-01 -3.67568374e-01 -1.53281733e-01  1.70467440e-02
   4.16633576e-01 -1.21330714e+00  6.75216854e-01 -5.42662323e-01
   3.92466128e-01  5.32480061e-01  1.81721866e-01 -5.30886687e-02
   2.48013005e-01 -2.84833282e-01  6.20561600e-01  3.32334369e-01
  -1.62585095e-01 -1.31340891e-01  5.18830895e-01 -6.17367566e-01
   6.64697886e-02 -2.62336820e-01  4.06696081e-01  4.68731135e-01
   6.31572306e-01  5.35588801e-01 -1.52103426e-02  4.36721653e-01
  -5.51982105e-01 -1.32157159e+00  6.74992621e-01 -5.97385645e-01
  -2.32340068e-01 -8.86151075e-01  2.88815815e-02 -7.79978395e-01
  -8.76479566e-01  4.05535668e-01 -1.67437568e-01  1.03851151e+00
   3.25413309e-02 -8.06751922e-02  5.16437054e-01  5.82402885e-01
   1.01910429e-02 -4.08728272e-01 -2.79533844e-02 -1.03278242e-01
  -4.58320826e-01  2.62975544e-01 -6.54753566e-01 -9.44522858e-01
  -2.74259925e-01 -4.71004725e-01  8.15781355e-01  2.14906156e-01
   3.39474976e-01 -5.88273466e-01 -5.02259791e-01 -4.54816282e-01
  -5.51735938e-01 -3.49217147e-01  7.13007033e-01  4.67532396e-01
   5.29021502e-01 -2.55550057e-01 -6.43703103e-01  3.96549702e-01
  -3.32245320e-01 -3.15773875e-01 -2.39997327e-01  2.24181980e-01
  -1.95401832e-01  2.58670241e-01 -2.79067099e-01  1.13538936e-01
  -3.05370361e-01  4.56342362e-02  6.46355093e-01  7.35110044e-01]
 [-2.59685099e-01  1.61907021e-02 -1.35201558e-01 -2.81974692e-02
   8.56832415e-02  1.01140678e-01 -6.70490324e-01 -8.00067723e-01
  -2.01064393e-01 -6.52580023e-01 -4.74167988e-02  1.33219469e+00
   1.67900510e-02 -1.48145586e-01 -7.55790472e-01 -3.39789957e-01
  -7.44205862e-02  3.49953771e-01 -1.25366256e-01  3.57813299e-01
   1.19621027e+00 -3.36016506e-01  1.09749675e-01  1.51710927e-01
   2.62659967e-01  4.35914993e-01  2.22615507e-02 -1.48990020e-01
   3.61052714e-02  1.51494503e-01  3.90253335e-01  3.93944353e-01
  -1.14742950e-01 -3.18557292e-01  9.75957215e-02  1.11611672e-01
  -3.15740645e-01 -1.04307100e-01  4.68199849e-01  4.84433711e-01
  -5.22594247e-03 -8.63132834e-01 -1.29203808e+00  9.75129604e-01
   3.45767409e-01 -1.98133731e+00  7.08445370e-01 -3.85971844e-01
  -1.24333715e-02  1.18663728e-01 -2.77303904e-01  5.34454107e-01
   3.98944825e-01  4.59164113e-01  4.27141130e-01  6.56937182e-01
   3.97818357e-01  5.88233352e-01  4.28725362e-01  9.92561340e-01
  -8.20533633e-01 -4.34646785e-01  4.30395246e-01  4.63104755e-01
  -5.63043654e-01 -4.22129601e-01 -6.92363381e-01  2.97868252e-01
  -1.16953361e+00 -1.80011332e+00  1.32855034e+00  1.11751787e-01
  -2.94708818e-01  2.17423648e-01 -1.42569274e-01  4.35880601e-01
   9.26482439e-01 -2.72260725e-01  6.13792464e-02  1.26626240e-02
  -8.92844558e-01 -1.48060942e+00  1.71688691e-01 -9.53288153e-02
   2.69930929e-01  4.68126804e-01  4.86624002e-01 -8.88177693e-01
   4.35767144e-01  4.04007584e-01  5.59195757e-01 -6.81480467e-02
   4.41312557e-03  6.24970555e-01 -2.40851402e-01 -1.80415645e-01
  -1.45958245e+00  7.22735405e-01 -1.20543033e-01  1.27210259e-01
  -9.26188007e-02 -8.04830790e-02 -1.72226816e-01  4.71845597e-01
   1.05473077e+00  2.92493761e-01 -1.72408044e-01 -3.32102597e-01
   2.58550256e-01  2.30862468e-01  5.45205712e-01 -8.25164258e-01
  -4.55802828e-01  5.29714525e-01  3.36842090e-01  3.69076371e-01
  -1.07825148e+00  9.98357981e-02  9.36622620e-01 -4.43967044e-01]
 [ 6.49455309e-01 -1.00302863e+00  6.01614296e-01  4.33890134e-01
   3.53327364e-01 -7.20073104e-01  4.50194806e-01 -1.98259428e-01
   1.78445145e-01 -2.64237821e-01 -4.73489970e-01 -3.70621145e-01
  -5.53524375e-01 -1.17215939e-01  2.28719324e-01  6.15603149e-01
   1.68437004e-01 -9.75682497e-01  1.19206280e-01  5.12456119e-01
  -1.47381544e-01 -5.61642051e-02 -2.18627393e-01 -5.09062588e-01
   1.56011879e-01 -8.27302337e-02 -3.63720655e-01  2.27070481e-01
  -7.28642475e-03 -4.92577881e-01 -3.01563174e-01  1.90667622e-02
  -5.25249660e-01  2.14942455e-01  1.05422065e-01  2.46008784e-01
   1.02952451e-01  5.91852427e-01  6.67844117e-01  3.76462817e-01
  -2.72667140e-01  3.57436806e-01 -1.76659107e-01  9.57030579e-02
  -1.25489816e-01 -2.36652255e-01 -1.79334700e-01 -1.45660564e-01
  -4.13423687e-01 -2.38659158e-01  2.80566901e-01 -3.93838823e-01
   1.59709632e-01  4.64913249e-02  1.23800159e+00  2.87643433e-01
   6.85506225e-01 -7.68384695e-01 -1.85472116e-01  2.97713041e-01
  -1.15321827e+00  1.14466608e-01  7.21915206e-03 -1.64527938e-01
  -1.22950472e-01 -1.70867229e+00 -2.08886564e-01  2.00915545e-01
  -9.37142596e-02 -1.00977409e+00 -1.10959709e-01  4.88255292e-01
  -2.03669310e-01  5.47918618e-01  7.50541454e-03  1.58539131e-01
   2.91772991e-01  1.90299630e-01 -2.69384861e-01 -8.84996772e-01
  -7.50039816e-01 -5.07060647e-01  2.09430069e-01 -1.68731511e+00
   8.77062455e-02 -9.32588279e-02  1.38793066e-01  3.18542898e-01
  -2.19791353e-01  9.95428562e-02 -7.43117392e-01  4.11226153e-01
  -4.79636610e-01  3.12390447e-01  1.25285298e-01  5.70909142e-01
  -1.42981872e-01  1.44960335e-03 -4.70590889e-02 -4.53387916e-01
   1.49662141e-02 -6.44486845e-01  1.31597206e-01  9.43629801e-01
  -5.52971721e-01 -2.82916665e-01 -2.82091081e-01  6.65519416e-01
   6.61943078e-01 -1.66756976e-02 -2.98655987e-01  7.89962530e-01
   1.53928131e-01 -2.07177978e-02 -4.00733203e-01 -4.53050770e-02
  -1.07915215e-01  4.16317731e-01  6.01151101e-02 -3.08009088e-01]
 [ 1.22351348e+00  6.25909790e-02  5.79952896e-01  3.42477337e-02
   1.64602354e-01  9.39762771e-01 -1.71129271e-01  1.78648889e-01
   1.31191552e-01 -8.44185412e-01  3.38443726e-01 -1.68811113e-01
  -2.82463431e-01 -9.38455909e-02  7.45850444e-01  2.94739276e-01
   1.78212553e-01 -3.27800989e-01  1.41078025e-01  4.99103606e-01
   1.13775797e-01  8.19563627e-01 -1.22895159e-01 -8.18816662e-01
   1.16674513e-01 -5.42934597e-01  5.89723468e-01  6.61363602e-02
   2.28490636e-01  3.88641804e-01 -2.18873382e-01 -4.83000100e-01
   2.97851503e-01 -3.91358994e-02 -6.85623229e-01 -8.80853385e-02
   6.83899224e-01  9.67977419e-02 -2.20093638e-01 -6.56234741e-01
   2.21400917e-01  1.69251367e-01 -3.62695307e-01 -4.22011763e-01
   1.86941579e-01  7.10662842e-01  1.71342686e-01  4.46924210e-01
   2.95259982e-01 -2.11172208e-01 -8.00534844e-01  6.34167716e-02
  -1.86061338e-01 -9.50052500e-01 -5.13261318e-01  8.07758451e-01
   4.70584393e-01 -4.56062973e-01  3.78230214e-01  9.83948350e-01
  -9.19110239e-01 -6.15083873e-01 -2.00595066e-01 -1.19412529e+00
  -7.71108091e-01 -1.06935000e+00  4.12154615e-01  2.46988058e-01
   5.71598001e-02  6.24519646e-01 -1.46033064e-01 -2.74527103e-01
  -1.25630939e+00 -4.56281990e-01  2.97411293e-01  2.86604855e-02
  -2.32274503e-01 -3.74249876e-01  1.34171784e-01  3.72082680e-01
  -7.10009992e-01 -1.17824805e+00 -3.42123449e-01 -1.58347636e-01
  -4.77766544e-01  1.24351114e-01  3.67348701e-01 -6.27750397e-01
   5.67110293e-02 -6.00043833e-01  2.70587474e-01  1.27288175e+00
  -3.24500561e-01 -6.84116483e-01  2.99387753e-01  2.31472746e-01
   6.05257273e-01  1.40888286e+00 -6.13764703e-01  1.37636411e+00
  -5.32059193e-01 -3.39758322e-02 -4.90785688e-02 -1.08402050e+00
   5.45716465e-01  5.26765823e-01  9.70964789e-01 -9.55577850e-01
  -5.93791194e-02  8.93654898e-02 -9.65706646e-01 -4.83069897e-01
  -5.52697599e-01 -2.43655175e-01 -7.60071576e-01 -7.09965706e-01
   5.23791075e-01 -1.07841015e+00 -2.44122799e-02 -3.36453050e-01]
 [ 1.32817864e-01 -1.20898449e+00 -8.34067464e-02 -5.05038500e-01
  -4.29813415e-01 -8.48081231e-01 -2.46613309e-01  6.01140141e-01
   4.41538952e-02  1.76894322e-01  3.31489652e-01 -7.49684453e-01
   8.03454742e-02  4.55644250e-01 -4.16001201e-01  1.43323988e-01
   3.50102365e-01  1.27350137e-01 -6.21027887e-01 -6.31958723e-01
  -6.66078255e-02  1.59261033e-01 -9.63366684e-03  3.14218640e-01
  -4.98260893e-02 -5.86080372e-01 -1.89584047e-01 -3.03165726e-02
  -7.44310170e-02  8.43735710e-02 -8.92156288e-02  4.55223769e-01
   1.01312257e-01 -2.40143746e-01 -8.14580142e-01 -1.46262586e-01
   1.14427023e-01  1.75058782e-01 -5.74478460e-03  4.11420256e-01
   6.79407567e-02  2.90704668e-01 -2.90267348e-01 -9.95108843e-01
   3.83662552e-01 -4.01011854e-01 -1.66718915e-01  7.32707620e-01
   2.06866711e-01 -2.34513104e-01 -4.09587659e-02 -2.66673088e-01
   9.65566859e-02 -2.81608880e-01 -1.42359585e-01 -1.78129505e-02
   1.01910392e-02  4.09832537e-01 -3.75518709e-01 -1.26312956e-01
   4.78892654e-01  1.89369321e-01 -1.49631985e-02 -4.13117856e-02
  -5.11923552e-01 -5.91104388e-01 -8.72974157e-01  4.85208958e-01
  -1.57908693e-01  1.45668134e-01 -2.53908664e-01  1.11053484e-02
   2.18185648e-01 -1.89349547e-01 -6.05129421e-01  1.06359214e-01
   1.39081523e-01 -5.72733402e-01  6.00146532e-01 -3.14437538e-01
  -1.25317238e-02 -4.58556354e-01  4.76291552e-02 -4.39429283e-01
   9.50898290e-01  3.83949690e-02  3.09477113e-02 -8.82827044e-02
  -3.23802918e-01  9.35343057e-02  2.21997008e-01 -1.14449096e+00
  -5.23019612e-01 -8.19330290e-02 -1.34691441e+00 -4.12013799e-01
  -2.42433280e-01  4.07344073e-01 -3.98191780e-01 -4.33591940e-02
  -1.42044142e-01 -9.98178348e-02  3.91227186e-01 -6.57007456e-01
  -2.98109621e-01  4.95082855e-01  4.65211980e-02 -5.77022076e-01
   3.35267961e-01 -5.35648540e-02  2.77844876e-01 -8.74765635e-01
  -4.92733747e-01  5.66113949e-01  1.24066100e-01  2.35143825e-01
  -1.53833821e-01 -2.66306996e-01  1.36901498e-01 -6.16879985e-02]
 [-4.16221738e-01 -3.93757708e-02 -8.30528289e-02  4.06520426e-01
   5.68626046e-01  3.02085042e-01 -7.19958067e-01  9.42589998e-01
   1.50758147e-01  3.14763308e-01 -7.25579798e-01  1.16334073e-01
  -1.64887518e-01 -4.13445771e-01 -8.07384178e-02  1.62883699e-02
   7.87206471e-01 -5.85746527e-01  7.72918999e-01 -2.04400390e-01
   5.06366432e-01 -2.90034171e-02  1.09826632e-01 -6.48580432e-01
  -2.68224746e-01  3.99987042e-01  6.16384931e-02 -3.75615686e-01
   7.64460504e-01  1.05213261e+00 -1.61925614e+00 -8.33459079e-01
  -1.00492477e+00 -1.17885101e+00 -5.07676244e-01  4.78688955e-01
   2.20401380e-02 -2.27118671e-01  1.76481873e-01 -2.96926409e-01
   2.82973140e-01  2.02319607e-01 -3.76595885e-01  5.65541387e-01
   1.01471388e+00 -1.26525044e-01  4.19214249e-01  7.75068030e-02
   8.33862126e-01 -2.02896982e-01  3.11804473e-01 -8.12808514e-01
   2.00398326e-01  1.07977293e-01  6.54827654e-01 -7.72357658e-02
  -6.03069030e-02  6.93226576e-01  7.14738369e-01 -8.12708676e-01
   7.35482275e-01 -3.46691549e-01  5.87327480e-01  3.04920554e-01
   2.25280821e-01 -1.04140556e+00 -1.63337052e-01  7.50461221e-01
   4.50052381e-01 -1.80075467e+00 -4.32153016e-01 -2.34794870e-01
  -8.80793750e-01 -7.42311954e-01 -2.75873214e-01 -8.34692240e-01
   1.65234372e-01  1.70415938e-01  1.84167638e-01 -4.78506327e-01
  -1.03936553e-01  3.15663330e-02  6.51061535e-02  1.01858698e-01
  -9.74679410e-01 -1.80331802e+00  3.45149487e-01 -2.74293214e-01
  -4.28735554e-01  5.27120531e-02 -1.10672474e+00 -1.07605219e+00
   1.60507098e-01 -5.34792423e-01 -3.50426929e-03 -1.02513492e-01
  -6.22378469e-01 -5.69538414e-01 -8.32966268e-01 -1.34381723e+00
  -6.16823137e-01 -3.09423566e-01  4.40888196e-01  4.00370866e-01
  -1.58013344e-01 -5.17428398e-01 -9.72694397e-01  4.55921352e-01
  -1.31521849e-02 -1.53150403e+00  2.49841750e-01 -3.38539839e-01
   1.00918397e-01  1.45105258e-01 -9.71471786e-01  2.90486902e-01
  -1.00240231e+00 -1.00464232e-01  5.73761940e-01  3.07066143e-01]
 [ 6.40258372e-01 -3.76086205e-01 -7.78394699e-01 -6.74907267e-01
  -3.82710963e-01  1.01114440e+00  6.91996992e-01  2.90636942e-02
  -1.46317333e-01  3.37254494e-01 -3.75770554e-02 -2.18801767e-01
   4.40734506e-01 -1.91858336e-01 -5.58899045e-01 -6.51973411e-02
   5.88628709e-01 -3.61530632e-01 -3.96110713e-02 -4.05235142e-01
  -3.15104313e-02  3.53477120e-01 -1.31277964e-01  2.76891142e-01
   9.08056460e-03  2.96077132e-01  6.54619992e-01 -2.35506952e-01
  -6.67374074e-01 -2.33572617e-01 -1.76321000e-01 -4.11775231e-01
   1.95619285e-01  6.43388987e-01  1.27296591e+00  3.89558405e-01
   3.91253024e-01  2.13330135e-01 -9.67645228e-01  1.99674040e-01
   7.99647629e-01 -3.83627005e-02 -6.53149843e-01  1.18559211e-01
  -5.67368455e-02  2.37528026e-01  4.84568387e-01  1.03885986e-01
  -9.26767051e-01  2.92639136e-01 -2.90855408e-01  7.87741393e-02
   9.68931243e-02  3.99273992e-01  9.16356146e-01 -6.48649633e-01
   2.48138174e-01 -3.93192410e-01 -6.21156394e-01  1.74560696e-01
  -4.49552983e-02 -3.70180607e-01 -1.22347653e-01  1.11380458e+00
  -2.60521710e-01 -6.08844936e-01 -4.24758404e-01  6.85021698e-01
   1.89988300e-01 -4.73623425e-01 -2.62943476e-01 -5.22174239e-01
   7.95783818e-01  6.98386014e-01 -1.23193049e+00  6.92375779e-01
  -1.55138862e+00  5.22871614e-01  2.26261560e-02  5.39997876e-01
   2.98025548e-01  9.34277833e-01 -8.71428698e-02  1.91682965e-01
  -3.58926594e-01  3.68486911e-01 -2.22642142e-02  4.41014171e-02
   2.80686140e-01 -1.72773153e-01 -1.06351876e+00 -6.01940677e-02
  -4.62225318e-01 -2.97552794e-01  5.23187757e-01 -5.87966800e-01
  -8.40617180e-01  9.14789140e-01 -1.99140564e-01 -7.86308348e-01
  -4.23294276e-01  4.02679592e-01  3.47795486e-01 -9.14036095e-01
   4.61872190e-01  3.62249166e-01 -4.79383647e-01  2.46067479e-01
   5.64050972e-01  2.72599339e-01 -6.41557217e-01  9.35568288e-02
  -3.39785963e-01  7.40304291e-01 -4.64146227e-01  1.18597722e+00
  -2.13207737e-01  3.80931407e-01 -5.27483337e-02  1.32088184e-01]
 [ 5.41506290e-01  2.68971324e-01 -9.08387303e-01  2.61630088e-01
  -4.29700136e-01  4.99602288e-01 -1.21999085e+00 -1.34047854e+00
  -9.12961483e-01  7.90373534e-02 -1.28480926e-01  1.71851769e-01
  -2.28832170e-01 -3.52169037e-01 -2.90730894e-01 -1.79391410e-02
   5.67107439e-01  5.68502665e-01  5.71630180e-01  8.95208586e-03
   3.33293289e-01  1.37748092e-01  1.76113665e-01 -1.52224764e-01
   5.69572747e-01 -2.35349387e-01 -2.40526870e-01 -5.35572529e-01
   9.72871959e-01 -5.65809309e-01  2.61608541e-01 -7.99173474e-01
   1.98728412e-01 -1.61600626e+00 -1.96951613e-01  1.03556025e+00
   1.15315127e+00 -1.09754932e+00 -1.01225305e+00  1.98724315e-01
  -1.45153701e-01  6.87367141e-01 -3.76261175e-01 -1.68444538e+00
  -2.08997011e-01  3.81391227e-01 -1.72184452e-01  8.41596842e-01
   1.06859517e+00 -8.69477913e-02  2.63152812e-02 -1.47459999e-01
   2.91004300e-01  7.66780496e-01  3.31379682e-01  7.47726381e-01
   3.90333146e-01 -6.18437529e-01  8.67952555e-02  1.16871139e-02
  -6.18574135e-02  3.86471033e-01  2.87694454e-01  3.00994217e-01
  -9.74803805e-01 -8.95788193e-01  1.93113655e-01  1.36602014e-01
   3.98188680e-01 -1.11443150e+00 -4.90540154e-02 -2.46953622e-01
   1.21995842e+00  8.34089696e-01  8.76626134e-01 -5.98396361e-01
   6.65776551e-01  4.19208556e-01  9.06225145e-01  2.49641478e-01
   2.35550791e-01  4.33724165e-01  6.80783838e-02  4.50246751e-01
  -4.82272416e-01 -4.49265867e-01 -1.21118501e-01  4.49122399e-01
  -5.88822737e-02 -6.70843065e-01 -2.03038380e-02 -2.24568033e+00
   9.39005017e-01  7.83153236e-01 -1.11991131e+00  9.80702460e-01
   1.60107270e-01  9.64635253e-01 -6.17847741e-01 -1.13718569e+00
  -1.38548052e+00  1.88925907e-01 -5.94296038e-01  7.37462282e-01
   5.21040201e-01  7.78873920e-01 -3.90433520e-01  1.39548135e+00
  -3.40345353e-01  4.12209600e-01  3.12178642e-01  1.50433734e-01
  -8.16165566e-01 -4.20739502e-01  8.45937073e-01 -4.11287427e-01
  -9.26976621e-01 -3.82387817e-01  8.50073919e-02  1.00608671e+00]
 [-1.49735346e-01 -2.81330854e-01 -5.27924538e-01 -8.59069452e-02
   6.99975267e-02 -7.80922873e-03  2.33904779e-01 -3.37219350e-02
  -9.38523412e-01  3.04258484e-02 -1.36520639e-01 -8.00253034e-01
   2.01485589e-01 -4.96314943e-01  1.92404434e-01 -2.31027737e-01
  -4.37858909e-01  9.39531103e-02 -1.14123009e-01 -6.02236032e-01
   4.56287563e-01  2.87539721e-01  4.65159655e-01  1.68744922e-01
  -6.10168874e-01 -1.67905405e-01 -4.77211960e-02 -1.27340055e+00
   3.40660522e-03  1.02801406e+00 -5.05680084e-01 -3.16649526e-01
   1.53202146e-01 -6.23216808e-01  2.80436844e-01  3.27223763e-02
   9.08535600e-01 -9.20191884e-01 -4.60236430e-01 -4.60183144e-01
   4.34904486e-01 -8.22770968e-02  3.95642430e-01 -1.59308792e-03
  -8.74857069e-04  4.84210610e-01  7.75361061e-01 -1.02839202e-01
   7.09920898e-02  2.09539533e-02 -5.69638133e-01  6.89055979e-01
   3.99906546e-01  8.30168366e-01  4.14190650e-01  1.26185048e+00
   6.99545801e-01 -1.67592227e-01  5.47671951e-02  2.32548267e-01
   8.38159844e-02  3.13497007e-01 -1.22465992e+00  9.15196121e-01
  -5.96072257e-01 -3.64553899e-01 -4.30987954e-01 -3.06921512e-01
  -3.70427400e-01 -9.02545750e-01 -3.67173940e-01 -4.17233735e-01
  -6.98121071e-01  9.48590100e-01  1.15196906e-01 -3.16567332e-01
   5.18997252e-01 -1.16084135e+00  1.08962643e+00  4.67168959e-03
  -2.42186472e-01 -1.14314340e-01  2.11284116e-01  5.10983765e-01
  -1.02698999e-02 -7.11208522e-01  6.05540395e-01 -3.52578729e-01
   9.33451727e-02 -5.41577101e-01  3.96886855e-01  2.15823904e-01
  -2.92307828e-02  1.06777787e+00 -7.01252222e-01  6.43971026e-01
  -1.53745031e+00  2.78242141e-01 -5.45245171e-01  6.00368261e-01
  -4.41085398e-01 -2.42106199e-01 -5.50223291e-01  1.52178720e-01
   3.60441715e-01  1.83108985e-01  4.20924217e-01 -3.32784623e-01
  -2.81840146e-01  1.28321260e-01  3.58053111e-02 -4.21172798e-01
   1.52708739e-01  2.45721206e-01  7.07354903e-01 -2.73674071e-01
  -8.76097143e-01 -4.57783073e-01 -1.28341511e-01 -2.69418985e-01]
 [-4.29644734e-01 -5.72281517e-02 -2.67094910e-01  3.61437559e-01
   4.49348599e-01  1.47327140e-01 -7.53086507e-01  2.89509684e-01
   9.40497443e-02 -1.17124468e-01 -4.76541579e-01 -8.50673020e-02
  -2.73005280e-04  1.29561454e-01 -1.82469457e-01  6.13024414e-01
  -1.59733996e-01  1.83254033e-01 -1.59324512e-01  1.73912570e-01
   1.78317260e-02 -2.62827069e-01  5.82986534e-01 -1.50430158e-01
   2.33055890e-01  6.15110517e-01 -6.75227821e-01  3.90154809e-01
  -4.58498597e-01  2.58201689e-01 -2.36596555e-01 -5.76418519e-01
  -1.29375786e-01 -9.99427259e-01  5.61232686e-01 -5.90128601e-01
  -1.91491246e-01 -1.86480105e-01 -2.99702466e-01 -1.49769381e-01
   1.80303127e-01 -4.34843779e-01 -1.18224347e+00 -5.58456540e-01
   1.43773705e-01  1.99938193e-01 -1.03202552e-01  2.95540690e-01
   6.93581104e-01 -1.69556692e-01  2.47489028e-02 -5.49928956e-02
  -1.99386582e-01 -3.96350503e-01  2.24607617e-01 -3.10066462e-01
   3.01004410e-01 -3.00889254e-01  4.21860278e-01  1.60937324e-01
   5.97385705e-01 -4.49268699e-01  4.64600891e-01 -2.47586519e-01
  -4.89966013e-02 -7.10235834e-01 -1.33677685e+00  1.48006946e-01
  -6.28705919e-01 -9.49414194e-01  2.73513850e-02 -6.68275535e-01
  -7.28139818e-01 -1.17575729e+00 -9.17300642e-01 -3.34167063e-01
  -1.94074124e-01 -9.46366638e-02  6.38626099e-01 -6.54638767e-01
   3.47037315e-01 -8.55880916e-01 -6.27566129e-02 -6.39042616e-01
   2.82537133e-01 -1.46711862e+00 -7.39942491e-01  1.03645541e-01
  -4.58700478e-01 -1.16293766e-01 -1.39770222e+00 -4.44779605e-01
  -4.37694728e-01 -8.48136187e-01 -1.27204430e+00 -3.26767743e-01
   3.79350245e-01 -1.64870858e-01 -1.15111661e+00 -4.89537120e-02
  -2.85910398e-01  1.09872818e-01  8.69914949e-01 -4.64900076e-01
  -3.33306402e-01  3.82358789e-01 -7.02023745e-01 -8.60009156e-03
  -5.86126000e-02  5.06878555e-01  1.75875187e-01 -4.67552692e-01
   8.95778164e-02  3.02483309e-02 -1.41294479e-01  7.36155450e-01
  -2.32116103e-01  1.58271089e-01 -5.16640306e-01  5.27657628e-01]
 [-3.99096668e-01  2.63649195e-01  5.26465356e-01  7.76136279e-01
  -2.98390806e-01 -4.09547180e-01  3.48198354e-01 -1.71028703e-01
  -2.81210631e-01 -1.13487601e+00  7.69533992e-01 -6.14717066e-01
  -1.14248507e-01 -9.51062888e-03  5.61834574e-02  5.40703237e-02
  -2.93594301e-01 -4.58723754e-01  1.69268161e-01  9.15540397e-01
   1.41979633e-02  4.25831825e-01 -4.94115204e-01 -2.81211883e-01
   3.04897755e-01 -2.72173822e-01  3.33998650e-01  2.62957424e-01
   7.95347154e-01  3.82588714e-01  5.01491368e-01 -1.39599562e-01
  -6.81832582e-02  1.77964643e-01 -7.36900330e-01  4.47242796e-01
   4.92453188e-01 -5.11555076e-02  5.57118915e-02  9.92091447e-02
  -5.15186191e-01 -4.61940169e-01  1.00241520e-01 -1.92030761e-02
  -1.57778263e-01  3.84417593e-01 -3.16652000e-01  1.34644181e-01
  -4.52607095e-01 -1.14270538e-01 -1.55224979e+00  8.03049445e-01
   1.31026924e-01  7.04094768e-01 -1.06668222e+00  1.61017552e-01
  -1.11126292e+00  2.41314217e-01  4.50576216e-01  7.60175586e-02
  -2.10880136e+00 -4.85856384e-02 -1.12546277e+00 -2.55838633e-01
  -1.84485972e-01 -4.45623279e-01  1.09949386e+00 -3.19015324e-01
   8.70335937e-01  8.16603124e-01  2.08967939e-01  2.37816975e-01
  -2.05661818e-01  5.78111589e-01  2.60955483e-01 -2.12187227e-02
   1.65865719e-01 -4.97919410e-01 -5.50731480e-01 -9.17694449e-01
  -3.01042020e-01  5.60682893e-01  4.48735476e-01 -4.23183113e-01
  -1.10834110e+00 -1.16088234e-01  4.58913535e-01 -2.20677376e-01
  -1.85429633e-01 -6.68909311e-01  8.25935900e-02  5.32881916e-01
  -4.44525555e-02 -3.56174022e-01  2.80283727e-02 -3.59920561e-01
   1.72750384e-01  2.83722907e-01 -3.44157457e-01  1.59673870e-01
   3.02943704e-03 -5.17313004e-01  2.05670148e-01  9.71210599e-01
   3.38496208e-01 -2.64985323e-01 -2.92752057e-01  3.24765354e-01
   1.37300387e-01 -1.39297560e-01  2.16045603e-01  1.05266380e+00
   4.65100408e-02 -9.39109325e-02  2.86267996e-01  5.86131990e-01
  -1.97780028e-01  2.65647978e-01  3.59505832e-01  1.89437687e-01]
 [ 5.36195608e-03  7.42231905e-01 -1.67314485e-01  2.92991906e-01
  -2.45552003e-01  5.85679889e-01 -3.56371343e-01  2.44366273e-01
   1.08806439e-01  2.82294005e-01 -6.98992431e-01 -7.84286499e-01
   1.31232485e-01 -1.06213011e-01  2.75821686e-01 -8.59224722e-02
   3.05562407e-01  9.03005898e-01 -1.25306773e+00 -1.53049678e-01
  -1.70932800e-01 -2.60234177e-01 -5.60015328e-02  7.64171705e-02
  -1.23228335e+00  8.81287679e-02  4.27090198e-01  6.79087490e-02
   4.88409325e-02  5.87197900e-01 -1.06016290e+00  4.63494450e-01
   3.46265256e-01 -5.14238119e-01 -7.57979512e-01 -7.00894296e-01
   1.70590356e-01  9.51348543e-01 -5.47427475e-01  2.27445796e-01
   7.26412416e-01  3.98974895e-01 -5.50707638e-01 -4.78277385e-01
   7.09734619e-01 -2.27127984e-01  7.35864997e-01  3.60439688e-01
   2.37774894e-01 -2.90528554e-02  4.72665615e-02 -6.47392452e-01
  -3.87676388e-01  3.21746916e-01  3.92834306e-01 -3.62667471e-01
   4.60667647e-02 -1.05521584e+00  1.23492151e-01 -4.96764362e-01
   1.68221682e-01 -4.81020324e-02 -1.15030721e-01  7.62903631e-01
  -2.92455584e-01 -1.78886726e-02 -1.18837321e+00  1.70741305e-01
  -1.26274109e-01 -6.19126081e-01 -3.03423822e-01 -1.10758758e+00
   1.04880780e-01 -7.89424121e-01  3.00389845e-02 -6.29761875e-01
  -2.12961152e-01 -2.74218053e-01  4.44956630e-01 -4.26622272e-01
  -4.12666589e-01 -6.58364967e-02 -3.18518966e-01 -8.51535738e-01
  -6.59065554e-03 -8.15701902e-01 -4.17691499e-01  3.42119783e-02
  -6.53444767e-01  2.07531899e-01 -4.18567881e-02 -1.88623381e+00
  -2.43366063e-01 -4.01766486e-02  1.05743006e-01 -2.94922471e-01
   4.88382503e-02  5.79084456e-01  8.74067694e-02  1.60930622e-02
   2.86196381e-01 -6.66184008e-01 -1.70267150e-01  5.13788499e-02
   4.39216465e-01 -1.47038653e-01 -4.10310119e-01 -3.02693635e-01
  -4.64929998e-01  1.00748442e-01 -4.13076311e-01 -7.69654393e-01
   6.89258873e-01 -5.10075212e-01  1.75894767e-01  1.94786251e-01
  -6.50552273e-01  2.35710025e-01 -3.20459008e-01 -7.02301145e-01]
 [-7.24055648e-01 -8.88866335e-02 -4.57447052e-01 -6.39510095e-01
  -1.08107007e+00  2.30080426e-01 -1.30403554e+00 -3.80086184e-01
   3.34419549e-01  4.50107127e-01 -1.37118876e-01 -8.18773806e-01
   8.40483725e-01  3.35694343e-01 -8.76208544e-01 -2.79020280e-01
  -4.55898613e-01  3.91628057e-01 -8.34607244e-01 -6.95037425e-01
  -1.74470395e-01  4.21646088e-01 -8.91304761e-02  4.67550963e-01
  -3.60671490e-01 -7.57289171e-01  7.08414167e-02  1.01966989e+00
   9.50529054e-03 -3.21694374e-01 -5.72640002e-01 -4.85325456e-01
   4.30406392e-01  2.65151352e-01 -8.43336806e-02 -1.40356375e-02
  -2.31349602e-01 -3.09646249e-01 -2.78446078e-01  3.15976709e-01
   4.98498470e-01  2.57964849e-01  2.62652069e-01 -1.30827272e+00
  -1.33704394e-01 -3.46450001e-01  4.22883451e-01  5.42832732e-01
   3.78693312e-01 -5.08451879e-01  8.24795485e-01 -1.19902623e+00
  -5.41364431e-01 -4.49429780e-01  2.50460505e-01 -1.19348752e+00
  -2.33578980e-01 -7.13550210e-01 -6.85501516e-01 -7.99362242e-01
  -8.57524276e-02  3.00896227e-01  1.23336092e-01  2.42509007e-01
   2.98400551e-01  1.44837335e-01 -1.06550872e+00 -4.38313931e-01
  -3.40027690e-01  4.89220291e-01 -4.82145734e-02  9.31950569e-01
  -5.41323304e-01 -5.99110007e-01 -2.32064307e-01  1.73058927e-01
  -1.31501210e+00 -1.51902631e-01 -2.52429008e-01  3.82009745e-01
   1.40190572e-01  1.38720915e-01  5.49704194e-01 -5.08434951e-01
  -7.14163184e-02 -2.12902129e-01 -6.59041107e-01  5.39624214e-01
  -1.15982628e+00  1.31407648e-01 -3.46242994e-01 -4.89181787e-01
   2.32961118e-01 -3.08165178e-02 -7.11818516e-01 -9.60445255e-02
   1.74601898e-01  3.11927229e-01 -7.51847386e-01 -3.95064682e-01
  -4.07210231e-01  1.44297881e-02 -1.90861121e-01 -3.65034938e-01
  -4.44847755e-02 -5.20324335e-02 -5.01637578e-01 -7.45948374e-01
  -1.12396097e+00  5.69237947e-01 -2.93270856e-01  1.04435727e-01
   3.75597745e-01  3.73349488e-01  6.46114171e-01  1.02672428e-01
   1.63362100e-04  5.69670796e-01  1.21857308e-01  8.41499865e-02]
 [ 3.34918410e-01  1.12240359e-01 -3.77657712e-01 -8.10710564e-02
  -6.04200423e-01  4.65457231e-01 -3.45484048e-01 -6.40270829e-01
  -1.74944535e-01 -4.35767621e-01  7.85424560e-03 -2.87315637e-01
   3.74525994e-01 -8.27441692e-01  6.80343986e-01  2.02871203e-01
   2.10043475e-01 -1.47636801e-01  2.11739033e-01 -3.86201501e-01
   3.25975031e-01 -1.69606000e-01  1.78749681e-01  9.65230986e-02
  -4.10981923e-01  6.04541183e-01 -2.24153221e-01 -4.65269715e-01
   7.50490069e-01  1.62405267e-01 -9.19447005e-01 -2.49760568e-01
  -1.27611086e-01 -2.80445218e-01 -1.21787377e-02 -2.31363773e-02
  -2.06184372e-01 -3.91897708e-01  5.71560860e-01 -6.00685000e-01
  -2.45938286e-01 -6.05413496e-01  8.75515714e-02  2.36853525e-01
   3.74176830e-01 -2.19396397e-01  5.03122091e-01  3.55889827e-01
   2.09061936e-01 -2.21163090e-02  4.40752268e-01 -2.22841367e-01
   7.69592941e-01 -4.01962042e-01  4.11776930e-01  4.94804792e-02
   6.93493545e-01  1.02424383e-01 -2.67962575e-01 -4.28198516e-01
  -7.71174803e-02 -7.37382829e-01  1.99839361e-02  1.27588898e-01
   2.83417046e-01  5.38275838e-02  1.82135448e-01 -5.34985662e-02
  -1.49495214e-01 -5.01396537e-01 -4.46127474e-01 -1.52085889e-02
  -1.34900540e-01 -2.05813780e-01  6.47825049e-03 -5.94783962e-01
   2.58068264e-01 -4.91325289e-01 -6.77212477e-02  2.44455144e-01
  -1.24745397e-02 -2.85176426e-01 -3.82374763e-01 -8.59174192e-01
  -2.30731279e-01  5.12629867e-01 -6.63384140e-01  1.28898218e-01
  -2.23742679e-01 -7.53238261e-01 -6.45978749e-01 -1.51512706e+00
   8.23646545e-01  4.06210035e-01 -7.12868333e-01 -4.15836453e-01
  -6.16303682e-01 -7.05690801e-01  4.72080469e-01 -4.56279933e-01
  -3.42336223e-02  5.01480065e-02 -1.46458519e+00 -5.86208701e-01
  -2.15685353e-01 -1.34124005e+00 -6.34584129e-01  1.79900572e-01
  -1.02805996e+00  2.68135905e-01  5.81794024e-01 -2.85938799e-01
  -3.40223968e-01 -5.71639948e-02 -4.20902789e-01  2.84344137e-01
  -6.67030513e-01 -4.58639532e-01 -4.95303839e-01  2.09633797e-01]
 [ 1.54480860e-01  2.63379812e-01 -3.86585593e-01 -1.72248721e-01
   3.93976212e-01 -7.21024454e-01 -3.80695909e-01  1.94130719e-01
  -8.53602767e-01 -1.30843890e+00  7.70238638e-02  2.67991778e-02
  -3.31051677e-01 -2.07039103e-01  1.53222576e-01 -1.66017056e+00
  -2.93549150e-01 -8.09515119e-01 -9.95268673e-02  8.35383162e-02
   1.07999635e+00  3.71745348e-01  1.38131484e-01  2.55070299e-01
  -7.61934891e-02  1.43752784e-01 -1.42313790e+00 -5.76986253e-01
  -1.15767375e-01 -7.78158188e-01 -5.62789619e-01 -8.64451647e-01
  -2.07510382e-01  1.03016593e-01 -5.89906156e-01  1.20420940e-01
   5.67648053e-01 -9.79657471e-01 -3.60566586e-01 -2.18491286e-01
  -5.24107993e-01  1.03223369e-01  7.02311933e-01  2.34110504e-01
   1.55579448e-02  7.24166512e-01  1.55019328e-01 -4.71469373e-01
   6.43002510e-01 -1.61277086e-01 -6.39839411e-01 -5.09816855e-02
   2.45833978e-01  3.11184496e-01  3.43408138e-01 -2.96165615e-01
  -1.15507387e-01 -3.95029575e-01 -1.96502715e-01  3.49309474e-01
  -1.88490653e+00  1.94413722e-01 -1.20404780e+00 -8.13512862e-01
  -1.40632302e-01  9.96924415e-02  4.46855307e-01 -4.54130352e-01
   7.14585483e-01  7.35098600e-01  8.13668251e-01 -3.87184262e-01
   4.24093276e-01 -6.78555444e-02 -3.32012057e-01  5.60552478e-01
   1.06195517e-01 -2.00405136e-01  1.02851940e-02  2.71561788e-03
  -7.92299151e-01  2.21741542e-01 -3.39470953e-02 -8.64473343e-01
  -8.76050770e-01  3.71605128e-01  3.73826206e-01 -2.94724345e-01
  -1.99711636e-01 -8.63248408e-01 -7.50294209e-01  9.35572535e-02
  -6.36001676e-02  6.32292926e-02 -2.68663047e-04  1.01825237e-01
   7.93336146e-03 -3.12158763e-02  4.47910815e-01 -6.00677133e-02
  -5.64377129e-01 -4.69738275e-01  4.25704122e-01  1.21599019e+00
   7.99148560e-01  7.77895093e-01 -2.72984385e-01  6.56928122e-02
  -1.93640530e-01 -1.43596232e-01 -4.58901852e-01  1.12538747e-01
   5.36062181e-01  9.14604738e-02  1.12604946e-01  4.80919480e-01
   2.52555609e-01 -2.99630225e-01  1.06131539e-01 -8.25880617e-02]
 [ 7.19515979e-01 -2.05333874e-01  3.88961017e-01 -6.67453229e-01
   5.47543228e-01 -3.17468822e-01  1.66768372e-01  4.12043810e-01
  -5.88400781e-01  5.84958076e-01  8.60692382e-01 -3.45113128e-02
  -5.42612314e-01  1.71773080e-02 -6.77913487e-01 -6.35959387e-01
   9.00116682e-01  4.13477570e-02  1.63301900e-01 -7.87343159e-02
  -1.27521502e-02 -1.16540706e+00 -5.90206534e-02 -5.23524806e-02
   3.74379456e-01  1.22834608e-01  7.40453541e-01  3.52261990e-01
  -2.54315555e-01 -1.25507402e+00 -3.52518618e-01  1.07889950e-01
   4.45288867e-01  1.27580002e-01  6.36524618e-01 -1.19743347e-01
  -9.44429696e-01  5.72780892e-02  2.86879867e-01 -5.97453535e-01
   2.61039525e-01 -6.90784454e-02 -2.84672320e-01  3.35910052e-01
  -2.16023967e-01 -7.57231712e-01 -3.19650173e-01 -8.30562472e-01
  -3.61067176e-01  5.23485184e-01 -3.73258173e-01  1.39057934e-01
  -2.48726726e-01  8.19752514e-01 -7.06668139e-01  1.75624534e-01
  -3.05742949e-01  2.16905504e-01  3.52933973e-01  4.18526649e-01
  -6.46616146e-02  1.61109746e-01 -5.66142023e-01 -2.86661506e-01
  -2.02067941e-01  7.44971260e-02  5.18744171e-01 -1.06500052e-02
   4.22938466e-01 -7.86081433e-01  2.64240444e-01 -1.97867796e-01
  -3.04643095e-01  7.77814925e-01 -4.08130586e-01  9.48480070e-01
   5.01571715e-01  3.45741659e-01 -1.32485747e-01  7.05503106e-01
  -2.39503026e-01 -5.25613070e-01  3.38070482e-01  1.83496296e-01
  -3.87163609e-01  1.01054823e+00  4.69756752e-01 -1.02350667e-01
   2.13992313e-01 -8.09166491e-01 -9.68585908e-02  5.19015372e-01
   8.74374866e-01 -1.05264314e-01 -4.75739092e-02  2.54192442e-01
  -3.79239917e-02  1.74880251e-01 -4.71350104e-01 -7.08214402e-01
  -6.88826591e-02 -3.38974357e-01 -1.85278729e-01  6.57716572e-01
  -1.97030716e-02  3.83349717e-01  2.73699790e-01 -4.66057420e-01
   1.13970237e-02 -1.15788721e-01  3.42858672e-01  1.81466237e-01
  -3.06016654e-01 -3.08165491e-01  3.10398817e-01 -1.51309147e-01
   6.28911912e-01 -8.20385143e-02  9.19839799e-01  3.42360698e-02]
 [ 3.55163455e-01 -2.61591434e-01  5.60542429e-03  6.26433194e-02
  -5.89173913e-01  2.92789370e-01  5.50148249e-01  9.98679474e-02
  -1.34488150e-01 -4.59835142e-01 -1.14927471e+00 -4.69937325e-02
  -3.63455355e-01 -4.33921993e-01 -6.12097025e-01 -2.60715842e-01
   7.23880157e-02  4.23730314e-01 -1.16952494e-01 -5.10975480e-01
   2.91391075e-01 -2.46872738e-01 -7.68583834e-01  2.82794088e-01
  -1.46149984e-02  2.62881219e-01 -3.87989342e-01  2.97542289e-02
   1.80126131e-01  1.78759724e-01  2.86644012e-01 -4.38071340e-02
  -4.75243509e-01 -5.40977642e-02 -7.34062716e-02  2.63774574e-01
  -1.04352987e+00  3.32818210e-01  4.17365640e-01 -1.00832510e+00
   3.78208943e-02  8.36145654e-02  1.77246779e-01  4.13997889e-01
   3.72629732e-01 -4.57438529e-01  2.40952641e-01 -6.63668215e-01
   5.71584940e-01  1.58599660e-01 -3.57103348e-01  8.11075985e-01
  -1.11070171e-01 -3.18367481e-01 -3.94267701e-02 -5.13179362e-01
  -1.23675622e-01 -3.85469198e-02 -2.45783031e-01  2.10132062e-01
   3.61084461e-01  6.65605009e-01  2.87512630e-01 -2.38811493e-01
   1.91717763e-02  1.49123162e-01  1.33183092e-01  6.29142165e-01
   9.09358039e-02 -2.37139314e-01 -4.97516058e-02 -2.41474345e-01
  -5.22564352e-02 -3.14933807e-01 -8.17438588e-02 -5.23668468e-01
  -7.69645929e-01  1.84165180e-01  3.04617345e-01  1.20099437e+00
  -2.78226584e-01 -1.24080956e-01 -1.40393630e-01  4.37353283e-01
   3.70268583e-01 -4.87864986e-02 -1.85729817e-01  4.56316501e-01
  -5.34432590e-01  1.09134451e-01 -3.39824855e-01 -9.77188349e-01
  -5.26469871e-02 -6.13222457e-02  3.96510422e-01 -4.23585325e-01
   4.96404737e-01 -6.80944502e-01  3.88532728e-01 -9.79416966e-01
  -5.53654075e-01  3.96910459e-01 -1.38777018e-01  2.61426046e-02
   1.75825641e-01 -2.12480932e-01 -8.24407279e-01  4.95162666e-01
   1.59581453e-02 -3.49680364e-01 -3.06431144e-01  8.84761691e-01
   2.52828002e-01  4.08070892e-01 -2.42602289e-01  3.74380380e-01
  -5.85618377e-01  4.59842056e-01  1.31345725e+00 -1.98713630e-01]
 [ 2.35953674e-01  3.25574070e-01 -4.67403866e-02  1.47201717e-01
   1.01516291e-01  2.88158894e-01  2.78406322e-01 -3.73427689e-01
  -6.73861384e-01 -1.04005587e+00  2.38516301e-01 -7.68201202e-02
   6.28713608e-01 -4.43205744e-01  6.48382068e-01  3.28851253e-01
   7.05545545e-02 -4.33038741e-01  7.31648028e-01  5.30978084e-01
   3.37732255e-01  3.54818225e-01 -9.36868191e-02 -1.02425516e+00
   7.95868933e-02  3.81682932e-01  1.11903656e+00 -1.46190007e-03
   2.36188411e-03 -3.33929658e-01 -9.06217694e-02  9.43994880e-01
   8.70043263e-02 -4.85066418e-03  5.61849892e-01 -4.50880796e-01
   7.02957213e-02  3.00293602e-02 -4.27547872e-01  2.92263389e-01
   6.92887366e-01  4.64548260e-01 -3.08237791e-01  1.17202729e-01
   8.19938362e-01 -3.07780430e-02  6.25334680e-01 -4.47078705e-01
   2.05883190e-01 -5.13362885e-01  3.30085725e-01  1.81700826e-01
  -2.22925901e-01  7.44932950e-01 -6.49000928e-02  5.56572080e-02
  -6.50001526e-01  5.32266796e-01 -1.67411432e-01 -1.82690531e-01
  -2.70802170e-01 -1.60898820e-01  2.09379897e-01 -1.15421645e-01
  -1.04571767e-01  1.73679560e-01 -7.54883289e-01  6.09148502e-01
   8.67015272e-02 -7.11253583e-02  5.10358691e-01  3.93562913e-02
   6.36091471e-01  3.61699283e-01 -9.19549704e-01 -4.73848991e-02
   3.29068214e-01  6.14693463e-01 -5.66030383e-01  2.10835133e-02
   1.04344711e-01 -4.32129532e-01 -7.63836443e-01  2.74433583e-01
  -1.43434513e+00  9.92819965e-02  2.22019136e-01 -9.68245625e-01
  -5.98800518e-02  2.78075099e-01  5.90145946e-01 -2.02572778e-01
  -1.12321651e+00  2.10577905e-01  5.47838748e-01 -5.36375523e-01
  -4.27427083e-01 -3.51681501e-01 -2.07191687e-02  3.83950740e-01
  -1.31856397e-01  2.67314374e-01 -2.90299416e-01  2.53963619e-01
   4.13632661e-01 -6.79906368e-01  1.16010830e-01  7.30452776e-01
   1.26724407e-01 -2.89356470e-01  7.39276052e-01 -3.86825055e-01
  -2.93590069e-01  8.85686994e-01  6.90108538e-01 -1.87029713e-03
  -1.25790513e+00  1.30087420e-01 -2.60978758e-01 -9.38446105e-01]
 [ 1.81103855e-01 -1.50699511e-01  6.77374363e-01  2.61837244e-01
  -3.38349976e-02 -3.77077013e-02 -4.77924466e-01  4.60665524e-02
  -1.33430094e-01 -4.20236915e-01 -4.66972858e-01  4.73331839e-01
  -4.59491789e-01 -4.36938517e-02 -4.21437740e-01  5.32795370e-01
  -1.32316813e-01  2.97948301e-01  8.65397990e-01  1.02115154e-01
   2.85347372e-01  6.25186339e-02  3.50794122e-02 -7.18626454e-02
   6.44532889e-02 -7.53974378e-01 -1.04561400e+00  3.72299254e-01
   3.58068496e-01 -3.31985176e-01 -4.09358472e-01 -2.95454413e-02
  -6.86847091e-01 -8.65071595e-01  1.98721200e-01 -1.38077587e-01
  -1.23900892e-02  3.70541066e-01  2.05573440e-01 -8.37636352e-01
   3.01517636e-01 -4.27072585e-01 -2.60949969e-01  6.89310879e-02
  -3.66965473e-01  3.31679732e-01  1.37644514e-01 -6.52154624e-01
   1.37320638e-01 -8.00706148e-01 -7.55392611e-02 -3.64937298e-02
  -2.72651613e-01 -5.71328104e-01  3.96707952e-01  3.42350155e-01
   8.42304289e-01 -1.19018924e+00  7.13987369e-03 -1.05335093e+00
  -1.65587246e+00 -7.87857771e-02 -2.22211391e-01 -9.01045501e-02
  -5.99331617e-01 -1.96190685e-01 -4.94017929e-01 -1.63031295e-01
  -2.78416067e-01 -3.78419787e-01 -4.27000225e-02 -3.36078256e-02
  -1.71175790e+00  3.81088018e-01  3.33753675e-01  5.64451404e-02
   3.65484536e-01  5.72581947e-01 -1.44590437e-01  1.20346129e-01
  -4.00389135e-01 -1.33738890e-01  7.48009831e-02 -2.40790710e-01
  -4.79667336e-01  6.14605069e-01 -2.31836140e-01 -1.44965738e-01
   4.11285646e-02 -6.39649332e-01 -6.40092432e-01  2.85662621e-01
   3.29137117e-01  5.02700984e-01  2.07479343e-01  6.74438775e-01
  -2.07849726e-01 -1.62374359e-02 -2.24985570e-01 -4.16891545e-01
  -1.25490233e-01 -1.49000630e-01 -1.20587181e-02  3.10248613e-01
  -2.61457056e-01  2.99738467e-01  4.35545355e-01 -5.26344359e-01
  -1.01735100e-01 -9.37816873e-03 -7.94705302e-02 -2.58519381e-01
   2.63309121e-01 -2.29548275e-01 -4.52700764e-01 -1.41774938e-01
   6.66490570e-02 -1.87391713e-01 -3.06195039e-02 -1.63740781e-03]
 [ 3.02107215e-01 -6.04912758e-01  5.20535827e-01  3.83818567e-01
   8.19335878e-02  1.29921675e-01 -3.74811739e-01  6.40985787e-01
   2.78516230e-03 -2.33891651e-01  5.86235702e-01  1.14549406e-01
   2.63398141e-01 -1.25677198e-01  1.90300494e-01  3.92161518e-01
   2.37995386e-01 -8.12683761e-01 -1.70967784e-02  1.04588792e-02
  -2.45793685e-01 -5.92431486e-01  5.94853878e-01 -4.97942716e-01
   2.06011444e-01 -2.45527849e-01 -2.78429359e-01 -9.17196274e-01
  -2.45349050e-01  3.05538148e-01 -5.88004947e-01 -1.37274945e+00
   5.59876323e-01  5.44717014e-01 -7.62399733e-01 -3.77868891e-01
   2.91032672e-01  2.16898680e-01 -5.80047667e-01 -2.62039274e-01
   5.92683315e-01 -4.16185334e-02  3.69527459e-01 -2.91258961e-01
   4.17585284e-01  1.36614472e-01 -5.16162157e-01 -1.20048010e+00
   5.58620870e-01 -2.52482474e-01 -1.63103476e-01 -6.99311271e-02
   2.46935815e-01 -1.00327945e+00 -3.57230529e-02  7.24175423e-02
   7.75130928e-01 -5.15229285e-01  3.67908031e-01  9.38167334e-01
  -1.34782746e-01 -5.17809808e-01 -6.63036883e-01 -7.79965818e-01
   6.63853228e-01  7.38734901e-02 -2.76195973e-01 -6.34700179e-01
  -1.61318272e-01 -1.99579641e-01 -2.53486801e-02  4.17183280e-01
  -6.50865972e-01  3.65316123e-01  2.77798533e-01 -3.07583481e-01
   2.54282951e-01 -7.62988508e-01  3.90487880e-01  4.83651578e-01
   2.11361498e-01 -1.28649032e+00 -3.37855458e-01  7.40338340e-02
  -5.53665221e-01 -5.67162633e-01  1.66215807e-01 -8.16674948e-01
  -5.88343404e-02 -1.08170033e+00 -1.62691742e-01  1.75226822e-01
  -3.45659941e-01 -1.45873830e-01 -5.45013666e-01 -9.85773001e-03
   6.65631711e-01  1.75137281e+00 -6.80440545e-01 -3.98901790e-01
  -8.86292040e-01 -8.43141600e-02  4.32829142e-01 -6.96781695e-01
  -6.62784457e-01  4.08330679e-01  1.33760020e-01 -3.91769409e-01
  -1.76703438e-01 -1.30895674e-01 -2.70077199e-01  4.29099619e-01
  -2.64855921e-01  3.26150090e-01 -1.22797281e-01 -5.08002996e-01
  -4.62428927e-01 -5.06530367e-02 -5.47995031e-01  2.62250870e-01]
 [-2.40436643e-01 -8.47317696e-01  9.35997814e-02 -8.25068533e-01
  -2.27530390e-01 -3.29701215e-01 -1.26680887e+00 -9.10801888e-01
   1.20899536e-01  1.49761096e-01 -1.17170718e-02 -3.33363801e-01
   5.69089234e-01  2.14957356e-01  1.37790948e-01 -9.22404006e-02
  -2.14259624e-01  5.13135970e-01 -7.39764154e-01 -2.84642428e-01
   1.79040000e-01 -1.69872567e-01  5.00720367e-02  3.77944887e-01
   2.24668711e-01 -5.24936020e-01 -5.81227779e-01  4.16145027e-01
  -4.69100587e-02 -2.54387528e-01  1.77257136e-01  1.90394204e-02
   4.42995548e-01 -1.75491631e-01 -8.61137867e-01 -2.47809775e-02
  -1.55058056e-01  2.10594967e-01  1.98367592e-02  3.50653768e-01
  -7.38873556e-02  5.15354156e-01 -2.34784812e-01 -7.53435135e-01
   6.20156050e-01 -6.98547810e-02 -2.09712442e-02  9.61689427e-02
   3.01870018e-01 -2.55733341e-01  3.93401772e-01 -2.99847007e-01
  -1.46740973e-01 -1.11385860e-01  4.93688174e-02 -1.78538382e-01
  -1.60991371e-01  3.56870592e-01 -6.17353618e-01  5.41509576e-02
   3.66645247e-01 -5.71816638e-02  1.78057432e-01  2.24917918e-03
  -4.61804390e-01 -1.13940798e-01 -3.68642241e-01 -2.23774284e-01
  -4.74553078e-01 -3.49191241e-02 -1.40803263e-01 -1.76468059e-01
  -1.66282997e-01 -4.58691627e-01 -5.68155050e-02  6.58352911e-01
  -1.93076506e-01  1.92275131e-03  2.92733219e-02  1.17186293e-01
  -1.35697976e-01 -2.76684791e-01  3.74918640e-01 -5.80389500e-01
   4.22827929e-01 -1.05016105e-01  3.28462198e-02 -6.77952707e-01
  -4.55292016e-01 -1.88972518e-01 -3.55758756e-01 -3.23423952e-01
  -3.64439130e-01 -3.31999570e-01 -2.99084485e-01  4.85152192e-02
  -6.47911847e-01 -2.00254247e-01 -3.06800872e-01 -1.43729642e-01
  -8.70131329e-02 -2.21646562e-01  1.90797180e-01  2.27062583e-01
   4.92364794e-01  4.78682309e-01  3.45266074e-01 -6.50501132e-01
  -1.43924072e-01  2.81747252e-01 -3.87002200e-01 -7.63158143e-01
  -2.84386486e-01 -5.00395335e-02  4.06741053e-01  6.32456020e-02
  -1.15803741e-01 -6.36216760e-01 -2.02906668e-01 -3.86579514e-01]
 [-3.68054092e-01  7.95081615e-01 -1.04541689e-01 -2.33894855e-01
  -6.92813396e-01 -2.45598689e-01 -1.58186591e+00  4.76121187e-01
  -8.46292675e-02  4.28827077e-01 -3.64654422e-01  6.87825978e-01
   5.77945858e-02 -2.54553348e-01 -3.64851087e-01  1.74375936e-01
  -1.77615315e-01  1.23170353e-01  5.42000711e-01 -1.77827671e-01
  -1.74531370e-01 -6.56094611e-01  4.62568663e-02 -2.53166199e-01
   1.36154320e-03  5.61738312e-01 -1.32531896e-01 -1.50305197e-01
   6.17981791e-01 -1.02466427e-01 -9.08858061e-01  4.75646347e-01
  -4.63930935e-01 -2.03237504e-01 -1.92226786e-02  7.88037539e-01
  -1.75181344e-01 -1.13712624e-01 -8.48910272e-01 -4.63286459e-01
   8.08564663e-01  3.12823504e-01 -1.36532128e-01  7.54070729e-02
   1.02205944e+00 -3.08758467e-01 -4.44319814e-01 -6.72513187e-01
  -7.10397260e-03 -1.23828821e-01 -9.67083275e-02 -2.29761377e-01
   2.34266326e-01  7.27936327e-01  2.54963130e-01 -3.88380468e-01
  -3.20089638e-01 -3.96810025e-01  2.29742602e-01 -2.21572578e-01
  -9.57791954e-02 -5.91960073e-01  3.94246101e-01  4.76808906e-01
   8.92040551e-01  6.71427786e-01 -1.24468160e+00  9.05555308e-01
   2.63535678e-01 -3.30359459e-01  7.01402545e-01 -1.01456761e+00
  -1.84326425e-01  3.34805816e-01  2.89635867e-01 -2.41494611e-01
   5.29212594e-01  1.05393291e+00  2.70348132e-01  5.08847177e-01
   4.43417355e-02  2.36745439e-02 -4.70856488e-01  1.56958997e-01
  -7.40257084e-01  2.96753407e-01  2.48023272e-01 -5.96346438e-01
   2.39708677e-01  2.78384924e-01  3.49059194e-01 -2.99587883e-02
   1.90121248e-01 -1.73909754e-01  7.34517515e-01  1.23310462e-01
  -9.09021050e-02  2.43590072e-01 -4.47842836e-01 -1.11475743e-01
   4.60346878e-01 -5.38971186e-01  3.64147097e-01 -4.86887038e-01
   1.36689842e+00  5.82175143e-02  7.15341941e-02  6.01134777e-01
   1.12653315e+00 -5.78749597e-01 -2.26644993e-01 -4.55296695e-01
   3.00105572e-01  5.65179646e-01 -5.56447804e-01  7.62164533e-01
  -2.68163178e-02  7.11622477e-01 -1.03611386e+00  9.22967434e-01]
 [ 5.53717434e-01  3.94792646e-01 -8.72268602e-02 -7.45824635e-01
  -1.34072408e-01  8.66559565e-01 -1.06583893e+00 -6.20610416e-01
  -4.19086486e-01  1.41944125e-01 -9.23776567e-01 -3.61442834e-01
   4.78367448e-01 -4.22678053e-01  5.31057641e-02 -2.29760155e-01
  -3.89648855e-01 -2.04149187e-01 -2.82532513e-01 -1.20242357e+00
   4.52097625e-01 -8.14900160e-01 -3.46940964e-01  6.54557765e-01
  -2.14495808e-01  4.20676142e-01  7.00499862e-02 -5.09141743e-01
  -1.88429028e-01 -8.18961740e-01  1.36899546e-01  2.39573956e-01
  -1.82773784e-01 -6.52655542e-01  1.25258625e+00  2.29957238e-01
   4.79944229e-01  2.98101753e-01 -8.41548383e-01  1.46117717e-01
   2.11732417e-01 -4.00448740e-01 -9.61336911e-01  6.87728882e-01
   1.07537019e+00  5.31545699e-01 -4.08443421e-01 -1.85497567e-01
   4.05049860e-01 -1.52434096e-01 -6.81216180e-01  1.02297103e+00
  -5.51365137e-01  6.07260823e-01  6.63539052e-01 -3.28173429e-01
   1.81698978e-01  8.96645188e-01  9.17213142e-01 -6.74391925e-01
   1.37390411e+00  4.04540062e-01  2.48960834e-02  7.04094162e-03
  -4.40031469e-01  9.03594121e-02 -5.08931160e-01  5.52805305e-01
  -4.41278487e-01  3.69712144e-01  2.99922317e-01 -1.80814490e-01
   3.23348880e-01  2.12034762e-01 -7.44643152e-01 -2.57234633e-01
  -5.01810730e-01  8.10785294e-02 -5.12720704e-01  3.26483518e-01
   4.90162671e-02  3.28492045e-01 -2.38739088e-01 -3.08093160e-01
   3.01005095e-01  6.03561401e-01  7.02548265e-01  2.72954199e-02
   5.57835639e-01  2.56973177e-01 -1.24241412e+00  6.75098300e-02
   8.33362758e-01 -5.62195957e-01  9.09707416e-03 -4.23049062e-01
  -8.10660064e-01  1.58958288e-03 -2.39108503e-01  2.48752296e-01
  -1.86175015e-02 -1.78110912e-01  1.75733134e-01  4.74286735e-01
   3.15560728e-01 -1.91429913e-01 -2.79033452e-01  2.01152280e-01
  -7.19603479e-01  1.57649331e-02 -1.86419696e-01 -1.09600890e+00
   5.99702358e-01  7.22430289e-01  3.23070958e-02  7.18188882e-01
   4.29520726e-01  1.69932872e-01  1.68145910e-01 -1.85324490e-01]
 [ 8.06570649e-01  2.01925859e-02 -1.24294233e+00 -1.02536656e-01
   9.09867942e-01 -7.76020050e-01  1.74381509e-01 -1.31046820e+00
   7.53084794e-02  9.56643745e-02  2.52826780e-01  3.28423977e-01
  -4.17539746e-01 -5.14804125e-01 -2.10373819e-01  4.69716668e-01
   7.99031481e-02  6.27388537e-01  7.51112580e-01 -3.51109244e-02
   5.31951785e-01  4.64409798e-01  9.88332272e-01 -3.46224368e-01
   4.91311461e-01  3.30291241e-01  1.91549376e-01 -5.88245392e-01
   3.98642898e-01 -1.34855878e+00 -3.15242767e-01  1.65210143e-01
   4.37240720e-01 -6.80847764e-01  6.99796081e-01  2.69757926e-01
   5.88905096e-01 -4.54214901e-01 -1.02439916e+00  6.80153742e-02
   6.86418951e-01  2.20748886e-01 -5.40978193e-01 -6.57424212e-01
   2.77501643e-01  1.57360807e-01 -2.47820646e-01  5.30192614e-01
   9.72901165e-01  4.29693997e-01 -4.65520233e-01  4.93345745e-02
   2.25197405e-01 -9.31088030e-01 -5.27779162e-01  2.99795210e-01
  -1.02582149e-01 -6.03799880e-01 -9.18887183e-02 -7.71425441e-02
   5.65410778e-02 -9.05880481e-02 -3.22269529e-01  7.84239531e-01
  -7.73148060e-01 -1.15075564e+00  8.74788389e-02  3.87018144e-01
   3.09466094e-01 -1.11321998e+00  6.19046390e-02  6.63987815e-01
  -2.80894879e-02  8.01751241e-02  6.77505434e-01  3.32632214e-01
   3.98866870e-02 -3.35349113e-01 -6.02277040e-01  1.23824239e+00
   1.95674017e-01  2.56893188e-01 -1.70336142e-02 -1.18127368e-01
  -7.23459184e-01  3.95410776e-01 -4.39339317e-03  8.75616744e-02
  -2.14339703e-01 -9.28446352e-01 -5.91116905e-01 -5.86354852e-01
   7.42529213e-01  2.16879964e-01 -9.85728204e-01  2.78443366e-01
   8.21148232e-02  2.29920045e-01 -1.00653303e+00 -8.31551790e-01
  -1.04083395e+00  3.75880510e-01  1.11010320e-01  1.32519329e+00
   3.91834289e-01  2.46262982e-01  1.67569309e-01  3.28291386e-01
   3.02940935e-01  8.39012027e-01  4.31636035e-01 -5.84961593e-01
  -5.62719405e-01 -3.29501569e-01  5.89154243e-01 -1.24301791e-01
  -3.31319519e-03 -1.21405685e+00  4.69935462e-02 -1.16034716e-01]
 [ 4.61742461e-01  4.17786688e-01 -9.19809401e-01 -4.30701524e-01
  -4.12924588e-01 -4.47652251e-01  2.15767905e-01 -4.65338469e-01
  -9.24451292e-01  9.92472693e-02 -3.74199212e-01 -6.49523318e-01
   9.46801342e-03 -3.76969278e-01  5.11482298e-01  1.86025828e-01
  -2.20420077e-01  3.64800751e-01 -9.89581466e-01 -5.10063231e-01
  -9.82953086e-02  3.82401608e-03  1.77771986e-01 -7.33281672e-01
   2.49998719e-01  6.83626115e-01 -6.16562702e-02 -1.58525497e-01
   6.10492289e-01 -4.45425510e-01 -3.33546907e-01 -2.22500816e-01
  -1.11896038e+00  3.30503762e-01  1.96158350e-01  5.16915679e-01
   2.65674680e-01 -4.55440313e-01 -5.68457663e-01 -7.17323363e-01
  -1.05836444e-01 -1.59736693e-01  7.00796098e-02  6.48732424e-01
   4.23998117e-01  2.72588849e-01  2.52660573e-01  1.44248143e-01
  -1.03716314e-01 -9.91969630e-02 -1.73101887e-01 -2.86643133e-02
  -1.81750074e-01 -1.61220223e-01 -1.50593638e-01  2.63869047e-01
   3.64244580e-01 -6.94640204e-02 -4.02064830e-01 -1.89920932e-01
   1.11143246e-01 -7.55564034e-01 -4.06742424e-01 -3.54380518e-01
  -1.02125965e-01 -6.80537581e-01  9.13312510e-02 -7.43856549e-01
  -6.15091801e-01 -7.77297258e-01 -3.68559182e-01  4.00970966e-01
   1.14190549e-01  6.27000451e-01  6.09612048e-01  3.33670110e-01
   1.84640691e-01  3.89131337e-01 -3.14649791e-01 -6.92085400e-02
  -8.09656024e-01 -1.31137028e-01  6.96541369e-01 -1.64133519e-01
   3.55250955e-01  6.78936318e-02  4.85985011e-01 -9.87597227e-01
  -5.13840973e-01  4.53405499e-01 -3.46840829e-01  1.95930302e-01
   4.37657014e-02  3.99112821e-01 -7.47921586e-01  4.29034114e-01
  -9.93911147e-01 -1.21513188e-01 -9.25314724e-01  1.78979322e-01
   3.44520688e-01  4.25677240e-01  4.42027479e-01  2.75775701e-01
   3.06662261e-01 -7.72937154e-03 -4.90061790e-02 -4.16005760e-01
   4.52996463e-01  3.02912761e-02 -1.10512769e+00 -6.81586921e-01
  -6.63547078e-03 -2.87620097e-01  1.01721776e+00  4.64519113e-01
   1.53691158e-01 -9.16670561e-01 -1.78400531e-01 -2.84028891e-02]
 [-3.35100353e-01 -5.98724894e-02 -1.52686492e-01  2.76705138e-02
   6.49394631e-01 -1.40332505e-01  3.45827878e-01 -4.76794802e-02
  -1.14404328e-01 -2.08133072e-01  5.76860070e-01 -1.33459121e-01
  -1.40351996e-01  3.41650754e-01 -5.80711439e-02  2.57428527e-01
  -4.22861427e-01 -7.12286830e-02  5.63762009e-01  3.67226094e-01
   4.16003820e-03 -6.21809781e-01 -1.35197520e-01 -4.75703878e-03
   6.89268410e-01  2.84331203e-01 -1.27073079e-01 -2.21060179e-02
   1.84526861e-01 -3.45108598e-01  6.30854070e-01  2.83010095e-01
   4.50397491e-01 -7.24237323e-01  7.85635769e-01 -2.02163085e-01
  -5.33405468e-02 -3.82529378e-01 -5.10934740e-02  1.64823771e-01
  -1.71220675e-01  2.60706306e-01  3.01479280e-01 -1.26316205e-01
   6.69188619e-01  3.73235464e-01 -2.64646590e-01  1.54576391e-01
   4.43266481e-01 -4.98260796e-01 -3.00157189e-01 -2.51824886e-01
  -9.80587527e-02 -5.62779665e-01  4.98548783e-02 -4.96871620e-01
  -2.15652704e-01 -7.64990032e-01  3.61621648e-01  7.49996126e-01
   1.48989156e-01  8.44737813e-02  4.08430815e-01 -1.77365392e-01
