lstm/lstm_cell/kernel:0
(1, 320)
[[-3.89001109e-02  8.25242177e-02  8.24788734e-02 -1.09056830e-01
   2.45983794e-01  1.61188528e-01  7.72277042e-02  7.89838135e-02
   8.35584700e-02  9.64766443e-02 -1.57609239e-01  7.47550651e-02
   2.82486603e-02 -3.05551738e-01  1.94962531e-01  4.57239687e-01
  -3.40273418e-02  6.56812862e-02  1.49724066e-01  4.06175643e-01
   1.17044494e-01  7.86378756e-02  1.87789813e-01  1.90612078e-02
   2.62820628e-02 -3.69613469e-02  2.63487101e-01 -5.39932884e-02
  -1.02032594e-01  1.05428986e-01 -2.82438435e-02 -2.10343257e-01
  -7.31819943e-02 -1.27141371e-01  2.91427881e-01  7.09343925e-02
  -1.30341530e-01  1.86829315e-03  3.19927990e-01 -1.24044605e-01
   6.34085014e-02  7.65770748e-02  2.88928095e-02  1.28262445e-01
   2.18011528e-01 -1.54389754e-01  4.93024401e-02  3.70116755e-02
  -9.78412256e-02  2.89426327e-01 -1.32469222e-01 -1.45952841e-02
   1.89726427e-01 -5.29933646e-02  3.48291487e-01 -1.95514575e-01
  -2.73845553e-01  1.12735800e-01  1.80734933e-04 -1.33818105e-01
   1.41514853e-01  5.47662437e-01  1.21630758e-01 -7.82071427e-03
   1.35668308e-01  6.61312714e-02 -1.99496627e-01 -5.81706539e-02
   7.12635666e-02 -1.05929531e-01 -1.96078047e-02 -1.55709069e-02
   3.56284268e-02  3.43416572e-01  3.02232981e-01 -1.63673714e-01
  -5.74546047e-02  1.32585198e-01  2.48856053e-01 -1.20654993e-01
  -1.63137779e-01  4.55385596e-02 -8.97108018e-03 -8.91272128e-02
  -1.38449699e-01 -1.08611844e-01  9.90081578e-02 -9.84764099e-02
   1.21828496e-01  2.42013577e-02 -2.38656208e-01  2.62662731e-02
  -7.09329471e-02  7.67925056e-03  9.94411384e-05 -1.28341960e-02
  -2.44550407e-01  1.04490556e-02 -1.02135547e-01 -1.79855928e-01
  -2.05196247e-01  2.13312283e-02 -1.97665878e-02  3.99053767e-02
  -1.29585162e-01 -1.49208263e-01 -1.13523692e-01 -1.85365289e-01
  -7.19790086e-02 -1.40978307e-01 -6.70967847e-02 -1.58754647e-01
  -9.29046497e-02 -2.65834153e-01 -8.41020048e-02 -4.11787219e-02
   8.73274356e-02 -1.88277960e-01 -1.43515021e-01 -1.97367474e-01
  -4.85816672e-02  4.00831643e-03 -6.89877644e-02 -2.02358320e-01
  -8.38720277e-02 -2.87316084e-01 -3.86380330e-02 -1.21844321e-01
  -2.92496771e-01 -1.75578967e-01 -1.13486931e-01  6.75161034e-02
  -1.48750395e-01 -2.39660412e-01 -2.21667252e-02  7.91291427e-03
  -4.42976020e-02 -2.03755274e-01 -7.41753280e-02 -7.92820081e-02
  -2.71525979e-01 -3.13104302e-01 -6.33767322e-02 -7.41290599e-02
  -1.64461017e-01 -5.30828536e-02 -7.12387189e-02 -2.22268432e-01
  -1.27643138e-01 -2.66370654e-01 -3.96976434e-02 -1.11509487e-01
  -2.11243793e-01 -3.05690356e-02 -1.63966358e-01 -5.73810302e-02
  -2.42575929e-01 -6.97303861e-02 -2.13567838e-01 -3.18517327e-01
  -1.42304316e-01 -1.74161077e-01  1.43466130e-01 -1.22605629e-01
  -2.00648606e-01  1.74327806e-01  1.26665756e-01 -1.33058175e-01
   1.08470991e-01  2.32588530e-01 -1.03369728e-01 -1.33906826e-01
  -1.27058357e-01  2.76352465e-02  1.76214635e-01  2.28592336e-01
   1.99838057e-01 -1.39398605e-01  1.41075224e-01  2.19270810e-01
   1.53128222e-01  1.88531786e-01  1.89945415e-01 -1.73854053e-01
   1.83924675e-01 -1.53143018e-01 -1.86684608e-01 -1.41664311e-01
   1.76069587e-01 -1.84140831e-01 -1.08225539e-01  2.83954442e-02
   1.15773648e-01 -1.18793540e-01  2.56826073e-01 -1.40890285e-01
  -1.01540886e-01  1.69425979e-01  2.32721314e-01  1.34867594e-01
   1.05894692e-01  1.73885614e-01  1.90336466e-01  1.97215095e-01
  -1.71078205e-01  1.44518003e-01  1.55906811e-01  1.90895498e-01
  -1.18930668e-01  1.99987233e-01 -1.82538778e-01 -8.78895372e-02
  -2.24175081e-01  1.69363320e-01 -2.06605479e-01 -1.12998322e-01
   6.06273450e-02 -1.66304365e-01 -1.80459857e-01  1.65791333e-01
   2.28898808e-01 -2.38228917e-01 -2.04339713e-01 -1.21425293e-01
   1.39489457e-01 -1.38891265e-01 -3.02622914e-02  1.63636953e-01
  -2.21929491e-01 -1.09632500e-01 -1.19109869e-01 -1.04691982e-01
   1.31960958e-01 -2.38126248e-01 -2.27494597e-01 -5.66448458e-02
  -2.04378545e-01  2.00830832e-01 -2.29654968e-01  1.40172482e-01
  -5.40696606e-02  1.20364569e-01  4.88941148e-02  3.08618546e-02
   2.39543706e-01  1.37896106e-01  1.67147532e-01  2.52606180e-02
   9.91488472e-02  3.73235613e-01 -4.74848598e-02  2.52758935e-02
   1.76986337e-01 -1.43531770e-01  3.26617733e-02  3.11286896e-01
  -3.52418311e-02  1.83984727e-01  2.31728047e-01  3.06357950e-01
   2.08709314e-02  9.37444866e-02  1.92560405e-01  1.27613842e-01
   1.20493837e-01  2.55840775e-02  2.29987517e-01  4.56244079e-03
  -3.70840020e-02  9.37327892e-02 -2.15467811e-01 -2.51100779e-01
   3.34032066e-02  1.07396014e-01  6.07399285e-01  1.79982930e-01
  -5.43537475e-02 -1.68415308e-01  3.98252368e-01 -7.63594061e-02
   9.29068699e-02  6.07478917e-02  1.14197433e-01  1.88796982e-01
   3.39801759e-01 -1.41396061e-01  1.53614938e-01  9.22761858e-02
  -2.12024271e-01  3.20136458e-01 -2.79909465e-02 -1.57013923e-01
   4.89796668e-01 -1.92176942e-02  3.98214370e-01 -5.14403880e-02
  -1.49077937e-01 -1.05150282e-01  1.18826337e-01 -1.67482227e-01
   1.66179970e-01  6.11320913e-01  1.70830786e-01  1.61490306e-01
   1.26678133e-02 -1.87981948e-01 -2.92222679e-01 -1.97730824e-01
   1.31892115e-01 -7.89873153e-02 -1.06603563e-01 -2.53853559e-01
  -3.92681435e-02  3.65196228e-01  2.74183214e-01 -2.18779355e-01
  -7.32920598e-03  2.73360789e-01  3.49729359e-01 -1.37414098e-01]]
lstm/lstm_cell/recurrent_kernel:0
(80, 320)
[[-0.06952911 -0.02751551  0.02904278 ... -0.13933781  0.18933843
  -0.17553826]
 [ 0.00930307 -0.04484992  0.1109101  ... -0.09958241  0.09612265
  -0.02776818]
 [-0.08830606  0.08127867 -0.09225123 ...  0.07738578  0.00220091
  -0.04324809]
 ...
 [-0.04814632  0.03661468  0.06265826 ...  0.0647605  -0.08355203
   0.05089423]
 [ 0.04060474 -0.11511782 -0.02340457 ... -0.01891677  0.28162193
  -0.0571124 ]
 [-0.02631772  0.08834691  0.02999787 ... -0.01591153 -0.33438957
   0.09020787]]
lstm/lstm_cell/bias:0
(320,)
[-0.11961295 -0.01012504 -0.06653875 -0.20649333  0.1815806  -0.00526847
 -0.1435529  -0.12029129 -0.1749352   0.22312081 -0.1244525  -0.01123634
 -0.01941671 -0.19741635 -0.01486747  0.5982191   0.0549949  -0.10674171
 -0.05617746  0.44345564 -0.06477142 -0.04135254  0.03273335 -0.0534836
 -0.03984737 -0.05773226 -0.02745635 -0.082816   -0.09075905  0.05985317
 -0.19176659 -0.2965322  -0.10382846 -0.07692922  0.6423626  -0.03242694
 -0.20313098 -0.03261948  0.68340427 -0.12008258 -0.12132723 -0.03163352
  0.12125508 -0.02964024  0.11853027  0.06410239  0.11772697  0.04152752
 -0.15734665  0.5707129  -0.00872634 -0.19046055  0.29778877  0.02780349
  0.24696039 -0.18799661 -0.18002768 -0.00557733 -0.02552675 -0.13361415
  0.35179564  1.0191219  -0.03142176 -0.10048254 -0.08503144 -0.1080939
 -0.37076983 -0.07043878  0.06507374 -0.07732969 -0.13539807 -0.23443928
 -0.05034984  0.6186858   0.18174608 -0.22105144  0.35345423  0.2160291
  0.8161126  -0.134226    0.7779323   0.6939829   0.746585    0.5601338
  0.6144879   0.72877914  0.6848614   0.7048085   0.7885516   0.5878706
  0.71030945  0.750428    0.5554158   0.86314595  0.6556584   0.4627336
  0.7439927   0.58476925  0.80592096  0.54915386  0.62174994  0.5613433
  0.716944    0.7671181   0.7700312   0.67654616  0.7211881   0.75660163
  0.79042786  0.64574087  0.7640819   0.6934533   0.57230884  0.65925056
  0.5386421   0.55564624  0.775746    0.75252986  0.38585433  0.76278347
  0.7418287   0.72812223  0.57397765  0.6817575   0.62369764  0.5209253
  0.6422659   0.714515    0.68638706  0.43410537  0.7251819   0.77708256
  0.5414954   0.80654025  0.571936    0.66743445  0.83466315  0.7494335
  0.7324198   0.70952356  0.59807837  0.40666124  0.7606812   0.5738378
  0.61956424  0.8324636   0.64322007  0.7990906   0.64155823  0.6346469
  0.7138464   0.6170333   0.6155686   0.56712395  0.6029152   0.7747637
  0.46093687  0.5642188   0.40550685  0.49767372  0.04882199  0.05187408
 -0.04865973  0.02511162  0.051851   -0.04986928 -0.04222442  0.03276279
 -0.02354816 -0.06299881  0.04895544  0.04258005  0.05106849 -0.00222268
 -0.05554629 -0.06302537 -0.05612871  0.04387176 -0.04310004 -0.06300934
 -0.04777078 -0.04198117 -0.05160214  0.05728728 -0.05396657  0.03481319
  0.04774424  0.0304213  -0.04807535  0.05181847  0.02598449 -0.01337027
 -0.04172166  0.0347791  -0.07014871  0.04153883  0.02251976 -0.04365496
 -0.06482138 -0.0430364  -0.03802999 -0.03814302 -0.04995373 -0.05428651
  0.05507978 -0.04206844 -0.04769187 -0.05524923  0.02645243 -0.0613881
  0.04256916  0.02145079  0.06310497 -0.04319582  0.06060793  0.03582305
 -0.00494125  0.0517075   0.04528238 -0.04825268 -0.06148117  0.06730485
  0.04980073  0.04039705 -0.04510759  0.0376627   0.00986009 -0.04523349
  0.05891688  0.04888811  0.03577415  0.03243441 -0.04428316  0.06629743
  0.06608961  0.01707642  0.06204105 -0.06010007  0.06744586 -0.03160594
 -0.11838649 -0.01697079 -0.06785548 -0.22026439  0.17391834 -0.00576578
 -0.1578192  -0.12192816 -0.17548615  0.21627061 -0.12325564 -0.01071801
 -0.03398054 -0.19828732 -0.01089443  0.591787    0.05627606 -0.12157398
 -0.06846272  0.43915915 -0.06287332 -0.04409359  0.03118557 -0.05900881
 -0.04077062 -0.06040445 -0.02977311 -0.08290429 -0.09351442  0.05954694
 -0.19128849 -0.29711154 -0.10802536 -0.08166599  0.668955   -0.04274462
 -0.20803863 -0.0344228   0.6895685  -0.11967608 -0.12502752 -0.03723342
  0.1195671  -0.03399548  0.107503    0.06369554  0.11501578  0.04338789
 -0.1563861   0.5756574  -0.00756713 -0.18955757  0.28424907  0.02945404
  0.23480402 -0.1929354  -0.18248522 -0.00780787 -0.02542585 -0.13431792
  0.35610116  1.036386   -0.03258625 -0.11716603 -0.08096771 -0.10479573
 -0.37386546 -0.07054511  0.06378404 -0.0785748  -0.13588858 -0.23152441
 -0.05071764  0.6252288   0.18000704 -0.22333051  0.35624948  0.21253374
  0.82909995 -0.13471563]
lstm_1/lstm_cell_1/kernel:0
(80, 400)
[[-0.16411129 -0.0992529  -0.03542484 ... -0.04105059  0.02976665
  -0.00641771]
 [-0.08260039  0.03017392 -0.19995081 ... -0.03766657  0.16299862
   0.11085775]
 [-0.06186174 -0.07711846  0.07532073 ... -0.03494675  0.06812233
   0.14362623]
 ...
 [-0.09428977 -0.06261927  0.03669684 ...  0.01381218  0.07147283
   0.26762968]
 [-0.09274617 -0.1273982   0.00667583 ...  0.09467755 -0.01582583
  -0.0595168 ]
 [-0.01382902  0.090335    0.10625828 ... -0.01043409  0.11718445
   0.05473394]]
lstm_1/lstm_cell_1/recurrent_kernel:0
(100, 400)
[[ 0.00723984  0.02901954  0.01485639 ... -0.08059155  0.00830234
  -0.05486272]
 [-0.12151442 -0.04824739  0.1348903  ...  0.05959361 -0.0240343
  -0.0632828 ]
 [ 0.15557091  0.12181122  0.02838099 ... -0.28657174  0.09815165
   0.01617563]
 ...
 [-0.02747451  0.07812804 -0.01486411 ... -0.09721498  0.04422284
   0.08938912]
 [ 0.05698926  0.09820175 -0.09634671 ... -0.071922    0.06627345
   0.04145486]
 [ 0.06485967  0.00968221  0.04046597 ...  0.04006581 -0.05969239
  -0.08039395]]
lstm_1/lstm_cell_1/bias:0
(400,)
[-2.36070722e-01 -2.14983925e-01 -2.86049306e-01 -2.62819350e-01
 -1.92622215e-01 -2.22329900e-01 -1.71548948e-01 -2.36104324e-01
 -1.85560763e-01 -2.47330904e-01 -6.77792504e-02 -2.04017416e-01
 -3.17684680e-01 -2.55970120e-01 -2.56896973e-01 -2.65921861e-01
 -2.71579087e-01 -1.72683299e-01 -2.20714733e-01 -2.53330529e-01
 -2.98420578e-01 -2.01123267e-01 -2.12868065e-01 -3.17242384e-01
 -2.35342175e-01 -1.15537308e-01 -2.53375977e-01 -2.11776912e-01
 -2.63635665e-01 -2.64354795e-01 -2.21039563e-01 -2.28549749e-01
 -3.01931828e-01 -1.51421145e-01 -2.39024565e-01 -2.45226264e-01
 -2.53971934e-01 -3.65904868e-01 -3.09447974e-01 -1.23686075e-01
 -2.20049217e-01 -1.72609627e-01 -2.08415642e-01 -2.55281031e-01
 -1.90880746e-01 -2.26102352e-01 -2.34423146e-01 -2.60951519e-01
 -2.85727859e-01 -1.85868904e-01 -2.86536336e-01 -2.65585095e-01
 -2.01772526e-01 -2.35599741e-01 -2.74963856e-01 -2.43949264e-01
 -1.86685681e-01 -2.50927895e-01 -1.49159282e-01 -2.36315116e-01
 -2.10041061e-01 -3.05274844e-01 -2.07515329e-01 -2.63359278e-01
 -2.79305547e-01 -2.54662931e-01 -2.80513734e-01 -2.70292729e-01
 -2.71738052e-01 -2.11262107e-01 -2.56374478e-01 -2.12557703e-01
 -2.83990234e-01 -1.79535985e-01 -1.77187666e-01 -2.54492849e-01
 -1.68552309e-01 -2.26869360e-01 -1.34742275e-01 -2.75634676e-01
 -2.46255293e-01 -1.77204534e-01 -2.83107698e-01 -2.49375448e-01
 -2.87135690e-01 -2.21212655e-01 -2.49072984e-01 -2.72343785e-01
 -1.99393332e-01 -2.94029951e-01 -2.06699774e-01 -2.29506120e-01
 -2.31143340e-01 -1.90338969e-01 -2.63330013e-01 -2.07203761e-01
 -6.68533221e-02 -3.44187975e-01 -2.28799284e-01 -2.54676551e-01
  8.73957157e-01  7.70837963e-01  7.19798148e-01  8.44451129e-01
  8.93908441e-01  9.18349266e-01  6.76630378e-01  7.89471984e-01
  8.00417662e-01  7.73044169e-01  6.60675228e-01  8.66918266e-01
  7.80187488e-01  8.41410041e-01  8.14714313e-01  8.44139159e-01
  7.80132711e-01  6.33763850e-01  7.95744419e-01  8.72160137e-01
  8.18503261e-01  7.16548741e-01  8.95589650e-01  6.81776106e-01
  6.90894425e-01  6.20952189e-01  8.42222571e-01  8.65624666e-01
  8.31722796e-01  7.98625171e-01  8.51398528e-01  7.94038117e-01
  7.71714151e-01  9.31152940e-01  8.80168557e-01  7.87438512e-01
  7.94192612e-01  7.12053299e-01  6.94576740e-01  6.42640829e-01
  7.91289270e-01  9.18606102e-01  8.91398966e-01  7.65689135e-01
  7.60264337e-01  8.90131593e-01  8.80992293e-01  7.80745864e-01
  7.66651213e-01  8.40942740e-01  8.26725125e-01  7.57826865e-01
  7.76927769e-01  7.88040400e-01  7.33304083e-01  7.60260046e-01
  5.72510421e-01  8.40442121e-01  8.16504538e-01  7.11278141e-01
  9.09079254e-01  6.87653601e-01  8.71739268e-01  7.03245223e-01
  8.03863883e-01  7.77147651e-01  7.89522648e-01  8.24166596e-01
  7.76782751e-01  8.95093381e-01  7.95853078e-01  8.68870139e-01
  7.73036003e-01  9.56222832e-01  9.54039276e-01  7.94077277e-01
  9.32283044e-01  8.46058071e-01  9.09508705e-01  7.46435106e-01
  7.73208141e-01  9.64538217e-01  8.19761932e-01  8.12855780e-01
  7.23104179e-01  8.89196217e-01  8.80074620e-01  7.34429657e-01
  6.80505216e-01  7.09613204e-01  8.69478226e-01  6.94837689e-01
  7.64787316e-01  9.36950803e-01  8.45829070e-01  9.02923882e-01
  1.03828990e+00  7.67897546e-01  7.13704288e-01  8.23337018e-01
 -8.82250164e-03 -7.39777461e-03 -2.04518833e-03  7.30901083e-04
 -6.77614892e-03 -1.00113696e-03 -7.89068919e-03  7.16953073e-05
  5.14431251e-03  4.96325176e-03 -7.40918238e-03  6.11773506e-03
 -9.52098519e-03 -6.05035340e-03  1.26374105e-03 -2.95206090e-03
  5.71070355e-04 -3.02641420e-03 -9.09907930e-03 -8.24369676e-03
  2.96855625e-03 -2.31534289e-03 -1.13361571e-02  1.43368263e-03
  6.67321356e-03  1.16786432e-05  1.39050404e-04 -2.79608183e-03
  4.16645035e-03  6.18115626e-03 -4.54973243e-03  5.79272455e-04
  2.59258086e-03  1.04528181e-02  6.02874532e-03 -3.11888428e-03
 -6.48245506e-04 -4.52102488e-03  2.52427859e-03  6.54454250e-03
  2.71499204e-03  3.01707024e-03 -6.95445901e-03 -3.54037294e-03
 -2.16286583e-03 -3.45750968e-03  8.43621092e-04 -2.81090592e-03
 -4.49098973e-03 -9.82097350e-03  3.69919208e-03  5.08361170e-03
 -1.16015570e-02 -2.28843972e-04  1.02387425e-02  9.03832261e-03
 -6.83514820e-03  4.73226467e-03 -1.59852654e-02  4.90574772e-03
 -4.33775684e-04  3.75585421e-03 -8.55090562e-03 -6.94794115e-03
 -7.51576060e-03  2.37133377e-03 -2.22140038e-03 -6.53198734e-03
  2.71428726e-03 -5.18332142e-03  3.13603552e-03 -4.83924663e-03
 -2.62605795e-03  7.70995906e-03  1.16025452e-02  9.52734798e-03
 -1.10526299e-02  1.10570919e-02 -1.11372303e-02  1.23212775e-02
  6.04999904e-03 -4.18697484e-03 -4.15467750e-03 -1.17799919e-03
 -8.24008021e-06 -3.33889876e-03 -1.61857775e-03  8.76236241e-03
  3.05997673e-03  4.66771657e-03  3.97113292e-03  3.88410478e-03
  4.28453321e-03 -6.17171824e-03 -2.67457333e-04 -4.85894596e-03
  4.82572988e-03  4.33333544e-03 -1.03203917e-03  7.31322356e-03
 -2.49040917e-01 -2.20082819e-01 -2.94988602e-01 -2.63992101e-01
 -1.99520707e-01 -2.33584851e-01 -1.75233349e-01 -2.43403018e-01
 -1.90031648e-01 -2.51317561e-01 -7.23371580e-02 -2.17524737e-01
 -3.25023830e-01 -2.62647361e-01 -2.67348170e-01 -2.81076282e-01
 -2.80171275e-01 -1.82313338e-01 -2.23581493e-01 -2.58022636e-01
 -3.08505416e-01 -2.13958293e-01 -2.23050773e-01 -3.29014540e-01
 -2.46871561e-01 -1.18664928e-01 -2.62842238e-01 -2.17543229e-01
 -2.67330259e-01 -2.70999163e-01 -2.24692926e-01 -2.31304035e-01
 -3.12472820e-01 -1.61049411e-01 -2.45680720e-01 -2.54754305e-01
 -2.60452211e-01 -3.56208563e-01 -3.17607164e-01 -1.24865778e-01
 -2.32853338e-01 -1.76241860e-01 -2.15353996e-01 -2.59941161e-01
 -1.99662715e-01 -2.34150141e-01 -2.53172934e-01 -2.70170838e-01
 -3.03675532e-01 -1.91202298e-01 -2.90411800e-01 -2.68477231e-01
 -2.03913599e-01 -2.46456549e-01 -2.90837079e-01 -2.47981831e-01
 -1.85869634e-01 -2.51428783e-01 -1.35539368e-01 -2.45955169e-01
 -2.26324782e-01 -3.10163021e-01 -2.09844217e-01 -2.69201934e-01
 -2.85802215e-01 -2.67200530e-01 -2.81845868e-01 -2.78349429e-01
 -2.63121873e-01 -2.13614315e-01 -2.63320416e-01 -2.19354883e-01
 -2.89420545e-01 -1.85168341e-01 -1.83001056e-01 -2.64590234e-01
 -1.76151767e-01 -2.34939545e-01 -1.46180093e-01 -2.85626590e-01
 -2.51764834e-01 -1.89773858e-01 -2.89044470e-01 -2.49564275e-01
 -2.94881999e-01 -2.32494012e-01 -2.48170823e-01 -2.84705698e-01
 -2.07589105e-01 -3.07993323e-01 -2.09494829e-01 -2.37033471e-01
 -2.34258324e-01 -1.89084828e-01 -2.69528002e-01 -2.14150637e-01
 -7.94521496e-02 -3.36617976e-01 -2.35246748e-01 -2.64759570e-01]
dense/kernel:0
(100, 1)
[[-0.144451  ]
 [ 0.13584387]
 [-0.137315  ]
 [-0.11758976]
 [-0.1334198 ]
 [ 0.09597826]
 [-0.14452422]
 [-0.18253814]
 [-0.13400872]
 [-0.13743004]
 [-0.16188444]
 [ 0.12341736]
 [ 0.12761661]
 [-0.11829194]
 [-0.13357133]
 [-0.12571865]
 [ 0.13056822]
 [-0.17573552]
 [-0.14090401]
 [-0.13810226]
 [ 0.1260531 ]
 [-0.14952591]
 [-0.1436477 ]
 [ 0.14495502]
 [ 0.13728948]
 [ 0.1668165 ]
 [ 0.14174095]
 [-0.1333938 ]
 [ 0.14544208]
 [ 0.161832  ]
 [-0.15416801]
 [ 0.12965484]
 [ 0.10635365]
 [ 0.1673374 ]
 [ 0.12983006]
 [ 0.14704734]
 [-0.14944078]
 [ 0.11474972]
 [ 0.14163993]
 [ 0.17815296]
 [ 0.13227141]
 [ 0.13211137]
 [-0.14415123]
 [-0.12217849]
 [-0.15772858]
 [-0.13373992]
 [ 0.11891915]
 [-0.14023963]
 [ 0.14126924]
 [-0.14909254]
 [ 0.13566336]
 [ 0.14035377]
 [-0.16712014]
 [ 0.14589971]
 [ 0.14742644]
 [-0.12125958]
 [-0.16645591]
 [ 0.11856378]
 [ 0.10371756]
 [ 0.16818771]
 [ 0.12120944]
 [-0.13392185]
 [-0.12412851]
 [-0.13487346]
 [-0.14065167]
 [ 0.1447913 ]
 [-0.12683265]
 [-0.14611708]
 [-0.11916967]
 [-0.12078594]
 [ 0.1387159 ]
 [-0.13089827]
 [-0.15710904]
 [ 0.10689361]
 [ 0.12277109]
 [ 0.17471957]
 [-0.12254277]
 [ 0.17127739]
 [-0.1372495 ]
 [ 0.13107975]
 [ 0.13394998]
 [-0.10263906]
 [ 0.13180467]
 [ 0.11944186]
 [-0.14357035]
 [-0.13614987]
 [-0.13770576]
 [-0.1193047 ]
 [-0.1371004 ]
 [ 0.15499517]
 [-0.11152805]
 [ 0.16285212]
 [ 0.16364177]
 [-0.10157486]
 [-0.13884127]
 [-0.09786375]
 [ 0.0907437 ]
 [-0.10421915]
 [-0.14235488]
 [ 0.1318123 ]]
dense/bias:0
(1,)
[0.25939092]
