embedding/embeddings:0
(26, 2)
[[-0.14624682 -0.0475135 ]
 [ 0.47370964 -0.2577804 ]
 [-0.5149426  -0.31411967]
 [-0.08856282  0.26592672]
 [ 0.8741704   0.39094588]
 [-0.08492572 -0.13018519]
 [-0.68493485 -0.42676255]
 [-0.7000686   0.5613762 ]
 [-0.32896385 -0.00833327]
 [-0.8088434   0.46970204]
 [ 0.06772367 -0.87978256]
 [ 0.60751367  0.07642537]
 [ 0.7421522  -0.5262652 ]
 [-0.21578375  0.07477102]
 [-0.52966714 -0.31037515]
 [ 0.474442   -0.5350765 ]
 [-0.15845697  0.8144453 ]
 [-0.8169184  -0.15189499]
 [-0.82921827  0.5366445 ]
 [-0.2882813   0.90283847]
 [-0.57137585 -0.5221057 ]
 [ 0.07298055  0.41492498]
 [ 0.6590738  -0.75042385]
 [ 0.5798446  -0.8380732 ]
 [ 0.96282184 -0.5860638 ]
 [-0.0353582   0.01978463]]
simple_rnn/simple_rnn_cell/kernel:0
(2, 10)
[[-1.664243    0.46942788  0.6648839   0.11089623  0.4223112  -1.4038846
  -1.1671305  -1.6854397  -0.47405103 -1.347721  ]
 [ 1.1597307  -1.3681753  -1.1143854  -0.69799584  1.0384147   0.4075399
   1.1508449  -1.3700105  -1.4076017   0.6558684 ]]
simple_rnn/simple_rnn_cell/recurrent_kernel:0
(10, 10)
[[ 1.2951354   0.37129217 -0.4860129  -1.0908428   0.17162195  1.0548565
   1.2457672   0.24319342 -1.3302267  -0.8749103 ]
 [-1.6102514  -0.36312056  0.24675678  0.16735728  1.4733002  -1.3349851
  -0.5342552  -0.8825163  -0.81891865  0.5345195 ]
 [-0.04827389 -1.1759884  -1.2178154  -0.6496514  -1.2921193  -1.6568176
  -0.8413258  -0.6038219   0.46020147  0.47359443]
 [-0.02723369  0.87091756  0.06949578 -0.17155059  1.326561   -1.4833649
   1.0049955  -1.0215921   0.15984425 -0.68780214]
 [-1.1843864   1.0751488  -1.3292811  -1.1477469  -0.87607795  0.7056556
  -0.5034055   0.5609193   0.33248314 -1.6558572 ]
 [-0.11634764 -0.9361276   1.2574794  -0.42935058 -0.13208257  0.8498305
  -0.73945886  0.37079555 -0.59054357 -0.35548562]
 [-0.18992165  0.6626794   0.7352273  -0.07071329  0.55519885  0.38392478
   0.750582    1.4613669  -1.460653   -0.7874082 ]
 [ 0.9478008  -0.30122185  0.9455402  -1.6649449   0.569394    0.42939594
  -0.64361006 -0.52263796 -1.2520556   0.8966497 ]
 [ 0.97355354  1.4653804  -0.5884886   0.99526757  1.0381966  -0.68058914
   0.44849765 -0.63009477 -0.56826186  0.2776789 ]
 [ 1.2689724   0.37711313 -1.4429598   1.0505474   0.20123637 -0.05982592
   0.465291    1.4795159   0.5006865  -1.0509785 ]]
simple_rnn/simple_rnn_cell/bias:0
(10,)
[-0.12800889  0.22674808  0.26909807  0.1814596   0.11979786 -0.16291931
  0.11611199 -0.1722765   0.05468247 -0.06581373]
dense/kernel:0
(10, 26)
[[ 4.9843028e-02  4.9463727e-02 -1.5924725e-01  1.2111759e-02
   1.2704566e+00 -1.3041662e+00 -1.2856899e+00  1.7660661e+00
   1.8049489e+00 -4.9676335e-01  1.6103530e+00  1.7643009e+00
  -1.5078882e+00 -1.0885019e+00 -1.2792974e+00 -1.3864129e+00
  -1.0920713e+00 -1.7056850e+00  8.3923364e-01  1.5444688e+00
   1.4314612e+00  1.2440734e+00  1.4519914e+00 -1.9914120e+00
  -7.5363314e-01 -1.1657852e+00]
 [-1.8041891e-01 -3.5831624e-01 -3.2339883e-01  1.0914561e-01
   6.6103292e-01  2.7256382e-01 -1.7373530e+00 -1.0731393e+00
   4.7708267e-01  1.2183470e+00 -1.3932235e+00 -1.4904549e+00
  -1.0259162e+00 -2.1978920e+00  2.5259778e-01  8.0528569e-01
   7.1357095e-01 -4.8046094e-01  9.4430560e-01  1.7616464e+00
  -1.4439002e+00 -6.0127378e-01 -9.3937510e-01 -4.3412989e-01
   1.0021100e+00  1.4290611e+00]
 [ 5.8925837e-01  2.1392395e-01  3.9918619e-01  2.5361851e-01
  -1.7202091e+00 -1.3990645e+00  9.1705793e-01 -1.3682315e+00
  -9.3764460e-01 -4.5858723e-01  7.0584786e-01  3.0399632e-02
   6.3246137e-01 -1.0748929e+00  1.3303077e+00 -8.4723246e-01
   1.5272846e+00 -1.4840777e+00 -2.5966367e-01  9.2376137e-01
  -1.2149945e+00  8.3910549e-01  1.4621916e+00 -1.0538305e+00
   1.0472733e+00 -9.2407352e-01]
 [-1.1547223e-02 -3.5743693e-01 -1.0108162e-01 -2.3805182e-02
   5.2235651e-01  1.7189780e+00  5.5841601e-01  9.8750168e-01
   1.0720674e+00 -1.0423523e+00 -9.3302864e-01 -1.4868820e+00
  -1.3877547e+00  1.5987338e+00  7.8427368e-01  9.5465350e-01
  -1.1106122e+00 -1.3292786e+00  9.0381080e-01 -1.0269471e+00
  -1.1539822e+00 -1.0565900e+00 -3.1650156e-01 -3.8256446e-01
   1.6199149e+00  9.9450463e-01]
 [-1.9617897e-01 -1.6445263e-01  9.2581943e-02 -1.5393582e-01
   1.2903370e+00  9.9109054e-01  1.3979709e+00 -1.1990184e+00
   6.2683278e-01  7.3081011e-01  2.1230052e+00 -4.5665580e-01
  -7.6531309e-01 -5.3658813e-01  6.7198068e-01  1.0870005e+00
   6.5374285e-01 -8.3987755e-01 -1.0669227e+00  9.8046696e-01
  -1.4533176e+00 -2.0279560e+00 -1.5943680e+00 -1.0063318e+00
   1.0795531e+00 -1.1832725e+00]
 [-3.6188532e-02 -4.2948583e-01 -2.1808678e-02 -1.9573497e-03
  -1.0689354e+00 -6.0234690e-01  1.7029471e+00 -1.7151104e+00
  -1.3031375e+00  1.4640015e+00  9.3965751e-01  1.3669864e+00
  -1.6000224e+00 -1.3344278e+00 -1.0306377e+00 -1.1149168e+00
  -7.5356662e-01  6.1121947e-01  1.3096768e+00  1.2673091e+00
   6.8305433e-01  1.1512274e+00  1.4097155e+00  2.3815446e+00
  -1.0855397e+00 -9.0514743e-01]
 [ 7.6122746e-02  2.5833461e-01  1.2586354e-01 -2.0039468e-01
   4.4057813e-01  7.7019560e-01 -1.5484762e+00 -1.0155922e+00
   8.6771989e-01  1.1995022e+00  4.0281540e-01 -1.5793793e+00
  -9.0397424e-01 -7.9597682e-01  1.2006404e+00  1.0531316e+00
   9.2648560e-01 -1.0416360e+00  8.5033548e-01  1.0523118e+00
   1.3672047e+00 -5.9931368e-01 -1.8089962e+00 -7.8110576e-01
  -1.7454954e+00 -1.5710069e+00]
 [-3.2449996e-01 -2.7238888e-01 -2.3259825e-01 -3.2814771e-01
  -1.3454204e+00 -1.6362147e+00 -4.7330770e-01  1.0554057e+00
   1.5477437e+00  1.4242855e+00  1.4511656e+00  1.5863651e+00
  -1.2247699e+00  1.1965722e+00 -1.2589525e+00  1.6511161e+00
  -1.3087220e+00 -1.0081249e+00  1.0775449e+00 -1.5099106e+00
   1.1559052e+00  1.6571797e+00 -1.4734249e+00  1.0305895e+00
  -6.7898369e-01 -1.2157786e+00]
 [ 3.1455415e-01  9.9973798e-02  3.5259056e-01  3.4227613e-02
   7.0943475e-01 -1.6307739e+00 -1.2772989e+00  7.7748471e-01
  -1.6504109e+00 -1.2427239e+00 -6.0365689e-01  1.9085474e+00
  -1.3851720e+00  4.0578678e-01  1.4128524e+00  1.5997825e+00
  -1.1113598e+00  1.3173665e+00  1.1396044e+00 -1.0628489e+00
  -1.2133024e+00 -1.5189995e+00  6.4159161e-01  1.0117365e+00
  -1.9960020e+00  7.9872835e-01]
 [-5.8110905e-01 -4.4500068e-01 -4.6907181e-01 -3.6635849e-01
   1.4038925e+00 -1.1285909e+00  7.8301924e-01  1.3900213e+00
  -1.1944643e+00 -9.8408908e-01  1.0315124e+00 -9.7263765e-01
   9.7533023e-01 -1.1390980e+00  1.3048102e+00 -1.0478503e+00
  -1.8336681e+00  1.3612266e+00  1.1212652e+00  8.3644402e-01
  -1.8733416e+00  1.5538101e+00  8.5349733e-01 -1.5955154e+00
   1.0604295e+00 -1.0751590e+00]]
dense/bias:0
(26,)
[-0.47020745 -0.44713533 -0.4717955  -0.47264212  0.73486316  0.12054528
  0.63436407  0.1951685   0.5226623   0.70654356  0.42275915 -0.40433967
  0.25617176  0.75413847  0.40299854 -0.17431083  0.21941939  0.6500463
  0.91659236 -0.17853807 -0.29162082 -0.19331838 -0.01024103  0.28704455
 -0.21569195  0.00960397]
