dense/kernel:0
(784, 128)
[[-7.52301067e-02  7.67311975e-02  4.61348072e-02 -7.54418820e-02
  -5.48648462e-02  3.61405537e-02 -8.10640454e-02 -6.27558678e-03
  -5.19893542e-02  8.84322822e-03  5.36651164e-03  7.70236775e-02
   7.03662261e-02  3.42776403e-02  3.01304832e-02 -1.25189945e-02
   6.66766241e-02 -2.69980840e-02 -4.38465402e-02 -7.39531219e-02
  -3.85870263e-02 -6.82185218e-02  2.71484032e-02  5.57965785e-03
   5.89597449e-02  7.50567243e-02 -2.02541240e-02  1.09275505e-02
  -2.45783217e-02 -7.13720545e-02 -6.46683797e-02 -2.23540515e-02
   2.67421827e-02  1.66541412e-02 -7.36876577e-03  1.83881149e-02
   4.26358432e-02 -5.20746559e-02  2.35128999e-02 -2.26714090e-02
   1.59783661e-02 -7.78664201e-02  3.19506600e-02  4.71600816e-02
  -7.10709989e-02  6.28395155e-02 -7.48302862e-02 -7.68851936e-02
  -4.99146469e-02 -4.52639386e-02  5.92561290e-02  4.06621620e-02
  -2.47248299e-02 -1.17805600e-02  4.72089425e-02 -1.10228732e-02
   3.74791175e-02  7.60145113e-02 -5.99049479e-02  3.07113454e-02
   7.78333172e-02 -7.43108764e-02  7.14107528e-02 -1.56334266e-02
  -3.63927446e-02 -5.63433915e-02 -8.04271996e-02 -6.99583516e-02
   8.02157894e-02  2.10115686e-02  6.26064166e-02  3.68330628e-03
  -5.00158817e-02  3.84749994e-02  3.82827371e-02  2.46822238e-02
   4.64032516e-02  3.74803320e-02 -2.43213139e-02  5.53462282e-02
   5.70224747e-02  5.69540337e-02  7.62328133e-02 -7.58433044e-02
   6.10418394e-02  6.56263158e-02  7.35548064e-02 -7.55675584e-02
  -6.66110218e-02 -1.28360316e-02  1.65744871e-03 -2.96947360e-03
   2.71083117e-02  4.52604219e-02 -9.64187086e-04 -1.68579668e-02
  -4.63033542e-02  2.46213078e-02  1.04854554e-02 -4.98798378e-02
   7.90918246e-02  2.00285986e-02  2.90849581e-02 -4.77912426e-02
   3.37330699e-02 -3.14367451e-02  5.05389050e-02 -1.87675282e-02
  -5.85071966e-02 -4.16255742e-02 -2.90196911e-02 -2.77089030e-02
  -7.73420408e-02 -4.99958098e-02  3.74949500e-02 -6.49245083e-03
   2.77410820e-02 -5.52052371e-02 -3.28707583e-02  4.49929908e-02
   4.58177254e-02 -1.28041431e-02  5.42697087e-02  5.67948595e-02
  -1.03943348e-02  8.09786245e-02 -2.12480724e-02 -6.85394183e-02]
 [ 5.06651476e-02 -4.84383032e-02  7.57896230e-02 -1.38428956e-02
  -6.18977211e-02  1.69784054e-02 -4.62827384e-02 -1.47698745e-02
   2.27067247e-02 -2.49778889e-02  5.81473336e-02 -7.19026402e-02
  -3.84428948e-02  3.81090045e-02 -1.06475875e-02 -1.25189573e-02
   7.17669502e-02  6.21787980e-02  7.90628418e-02  7.97343478e-02
  -4.24725935e-02 -1.57820061e-02 -5.58808409e-02 -5.15417755e-03
   1.72611326e-02 -9.55639035e-03  2.86387429e-02 -2.48277262e-02
  -6.64542466e-02 -2.29062364e-02 -5.40446714e-02 -6.75851703e-02
  -2.68078521e-02 -3.00313756e-02  2.92074829e-02  2.60589421e-02
  -1.35394931e-03  1.92182064e-02 -6.53236210e-02 -3.11736874e-02
   7.71446899e-02  6.05236962e-02  3.94709781e-02  1.26957074e-02
  -7.48222396e-02  1.19632110e-02  3.76018733e-02  7.04758987e-02
  -7.77133927e-02  6.93665221e-02 -4.85379994e-03  5.25882319e-02
   3.36063281e-02 -6.09830394e-02  5.40555045e-02 -7.93504193e-02
   7.07268193e-02 -9.25090164e-03  5.29520735e-02  4.97621521e-02
  -5.73448688e-02 -4.05821949e-03  3.06385010e-02 -6.75386041e-02
   4.96455207e-02 -6.40852675e-02 -8.06194544e-03 -3.72528769e-02
   6.06191680e-02 -1.77712366e-02  5.60455695e-02 -2.90008746e-02
   4.30564135e-02  2.18437612e-03 -3.88244614e-02 -4.19211015e-02
  -4.68872748e-02 -5.21910340e-02 -5.56696467e-02 -6.13696501e-02
   5.65506294e-02  5.89020029e-02  5.73093966e-02  7.39925876e-02
   7.85412416e-02  6.42538071e-04  1.49608254e-02  7.47647360e-02
  -6.33387342e-02  4.12635431e-02 -5.05241305e-02  4.71821055e-02
   7.62433484e-02  7.29069784e-02 -6.84774220e-02 -2.19837390e-02
   1.20749474e-02 -5.60874119e-02  5.90932369e-03  5.25579080e-02
   2.62841731e-02 -2.78680958e-02 -5.69456667e-02 -3.23641710e-02
   5.86105138e-03  3.70920002e-02 -6.79624453e-02  2.46591717e-02
  -6.24526888e-02  7.61112943e-02  2.13916972e-02  5.23331836e-02
  -1.51377916e-02  7.72017166e-02 -2.24888362e-02 -1.47698745e-02
   6.63556680e-02  7.94862881e-02 -7.57149011e-02 -3.20233144e-02
   3.49062309e-02 -1.63301304e-02 -4.99137379e-02  5.74864820e-02
  -6.01872876e-02  5.97607344e-03  5.80102429e-02 -7.91575387e-02]
 [-3.06863412e-02 -4.38906290e-02  3.05459648e-02  5.11090830e-02
   2.78595835e-02 -1.75345168e-02 -6.50106072e-02  1.95053965e-03
  -2.03004964e-02  1.52883977e-02 -6.39494732e-02 -1.43673494e-02
   1.51940808e-02 -3.74478064e-02  4.22280207e-02  3.13169286e-02
  -5.90186156e-02  6.17054328e-02  8.06856975e-02 -2.86544301e-02
  -3.74543034e-02  7.24268183e-02 -7.34517574e-02 -5.51605076e-02
  -4.45855148e-02  5.18132076e-02 -6.39132932e-02 -5.11179529e-02
  -5.46545982e-02 -5.14686555e-02 -3.58150899e-03 -5.78094870e-02
  -2.57594138e-03  2.69114524e-02 -4.45009284e-02  5.88490888e-02
   3.98626179e-03 -1.47643834e-02  3.70965824e-02  1.34573132e-03
   7.12954924e-02 -1.61374211e-02 -6.78629130e-02  6.48367777e-02
   1.84518918e-02 -6.38946891e-03 -7.28855878e-02  7.50066265e-02
  -6.24775812e-02 -2.99809799e-02  6.80990443e-02 -1.13568231e-02
  -2.91492194e-02  2.49628723e-03 -2.18264423e-02 -6.90420419e-02
   6.53709248e-02 -7.50470906e-03  5.36083654e-02  5.17216548e-02
   1.71979368e-02  2.10205391e-02  7.66564533e-02  4.54493985e-02
  -3.70139331e-02  7.42207244e-02 -2.40872651e-02  5.82215264e-02
   6.87763020e-02 -3.37085128e-02 -5.94337508e-02 -6.71997815e-02
  -6.02083653e-02  7.94662163e-02  7.55531117e-02 -5.75506054e-02
  -3.95447537e-02  4.22353894e-02 -2.63728946e-02 -2.76831537e-03
   4.84381244e-02 -5.33481017e-02  4.34759408e-02 -9.88734514e-03
  -3.03649791e-02  5.90729788e-02 -2.74171829e-02 -9.46988910e-03
  -2.07113177e-02  5.45434281e-02  3.32662687e-02  3.18963006e-02
  -6.69988543e-02 -3.63617279e-02  1.16390064e-02 -6.88037723e-02
   1.31021068e-02 -6.61058724e-03  5.40844277e-02  6.59761056e-02
  -4.13837507e-02  2.72433683e-02  3.87637988e-02 -7.02072680e-02
   1.96069255e-02 -7.42009208e-02 -5.86237013e-03  6.17198721e-02
   4.95294258e-02 -6.68041930e-02 -6.63952902e-02  4.27589566e-02
  -7.85693303e-02 -3.77682596e-03 -5.39703742e-02 -3.40295285e-02
  -5.86307868e-02 -2.96173021e-02  1.72949582e-02 -6.24196604e-02
  -7.10612088e-02  1.77762508e-02  4.93291840e-02 -3.06608938e-02
  -6.29996583e-02  5.00722602e-02 -6.97948635e-02 -7.44551420e-03]
 [-7.65271485e-02 -2.26117522e-02 -4.80391197e-02  7.14316219e-03
   5.91668263e-02 -1.14187077e-02 -3.61018404e-02 -2.74130441e-02
   2.31549144e-03 -5.82000241e-02  2.96871513e-02 -3.25627588e-02
   2.30961293e-03 -2.22943723e-02 -7.33284131e-02 -6.53923824e-02
  -2.33052634e-02  1.12240463e-02  4.23675478e-02 -4.04499397e-02
   6.39169142e-02 -2.33661570e-02 -7.58751705e-02 -7.61919469e-03
   3.96506488e-03 -7.63440877e-02  1.28143728e-02  3.16117033e-02
   3.39375436e-03 -6.60995245e-02 -4.33979481e-02  2.39403322e-02
   8.81275535e-03 -7.25166947e-02 -3.37509066e-03  1.47843435e-02
   7.97295645e-02  6.26334026e-02  3.69526446e-02 -4.93942946e-03
   9.42419469e-03 -3.29554789e-02  5.83577082e-02  2.60239169e-02
   6.67113289e-02  1.04676485e-02 -7.19280913e-02 -5.53739667e-02
   1.35022327e-02  4.74226996e-02 -5.05484790e-02  6.20539412e-02
   3.41748744e-02 -3.77144814e-02 -7.03932121e-02 -7.02860579e-02
   2.00792849e-02 -7.38178864e-02  6.95889667e-02 -4.50457856e-02
   6.06724396e-02  5.82555607e-02 -7.05354810e-02  7.48370364e-02
   3.86390463e-02  2.40172595e-02 -4.55603562e-02 -5.04235700e-02
  -3.60582918e-02  5.86370900e-02 -4.70802523e-02  2.88109705e-02
  -5.94380647e-02  4.93332222e-02  5.10880724e-02 -4.87413928e-02
   1.24576390e-02 -2.33461447e-02 -4.42516170e-02  8.10274556e-02
  -6.29980117e-03 -9.73176956e-03  5.75628057e-02 -8.38533789e-03
   1.45970732e-02  5.19666150e-02  4.98625264e-02  5.11430725e-02
   4.74140868e-02 -1.85502619e-02  6.61983117e-02 -6.52783290e-02
   2.76616365e-02 -1.63435936e-03  2.25893185e-02 -5.42118475e-02
   5.03021404e-02 -6.31625205e-02 -4.84738275e-02 -6.14080727e-02
   7.57278278e-02  2.90451050e-02 -1.26428381e-02 -3.21917534e-02
  -3.69692035e-02 -3.73004861e-02  3.01346928e-03 -1.21310353e-04
   7.30574355e-02 -3.05200145e-02  3.47667858e-02 -3.43849286e-02
   4.95068952e-02  4.34055701e-02 -3.54792252e-02  3.43975723e-02
   6.81213513e-02 -3.98754179e-02 -3.12072970e-02 -2.96933204e-02
   3.93448323e-02 -1.80618390e-02  5.82356825e-02 -1.45243406e-02
  -6.97745383e-02 -6.65588304e-02 -7.11622909e-02 -7.40778446e-03]
 [ 4.34114113e-02 -5.01082242e-02  7.24708661e-02  5.73121384e-02
  -6.51601329e-02  2.16331929e-02 -7.98240751e-02  4.83794734e-02
  -3.49456221e-02 -1.08510479e-02  2.05758363e-02 -1.39346346e-02
  -4.62420285e-04  4.22622859e-02 -8.06795582e-02 -2.69041955e-03
   2.05425322e-02  4.71417829e-02 -2.16201022e-02 -6.54660612e-02
  -5.00333644e-02  6.30751252e-03  1.74125955e-02  4.06669080e-03
  -5.48823103e-02  5.22010401e-02 -1.83333829e-02 -5.95197454e-02
  -3.26200388e-02  7.66097382e-02 -3.29935551e-02  6.51562288e-02
  -1.14241019e-02 -2.67741866e-02  5.67229465e-02 -6.88505173e-03
   1.33432895e-02  3.13468277e-03  6.42577484e-02 -3.58843990e-02
  -6.08035997e-02 -2.68582478e-02  4.34440151e-02  4.56168428e-02
   1.50203258e-02  1.46180689e-02 -8.00033957e-02 -6.24476634e-02
   4.27711979e-02  4.29602638e-02 -3.89859155e-02 -1.69321522e-02
   2.36736536e-02  3.31222713e-02  2.47731060e-03 -8.07608962e-02
   1.94510221e-02  5.28284088e-02  6.15701750e-02  7.31561556e-02
  -4.49707322e-02 -2.31825411e-02  2.49460414e-02 -4.04305644e-02
   6.87807798e-04 -6.79166317e-02  6.03104159e-02  7.10647479e-02
  -6.00793585e-02 -6.21786676e-02  2.03204304e-02 -6.97882101e-02
   6.88795224e-02  6.74312189e-02  1.91794559e-02 -7.27780685e-02
  -4.38856594e-02 -3.75413261e-02 -3.10328677e-02 -3.57636511e-02
  -2.51201987e-02  2.72434205e-03 -2.27038600e-02 -3.34446989e-02
   7.51501843e-02 -2.66431123e-02 -3.51685360e-02 -5.79783320e-02
  -7.05868080e-02  2.04819664e-02  4.37223166e-03 -7.51217306e-02
  -7.66847506e-02  9.91488248e-03 -7.41870776e-02  1.73139051e-02
   4.31664512e-02 -5.78860678e-02  6.98856339e-02  3.10147554e-03
  -1.29705444e-02  7.67744854e-02  4.21421379e-02  3.01169679e-02
   5.76309040e-02 -7.34293237e-02  4.50445339e-02  5.31448647e-02
  -5.07929549e-02  2.39588171e-02  4.78775129e-02  1.52824819e-03
   4.29135412e-02 -7.00184703e-02 -1.80977657e-02  3.45690697e-02
  -2.10281014e-02 -2.19229795e-02 -4.08174656e-02  4.20723110e-02
   4.12615314e-02  1.69481635e-02  5.07914647e-02 -7.74166286e-02
  -6.38941079e-02  2.70065516e-02  4.34041172e-02 -7.26597756e-03]
 [ 7.81979188e-02 -7.06851482e-03 -2.03266740e-04  3.43547761e-02
   4.21632007e-02 -7.39359260e-02  5.76361939e-02 -2.33061127e-02
  -4.76795062e-02  5.88604063e-03 -7.44723529e-03  3.41999382e-02
  -3.46401371e-02  6.44464865e-02 -1.00074708e-02  4.70643118e-02
  -2.55278908e-02 -2.67891325e-02 -8.10401812e-02  7.90825710e-02
  -5.32010719e-02  4.14452851e-02 -6.14727028e-02  7.22616389e-02
   3.71937454e-03 -5.15555963e-02  3.18025798e-03  7.01287761e-02
  -4.56714369e-02  3.96006629e-02  4.41295132e-02  2.02262774e-02
   1.12499595e-02  3.60329747e-02 -5.09570576e-02  1.59477964e-02
  -5.92180490e-02 -3.84960175e-02 -2.16845758e-02  2.48019323e-02
  -6.59203008e-02  3.11997756e-02  3.45343351e-03  5.43688163e-02
  -1.09647810e-02  3.40145975e-02 -7.69071206e-02  6.11385927e-02
   3.36154401e-02 -2.35428922e-02 -5.00127301e-02 -2.99996883e-03
  -4.59012911e-02  4.01514769e-02  6.69100955e-02 -5.92765696e-02
  -5.71732968e-03 -6.15715012e-02  2.95162424e-02  7.37889782e-02
   2.41846517e-02  7.38924518e-02  1.83326080e-02  4.29557040e-02
  -5.98576069e-02  2.64846310e-02 -3.02889980e-02  3.84571329e-02
   1.39713213e-02  2.26543173e-02  1.09566376e-02  9.30949301e-03
   3.34336013e-02  6.97683766e-02  3.64509523e-02 -4.48120385e-03
  -5.17250784e-02  2.01040208e-02 -3.90384011e-02  1.60195380e-02
   3.07004377e-02  3.56437340e-02 -2.30945125e-02  6.56463131e-02
  -3.20031829e-02  2.83037126e-03 -1.81652382e-02 -4.51905690e-02
   4.97568622e-02  1.42105594e-02 -3.30305696e-02  8.73719901e-03
   7.33252987e-02  3.79530936e-02 -1.37036815e-02  1.29116029e-02
   6.65874556e-02 -6.07953593e-02 -2.89179720e-02 -3.56367938e-02
   4.27879766e-02  4.17544693e-03  5.14982417e-02 -8.09716657e-02
   7.09579512e-02 -3.69026959e-02  4.82212231e-02  1.76755935e-02
   2.70020664e-02 -2.20379084e-02 -3.79320942e-02 -1.28941759e-02
   2.25626677e-02 -8.86765122e-03  6.80540279e-02  5.00724092e-02
   7.81602487e-02  1.26402825e-03  7.22777620e-02 -8.06134194e-03
  -4.80130166e-02  3.79678160e-02  2.93029547e-02 -7.76095465e-02
  -4.72200848e-02 -5.04749939e-02 -2.24523656e-02 -7.28810057e-02]
 [ 2.27561519e-02  2.82269716e-03  3.17972675e-02 -8.03625286e-02
   3.07488665e-02  7.31361136e-02 -2.59920470e-02  5.76466843e-02
   2.68215612e-02  4.71326187e-02 -2.98571549e-02  6.73560798e-03
  -9.98167694e-03  5.40539697e-02 -8.09878558e-02 -3.24092805e-04
  -1.43190622e-02 -2.14654356e-02  5.24398461e-02 -7.27319643e-02
  -2.56917626e-02 -7.86802322e-02 -4.69578207e-02 -4.11900133e-03
   4.00518253e-02 -7.61921108e-02 -8.08732510e-02 -3.09691839e-02
  -2.50588395e-02  4.26853523e-02 -6.41249493e-02 -7.64390752e-02
   3.25356275e-02  3.98503989e-03  7.09080771e-02  7.41309300e-02
  -2.73833238e-02 -1.38644576e-02  5.73336110e-02  4.87397686e-02
  -3.51133645e-02 -7.25673586e-02 -1.80101097e-02  8.59496742e-03
  -5.14832735e-02  6.86929151e-02  1.19419396e-02 -2.31992677e-02
   4.00932059e-02 -2.19624303e-02 -6.79884702e-02  3.28681320e-02
  -9.88138467e-03  2.22062692e-02 -4.58622463e-02 -6.05411381e-02
   6.72698990e-02 -5.85554242e-02  1.33836120e-02 -2.11795010e-02
   5.21940514e-02 -1.00163147e-02 -3.20605040e-02 -6.33089691e-02
  -6.07322976e-02  5.37933335e-02  6.63209632e-02  6.09201714e-02
   2.85919458e-02 -5.74559458e-02 -6.21086434e-02  4.43788245e-02
   2.68181786e-02 -4.23759781e-02 -6.11738116e-02  5.90908006e-02
  -3.36260162e-02 -3.60405967e-02 -7.27491006e-02 -6.24577180e-02
   7.91855678e-02  4.02485356e-02  1.35179386e-02 -3.14813852e-03
  -3.91220786e-02  2.17719302e-02  2.22898051e-02 -7.83918947e-02
   2.42187828e-02 -5.37774116e-02 -3.92862000e-02  3.25901955e-02
   4.29950356e-02 -2.34947950e-02  6.85728565e-02 -2.00973675e-02
  -1.70797631e-02 -5.38453683e-02 -2.71427743e-02  3.59727740e-02
   7.69884363e-02 -2.72438154e-02  5.13916090e-02 -5.46477363e-02
   3.56842279e-02 -6.00290969e-02 -4.33980674e-03 -5.05779497e-02
   5.85600212e-02  2.42449492e-02  3.26343626e-03 -6.46295249e-02
  -1.70778856e-02 -2.06906274e-02 -7.44768232e-03  1.11973584e-02
   5.95438406e-02  2.88531333e-02  2.41858736e-02 -2.88101025e-02
   8.04319605e-02 -2.19255686e-03  3.80352065e-02  7.42223486e-02
  -7.66553581e-02 -4.39394414e-02 -2.51999907e-02  7.91783854e-02]
 [ 7.89260641e-02 -1.73967332e-03  6.58386722e-02  5.99608794e-02
  -1.14501119e-02  7.59627745e-02 -3.16537023e-02  2.61377394e-02
   3.90218049e-02  1.15238056e-02 -3.30729000e-02  4.81926724e-02
   4.72245365e-03  7.54167065e-02 -2.58914903e-02  1.28203854e-02
  -6.76963106e-02  1.55315772e-02 -5.11534587e-02  2.42283940e-03
  -4.99249734e-02  1.39172897e-02  4.93980870e-02  7.69811943e-02
   4.56745699e-02  2.98560113e-02 -4.33077738e-02  7.16221556e-02
   2.98533291e-02  3.52495611e-02 -5.02653271e-02 -6.37280717e-02
   3.32077071e-02 -6.22201264e-02  2.73215026e-03  5.00948727e-03
   7.12082759e-02 -1.02679059e-02  7.60005191e-02 -5.99576235e-02
   5.23385480e-02 -5.12653105e-02  3.82988676e-02  7.14315400e-02
   2.42780745e-02 -7.40689561e-02  3.97384465e-02  1.96561217e-02
  -6.73786998e-02  5.91033325e-02  7.25859776e-02 -7.51449168e-02
  -7.13992491e-02 -8.83296132e-04 -2.06257291e-02  3.21506411e-02
  -1.37170851e-02  2.34071389e-02 -1.96444653e-02  4.91035208e-02
   2.25907490e-02 -6.79459125e-02  3.35138142e-02 -4.77534384e-02
   7.92329237e-02  5.18159345e-02  4.13902476e-02 -6.49079382e-02
  -3.15435529e-02  2.78154016e-02  6.99139386e-03  6.04783222e-02
  -4.21188176e-02 -1.57749280e-02  6.10634610e-02 -6.89824820e-02
   7.97032490e-02  4.79764268e-02  5.35578802e-02 -4.52250987e-03
  -4.65151481e-02  1.52770653e-02  7.52981007e-03  9.22164321e-03
  -7.29481056e-02  2.46811807e-02  5.16075417e-02  8.77531618e-03
   6.23337254e-02  6.39264956e-02 -9.21547413e-04 -6.96317852e-03
  -6.27941862e-02  1.98775679e-02  7.84668699e-02  6.52730241e-02
   1.62135810e-03 -4.06710543e-02 -6.23594224e-02  7.69045278e-02
   4.44036350e-02  4.10294682e-02 -5.35572693e-02 -1.32571757e-02
  -6.67477697e-02  1.49205029e-02 -2.14520544e-02 -1.86769105e-02
  -2.63841897e-02  4.02242839e-02 -6.62919059e-02 -7.86644742e-02
  -7.65594989e-02  8.62836093e-03 -6.16295189e-02  6.02655634e-02
  -2.66173333e-02  4.95921448e-02  7.95146599e-02 -5.13503402e-02
  -4.47287709e-02 -3.43696699e-02 -1.46067888e-03  3.75402644e-02
  -3.29467952e-02  3.12965214e-02  6.75095394e-02 -7.88423270e-02]
 [ 6.33472204e-03  1.92580447e-02 -1.67683586e-02  7.58533403e-02
  -4.39211465e-02  4.20825407e-02  1.76456347e-02  6.86216429e-02
   1.23711377e-02 -3.68452035e-02 -7.98232630e-02 -9.94137675e-03
  -1.26141980e-02 -2.08828710e-02 -5.37196547e-03  3.99956852e-02
  -7.49554634e-02  2.49780416e-02  3.40320393e-02 -3.22935283e-02
   5.69954738e-02  1.60927549e-02 -2.44403444e-02 -4.23237681e-04
   2.74804384e-02 -7.65886977e-02  4.60480675e-02  1.83359757e-02
   1.41635835e-02  6.83858320e-02 -4.97628972e-02  6.79477677e-02
   8.43732059e-03 -6.98417947e-02 -6.57144785e-02 -6.03634194e-02
  -2.33672410e-02  7.60640576e-02  2.31906623e-02  1.68258473e-02
   7.13475123e-02  5.55021539e-02  6.50988147e-02 -6.12483770e-02
   5.08168563e-02 -6.42709583e-02  1.49479061e-02  2.99857929e-02
  -2.18826383e-02 -2.64183208e-02  4.61366251e-02  4.73214015e-02
  -3.53050455e-02  7.15313628e-02 -4.17143777e-02 -7.73085505e-02
   1.69378594e-02 -2.88667046e-02  5.73317334e-02  8.01922157e-02
  -6.53467625e-02 -9.69386101e-03  1.52127072e-02  3.29222977e-02
   4.44144532e-02  5.96573576e-02 -6.22503534e-02 -2.26432718e-02
  -7.60657340e-02 -6.02648333e-02 -7.48530477e-02 -3.22353393e-02
   2.24940777e-02  5.24040684e-02 -1.06701180e-02 -5.08325770e-02
  -1.25989392e-02 -6.62456453e-03 -5.85192591e-02  6.02037683e-02
   5.52755669e-02 -7.49268830e-02  2.93362215e-02 -2.29488574e-02
   6.22240230e-02  4.78262529e-02 -2.40361691e-03 -3.70816141e-02
  -7.27034807e-02 -3.06072496e-02  2.20756531e-02  7.57090747e-04
  -2.00896710e-02 -3.10870148e-02 -6.89210221e-02  1.00737810e-02
   1.26050338e-02 -7.54497498e-02 -5.47676124e-02  3.97849530e-02
  -4.98384982e-03 -7.58213177e-02  4.75599989e-02 -2.64236778e-02
  -4.82370667e-02 -7.89492875e-02  2.83550173e-02  5.00829443e-02
  -7.32866451e-02  7.16486350e-02 -4.93849814e-03 -2.68478468e-02
  -3.68842892e-02 -4.38429043e-02  6.75168261e-02  1.58826262e-02
  -2.58162618e-04 -3.19442786e-02 -3.66075933e-02 -3.58597040e-02
   6.48806319e-02 -7.37308636e-02  6.66020885e-02 -4.35502082e-03
  -5.06443009e-02 -4.33083177e-02 -3.84839140e-02 -3.93687561e-02]
 [-6.70269132e-02 -2.89161541e-02  4.96769026e-02  4.42193672e-02
   1.24143958e-02 -7.46476352e-02 -6.09186217e-02  6.81541190e-02
  -2.53986530e-02  5.11197075e-02 -2.66808271e-03 -1.91146918e-02
   2.70149112e-02  7.27227852e-02  3.79209742e-02  7.28951767e-02
  -3.77671793e-02 -7.03051016e-02 -6.51072562e-02 -6.79510832e-03
  -5.25366291e-02  8.75326991e-03  5.69841340e-02  1.58276409e-02
   2.69240364e-02 -7.65040368e-02 -2.42811441e-03 -5.40994555e-02
   2.03107446e-02  6.20690808e-02 -3.12144905e-02  2.47459486e-02
  -2.53363624e-02  3.12845930e-02 -6.13073632e-02  2.66452581e-02
   3.71010900e-02 -5.70139103e-02  2.13244557e-02 -4.06292863e-02
   7.21517727e-02  6.39478639e-02 -4.35942709e-02 -2.61753798e-03
  -3.65513414e-02  2.44831592e-02  4.58425954e-02 -7.92146102e-02
   1.54478177e-02 -5.28941303e-03  1.34637207e-03  5.96306399e-02
  -3.11764926e-02  6.10767677e-02  2.10614204e-02 -5.82206994e-02
   5.39261326e-02  3.05434912e-02 -7.04853162e-02 -7.81665295e-02
   2.82387361e-02 -4.54851687e-02  4.45305035e-02  1.73530281e-02
   7.04717413e-02 -2.55737789e-02  4.55991551e-02 -6.86056912e-03
  -1.09098777e-02  6.95047900e-02 -6.28380626e-02 -7.72425532e-03
   9.04664397e-04  6.25506267e-02 -2.06856579e-02  8.10364261e-02
  -2.97968201e-02 -3.97461057e-02 -1.54964551e-02  4.48496714e-02
   4.03673500e-02 -2.49262899e-03  6.26354143e-02  2.56154165e-02
  -4.51760665e-02  6.36223033e-02  6.71218708e-02 -6.14479929e-03
  -3.16820331e-02 -7.77251944e-02  1.49620622e-02 -5.94277680e-03
   2.41184384e-02 -1.74434558e-02 -3.42887975e-02  6.50026128e-02
  -5.53596169e-02 -6.13016374e-02 -2.14329287e-02 -6.00379370e-02
   6.65081516e-02 -3.59277576e-02  3.49037200e-02  5.34652546e-02
  -5.97819164e-02  5.54577336e-02  4.32252884e-04 -2.97335237e-02
   1.84437707e-02 -6.94643706e-03  2.63924450e-02 -7.77129680e-02
   6.26866519e-03  7.41443709e-02  7.94074461e-02  7.04580322e-02
   5.36091253e-02 -2.11598314e-02 -7.57952705e-02 -6.03899136e-02
   7.88519159e-02 -4.73652408e-02 -1.94999278e-02  1.37877241e-02
   2.58773342e-02 -3.06992978e-02 -6.15587607e-02  2.67447755e-02]
 [-2.06489339e-02 -2.72920281e-02  4.29541171e-02 -1.03127509e-02
   5.19041941e-02  4.12314981e-02  7.63077959e-02 -1.47346854e-02
  -5.65359667e-02 -2.59326026e-02 -3.46172005e-02  4.37860712e-02
  -5.65564632e-02  5.50012290e-03  7.94768855e-02  4.17075679e-02
   7.09339455e-02  9.68966633e-03 -5.83616719e-02  9.72550362e-03
  -6.27022982e-03  4.59279045e-02 -6.74559772e-02  7.60146007e-02
   4.33141738e-02  7.04814866e-02 -7.45721757e-02  5.62841967e-02
   4.53859642e-02  5.72068170e-02 -1.03646144e-02 -2.55594105e-02
  -6.38223439e-02 -5.59304059e-02 -5.41899949e-02 -1.36773959e-02
  -5.15658483e-02 -7.86454976e-02  7.27624074e-02  5.00949249e-02
   3.84106562e-02 -6.59677982e-02 -2.25837305e-02 -9.61273909e-03
  -2.93599479e-02 -3.35183032e-02 -5.04090488e-02  1.52102858e-02
   7.17057511e-02  7.19018355e-02 -4.40635942e-02 -1.31696686e-02
   8.00212845e-02  2.96622813e-02  7.20323250e-02  5.15675470e-02
   7.88078234e-02  2.36689299e-03  1.95793509e-02 -1.99223943e-02
  -7.10325688e-02  3.71703804e-02  4.91674170e-02  3.12926918e-02
  -1.97120905e-02 -7.64220953e-03 -1.67172030e-02  5.04059419e-02
  -3.17083336e-02 -6.38506189e-02  3.25203836e-02  6.07676432e-02
   4.55566868e-02  3.43599841e-02  3.10034528e-02  6.59806952e-02
  -7.25076944e-02 -6.88530877e-02 -3.86612639e-02 -2.76589319e-02
  -5.13810664e-03 -4.19281237e-02 -1.95387416e-02 -6.88730478e-02
  -5.17855138e-02  7.38278031e-03  1.95860788e-02  6.32052198e-02
  -4.74100076e-02  1.86597779e-02 -6.93645477e-02  2.74659395e-02
  -6.76217601e-02  6.84095249e-02 -5.74969240e-02 -6.58554211e-02
  -4.27433476e-02  6.60718754e-02  8.01944807e-02  7.66085759e-02
  -2.95319818e-02 -5.06658256e-02 -4.57598902e-02  3.07857990e-02
  -7.51297027e-02  1.32224858e-02  1.40364319e-02  1.78835168e-02
   2.62074918e-03  6.71912655e-02  5.96094653e-02 -3.67800929e-02
   7.12408498e-02 -3.27128805e-02  2.47940570e-02  7.48217106e-04
  -2.47386359e-02  5.27832285e-02  5.76730594e-02  1.46994293e-02
   2.73539647e-02  7.72515312e-02 -1.91553198e-02  1.55626535e-02
   7.39990845e-02  6.06117174e-02 -3.64203416e-02 -4.75428253e-03]
 [-1.37495100e-02  7.76307359e-02  4.69570085e-02 -4.95880805e-02
   2.85608694e-02 -4.20776643e-02  7.46402070e-02  1.65760368e-02
   4.64430526e-02  3.50528136e-02  5.42324111e-02  3.15632597e-02
  -1.48448497e-02 -4.41177189e-02  4.01506051e-02 -7.20490143e-02
   4.15314361e-02  7.17578828e-03 -5.95379472e-02  5.61825559e-02
  -2.09172331e-02 -5.41359633e-02  2.32361257e-03 -6.82442039e-02
  -7.77772814e-03 -3.36557776e-02  4.49217483e-02  9.32067633e-06
  -6.78222179e-02  5.05408719e-02 -7.51829371e-02  3.09538320e-02
  -3.56615447e-02  4.86169532e-02 -2.15068758e-02 -2.39472091e-03
  -4.87524718e-02  2.40005478e-02  5.68904355e-02 -7.96947032e-02
   6.59160689e-02  5.76333925e-02 -3.20571959e-02  3.94286960e-03
  -9.17004794e-03 -1.87747255e-02 -2.44102143e-02 -3.60401496e-02
  -9.17196274e-04 -2.91961133e-02 -7.27664828e-02 -3.66718173e-02
   5.38699701e-02 -3.57121751e-02  7.34991953e-02  4.76989225e-02
   4.38434258e-02  3.23191881e-02  7.32263252e-02  5.85169569e-02
  -6.41834512e-02  2.48316154e-02 -3.60253453e-03 -2.02422887e-02
   4.54773530e-02 -4.14643884e-02 -5.75404912e-02  7.14062974e-02
  -6.20868877e-02  7.05518797e-02 -2.68332846e-02 -1.15054399e-02
  -3.64341885e-02  2.16685459e-02  2.52130404e-02 -4.96033393e-02
   2.98365206e-02  6.87037632e-02 -5.13615571e-02  5.66107109e-02
  -5.18302023e-02  3.41448784e-02  3.40779722e-02  3.10893133e-02
   9.27089900e-03  1.93828940e-02  7.49262944e-02  3.94540355e-02
  -6.20045848e-02 -5.87119460e-02 -6.90829605e-02  7.84886107e-02
   3.06790322e-02 -2.20772997e-02  1.95511952e-02 -5.85283712e-02
  -7.96133429e-02  4.64962795e-02  1.22638047e-02 -3.97565290e-02
   6.69850037e-02 -2.01457888e-02  6.22152016e-02  3.03849950e-02
   2.48260871e-02 -6.60997778e-02 -3.81635875e-03 -2.21937746e-02
   6.69606254e-02  5.22796586e-02 -1.41920149e-03 -5.59954569e-02
   1.19882375e-02 -7.91054219e-03  2.62173936e-02 -5.74705675e-02
   6.94815889e-02 -4.17211056e-02  7.10816309e-02 -3.27674933e-02
  -2.85786986e-02  4.57161143e-02 -5.36634326e-02  6.61941096e-02
   2.41966248e-02  2.99870968e-03 -5.13252616e-02  2.55172327e-02]
 [-4.10478562e-03 -1.08750232e-01 -8.53447020e-02  7.00085908e-02
   2.91956887e-02 -7.64736757e-02  6.90686479e-02 -4.40033106e-03
  -1.64395608e-02 -2.67006233e-02  7.89345875e-02  7.06051737e-02
  -3.60361971e-02 -7.34488368e-02 -1.99674871e-02 -2.51416862e-02
   2.00029254e-01  6.95154071e-02  3.43781561e-02 -1.05680570e-01
  -3.64085585e-02  1.59191772e-01 -4.57561947e-02  6.65913150e-02
  -3.30589190e-02  2.77938545e-02 -1.52113244e-01 -5.18572479e-02
   1.98227633e-02 -8.60194024e-03  1.07584819e-01  2.95261424e-02
  -1.36402220e-01 -6.08459935e-02  4.52237390e-02  9.38877929e-03
  -1.54718772e-01  3.53534669e-02 -3.35141644e-02  4.38795052e-02
   1.12425543e-01 -1.02694109e-02 -3.95305753e-02 -6.06499016e-02
  -6.82071745e-02  1.42282739e-01  7.57292360e-02  7.15467855e-02
   1.87084973e-02  1.77219138e-01 -2.17438862e-02  2.56994478e-02
  -1.02818236e-01  8.08747485e-02  1.91051606e-02  2.49812324e-02
  -3.75310555e-02  3.33150178e-02  6.72181323e-02 -5.47978058e-02
   1.11256605e-02 -8.32257941e-02  1.71527475e-01 -4.63855416e-02
  -1.25615597e-01  1.98915862e-02  6.28031045e-02  5.38506806e-02
  -7.28778392e-02  1.82302698e-01  1.28588319e-01 -2.38254350e-02
  -3.84968184e-02  2.95575592e-03  9.24866870e-02 -3.31045762e-02
   4.15420309e-02  4.47465666e-02  1.77729338e-01  3.90033424e-02
  -3.34460549e-02  4.73719910e-02 -5.99181205e-02 -6.39876127e-02
   7.89524242e-02 -6.02878258e-02  1.48152962e-01 -6.25694841e-02
  -1.52649835e-01 -2.83578783e-03 -3.06784734e-02  1.91005602e-01
  -3.69377923e-03  1.65140137e-01 -1.16402805e-01  7.27920160e-02
   4.12852541e-02 -5.86677082e-02 -3.03492583e-02 -5.23172617e-02
  -1.34576112e-01  1.90929119e-02  9.24769938e-02  1.43120527e-01
  -4.73362058e-02 -6.42553344e-02 -7.10438341e-02 -2.87581645e-02
   4.42661718e-02  4.40424941e-02 -6.28705099e-02  3.25238220e-02
   7.42788762e-02 -6.70192242e-02  8.09620097e-02 -9.83876213e-02
   7.10484758e-02 -2.34682448e-02  1.45880997e-01 -5.67286611e-02
  -1.87655911e-01 -6.18025288e-02  2.46849842e-02 -7.36181997e-03
   5.50584085e-02  2.11472400e-02 -3.46840657e-02  6.47010803e-02]
 [ 6.17354959e-02 -2.50589773e-02 -1.49566516e-01  2.30669156e-02
  -2.10740678e-02 -3.05374116e-02 -5.94455283e-03 -3.98338474e-02
  -5.00772707e-02 -6.62727952e-02  7.70665929e-02  1.85542100e-04
  -4.83760461e-02 -1.05712570e-01 -4.39990461e-02  6.55770674e-02
   2.05029711e-01  8.45781788e-02  2.09172610e-02 -5.69392145e-02
   3.02621704e-02  1.38703972e-01  2.52293143e-02 -2.18875017e-02
   5.90719283e-03  1.17856488e-02  2.11825897e-03 -4.78965268e-02
   6.08401038e-02  2.37860642e-02  1.33628890e-01  1.51946172e-01
  -1.52329639e-01 -1.39693648e-01  1.53730158e-02 -3.58328000e-02
  -5.84913231e-02  3.00535709e-02  7.69010708e-02  8.25426355e-03
   1.13490790e-01  2.23140530e-02 -3.56228091e-02  1.24632251e-02
  -3.99324521e-02  1.16413161e-01  7.88340569e-02 -4.49548252e-02
  -2.68626828e-02  2.10596666e-01 -3.80215719e-02 -2.08307393e-02
  -1.49322286e-01  6.94610104e-02 -5.34159280e-02  1.08797655e-01
   5.29096201e-02  2.88998932e-02 -6.91344216e-02 -1.16905153e-01
  -6.81600645e-02  3.06463260e-02  1.26420453e-01  6.96807280e-02
  -1.44864097e-01  3.65942642e-02 -8.97060558e-02 -3.21256705e-02
   2.45174207e-02  9.82960835e-02  1.57399535e-01 -6.60104826e-02
  -8.32319036e-02  4.98878323e-02  5.36170937e-02  4.32060137e-02
   9.08850133e-03  1.53013989e-01  1.81884393e-01 -6.41290918e-02
  -3.32226381e-02 -6.76289201e-05 -6.73816055e-02 -4.83776778e-02
  -2.70388909e-02 -1.30972490e-02  1.12640120e-01  3.15032490e-02
  -2.11620793e-01  4.04938608e-02  4.56667021e-02  1.77857503e-01
  -1.06264718e-01  2.27425564e-02 -5.92433289e-02  1.68804571e-01
   9.32953730e-02  5.18169887e-02  2.08077952e-02 -9.72415954e-02
  -1.83933645e-01 -2.44260412e-02  7.49054998e-02  9.55482498e-02
  -2.02318355e-02 -1.48033679e-01 -5.20741157e-02  2.68128831e-02
  -2.59218328e-02  1.42277882e-01 -6.62086084e-02 -8.83913413e-02
   1.15709275e-01  6.17304333e-02  2.81820744e-02 -5.23660071e-02
   1.00532249e-02  4.73254845e-02  5.89781068e-02 -1.42423809e-03
  -1.05827823e-01 -3.12514673e-03  1.98739506e-02 -4.54850495e-02
  -9.76893678e-02  2.76340893e-03  5.49384917e-04  6.83179200e-02]
 [-1.06097851e-02 -4.45718654e-02  6.57250956e-02  8.60717148e-02
   4.67845798e-03 -1.30920112e-03  2.75665317e-02 -3.94194126e-02
  -7.41365412e-03 -3.62065434e-03  1.66058801e-02  1.66122604e-03
   4.95747626e-02 -6.41470551e-02 -9.06234533e-02 -3.88887599e-02
   1.20074803e-03  5.55767640e-02 -7.63031691e-02  3.18471603e-02
  -9.19424091e-03 -7.19625130e-02 -6.53235614e-02  5.82750253e-02
   4.79106531e-02  2.28878483e-02 -6.88910345e-03 -3.71765834e-03
   5.72357215e-02  8.60037059e-02 -1.05914153e-01  4.12221329e-04
   1.35349289e-01 -8.42704177e-02 -2.96633542e-02 -7.57414475e-02
   8.30257982e-02  6.47348389e-02  3.53614762e-02  2.85591446e-02
   7.65386075e-02  6.25013635e-02 -7.55302096e-03 -5.12795821e-02
   8.26634839e-02 -2.37755403e-02  6.21047169e-02 -2.68676057e-02
   4.46452871e-02  3.16303447e-02 -7.13232309e-02  1.54710971e-02
  -5.96378781e-02  5.96985454e-04 -1.70734357e-02  5.57031408e-02
  -4.91169840e-03 -7.97903091e-02 -4.69752625e-02  2.80938074e-02
   4.52162996e-02  9.06378310e-03  4.61836755e-02 -7.30017712e-03
   7.52483383e-02 -5.94063438e-02  5.75528145e-02  3.23248096e-02
  -2.24996544e-02  5.11992835e-02 -4.42504995e-02  5.41691035e-02
  -5.02125882e-02  6.96896240e-02  7.14832917e-02 -1.23076290e-02
  -7.05497116e-02 -1.36887077e-02 -3.55920643e-02  5.33962920e-02
   2.80064642e-02 -3.27561200e-02 -5.50659746e-03 -4.48877513e-02
   7.76507929e-02 -1.16461590e-02 -4.81055081e-02 -4.20869589e-02
  -1.12218410e-02 -1.35906637e-02 -4.70814295e-02 -5.71568310e-02
  -1.31492615e-01 -4.75875624e-02  6.93461001e-02  5.10007702e-02
  -4.80301417e-02 -1.17680244e-02 -2.99219564e-02 -2.26073693e-02
  -4.21919562e-02 -4.28525358e-02  7.17220306e-02  3.86913978e-02
  -1.06833912e-02 -3.00270468e-02  3.21960300e-02  2.50114556e-02
  -3.92923728e-02 -5.37933260e-02 -5.24135754e-02  4.03737873e-02
   9.41941589e-02 -3.72812897e-02 -5.54517247e-02 -3.00178137e-02
   3.65680456e-02 -5.92755526e-03  1.13573320e-01 -3.32818069e-02
  -3.53695713e-02  1.03796991e-02 -5.61122969e-02 -1.23905223e-02
   4.65518236e-02  7.34379068e-02 -3.43975648e-02 -8.67882222e-02]
 [ 7.53344074e-02  1.15467319e-02 -7.01424703e-02 -5.93888089e-02
   4.83023599e-02 -3.23497653e-02  4.77356538e-02  6.66561946e-02
  -1.87463630e-02 -4.03596498e-02  7.03325942e-02 -4.56723794e-02
   4.27504862e-03 -2.20411867e-02  7.57188126e-02  6.44588396e-02
  -3.54599468e-02  3.81863676e-02  6.50970563e-02 -8.62878039e-02
  -1.40865091e-02  5.58156930e-02  7.30254278e-02  6.92769960e-02
  -3.89121994e-02  4.71391156e-02 -2.84505356e-02 -2.90505383e-02
   3.91755216e-02  8.29019547e-02  2.39531193e-02 -5.36987707e-02
   3.15746181e-02 -3.20962295e-02 -5.96525781e-02 -8.08228105e-02
  -6.68124333e-02 -7.95882940e-03  8.83892179e-04  1.88824106e-02
  -2.46048509e-03  6.44313172e-02 -3.35674621e-02 -6.55854791e-02
   8.38284045e-02  3.02728843e-02  1.06017385e-02 -6.03143573e-02
   1.72823519e-02 -4.58562933e-02 -7.23695457e-02 -2.78966092e-02
  -2.99676564e-02 -1.37151526e-02  3.52846161e-02  6.68199584e-02
   1.04101747e-02 -7.08196387e-02  6.21026009e-03 -6.50031783e-04
   6.88957796e-02 -1.62695535e-02  6.05172943e-03 -6.73395768e-02
   4.13405746e-02  7.52541497e-02  4.47013117e-02  7.35161453e-02
   3.65968794e-02 -2.98524201e-02 -9.49776080e-03  5.62937260e-02
   1.32584982e-02 -2.86134128e-02  3.73146608e-02 -7.53821656e-02
   2.24334151e-02  6.54388592e-02 -2.43829265e-02  2.49363706e-02
  -6.15360551e-02 -1.21659786e-02  6.86826780e-02  2.34888420e-02
  -3.24656032e-02  8.03211108e-02  8.06185827e-02  2.22161300e-02
   1.23936823e-02 -4.55606468e-02 -6.92444369e-02  6.33285791e-02
  -7.23397732e-02 -2.40408722e-02  1.85677577e-02  6.54073851e-03
  -2.76528876e-02  4.59778383e-02  4.89224494e-03 -2.48348136e-02
   1.41915679e-02 -5.80572598e-02  1.33759398e-02  3.77752781e-02
   6.98565841e-02  4.82933745e-02 -5.79560846e-02  7.62249231e-02
   6.85614869e-02 -3.58869396e-02 -2.21512355e-02  6.94354996e-02
  -5.27187698e-02  2.69329567e-02 -1.16659254e-02 -7.22036138e-02
  -7.54928365e-02 -4.38539460e-02 -3.36503796e-02  4.05205525e-02
   2.67813331e-03 -1.75780419e-03  6.03784621e-02 -4.14814167e-02
  -8.92955903e-03 -7.03113303e-02  1.00863222e-02 -7.72547573e-02]
 [ 5.93672022e-02  5.79316989e-02  5.46194687e-02 -4.79850322e-02
   6.14121929e-02  7.10289106e-02  3.31036299e-02  6.19405508e-03
  -3.66426557e-02  7.50339553e-02  6.95353970e-02  1.84688121e-02
  -6.66865706e-03  1.76272243e-02  3.09638679e-02  1.62648261e-02
   6.87745735e-02  6.38896972e-03 -4.95381653e-03  7.77451694e-03
   1.65405124e-02  6.24332353e-02  7.93058500e-02  4.34949100e-02
   4.04195040e-02 -6.25324026e-02  7.61579052e-02  4.58410904e-02
   7.87817016e-02 -7.07483217e-02  4.00446132e-02 -2.32566856e-02
   7.31618032e-02 -4.61561531e-02  2.73130834e-04  1.53486952e-02
  -6.25143647e-02 -5.47933877e-02 -1.41290277e-02 -5.28280772e-02
   8.06008205e-02 -7.50381500e-02 -2.35069022e-02 -5.96666038e-02
  -8.05692002e-02 -9.57777351e-03 -5.35546392e-02  1.44793391e-02
   7.18197599e-02 -4.46303412e-02 -1.68851390e-02 -7.59138688e-02
   6.80511072e-02  5.77118993e-03 -4.48903814e-02 -1.98897123e-02
  -6.12375103e-02  4.60097417e-02 -6.90772161e-02 -3.90418433e-02
   8.00009146e-02  6.19704947e-02 -1.19891837e-02  2.70955116e-02
  -5.68257682e-02  4.36468348e-02 -7.33268261e-02  5.71673140e-02
   5.55507615e-02 -4.50481623e-02 -6.74835891e-02  1.57466382e-02
  -9.96827334e-03  3.16388682e-02 -3.42871547e-02 -2.91217119e-03
   3.71275991e-02  3.02625820e-02  7.60759190e-02  1.68704987e-02
   3.88181731e-02 -2.72379816e-03  4.04892564e-02 -9.70505923e-03
   9.77603346e-03  4.11140025e-02  4.63960320e-03 -2.23387741e-02
   6.15853071e-03  6.52023032e-02 -7.55244717e-02 -1.98592544e-02
  -4.82679904e-03  7.67435059e-02  2.99316272e-02 -2.67245620e-02
   3.01218778e-02 -1.99998617e-02 -5.60400710e-02  2.63208002e-02
   7.54486993e-02  5.75937852e-02  2.67062485e-02  2.71741971e-02
  -6.63181692e-02  6.44745305e-02  4.43257466e-02  3.48038971e-03
   2.68600658e-02  2.15851367e-02 -1.83324218e-02 -3.63095850e-03
  -6.24714121e-02 -7.00482130e-02  8.47139210e-03 -4.29875329e-02
  -4.50382605e-02  1.02206171e-02  4.17647511e-03  5.44798002e-02
  -1.50661990e-02 -3.75747606e-02 -4.88619469e-02  6.70418665e-02
  -9.90115106e-03 -1.58386081e-02  6.10897616e-02 -1.90261416e-02]
 [-2.07015164e-02  3.60917300e-02  3.06100324e-02  2.05577910e-02
  -2.55671293e-02 -7.43018091e-02  1.93874016e-02  2.04650834e-02
   2.44434178e-02 -1.09897628e-02  5.33495024e-02  3.92145887e-02
  -6.62041903e-02  1.21008828e-02  6.76320866e-02 -5.78188300e-02
  -7.73851424e-02  1.91626698e-02 -6.73616603e-02  3.78398672e-02
  -3.69492657e-02 -6.27016872e-02  4.10952568e-02  1.53680518e-02
   7.69473538e-02  2.92309821e-02  4.43725958e-02 -3.92453596e-02
   2.94740498e-03 -6.15170598e-03 -5.07880598e-02  2.40276083e-02
   3.13078389e-02  1.60737261e-02  7.14304298e-03 -8.07914510e-02
   1.20488852e-02  5.70699349e-02 -7.62965903e-02 -1.39339641e-02
  -4.01674844e-02 -1.20198205e-02  6.69294670e-02  8.09818432e-02
   7.68754706e-02 -3.36698741e-02 -4.32150476e-02 -8.04898366e-02
   3.74354646e-02 -6.11143447e-02  2.46877000e-02 -5.16518839e-02
   4.79490384e-02  7.89187476e-02 -4.76705544e-02  4.54628989e-02
   5.51831201e-02  3.38865221e-02  4.17390913e-02  7.97177479e-02
   7.86466673e-02 -2.44754031e-02 -5.18202819e-02 -1.83609128e-03
   6.50553927e-02 -2.60836519e-02  6.99870288e-03 -3.81627046e-02
  -7.54501745e-02  1.81719288e-02 -9.76365805e-03 -3.90304923e-02
   4.35721874e-02 -6.33097887e-02  2.78024450e-02 -6.46419972e-02
  -3.69877294e-02  1.57061964e-02 -6.91641867e-02 -5.98145276e-03
  -1.12367123e-02 -3.16448249e-02  1.60564557e-02  7.72309378e-02
   6.57483265e-02  3.74902710e-02 -1.83252618e-02  6.99160323e-02
   7.24366307e-03  4.00332212e-02  6.21854737e-02 -5.20049632e-02
  -8.39309394e-03  3.23349312e-02 -5.43267205e-02 -1.76562369e-03
   1.92172825e-02  5.04911020e-02 -7.45012835e-02  6.82870224e-02
  -6.95448369e-02  4.00617719e-03 -2.19957493e-02  6.21188805e-02
   4.36348990e-02  3.98685783e-03 -4.07919772e-02  7.93699697e-02
  -1.05058774e-02  6.99758157e-02  4.50047329e-02  2.28229240e-02
  -1.33683532e-03 -3.36722545e-02  7.43314549e-02 -2.47706212e-02
  -1.10833794e-02 -7.92581961e-02  4.87552211e-02  2.02311128e-02
   7.72632733e-02 -1.10488012e-02  8.06754827e-03 -7.33998120e-02
  -6.82867467e-02  7.72623494e-02 -7.11607262e-02 -1.02572069e-02]
 [ 1.14040077e-03 -8.96564126e-03 -5.96321374e-03 -4.26150560e-02
  -4.46089506e-02 -7.13297427e-02 -6.67716265e-02 -1.56565383e-02
  -3.32702696e-02 -3.59062329e-02  8.06719065e-04  2.99023092e-02
  -2.97984816e-02 -3.54349986e-02  1.65985078e-02  5.95116988e-02
  -4.11026478e-02 -7.49286786e-02  1.22367516e-02  2.28492618e-02
  -4.17688116e-02  5.85017428e-02 -7.79789835e-02 -2.13995129e-02
  -6.78232461e-02  8.42452049e-04 -4.61272597e-02 -2.92566046e-02
  -1.27041042e-02 -3.98699455e-02 -6.99992925e-02  5.32674864e-02
  -6.90593123e-02  2.76676714e-02  5.14330938e-02  2.10726559e-02
   6.09077588e-02 -4.17985171e-02 -5.33913821e-02  5.98177090e-02
  -5.31188697e-02  3.41545120e-02 -1.19464695e-02  3.40632126e-02
   1.56116560e-02 -3.08505073e-02 -3.30174379e-02 -4.31344844e-02
  -3.72833125e-02 -6.79203421e-02 -1.29549950e-02 -2.70185061e-02
   3.28697339e-02 -3.07123140e-02 -5.58994040e-02 -4.70933244e-02
  -3.88895161e-02  7.74511024e-02 -4.55941260e-03  6.10732362e-02
  -7.71548077e-02 -3.83359753e-02  5.45193255e-03 -8.54818523e-03
   3.29447836e-02  3.66018116e-02  3.28117758e-02 -1.79341286e-02
  -2.56409422e-02 -3.63170765e-02  2.95440704e-02 -1.48384348e-02
  -2.24729814e-02  5.51558062e-02  6.50976822e-02  1.30806565e-02
   1.71124265e-02 -1.53215006e-02  2.86278948e-02 -5.55634201e-02
  -2.44369768e-02 -5.03631011e-02  1.95672661e-02  1.89087763e-02
   1.87351555e-02  5.66765741e-02 -7.48000816e-02 -3.51698697e-02
   3.76951024e-02  7.50156268e-02  6.68715462e-02 -3.13144326e-02
  -5.29935956e-02 -3.05113904e-02  1.89151168e-02  5.11947051e-02
   7.02542439e-02  5.07367775e-02 -1.23692974e-02 -5.69582954e-02
   1.82528049e-03  1.08377635e-02  7.25829676e-02 -1.72683597e-03
   3.11902240e-02  8.19033384e-03 -1.40140802e-02 -5.63403964e-02
  -1.65693834e-02 -4.53440771e-02 -3.05444971e-02 -5.41724786e-02
   2.67830789e-02  7.33188763e-02  7.96690360e-02 -7.58907199e-02
  -7.49866590e-02  6.95250928e-03 -2.87443399e-04 -1.31316930e-02
   6.11154512e-02 -2.20336132e-02 -6.36170059e-03  6.48585632e-02
   2.03865319e-02 -3.57646383e-02 -7.48620555e-02 -6.34040236e-02]
 [-3.98154147e-02 -5.11062928e-02  1.45355761e-02 -5.66811115e-03
  -4.86380868e-02 -6.80015236e-02 -1.49495900e-02 -8.02273527e-02
  -2.54717879e-02 -2.64825262e-02  6.73207417e-02  6.42325953e-02
  -2.15971880e-02 -6.84329644e-02  8.06468800e-02 -1.38806999e-02
   2.36952305e-03 -4.32674736e-02  6.24178573e-02 -2.61858106e-04
   5.69664910e-02  7.23759085e-03 -6.93334714e-02 -6.58202246e-02
   6.22580573e-02 -1.65022835e-02  1.92826465e-02 -5.34157306e-02
   4.95664552e-02  7.95229599e-02 -6.09526783e-02 -1.13252029e-02
   2.59452090e-02 -3.98052596e-02  9.35555995e-03 -1.22335032e-02
   3.53520140e-02  3.18978280e-02  2.69251391e-02  7.23423585e-02
  -4.19702418e-02 -9.61637497e-03 -1.21779293e-02 -3.45305279e-02
   7.40127191e-02 -2.40551420e-02  2.65573040e-02  6.51072934e-02
   3.21656838e-02 -2.10952237e-02 -5.05058169e-02  7.56728724e-02
   7.20894262e-02 -5.39625958e-02 -6.56153560e-02 -2.47842744e-02
  -5.55192158e-02  2.25956589e-02  2.68163010e-02 -5.64572588e-02
  -4.22456861e-03 -1.14943758e-02  2.19255537e-02 -5.81775755e-02
   5.26914075e-02 -6.59484193e-02 -4.83946502e-03  3.81130204e-02
  -3.45204026e-03  3.12974155e-02  4.50299904e-02 -2.27233134e-02
   3.13779935e-02 -7.17371404e-02 -3.29780877e-02 -7.79085159e-02
   2.68680900e-02 -6.77685216e-02 -1.00635961e-02 -7.95054138e-02
   4.67357561e-02  2.10018158e-02 -3.75506096e-02 -2.02144422e-02
  -7.23694712e-02  4.85595390e-02 -5.39529473e-02 -7.99781233e-02
   6.89637586e-02  2.94373035e-02 -4.34442833e-02 -4.80076596e-02
   3.55068222e-02  4.71390858e-02 -5.54232597e-02 -1.09822303e-03
   7.14465454e-02  4.43811715e-03 -2.91419663e-02  2.45892256e-03
   2.10851431e-03 -1.16982758e-02 -2.96752416e-02 -2.61591114e-02
  -7.00171590e-02  2.14713737e-02  4.85156402e-02 -5.70584089e-03
  -4.34620567e-02  3.51195112e-02  7.64485523e-02  3.00255120e-02
  -6.57348484e-02 -6.01445101e-02 -3.37601453e-02  7.40462914e-02
   6.37520477e-02  7.53699020e-02  9.04469937e-03 -4.27816361e-02
  -2.09610537e-02 -6.75641298e-02  3.83647531e-02  4.37571555e-02
  -6.99891150e-02 -5.72926924e-02 -1.33008063e-02  5.39034605e-04]
 [-3.65845449e-02  4.32574153e-02  6.40032366e-02  6.09375611e-02
  -2.00556740e-02  4.12091240e-02  4.68122736e-02  3.61282974e-02
   6.54945299e-02  4.05299067e-02 -4.91061881e-02  7.62795731e-02
   1.35767460e-02 -5.97909689e-02  5.82783446e-02  1.07344985e-02
   3.06970403e-02  5.57134524e-02  3.93451601e-02  1.31161660e-02
  -7.55171627e-02 -4.53881174e-03 -5.56049608e-02 -7.18237832e-02
   3.71268690e-02 -3.95141542e-04  1.41147897e-02  1.85231715e-02
  -2.27807686e-02  4.98137847e-02  7.85279050e-02  1.50915161e-02
  -6.48814291e-02  5.92774227e-02  2.71873176e-03 -6.10602759e-02
   2.20938176e-02  3.54331434e-02 -3.19542959e-02  6.68779388e-02
  -5.90568110e-02  4.87384126e-02 -6.67398572e-02 -1.76438019e-02
  -3.87210958e-02 -6.34177923e-02 -6.74220175e-03 -2.51546614e-02
   5.47216907e-02 -3.78314368e-02  6.35443702e-02 -8.61894339e-03
   7.29196444e-02 -7.58169815e-02  8.02969709e-02  3.83119583e-02
  -3.01130116e-03 -3.84783745e-03 -5.98652437e-02  1.11628398e-02
   2.32599303e-02  5.60450628e-02 -5.14162481e-02  6.44560084e-02
  -1.79840028e-02  1.80670023e-02 -1.17605254e-02 -7.37932697e-02
   4.30348366e-02  1.20757446e-02  5.69085553e-02 -4.38078046e-02
  -6.40300810e-02  2.40147039e-02 -6.31496459e-02 -1.48928910e-02
   2.69798711e-02 -7.18737319e-02  7.08877519e-02  1.04172304e-02
   7.01388940e-02  7.20357522e-02  5.17665669e-02 -8.49694014e-03
   3.98105383e-02  4.11810279e-02  2.07069069e-02  7.32515827e-02
   7.83069208e-02 -5.32093123e-02  4.72032055e-02 -3.31343189e-02
   1.83756649e-03 -7.37050846e-02  3.94830629e-02 -4.06985357e-02
  -6.56823963e-02 -3.35937403e-02 -1.80306286e-03 -5.04943132e-02
   4.25807312e-02  5.37535772e-02  1.67102441e-02  4.43785563e-02
  -6.58442453e-02  2.74529979e-02 -2.43585557e-03  4.76995781e-02
  -2.93977931e-02  9.96446609e-03 -4.78288382e-02  9.40088928e-03
  -3.00458819e-03 -5.86168617e-02 -6.47866279e-02 -3.02654840e-02
   1.50165558e-02  7.99119473e-04  4.33683619e-02  5.87587729e-02
   4.01144400e-02  7.41148219e-02 -7.64694586e-02  4.81458083e-02
  -5.72026335e-02  6.62841871e-02 -6.70519769e-02  6.47129491e-02]
 [-7.09789246e-02  1.79394856e-02 -1.44398138e-02  3.50639522e-02
  -2.35472992e-02  7.59000406e-02 -7.29694366e-02 -7.15392753e-02
  -1.32232755e-02 -5.48424721e-02  6.05208501e-02 -4.28073183e-02
   1.21171474e-02 -1.34644434e-02  7.90774003e-02 -2.72450745e-02
   2.94254273e-02  2.08263844e-02 -1.88577808e-02  4.48831841e-02
   7.98336193e-02 -7.10014775e-02  6.16234466e-02 -5.67680821e-02
   6.89421073e-02  4.26986590e-02  7.03182146e-02 -2.22352557e-02
  -3.68716791e-02 -1.51368603e-02 -6.67039454e-02  7.74188563e-02
   2.80970335e-03 -2.35281140e-03 -2.35630795e-02 -1.04779378e-02
   5.48327789e-02 -3.61946821e-02 -6.91932142e-02  2.51961574e-02
  -2.82236487e-02 -6.94064945e-02  1.38247758e-03  8.01423565e-02
   2.25497112e-02  2.20046639e-02  5.62071577e-02 -3.51827294e-02
   6.08286262e-03 -3.09437737e-02 -7.69636855e-02  7.22192451e-02
   8.05967227e-02 -4.89875674e-05 -1.46018118e-02  5.15665114e-03
   4.41359356e-02  5.40859923e-02  1.83813795e-02 -8.99314135e-03
   5.51637933e-02  8.72261822e-03  2.72132978e-02  4.17084396e-02
   3.14511135e-02 -1.39680356e-02 -4.98244725e-02  7.51750544e-02
   7.02186450e-02  7.66733810e-02  3.29514593e-02 -4.88334037e-02
  -6.55428767e-02 -7.87167400e-02  2.37232596e-02 -4.26674634e-03
   2.63080001e-04 -2.70214640e-02  5.49932197e-02  6.27562180e-02
  -5.94613850e-02 -2.43726596e-02  3.87566760e-02  5.83522394e-02
   4.71033826e-02 -1.24061406e-02 -5.34555838e-02 -4.67435531e-02
  -6.05760254e-02  1.51055306e-03  7.46485516e-02 -5.47350086e-02
   4.93049249e-02  1.76840052e-02 -1.21875182e-02  7.31898025e-02
  -7.14387894e-02 -4.94775437e-02  6.28959611e-02  5.61121777e-02
   3.24705169e-02 -3.02913189e-02 -2.73786820e-02 -3.90982144e-02
  -4.91322204e-02 -4.28218618e-02  3.13786715e-02 -2.23552883e-02
  -5.48729859e-02 -6.93059713e-02  1.54742002e-02 -8.19459558e-04
   5.86012229e-02  3.91378775e-02 -4.14034352e-02  2.18638405e-02
  -5.37705682e-02 -1.85382515e-02 -7.39800408e-02  2.03078464e-02
  -3.17135938e-02 -4.64222655e-02  9.58298147e-03 -9.11480188e-03
  -1.63000599e-02  4.46656123e-02 -7.66376629e-02  1.85537487e-02]
 [-2.49456726e-02  3.09826285e-02  1.65217146e-02 -8.06755945e-02
  -6.09309599e-02  2.03973204e-02 -1.73043758e-02  2.24050805e-02
   1.59658343e-02  2.72573158e-02  5.15064821e-02 -1.65250972e-02
   4.64166775e-02 -1.68986395e-02 -2.12218501e-02  6.02821633e-02
  -2.27977298e-02 -3.06000561e-02  1.68437138e-02 -3.24200839e-03
   6.03260025e-02  5.29033616e-02 -5.37483692e-02 -7.43281692e-02
  -4.83934171e-02 -5.02462387e-02  5.34060970e-02 -4.23622876e-03
  -3.43121588e-02 -7.96564072e-02  2.98361331e-02  1.60905644e-02
   2.06068307e-02  6.56399354e-02  2.12178081e-02  2.42920369e-02
  -4.28570174e-02 -3.55862081e-04 -5.81548698e-02 -4.68176566e-02
  -3.57171819e-02 -9.13173705e-03 -7.06937835e-02 -3.18520367e-02
   7.48929605e-02 -6.42778426e-02  6.68637231e-02 -3.88431810e-02
   7.59838521e-03  4.98529449e-02  1.62558556e-02 -4.63055782e-02
   6.03874698e-02 -9.06573981e-03 -4.41613458e-02 -6.82424232e-02
  -6.01133183e-02 -3.14370170e-02  1.53063238e-02 -6.28408492e-02
  -2.03512385e-02 -5.14712185e-03 -2.98417360e-03  5.57379499e-02
   1.24750435e-02 -3.15298401e-02  2.50639766e-03 -4.66735661e-02
   6.50372580e-02  4.52961996e-02 -4.12501805e-02 -4.70384620e-02
  -5.85027486e-02 -8.34850222e-03  4.06651571e-02  2.42016315e-02
  -3.71590070e-02 -6.21106327e-02 -3.77844647e-02 -6.50371015e-02
  -7.50107542e-02  7.89078996e-02 -4.17383946e-02  4.56876680e-02
  -3.49560082e-02  7.84156471e-03 -3.44322287e-02 -3.81955579e-02
   7.51680657e-02  7.70401210e-03  2.03944743e-04  1.83805898e-02
   2.69265547e-02  1.65431201e-03 -1.61433592e-02 -7.82779753e-02
  -4.04756628e-02 -2.07031593e-02  6.66137710e-02  2.21227035e-02
  -3.38204242e-02 -3.75731960e-02 -4.65325713e-02  7.71114007e-02
  -4.16056737e-02  6.26301765e-03  5.05182073e-02 -3.16336676e-02
   8.86545330e-03  5.12725040e-02  3.41672376e-02 -5.76520935e-02
  -4.13356163e-02 -2.98506208e-02  7.79707655e-02 -1.57392099e-02
  -3.94495577e-03 -5.50316758e-02  7.95720518e-03  7.73394480e-02
  -3.54343988e-02  7.40019158e-02 -4.41627204e-02 -5.79807460e-02
  -4.19544429e-03 -4.72909212e-02 -4.81933355e-04 -2.88394578e-02]
 [ 2.68093050e-02 -5.29721305e-02 -4.27346639e-02 -1.93288624e-02
  -7.59515911e-03 -3.05354074e-02 -1.69707537e-02 -3.43207829e-02
   2.09016651e-02  3.20395082e-03 -2.66274810e-03  1.59153417e-02
   3.59986871e-02  6.89983144e-02 -5.10981120e-02 -2.50529014e-02
   5.03983349e-03  2.23692507e-02 -3.67374308e-02  1.65282711e-02
  -3.11200246e-02 -3.90123315e-02  1.67581663e-02  7.93376043e-02
   7.18659833e-02  3.46884876e-03  4.79550585e-02  4.25055251e-02
  -1.24770328e-02 -5.43460958e-02  3.62131149e-02  5.36680222e-03
  -6.59486279e-02 -3.65885869e-02 -2.95005962e-02 -4.93976548e-02
   3.69391665e-02 -9.89898294e-03 -7.39061683e-02  2.36056447e-02
  -4.52355519e-02  8.86939466e-03 -6.09636605e-02  6.49694130e-02
   7.54068717e-02  6.28168359e-02 -7.44580254e-02  7.93162361e-02
  -6.49281293e-02 -8.11101124e-02 -7.53417611e-04 -6.85525164e-02
  -2.92535685e-02 -9.24187154e-03  1.64074451e-02  4.28415462e-02
  -5.72458953e-02  1.10756829e-02  2.63213590e-02  4.57175598e-02
  -5.65156005e-02  4.73260358e-02 -8.02974552e-02  6.40036985e-02
   7.32268170e-02  3.60847041e-02  5.83824292e-02  1.53429508e-02
  -4.98958305e-02 -5.85321411e-02 -1.50493160e-02  5.99469990e-03
   5.15132323e-02  5.69546595e-02 -5.00792563e-02  1.71555057e-02
  -4.14201431e-02  4.02000099e-02  6.87397644e-02  1.81638673e-02
  -1.71405822e-02 -3.81502509e-02  4.15574089e-02  2.47620344e-02
   3.65161672e-02  5.59195504e-02 -2.17624530e-02 -6.70968220e-02
  -5.25998250e-02 -3.42553221e-02  6.20043948e-02 -4.73061986e-02
   4.80397567e-02 -1.72757730e-02  2.34471262e-02  1.36534944e-02
   1.84402317e-02  4.45312187e-02  6.12266436e-02  1.31861642e-02
  -4.93652076e-02  6.23836368e-03  9.92507488e-03  1.83015540e-02
   2.19332874e-02 -5.11590466e-02 -3.04066911e-02 -6.24387674e-02
   6.71914965e-03 -3.11066620e-02  3.83420438e-02 -3.11046876e-02
   1.40954182e-02  1.69808269e-02  6.07019886e-02 -2.06421651e-02
   2.27914229e-02  5.47794923e-02 -5.75526357e-02  5.38463145e-03
   7.14437440e-02 -1.98163614e-02  8.05884227e-02  2.27457061e-02
  -6.84444308e-02  7.91043863e-02  5.70566133e-02 -3.17788981e-02]
 [-7.82310441e-02  1.32120624e-02 -6.04024455e-02  7.96078518e-02
  -2.99137570e-02  1.22950003e-02 -6.16480261e-02  1.30461007e-02
   6.27271011e-02  7.14428946e-02  1.67703256e-02 -6.91872165e-02
  -6.33987188e-02 -7.80386478e-02 -7.35179707e-02  6.79712817e-02
   4.29519266e-03  6.63767233e-02 -7.86539689e-02 -3.27856876e-02
   3.44886035e-02 -4.38920408e-02 -1.00263283e-02 -2.46260874e-02
   4.13081571e-02 -3.92331183e-02 -4.77868542e-02 -3.69171426e-02
  -5.56988679e-02  6.60009608e-02  2.68802568e-02 -7.81430751e-02
  -4.50406037e-02 -4.75484133e-03 -3.13983224e-02  6.73466399e-02
  -1.60998330e-02 -5.82023263e-02  4.00483608e-02  6.56565800e-02
  -6.87720254e-02  2.98474282e-02  4.87404317e-03  1.93181336e-02
   6.85675219e-02  4.17359024e-02 -5.19156605e-02  7.07220361e-02
  -5.77405468e-02  4.18923274e-02  6.63916394e-02 -6.60581812e-02
  -4.28788885e-02 -4.29738797e-02  1.28224343e-02 -2.62595154e-02
  -7.97005594e-02 -5.92383370e-02 -3.44426520e-02 -6.23524934e-03
   7.66681358e-02 -1.41131133e-02  3.28838676e-02 -3.04375552e-02
   2.60248035e-02  5.86653873e-02  4.15255353e-02  8.13424587e-04
  -4.31743972e-02  2.36987397e-02  5.22452369e-02  1.77424848e-02
   7.14689866e-02  1.02614462e-02 -6.90503791e-02 -6.18777424e-03
   9.57752764e-03  4.14310321e-02  1.13669559e-02  4.74066362e-02
  -5.89899942e-02 -6.81722835e-02  7.89386258e-02 -6.30081818e-02
  -2.93818004e-02 -3.22173573e-02  3.27295139e-02 -5.45605198e-02
  -3.51656750e-02 -1.90677941e-02  2.83036307e-02 -5.02576493e-02
   9.22672451e-04 -5.08818701e-02 -7.57257491e-02 -6.39855415e-02
  -2.61115208e-02  1.54876411e-02 -1.96243078e-03  2.51525566e-02
   6.33437261e-02 -7.49786273e-02 -1.15736052e-02 -7.38053173e-02
  -8.23356956e-03  8.04487392e-02  1.87147558e-02  5.39808348e-02
  -1.10683516e-02 -6.93501383e-02  2.23251954e-02 -1.21085197e-02
  -6.42257258e-02  5.55590168e-02 -5.41951992e-02  3.24454308e-02
  -4.12187949e-02  7.86521658e-02 -2.04257295e-02  5.04107848e-02
   5.57467863e-02 -1.16745383e-03 -5.97670674e-02  3.17519158e-03
  -1.49999633e-02  3.71350870e-02 -6.55090138e-02  1.31181180e-02]
 [ 1.13785565e-02 -2.24387124e-02  7.09727332e-02 -2.99629942e-02
  -1.51786134e-02  6.34416863e-02  5.54577187e-02 -3.10951732e-02
   3.68631706e-02 -7.70359710e-02 -4.99998517e-02 -4.48786058e-02
  -2.11498141e-02 -4.86683324e-02 -6.66233450e-02 -6.19868487e-02
   3.04599106e-02  5.85660860e-02  1.17462203e-02 -7.47376159e-02
  -2.29864307e-02  1.82533264e-02 -4.30710353e-02 -7.98731148e-02
  -4.37874012e-02 -5.44661656e-02  2.63955817e-02  3.85757685e-02
  -3.45962942e-02  5.61073422e-03  7.17306808e-02  3.83500904e-02
  -2.00296454e-02 -3.08015011e-02 -4.57139052e-02  7.99784064e-03
  -6.93680122e-02  3.05969045e-02  2.50918120e-02 -5.20713329e-02
   6.22630641e-02  6.62988350e-02  6.02969602e-02  8.04783478e-02
  -1.43741369e-02  3.63334939e-02  7.25308284e-02  5.08075878e-02
   7.52247348e-02 -5.34065813e-02  4.22372818e-02  8.18667561e-03
   2.43272707e-02 -4.94549572e-02  7.71967322e-03  1.78962201e-02
  -3.03152800e-02 -4.89328206e-02  2.20930427e-02  7.99755380e-02
   7.96746537e-02 -3.31907496e-02 -3.34168710e-02 -6.03497289e-02
  -7.62658268e-02 -1.92157179e-03  4.62893769e-02 -7.87586495e-02
   3.42701375e-02 -4.05439064e-02  2.93790773e-02  5.05991802e-02
  -6.38447776e-02  2.58038864e-02 -2.87614875e-02  7.39229470e-03
   6.84012249e-02 -3.25664878e-03 -3.54708731e-03 -2.09134631e-02
  -6.81752414e-02 -4.00199331e-02 -5.99360839e-02 -5.79970703e-02
   8.84717703e-03 -2.19490863e-02  2.36314982e-02 -3.31270695e-02
   6.59902394e-03 -5.54391146e-02  7.32191280e-02 -2.32249498e-04
  -5.96763492e-02 -1.03480220e-02 -3.46937627e-02 -7.04111010e-02
   1.93641558e-02  3.99847776e-02 -4.49537337e-02 -3.18636410e-02
  -3.50420438e-02 -5.38511723e-02 -3.83441560e-02  2.26401985e-02
  -6.29835427e-02  1.68239325e-02  4.55680713e-02 -1.11824274e-02
  -4.51887734e-02 -9.10224766e-03 -4.58003469e-02 -4.79271524e-02
   5.08353040e-02 -2.58510523e-02 -1.22945383e-02 -1.18434355e-02
   8.04040357e-02 -3.58181298e-02 -5.80482185e-02  1.01443902e-02
   1.22930706e-02  2.43955553e-02  5.04695252e-02  8.92981887e-04
  -6.41872436e-02 -7.25999400e-02  3.19408774e-02 -8.04396868e-02]
 [-3.98881733e-03 -1.37487575e-02  1.40761957e-02 -4.66378294e-02
  -2.76226923e-02 -6.95517063e-02 -4.00875211e-02 -3.96692939e-02
   3.14190984e-03 -7.48273656e-02  2.63756067e-02 -1.24060810e-02
   5.83008751e-02 -4.22156453e-02 -7.67723322e-02  8.02458078e-03
  -5.15614003e-02  7.69078359e-02  1.54350996e-02  6.39131591e-02
   2.83237994e-02 -1.22910738e-02  1.29151791e-02  2.65502259e-02
  -6.33540899e-02 -3.35329771e-03 -5.83640113e-02 -3.90486494e-02
  -8.02362338e-02  5.85315451e-02 -3.14525254e-02  5.41625693e-02
  -1.33892372e-02  1.80936605e-03  5.08995876e-02  2.09969878e-02
   7.39052519e-02 -5.63789010e-02 -5.13130426e-03  4.12727669e-02
  -7.22785741e-02 -4.91789803e-02 -2.76184380e-02  5.95498905e-02
  -5.30151948e-02  3.37541923e-02 -5.82773983e-02 -6.15828335e-02
   7.57066980e-02 -5.89364469e-02  4.07619029e-02 -4.79515009e-02
  -3.60141210e-02 -8.76498967e-03 -7.18783885e-02  7.69511685e-02
  -3.15616913e-02 -3.39890160e-02 -5.61185479e-02  3.34168896e-02
  -4.14925069e-02 -5.28515130e-02 -7.10306391e-02 -6.22125119e-02
   5.58680072e-02 -3.29220034e-02  2.03717500e-03  6.30548596e-03
   8.65688920e-03 -5.65827265e-02 -1.08218938e-03 -6.85441196e-02
  -3.90044823e-02 -1.45776570e-02  2.88750827e-02  6.71516359e-03
  -1.69151723e-02 -7.89897218e-02  6.90079257e-02 -1.52911618e-02
  -3.15234065e-05 -5.11630103e-02 -5.02200760e-02 -2.44488530e-02
  -5.53218499e-02 -8.10011476e-03  4.95868251e-02  7.41903856e-02
  -4.95132990e-02 -1.39202923e-03 -2.94144452e-02 -5.17492890e-02
   1.51421428e-02  7.86099806e-02 -8.02698806e-02 -2.67372690e-02
  -1.65679306e-03  1.29519999e-02  4.54341397e-02  7.30062202e-02
   5.78352734e-02  2.35461444e-03 -6.10527135e-02  7.53099471e-03
  -5.02907559e-02  3.18663865e-02 -4.22104411e-02  6.09067157e-02
  -4.98729721e-02 -3.83116081e-02  4.96648327e-02  6.31394014e-02
   1.03034079e-04  4.36334684e-02 -7.34634548e-02  7.58290663e-02
  -2.26061046e-03  2.42593363e-02 -3.63686495e-02 -7.94715732e-02
  -3.15641090e-02 -2.18843594e-02 -3.77561934e-02  5.24824783e-02
   9.54665989e-03  3.07226405e-02 -2.03837082e-02 -7.13998079e-02]
 [-3.83845903e-02 -8.13440233e-03 -7.52190500e-03 -8.87878239e-04
  -3.09428573e-03 -7.29776025e-02 -5.66544682e-02  5.37712872e-03
  -1.63462013e-02 -5.57317808e-02 -6.25083297e-02 -7.84835219e-02
  -5.53338230e-03  6.55623600e-02 -5.68272769e-02  8.53836536e-03
   4.06850576e-02 -3.51137295e-02  6.95235655e-02 -2.16143392e-02
   4.58312854e-02  2.33191252e-03  1.33376047e-02  1.61549449e-02
  -2.93139815e-02 -1.85395703e-02 -3.54509316e-02 -6.35553002e-02
  -9.19671357e-03  4.26250771e-02  1.09132826e-02  9.07646865e-03
  -3.77602875e-04  5.67779019e-02  2.02340707e-02  6.72383532e-02
  -7.43321106e-02 -3.33243012e-02  5.81518784e-02 -8.05445239e-02
   6.05440065e-02 -4.22308631e-02  4.02222723e-02  6.75879419e-03
   7.29173198e-02 -7.57007971e-02 -3.41655165e-02 -7.58975893e-02
  -7.90784657e-02 -1.95138901e-03  3.91161963e-02 -6.62842095e-02
   3.60285491e-02  7.48223141e-02 -4.64408100e-02  6.93089291e-02
  -4.01187912e-02 -8.76571983e-03 -7.75171295e-02 -9.90188867e-03
  -4.04778086e-02 -8.18938017e-04 -6.91318661e-02  7.32650980e-02
   5.86517677e-02  3.86299714e-02 -1.13587976e-02  4.21784744e-02
  -4.87247035e-02  5.95936254e-02  2.71619186e-02 -3.28259505e-02
   3.75893414e-02  5.52899465e-02 -3.01100239e-02 -3.20233926e-02
   5.26255444e-02  2.82573774e-02  7.13524967e-03  7.07213357e-02
  -6.96460903e-03 -1.69057772e-02  4.31595817e-02  5.43860868e-02
  -7.23796785e-02 -8.05047601e-02 -3.62123959e-02  2.18563601e-02
   3.63619998e-02  7.70021006e-02  5.43014482e-02  2.60370076e-02
   2.19412893e-02 -1.10184029e-02  1.83949396e-02 -2.44330727e-02
  -4.86540198e-02  5.98435923e-02  8.10903236e-02  7.05905780e-02
   6.56606779e-02  3.74606624e-02 -9.28360224e-03 -2.56508440e-02
  -5.71289137e-02 -1.96924023e-02 -2.10982598e-02  4.52783331e-02
   6.66996315e-02 -5.80723584e-03  2.04868764e-02 -1.43712163e-02
  -3.56771052e-04  5.47741428e-02 -2.33799964e-03  8.09652880e-02
   8.41869414e-03  4.77597639e-02 -1.59873962e-02 -4.94710840e-02
  -1.22652426e-02  2.56536081e-02  5.71677014e-02  3.16274017e-02
   4.28708643e-03  7.30433241e-02  7.98737332e-02  7.05107301e-03]
 [-1.98331475e-03 -4.65148576e-02  2.79322565e-02  1.94835290e-02
  -8.01692009e-02 -4.58053537e-02 -4.88340035e-02  6.64426461e-02
  -4.59461585e-02 -3.57946903e-02 -5.27492538e-02  7.83862099e-02
  -5.80931418e-02 -2.57339776e-02  6.44667447e-03 -1.32028013e-03
  -2.86127180e-02  5.92121482e-03 -9.29486006e-03 -1.80955976e-03
  -5.72433211e-02  1.99369341e-02  4.69946638e-02 -2.81333402e-02
  -6.52207136e-02  4.45353761e-02  6.35901764e-02 -7.65056387e-02
  -1.68932825e-02  5.07526174e-02  2.30447575e-02  6.61792979e-02
  -2.26915814e-02 -4.66939099e-02 -2.02339739e-02 -1.94985755e-02
   4.83817831e-02 -3.01587358e-02  7.23274425e-02  5.16761765e-02
   5.24901599e-03  6.49284646e-02 -1.73332468e-02  2.02228501e-02
  -5.39220050e-02 -5.19446060e-02 -6.78042546e-02  5.58223948e-02
  -4.30259183e-02  3.48039344e-02 -3.44921015e-02 -5.85869066e-02
   3.02757919e-02 -3.63484025e-02  7.39339739e-03  9.86933708e-04
   3.95304859e-02 -3.72853428e-02 -1.71888098e-02  1.13186464e-02
  -3.90013866e-02  1.98865607e-02  7.01760724e-02  2.68742219e-02
  -2.79252194e-02  8.15065205e-03 -7.22608417e-02 -1.94245502e-02
  -4.85042259e-02  1.97376534e-02 -5.17228544e-02  7.50086457e-03
  -5.84856123e-02  2.06688493e-02 -6.48697466e-02  1.63940787e-02
  -2.97763608e-02  5.71958497e-02 -8.53229314e-03 -5.32063544e-02
   5.93097135e-02 -6.18643984e-02  5.31420484e-02  7.32060447e-02
  -1.75250024e-02 -4.54138890e-02  4.40271571e-02 -2.53645405e-02
  -5.89241087e-02  7.80913159e-02 -5.53487241e-03 -7.40503147e-02
  -2.84976140e-02 -6.29969463e-02 -4.67911623e-02  1.89119130e-02
   7.76505247e-02 -1.17488652e-02  5.61144426e-02 -1.99015662e-02
   7.92893544e-02  1.91626474e-02  6.57132640e-02  4.80262563e-02
  -5.66688403e-02 -6.23108074e-02 -5.82841635e-02 -7.90742338e-02
  -1.50365531e-02  1.95766836e-02  5.86638600e-03 -5.42003438e-02
   6.80630282e-02  3.92594188e-03 -2.21132301e-02  4.71737310e-02
   5.99857941e-02 -4.43092659e-02 -4.73252088e-02  7.46233985e-02
   1.77156776e-02 -6.13660738e-02 -7.40663111e-02  1.86253339e-03
  -3.33670937e-02  4.01993170e-02  1.84897333e-02  3.95402834e-02]
 [-2.31689848e-02 -3.06700394e-02 -2.40178220e-02  6.06385097e-02
  -2.24706978e-02 -4.19890359e-02  8.02389905e-02  3.95489708e-02
  -4.97214496e-03 -6.91137686e-02 -3.67294848e-02 -3.36639173e-02
   4.74210754e-02 -3.67790274e-02 -3.82351056e-02 -5.58930263e-02
   7.65025392e-02  7.26476312e-03  3.22316065e-02 -1.74545348e-02
   4.49353084e-02  6.42374679e-02 -5.72903529e-02  2.86452994e-02
   4.60758060e-03  1.92946941e-02 -6.88936189e-02 -2.15671360e-02
  -1.16240010e-02  6.13473579e-02 -7.24024326e-03  1.48526058e-02
   2.01559216e-02  8.06936994e-02 -5.90122342e-02  6.90313429e-03
  -3.66902277e-02  7.57636502e-02 -1.98547691e-02 -6.45104945e-02
   4.35379744e-02 -1.93178803e-02 -3.20207439e-02  3.91351879e-02
  -4.32384089e-02  1.60910487e-02 -7.36593902e-02  2.02170014e-03
   6.86029866e-02 -4.84672152e-02 -7.67809227e-02  3.43995094e-02
  -1.58367306e-03  5.91135845e-02  5.23781776e-03 -3.20524573e-02
   5.74181750e-02 -5.86555004e-02 -4.18643244e-02 -1.90949291e-02
   2.12260485e-02  1.11583918e-02  1.89673528e-02  1.07796714e-02
   5.12387827e-02 -7.97798857e-02 -1.85819566e-02 -3.87408808e-02
   7.34501109e-02  5.05383313e-03  2.86582112e-03 -5.52736968e-03
  -6.01249188e-03 -5.23408279e-02  4.78814170e-02 -5.16091287e-02
   6.52201399e-02 -7.97144994e-02  4.66205180e-04  4.35415134e-02
  -3.32777910e-02  6.27268851e-03  3.21268365e-02 -1.43976137e-02
   2.31102556e-02  1.64480731e-02 -6.64043948e-02  1.65149048e-02
   1.16112009e-02  3.55749279e-02  6.25846311e-02 -7.53038973e-02
   4.31837365e-02 -8.07780474e-02  7.74795786e-02  2.74521261e-02
  -2.48830356e-02  5.50364777e-02  7.31974617e-02 -7.85219073e-02
   2.85366774e-02  5.26585057e-02 -2.93671414e-02 -5.57698309e-04
  -4.92558107e-02 -3.49127091e-02  5.36183342e-02  2.58288160e-02
  -2.39550285e-02  5.58783337e-02  2.64228880e-03 -4.48553041e-02
  -4.62763384e-02 -5.52447662e-02  7.29550943e-02 -3.22908163e-04
  -3.33582759e-02  4.35854495e-03 -7.01274052e-02 -9.60473716e-03
   2.26332545e-02 -3.36346216e-02  5.94823882e-02 -6.97181523e-02
  -1.63591206e-02  7.70302489e-02 -6.84762225e-02  5.04710153e-02]
 [ 4.78233024e-02  7.61091635e-02 -2.49186940e-02  7.03455433e-02
   2.65336782e-02 -5.92667647e-02  7.99924061e-02  3.64678949e-02
  -3.31906341e-02 -3.81037407e-02  7.84637406e-02  6.46137223e-02
   3.06271091e-02 -6.66121468e-02  4.32289094e-02  1.45872459e-02
  -6.39904290e-03  9.49352980e-05  5.23874909e-03 -3.61351036e-02
  -7.46049732e-02  5.08608297e-02 -3.16333957e-02 -3.27602774e-02
  -4.65965606e-02 -3.67126800e-02  3.29010636e-02 -2.74090804e-02
  -1.05016232e-02 -2.81347521e-02 -7.73196667e-02  7.26870671e-02
  -2.84951963e-02 -8.95678252e-03  1.95242763e-02 -4.89564240e-03
  -3.67654115e-03  7.08097592e-02  4.75855097e-02  1.10315159e-02
  -3.61214876e-02  4.35412079e-02  3.60396504e-03  2.88993120e-02
   4.02021632e-02  6.86130300e-02  6.63243979e-03  2.69050077e-02
  -6.67151436e-02  4.40594181e-02 -4.73818704e-02 -8.98008794e-03
  -1.94101818e-02  3.81132588e-02 -6.64909929e-02 -6.58354461e-02
   4.02027220e-02 -6.70376271e-02  4.82771769e-02  2.37479359e-02
   6.25903979e-02 -2.89985538e-03 -3.26366723e-03  3.42826843e-02
  -2.03090236e-02 -5.37033863e-02  7.56699219e-02 -6.58820868e-02
  -7.57332146e-02  7.52066448e-02 -4.07760032e-02 -4.90819775e-02
  -2.56784372e-02 -8.35724175e-03 -3.38153169e-02 -7.25583881e-02
  -5.70754260e-02 -5.75743541e-02 -1.87692307e-02 -4.23328727e-02
   3.56822610e-02  4.01111916e-02 -1.55184418e-03  5.68441227e-02
  -6.72479346e-02  3.95183787e-02 -3.69828343e-02 -1.14976987e-02
   9.30480659e-04  2.08916664e-02  1.93031654e-02  5.87067977e-02
   9.45015997e-03 -6.66887611e-02 -4.06634174e-02  4.74481061e-02
   4.27989438e-02 -4.63226922e-02 -8.08465630e-02  5.01226559e-02
  -6.57515377e-02 -7.72987232e-02 -5.35780936e-03 -1.52923390e-02
  -7.66703486e-03  4.98818681e-02  1.27365366e-02  3.82376388e-02
   1.90623254e-02 -5.33885397e-02 -1.54063404e-02  3.79159078e-02
  -5.58521450e-02 -2.89928094e-02 -3.99179831e-02 -3.37690599e-02
   1.40203089e-02 -6.82565048e-02  3.09360772e-03  7.55276307e-02
   6.68131635e-02 -4.12104391e-02 -3.14158238e-02  4.86643538e-02
   2.37721503e-02 -6.79723620e-02 -2.62782536e-02  1.99143291e-02]
 [-4.70740236e-02 -4.94486727e-02  4.99986187e-02 -6.00972772e-03
  -6.20263778e-02  6.50199428e-02 -3.88312303e-02  2.33422145e-02
   1.56742111e-02  4.47981581e-02  4.47309986e-02  7.14085028e-02
   6.16210923e-02  4.35459614e-02  6.98603690e-03 -5.81895411e-02
   7.41873607e-02 -3.02147008e-02  3.67807150e-02 -8.51429999e-04
  -3.03037167e-02  3.56271863e-04 -6.06437847e-02  4.13194895e-02
   1.02107376e-02 -5.46841286e-02  5.67366183e-03 -4.62439470e-02
  -7.49005005e-02  7.28025287e-03  6.20223358e-02 -7.70149529e-02
   1.97862536e-02 -2.37691700e-02 -7.30087161e-02 -5.18714711e-02
  -6.68632537e-02 -7.83334374e-02 -3.33978608e-02  3.54225188e-03
  -3.17791849e-03 -1.01677701e-02 -1.76104233e-02 -3.69532853e-02
  -1.79003030e-02  4.49325368e-02  6.86621666e-03 -4.12729010e-02
   2.74879411e-02 -3.68568078e-02  1.37947649e-02 -2.74998732e-02
   3.28047201e-02  6.02109954e-02 -3.41163948e-02 -3.78714092e-02
   7.25565329e-02 -2.15971693e-02 -2.36719921e-02  3.15125138e-02
  -7.85125270e-02 -3.91729735e-02  1.92522630e-02  5.63257709e-02
  -2.37340108e-02  6.76899329e-02  6.28947392e-02 -1.88910998e-02
  -2.56673768e-02 -4.49840762e-02  7.85527900e-02  7.41237774e-02
  -5.64508364e-02 -2.27919072e-02 -1.37742087e-02 -7.61487707e-02
   5.68406358e-02  4.23089713e-02 -2.35065147e-02  2.42299214e-02
   1.88928992e-02 -7.76827335e-03  3.46368700e-02 -7.46946484e-02
  -3.27803120e-02 -3.78742814e-04  6.81076571e-02 -7.29639828e-03
  -1.10871121e-02 -7.98816457e-02  3.87282893e-02  5.73821887e-02
   3.09896469e-03  7.34293088e-02 -2.78946646e-02  3.10844034e-02
  -4.74579670e-02  6.23629764e-02  1.80438310e-02  5.65758571e-02
  -1.34329498e-03  4.43886444e-02  4.96524945e-02  5.99227324e-02
  -5.87064028e-03 -2.44500302e-02 -5.42497709e-02 -5.31146713e-02
   1.00687146e-02  1.61227062e-02 -3.39647830e-02 -2.99182460e-02
  -6.85938746e-02  5.86948022e-02  1.72218978e-02 -3.11949030e-02
  -7.62927234e-02 -3.17902118e-03 -3.51541266e-02  8.09019729e-02
  -2.55775899e-02  6.07882068e-02  1.16542876e-02 -3.91944498e-03
   2.99456641e-02 -1.48241818e-02  7.95876607e-02 -6.91149682e-02]
 [-5.89146279e-02 -8.16039294e-02  2.58487258e-02  5.83115742e-02
  -5.03074676e-02  2.56941393e-02  5.91493472e-02 -7.64223784e-02
   5.54722250e-02 -1.99967884e-02  3.09307743e-02 -5.99854328e-02
   2.99558416e-02 -1.11638084e-02  1.58300567e-02  4.80606966e-02
  -4.06130292e-02  5.26281968e-02  2.49016285e-02  7.13319182e-02
  -1.20524392e-02 -7.19274282e-02  2.40044221e-02  3.99118736e-02
   7.39839301e-02 -1.59230381e-02  4.84081283e-02 -8.03976879e-02
   6.58385083e-02  5.07539138e-02  8.07900280e-02 -3.02433111e-02
  -2.75219418e-02  1.93135496e-02  2.38204896e-02 -1.45572722e-02
   4.23822850e-02 -7.53977075e-02 -4.20077182e-02 -1.05351020e-04
  -2.48471834e-02 -3.06890495e-02  3.79622728e-03  6.00665733e-02
   6.72631040e-02 -6.38027415e-02 -4.12481762e-02  6.22721910e-02
   6.62845150e-02  8.11767653e-02  3.53674591e-03  2.82351077e-02
  -2.53925435e-02  6.02680854e-02 -2.10813396e-02 -4.91054729e-02
   7.81966075e-02  7.50598833e-02 -3.90366986e-02  3.26237753e-02
  -9.29566158e-04  5.86004443e-02 -2.72183996e-02  2.00023162e-04
  -8.11571181e-02  1.91507023e-02 -2.80962121e-02  1.84789449e-02
   8.05936083e-02 -2.52024606e-02  5.09448349e-02 -4.82380725e-02
   4.56857383e-02 -5.00333644e-02  3.63987796e-02  3.42745497e-03
  -5.80430850e-02  4.18208838e-02 -6.06845273e-03  4.32261825e-02
   2.08346173e-02 -8.73035472e-03 -4.21899520e-02  1.62397251e-02
   2.29971390e-02 -5.50454631e-02  4.93125394e-02  7.12160319e-02
   7.66090080e-02 -6.98473454e-02 -5.62637001e-02 -7.00864717e-02
   4.99230847e-02 -4.88833301e-02  1.67348376e-03 -7.41020963e-02
   7.57840350e-02  7.25393668e-02 -3.24812867e-02 -8.01743045e-02
  -4.69539650e-02 -1.90781802e-02  1.49556631e-02  5.77230230e-02
   5.56111522e-02 -6.19686674e-03  3.31550948e-02 -2.70536374e-02
  -1.41705079e-02 -1.53669119e-02  7.98619315e-02  1.04246810e-02
   4.06391583e-02 -6.10093959e-02  8.10330585e-02  2.38588843e-02
  -3.23453359e-02  4.76642475e-02 -6.32162169e-02  3.47389281e-03
  -4.21720296e-02 -4.51893806e-02  3.27954814e-02 -5.97933978e-02
  -5.81697971e-02  1.64369717e-02  6.00758120e-02 -2.60286611e-02]
 [ 4.67227176e-02  3.61841880e-02 -1.80000160e-02 -2.62414739e-02
  -3.73219922e-02  2.06806287e-02  7.91110098e-04  5.76192997e-02
   5.91732487e-02 -6.35696501e-02 -2.17703618e-02 -3.30594182e-03
  -3.00134085e-02  7.54974503e-03  2.45993175e-02  8.02261606e-02
   4.51687351e-02 -6.93731755e-02 -6.16212450e-02 -2.70614177e-02
  -8.06811228e-02 -3.14133130e-02  6.66678920e-02 -6.58766329e-02
  -1.21717155e-03  1.68260038e-02 -2.41712760e-02 -3.83055359e-02
  -5.04136607e-02  7.34465793e-02 -3.62294577e-02  7.13624209e-02
  -5.67944546e-04 -5.11175878e-02 -3.74988578e-02 -1.42996088e-02
   7.47464411e-03 -7.24398112e-03  1.71577334e-02 -7.93868229e-02
  -5.85270375e-02 -4.76285890e-02  6.32267296e-02 -2.19437480e-03
   1.72373541e-02  6.95954934e-02  5.56053147e-02 -2.49199253e-02
  -3.53270024e-03 -7.21640661e-02  7.35531226e-02 -3.98241915e-02
   5.35524376e-02 -2.27270797e-02 -2.61342227e-02  7.80274943e-02
  -6.71938434e-02  1.96980536e-02 -4.48503345e-03 -5.69966137e-02
  -7.17518702e-02 -3.08994334e-02  1.33169517e-02  3.41657503e-03
  -6.80886135e-02  8.57137665e-02 -2.32479088e-02  7.52406493e-02
   7.45983003e-03  4.82351445e-02 -4.38187737e-03  2.96241008e-02
   2.50620730e-02  2.06505954e-02  2.10898533e-03  7.41048828e-02
  -4.19642404e-02  6.49530161e-03  5.63922301e-02 -2.23530233e-02
   7.37942010e-03 -6.71194643e-02  5.86326746e-03  1.55178976e-04
  -6.09213561e-02 -3.73420455e-02  4.63383012e-02 -2.32728925e-02
   3.98792401e-02 -7.58783668e-02  1.83986872e-03 -1.31341405e-02
  -5.55625185e-02 -4.00819555e-02 -3.95105481e-02 -5.33480793e-02
   5.96024888e-03 -4.35089618e-02 -2.02157944e-02  4.24113274e-02
   6.23613819e-02  3.97003032e-02  4.40947115e-02  1.32638663e-02
  -1.46251610e-02  6.25997875e-03  5.86615540e-02 -8.71613901e-03
  -7.74794444e-02  3.38441990e-02  4.08906899e-02  2.70793438e-02
   1.02731884e-01  5.52192256e-02 -5.70483133e-02 -5.37699424e-02
   1.79731846e-03 -5.13746515e-02  5.99472690e-03 -7.18737915e-02
  -1.52253015e-02  3.29975300e-02 -5.63407056e-02  4.92448881e-02
  -1.47885969e-03  6.04951903e-02 -5.95351011e-02 -2.51097116e-03]
 [ 1.44424036e-01 -6.15414307e-02  3.87931727e-02  2.08170526e-02
  -6.33653998e-02  5.06920330e-02  4.17361408e-03  2.74362341e-02
   5.16621256e-03  5.65781891e-02  1.77431524e-01 -2.28008740e-02
  -1.62317939e-02 -2.23222934e-02 -9.08352062e-02  5.12985140e-03
  -1.88751042e-01 -3.72608043e-02 -1.49670452e-01 -2.24498045e-02
  -9.25589204e-02  2.14360747e-02 -6.40337318e-02 -9.06335041e-02
  -2.83046644e-02  6.84981719e-02 -8.55993107e-02  6.29936308e-02
  -4.38360088e-02  2.97523718e-02  1.78776994e-01  1.62781298e-01
  -1.50718242e-02 -1.37244388e-01  4.50004445e-04  5.10530807e-02
  -1.69515148e-01 -1.28232241e-02  8.03320333e-02 -1.32342160e-01
   7.13691190e-02  2.09423639e-02 -1.85415655e-01 -6.07448481e-02
   2.47966107e-02  4.93546622e-03 -3.14030014e-02 -5.51297776e-02
   4.84896451e-03  6.98100924e-02 -5.20970896e-02  9.44399566e-04
  -2.81160884e-02 -1.94265172e-01 -5.62293567e-02  9.71233696e-02
  -1.71139643e-01  4.02062386e-02 -4.56566997e-02 -5.20166419e-02
  -1.29882812e-01  6.50328994e-02  1.57779753e-01  2.00419500e-01
  -5.66154271e-02  4.62428406e-02 -1.22288894e-02 -5.12318760e-02
  -1.51469782e-01  1.47075700e-02 -2.00972054e-02  9.43669304e-03
  -9.99646075e-03 -8.37174580e-02 -6.24472238e-02 -4.30238694e-02
  -2.92888209e-02  1.00561269e-01  1.02493957e-01  3.55084538e-02
   7.45579302e-02  1.54979676e-02 -6.10186160e-02  7.43528083e-02
  -7.72700161e-02 -4.89628538e-02  7.00574666e-02  1.14878133e-01
  -1.70681328e-01 -6.14459626e-03  2.02374570e-02  1.15835182e-01
  -1.70401558e-01  1.33833840e-01 -1.39934674e-01  8.98603797e-02
   2.12777555e-01 -2.70084348e-02 -5.22062741e-02 -1.11868538e-01
  -2.52790973e-02  3.95205766e-02  9.76819247e-02  3.49331871e-02
   3.53535675e-02 -1.34257451e-01 -9.71296579e-02 -2.27900930e-02
  -1.89479381e-01  1.90065950e-02  2.97601391e-02 -5.31512946e-02
   1.74165964e-01  2.43933424e-02  3.15871984e-02  4.33733389e-02
   8.44463408e-02 -1.31766126e-02  1.25059575e-01  5.51912934e-02
  -4.06337678e-02 -1.64843649e-01 -2.80370992e-02 -6.34338930e-02
  -6.30941615e-02 -3.28089669e-02  1.28203720e-01  7.24135041e-02]
 [ 1.12830795e-01  2.45381556e-02 -3.39234732e-02  5.89245297e-02
  -7.47736990e-02  3.66577655e-02 -1.56571139e-02 -3.20492685e-02
   8.34767744e-02 -1.95353255e-02  1.55459017e-01  1.04545839e-02
   9.60395336e-02 -1.29029034e-02 -1.56118736e-01  1.07171964e-02
  -1.18659936e-01  2.37199962e-02 -1.84843838e-01 -1.25855818e-01
  -1.86149061e-01  9.45300385e-02 -1.06935702e-01 -7.30653629e-02
  -5.95408399e-03 -1.74282789e-02 -1.60913810e-01  6.75092265e-02
  -4.00366224e-02 -5.64783849e-02  1.29859611e-01  1.25727445e-01
   2.97164489e-02 -7.11009875e-02 -1.19020961e-01 -3.93697806e-02
  -1.82997450e-01 -6.21309504e-02  6.41787797e-02 -6.27624989e-02
   1.43257380e-01 -3.16883251e-02 -1.61101371e-01 -1.73822567e-02
  -7.39933029e-02 -3.94894509e-03  3.12388502e-02 -5.92879951e-02
   2.55133174e-02 -7.14412471e-03 -6.23992980e-02  7.74452696e-03
   5.25282584e-02 -7.45050907e-02 -6.73966259e-02  4.77229692e-02
  -9.31258053e-02  4.75826859e-03 -6.21999800e-02 -8.71293619e-02
  -1.67209044e-01  1.12855725e-01  1.73748910e-01  1.96039572e-01
  -5.50961941e-02  1.23457998e-01 -3.53349000e-02 -8.57456326e-02
  -3.67590040e-02  6.35757595e-02  6.50778692e-03  4.51470651e-02
   8.19420740e-02  2.97191851e-02 -1.87148541e-01  1.05632143e-02
  -4.85485010e-02  8.45525637e-02  1.32140620e-02 -2.54428433e-03
   2.80756261e-02 -2.39248111e-04 -9.91379246e-02  1.03958711e-01
  -2.16685146e-01 -5.91088459e-02  1.08400948e-01  1.06238604e-01
  -6.74736202e-02  5.48064671e-02 -4.51927744e-02  8.31170008e-02
  -8.39910731e-02  2.01657061e-02 -1.39860287e-01  1.10281587e-01
   1.60136640e-01 -1.26664996e-01  3.85619402e-02 -1.46553770e-01
  -5.61018549e-02  1.00366198e-01  4.96481359e-02  8.37507546e-02
  -4.01684120e-02 -9.92817879e-02 -4.88109291e-02  5.52273449e-03
  -5.61673492e-02 -7.43993670e-02 -2.26716325e-02 -6.24493025e-02
   1.89643562e-01 -7.15572014e-03 -2.23374404e-02  2.30334047e-03
   4.01987135e-02 -1.31115515e-03  1.50541976e-01  7.52724335e-02
  -6.06272034e-02 -1.30869776e-01  1.53640620e-02 -9.03493986e-02
  -2.59554647e-02 -1.46769270e-01  1.45657316e-01  9.22913849e-02]
 [ 2.19225913e-01 -3.66857387e-02 -1.04534946e-01  8.64679888e-02
  -5.27645312e-02  2.90809870e-02  2.38330197e-02  7.98847824e-02
   1.09370090e-01  3.15959714e-02  1.38113990e-01  1.17736608e-02
  -1.78358424e-02 -1.75244689e-01 -3.09210215e-02 -9.87289473e-02
  -1.12866305e-01 -6.06300905e-02 -7.11204633e-02 -1.48193657e-01
  -2.00788677e-01  1.28454668e-02 -6.57279789e-02 -6.34910464e-02
  -3.45351314e-03  2.74497867e-02 -1.19725883e-01  6.71655685e-02
   1.65866598e-01 -1.00233257e-01  1.44678012e-01  1.27704546e-01
   1.35153562e-01 -1.33156210e-01 -3.10191903e-02 -8.11253265e-02
  -1.51190981e-01  7.72410110e-02 -5.10191247e-02  3.83499153e-02
   4.41183671e-02 -1.82182286e-02 -2.23737851e-01  4.27997611e-06
  -2.54211798e-02 -5.94969541e-02  1.52966334e-02  1.23853542e-01
  -7.64677022e-03  4.07196693e-02 -1.60519481e-02  4.13325429e-02
  -9.62594375e-02 -1.35124922e-01 -7.01053217e-02  9.41236541e-02
  -7.83603787e-02 -7.23855570e-02  1.70075297e-02 -4.37615998e-02
  -1.06786834e-02  9.40951109e-02  1.90152183e-01  7.14749172e-02
   4.36154045e-02  8.10843334e-02 -9.68397409e-03  1.40466318e-01
  -1.06937997e-01  1.14457443e-01 -2.48707621e-03  5.22455201e-02
   8.00103843e-02  5.40889874e-02 -1.65215716e-01  8.34106952e-02
   6.41827658e-02  1.53106108e-01  1.83926776e-01  6.07811697e-02
  -8.74721333e-02 -5.45872077e-02 -8.03084597e-02  1.61559150e-01
  -1.86517343e-01  7.74086788e-02  5.26470430e-02  4.98806424e-02
  -7.63559490e-02  1.29115563e-02  4.43347543e-02  8.38054791e-02
  -4.06052964e-03  1.94067508e-02 -1.40446961e-01  1.80561215e-01
   1.40419051e-01 -2.56654974e-02 -7.02453107e-02 -1.51300743e-01
  -1.40978903e-01  1.28199473e-01  1.24745376e-01  8.07672739e-02
  -9.76334363e-02 -2.18719408e-01 -1.18587159e-01  1.89825788e-01
  -8.72530267e-02 -5.81348725e-02 -6.36868179e-02 -9.11676586e-02
   9.33482572e-02  7.19290152e-02  3.19745595e-04  5.48917614e-02
  -2.34109871e-02  8.07926729e-02  1.51415437e-01  5.40348962e-02
  -9.77920964e-02 -1.75230473e-01  1.38045937e-01 -1.42410368e-01
  -2.34028548e-02 -1.07655957e-01  1.63474455e-01  1.11252457e-01]
 [ 4.49132174e-02 -2.74650007e-02 -6.69469014e-02  7.79386833e-02
   1.01255491e-01 -2.74586901e-02 -1.19168190e-02  4.66002300e-02
  -7.57962614e-02 -4.40012887e-02  1.31279320e-01 -7.17823282e-02
  -4.40166658e-03 -1.59014672e-01 -1.19559623e-01  2.33046934e-02
   5.18797711e-02  1.06054842e-01 -7.91919008e-02 -1.59745008e-01
  -1.41908586e-01  2.69120354e-02 -7.62591809e-02 -1.71370968e-01
  -2.08221786e-02 -3.62266898e-02 -1.18992060e-01 -1.14923939e-01
  -2.56682690e-02 -9.61069018e-02  6.79766610e-02  3.04871108e-02
   4.35399152e-02 -8.06801021e-02 -3.00053321e-03 -3.11477240e-02
  -1.71238720e-01  1.50205135e-01 -3.72403860e-02  1.60067659e-02
   1.32112518e-01 -7.46993870e-02 -1.37553215e-01 -3.60096544e-02
   4.75774333e-02 -1.32325739e-02  7.78450444e-02  3.71842794e-02
  -8.06015879e-02  1.68831468e-01 -3.24238688e-02 -3.45872641e-02
  -5.84722348e-02 -7.11902305e-02  9.41440463e-03  1.04131296e-01
  -1.34454280e-01  6.93044588e-02 -2.65998989e-02 -7.78623223e-02
  -3.35103683e-02  6.19296990e-02  1.79765075e-01  6.93660825e-02
  -5.37968166e-02 -2.95245461e-03 -7.72666335e-02  7.12947594e-03
  -1.54259279e-01  5.92416003e-02 -4.54431325e-02  8.13836232e-02
   3.59735116e-02  3.03528062e-03 -3.40105705e-02  3.28441593e-03
  -6.99678482e-03  7.70494565e-02  2.12807506e-01 -6.47552237e-02
   3.81492847e-03 -3.41195576e-02  6.59831092e-02  3.46568711e-02
  -1.62712544e-01  4.17654775e-02  2.25083962e-01 -3.36793847e-02
  -1.32631078e-01 -3.73461321e-02  7.77452206e-03  1.92333341e-01
   5.45740090e-02  1.36043862e-01 -6.11199178e-02  1.57303706e-01
   1.00645840e-01 -1.60496831e-01  5.45461699e-02 -4.03575003e-02
  -2.12703973e-01  2.03264989e-02 -8.40811431e-03  3.90478112e-02
  -8.30373913e-03 -1.67437091e-01 -2.03428883e-02  1.04850657e-01
  -9.99543369e-02 -4.30764295e-02 -4.47783619e-03 -4.61158603e-02
   7.20157921e-02 -4.10063230e-02  1.61685012e-02 -1.01986647e-01
   3.05815972e-03  3.29582244e-02  1.96930215e-01  8.81214887e-02
  -5.97608229e-03 -1.01461031e-01  8.40835366e-03 -1.02055304e-01
  -7.48059824e-02 -7.96016231e-02  1.26740769e-01  1.31777212e-01]
 [ 2.79721320e-01 -2.12732074e-03  2.55432129e-01  1.55887604e-01
   7.87374154e-02 -1.95536077e-01 -5.06625473e-02  5.53176403e-02
  -1.40592739e-01  1.55212246e-02 -1.00208312e-01 -4.10688743e-02
  -1.60351738e-01 -4.83610146e-02 -1.43565059e-01  2.26545438e-01
   3.60556692e-01 -4.55164956e-03  5.45838177e-02 -1.52983874e-01
  -1.22349791e-01  1.65740490e-01 -6.10988736e-02 -2.29810104e-01
  -5.12796305e-02  2.91334484e-02  3.51196341e-02 -7.13353902e-02
   3.51016177e-03 -7.43722841e-02  2.78046757e-01 -5.92183843e-02
   1.95104733e-01  9.21006128e-02 -2.72305240e-03  4.21137549e-02
  -7.16459081e-02  2.65652984e-01 -3.14806253e-01 -2.25027069e-01
   1.77111655e-01  1.54139558e-02 -6.84165955e-02  5.73921502e-02
   1.32141024e-01  1.12090036e-01 -2.24598452e-01  1.68981433e-01
   1.77897140e-02  1.96386784e-01  5.57891950e-02 -1.71286315e-02
  -6.42525479e-02  1.63197726e-01 -7.16893002e-02 -2.49355920e-02
  -1.21217072e-01  4.55602482e-02 -1.06475167e-02 -1.07139692e-01
   4.30845320e-02 -7.73137435e-02  3.68844837e-01 -1.12162806e-01
  -1.53472632e-01  1.98180359e-02 -8.96552205e-02 -3.43685418e-01
  -1.18288733e-01  1.47142544e-01 -1.47826290e-02  1.07978191e-02
   7.09466487e-02 -8.52005184e-02  4.44793813e-02  4.73545715e-02
   8.83741230e-02  1.50713641e-02  2.48626590e-01 -7.58394152e-02
  -8.59993696e-02  7.27162808e-02  1.19235784e-01  2.24427417e-01
  -7.83047602e-02  1.53721320e-02  1.25176655e-02 -2.06843585e-01
   1.24682054e-01  8.51207301e-02 -3.45069580e-02 -1.51808262e-02
  -1.24620944e-01  1.71812043e-01 -3.12159937e-02  7.88167715e-02
   2.63797969e-01 -6.87405840e-02 -6.02845587e-02 -1.70455307e-01
  -3.16863120e-01  7.90203735e-02  9.51550007e-02  1.36292800e-01
   1.76222265e-01 -1.42258018e-01 -2.58306354e-01 -2.08398238e-01
  -1.92483082e-01  4.80065271e-02  1.79122508e-01  2.53010597e-02
   2.68341720e-01 -6.41968613e-03  1.77286118e-02 -1.49952844e-02
   8.70653540e-02  1.29228309e-01  1.07455894e-01 -3.12436987e-02
   4.69860062e-02 -1.52316555e-01  1.72304809e-01 -1.24823280e-01
   2.43850276e-01  7.16552790e-03  1.33423164e-01  1.87355772e-01]
 [ 2.54587770e-01  4.00836172e-04  3.43918145e-01  3.07434559e-01
   8.02442580e-02 -1.42129004e-01  4.92506400e-02  1.82307318e-01
  -1.82978079e-01 -5.47110699e-02 -1.88961774e-01 -3.60905714e-02
  -4.58689108e-02  1.81387644e-02 -1.04330860e-01  2.24384129e-01
   5.10591090e-01  1.00710124e-01 -8.45025182e-02 -2.20284432e-01
  -7.47078508e-02  2.16567159e-01 -4.33427542e-02 -8.44125226e-02
  -7.85359368e-02 -1.33575136e-02  6.60561770e-02 -4.18895967e-02
   1.06067970e-01 -6.68857470e-02  3.46058846e-01  1.86262429e-02
   4.16953743e-01  1.98837653e-01 -1.66668817e-01 -1.13053368e-02
   1.43574014e-01 -1.11335225e-01 -4.69421983e-01 -1.39799818e-01
   7.02606961e-02 -7.37824850e-03  7.20988074e-03 -3.87456752e-02
   1.27141103e-01  1.67554423e-01 -3.29994977e-01  2.66245484e-01
  -1.87324315e-01  2.71518886e-01  1.59440413e-02  2.41243735e-01
   1.62478045e-01  6.61043003e-02  4.11580279e-02  4.49129939e-02
  -2.76318908e-01 -7.60090947e-02  3.31557877e-02 -1.08373955e-01
   6.87078610e-02 -9.52635184e-02  4.80763167e-01 -7.93164372e-02
   1.52456447e-01  9.03211683e-02  3.73550616e-02 -4.57266897e-01
  -1.63153797e-01  2.29603238e-02 -1.92713171e-01 -4.33383044e-03
   2.97976136e-01 -1.82446707e-02  2.47181728e-02  7.49778077e-02
   1.69971824e-01  1.04557186e-01  1.39174178e-01  1.09372966e-01
  -2.53452025e-02  2.92538516e-02  1.44708818e-02  3.26194078e-01
  -1.19340532e-01  8.23070202e-03 -1.32457197e-01 -3.00436050e-01
   2.85517871e-01  2.31085569e-02  2.08034609e-02  1.09052286e-01
  -3.16330642e-01  1.92552999e-01  2.85796016e-01 -1.76768914e-01
   4.49039251e-01  2.80725360e-02 -7.21780807e-02 -6.55189678e-02
  -3.92965734e-01  2.02079173e-02  6.57945499e-02  1.42471671e-01
   2.07843363e-01 -6.75325915e-02 -3.54605839e-02 -2.57609993e-01
  -3.26564789e-01  5.01100644e-02  2.90610909e-01 -4.73761745e-02
   1.13776766e-01  8.03644359e-02  8.96029770e-02 -6.73111528e-02
   3.99286440e-03  2.46014625e-01 -5.58053292e-02  3.04141305e-02
   2.01529369e-01 -8.12088102e-02  4.49270010e-01  5.69574488e-03
   3.42456847e-01 -3.98190804e-02  2.78615296e-01  7.88780823e-02]
 [ 3.71798635e-01  8.09832811e-02  2.57353485e-01  4.42178488e-01
   3.44898887e-02 -1.98088586e-01 -6.42545745e-02  2.02317566e-01
   1.56437352e-01 -1.04555532e-01  6.49597421e-02 -9.57364812e-02
   4.33367379e-02 -6.81899935e-02 -6.65620640e-02  2.04950199e-02
   3.04556131e-01  1.02893144e-01 -1.24325253e-01 -2.92781323e-01
  -1.64830118e-01  2.97858596e-01 -1.58664733e-01 -9.42385793e-02
  -3.62925120e-02  1.02140591e-01  1.30974678e-02 -1.36674851e-01
   8.61942098e-02 -2.02081859e-01  3.64197314e-01  2.09921077e-01
   2.50253975e-01 -9.07488763e-02 -8.23983923e-02 -3.26276384e-02
   1.33192027e-02 -8.27718526e-02 -4.06335115e-01 -1.19730353e-01
   1.75731555e-01  1.91290677e-02  1.45745054e-01 -3.59305032e-02
   3.05237598e-03  1.60858244e-01 -2.53736317e-01  8.18066671e-02
  -1.42843515e-01  5.31395972e-01  7.32128322e-03  1.02530591e-01
   1.43916700e-02 -1.91866010e-01  7.31335059e-02  1.53583452e-01
  -2.75759637e-01  3.74105647e-02 -7.51437694e-02 -3.09839815e-01
  -1.46351025e-01 -2.79617384e-02  6.47211075e-01  1.76171929e-01
   7.95351155e-03  3.48667502e-02 -5.57196178e-02 -4.07303363e-01
  -1.32653579e-01  2.38525361e-01 -2.43011191e-01 -9.03642029e-02
   2.48503894e-01  7.04386383e-02 -1.06742226e-01  5.25144637e-02
   1.76254109e-01  4.12949234e-01  3.99728715e-01  1.60411447e-01
   1.28417704e-02 -4.96797375e-02 -7.16493428e-02  4.42627430e-01
  -1.55300945e-01 -1.00737751e-01  7.38964155e-02 -1.73339903e-01
  -1.08591840e-02  1.77543927e-02 -2.92679127e-02  4.19864923e-01
  -1.86938271e-01  4.41959351e-01  1.07593507e-01  4.02796380e-02
   4.43975925e-01  7.25726411e-02 -1.98706780e-02 -1.96760401e-01
  -5.73206246e-01  1.37405291e-01  1.90998137e-01  2.30312362e-01
   4.91737649e-02 -2.28660181e-01 -6.62428588e-02 -2.80286402e-01
  -3.05328488e-01  1.95970625e-01  2.02847227e-01 -5.23555139e-03
   3.63391399e-01 -1.77804474e-02  2.20265780e-02 -3.51919711e-01
  -3.30570452e-02  8.71386304e-02  3.29795144e-02 -1.96107496e-02
  -2.73416881e-02 -1.70414254e-01  1.90817535e-01 -8.32299665e-02
   1.39676586e-01 -1.42613038e-01  3.93363863e-01  2.85925984e-01]
 [ 2.12583318e-01  6.70414697e-03  3.55282538e-02  2.94287354e-01
   7.00708777e-02 -2.73144811e-01  6.21135533e-02  1.34924591e-01
   8.48843679e-02 -3.06511801e-02  2.41305634e-01 -6.42654151e-02
   2.16580495e-01 -5.59284128e-02  3.48923239e-03  1.44387871e-01
   9.14508030e-02  7.11588115e-02 -5.86118065e-02 -2.57342547e-01
  -1.35107994e-01  5.45274258e-01 -1.78470850e-01  2.84664389e-02
   1.23209823e-02  8.51213932e-02 -2.43379489e-01 -1.67484015e-01
  -1.28847808e-01 -1.36333004e-01  3.92514467e-01  3.56546104e-01
  -1.07729219e-01 -1.99172497e-01 -6.83545470e-02 -1.29825205e-01
  -1.66909397e-01 -2.65747923e-02 -2.50438333e-01 -9.80107300e-03
   1.66981712e-01 -5.21552712e-02  7.55958930e-02 -5.52041717e-02
  -1.45722792e-01  1.11266211e-01 -5.68037033e-02 -2.87146792e-02
  -2.94583172e-01  4.27460223e-01  6.49221167e-02  5.20654730e-02
   2.20923826e-01 -1.01366565e-01  1.00615174e-01  3.43509555e-01
  -4.24819171e-01  4.04347442e-02 -7.46918395e-02 -1.37597665e-01
  -1.97894186e-01  7.95822293e-02  6.56726539e-01  2.01510087e-01
  -3.35375696e-01  3.29283804e-01 -5.80828376e-02 -2.63317078e-01
  -1.09173156e-01  7.40829259e-02 -9.85533148e-02 -1.16574422e-01
   1.64060578e-01 -7.45470524e-02 -2.99623400e-01 -9.80137661e-02
  -7.97179043e-02  3.58086437e-01  1.80268988e-01  2.51057297e-02
  -1.25943422e-01  4.39800397e-02 -1.78454787e-01  3.60485613e-01
  -1.41150460e-01 -7.31494725e-02  1.88028723e-01 -1.47549331e-01
  -2.36837044e-01 -6.28994927e-02  3.42421830e-02  2.99992949e-01
  -2.88175911e-01  3.04524362e-01 -1.14440629e-02  1.01053350e-01
   2.97335178e-01 -9.07607563e-03  1.04733959e-01 -1.55908853e-01
  -5.56152582e-01  1.73847750e-02  4.39927727e-01  4.23268080e-01
   7.01896846e-02 -1.32114053e-01  9.80585515e-02 -3.45314890e-01
  -2.70407766e-01  1.33574277e-01 -7.88516402e-02 -1.33107111e-01
   4.58450526e-01  5.43394685e-02  7.43355369e-03 -2.33167455e-01
  -2.28890166e-01  7.51283318e-02  7.55848959e-02 -7.76408762e-02
  -1.38668299e-01 -2.30297297e-01  3.20819139e-01  1.01040140e-01
  -3.45526606e-01 -2.01521903e-01  4.19005096e-01  2.22029045e-01]
 [-2.59771645e-01  5.87770455e-02 -3.30184102e-01 -1.45340294e-01
   8.14370438e-02 -2.35998809e-01  1.27403393e-01  1.05441734e-01
   3.15279663e-01  4.11745124e-02 -1.92297503e-01 -7.42473034e-03
  -1.58944622e-01 -1.08027272e-02  1.18195511e-01  4.15478706e-01
   2.31629357e-01 -1.86377063e-01  1.43332213e-01  7.64632970e-02
   1.23083159e-01  3.99968982e-01  2.54834648e-02  1.85901403e-01
  -3.89680900e-02 -2.03344479e-01 -1.18127443e-01 -5.66637367e-02
  -3.54725212e-01 -5.39535508e-02  2.99622476e-01 -2.80109167e-01
  -4.58504081e-01  1.64157376e-01 -8.14428777e-02  3.97431552e-02
   1.31385967e-01  1.92339525e-01  1.36051580e-01  3.14449728e-01
  -1.08587123e-01  3.21244121e-01 -2.05777939e-02  4.19977069e-01
  -4.66533482e-01  1.55753016e-01 -1.88638285e-01  2.91476369e-01
  -2.05800340e-01  2.67532676e-01  7.34244958e-02 -8.67173076e-02
   3.54188204e-01  1.33147329e-01 -4.63976748e-02  6.42879531e-02
  -3.71309549e-01 -1.26760855e-01  8.60036723e-03 -1.88939556e-01
  -1.28292292e-01  1.61649272e-01  3.33992392e-01  2.26992816e-02
  -6.38004905e-03  5.34228861e-01  4.87559065e-02  2.14660376e-01
   5.50587960e-02 -1.55079827e-01  1.08927742e-01  3.48350048e-01
  -3.84233981e-01 -7.71152079e-02 -1.85346872e-01  8.13016072e-02
   5.08269593e-02 -2.51160204e-01 -3.09020311e-01 -2.11288229e-01
   2.82224059e-01  2.02845901e-01  4.36313510e-01  1.81785583e-01
   6.90878257e-02  5.07089831e-02 -9.99816135e-02  1.64542660e-01
   3.06098342e-01  2.32905392e-02  3.13371360e-01 -1.84014678e-01
   1.19988687e-01 -1.83694229e-01 -1.85150966e-01  9.55543667e-02
   7.00838864e-02  2.62521822e-02  1.20448358e-02  8.27068165e-02
  -6.01624727e-01 -4.16184254e-02  3.98539454e-01  3.44745964e-01
   5.62419176e-01 -2.19599735e-02  1.10603638e-01 -9.46510956e-02
   2.39933982e-01 -3.88317257e-02 -2.11667612e-01 -1.47502631e-01
   8.04750919e-02 -3.25140506e-01 -4.41695563e-02  2.58733362e-01
   3.31968337e-01 -1.89515203e-01 -1.18511431e-01  1.25497831e-02
   7.12286830e-02 -1.72009006e-01  3.91631484e-01  1.23775654e-01
   1.18642218e-01 -2.22930238e-01  3.23157519e-01  9.04215723e-02]
 [ 2.95016885e-01  5.28795458e-02  8.94644782e-02 -9.06851068e-02
   2.69233063e-03 -6.75770119e-02  7.43042678e-02 -8.58075693e-02
   3.56717736e-01 -2.50058924e-03  3.80392194e-01 -1.14675495e-03
  -2.09468171e-01 -2.69862026e-01  9.45987403e-02  1.01011917e-01
  -2.15033531e-01  3.08870636e-02 -9.85898077e-02 -2.83612221e-01
  -6.60599843e-02  4.98259038e-01  1.68745108e-02 -4.04733926e-01
  -2.08307981e-01 -1.77003086e-01 -2.52291977e-01 -1.78378634e-02
  -5.72166294e-02 -7.91459531e-02  8.67325217e-02 -1.68867171e-01
  -2.91097552e-01 -5.34916043e-01 -4.51744124e-02 -6.41477853e-02
  -4.60543245e-01 -8.32655057e-02  4.07968730e-01  1.34016261e-01
  -1.80549249e-01  4.04152781e-01 -2.34616637e-01  2.92039454e-01
  -4.53146666e-01 -5.39284199e-02 -2.23312005e-01  4.10221189e-01
   2.46186331e-01  1.95285946e-01  5.30616269e-02 -2.29732946e-01
   2.26901382e-01 -4.62685168e-01  1.24930069e-01 -6.08700626e-02
  -3.79411131e-01  1.58449605e-01 -9.10826102e-02 -3.83494198e-01
  -3.38346988e-01  3.93862605e-01  6.59529030e-01 -1.20519385e-01
   3.76766533e-01  6.39736950e-01 -1.67148516e-01  3.38855833e-01
  -2.63130158e-01  1.14804700e-01 -2.17735618e-01  3.01091582e-01
  -3.11677694e-01 -2.33454511e-01 -2.62524933e-01  2.40734696e-01
  -3.27640355e-01 -6.54180944e-02  1.06275700e-01  1.73457146e-01
   5.80282450e-01  2.95637310e-01  2.56919056e-01  3.09001029e-01
  -3.49341750e-01 -1.78400770e-01  2.17502877e-01  4.11298126e-01
  -7.71210566e-02 -9.10321847e-02  3.54226768e-01  2.52293169e-01
  -8.99546742e-02  4.68834601e-02 -5.59661508e-01  4.89305288e-01
   2.49018043e-01  8.22734535e-02 -8.10332745e-02 -5.92110455e-01
  -3.68321121e-01  5.77908158e-01  6.46210909e-01  2.48727158e-01
   4.92641866e-01 -3.64061683e-01 -1.08193010e-01  4.16554064e-01
   3.14179093e-01 -2.35607445e-01 -8.81564766e-02 -1.47963479e-01
  -5.37491590e-03 -3.23672652e-01 -4.84278388e-02 -4.74750459e-01
   3.15550864e-01 -2.64059782e-01  6.32135332e-01  3.78533900e-01
  -5.91938317e-01 -6.49080202e-02  4.25405800e-01 -1.43033177e-01
   7.95305520e-02 -3.07197886e-04  9.11278725e-01  8.64784569e-02]
 [ 4.73606974e-01  1.75678134e-01  3.49384755e-01  1.28548648e-02
   1.11391075e-01 -1.00543099e-02  1.83127269e-01  9.27376375e-02
   1.30639777e-01  7.70830363e-02  4.29636031e-01 -5.15933186e-02
  -2.04256643e-03 -3.52424145e-01  1.89771295e-01 -5.61690293e-02
  -8.02072659e-02  2.19724968e-01 -5.84395379e-02 -1.18679658e-01
  -4.79704402e-02  2.89561957e-01 -1.82604715e-01 -1.73356030e-02
  -1.98349819e-01 -1.63883075e-01 -2.28822410e-01 -8.11054707e-02
   3.21908444e-01 -1.57038250e-03  6.82396768e-03  3.38756323e-01
   2.08029523e-01 -5.20946741e-01 -3.42144594e-02 -4.06572111e-02
  -1.00914471e-01 -2.66341090e-01  8.36910382e-02 -2.27659866e-01
  -7.89095461e-02  2.33644977e-01 -2.74683654e-01 -1.71909392e-01
  -1.84150711e-01  2.08881885e-01 -2.89137274e-01  2.86320537e-01
   2.32002765e-01  1.14977561e-01 -7.84574524e-02  6.41379952e-02
   2.81007588e-01 -9.62729454e-02  1.91037238e-01 -1.17061161e-01
  -1.59060746e-01  1.99846610e-01 -7.16730356e-02 -3.10364455e-01
  -1.14460871e-01  6.34754896e-02  5.13773561e-01 -8.91130418e-02
   4.33060616e-01  1.58977762e-01 -8.76332596e-02 -3.19109997e-03
  -2.87111700e-01 -2.05045298e-01 -1.39017060e-01  5.43031320e-02
   1.35256425e-01 -3.10097933e-01 -9.10927653e-02  2.22179428e-01
  -1.47251770e-01  3.57161939e-01  2.24828154e-01  1.79404199e-01
   3.28241527e-01  8.15140549e-03  1.38730705e-01  3.15326184e-01
  -1.91793025e-01 -4.71487492e-01 -1.84133440e-01  2.23556578e-01
  -2.53721237e-01 -2.12009475e-01  3.08507413e-01  4.79009122e-01
  -4.43554461e-01  2.68243968e-01 -1.42042518e-01 -5.53984707e-03
   5.89377642e-01  2.23010093e-01  1.18334331e-01 -2.73360372e-01
  -1.42276451e-01  1.02298789e-01  2.89309204e-01  4.35001671e-01
   4.21363190e-02 -3.24112713e-01  1.38723925e-01 -3.88441496e-02
  -1.85509622e-01 -2.80692577e-01  2.12264024e-02  3.20305163e-03
   4.17973697e-01  9.83194914e-03 -6.37750402e-02 -1.27409354e-01
   1.33791238e-01  1.08125679e-01  5.89710362e-02  3.20000410e-01
  -2.95637220e-01 -2.11638272e-01  2.37110958e-01  1.29535556e-01
   1.16682239e-01 -2.76733674e-02  6.59114182e-01  7.78136477e-02]
 [ 5.39614379e-01  4.46750410e-02  3.81656051e-01  1.21039636e-01
   8.41147825e-02 -3.90202589e-02  2.10085176e-02  1.68378696e-01
   1.23229320e-03 -9.69978943e-02  3.83378923e-01 -1.67290512e-02
   5.57216480e-02 -3.96130770e-01 -4.73862886e-02 -2.65487432e-01
  -5.07569239e-02  1.36666194e-01  6.70628846e-02 -3.54329869e-02
  -1.01236418e-01  2.21366197e-01 -2.63435602e-01 -5.84072024e-02
  -1.34618267e-01 -1.08315218e-02 -2.38091543e-01 -8.01339298e-02
   2.81806648e-01  5.11816628e-02  2.61171281e-01  3.42555344e-01
   3.43443900e-01 -3.25381011e-01 -8.39188844e-02 -7.92484507e-02
  -1.46551028e-01 -2.85272628e-01 -2.06730887e-01 -4.13434595e-01
  -1.46409711e-02  5.76046109e-02 -2.69023389e-01 -4.21005398e-01
  -7.54278735e-04  1.91880479e-01 -2.32681930e-01  2.49688387e-01
   1.51429445e-01 -6.41990602e-02  4.04792204e-02  2.46105865e-01
   1.52884871e-01 -1.65068265e-02  1.00957975e-01  1.10983178e-01
  -1.74716547e-01  1.84684247e-01  6.00049160e-02 -3.13776642e-01
   1.84829440e-02  7.01052845e-02  4.83121008e-01  1.77802127e-02
   3.72352868e-01  2.31256843e-01 -1.92163326e-02 -2.40199536e-01
  -3.18274289e-01 -3.45985740e-02 -1.86877340e-01 -1.47597402e-01
   3.92300904e-01 -2.88803399e-01 -9.74469632e-02  5.00499681e-02
  -1.84983149e-01  4.11960691e-01  4.19252068e-01  1.15815654e-01
   2.79930919e-01 -1.23245232e-01 -3.91085111e-02  2.68024445e-01
  -2.65466630e-01 -3.85238409e-01 -7.39272907e-02 -1.49631798e-01
  -2.42062867e-01 -2.27766901e-01 -9.50014666e-02  4.77658212e-01
  -4.55750763e-01  3.13989669e-01  1.98499620e-01  1.46311596e-01
   6.58330560e-01  1.09793156e-01  9.06521231e-02 -3.55003566e-01
  -2.09780380e-01  1.13916412e-01  2.07962215e-01  3.49105716e-01
   4.88758795e-02 -1.46026313e-01  2.16711551e-01 -1.78918615e-01
  -5.49994349e-01 -2.29992196e-01  1.12496756e-01  4.48653437e-02
   5.25228262e-01  1.99389100e-01 -1.44584998e-01 -2.23989025e-01
  -2.45305717e-01  3.14739257e-01  7.45614767e-02  2.57380247e-01
  -2.49159321e-01 -1.30675003e-01  1.94045126e-01 -1.45998914e-02
   1.62410900e-01  6.84288656e-03  5.33266664e-01  1.60461038e-01]
 [ 4.12159622e-01 -2.78444380e-01 -4.22722511e-02  4.50494617e-01
   1.52236640e-01 -9.40405801e-02 -8.01637769e-02  1.19350590e-01
  -8.20110738e-02 -6.74207360e-02  3.32755148e-01 -1.37551069e-01
   1.83993250e-01 -2.12063611e-01 -2.68960476e-01  1.36810601e-01
   1.89365372e-01  1.12573028e-01 -2.33502507e-01 -2.98252720e-02
  -9.66230035e-02  2.39947453e-01 -1.57377735e-01 -1.17868729e-01
  -5.35941496e-02 -7.99378660e-03 -6.40737712e-02 -5.85477538e-02
  -1.17760062e-01 -1.23772614e-01  1.55862480e-01  2.22352967e-01
  -8.72178003e-03 -3.23406994e-01 -1.54609501e-01 -9.37358066e-02
  -1.96165577e-01  2.61677265e-01 -3.27853024e-01 -1.85191974e-01
   5.00019252e-01 -1.90355908e-02 -2.32713476e-01  1.72680840e-01
  -4.99009192e-02  2.26826340e-01  1.76648155e-01  2.21207757e-02
  -1.41180344e-02  3.84251252e-02  7.91185573e-02  6.35796487e-02
  -1.92648172e-01  1.29539892e-01 -9.44287404e-02  1.63904250e-01
  -1.82576567e-01  2.97580566e-02  5.92944473e-02 -1.84998289e-01
  -1.51036575e-01 -7.48678818e-02  4.46086287e-01  3.63528654e-02
  -1.58860415e-01  4.54212159e-01 -8.62972364e-02 -2.06556097e-01
  -1.94237038e-01  4.19826597e-01  1.31094843e-01 -7.72609189e-02
   2.74504542e-01 -1.91327602e-01 -5.27770184e-02  1.02001846e-01
  -1.66090190e-01  3.65653783e-01  1.90053478e-01  3.98780927e-02
   1.53957561e-01 -1.91553663e-02 -2.53114700e-01  1.87541828e-01
  -3.17355633e-01  1.95413716e-02  2.74388552e-01 -3.07744201e-02
  -1.83340609e-01 -9.14839879e-02 -5.62812649e-02  3.93814981e-01
   4.40718979e-02  4.35707480e-01 -4.52566110e-02  4.41761225e-01
   3.49263132e-01 -2.30913639e-01  2.67046075e-02 -4.11322713e-01
  -1.28124177e-01  2.26615682e-01  3.63624871e-01  1.58726335e-01
   4.00861025e-01 -3.48421782e-01 -3.20171237e-01 -1.78882815e-02
  -3.20393711e-01  1.25224158e-01 -3.26555483e-02 -6.21901751e-02
   3.78715277e-01  3.00897304e-02 -4.62302640e-02 -2.40604579e-01
   6.60424978e-02  3.19460593e-02  2.55389571e-01  8.62699002e-02
  -3.75015259e-01 -1.44283161e-01  1.81704536e-01 -3.08593869e-01
   2.63638590e-02  3.51960622e-02  3.42800319e-01  3.68552148e-01]
 [ 2.99119294e-01 -2.46911228e-01  1.69175453e-02  1.34248063e-01
   1.35081317e-02 -6.35527521e-02  5.95641062e-02  1.06430545e-01
  -4.10117060e-02 -1.01619698e-01  2.67884284e-01 -9.11819041e-02
   1.58307791e-01  2.35669240e-02 -9.53622833e-02  1.34200573e-01
   1.43051147e-01  1.23916678e-01 -2.42168516e-01 -7.60427266e-02
  -1.00923650e-01  3.76023911e-02  5.16027175e-02 -1.37223691e-01
   4.27648239e-02  6.28697872e-02 -2.41664737e-01 -5.09711029e-03
  -1.76698104e-01 -4.49436083e-02 -4.78020050e-02  2.95303255e-01
  -3.61186266e-02 -3.40039313e-01 -5.70905767e-02 -5.22578135e-02
  -3.22171330e-01  3.93557876e-01  1.52016610e-01 -2.66515940e-01
