dense/kernel:0
(784, 128)
[[-2.74410844e-03  8.63062590e-03  8.02704468e-02 -6.00501001e-02
  -1.88880861e-02  3.10646370e-02 -4.67843562e-02  6.59308955e-02
  -1.62786171e-02  7.03098252e-02 -6.37090206e-02  2.65805721e-02
   6.59186915e-02 -1.33178234e-02  5.03100380e-02  3.73583883e-02
  -7.10230991e-02 -3.94846126e-02 -5.78598455e-02  3.11496332e-02
   6.90739378e-02 -1.98674537e-02 -6.09648228e-02  2.73028761e-02
  -4.25981730e-02  8.07989910e-02  2.31814161e-02 -4.93011959e-02
   9.55484062e-03  5.20403311e-02 -6.30318373e-02 -2.77826376e-02
  -2.21773572e-02 -7.95492381e-02 -6.43127635e-02 -5.81001490e-03
   5.31548932e-02  6.10635653e-02 -4.98900265e-02 -4.18144912e-02
  -1.10292882e-02 -7.18398914e-02  1.16870627e-02  2.26526707e-02
  -7.76175186e-02 -5.65073267e-02 -2.97102816e-02 -2.54316814e-02
   4.45937738e-02 -5.24982810e-02  3.04500684e-02  7.90625066e-03
   4.35665771e-02 -4.06780168e-02  4.67584953e-02  1.04868487e-02
  -6.87061772e-02  2.65571922e-02 -1.84345245e-02  5.00177220e-02
   3.28961909e-02 -7.36000612e-02 -7.84380212e-02  7.63748586e-03
   7.65806362e-02 -3.61173674e-02  5.24128303e-02 -6.24321401e-03
   8.05929825e-02 -8.65709782e-03 -6.20527342e-02  1.96616948e-02
  -4.11736593e-02  2.73374692e-02  2.71937698e-02 -6.88982233e-02
   4.54626232e-03  5.35560325e-02 -6.78731948e-02  4.59992066e-02
  -6.07956126e-02 -3.62382717e-02  7.50589743e-02 -1.38606131e-02
  -2.60050632e-02 -1.53778493e-03 -4.67607044e-02 -6.75464571e-02
   7.07544908e-02 -6.17453158e-02 -5.74150831e-02  1.46119446e-02
   5.38100973e-02 -4.39822562e-02 -7.50155896e-02 -2.18896009e-02
   4.11558673e-02 -5.97628504e-02  7.81968907e-02  1.74263045e-02
  -1.32754147e-02  7.12590441e-02  7.96853378e-02 -3.43043059e-02
  -6.94921240e-02 -3.88434529e-03 -6.64601475e-02 -8.07311758e-02
  -4.05185930e-02  7.20579848e-02  6.97876886e-02 -7.14572072e-02
   1.89441666e-02 -6.43103644e-02 -7.56831616e-02  4.18921560e-03
   5.80451712e-02 -7.25788474e-02 -4.84192558e-02 -1.79841965e-02
   6.79449961e-02 -4.88951802e-04  3.63328531e-02 -7.29919896e-02
   6.65660128e-02  4.42435965e-02  2.89287642e-02 -8.03399831e-02]
 [-4.53001820e-02  1.15206987e-02 -4.12193723e-02 -2.86495946e-02
   4.58206311e-02 -7.88246915e-02 -2.62742713e-02  7.22261146e-02
  -2.30509453e-02  1.67972296e-02 -3.31213251e-02  7.35286623e-03
  -2.01565623e-02  5.84933087e-02 -2.93895565e-02  4.69991788e-02
  -3.60243134e-02 -2.61259265e-02  3.30445915e-02  3.31168622e-03
  -2.19392255e-02  1.35130063e-02  6.34581819e-02  7.98263624e-02
  -7.28744715e-02  3.69054079e-02  2.32210085e-02  1.20971873e-02
  -5.07580861e-02 -7.64909983e-02 -1.75390616e-02 -5.02928272e-02
  -6.72168285e-03  6.60088435e-02  1.08592212e-03 -2.30862200e-03
   2.47622505e-02  2.63072848e-02  4.89245877e-02 -6.40443489e-02
   7.91039690e-02  5.73748350e-03 -2.00924166e-02  5.07806242e-03
  -2.02626511e-02  6.05774298e-02 -6.39783442e-02 -1.40725598e-02
   4.52878997e-02  2.30177566e-02 -5.07019274e-02  6.75316826e-02
   3.06884125e-02 -4.00827453e-02 -4.11353484e-02 -8.01028162e-02
   7.71209076e-02  2.09385827e-02  3.53948697e-02  3.40315029e-02
   9.74243879e-03  4.42916676e-02 -4.49420363e-02  4.48075756e-02
   3.94210964e-03  5.86997792e-02  3.60534936e-02  3.87179852e-02
  -4.02237028e-02  6.68727830e-02 -3.11670154e-02 -4.67300415e-03
  -3.12756598e-02 -1.98759623e-02 -2.15358660e-02 -2.31012627e-02
  -2.83009820e-02 -7.98963234e-02  3.36762965e-02  3.43894884e-02
   4.07363474e-03 -7.34656230e-02  5.81083074e-02 -7.06655085e-02
  -7.36698732e-02 -6.43587708e-02  5.13993874e-02  4.66047600e-02
  -4.78655808e-02  6.58571944e-02 -7.61287957e-02 -7.54895806e-03
  -3.60469595e-02  6.34027943e-02 -6.71658814e-02 -3.92187871e-02
  -9.65044647e-03 -5.37181422e-02 -2.99806297e-02 -7.66944960e-02
  -6.72310144e-02  5.62187061e-02 -6.57182559e-02 -6.95432350e-02
   3.29552665e-02  4.84051928e-02 -2.24690363e-02  4.09044698e-02
   6.84821531e-02 -5.51846027e-02  2.94912010e-02 -6.92566037e-02
  -4.05652374e-02  4.25780043e-02 -5.49927093e-02  2.64175907e-02
  -1.07487887e-02  9.91661847e-03 -6.52451441e-02 -8.04172754e-02
  -6.76890761e-02  7.77209923e-02 -6.11523092e-02  7.22485110e-02
  -3.26572619e-02  7.84698129e-03 -7.08670914e-02  1.33921206e-02]
 [ 1.06936172e-02 -6.31035864e-03  6.91832826e-02  8.03106204e-02
   7.61095509e-02  1.69645995e-02 -5.82416803e-02 -1.89997815e-02
   6.01242855e-02  1.49331987e-04 -1.03033483e-02 -7.59759247e-02
  -4.32237871e-02  5.92288449e-02  3.51625755e-02 -1.59407333e-02
  -1.27419829e-02 -5.45966625e-03  8.96411389e-03 -2.43454129e-02
   2.50364095e-02  3.67550701e-02  3.83955017e-02  6.34399056e-03
  -4.67214882e-02 -9.14879143e-04  2.30061337e-02 -6.04195893e-03
  -2.06337906e-02  7.03436807e-02  2.80549824e-02  5.97310141e-02
   6.93560317e-02 -4.28163484e-02  7.96470791e-03 -4.59859930e-02
   7.47922882e-02  8.04719999e-02 -1.64732337e-05  4.49411198e-02
  -1.37143955e-02  4.66992930e-02 -5.38853779e-02 -5.07615656e-02
  -3.42808887e-02  2.31833011e-03  5.70396706e-02  2.84465030e-02
  -7.65297711e-02 -1.17118657e-03 -4.85077836e-02  3.26285064e-02
   8.03855285e-02 -1.41205937e-02 -7.67112225e-02  6.96652606e-02
  -7.80433416e-02  4.77375835e-03 -2.01268978e-02  6.53620735e-02
   2.45911852e-02 -1.40099376e-02 -3.64967883e-02  6.37492463e-02
   2.77653709e-02 -3.91252078e-02  2.29044929e-02 -3.99764031e-02
  -7.21019059e-02  8.68380815e-03  4.78122383e-03  7.23941699e-02
   6.47082552e-02 -7.46646747e-02 -2.35777572e-02 -6.68531582e-02
  -4.82146181e-02  4.90983203e-02  6.86678216e-02 -2.11120471e-02
   7.84096047e-02 -1.47183612e-02  3.25877592e-02  1.75992101e-02
   7.09180459e-02  7.21978769e-02  1.99008137e-02 -4.27337736e-03
   7.41761699e-02  6.93586245e-02 -4.47751842e-02  5.15336171e-02
  -3.63300703e-02 -5.30385971e-03 -3.11041474e-02 -5.32000512e-03
  -7.82149881e-02  2.77057290e-04 -2.01486908e-02 -7.18771517e-02
  -1.77413821e-02 -7.63311312e-02 -6.96130097e-03  1.20612606e-02
   3.78705636e-02  7.43699148e-02  5.75678721e-02 -6.37003183e-02
   7.22497627e-02 -4.79409397e-02 -3.83659117e-02 -6.04623556e-02
   3.18095684e-02  4.96118739e-02 -4.00758423e-02  2.85811946e-02
  -7.95291066e-02  2.75498480e-02  3.49798352e-02  3.93117890e-02
  -3.40718813e-02  1.30065754e-02  1.51564926e-02 -3.06657851e-02
   8.07996467e-02  4.76364568e-02 -7.29373172e-02  7.32235685e-02]
 [ 1.86716095e-02  4.51967791e-02 -1.56860501e-02  9.01959836e-04
  -3.92332338e-02  3.84861752e-02 -6.33385032e-02 -5.36195934e-04
  -1.08274147e-02 -2.05405243e-02  4.90030721e-02 -8.05734694e-02
   3.16249877e-02  3.98920700e-02  5.00340983e-02 -2.77689286e-02
   7.30925277e-02  3.13673988e-02  1.67245343e-02  3.72255519e-02
  -7.06530586e-02 -1.57295763e-02 -1.07848346e-02  5.82901165e-02
   5.80013469e-02 -5.81281856e-02 -2.65518352e-02  1.62000582e-02
   7.13857487e-02 -1.72282755e-02 -6.61946535e-02 -4.45899218e-02
   7.34123960e-02  6.64971545e-02  5.77419996e-05 -6.47220016e-02
  -7.64835626e-03 -5.74549586e-02 -1.14104897e-02 -5.71445413e-02
   2.23186389e-02  3.76467183e-02 -3.58566903e-02 -8.00684094e-02
  -3.53222564e-02 -5.06191775e-02 -5.50115630e-02 -4.52114753e-02
   3.35870683e-02  2.06457600e-02 -4.55416590e-02  4.51789722e-02
  -6.91379234e-02  6.08483925e-02  6.84266016e-02 -5.44285923e-02
   8.02850723e-03 -6.47379160e-02 -4.47379202e-02  2.90636495e-02
  -1.98420435e-02 -4.50710990e-02  2.40753740e-02 -3.73807028e-02
  -6.32022023e-02 -5.89147285e-02  7.56680965e-03  3.75153124e-02
   2.18368098e-02  3.06449383e-02  5.94741032e-02  3.26445550e-02
  -2.97589153e-02  3.98610681e-02  7.88945183e-02  5.84720820e-03
  -3.27969640e-02  7.15770572e-03 -1.42445117e-02 -1.16559863e-02
   7.79988244e-02 -1.57847703e-02  7.43088648e-02  2.26414353e-02
   4.22760099e-03  7.40673319e-02 -7.22511783e-02 -7.39349425e-02
  -5.90775385e-02  1.18462741e-02 -2.61162184e-02 -6.79479241e-02
   2.65139341e-03  5.57445213e-02 -9.20476019e-03 -1.21066272e-02
  -6.41818047e-02 -4.93298545e-02  3.78119871e-02  5.08579090e-02
   6.38942644e-02  4.51011732e-02  1.98584199e-02 -3.64776030e-02
  -5.56159467e-02 -2.55215093e-02  6.21460006e-02  6.73940703e-02
  -5.70667237e-02  4.47862223e-02 -4.30274270e-02  2.09507644e-02
   6.39647916e-02 -4.82419133e-03  1.68734789e-02 -6.20978549e-02
  -7.03781843e-02  5.11935726e-02  7.30258152e-02 -4.64869514e-02
  -6.78274259e-02 -4.25824337e-02 -7.06912875e-02 -2.86301412e-02
   3.26256454e-02  4.45913300e-02  1.84097886e-02 -5.38942367e-02]
 [ 3.28312144e-02  8.03791806e-02 -3.10044400e-02 -1.96435750e-02
  -4.62860614e-03  3.58814001e-02 -1.33436769e-02 -7.78352097e-02
   6.52074739e-02 -5.87800369e-02 -2.42119171e-02  4.10873443e-03
  -7.98765570e-02 -1.74464136e-02  6.10290244e-02  1.84975117e-02
   7.84316659e-03 -7.01268241e-02  1.18940398e-02  2.77982876e-02
   7.37286583e-02 -4.26835939e-02 -7.88630769e-02 -2.32089199e-02
   3.48337144e-02  5.17160445e-03  1.56525373e-02  6.60987571e-02
  -5.40794805e-02  5.70696220e-02 -6.33389279e-02 -7.30758011e-02
   3.38119566e-02 -9.54194367e-03 -8.40692222e-03 -2.92710513e-02
  -3.84835638e-02 -4.02856059e-02  6.62701949e-02  7.11997598e-03
  -6.86300248e-02  3.00630927e-04 -6.75387979e-02  3.03387567e-02
   6.55222163e-02 -1.20024160e-02  3.83354351e-02 -7.99861476e-02
  -1.04599521e-02  4.27158177e-03 -4.10649776e-02  6.70934543e-02
   7.81656429e-02  7.70332143e-02 -5.45338094e-02 -4.98145819e-05
  -8.00605044e-02 -7.18387067e-02  6.92383125e-02  4.78406474e-02
  -2.33308859e-02  1.88143253e-02  2.61810571e-02  4.23707813e-03
   2.31035799e-02 -7.60365874e-02 -6.71214014e-02 -7.09780380e-02
  -1.11482814e-02  3.06473151e-02 -6.79607615e-02 -7.81924650e-02
  -1.59130991e-03 -7.69626424e-02  7.63026103e-02  1.18576437e-02
   5.80868647e-02  2.78727561e-02 -8.08790550e-02  3.26795578e-02
   4.85793725e-02  3.77853215e-03  1.30738318e-02  5.14805987e-02
  -5.86725548e-02  1.54912174e-02 -6.55692145e-02 -4.97326739e-02
   7.32775405e-02 -4.76113781e-02 -4.67944145e-03 -5.97216785e-02
   2.12554634e-03  8.05801675e-02  7.60053173e-02 -3.38650569e-02
  -2.97392122e-02  3.55955660e-02  6.54008165e-02  2.46626586e-02
  -5.46322837e-02 -8.36029649e-05 -2.69156061e-02 -1.42162219e-02
   6.48447648e-02  3.72789428e-02 -6.98683113e-02 -4.98858690e-02
  -6.40318543e-03  5.09764999e-03  5.76689169e-02 -7.20023289e-02
   2.95869634e-02  7.34911487e-02  5.80061749e-02  7.27859363e-02
  -4.73922566e-02  9.88040119e-03  3.90036330e-02 -3.95965986e-02
   4.78520766e-02 -6.37927800e-02 -9.07256454e-03 -6.55593276e-02
   1.45546794e-02 -3.38004269e-02  4.26446646e-02  3.99973467e-02]
 [-8.21433961e-04 -1.53173432e-02 -7.36386776e-02  1.79043636e-02
  -7.69260526e-03 -7.52084851e-02  3.55288684e-02  8.00008252e-02
  -4.59700599e-02 -2.93035060e-03  4.22108099e-02  7.86311254e-02
  -7.85790384e-04  4.71993610e-02  1.38096511e-03 -6.06971383e-02
  -6.76830858e-03 -7.24336877e-02 -5.87379932e-03 -1.87689997e-02
  -3.14857103e-02 -3.03404778e-02  4.91377041e-02  3.44206393e-03
   5.51353171e-02  6.12822399e-02 -7.33395368e-02 -1.83977783e-02
  -1.91890858e-02  7.58164749e-02  6.27747551e-02 -3.03067267e-04
   6.76207319e-02  6.45199791e-02 -1.60618275e-02  4.42271754e-02
   5.91473654e-02  1.46794170e-02 -5.27363196e-02  1.77330822e-02
   5.83241507e-02  5.15203401e-02 -7.56189004e-02  4.85556498e-02
  -5.73140383e-02  6.48026839e-02 -8.55371356e-03  7.88216516e-02
  -1.26382932e-02  5.95504120e-02  4.13175747e-02 -6.18444383e-03
  -3.93577330e-02  7.09915385e-02 -4.83252890e-02 -5.55319563e-02
   6.47371784e-02  1.57910585e-03  6.59067109e-02  2.48338953e-02
  -1.22548938e-02 -7.00056106e-02  7.32955560e-02  3.52745652e-02
   9.59073007e-03 -6.55566007e-02  7.27223679e-02  5.92357889e-02
   6.80091307e-02  3.17774490e-02 -2.20108330e-02 -4.17983420e-02
  -1.41482130e-02  1.67451724e-02 -6.97945952e-02 -1.49661303e-03
   6.63034096e-02  1.93649083e-02 -5.24896160e-02 -2.87200809e-02
  -6.38681948e-02 -1.88096873e-02 -7.05917925e-03  3.47531512e-02
  -1.17939040e-02  5.06851450e-02  1.06304213e-02 -6.50055781e-02
   1.17257982e-03  3.90087143e-02  5.11275306e-02 -3.39625403e-02
  -3.76898237e-02  2.16917694e-02 -2.89651193e-02  1.44900754e-02
   1.58771500e-02 -6.56790361e-02 -6.11239746e-02 -7.65155628e-02
  -6.43015876e-02  4.25234288e-02 -9.53490287e-03  2.77813599e-02
  -4.26137224e-02 -8.10438916e-02 -2.54262686e-02 -2.80307122e-02
  -4.78801206e-02 -2.59291194e-02 -4.53752130e-02 -3.17831524e-02
  -3.29052955e-02  1.62554458e-02 -7.41917565e-02 -7.77993947e-02
   2.77812630e-02 -4.54410985e-02  5.43760285e-02 -2.48118713e-02
  -3.23732048e-02  5.39937094e-02 -2.52251886e-02 -7.66181499e-02
   4.10780907e-02  6.63760230e-02  1.08935758e-02  4.35506254e-02]
 [ 1.54605806e-02  4.77555767e-02  7.08848462e-02  6.58117235e-03
  -2.72202417e-02 -4.03394625e-02  2.48684362e-02 -2.85812914e-02
   1.58120543e-02 -6.62020966e-02  6.50575086e-02 -3.23270634e-02
   6.43044934e-02 -7.23305941e-02  4.59970906e-02 -4.96548377e-02
  -7.06388801e-02 -2.02594995e-02  7.14615360e-02  6.36848286e-02
  -7.22155124e-02 -7.51224682e-02  8.06684271e-02  1.33957192e-02
  -4.24101874e-02 -2.85487659e-02 -1.37870461e-02  6.47952482e-02
  -5.31301796e-02  3.36685032e-02 -4.38951962e-02  6.31926879e-02
   1.28546134e-02 -3.04515362e-02 -7.54402354e-02  2.73609906e-03
  -5.65436222e-02 -2.19671279e-02  7.86353424e-02 -2.69632377e-02
  -2.14682780e-02 -5.89582622e-02  3.38824987e-02  4.01425213e-02
  -3.85912806e-02 -2.46914327e-02  7.88765028e-02 -7.10787699e-02
  -7.99207091e-02 -2.64467485e-02 -5.73623925e-03  1.98320076e-02
   1.48782283e-02  1.18030906e-02  6.15145490e-02  5.40822372e-02
  -4.79135402e-02 -1.19917095e-03  7.37943724e-02  6.47721663e-02
  -3.97190712e-02 -7.86292404e-02 -7.73478597e-02 -3.07594016e-02
  -2.64842473e-02  9.60616767e-03  5.94779924e-02  3.07898819e-02
  -5.81982844e-02 -5.30763231e-02 -7.44760484e-02 -1.92820244e-02
  -4.82525192e-02  4.44902852e-02  5.72151467e-02  3.39179859e-02
   2.27157548e-02 -4.24699821e-02  5.62494919e-02 -6.72988519e-02
   6.83049783e-02 -1.75821111e-02  2.17465162e-02  2.00437829e-02
   7.37374350e-02 -6.41051531e-02  9.38039273e-03 -3.50540914e-02
  -2.73406431e-02 -2.97556482e-02  7.76365176e-02  7.30317011e-02
   5.63940480e-02  8.62716138e-03 -1.71740353e-02  3.37632224e-02
  -5.66493832e-02 -5.95390871e-02  5.55138215e-02  4.95481864e-02
  -5.95996529e-03 -9.01013613e-03 -5.52798249e-02 -5.55608310e-02
   2.52412781e-02  4.54651192e-02 -2.21262835e-02 -5.80556840e-02
   2.87169144e-02 -1.56505629e-02 -5.61586767e-02  1.33179799e-02
  -5.41619956e-02 -7.65239373e-02 -2.26324424e-02  3.45995277e-03
  -5.56824878e-02  1.22200623e-02 -5.91825657e-02 -2.85868421e-02
   6.57461658e-02 -3.88465263e-02  4.06347960e-03  7.58740976e-02
  -7.44229853e-02  4.58836555e-04  7.85588101e-02  3.32235470e-02]
 [-4.88873757e-02 -8.08015838e-02 -6.83689937e-02 -2.47123763e-02
   2.08598375e-02  5.17270640e-02  3.84161100e-02 -1.07382685e-02
   1.08711049e-02 -6.03331365e-02 -2.53644027e-02  5.73909059e-02
  -2.16734968e-02  1.56875551e-02  2.33797356e-02  2.20636651e-02
   1.33521259e-02 -5.61460480e-02  7.90954903e-02  3.80992740e-02
   2.62483805e-02  4.27316502e-02 -5.65407202e-02  1.99386552e-02
  -6.28741682e-02  2.70026103e-02  5.39997220e-03  6.51904717e-02
   4.82081547e-02  7.10055009e-02 -3.13789397e-03 -8.02771300e-02
   3.02082598e-02  5.61527833e-02 -7.82279074e-02  5.81378564e-02
  -3.72672081e-03 -2.14084052e-02 -4.10592519e-02  6.08302653e-04
  -6.68657124e-02 -6.16238900e-02  5.09649441e-02 -7.67138153e-02
  -5.23119383e-02 -3.60416584e-02  3.41437012e-03 -5.50111383e-02
  -2.66476348e-02 -7.45466724e-02 -6.15816563e-03 -5.03535122e-02
   4.45675328e-02 -2.30206400e-02  3.89222950e-02 -5.85156456e-02
   2.28156522e-02 -2.08324753e-02  3.87909487e-02  3.84272709e-02
  -3.15492190e-02 -5.42175323e-02 -5.93229234e-02 -3.37688662e-02
   7.28402957e-02 -2.40421295e-03 -6.35006353e-02  7.96236470e-02
  -3.02828103e-02 -7.47739151e-02  6.07267693e-02  7.49270543e-02
  -1.98076218e-02 -4.83243801e-02 -3.05624418e-02 -2.38159299e-02
   7.78262392e-02 -4.88994829e-02 -6.84946552e-02 -7.72422776e-02
  -7.50990286e-02 -6.52879775e-02  3.92799526e-02  1.42329484e-02
  -4.89158444e-02 -5.91302365e-02 -2.08160952e-02  3.39545310e-04
   2.99381614e-02 -7.01022819e-02 -2.04596706e-02 -5.60476333e-02
  -6.03191331e-02 -2.89672464e-02 -6.26134872e-02 -2.08486989e-02
  -6.40780330e-02  6.15464076e-02 -5.49398772e-02 -4.03754413e-03
   4.85629216e-02 -1.53683424e-02 -8.02750587e-02  2.59948745e-02
   6.19555935e-02 -4.36850078e-02 -7.38555193e-02  3.43190879e-03
   4.37708274e-02  6.80811778e-02 -3.85322385e-02  2.34269202e-02
   5.37668988e-02  6.97568059e-04 -2.57823840e-02 -5.78486696e-02
  -7.82489702e-02  6.09542802e-02  4.52392027e-02 -3.23841311e-02
  -2.69772969e-02 -2.20638402e-02 -1.92990154e-03 -1.68398023e-04
   5.65572158e-02 -3.58049981e-02 -6.25135079e-02  4.20718640e-02]
 [-5.01492210e-02 -7.46516958e-02 -6.15224801e-02 -6.85431734e-02
   6.40905127e-02  7.61321858e-02  1.34041160e-03  6.64999261e-02
   6.52047321e-02  7.94152394e-02  2.40779817e-02 -5.37052043e-02
   3.25599313e-03  5.15307263e-02  9.81184840e-03 -4.94743325e-02
   5.02265021e-02 -3.19559798e-02 -7.26687461e-02  4.53044400e-02
   7.82254413e-02 -4.16479670e-02  3.45245153e-02  5.16021773e-02
  -4.55515832e-03 -3.78336422e-02  4.56425473e-02  1.39542669e-02
  -4.11952771e-02  7.21338466e-02 -7.41608292e-02  6.31511211e-04
   4.15438712e-02 -5.78438900e-02 -5.68055399e-02 -3.04423720e-02
   4.46581915e-02 -7.11972564e-02 -7.67536759e-02 -3.21207792e-02
   1.89609304e-02  2.18647718e-02 -3.57312784e-02 -2.57988200e-02
   1.62576139e-02  6.09810725e-02  3.69515643e-02  4.40239683e-02
  -2.12441087e-02 -6.51132911e-02 -5.70301563e-02  9.74714011e-03
   7.92829618e-02  1.81574225e-02  5.29170111e-02  5.56702986e-02
  -2.51455531e-02  6.59657195e-02 -7.39674494e-02 -1.62279829e-02
   1.32407025e-02 -6.61608875e-02 -4.98761050e-02 -2.35719569e-02
   2.02789530e-02  3.55139598e-02 -3.44243571e-02  1.76521391e-02
  -6.55774102e-02  7.78899714e-02  2.32868940e-02 -5.73154315e-02
   1.80085599e-02  4.36123684e-02 -7.95038715e-02 -7.76367933e-02
  -5.44991940e-02 -1.55365616e-02 -1.35896802e-02 -5.21276072e-02
  -2.11320631e-02  6.22794554e-02 -1.96891353e-02 -7.66313374e-02
   5.41327372e-02 -6.35870546e-02 -3.70433442e-02 -5.19249812e-02
  -1.07776597e-02 -1.04923025e-02  2.75815576e-02 -7.71853849e-02
   7.78468326e-02  1.77452713e-02 -6.26533255e-02 -3.75955887e-02
   2.52022147e-02 -2.34867148e-02 -5.99356182e-02 -5.21061197e-02
   1.44480318e-02  4.32251245e-02  3.65650877e-02 -1.99685171e-02
   5.75022474e-02 -3.18031311e-02 -1.13642290e-02  3.49588469e-02
  -2.31427625e-02 -4.66422401e-02  7.94897899e-02  3.41153890e-02
  -3.51563320e-02  1.20534077e-02 -5.98120838e-02  3.39301676e-02
   5.60244694e-02 -1.42975375e-02 -4.92233783e-02  6.83588162e-02
   2.44294181e-02  1.86817273e-02  8.09575096e-02  2.81206369e-02
  -3.78898978e-02 -6.81009665e-02 -7.52445534e-02 -1.33301616e-02]
 [-3.01396288e-02 -7.15325847e-02  4.66458499e-04  5.78190386e-03
  -6.64678067e-02  2.80123428e-02 -5.68489730e-03  6.59261644e-03
   3.45599949e-02 -4.33433950e-02 -6.70185983e-02 -7.80121684e-02
  -7.24817812e-02  4.45468202e-02 -5.63038848e-02 -6.64159432e-02
  -1.71053633e-02 -9.71424580e-03  1.15413070e-02 -5.08110933e-02
  -4.04015929e-03 -6.28928095e-02  3.69866267e-02  2.42279097e-02
   6.06289282e-02 -6.66463003e-02 -2.53977627e-02 -6.92738593e-03
   3.65109965e-02  5.07744625e-02 -4.73096222e-02 -5.47142774e-02
   2.17277408e-02 -5.35053238e-02  1.02338865e-02  2.26744488e-02
  -1.40355676e-02  1.31132975e-02 -7.27959126e-02  2.50521451e-02
  -2.70403959e-02 -5.18550910e-02  2.56234184e-02  3.77369523e-02
   5.01848236e-02 -7.74721056e-03  2.39924714e-02  5.69427758e-03
   3.63858268e-02  5.36770895e-02  3.00196335e-02  7.77114853e-02
  -3.73194367e-03  4.19751555e-03 -1.23981908e-02 -6.63866103e-03
  -3.43086012e-02  6.35898933e-02  1.11991018e-02 -4.64129634e-02
  -2.53406391e-02  3.34393829e-02 -4.35776971e-02 -1.43244416e-02
  -6.35163933e-02  1.00480467e-02  6.26330599e-02  4.21237648e-02
   1.05357170e-03  1.17356777e-02  3.07053328e-04  1.66455582e-02
   1.87817663e-02 -6.90694675e-02  7.83342049e-02 -6.50286302e-02
   1.34592503e-03 -4.39875722e-02  4.70001996e-03 -1.82166174e-02
  -3.28603722e-02 -5.76051623e-02 -6.87315464e-02 -4.00979854e-02
   8.30659270e-03 -5.68867996e-02 -2.76470184e-02  8.45673680e-03
  -7.49378651e-02 -1.19851455e-02  6.30965158e-02 -4.88806516e-03
  -2.06964463e-03  5.14621362e-02 -4.24449369e-02  1.43195689e-02
   4.80305329e-02 -7.08965659e-02 -7.03107864e-02  7.03904256e-02
   6.18072972e-02  2.33983397e-02  5.08384034e-02 -7.51698315e-02
   7.46135414e-03 -2.21993439e-02 -6.45215213e-02  2.49872133e-02
  -6.18776865e-02  3.68154794e-02  1.21760741e-02  2.29260772e-02
  -5.90398684e-02  4.00567353e-02 -4.81628291e-02 -6.36888519e-02
   1.81921348e-02 -6.92887455e-02 -4.06839736e-02 -2.99352817e-02
  -2.74337940e-02  1.12079084e-03  2.25366801e-02  1.10189468e-02
   1.08704641e-02 -8.00292939e-02 -7.72364140e-02 -2.06843801e-02]
 [-7.86628872e-02 -1.95519626e-03  2.57877409e-02  7.80944526e-03
  -2.44499743e-02  5.15114889e-02  1.88091844e-02  1.24489889e-02
  -5.81631288e-02  1.20000914e-02  3.30996886e-02 -8.33399594e-03
  -4.92264144e-02  2.13907510e-02 -1.32144988e-02 -6.60209358e-03
  -1.54423490e-02 -2.91126892e-02 -5.26225865e-02 -2.93317735e-02
   1.20993331e-02  1.46597102e-02 -3.05200145e-02  3.61137092e-03
  -1.66129321e-02 -1.76386014e-02 -2.06596069e-02 -7.59067908e-02
  -4.77698743e-02 -5.83667383e-02 -5.13805449e-03  1.15192682e-03
  -3.57026607e-02 -4.07640338e-02  5.55383340e-02  6.00280091e-02
   7.20481500e-02  5.20024076e-02  3.57716605e-02  3.34851146e-02
  -1.27039105e-02  6.92411140e-02 -7.26146027e-02 -4.65892702e-02
   4.71571460e-02 -2.03706734e-02 -1.28408521e-03  5.58962598e-02
   5.58389351e-02  7.56410286e-02  3.04582641e-02  5.38864806e-02
  -1.52935758e-02  2.43692175e-02  7.81162828e-03 -3.76963615e-03
  -5.88124879e-02 -4.02874798e-02 -5.18242866e-02 -2.94937901e-02
   5.01857325e-02  4.57172617e-02 -3.17231566e-03  1.83005109e-02
   2.74056792e-02  5.16671613e-02 -4.65293229e-02 -9.58613306e-03
   7.19312206e-02 -5.42186201e-03  5.11127636e-02 -3.49982046e-02
   4.71265092e-02  1.54464468e-02  6.16937652e-02  4.23655733e-02
   1.64878517e-02 -7.44245648e-02 -5.29619567e-02  2.72419825e-02
  -7.65749887e-02  1.79884657e-02 -4.14097197e-02  7.87182525e-02
  -3.30706798e-02  4.69310507e-02 -9.83818620e-03 -3.88700031e-02
   4.86674681e-02  2.76324600e-02  2.55519077e-02 -3.66937295e-02
  -4.00585905e-02  5.90267032e-03 -3.74994427e-03 -8.03801045e-02
   4.24262583e-02 -7.34805912e-02 -2.89903730e-02 -9.94005799e-03
  -1.41733289e-02 -7.46711493e-02  7.89364055e-02 -9.09046829e-03
   3.76064777e-02 -5.25693521e-02 -5.08211479e-02  5.39148524e-02
   3.67328525e-04 -3.96354124e-02 -3.15522924e-02 -6.43436462e-02
  -2.63918303e-02 -6.57216609e-02  7.58201554e-02  1.69523060e-03
  -3.13295349e-02 -7.94871598e-02  7.30559751e-02 -5.11240959e-03
   1.50853023e-02  7.39882812e-02 -1.63612664e-02  7.35483840e-02
  -2.74181366e-04  2.98254564e-02 -8.00360814e-02  4.15203944e-02]
 [-2.36223117e-02 -6.25148416e-04 -3.40963602e-02  4.86406162e-02
   5.79004511e-02  3.25857699e-02  4.29450646e-02 -1.25660822e-02
   7.00650588e-02  5.11338934e-02  1.27762705e-02  4.09199595e-02
  -4.36843298e-02 -3.34423780e-02 -2.48647593e-02  9.51719284e-03
  -4.00177091e-02  4.18034866e-02  5.74281886e-02 -6.18467256e-02
  -7.94439763e-02 -3.55575271e-02  5.58262542e-02  7.35910907e-02
  -1.14897192e-02  3.41628268e-02 -2.19302885e-02  4.46090624e-02
  -2.73101069e-02  6.64984509e-02 -2.47844681e-02  3.70588154e-02
  -3.27786505e-02  7.01694861e-02  2.30804533e-02  1.15245432e-02
  -2.27140710e-02  3.57823744e-02 -7.32556880e-02  3.61028463e-02
   3.63297015e-02  2.03926414e-02 -4.52572890e-02  2.58595496e-03
   3.88692468e-02 -1.55977160e-03 -5.08224629e-02 -1.19349584e-02
   3.82773802e-02 -4.44660038e-02  7.38208219e-02 -4.89464737e-02
  -7.25377500e-02 -3.63792293e-02 -5.73167503e-02 -2.36037374e-03
  -5.12776673e-02  1.59947053e-02  6.62241206e-02 -7.29685724e-02
  -1.14891157e-02 -4.56516519e-02 -7.43891001e-02  2.19431669e-02
  -6.47767335e-02  5.26819453e-02 -7.90042654e-02 -2.52603441e-02
  -7.24735484e-02  3.73294577e-02 -7.22217411e-02 -5.18112332e-02
   6.28928915e-02 -1.22057572e-02 -4.64003570e-02 -2.12549008e-02
  -1.29035115e-03 -5.36266118e-02  2.20503211e-02 -2.58570276e-02
  -5.33770919e-02  3.28420028e-02  6.46783486e-02  4.83434126e-02
   7.89954141e-02  3.43454406e-02  8.03886577e-02  1.34460777e-02
  -6.66569173e-02 -4.24083695e-02  4.62865755e-02  1.70405805e-02
   4.19689715e-03 -3.66732664e-02 -2.34419852e-02  1.37338117e-02
   6.01108596e-02 -3.46653126e-02  5.68000153e-02  1.87987387e-02
  -2.51788162e-02  4.32750955e-02  7.46328160e-02  1.80481449e-02
  -5.79404458e-02  5.27004972e-02  4.03291509e-02  3.39487940e-03
   2.85269320e-02 -6.41689450e-03 -4.77866419e-02  6.70066848e-02
   1.31267235e-02 -5.09053469e-02  1.99081600e-02 -5.34114763e-02
  -3.55666131e-02  4.75899875e-03 -4.45311554e-02 -6.06518984e-03
  -3.46093103e-02 -3.53313833e-02  8.40403140e-04 -2.11856291e-02
  -3.01672257e-02  6.01388887e-02  6.11138865e-02  3.83234993e-02]
 [-6.20808676e-02  4.53226939e-02 -2.17903182e-02  2.22893208e-02
   5.70576685e-03 -3.97970229e-02  4.97860238e-02 -4.20122854e-02
  -5.80049418e-02  4.18182084e-04  1.01587558e-02 -3.11863571e-02
  -2.50667557e-02 -1.05107084e-01 -4.48592082e-02 -5.54889515e-02
   7.22231492e-02  7.88974110e-03  7.55773112e-02 -1.29970610e-02
  -1.80839226e-02  6.29597157e-02  6.11252077e-02  7.85389096e-02
  -1.71283279e-02 -1.18983008e-01 -3.42472866e-02  1.43689364e-02
  -2.42224783e-02 -3.80294956e-02  1.01901315e-01 -2.21775733e-02
  -1.24942213e-02 -9.51493799e-04  1.94384553e-03  8.51959288e-02
  -3.68426405e-02 -1.18689328e-01  7.79044256e-02  1.64612960e-02
  -1.85613949e-02  9.18448269e-02 -1.36704970e-04  1.14849970e-01
  -4.30689901e-02  6.96540177e-02 -4.56711836e-02  5.00836298e-02
   3.14916149e-02 -5.84864132e-02 -9.82877892e-03  6.40671775e-02
   2.77304649e-02 -2.31615510e-02 -2.20668595e-02 -1.01808019e-01
  -7.53365457e-02  5.23446538e-02 -5.57964295e-02  2.47804821e-02
  -1.27568364e-01 -2.52510626e-02  1.71449557e-02  3.63949942e-03
   2.71731764e-02  7.96442926e-02  1.03867762e-01  2.38964874e-02
   2.12053079e-02  4.22761887e-02  5.99429905e-02  5.84122390e-02
  -1.25596542e-02  6.63003996e-02  4.59048264e-02 -4.57283817e-02
  -7.82044902e-02 -9.90768522e-03  7.04248026e-02 -4.19425927e-02
   7.56655559e-02  7.48788491e-02 -4.94721234e-02 -3.41237821e-02
   7.49382153e-02  4.85630408e-02  6.67635798e-02 -1.49890094e-03
   8.96714628e-04  5.71410209e-02 -2.11227755e-03  1.08197339e-01
  -4.11485359e-02  5.16553707e-02  2.07051598e-02  1.23652451e-01
  -5.20174205e-02  1.25597179e-01 -1.97272785e-02 -1.86970457e-02
  -3.54973301e-02  1.53008476e-02  2.51216944e-02 -6.47283271e-02
  -7.22463951e-02  5.74092567e-03 -1.96345150e-04 -3.52285989e-02
   1.21763550e-01  2.04597656e-02 -1.83869582e-02  6.36702925e-02
  -5.23578934e-02  5.40042371e-02 -5.85004315e-02 -9.79374871e-02
   7.84050673e-02  1.28840968e-01 -2.49838457e-02  1.45827029e-02
   9.19172817e-05  1.89871192e-02  7.92416409e-02  8.13450068e-02
   3.16619948e-02  5.20159453e-02  1.63341537e-01  2.32898518e-02]
 [-6.17543682e-02  6.69753626e-02 -6.51099607e-02 -3.41792516e-02
   1.39055952e-01  4.97076139e-02  3.48370001e-02 -4.29799892e-02
  -7.75049627e-02  5.24665043e-02  5.52626215e-02 -1.55124813e-02
  -6.41884506e-02 -2.66467892e-02 -2.02614330e-02  4.35766735e-04
   6.44628629e-02  3.89077105e-02  1.12702586e-02  5.09319827e-02
  -5.95293194e-02 -9.09209810e-03  3.15392688e-02  1.23422995e-01
   1.79219444e-03 -6.76750317e-02  9.24532413e-02  9.41969454e-04
  -7.53220394e-02 -4.86920476e-02  3.74368727e-02  8.30092952e-02
   2.06760876e-02  5.02703153e-03  7.75245354e-02  1.21700704e-01
  -3.34878378e-02 -2.76881382e-02 -4.90585975e-02 -6.89258128e-02
  -4.78843562e-02  5.44259921e-02  9.39985737e-02  1.04169093e-01
   3.97228170e-03  4.41442393e-02 -2.44952738e-03  2.51498818e-03
  -9.10386741e-02 -3.41345556e-02 -2.80895941e-02  5.52805029e-02
  -7.40310177e-02  5.95187917e-02  4.94909436e-02  2.19245888e-02
  -4.66852896e-02  2.18154415e-02 -7.26658851e-02  1.40239134e-01
  -1.34610850e-02  6.29491657e-02  4.90612090e-02 -8.08167383e-02
  -8.84102285e-03  3.72955538e-02  1.53222634e-02 -8.93985927e-02
   1.88699197e-02 -3.83216105e-02  3.69666219e-02  1.12049505e-01
   2.53768079e-03 -1.03698522e-02  1.74309034e-02  1.41632035e-02
  -1.99636612e-02 -3.37029621e-02 -9.35397297e-03 -4.12121834e-03
  -9.96926613e-03  1.07311413e-01  1.03127666e-01 -8.64950791e-02
   1.33149400e-02 -4.99563403e-02  2.97558354e-03  8.18237141e-02
  -2.33577862e-02  1.00301959e-01  2.76921988e-02 -2.26280447e-02
  -6.82763010e-02  6.30643219e-02 -4.28752322e-03  6.96510747e-02
  -9.23140198e-02  9.71304178e-02 -1.15580074e-02  1.43640926e-02
  -1.01900198e-01 -3.76087576e-02 -9.18423906e-02 -9.30182114e-02
  -7.29856826e-03 -5.22664562e-02  4.21217978e-02  3.57803255e-02
   9.36546847e-02  2.99823079e-02 -7.61908591e-02  4.10624221e-02
   5.28651513e-02  5.03915772e-02  2.07248218e-02 -1.39643893e-01
   9.89152342e-02  9.13955867e-02 -9.11570340e-03 -8.67725760e-02
   1.37133300e-01 -2.39175707e-02  1.27715260e-01  3.09535358e-02
  -1.14782795e-01  6.27827719e-02  1.37356460e-01 -2.40813866e-02]
 [-6.67625070e-02  6.91501871e-02  6.23960868e-02 -1.31060211e-02
   2.55811159e-02  7.00848624e-02  5.50302193e-02 -7.24081844e-02
   2.02858932e-02 -1.92177836e-02 -2.37086602e-02 -7.44745210e-02
   5.17953597e-02  4.64257635e-02  6.92468956e-02  9.67847034e-02
  -3.58448736e-02 -4.32229452e-02  2.90486142e-02 -6.62483126e-02
   6.61722645e-02  1.04249164e-01  6.96543679e-02 -4.75951433e-02
  -4.95241284e-02  9.56484228e-02  7.68557042e-02  5.71694300e-02
   1.59317032e-02 -3.06292232e-02  5.52567467e-02 -1.88458953e-02
   1.22088090e-01 -9.32027847e-02  1.22521654e-01  1.36764720e-01
  -5.81523217e-02  3.23814787e-02 -3.78381312e-02  2.90590636e-02
   1.00592621e-01  8.58414099e-02  7.50391334e-02  1.08011462e-01
   1.27558425e-01  3.77122425e-02  2.06394941e-02 -2.09606104e-02
   3.04847304e-02  6.40140325e-02 -3.08477972e-02  7.64222443e-02
  -1.25618726e-02  6.53420910e-02  1.03890307e-01  9.37539935e-02
  -7.94822816e-03  1.62064970e-01  9.16925538e-03 -6.58989102e-02
   1.25193104e-01 -3.94396149e-02  1.16037372e-02  5.38842119e-02
   7.86892250e-02 -1.04753293e-01 -6.32105917e-02 -3.69224809e-02
  -9.78599768e-04 -1.40455619e-01 -5.10484166e-02 -5.38633838e-02
  -6.98307902e-03  4.21358719e-02 -3.32248248e-02  5.83520047e-02
  -1.31334513e-02  3.24371755e-02 -1.43030286e-03 -8.94336589e-03
   3.20488103e-02  1.16580063e-02  5.49141653e-02 -1.91659350e-02
  -7.94058815e-02 -2.78758481e-02  6.69690371e-02 -6.30197823e-02
   4.24144641e-02  5.44760861e-02  5.19928383e-03 -1.48917839e-01
   3.19942608e-02  1.09301582e-02 -6.76431656e-02 -7.35593140e-02
  -9.57802869e-03 -7.00626150e-02  1.47764578e-01  3.40953134e-02
  -4.71227765e-02 -7.89974034e-02  4.38862704e-02  5.64474277e-02
   3.41083743e-02  1.15642473e-02 -1.98981166e-03  6.73202053e-02
   1.88545827e-02  2.31562052e-02 -9.72524285e-05 -4.63655964e-03
  -8.05916041e-02 -4.01271842e-02 -7.55547360e-02 -5.14779352e-02
  -7.99463913e-02  3.25888651e-03 -2.20566057e-02 -3.84890698e-02
   3.37153636e-02  6.05735853e-02 -2.06781253e-02 -2.22796109e-03
   5.86472778e-03  6.41202331e-02 -5.25851622e-02 -6.12163544e-02]
 [-4.20395583e-02  4.39133868e-02  7.03240931e-03 -7.84063339e-02
  -2.97498722e-02 -4.60780635e-02 -4.88293432e-02 -5.12344465e-02
  -4.28344905e-02  1.02865882e-02 -6.37716055e-02  5.64265847e-02
   1.94316823e-02  6.41964152e-02  6.56807199e-02 -3.16913542e-03
   6.75132871e-03  6.14184001e-03 -2.51381937e-02  6.89469799e-02
  -5.29899970e-02 -4.46504429e-02  4.19081375e-02 -3.71746300e-03
   7.63228163e-02  3.91137749e-02  6.50895312e-02 -7.55738020e-02
   4.67037335e-02 -6.06226288e-02 -3.34417224e-02  4.46313210e-02
   5.70922904e-02 -3.46741676e-02 -2.32026931e-02  5.45872562e-02
   7.73672364e-04 -4.49989475e-02 -1.89700425e-02  4.36178036e-02
  -2.64682323e-02  2.27189716e-02  6.52964087e-03 -3.62451039e-02
  -3.07372622e-02 -6.01384565e-02  2.43791789e-02 -5.93883842e-02
  -3.07431314e-02  3.02870870e-02 -7.30270892e-02  1.46275973e-02
   3.45250219e-03  3.43391374e-02  8.40170085e-02  5.52011607e-03
   5.63345402e-02 -3.78431231e-02 -6.75226003e-02 -3.69644091e-02
  -2.75009573e-02 -1.18206954e-02 -7.13929981e-02  3.46899703e-02
  -6.93484768e-02 -7.65746534e-02  1.45096390e-03  7.64300227e-02
   3.18716769e-03 -4.16943058e-02  2.21910211e-03  2.64057890e-02
   7.22489879e-02  2.40504444e-02 -4.90728505e-02 -8.12480040e-03
  -1.22808665e-02 -3.88067253e-02  2.02896297e-02  8.11613277e-02
  -6.31664991e-02 -3.60539891e-02  7.78082237e-02 -1.45049822e-02
   1.31707340e-02  1.31625384e-02 -6.37881607e-02 -1.81344897e-02
  -7.04781264e-02 -1.80474259e-02 -1.06324358e-02 -1.28948755e-04
   5.19935340e-02  4.68036160e-02 -2.01708898e-02 -1.60805136e-02
  -7.66095594e-02  3.24970447e-02  6.99496344e-02  2.01014895e-02
  -7.08490536e-02  6.32527992e-02 -2.98327464e-03  4.15827148e-02
   3.72753106e-02 -7.62675107e-02  1.19829923e-03 -2.27539279e-02
  -7.13508055e-02 -8.91829655e-03 -5.37971966e-02 -1.40802721e-02
  -4.69725132e-02  7.56293312e-02  1.67816132e-03  4.49182913e-02
  -4.49865498e-02  6.29354715e-02  7.68961534e-02  5.36870435e-02
   3.37280855e-02 -5.60814366e-02  3.59332338e-02  3.70934419e-02
   2.98295543e-02 -5.17411269e-02  4.20523472e-02  2.20147595e-02]
 [-6.96537346e-02 -4.46005166e-03  3.44540849e-02 -7.25699663e-02
  -3.14142182e-02  6.40080124e-03 -2.84098201e-02 -4.06227857e-02
   4.79872525e-03 -1.87659450e-02 -5.50844148e-02 -6.33987039e-02
  -8.06942359e-02  6.60570338e-02 -3.49039286e-02  1.34747699e-02
  -2.87994482e-02 -1.31984055e-03 -7.02539384e-02 -2.87188254e-02
  -6.95761293e-02 -1.54693052e-02 -3.07495035e-02  6.94286153e-02
   3.72477099e-02 -3.09049338e-03  6.16581365e-02  1.50447711e-02
   6.53262511e-02  8.06792304e-02 -3.74285132e-03 -4.80477288e-02
  -4.05816138e-02  6.84572011e-03 -5.15863262e-02 -2.79997289e-03
  -4.55784984e-02  4.15718928e-02  3.56397554e-02 -2.81952322e-04
  -4.81249057e-02 -6.43824041e-03 -1.62598193e-02  3.46194804e-02
  -6.30568787e-02 -7.13155121e-02  4.03604656e-02 -7.85041600e-02
   5.48723713e-02 -6.04375452e-02 -3.24520282e-02  1.36385113e-02
  -7.17112496e-02 -1.01268664e-02 -5.03986254e-02 -6.17145672e-02
  -5.64604998e-03  7.83988014e-02 -6.91833645e-02  4.47823033e-02
   2.30486244e-02  7.01945648e-02 -3.50862332e-02 -6.17279299e-02
  -4.86103930e-02 -6.64599240e-04  4.30414826e-03 -1.77781805e-02
  -6.42861947e-02 -2.21081823e-02  1.73223019e-02 -5.39536774e-03
  -6.71622604e-02 -8.08489621e-02 -4.31824997e-02  7.69978240e-02
  -2.60777026e-03 -7.18508512e-02  6.58076927e-02 -3.48091125e-02
  -5.45930862e-02  5.77284470e-02  4.92552444e-02  1.46764964e-02
   4.00911942e-02  4.05512378e-02 -1.09101236e-02  8.03738013e-02
  -6.08376525e-02  1.42860115e-02 -5.10737300e-05  7.29800016e-03
  -7.83169419e-02  6.98415264e-02 -7.80673325e-03  7.62268975e-02
  -2.00921856e-02 -3.48515622e-02  7.16581270e-02  4.30246219e-02
   6.58530220e-02  2.35396624e-02 -4.38500382e-02  3.14394906e-02
  -5.05021960e-03  5.47348186e-02  3.11192274e-02 -2.65658349e-02
   7.82999024e-02  6.66024536e-03 -6.19323365e-02  1.37976259e-02
  -3.52777205e-02  6.12139627e-02  8.05924162e-02 -6.70540333e-03
  -7.25153536e-02  1.49102733e-02 -4.96617965e-02 -7.51157552e-02
   2.95355618e-02  5.44712916e-02 -6.72862604e-02 -5.69056720e-03
  -9.18398798e-03 -7.77531564e-02  2.67526433e-02 -7.55436197e-02]
 [-1.74340606e-03 -7.08293095e-02  3.82546932e-02  7.48018399e-02
  -7.12761953e-02 -6.96771741e-02 -7.99960494e-02  2.16826051e-02
   6.66942522e-02 -5.68589717e-02 -4.65336554e-02 -7.11236596e-02
   3.94022092e-02 -5.66560924e-02  1.64532736e-02 -4.56571057e-02
  -1.16115063e-03 -5.73217385e-02 -7.70207942e-02  6.72637746e-02
  -7.08250701e-02 -5.53349033e-02  1.69471800e-02 -2.93560028e-02
   2.12982967e-02 -6.05236366e-02  3.50127071e-02 -4.03532498e-02
   1.03795603e-02 -2.20827907e-02  4.56141755e-02  7.17920288e-02
  -3.11916135e-02  1.95133910e-02  3.76624614e-02 -1.93440914e-03
   7.03602806e-02  6.25641569e-02  6.50252029e-02 -1.73546523e-02
  -3.75654995e-02 -1.70759112e-03 -2.56432816e-02 -2.21482515e-02
   8.09912905e-02 -6.66201115e-02 -7.58842379e-03 -5.16415946e-02
   6.54642656e-02  3.93112749e-03 -9.38770175e-03 -7.83107728e-02
  -5.33984005e-02 -5.22945523e-02 -1.89335309e-02  7.36997500e-02
  -2.72279605e-02 -1.76208839e-02 -4.64208424e-03 -2.54633389e-02
   9.39922780e-03  6.42617121e-02  2.52891406e-02 -5.14992848e-02
  -6.85222670e-02 -4.74674441e-02  7.77232125e-02  1.69060603e-02
  -3.11809182e-02  3.61563191e-02 -1.38134658e-02 -2.94466242e-02
  -3.33926044e-02  5.04989848e-02 -7.70126283e-03 -8.05795267e-02
   6.96495697e-02 -4.98833582e-02  3.48934308e-02  7.10640028e-02
   3.81604582e-03 -3.27703543e-02 -3.34242582e-02 -1.04059801e-02
   3.42275947e-03 -3.53081971e-02  6.36119619e-02  2.99749449e-02
  -8.03776160e-02 -1.18008703e-02  1.37216449e-02  4.98369113e-02
   7.84925297e-02 -5.11104688e-02 -4.19727750e-02 -9.10698622e-03
   2.20047981e-02  7.21840337e-02  5.68156615e-02 -5.14343679e-02
  -6.75051883e-02 -1.33187696e-02  2.70697102e-02  4.34522107e-02
   5.91674820e-02  7.13111833e-02 -3.94794866e-02  6.26211986e-02
  -6.41842633e-02  7.03101605e-03  5.73728308e-02  6.43046945e-03
   1.02707744e-03 -6.92540482e-02 -3.68930288e-02 -8.38127732e-03
   4.58972678e-02 -8.07975829e-02  5.32025471e-02  6.23147115e-02
   2.35655978e-02  7.04679713e-02 -6.92645311e-02 -3.07036489e-02
  -7.60934800e-02  7.70945922e-02  2.92978361e-02  2.11718604e-02]
 [ 2.11220235e-02 -1.06641799e-02 -6.08111024e-02  7.81758353e-02
   2.69486010e-02  7.93970451e-02 -2.91549228e-02  4.02459428e-02
   7.82854855e-03  7.26869777e-02 -5.62015288e-02  4.95130345e-02
   3.42235342e-02 -5.76289445e-02  2.89223641e-02  7.26330653e-02
  -3.95863131e-02  6.61341622e-02  5.54304644e-02  6.26575425e-02
   8.02513286e-02 -1.33592039e-02 -2.19502673e-02 -1.42890289e-02
   5.00633940e-02 -1.40047818e-03  4.41608652e-02 -1.87554210e-03
   8.35718215e-03  4.42131981e-02 -5.41692264e-02  3.26491818e-02
  -6.39004931e-02  7.79314116e-02 -5.97629473e-02  5.91939315e-02
   1.11234114e-02  5.81160411e-02 -6.43463731e-02 -3.98675092e-02
   1.39907375e-02  3.16327214e-02 -6.07632585e-02 -6.21988401e-02
  -6.58363700e-02  6.46011904e-02  3.66213024e-02 -1.30482465e-02
  -3.63465473e-02  7.10125640e-02 -1.83089823e-02 -3.98753993e-02
   1.35850608e-02  5.16763106e-02  2.05589309e-02  6.12339154e-02
   1.27650797e-04 -8.06183964e-02 -2.08994411e-02  7.94238821e-02
   3.20018083e-02 -4.55549434e-02  4.52089682e-02 -2.66860425e-02
  -1.80454776e-02 -7.40186572e-02  5.19083813e-02 -3.75016816e-02
  -4.97632101e-02  2.86886171e-02 -6.42032549e-02  1.50379837e-02
   1.42220408e-02  7.97867551e-02  4.05985937e-02  3.34805995e-03
  -7.33558163e-02 -6.13224842e-02 -3.16303223e-02  4.94279638e-02
   2.55661383e-02 -6.97010532e-02  4.04267386e-02  1.72724873e-02
  -4.37330231e-02 -1.13771260e-02  5.77304140e-02  3.93977463e-02
  -6.78110421e-02  7.07767904e-03 -1.55011564e-02  4.33219299e-02
   4.79351953e-02  4.29314300e-02 -7.48493522e-02  4.71048057e-03
   2.54448131e-02  2.87525132e-02  3.53670642e-02  4.59930971e-02
  -1.55412033e-02 -1.00328252e-02 -7.94811249e-02  3.21917310e-02
  -4.30342518e-02  5.82929701e-03  4.49586287e-02 -4.06691991e-02
   6.72394261e-02  6.67109117e-02  1.62368417e-02  5.03536314e-03
  -7.77036473e-02  5.30864522e-02  4.58302870e-02 -6.68321177e-02
  -6.04490303e-02 -3.45422328e-03 -6.65813386e-02 -4.11783904e-03
  -5.09025045e-02  2.12066323e-02  7.14106336e-02  1.86279044e-02
   7.42441639e-02  7.39028975e-02  5.96229807e-02  5.03756329e-02]
 [ 5.60003147e-02  5.36918864e-02  2.32906193e-02 -3.99410725e-02
   3.98425609e-02 -1.35979950e-02 -7.60512874e-02  5.14187738e-02
   3.19212303e-02  2.89048031e-02  6.53227642e-02  2.89206430e-02
  -1.36020929e-02 -5.64622879e-02 -2.36769058e-02 -4.06068899e-02
  -7.89369494e-02  4.47253808e-02 -2.29598619e-02  1.61485225e-02
  -5.23712672e-02 -2.16811933e-02 -3.47212590e-02 -5.34169860e-02
   2.80738547e-02 -6.31289184e-03 -7.40351528e-03  7.63578191e-02
  -7.46425092e-02 -1.39667019e-02  5.35209253e-02 -1.42085999e-02
   5.54856658e-03  6.93901554e-02 -5.84975854e-02  4.04409468e-02
   4.35876995e-02 -6.76412955e-02 -1.79228932e-02 -7.98193738e-02
  -4.78291288e-02  7.78180137e-02 -3.49684805e-03  1.28373802e-02
   6.90813735e-02 -7.10531101e-02  1.52867138e-02 -3.43854502e-02
   7.03385547e-02  1.97051093e-02 -1.23497844e-02 -5.02400547e-02
   6.67667910e-02 -3.99595201e-02 -3.03380936e-03  3.24147791e-02
   6.30494580e-02  3.34524512e-02  2.89649442e-02  1.06581673e-02
   3.79603282e-02  5.40490523e-02  7.47362897e-02 -3.21276262e-02
  -5.29793426e-02  1.69166774e-02  1.42999589e-02 -5.85525632e-02
   8.06103125e-02  7.61120245e-02 -2.31310055e-02  2.77014151e-02
  -3.41768079e-02 -6.57858029e-02  5.86184040e-02  5.30172661e-02
   2.64135823e-02  7.99102262e-02 -7.16099590e-02  9.39504802e-03
   2.02885419e-02  6.46493360e-02  3.96147594e-02 -9.50622559e-03
  -3.21458429e-02  6.00050166e-02 -3.07640843e-02 -1.96702406e-02
  -2.08630674e-02  3.62341329e-02  4.70000580e-02 -3.12079936e-02
   7.42730126e-02  4.34422120e-02  1.66619942e-02 -9.83350724e-03
   2.99480259e-02  4.25333306e-02 -2.36713924e-02  4.80811223e-02
   7.89333954e-02  3.47969532e-02  6.47056028e-02 -7.58844614e-03
  -2.66714208e-02  3.47281247e-03  2.29157135e-02  1.83307901e-02
   5.61918840e-02 -2.26754323e-02  6.39545396e-02 -5.40916249e-02
   3.95046249e-02 -1.93517990e-02 -4.97674234e-02  4.46719304e-02
   1.04087442e-02 -1.67159140e-02  4.69957814e-02  7.78180286e-02
   2.75089219e-02 -9.16264951e-04  6.56105652e-02 -7.62671828e-02
  -4.52574827e-02  2.23497003e-02  1.70076638e-03  5.61702177e-02]
 [ 6.95018545e-02  5.91026917e-02  5.15515879e-02 -7.51120225e-02
   2.97958925e-02  6.79597184e-02  2.16801465e-03 -6.81035966e-02
  -6.45774454e-02 -6.72055781e-02 -5.54288849e-02  6.38276413e-02
  -1.70990229e-02 -5.97544387e-02 -3.91294248e-02 -6.11373782e-02
  -6.31452501e-02 -3.66277248e-02  4.70401272e-02  6.52776435e-02
  -3.38048004e-02 -1.38603970e-02 -4.00605649e-02 -2.63049789e-02
  -5.71472086e-02 -2.65980922e-02 -3.02427039e-02 -7.67995045e-02
   4.17088866e-02  5.47798350e-02 -4.42296490e-02 -5.31481840e-02
  -4.95531373e-02  4.23500612e-02  3.86003852e-02  7.05718771e-02
  -1.31333917e-02 -4.68954444e-04  6.31280243e-04  2.05809623e-03
   1.92067251e-02  2.78322250e-02  6.66162446e-02 -3.87214832e-02
   3.29609886e-02  3.01429331e-02 -3.06598283e-02 -1.26750767e-02
   5.91167733e-02 -2.39169896e-02 -8.06836635e-02 -3.79068591e-02
  -2.88272761e-02  1.72801316e-03  2.10883021e-02  2.33153179e-02
   1.42925084e-02  7.05841109e-02 -5.52519038e-02 -7.47730434e-02
  -5.21513522e-02  8.97204131e-03 -2.73890086e-02 -6.86959475e-02
   5.32109961e-02  2.53381804e-02  4.24944609e-02 -3.25601473e-02
  -6.51881695e-02 -7.17368945e-02 -2.18814798e-02 -5.79632856e-02
  -2.81251781e-02 -1.34247616e-02 -8.32732022e-03  1.72330588e-02
  -2.90161148e-02  5.43637499e-02 -5.29237464e-02 -8.49877298e-03
   6.76098689e-02 -6.88851625e-03 -2.04779841e-02  2.78876498e-02
   1.95669532e-02 -7.60442019e-03 -1.45217031e-03 -2.74688154e-02
   7.08081350e-02  5.41386530e-02  2.78728306e-02 -5.37876263e-02
  -1.49017647e-02 -2.94484012e-02  4.02525142e-02  3.73159349e-03
  -6.71199858e-02 -1.84518918e-02 -4.73648533e-02 -6.76782504e-02
  -9.56242532e-03 -1.65252164e-02  5.12112603e-02 -2.94473767e-03
  -2.97605023e-02  4.50017676e-02 -2.72453837e-02  1.88962370e-03
  -4.91732918e-02 -8.06552693e-02 -4.89639379e-02  3.41156796e-02
   5.84700629e-02  3.85040268e-02  7.04747960e-02  7.73868486e-02
  -7.61463568e-02  5.37155345e-02 -8.01726431e-02 -3.62490229e-02
  -1.07384771e-02 -5.21359593e-02 -7.26492703e-02  4.51644287e-02
   7.74139240e-02  7.38820955e-02 -7.91142434e-02  3.41658071e-02]
 [-2.01599076e-02  4.48369309e-02  1.35060623e-02  4.09742966e-02
  -6.45851269e-02  1.86552927e-02 -6.56210780e-02  4.52863500e-02
  -3.42762098e-02 -5.46865650e-02  4.00506407e-02  2.36143097e-02
   1.19778886e-02 -7.84822851e-02 -4.36243042e-02  6.17222711e-02
   3.98356020e-02 -7.10328445e-02 -6.89628348e-02  3.20247114e-02
   1.33944601e-02  3.44482809e-02  9.60767269e-03  6.04848042e-02
  -1.11384168e-02  5.54869995e-02  2.22943127e-02  5.97844943e-02
  -4.93042916e-02  2.66488567e-02 -7.57054985e-02 -3.93523760e-02
   4.49522510e-02 -1.82612911e-02  5.53187206e-02  4.07956168e-02
   4.80696633e-02 -1.70744210e-02 -3.81656811e-02  7.64072314e-02
   3.32617238e-02  7.41029754e-02 -9.58516449e-03 -5.01610562e-02
  -2.61849910e-03  2.24317908e-02  2.29808986e-02 -6.08935431e-02
  -8.06162879e-02 -9.21912491e-04 -4.48768847e-02  4.55584005e-02
   9.25194472e-03 -1.65803656e-02  4.16011885e-02  5.37463352e-02
   6.95122406e-02 -5.35705537e-02 -7.84088671e-03 -4.04824093e-02
  -5.93108386e-02  2.19982639e-02  2.26368904e-02  3.41029167e-02
   7.28753731e-02 -2.80813761e-02  4.68913540e-02  2.36082748e-02
  -4.03114222e-02  2.75483578e-02 -3.69640961e-02  4.12378833e-02
  -6.22101873e-03 -2.67688110e-02  3.47340629e-02  1.52773708e-02
   3.14449444e-02  4.74885479e-02  1.70873627e-02 -4.10923362e-03
  -2.79432237e-02  4.71085832e-02 -4.16472554e-04 -4.38706577e-03
   6.06360659e-02  6.40147999e-02  3.13826203e-02 -2.43535340e-02
  -2.45698541e-03  3.01278532e-02 -2.51813978e-03  5.91159090e-02
  -6.17536120e-02 -7.36384243e-02  2.15613544e-02 -6.50985762e-02
  -1.67018548e-02  3.28178853e-02 -7.76872486e-02  3.39959934e-02
   8.08926150e-02 -1.11318827e-02 -1.25862956e-02 -5.08307815e-02
  -6.34793192e-02 -6.12421706e-02  1.60550624e-02  2.72985995e-02
   2.74597704e-02  5.86840436e-02 -1.00999475e-02  5.40674254e-02
   7.49155879e-05  6.82124123e-02  3.73663306e-02  1.33792311e-03
   2.71464661e-02 -2.22909302e-02 -2.23940201e-02 -6.90789372e-02
  -7.15435073e-02  4.54140678e-02  5.59739694e-02 -1.84026733e-02
   5.59833124e-02 -5.47355860e-02  5.91809675e-02 -2.84112096e-02]
 [ 4.22913507e-02 -6.03232160e-02 -2.28856578e-02  6.97119460e-02
   3.10510248e-02  7.82631114e-02 -7.88128152e-02 -2.74351314e-02
  -2.38174573e-02  4.08502817e-02  8.08224827e-03 -7.49595985e-02
  -5.17821312e-03  5.37019148e-02  7.27972314e-02  4.24993932e-02
  -7.27486312e-02  3.49304602e-02 -3.44853848e-03 -1.07001364e-02
  -7.61829242e-02 -1.08647570e-02 -8.05203319e-02  2.28360593e-02
   1.96757913e-02  5.07540181e-02 -1.03466064e-02  2.23595798e-02
   1.13840103e-02  7.96482489e-02  1.63889155e-02 -4.51556258e-02
  -3.96697372e-02 -6.88698962e-02 -1.17564127e-02 -3.44886966e-02
  -6.92205355e-02 -3.48909348e-02 -2.73692831e-02  6.40012398e-02
   7.93509111e-02  5.12444600e-02 -5.14634103e-02  4.92473617e-02
   7.23156258e-02 -1.90013498e-02  6.18896559e-02  7.33380020e-03
   7.92421326e-02 -4.65600304e-02  1.75706595e-02  3.03513855e-02
  -4.55420837e-02  2.77540013e-02  7.84231052e-02 -1.07407048e-02
  -4.06160168e-02 -9.16324556e-04 -5.02896309e-03 -3.13578546e-03
   5.62373027e-02  5.66449091e-02  1.19520947e-02 -3.07928212e-02
  -1.00770146e-02  7.25913048e-03 -3.46115530e-02  2.07481235e-02
  -6.03572875e-02  1.12018660e-02 -2.96646617e-02 -4.60374728e-02
  -3.59262675e-02  6.45567551e-02 -2.31969468e-02  2.53905877e-02
  -2.67930776e-02 -3.64162810e-02  2.11851448e-02 -4.83230837e-02
  -7.92300180e-02  2.26596892e-02 -5.54247089e-02 -1.32860243e-03
   2.81288326e-02 -2.30358206e-02 -7.83526152e-03  4.33528498e-02
  -5.18368147e-02  3.12694907e-02  7.52350613e-02  4.93994579e-02
  -7.71410614e-02  3.76486108e-02  3.73304412e-02  1.31152570e-02
  -2.23661736e-02 -2.62947306e-02 -2.77438089e-02  6.70876130e-02
   1.04548782e-03 -7.34230950e-02 -7.39416704e-02 -4.46111970e-02
   4.55868766e-02 -4.96806130e-02 -2.04243399e-02 -4.15401384e-02
   6.25445321e-02  2.24845856e-02  4.79986444e-02 -4.41673025e-02
  -3.43580469e-02  5.13966009e-02  2.15860084e-02  1.77711025e-02
   2.31964439e-02 -7.57208467e-03 -1.72823071e-02 -3.63176167e-02
   7.28472248e-02  5.86989149e-02 -7.69701824e-02 -7.82310218e-02
   2.72392929e-02  6.79981932e-02  5.29441610e-02 -4.79570888e-02]
 [ 5.23706153e-02  2.76674032e-02 -2.80419849e-02  2.52876282e-02
  -5.13670892e-02 -6.41706437e-02 -6.14840165e-02 -6.90206140e-02
   6.48777261e-02  2.33402625e-02  2.11471841e-02  5.91141209e-02
   1.50861964e-02 -7.38575310e-02 -1.96628273e-03  2.88459137e-02
   4.26325426e-02 -7.53116608e-03  3.53537202e-02  3.49285826e-02
   3.12442929e-02 -6.34341463e-02 -5.60189933e-02  4.15497646e-02
   3.63834798e-02  6.44960180e-02 -3.67726088e-02 -7.70867392e-02
   7.10430965e-02 -5.03282920e-02  6.49725422e-02 -4.27381471e-02
   7.68079236e-02 -8.08711872e-02 -3.44588198e-02 -7.66384602e-03
   3.63649353e-02  6.52857944e-02 -7.38339573e-02 -2.35161856e-02
   1.54339373e-02 -8.00415501e-02  1.01007447e-02  3.52373198e-02
   1.87877193e-02 -7.12291300e-02 -4.34654988e-02 -7.10336715e-02
   3.88377085e-02 -7.38437623e-02 -4.22231853e-02  1.16588846e-02
  -4.63686809e-02  2.64990032e-02 -7.63084888e-02 -1.86143890e-02
  -8.82437825e-03  5.64058498e-02 -7.17506632e-02 -2.66560465e-02
   3.29754949e-02  6.93205968e-02 -3.17230709e-02 -1.47590712e-02
  -2.17937045e-02  2.03083828e-02 -7.13810474e-02  3.98513451e-02
  -2.88454145e-02  6.24851137e-03  5.27633652e-02 -3.26049551e-02
   2.14591622e-03 -1.13550648e-02  2.62102634e-02 -2.84254551e-04
   2.89780721e-02  7.56789222e-02 -7.26858824e-02 -6.53373450e-02
  -4.73282635e-02 -1.90477595e-02 -6.40394166e-02 -1.75756514e-02
   1.61694661e-02  1.58011168e-03  7.45640323e-02 -6.17988631e-02
  -4.86386679e-02 -1.76957250e-02  3.51375937e-02 -7.88232759e-02
  -2.50954293e-02 -6.30903319e-02 -5.51474765e-02  7.38358870e-02
  -3.39840241e-02 -7.82262087e-02  2.07990780e-02  4.45354804e-02
  -4.43115085e-02  1.75526813e-02  2.94989124e-02 -4.47258353e-03
   3.21480483e-02 -7.56135061e-02 -6.63010329e-02 -8.13193619e-04
  -6.33448660e-02  2.02047899e-02 -5.35180271e-02 -3.72571684e-02
  -4.00403738e-02 -2.02408768e-02 -9.32970643e-03 -6.83283806e-03
  -1.63470209e-03  6.48253039e-02  5.31904325e-02  4.71586511e-02
  -7.11134076e-02 -6.46252334e-02 -3.59914452e-03  5.44177815e-02
  -2.17457265e-02 -4.81416546e-02  5.35389408e-02 -7.09588751e-02]
 [ 6.65366724e-02 -3.06622684e-02  6.48844466e-02 -5.11433631e-02
  -2.58597732e-02  7.41246119e-02  6.42025545e-02  1.67396963e-02
   4.04009148e-02  6.68433383e-02  1.40387192e-02 -6.14765324e-02
  -4.56967503e-02 -3.40757854e-02  2.03485340e-02 -7.03867525e-02
  -5.60578853e-02 -6.00819141e-02 -2.78861970e-02  3.76938879e-02
   7.45979175e-02 -2.78065614e-02 -3.20114419e-02  6.24547824e-02
  -7.83659518e-03 -5.29934391e-02  4.36922610e-02  6.82867095e-02
   2.39265263e-02  1.59083009e-02  6.10765442e-02  3.76187563e-02
  -5.85805476e-02 -1.45559981e-02  7.07652792e-02  7.67707899e-02
   3.22146714e-02 -6.25228286e-02  4.33115065e-02  4.55214456e-02
  -1.14953816e-02  2.19963491e-03 -5.94684444e-02  4.93044034e-02
  -6.31737188e-02 -6.43755943e-02 -5.26245683e-03  2.09099799e-02
   7.24117681e-02  3.04460078e-02  1.05433390e-02  6.10361621e-02
  -7.84327611e-02  2.56800652e-02  3.12861055e-03 -4.80927266e-02
  -6.87876120e-02 -4.27361727e-02  1.45786628e-02 -1.35702640e-02
  -4.91563156e-02 -4.13952358e-02 -1.70627609e-02 -4.17079553e-02
  -5.96053153e-03 -3.36796008e-02 -1.05335489e-02  1.62133276e-02
   5.27903065e-02  5.85072860e-02 -5.33446670e-03 -4.40056361e-02
  -3.20196413e-02 -5.31319603e-02 -7.78567269e-02  2.88979709e-03
   7.22342357e-02  4.21060324e-02  1.82148591e-02  6.22304752e-02
  -6.70688376e-02 -2.10355632e-02  3.96572649e-02 -1.88167281e-02
  -4.80494685e-02 -1.85609162e-02  7.72826895e-02 -4.25783731e-02
  -3.51208486e-02  7.83789232e-02  2.91323662e-03  1.08797252e-02
   4.00121585e-02 -7.66351894e-02 -2.06689537e-03 -2.01057605e-02
  -6.00584745e-02 -4.14544679e-02  6.40453398e-03 -7.40640238e-02
   7.76629075e-02  1.29641816e-02 -7.01172352e-02  8.09339806e-02
   9.29733366e-03  5.35861775e-02  1.72478110e-02  9.53424722e-03
  -1.78867057e-02  4.23819348e-02  1.75684765e-02  6.61511347e-02
   3.29923034e-02  6.20032176e-02  6.81137219e-02  6.77532628e-02
  -2.53461674e-02  2.82271206e-03 -6.34419620e-02 -6.17986508e-02
  -7.84721300e-02 -6.61442950e-02 -1.48411989e-02  7.49544799e-03
  -5.10024652e-02 -4.24861088e-02 -5.91952316e-02 -2.75164656e-02]
 [ 1.11361519e-02 -1.86868683e-02  2.05366164e-02  4.37329710e-03
  -2.93496214e-02  8.80874693e-03  4.66306731e-02 -2.76503637e-02
  -1.20661110e-02  4.47943434e-02 -1.33891031e-02  1.59440041e-02
  -2.49303356e-02 -3.74171361e-02  6.90961853e-02 -7.42443949e-02
   5.00776246e-02 -5.94861358e-02 -3.35345455e-02 -6.00990653e-02
   4.09081057e-02  4.46685478e-02 -2.95064747e-02  5.38223162e-02
   9.68316942e-03  7.62095973e-02 -1.94640569e-02  3.64332795e-02
  -2.23858990e-02 -4.69100177e-02  1.74098685e-02  7.07600340e-02
  -6.16592802e-02 -5.67063540e-02  4.50929180e-02  6.51020929e-02
  -1.55659392e-02  5.85222915e-02 -5.48450239e-02  4.85050157e-02
   1.24089420e-02  4.44471836e-04  1.24496222e-03  4.59568575e-02
   6.08847067e-02 -5.07860295e-02  1.76457539e-02  5.80327436e-02
   3.90437171e-02  7.04060122e-02 -2.47387514e-02  1.53467357e-02
  -7.40993768e-02  2.53422558e-03 -9.00091231e-03 -2.95289457e-02
   3.79832461e-02  4.11018133e-02 -1.25857443e-03 -7.21558183e-02
  -4.17668782e-02 -4.78873141e-02  6.92696124e-03  6.51012138e-02
   2.15921178e-02 -4.76793535e-02  7.69167393e-03  6.71029314e-02
  -1.86768919e-02 -6.73753172e-02  1.21989846e-02  4.58471850e-02
  -1.16138160e-03 -1.87917426e-02  3.45374644e-03 -1.05514601e-02
  -2.03981996e-04  4.11352292e-02 -3.24327461e-02  6.33706227e-02
   6.87091723e-02 -5.20793349e-02 -6.93293512e-02 -1.81430206e-02
   2.26086602e-02  3.59242558e-02  1.40702575e-02  7.17230216e-02
  -6.23894930e-02  4.71803918e-02  7.78881684e-02  5.02678379e-02
   1.59166604e-02 -3.40011790e-02  3.41906771e-02 -1.15479827e-02
  -7.27678835e-03  7.57538304e-02 -3.13868523e-02  2.98162326e-02
  -6.27062321e-02 -7.43171051e-02 -5.03022447e-02 -6.32898062e-02
  -8.12464207e-03  3.28549966e-02  1.07614174e-02 -1.56575069e-02
   5.63236102e-02  2.92844102e-02  6.74906448e-02 -6.64512366e-02
  -6.40492216e-02 -2.85615101e-02 -4.92606051e-02 -8.00429434e-02
  -4.65141982e-02 -4.12940010e-02  4.94577214e-02 -2.60311887e-02
   1.92482024e-03  3.61810476e-02 -6.26530573e-02 -4.13830131e-02
   6.36102781e-02  1.49247795e-02  2.37074569e-02 -6.08172119e-02]
 [-1.44316480e-02  6.62183240e-02 -3.09733041e-02 -6.02376610e-02
   4.00982723e-02  8.76500458e-03  6.29110411e-02  2.66035274e-02
  -1.61223039e-02 -7.59241208e-02 -1.70213729e-03 -1.66917145e-02
   2.35776603e-02  4.48150858e-02  4.31514531e-03  4.29528207e-02
   8.00374076e-02 -3.78959887e-02 -7.31006116e-02 -1.20753348e-02
  -6.85035884e-02 -4.97176871e-02 -6.07027486e-02  2.13123560e-02
  -3.13416608e-02 -3.76306474e-02  2.78407708e-02 -1.57919824e-02
   7.07195699e-03 -8.07069242e-02  7.33985379e-02 -8.02153870e-02
   3.97452712e-02 -7.54882321e-02 -4.87330779e-02  7.44834021e-02
  -1.32185370e-02  5.82354888e-02  2.92496234e-02  4.71555367e-02
   3.91811132e-02 -6.00113645e-02 -3.21695507e-02 -2.28895061e-02
   4.13196981e-02 -1.08628273e-02 -7.74824545e-02 -4.63823527e-02
  -5.63676655e-02 -3.39279063e-02  2.65698582e-02 -7.99988881e-02
  -9.95692611e-03  5.04497513e-02 -3.06667909e-02 -1.29725933e-02
  -2.38151103e-03  2.17001811e-02  7.88805708e-02  2.51254961e-02
  -4.82396409e-02 -2.02443972e-02  5.27867302e-02  4.99125794e-02
   8.04052874e-02  1.24106407e-02 -5.54180145e-02 -2.86843665e-02
   6.21024594e-02  7.19842687e-02 -5.26478812e-02  3.74431834e-02
   2.16128901e-02 -7.82597810e-02 -4.26845215e-02  3.79357487e-02
  -7.20667467e-02  1.43548995e-02  5.30241057e-02 -1.40496194e-02
  -7.96915591e-03 -2.43242830e-03 -6.03906885e-02 -4.54634912e-02
  -6.13453388e-02 -3.41737717e-02 -6.04730099e-03 -4.36665975e-02
  -4.12710644e-02 -1.39394924e-02  9.61639732e-03  9.18174535e-03
   1.50869861e-02  4.26850840e-02  2.88828164e-02 -2.33734883e-02
  -4.15669009e-02 -1.57532096e-02  3.25496867e-02  4.55808565e-02
  -1.23619139e-02  5.06554917e-02 -2.18800493e-02  4.00439724e-02
   6.82693049e-02 -7.89040700e-02 -5.40304184e-03  6.81974217e-02
  -4.05305810e-02  1.33614689e-02  4.93641272e-02 -5.63309789e-02
  -6.69007301e-02  4.52919230e-02 -1.08288452e-02 -1.42592117e-02
  -3.17251757e-02 -6.12598881e-02  3.69411632e-02 -7.93653652e-02
   1.86680332e-02  5.30329123e-02  5.33233359e-02  1.28134415e-02
  -3.24654095e-02 -4.51486632e-02 -5.88074215e-02  7.34062493e-03]
 [-6.81419596e-02  6.68756291e-02  7.03516677e-02  8.02773759e-02
  -8.45921040e-03  6.84870109e-02  4.73426357e-02 -6.81428090e-02
  -7.28678331e-02 -4.03169505e-02  4.49109748e-02  2.81079710e-02
  -6.24385737e-02 -6.98518753e-02  1.84725225e-03  8.68253410e-04
  -1.93655081e-02 -7.33077973e-02  4.10084724e-02 -3.74398008e-02
   7.03526959e-02 -7.39699230e-02  3.11190933e-02  4.54660133e-02
  -5.74442670e-02  4.39052358e-02 -9.52287763e-03  6.30502403e-03
   2.47388706e-02 -5.43594360e-05 -5.67485094e-02  5.89124858e-04
   5.60789481e-02 -4.96791266e-02 -2.40632445e-02 -4.17222455e-02
   7.62731582e-03  6.17362633e-02  1.01562440e-02 -4.08200175e-02
  -4.96061444e-02  7.58811459e-02  6.86043501e-03 -1.09948218e-03
  -6.85099661e-02  1.34354755e-02  7.52470642e-03 -7.58730099e-02
  -4.47307453e-02 -2.73605026e-02  1.56386867e-02  7.72722065e-04
   5.76664433e-02 -5.23363240e-02 -3.21704149e-03 -4.94566970e-02
  -6.77093863e-03 -4.40374017e-03  1.87300295e-02  2.35369951e-02
   1.99706629e-02 -5.25029600e-02 -7.65933618e-02 -6.54329211e-02
  -6.92689419e-02  2.02935562e-02  6.53951094e-02  5.67151606e-03
   1.96931511e-03 -6.61443919e-02 -7.49592707e-02 -1.71641111e-02
   3.34364027e-02  7.24003688e-02 -7.44253397e-02  5.10746911e-02
   6.22373000e-02  1.22237206e-02 -4.40788716e-02 -6.51192516e-02
   5.23911938e-02 -2.60512047e-02  6.57077953e-02 -7.65900314e-02
  -5.48218749e-02  2.69556195e-02  5.44100478e-02 -3.42668593e-03
   1.86932534e-02 -5.58233261e-02 -4.19755988e-02  3.97717506e-02
   4.35598269e-02  2.01944858e-02 -6.99717104e-02  7.72969052e-02
   7.55767897e-02  3.78065705e-02 -3.83994058e-02 -6.60392866e-02
  -6.48377240e-02 -2.43651569e-02 -4.85659949e-02  6.64658844e-04
   2.53314152e-02  6.14858940e-02 -6.82129711e-02  5.66173419e-02
   6.40922710e-02 -7.39840418e-02 -3.57696861e-02 -7.40756094e-02
  -1.17681324e-02 -3.03027295e-02 -6.60762936e-03  6.69276938e-02
   5.80979511e-02  3.72449681e-02 -3.31983678e-02  7.76611641e-02
   6.78127781e-02  2.16179788e-02 -3.52137685e-02 -5.38753234e-02
   3.57351676e-02  3.21727619e-02 -6.46860525e-02  3.89487073e-02]
 [ 3.79619896e-02  7.11472109e-02 -2.65608467e-02  1.06089935e-02
  -5.85313886e-02  5.59475943e-02  1.08979419e-02 -3.52364779e-03
   7.52029195e-02  4.15813923e-03 -1.73065588e-02  7.26464391e-03
   6.60242140e-03  4.46732119e-02  5.02296463e-02  4.36505824e-02
   5.13886735e-02 -7.68503845e-02  3.45230848e-03 -1.47929713e-02
   5.95843121e-02  7.63968602e-02  2.79666036e-02 -6.16700724e-02
  -2.51817703e-03 -2.43621580e-02  2.60518640e-02  4.43548635e-02
  -4.41792160e-02 -3.08993347e-02  1.50579438e-02  4.09677029e-02
  -4.42008376e-02  2.66315490e-02  4.64791730e-02 -4.42437679e-02
  -4.31697965e-02 -7.08706900e-02  6.31654263e-03 -3.05441096e-02
  -7.89441243e-02 -6.03896044e-02 -1.30963400e-02 -7.82854035e-02
   1.68513730e-02 -6.16642497e-02 -4.79551554e-02 -4.70951796e-02
   5.00909984e-03  5.10786995e-02 -1.57358423e-02  5.89058325e-02
  -5.89255244e-03 -2.14866884e-02  1.62502825e-02 -2.37101316e-03
  -8.09409544e-02 -5.88534027e-03  2.38435790e-02 -1.03858486e-02
  -1.95519626e-03  4.22105193e-02  7.93974772e-02  6.66140988e-02
  -5.25875837e-02  8.10284838e-02  4.40803170e-03  4.55873087e-02
  -2.68077962e-02 -5.29088080e-03  1.93737671e-02  1.18307248e-02
   9.00122523e-03 -2.12151594e-02 -6.57686517e-02 -2.08654851e-02
  -1.77757293e-02  3.30412388e-03 -3.64163592e-02  1.66587830e-02
   7.99516812e-02  5.91529235e-02  3.49443853e-02  6.31751642e-02
  -3.71009111e-03  4.80697379e-02 -7.69983828e-02 -7.88963214e-02
  -7.40726665e-02 -1.97575726e-02 -4.93598878e-02 -1.83715597e-02
  -3.63309607e-02 -7.50924200e-02 -7.23804906e-02  4.86490652e-02
  -6.87285513e-02  4.78792116e-02 -2.91572437e-02  4.71204892e-02
   7.31105432e-02  1.03476942e-02  5.38452491e-02 -3.31164338e-02
   2.19807252e-02 -5.26993796e-02  7.57698342e-02  3.97177562e-02
   6.61639050e-02  3.24389338e-02 -6.81479722e-02  7.65735582e-02
   5.69123402e-02  1.06805637e-02 -6.48895875e-02 -5.31987101e-03
   4.08753455e-02  6.46080002e-02  7.45398030e-02  1.14111602e-03
   6.58426955e-02 -7.74411336e-02 -2.14557648e-02 -5.05164713e-02
  -3.80181298e-02 -4.90822308e-02 -5.12663163e-02 -7.24306330e-02]
 [ 3.57942656e-02  7.19587281e-02  1.92211643e-02 -7.85444677e-03
   3.55340689e-02 -7.94291049e-02 -7.44735301e-02  3.48512158e-02
   4.25969213e-02 -1.22343004e-02 -3.59350108e-02 -2.13243067e-04
  -4.32468988e-02  5.44092134e-02 -8.66556913e-03 -5.55961207e-02
   6.86376542e-03  7.60745630e-02  2.49203593e-02  5.09993732e-03
  -6.11936711e-02  7.14357123e-02  1.86799094e-02  6.97050989e-03
   3.74794826e-02  1.26292557e-03 -1.10657066e-02 -3.24733742e-02
  -2.46542841e-02 -3.76911461e-03 -7.37529695e-02  2.50815079e-02
  -5.60345799e-02 -5.82599938e-02 -7.73999393e-02  3.76916826e-02
   3.28406841e-02  1.92547217e-02  1.22278780e-02 -6.58242255e-02
  -6.61372393e-02 -5.83411381e-02  8.36331397e-03  1.23111084e-02
  -1.06602758e-02  3.63583267e-02 -6.73506558e-02 -7.20191374e-02
   4.95812669e-02 -1.89115033e-02 -7.26565868e-02 -7.53622055e-02
  -6.15241230e-02  3.36796045e-03 -2.66588889e-02 -2.36262977e-02
  -5.64083904e-02  3.34982872e-02 -7.38210976e-02  6.34776428e-02
   7.28139207e-02  4.15691808e-02  4.83660474e-02  4.87478152e-02
  -1.47959590e-03  7.98406526e-02  3.49869505e-02 -7.03946054e-02
  -1.74938142e-02 -2.17188820e-02 -1.49024054e-02  2.51999348e-02
  -8.03562030e-02 -1.94034725e-03 -3.06960940e-03 -4.14284207e-02
  -2.64199451e-02  7.52207413e-02 -4.66022268e-02 -5.90389594e-02
  -4.81129177e-02 -5.84197268e-02  3.61817330e-03 -4.21103463e-02
   7.51513913e-02  4.30105627e-02  2.97979638e-02 -5.95458150e-02
  -5.94356433e-02  5.20024821e-02 -6.36195093e-02  1.96484476e-02
   3.68221551e-02 -7.06222132e-02  6.72645047e-02 -2.69938670e-02
  -5.03219888e-02 -3.46223041e-02  4.28438261e-02  1.66815072e-02
  -7.98876584e-03 -5.05442023e-02  1.20305717e-02 -2.44874880e-02
  -2.08835267e-02  1.83821395e-02 -4.37192619e-03  1.28980055e-02
   6.35076091e-02 -6.73111528e-02  8.06469396e-02  5.41061983e-02
   7.65279606e-02 -7.70245269e-02  6.30874112e-02 -2.03079991e-02
   2.34805271e-02 -4.26292531e-02 -1.75311342e-02 -3.82545814e-02
   3.25766951e-03  3.69450450e-03 -7.17271492e-02 -5.75461239e-03
  -8.03080127e-02 -1.08011961e-02 -1.46548152e-02 -7.32954070e-02]
 [ 5.78869954e-02  4.73990962e-02  2.96480954e-03 -2.26724930e-02
   3.70708629e-02  4.25704792e-02  5.46326563e-02 -4.89552729e-02
  -1.37705877e-02  2.66268477e-02  2.53814012e-02 -2.20750570e-02
  -2.94857621e-02  4.12034169e-02 -1.69682205e-02 -7.82149136e-02
   6.01228252e-02 -1.18702725e-02  3.20091099e-03 -5.82076050e-02
   9.87084955e-03 -2.88859457e-02  4.44836989e-02 -7.82592967e-02
  -2.90054381e-02  5.44978753e-02  5.29778078e-02  7.32550099e-02
  -5.23138940e-02 -4.22991477e-02 -6.87811673e-02  5.33115193e-02
  -6.99597448e-02  7.79971704e-02  5.90196624e-02  1.71493217e-02
  -6.34198189e-02 -3.95918228e-02  5.41735366e-02 -6.24714680e-02
  -6.44147396e-03  2.82730386e-02  3.73044685e-02  4.14499268e-02
  -2.34399736e-02 -7.92316645e-02  3.28043327e-02 -5.60614802e-02
  -2.91058235e-02  7.42166564e-02 -7.01775104e-02 -3.27844173e-03
   6.42809793e-02  3.11300382e-02  4.48737293e-03 -6.37702271e-02
   5.22860959e-02  2.17042863e-02 -3.17389853e-02 -1.98135562e-02
   7.06970915e-02  1.84951276e-02 -2.61057168e-02 -4.04160470e-03
  -3.20161022e-02 -4.59955670e-02  2.02376470e-02 -4.26489115e-03
   1.01417229e-02 -3.72681133e-02  4.98256758e-02  5.73662147e-02
   2.00890526e-02 -6.26222864e-02 -3.93484309e-02 -6.81349635e-02
   1.18666738e-02 -9.76359844e-03  6.74520656e-02  2.57241726e-02
   4.31658924e-02 -7.40700364e-02  2.04044208e-02 -5.21874204e-02
   3.60646918e-02 -7.45309293e-02  2.82295048e-03  4.37428504e-02
  -5.07948697e-02 -6.75947219e-02  6.04052320e-02 -5.84044307e-02
   7.74385408e-02  8.04562643e-02  3.24404240e-02  1.82415247e-02
  -4.33674343e-02  7.41429254e-02 -6.64970651e-02 -6.68312460e-02
   5.20631671e-03 -2.15784274e-02  7.65225217e-02 -7.04507008e-02
  -5.24353758e-02 -6.05046451e-02  6.87673166e-02  6.95805624e-02
  -2.88011506e-02 -7.03407452e-02 -4.79209274e-02 -1.86892115e-02
   5.93929067e-02  4.15568650e-02  7.30485395e-02  5.77636063e-04
  -6.44110814e-02 -2.17898339e-02 -7.30807334e-02 -4.70858216e-02
  -6.73155934e-02 -7.86087215e-02  6.75351173e-03 -4.16341983e-02
  -7.70233646e-02  3.20040733e-02  7.26684555e-02 -2.27143615e-03]
 [-3.71075496e-02 -4.96009588e-02 -7.52687603e-02  4.86448333e-02
  -3.77488844e-02  3.64878550e-02 -5.11899665e-02  2.03984454e-02
   3.60170826e-02 -5.77980578e-02  3.73350605e-02 -2.93135568e-02
   5.14791086e-02 -3.23268883e-02 -3.57576758e-02  1.26200169e-03
   6.54672459e-02  3.13246772e-02 -2.56146416e-02  1.02417991e-02
   4.75420132e-02 -5.67466356e-02 -1.05365291e-02 -3.99518833e-02
   8.92288238e-03 -9.02035087e-03  5.52006289e-02  3.09242830e-02
  -3.30202244e-02 -5.00039533e-02 -7.71924779e-02 -3.56073976e-02
   7.73217157e-02  3.72920185e-02  1.25449672e-02  1.24695078e-02
   4.97781485e-03 -4.39563021e-02 -2.73092389e-02 -3.72892879e-02
  -5.74949682e-02 -2.39833444e-03  3.29772756e-02 -2.82063596e-02
  -7.31354207e-02  3.69928926e-02  1.58145130e-02  7.48332590e-03
  -1.46666691e-02 -7.90565908e-02  4.54605743e-02 -7.06855506e-02
   5.81871793e-02 -1.74358934e-02  5.09388670e-02  2.23125517e-02
  -8.37491453e-03 -3.24485824e-02 -6.12189248e-02 -1.41850114e-03
   3.89034152e-02 -1.55245140e-02 -1.89334527e-02 -2.82508768e-02
  -1.64949298e-02  6.52446076e-02 -1.69928521e-02  1.09855458e-02
  -1.26720965e-02 -7.48453736e-02 -4.84464653e-02  7.02278093e-02
  -4.65901233e-02 -2.25297771e-02  5.46216592e-02  3.48570347e-02
  -4.28051539e-02  3.25940698e-02  2.34863907e-03 -1.66768283e-02
  -1.55605450e-02 -3.61189917e-02  6.38025627e-02 -1.73030049e-02
   1.70238912e-02 -1.96397267e-02 -6.76606670e-02  6.28367066e-03
   8.00560787e-02  4.48273048e-02  6.50749281e-02 -1.06241703e-02
   3.45136598e-02  7.48346820e-02 -7.84078538e-02 -5.84441498e-02
  -7.75142312e-02 -1.70823187e-03  4.22350243e-02  7.30850026e-02
  -4.73421887e-02  7.23175630e-02  6.44012317e-02 -2.53922716e-02
  -6.49062395e-02  4.78074029e-02  6.89103529e-02 -7.07333907e-02
   1.41973123e-02  6.42793700e-02 -7.64079392e-03 -6.64403066e-02
  -3.18712965e-02 -5.31890243e-02  2.01758221e-02 -4.22666967e-02
   6.80701509e-02 -5.79185560e-02  7.37417117e-02 -5.89275323e-02
   1.60591304e-03 -3.89343202e-02  5.31383976e-02  9.50080901e-03
  -6.72873259e-02 -6.74581230e-02 -3.23293619e-02  2.15489566e-02]
 [-3.78497131e-02  7.18283430e-02 -8.39973427e-03 -2.48767342e-02
  -5.86029217e-02  6.20329045e-02 -1.47659332e-03 -7.64191896e-03
   4.06699777e-02  8.39591995e-02  7.63875991e-02  3.77071910e-02
  -8.73754099e-02  4.15508933e-02 -3.64356376e-02 -8.99334205e-04
  -5.31923547e-02  9.81763750e-02 -6.07942492e-02 -4.99824658e-02
  -6.40100092e-02 -1.08549120e-02  3.66569310e-03 -8.94155074e-03
   7.64038563e-02  3.27977203e-02 -3.47313657e-02 -2.54967175e-02
  -1.56862438e-02  2.60553174e-02 -4.45902608e-02  8.64901468e-02
   5.01053892e-02 -6.17288351e-02  1.50590464e-02 -5.59979230e-02
  -1.07136182e-02 -9.00451690e-02  2.08054036e-02 -3.78871448e-02
   7.52045959e-03  1.40143577e-02  9.41541716e-02  3.76423448e-02
   6.19411990e-02  1.87059343e-02  2.36257538e-02  6.90478608e-02
   2.04888768e-02 -4.69886661e-02 -5.22910915e-02  7.69477114e-02
  -5.64302988e-02 -4.24708501e-02  5.96095435e-02  1.19174533e-02
   5.28058261e-02  3.82954590e-02  6.10707439e-02 -1.15737403e-02
   6.63123950e-02 -2.25725435e-02  6.61137179e-02 -9.61763412e-03
   6.62892237e-02 -7.77254701e-02  5.49130999e-02  4.16778587e-02
   5.25001176e-02  1.00073852e-01 -6.26662746e-02 -5.00208922e-02
   2.61083115e-02  3.97516713e-02 -2.07293499e-02 -4.29974720e-02
  -8.31224620e-02  1.53002888e-03 -5.03945649e-02  8.28113258e-02
   6.12632856e-02  6.36229888e-02  4.59706485e-02 -7.30476156e-02
  -8.92547220e-02  6.07404821e-02 -3.55177699e-03  5.36032952e-02
   3.00965924e-02  3.31173241e-02 -8.83609708e-03 -1.64077133e-02
  -5.13540544e-02  4.38105315e-03  3.69301736e-02  6.36216924e-02
  -3.63769047e-02  2.13582776e-02  1.96124520e-02  5.19418940e-02
   5.84071949e-02  6.70436397e-02  4.97045554e-02  7.38108084e-02
  -5.04068937e-03  4.61318418e-02  6.26308993e-02 -4.88267094e-03
   1.00499131e-01 -6.19893596e-02 -1.43507579e-02  2.29208563e-02
   3.11687589e-02  6.20044023e-03 -7.36398920e-02 -6.56660423e-02
   4.00305912e-02  9.65170264e-02 -5.71167134e-02  2.08688136e-02
   9.27147716e-02  1.70430169e-02  1.16477152e-02 -7.80333066e-03
  -7.32960999e-02 -5.01814932e-02  2.27186084e-03 -3.56211290e-02]
 [-3.46516818e-02 -2.22046189e-02 -3.86892147e-02  1.30523490e-02
   1.49375172e-02 -1.05547845e-01  4.90897968e-02 -8.00126418e-02
   5.55350520e-02  8.65416974e-02 -1.05577875e-02  3.72301750e-02
  -4.91022989e-02  3.18993852e-02  5.45072630e-02  5.40450364e-02
  -1.64382309e-02 -1.48316519e-02  8.10974613e-02  3.95808779e-02
   3.35215777e-03  1.82062015e-02 -2.49903239e-02  6.21574298e-02
   1.38244918e-02 -5.66112213e-02 -1.98994149e-02 -5.84381185e-02
  -4.35951240e-02 -4.94824797e-02  3.96795906e-02  1.10493526e-01
  -3.51258367e-02  5.52465534e-03  7.03820363e-02 -5.97384525e-03
   1.22638792e-02 -4.21981066e-02  3.71063687e-02  2.46727057e-02
  -8.42648521e-02  3.50493640e-02 -6.06040051e-03  8.44624937e-02
   1.45545769e-02 -6.64489344e-02 -3.56928557e-02  4.46021631e-02
  -1.01537444e-01  4.74651437e-03 -3.48015800e-02 -7.33658746e-02
   4.66795936e-02 -6.00224137e-02  7.54614770e-02 -7.00472817e-02
  -2.41279658e-02 -3.05602457e-02  3.31408456e-02 -1.80337217e-03
  -7.82932267e-02  6.47432506e-02 -5.16550541e-02  3.70847955e-02
   1.81622580e-02 -5.02276681e-02  7.79036507e-02  1.88918933e-02
  -3.61239575e-02  3.37210223e-02  6.95245748e-04  9.13751423e-02
  -2.81988215e-02  3.78987566e-02  6.55209348e-02  2.40930710e-02
   2.83621382e-02 -4.53802608e-02  7.41640404e-02  5.75477118e-03
   6.21571466e-02  9.66066495e-02  2.18990468e-03 -1.02998666e-01
   4.92341518e-02 -6.95791990e-02  3.54428291e-02 -2.53493767e-02
  -3.11006512e-02 -6.90839440e-03  1.05183618e-02 -4.69505601e-02
  -2.92507261e-02  8.83814171e-02 -7.85876587e-02  1.22122318e-01
  -1.13329053e-01  3.25793438e-02  3.57149914e-03  5.09132538e-03
  -7.49584511e-02  3.89615893e-02 -9.08763409e-02 -1.03487074e-02
   3.76265608e-02 -2.62997188e-02  5.24205789e-02 -6.60516620e-02
  -4.19595605e-03  3.05392798e-02 -4.84815314e-02  3.08642499e-02
  -8.70768502e-02  2.67495830e-02  1.23771727e-02  3.81384343e-02
  -3.28549072e-02  7.25866063e-03  7.37356171e-02  3.20220143e-02
   9.14751831e-03 -6.81710243e-02  8.70840475e-02 -1.75533853e-02
  -2.53442512e-03 -3.67275327e-02  1.36117265e-02 -5.59383333e-02]
 [-1.91641785e-02  3.56652476e-02 -1.40174940e-01  1.03890531e-01
   2.11359605e-01 -1.16853088e-01  3.91979069e-02  4.63935770e-02
  -4.27843519e-02  1.66526407e-01 -7.82632828e-02  1.43227130e-01
  -1.14617437e-01 -1.38828948e-01  4.56729010e-02 -5.78119271e-02
   5.12613021e-02  1.54022440e-01  1.69814080e-02  8.92885402e-02
   2.09032297e-02  7.49476850e-02  1.80875026e-02  1.93679601e-01
   7.22479299e-02 -6.08416907e-02  1.94397196e-02  6.16182759e-02
  -3.55879255e-02 -4.27751988e-02  1.68573156e-01  1.25250489e-01
  -1.62506580e-01  2.76878867e-02 -7.73265138e-02  7.00768679e-02
  -1.49256647e-01 -1.82063982e-01  3.73940952e-02 -8.65228474e-02
  -8.76960307e-02  1.88908651e-01  9.07769278e-02  1.86605081e-01
   5.07332161e-02  4.47044000e-02  3.33135501e-02 -5.77065498e-02
  -7.99339190e-02 -8.49056616e-02 -1.13286562e-01  1.84232630e-02
  -2.58201752e-02 -1.00271450e-02  8.35537985e-02 -1.39677763e-01
   7.15902448e-03  1.14267634e-03  2.27403082e-02 -1.26007527e-01
  -4.05573137e-02  8.68055969e-02 -7.69307315e-02 -1.36099309e-01
  -4.38295007e-02 -1.84610542e-02 -4.68438379e-02  1.15848079e-01
  -9.32894200e-02  1.38102636e-01  1.46224037e-01  2.39658225e-02
  -8.66547823e-02  6.76798001e-02 -4.44740653e-02  6.25808835e-02
  -4.20372486e-02 -1.39291063e-02  7.72275999e-02  9.31311622e-02
  -1.19354568e-01  1.20306045e-01 -1.07470080e-02 -1.47326887e-02
  -1.50291577e-01 -4.34778184e-02  1.99034587e-01  3.08762882e-02
  -4.75020483e-02  6.98133558e-02  1.14370421e-01 -7.28181601e-02
   6.10453114e-02  1.09197095e-01 -1.30025759e-01  1.79733858e-01
  -1.33041456e-01  8.36583227e-02  6.23834729e-02  9.86930653e-02
  -1.25277326e-01  3.78354266e-02 -2.16709435e-01  6.87673464e-02
  -7.68303424e-02  3.22147608e-02  6.47903457e-02  1.94294285e-02
   3.78668867e-02 -7.86795318e-02 -1.28408596e-01  1.05086707e-01
  -8.57185423e-02  7.41843209e-02 -8.38686600e-02  2.43917312e-02
  -4.57312129e-02 -1.04858186e-02  7.77675956e-03 -4.05391827e-02
   1.50594532e-01 -5.86103424e-02 -3.87368500e-02  8.52833316e-02
  -3.10578779e-03 -2.53705811e-02  6.74977601e-02  1.37367528e-02]
 [ 1.96633879e-02 -2.16727834e-02 -5.61901778e-02  2.06956789e-01
   1.21256314e-01 -1.15577020e-01 -8.53122249e-02 -4.84830923e-02
  -7.99392443e-03  8.53478163e-02 -2.19103880e-03  1.92356780e-01
  -1.62545025e-01 -1.51905477e-01  3.92945036e-02 -1.09408550e-01
  -7.22627267e-02  7.92813897e-02  4.84523848e-02  5.98840751e-02
  -4.83480841e-02  1.67249843e-01  5.94445877e-02  1.16637595e-01
   1.65094346e-01 -1.13439769e-01  5.88740893e-02 -1.91914625e-02
   7.36564025e-02 -4.82791886e-02  8.03204775e-02  3.56740877e-02
  -2.23699391e-01  1.11446992e-01  8.65541995e-02  1.01795793e-01
  -1.14619710e-01 -1.87490389e-01 -1.02396719e-01  3.57564129e-02
  -3.46044786e-02  8.61697569e-02  1.00105479e-01  1.02245048e-01
  -4.56277467e-03  9.70653445e-02 -3.54134962e-02 -6.59355894e-02
  -4.00978476e-02  2.40694415e-02 -8.13462362e-02 -8.58379081e-02
   7.73683470e-03  3.86534329e-03  6.01215735e-02 -1.75718307e-01
  -8.08122680e-02  2.42874734e-02 -1.36307348e-02 -9.04183611e-02
  -1.07489318e-01  8.49924311e-02  5.42239025e-02 -1.80425167e-01
   2.77467421e-03 -9.21154469e-02  4.38782275e-02  2.28382833e-02
  -9.24367905e-02  1.78125471e-01  1.29935801e-01  1.11818776e-01
  -4.19980884e-02  2.89808580e-04  9.46658403e-02 -3.22440676e-02
  -5.28295301e-02 -2.55577695e-02 -2.43809149e-02  1.17969140e-01
  -1.77215829e-01  1.74291447e-01 -9.23249871e-02 -1.71134584e-02
  -7.43185878e-02  4.32868972e-02  1.21621147e-01 -1.35741616e-02
  -4.49844375e-02  8.32547322e-02  4.22443189e-02  8.12102761e-03
   5.69097921e-02  2.25930974e-01 -2.21970975e-01  1.60220072e-01
  -2.17518032e-01  1.26903310e-01  1.08026899e-01  7.28571266e-02
  -1.16851673e-01  4.57020476e-02 -2.30865434e-01  6.18607253e-02
   4.32512211e-03 -3.95032093e-02  1.98378712e-02  4.92056981e-02
   1.21782981e-01 -8.52062926e-02 -4.59885299e-02  1.40621752e-01
  -1.18793704e-01  2.20955789e-01 -1.90223396e-01  5.65579534e-02
   9.52834040e-02  7.08085969e-02  1.96733326e-02 -6.45541772e-02
   2.19713271e-01  1.37238745e-02  1.15772123e-02  8.48355740e-02
   3.69706564e-02  3.42318676e-02  1.02404118e-01 -7.43800029e-02]
 [-1.39831960e-01 -4.31066304e-02 -1.38286144e-01  1.37947321e-01
   1.62021875e-01 -2.02833474e-01  2.99957152e-02  1.00871719e-01
   4.76081781e-02  7.97532275e-02 -2.30337828e-02  1.71164826e-01
  -8.09418112e-02 -8.45913775e-03  7.02736750e-02 -3.75434309e-02
  -4.00882289e-02  9.44539309e-02  3.50086354e-02  3.83983478e-02
   1.90663487e-02  6.54411688e-03  9.09841359e-02  1.13501757e-01
   5.01843430e-02  2.72395695e-03 -3.13700573e-03 -6.31904975e-02
   1.77088156e-02 -4.19763140e-02  1.30999610e-01  9.93295982e-02
  -1.86525863e-02  1.34674594e-01 -5.25989057e-03  1.35731861e-01
  -3.85011621e-02 -7.12323785e-02 -1.76855013e-01  2.20669005e-02
  -1.29243001e-01  4.81005982e-02  1.34071037e-01  6.45878538e-02
  -2.81637292e-02  7.61373788e-02 -4.21414189e-02 -9.59015340e-02
  -9.69033614e-02 -3.75931896e-02 -1.66139618e-01 -9.11210552e-02
  -7.67879114e-02  1.15794174e-01  1.13303950e-02 -8.89100879e-02
   6.15544766e-02  1.04581520e-01  1.03358977e-01  1.38355617e-03
  -2.95032617e-02  2.02538557e-02 -7.04282522e-02 -1.22573204e-01
   7.50104412e-02  7.49465078e-02  6.94084167e-02  7.89044984e-03
  -2.58026905e-02  1.28669798e-01  5.20563386e-02  1.23637401e-01
  -9.80547145e-02  3.38027328e-02  2.58098785e-02  3.80362310e-02
  -4.68151793e-02  9.82771665e-02 -7.41934776e-02  5.24995066e-02
  -1.29530448e-02  1.44866034e-01  1.60513390e-02 -4.45115156e-02
  -8.14011842e-02  6.23348542e-02  1.48003295e-01  2.24913354e-03
   8.98216516e-02  1.01499833e-01  1.20631941e-01  6.14946000e-02
   7.85524473e-02  2.47628286e-01 -1.29466295e-01  6.29166141e-02
  -1.55802011e-01  1.47110000e-01 -1.78247113e-02  5.09715118e-02
  -1.57740548e-01 -4.63740490e-02 -1.96793769e-02 -3.55634652e-02
  -6.27655312e-02 -6.54316694e-02 -1.17566735e-02  5.93459196e-02
   1.64047807e-01 -7.44032860e-02 -5.49712405e-02  6.20328709e-02
  -1.93114560e-02  1.62870035e-01 -3.03172320e-02  1.11107640e-01
   5.25459461e-02 -3.37627940e-02  5.77697530e-02 -2.38968432e-02
   1.02632448e-01  4.47562858e-02  9.55180004e-02  1.46856338e-01
  -1.37100546e-02 -7.06838146e-02  2.55436540e-01 -1.23880822e-02]
 [-1.67750418e-02 -2.26168260e-02 -1.14790946e-01  9.53181460e-02
   5.77016249e-02 -4.64952551e-02 -7.20363185e-02  4.87370528e-02
   9.47207734e-02  5.85057884e-02  1.71410404e-02  8.26771855e-02
  -1.25716016e-01 -1.23986624e-01  9.94429272e-03  3.14534418e-02
  -5.87038770e-02  7.28160702e-03 -1.55022778e-02  5.71342818e-02
   6.65459335e-02  8.31491500e-02  4.39173765e-02  2.13096943e-02
   1.22658983e-01  6.17615953e-02  8.38463604e-02 -5.86507991e-02
  -4.63709682e-02 -5.90656213e-02  1.36469096e-01  1.62572097e-02
   3.70403305e-02  9.72089767e-02  2.15530172e-02 -5.29952173e-04
  -1.05782099e-01 -1.68685898e-01 -1.86088637e-01 -7.40341321e-02
   9.41571873e-03  8.98006707e-02  2.50124276e-01  8.01951885e-02
  -8.49398151e-02  1.01492882e-01 -3.76310870e-02 -1.14473268e-01
  -5.62884808e-02 -6.65433407e-02 -1.40182942e-01 -1.21226914e-01
  -1.24847274e-02  1.39641181e-01  5.48805408e-02 -2.87971143e-02
   5.08741923e-02 -1.99469123e-02  6.76927492e-02  1.95807554e-02
   4.56493385e-02  7.51879737e-02 -6.17394559e-02 -7.79549256e-02
  -8.46387446e-03  1.77267015e-01  1.32073313e-01 -7.86584914e-02
   4.38911915e-02  1.81468591e-01  1.49811476e-01  1.12084106e-01
  -4.83220033e-02  3.84378172e-02 -2.77442746e-02 -7.36562833e-02
  -9.51619744e-02 -1.67565513e-02 -6.07255138e-02  5.65462522e-02
  -8.38161446e-03  1.51032209e-01 -9.45200771e-02 -6.76274672e-02
  -1.83105782e-01  6.11414388e-02  1.43664673e-01  9.79846418e-02
   4.01612148e-02  1.49440402e-02 -1.04497196e-02  8.31460673e-03
  -6.80340603e-02  2.40398929e-01 -6.48944899e-02  7.59306923e-02
  -2.02577841e-02  1.12000264e-01  4.02361676e-02  1.11387493e-02
  -3.49634960e-02 -7.34651014e-02 -1.08675264e-01 -5.45123853e-02
  -6.31339327e-02  4.41073626e-03 -1.21937163e-01  3.78146879e-02
   1.46622732e-01 -7.14058205e-02 -9.16488692e-02  1.20030716e-01
  -1.08715855e-01  1.32971182e-01 -2.89134458e-02 -8.03285837e-03
  -3.80217656e-02  4.65696864e-02 -6.50528371e-02  1.82156218e-03
   1.90673366e-01  4.58372049e-02 -5.81050031e-02  1.10926189e-01
  -1.01204582e-01 -1.37194861e-02  2.69662559e-01 -5.14377616e-02]
 [ 1.19202794e-03 -1.25585750e-01 -1.09041091e-02  2.17296183e-01
   2.35937923e-01 -1.01050623e-01  4.12629619e-02  7.42450655e-02
   1.85256183e-01  1.34398147e-01  9.18633491e-02  3.10123742e-01
  -1.86690092e-01  4.05599549e-02 -9.33879986e-02 -1.61761895e-01
  -5.52092791e-02  1.44254386e-01  2.00510353e-01  5.48385680e-02
  -6.84036613e-02  5.36665469e-02 -6.00583069e-02  2.75569916e-01
   1.54364586e-01 -9.08353925e-02  2.65926626e-02 -1.09038327e-03
   8.00679326e-02 -2.25348845e-02  1.40901566e-01  1.08176120e-01
  -8.82880539e-02  3.07104886e-01  6.03066497e-02  6.16088957e-02
  -2.37443268e-01 -1.69018745e-01 -2.27363527e-01 -3.16240340e-02
  -1.82848185e-01  1.76817089e-01  3.12624015e-02  1.49512902e-01
  -1.24878027e-01 -3.81906144e-02 -5.96534498e-02 -1.18543528e-01
  -1.66864499e-01 -6.87060803e-02 -2.09110141e-01  8.71555582e-02
  -9.61254388e-02  1.26733676e-01  1.15492918e-01 -4.87882756e-02
   6.25022827e-03  1.43751428e-01 -1.30349785e-01  3.69616270e-01
  -6.77728876e-02  1.34977801e-02 -1.05198495e-01  9.03202966e-02
   2.41884757e-02  2.34679654e-01  2.72589713e-01 -8.85416716e-02
   1.33507829e-02  2.41944104e-01  2.79742211e-01  1.87792778e-01
  -1.89434011e-02 -3.32694463e-02  3.07814516e-02  5.53932339e-02
  -7.85727277e-02  4.36733365e-02 -1.97674885e-01 -4.54650968e-02
  -1.06368273e-01  1.61598280e-01  5.33454753e-02 -1.19762897e-01
  -1.48580119e-01  4.26963419e-02  2.18874797e-01  1.53913602e-01
  -3.52718905e-02  2.17308044e-01 -1.26513559e-02  1.73439726e-01
  -7.61991069e-02  2.20641300e-01 -7.37203062e-02  1.83245877e-03
  -8.17384049e-02  2.04841688e-01 -1.00493163e-01 -1.32069662e-01
  -9.98209044e-02  7.58168427e-03 -6.49702922e-02 -2.75064826e-01
  -1.60997570e-01  7.84476474e-02 -4.06563990e-02  1.03061730e-02
   1.67734191e-01 -1.22167133e-01 -5.97418621e-02  6.86449707e-02
  -5.49279898e-02  6.18239082e-02 -1.40139207e-01  4.96055447e-02
  -1.83799956e-02  2.65024692e-01  4.75696698e-02 -1.45107642e-01
   2.79759824e-01 -3.66151668e-02  1.79296732e-01  2.62431860e-01
  -8.35699663e-02 -1.26970753e-01  3.93077910e-01 -4.88827564e-02]
 [-1.71204973e-02 -8.81952420e-02 -9.80276242e-02  2.27032572e-01
   2.16706410e-01 -1.26359612e-01 -3.06602661e-03  1.40859544e-01
   3.78578864e-02 -3.34318653e-02  2.15427615e-02  1.12272665e-01
  -1.69853613e-01  1.69894800e-01 -5.14861159e-02 -2.33362749e-01
  -3.96111421e-02  5.88553287e-02  1.71728998e-01 -6.85867444e-02
   2.15259597e-01 -1.82407955e-03 -1.24935627e-01  4.25001264e-01
   1.82679892e-01 -2.10152820e-01  6.36370778e-02  8.93586036e-03
   1.83514487e-02 -1.75121009e-01  8.46884847e-02 -4.04065549e-02
  -7.35751167e-02  8.19313973e-02  3.61859500e-02  3.04655284e-01
  -9.47369635e-02  1.02672666e-01 -2.49354184e-01  4.68742438e-02
  -6.98356256e-02  3.89077693e-01 -1.76652685e-01  2.17725188e-01
  -2.01551452e-01 -7.50933308e-03 -4.27572578e-02 -1.68343917e-01
  -5.37122414e-02 -1.26673162e-01 -3.23989421e-01  1.33368775e-01
  -4.46129292e-02  1.55090749e-01  1.21836975e-01  2.22246870e-02
   6.25083819e-02  1.56427935e-01 -2.14391693e-01  3.83648366e-01
  -1.07434399e-01 -1.28192425e-01 -1.04124106e-01  1.13664024e-01
  -5.81587814e-02  2.50490904e-01  7.90931191e-03  2.23311391e-02
   5.85727952e-02  2.03107074e-01  2.03281701e-01 -3.62958983e-02
   5.44728376e-02 -3.83426584e-02  1.25300393e-01  2.07235560e-01
  -2.56230205e-01 -2.97098048e-03 -2.39783451e-01 -1.07981846e-01
  -1.05920531e-01  2.49025509e-01 -7.12663904e-02 -6.39849156e-02
  -2.13450894e-01  1.03885211e-01  3.41386020e-01 -8.07022601e-02
  -1.17166340e-02  3.37276518e-01  2.05940902e-01 -4.20409739e-02
  -2.92690843e-02 -5.92476055e-02 -2.26516172e-01 -1.82748303e-01
   5.00712497e-03  9.22627375e-02 -1.30702704e-01 -6.45803511e-02
   1.98404983e-01 -2.32125688e-02 -1.72938500e-02  2.26027519e-02
   1.03025779e-01 -3.76550369e-02 -4.44825552e-02 -8.77320543e-02
   1.13510206e-01  1.34128481e-01 -8.98789167e-02  7.30513688e-03
  -1.33685946e-01  7.44611770e-02 -2.47646153e-01  8.25812593e-02
   5.72255254e-02  2.79119611e-01  2.92268991e-02 -1.35744900e-01
   2.56086141e-01 -4.76519093e-02  1.95726603e-01  2.70478636e-01
   7.66497031e-02 -1.46027386e-01  3.93325567e-01 -2.90872343e-02]
 [ 4.40550186e-02 -3.63942385e-02 -1.10614404e-01  3.95553350e-01
   3.66942048e-01 -1.53020605e-01 -1.14838868e-01 -6.63226321e-02
   1.58386618e-01 -6.25642203e-03  8.89020134e-03  3.31896126e-01
  -1.99341267e-01 -3.02958358e-02  1.88644618e-01 -3.09787393e-01
  -1.08622454e-01  2.95542896e-01  1.79436058e-01 -5.71467467e-02
   1.99562222e-01  4.19378057e-02 -2.20116705e-01  3.43781322e-01
   2.28859365e-01 -1.92986295e-01 -9.13027301e-03  3.73862609e-02
  -8.17506295e-03 -1.66125163e-01  3.19537699e-01 -2.13037264e-02
  -3.57136488e-01  1.36828586e-01 -1.91174850e-01  2.18849227e-01
  -8.27679262e-02 -1.37557372e-01 -2.83102721e-01 -6.90157246e-03
  -2.34003857e-01  2.84916103e-01  6.14382550e-02  2.65562385e-01
  -2.72182047e-01  1.33061670e-02  1.28473146e-02 -1.53836116e-01
  -9.11222696e-02 -2.65589934e-02 -3.07906449e-01  1.74755141e-01
  -7.33356476e-02  1.17527895e-01  8.86498168e-02 -1.50522217e-01
  -4.96243015e-02  2.71308124e-01 -2.53913105e-01  4.30541545e-01
  -2.41659582e-01  1.54538721e-01 -4.21355106e-02  2.94240061e-02
  -1.34193569e-01  1.51967883e-01  1.90984264e-01 -1.55070245e-01
   7.47122467e-02  4.37274992e-01  3.20583671e-01  8.86053964e-02
   2.80140340e-02  7.76944961e-03  2.77224034e-01  1.29653648e-01
  -2.32961014e-01 -5.61164580e-02 -2.06860200e-01  1.22148469e-01
  -1.72601551e-01  2.27561891e-01 -1.25951448e-03 -2.50470996e-01
  -2.13037416e-01  3.34739894e-01  3.97137731e-01  4.09078822e-02
  -1.52788113e-03  4.43936825e-01  1.31566688e-01  1.65012375e-01
  -2.55596973e-02  1.41882390e-01 -1.25088528e-01  7.83584639e-02
  -1.72329187e-01  2.15449929e-01 -1.67104736e-01  8.74865502e-02
   9.38600302e-02 -8.16596299e-02 -1.19392976e-01  8.31482038e-02
   4.69255373e-02 -1.96575243e-02 -1.07645541e-01  2.09437143e-02
   2.07108676e-01  8.38332698e-02 -8.63455385e-02  2.40617216e-01
  -1.12811029e-01  1.48927793e-01 -2.01787740e-01 -5.86522855e-02
  -2.22075973e-02  2.58807778e-01  6.82289824e-02 -2.63940215e-01
   3.46747309e-01 -6.06819838e-02  2.64394760e-01  4.28205341e-01
  -8.62001851e-02 -1.87095091e-01  4.39947307e-01 -3.53052989e-02]
 [ 6.95502982e-02 -7.62878451e-03 -1.47110552e-01  4.08841856e-03
  -1.21877186e-01 -1.79000750e-01 -3.79278809e-02 -1.38107866e-01
   1.12449005e-01 -1.15605779e-01 -4.05816697e-02  2.81374574e-01
  -1.88534986e-02  1.54103979e-01  3.07596087e-01  3.48231457e-02
  -5.21788560e-02  7.32236981e-01  6.03470840e-02  6.76986873e-02
   4.14131321e-02  1.29097234e-02 -6.98482320e-02  7.08410889e-02
   3.54017377e-01  5.03893420e-02  2.09513888e-01 -5.35267517e-02
  -3.43659855e-02 -9.91550535e-02  6.09789550e-01 -1.19904779e-01
  -1.88441738e-01 -8.25088173e-02 -9.66856033e-02 -2.34409437e-01
   5.50499856e-02  1.61917806e-01 -1.06178850e-01 -1.09452218e-01
   4.27972451e-02 -8.10499769e-03  1.95445985e-01  1.28554866e-01
   1.38160244e-01  9.19048116e-03  2.49947440e-02 -1.65095419e-01
  -6.06614985e-02 -1.15527198e-01  8.85324627e-02 -1.03293844e-01
   1.91593453e-01  3.85506898e-01  1.31591842e-01 -2.40580942e-02
  -6.68375865e-02 -1.06187932e-01 -1.91662461e-01  1.30320445e-01
  -3.89140658e-02  2.00626194e-01 -4.30608988e-02  2.75694013e-01
  -9.81699154e-02  1.74429759e-01  2.01623723e-01 -3.37879062e-02
   3.45643163e-02  8.84423405e-02  2.25274071e-01  2.38699652e-02
   1.14728510e-01 -1.25731215e-01  5.06199896e-01  5.69888838e-02
   9.18717962e-03 -6.89662807e-03 -2.47487545e-01  3.99715453e-02
  -1.19179808e-01  5.78789473e-01  2.14458823e-01  1.97512075e-01
  -4.67690825e-01  5.17903268e-01  2.22169146e-01  6.90316036e-02
   1.10054590e-01  4.37188298e-01 -2.81480104e-02  2.05535248e-01
  -8.09989274e-02 -6.02713451e-02 -1.46246329e-01 -1.99397057e-01
  -4.23426718e-01  4.18720469e-02 -1.02431633e-01  4.57987726e-01
  -7.23287240e-02 -9.55342054e-02  1.51661083e-01  3.36875357e-02
   1.59595966e-01  1.69681218e-02 -1.15162931e-01 -4.67633978e-02
   5.54045178e-02  3.08767766e-01 -1.37331799e-01 -1.61435723e-01
   8.11918452e-02  4.66808379e-02 -1.28035158e-01 -8.86268988e-02
   1.21272452e-01  1.79341793e-01 -3.01675480e-02 -3.17843199e-01
   4.15134102e-01  5.70654869e-02  2.33941972e-01  2.91828454e-01
   1.49276718e-01 -1.31321490e-01  3.65925074e-01  4.11399044e-02]
 [ 1.03740625e-01 -2.19669655e-01 -1.60936341e-02 -2.83019364e-01
  -2.17246071e-01 -1.30971432e-01 -1.63632438e-01  2.24721208e-01
   1.44805625e-01  2.98249573e-01 -4.01068777e-02 -2.25736834e-02
   3.15635204e-01  3.16064209e-01  7.45225251e-02  1.78904593e-01
  -2.03272119e-01  9.62447047e-01  4.07823592e-01 -9.21192989e-02
  -1.48386851e-01 -3.40991855e-01 -4.50246185e-01 -3.11045051e-01
  -2.12342829e-01 -2.41416723e-01  3.34519774e-01 -6.02032803e-02
   9.09683332e-02  5.59422411e-02 -1.58527821e-01 -3.87255698e-01
   9.19311494e-02  4.46132012e-02 -3.68822128e-01 -1.58032149e-01
   3.39462459e-01 -8.87214169e-02 -6.36932254e-02 -8.47081691e-02
   3.58376890e-01 -1.23590864e-01  5.02506971e-01 -1.82427719e-01
   2.98635960e-01 -4.97095985e-03  4.46569622e-02 -2.54672170e-01
  -6.76724836e-02 -3.29841524e-02  1.90767705e-01 -3.76757920e-01
   9.50212330e-02  3.34132522e-01 -1.15376987e-01  2.60787725e-01
  -1.41567081e-01 -2.63933897e-01  2.02370554e-01 -1.45077929e-01
  -2.17458159e-01 -5.50984919e-01 -3.43536697e-02  2.86805898e-01
   3.75540964e-02  2.92224735e-01  8.06929693e-02  1.61366433e-01
   3.84376884e-01 -1.98941067e-01  1.34922385e-01  1.11366948e-02
   2.20298439e-01 -1.82076454e-01  5.72483242e-01 -1.60251275e-01
   1.57019243e-01 -4.33349498e-02  4.25570488e-01 -3.49264145e-01
   3.90431017e-01  5.42899251e-01  2.02817023e-01  3.37170005e-01
  -6.56383336e-01  5.58874011e-01  1.21340722e-01  3.16097617e-01
  -8.44905600e-02  3.57534379e-01 -2.59205550e-01  2.53576189e-01
   3.62299979e-01 -1.47166103e-01 -1.82355732e-01 -4.12274837e-01
  -5.29705703e-01 -2.51933277e-01 -3.75666082e-01  2.78697670e-01
  -4.48398948e-01 -4.69853617e-02 -9.61893355e-04 -1.01873770e-01
   4.82414335e-01  8.88815075e-02  4.07410979e-01 -6.27131388e-02
  -1.37981728e-01  3.89935642e-01  6.94711730e-02 -3.21959257e-01
  -2.18985532e-03  1.25004053e-02 -6.43194169e-02  6.78293183e-02
  -1.32279605e-01  4.77735639e-01 -7.94137269e-03 -1.23563007e-01
  -3.83812815e-01  5.04844561e-02 -1.03399284e-01  2.66304184e-02
   2.73384362e-01  3.73159409e-01  2.28829816e-01 -1.58054575e-01]
 [-1.21802226e-01 -1.29669234e-01 -1.47074968e-01  2.94704139e-01
   5.58215082e-01 -1.09267913e-01  2.23198216e-02  3.12757134e-01
   1.78314194e-01  3.32557350e-01 -2.63602789e-02  2.12381080e-01
  -2.55062014e-01 -2.60927826e-01  1.78966239e-01 -1.75905284e-02
   7.10748741e-03  5.79373300e-01  4.97361362e-01 -4.83771533e-01
  -7.41362125e-02 -1.76507398e-01 -4.08739328e-01  1.69237465e-01
   8.33472982e-03 -2.56345898e-01  3.80326658e-01 -1.65382445e-01
   4.41941284e-02 -1.33032128e-01 -1.36616612e-02 -2.46631056e-01
  -3.09235185e-01 -3.11811119e-01 -1.41041175e-01  2.24810183e-01
  -4.87494737e-01 -7.04123199e-01 -6.82920367e-02  9.53227133e-02
  -4.90372889e-02  5.05521119e-01  6.00971341e-01  2.88695991e-01
  -3.52996498e-01 -4.61545661e-02 -7.17289373e-02 -3.20107132e-01
  -2.78810859e-01 -8.92761424e-02 -6.70572400e-01  1.60911053e-01
  -8.32759216e-03 -8.38079304e-02 -1.99528322e-01 -4.01308089e-01
   3.20970565e-01  1.43188849e-01  4.64666843e-01 -6.44553304e-02
  -3.94134343e-01 -3.43345016e-01  1.22828618e-01 -8.61992091e-02
  -6.90650418e-02 -1.42263293e-01  2.97556724e-02  1.35793850e-01
   3.93749714e-01  2.19494358e-01 -3.48016657e-02  1.64874256e-01
  -3.51275295e-01 -2.52133906e-01  6.59529209e-01  5.12700915e-01
  -3.11978012e-02 -2.03366771e-01  4.68624026e-01  1.66281879e-01
   3.31540078e-01  6.21930182e-01  1.42916366e-01 -6.31699085e-01
  -4.29651588e-01  5.26816368e-01  7.19611049e-01 -1.15146667e-01
  -2.18263716e-01  4.53842014e-01 -1.11381695e-01 -1.89311609e-01
   2.30949774e-01  3.00188571e-01 -3.14919412e-01  3.91603976e-01
  -4.25615847e-01  1.16096228e-01 -3.10451001e-01  1.53990179e-01
   9.81093124e-02 -1.12184696e-02 -3.37638855e-01  1.15850367e-01
   4.72485781e-01 -2.68408395e-02  1.93231598e-01  6.65673614e-02
   1.92364499e-01  1.07875749e-01 -6.18847506e-03  1.06698669e-01
  -1.74786046e-01  2.09312439e-02 -2.32505709e-01  1.22269526e-01
  -1.08332321e-01  3.96942526e-01 -5.42637929e-02 -2.12092549e-01
  -2.11299255e-01  8.03775862e-02  3.86779457e-01  1.51750728e-01
  -2.24096164e-01  3.48904461e-01  3.90346140e-01 -3.39478403e-01]
 [-2.37997055e-01 -9.17067677e-02 -1.79510295e-01  2.57359475e-01
   1.79481462e-01 -6.53856918e-02 -7.32172802e-02  2.10719332e-01
   4.96389009e-02 -3.38718951e-01  7.04316944e-02  2.50140637e-01
  -1.86211795e-01  7.18528498e-03 -6.85867518e-02 -1.87862124e-02
   5.36347777e-02  2.27826566e-01  2.57078946e-01 -6.44844949e-01
  -9.95280445e-02  9.60105658e-02 -3.11763167e-01  4.72823054e-01
   2.24727824e-01  1.59609869e-01  5.44646263e-01 -1.44803926e-01
  -3.29667553e-02 -4.12092656e-01  3.31770092e-01 -2.61736691e-01
   4.76258062e-03 -4.13069218e-01  3.70979100e-01 -6.24524578e-02
  -4.42131132e-01 -3.60753447e-01 -5.66303451e-03  2.41108671e-01
   1.72877923e-01  2.99477845e-01  4.11716729e-01  4.59215999e-01
   1.01540625e-01  1.79010611e-02 -8.40137526e-02 -3.79608840e-01
   8.31378624e-02 -1.15440451e-01 -2.96508729e-01  1.01189986e-02
  -2.19338797e-02  1.92780253e-02  9.09501687e-02 -2.05372646e-01
   5.53184211e-01  3.64822000e-01  2.31271997e-01 -4.84236240e-01
   2.92309709e-02  2.13031560e-01  4.06773984e-02 -1.06519787e-03
  -2.45874003e-01  1.15297578e-01  3.26456465e-02  1.65041760e-02
   6.39740452e-02  1.46478817e-01  3.10218073e-02 -2.71503150e-01
  -1.27696708e-01 -3.44968200e-01  3.83950979e-01  5.22433937e-01
  -2.09446196e-02 -5.54255694e-02  2.96439052e-01  3.83040681e-02
  -1.01161607e-01  5.91231167e-01  4.09970760e-01 -3.86962116e-01
  -1.45394534e-01  1.86367467e-01  3.45969796e-01 -7.34228492e-02
   2.76215434e-01  3.13667059e-01  4.00955081e-01 -2.52826393e-01
  -2.74785846e-01  2.56509960e-01 -4.28083718e-01  4.83443052e-01
  -3.75544846e-01  3.16568494e-01  4.17641342e-01  2.68583804e-01
   5.63310087e-02  2.48208689e-03  1.89836591e-01  1.59816682e-01
   1.82487026e-01 -1.35746831e-02 -2.71397620e-01 -3.59637812e-02
  -7.00205788e-02  3.39772440e-02  4.99950610e-02  1.47043884e-01
  -1.56337649e-01  7.30367377e-02 -3.83014709e-01  3.07844818e-01
   3.59922573e-02  2.18402863e-01 -7.34402910e-02 -1.05107680e-01
   3.31669420e-01 -7.57748354e-03  3.09666991e-01  1.45528659e-01
  -6.36766553e-02 -2.67404839e-02  4.27448720e-01 -1.85461298e-01]
 [-2.03263760e-01  2.62838360e-02 -1.16337650e-01  4.19696957e-01
   2.19475478e-01 -6.79415315e-02  8.34713057e-02  1.29882723e-01
  -2.45752167e-02 -3.80242974e-01  2.23477627e-03  1.34304136e-01
  -1.78792045e-01  3.51576717e-03 -1.13202624e-01 -5.22315055e-02
   1.53349480e-02  1.44396275e-01  1.59169391e-01 -5.96837044e-01
   3.96950208e-02  3.44550341e-01  5.56217544e-02  3.76218587e-01
   4.07329172e-01  1.10550307e-01  2.67640352e-01 -7.81705752e-02
  -4.10384126e-02 -4.65723723e-01  3.42484176e-01 -8.26188475e-02
   7.25701973e-02 -4.13849443e-01  5.17352462e-01 -9.28134844e-02
  -2.72977948e-01 -9.98673365e-02 -7.52932802e-02  2.47473300e-01
   1.74173847e-01  2.82564044e-01  5.33315018e-02  3.00468534e-01
   1.70138791e-01  1.60810258e-02  1.53897433e-02 -2.78552979e-01
   6.34240825e-03 -1.63854435e-01 -2.63489913e-02  6.07828349e-02
   1.12958793e-02  9.86949354e-02  2.75413781e-01 -8.26379210e-02
   3.79553586e-01  2.62968838e-01 -1.36094950e-02 -3.72953564e-01
  -5.55791287e-03  2.22274005e-01  1.31846562e-01  1.94307908e-01
  -1.68313563e-01 -1.26696741e-02 -1.14943407e-01  6.78074136e-02
   7.30563253e-02  3.29598576e-01  1.54071093e-01 -3.79049242e-01
  -1.03240147e-01 -4.42878664e-01  1.80505469e-01  3.98682654e-01
  -2.71562994e-01  8.49077478e-02 -8.87410808e-03  1.02195077e-01
  -4.46862221e-01  5.51581264e-01  4.04799312e-01 -2.10334837e-01
  -3.45863402e-02 -1.48152217e-01 -5.13689891e-02  1.56420037e-01
   2.61642069e-01  3.76037627e-01  3.99715334e-01 -1.13523096e-01
  -1.80206925e-01  3.72481704e-01 -3.96747738e-01  4.93486464e-01
  -4.80751783e-01  4.14009809e-01  5.03052950e-01  2.28301570e-01
   1.92730129e-01  2.93724891e-02  1.51174411e-01  1.05246298e-01
  -2.77692396e-02  6.01596050e-02 -4.54172075e-01  7.63266487e-03
  -7.11642727e-02 -1.54540231e-02 -1.19719125e-01  1.08399622e-01
  -4.60828841e-02 -7.63090029e-02 -3.64936113e-01  1.96989164e-01
   1.17959017e-02  2.21441492e-01  3.48914936e-02 -8.46769661e-02
   7.98163176e-01 -7.70695880e-02  2.04333857e-01  2.25047052e-01
   8.14215839e-03 -1.10949958e-02  3.58196050e-01 -4.88347225e-02]
 [-2.27834447e-03 -1.72240511e-02 -1.68116984e-03  2.49578819e-01
   4.51885045e-01 -6.40019253e-02  2.28543710e-02  8.74209926e-02
   1.05168231e-01  6.94185644e-02  7.87301585e-02  2.78435022e-01
  -2.58429348e-01 -2.84347031e-02 -1.32506534e-01 -1.52035534e-01
   8.25396273e-03  2.41954535e-01  6.62567690e-02 -1.52175352e-01
  -9.53178629e-02  1.89266816e-01  2.95378584e-02  2.88791031e-01
   2.73046464e-01 -3.36909533e-01  3.21227580e-01  2.39513721e-02
  -2.28843074e-02 -2.28832692e-01  2.27784589e-01  2.32070372e-01
  -2.15636030e-01 -7.09672868e-02 -3.66823599e-02  7.32609779e-02
  -1.05532877e-01 -1.97580919e-01 -7.51413628e-02 -1.21150754e-01
  -2.20380381e-01  3.96528125e-01  2.95122445e-01  2.64087439e-01
  -9.93121266e-02 -7.97449052e-02 -8.04801062e-02 -2.14836821e-01
  -4.07389887e-02 -1.32053435e-01 -2.75510132e-01  2.63025407e-02
  -1.55402571e-01  1.34522706e-01  1.39364004e-01 -1.32369101e-01
  -6.55790418e-02  1.15453057e-01 -2.23340839e-02 -1.66957062e-02
  -8.97064656e-02  3.49757751e-03 -1.17586255e-02  6.44414425e-02
  -8.83451998e-02  1.14634216e-01  1.22187801e-01 -7.91522190e-02
  -1.03386089e-01  1.98073670e-01  1.89079165e-01  1.65129587e-01
  -6.01784512e-02 -4.77288812e-02  1.15218848e-01  1.22430804e-03
  -3.16016763e-01  1.79755185e-02 -8.12858418e-02  2.36120373e-01
  -2.73215890e-01  3.12337428e-01 -2.88847014e-02 -2.06285298e-01
  -1.79779962e-01  6.26898184e-02  2.57163256e-01  3.02165151e-01
  -2.69486755e-02  2.16924146e-01  4.16967869e-02  1.42946616e-01
  -1.88605994e-01  1.69953927e-01 -5.28751835e-02  3.75423580e-01
  -4.04766470e-01  3.36910933e-01 -1.46265328e-01 -5.87971602e-03
  -4.99934852e-02  1.57585442e-02 -1.70302376e-01 -2.73065060e-01
  -5.77362627e-02 -1.43757304e-02 -5.55908605e-02  3.23333703e-02
   2.45630920e-01 -2.74929792e-01 -1.69386357e-01  2.71328032e-01
   5.21788225e-02 -8.19802135e-02 -1.95522368e-01 -1.45731896e-01
   1.54871792e-01  2.96841949e-01 -2.14171074e-02 -1.48347039e-02
   5.77819467e-01 -1.10059632e-02  3.68042886e-01  1.86628312e-01
  -1.44553527e-01  8.61497149e-02  1.72514290e-01  3.95068415e-02]
 [-5.84521741e-02  3.98470424e-02 -2.01439504e-02  3.56548399e-01
   3.09319854e-01 -7.84155503e-02  3.88118508e-03 -1.56613156e-01
   1.47022381e-01  2.66574174e-01  9.10291001e-02  3.76641542e-01
  -1.18305907e-01 -3.27889025e-01  2.48013571e-01 -1.42278463e-01
  -1.56688765e-02  2.87017703e-01 -8.38065241e-03  1.32017568e-01
   3.20985802e-02  2.35980853e-01 -5.98284118e-02  2.52146512e-01
   1.30577430e-01 -2.76911587e-01  8.41651559e-02 -3.34369242e-02
   1.61819067e-02 -1.59441665e-01  3.31826657e-01  3.20803463e-01
  -2.82901496e-01  2.33619273e-01 -2.16693655e-01  1.14639871e-01
  -3.83438766e-01 -2.90133893e-01 -9.20345727e-03 -1.05307460e-01
